653 30
solicitud 0.45058972 -0.32940334 -0.4353377 -0.61016786 0.022995608 0.36954248 -0.38887438 0.32457605 -0.286437 -0.098223716 0.5849114 0.0738561 0.232737 -0.5483865 -0.2916407 0.09967756 0.056390826 -0.5534905 -0.5689421 -0.06697845 0.33673596 0.31801116 0.56759745 0.24708013 0.003351565 -0.15169145 0.44472322 0.06311876 0.5430895 0.38549805
informacion 0.29378125 -0.3003676 -0.2545931 -0.353232 0.09048291 0.5481977 -0.38564587 0.40357375 -0.110623114 -0.094522245 0.40768707 0.19066282 0.21557726 -0.2479443 -0.3200034 0.0197098 0.081974015 -0.5155709 -0.59919125 -0.04612145 0.38076448 0.17697462 0.53950256 0.15266965 0.021955358 -0.13870859 0.48174888 0.12399896 0.5462842 0.2928313
semestre 0.2598313 0.3825299 -0.5304655 -1.1884135 0.3987829 0.7330027 -0.70227695 0.096995465 -0.3277518 0.032571282 1.2610371 0.6160014 -0.8264287 -0.9153182 0.1944195 0.27527943 -0.15869838 -0.96559983 -0.5904483 0.17618948 1.2423065 0.3594682 -0.16679546 0.32963535 0.3362761 -0.1541759 0.32606304 0.12838209 -0.008514183 0.08605478
hijo_a 0.15775155 0.06968097 -0.50619584 -0.83285093 0.18314259 0.6627792 -0.32811308 0.2738688 -0.15953575 -0.14803313 0.7826689 0.20900662 -0.187226 -0.7130972 -0.014435547 0.056283716 0.061630778 -0.76787233 -0.6556067 -0.061567124 0.86833143 0.25903097 0.25656614 0.47528023 0.039976783 -0.3717578 0.4938443 -0.018951107 0.18368076 0.2619006
envio 0.19163091 -0.27102944 -0.35839212 -0.2663771 0.05142721 0.5813408 -0.44605884 0.33110037 0.051607337 -0.17912641 0.4008831 0.32456154 0.24553819 -0.086578324 -0.3491036 -0.02114026 0.19305237 -0.34460142 -0.6389304 0.10800897 0.3026197 0.050781228 0.754398 0.24395218 -0.043695923 -0.10068646 0.54035115 0.07518798 0.6137358 0.29731855
formato 0.459358 -0.23041084 -0.05178878 -0.46830383 0.22266386 0.54449475 -0.921528 -0.25604787 0.05994857 0.36050275 0.7043916 0.75877804 -0.17255145 0.2304943 -0.33855727 0.13895613 -0.20937222 -0.44396606 -0.25590864 0.15781118 0.21492156 0.39098415 0.46918783 0.6008051 0.12119941 0.20332056 0.63333595 0.62642336 0.57684654 0.3503407
adjunto 0.27631912 -0.0892912 -0.57419443 -0.4394528 0.16000514 0.6262685 -0.3644589 0.20823571 -0.14251299 -0.06168144 0.5628487 0.40219885 0.048353307 -0.25787312 -0.35801885 0.02164051 0.107229985 -0.5169094 -0.37416694 -0.086176984 0.8741254 0.34176883 0.39399728 0.35693827 -0.040354367 -0.29397592 0.47099817 0.23507184 0.52012587 0.47325835
documentacion 0.23786443 -0.053423192 -0.53036803 -0.597362 0.20117559 0.60532504 -0.32071862 0.22617753 -0.18235382 -0.119052894 0.62474144 0.28613445 -0.06871459 -0.51739097 -0.19864248 0.043667573 0.0400931 -0.5693594 -0.6244873 0.016136633 0.8153361 0.23269074 0.45274124 0.32999104 0.026546253 -0.32945955 0.4370108 0.05270858 0.44054246 0.38224733
beneficiario 0.31676146 -0.02848966 -0.3806315 -0.6927752 0.13570711 0.59055173 -0.4769223 0.15513086 -0.28881264 0.018813929 0.6365858 0.3572415 -0.0307809 -0.51613486 -0.19021854 0.023743503 -0.011917025 -0.63675916 -0.48327833 0.012722446 0.58365893 0.34608305 0.39329913 0.40676442 -0.0042550853 -0.1864493 0.39835554 0.13338463 0.3948649 0.37057105
validar 0.31584015 -0.21690397 -0.1781433 -0.33784717 0.062310424 0.560925 -0.47636276 0.36292583 -0.054132607 -0.07755332 0.42765376 0.2325994 0.17452924 -0.20645745 -0.27821428 0.033861462 0.09686986 -0.4506074 -0.5851235 0.041074764 0.34228328 0.15983413 0.51891994 0.2097296 0.02255887 -0.05425178 0.45188576 0.17397209 0.48419118 0.28248724
acuerdo 0.59023225 -0.28531235 0.1780966 -0.3372808 0.24190553 0.54612654 -1.0409217 -0.26384747 0.098570734 0.3214235 0.7397125 0.9050809 -0.0776578 0.45275393 -0.49083334 0.20268731 -0.3280363 -0.4132684 -0.1809723 0.25735006 0.12612319 0.40513802 0.48046282 0.6370557 0.113459036 0.27921593 0.57049584 0.8025042 0.71546686 0.39095104
kactus 0.4757999 -0.31183895 -0.74811816 -0.3016584 -0.166755 0.391774 -0.35931322 0.34440282 -0.22586596 -0.07885751 0.40576208 0.05080781 0.645468 -0.11436655 -0.54086185 0.0074182022 0.25396964 -0.5008353 -0.5176921 0.06316443 0.41315946 0.3051777 0.70662785 0.14395031 -0.17327383 0.10217599 0.4330856 0.086759776 0.81392556 0.55963427
pago 0.53905886 -0.32667762 0.44806334 -0.075954616 0.2700861 0.6892824 -0.9775608 0.4252182 0.3149996 0.19839324 0.47608387 0.8437482 -0.14591478 0.6261724 -0.4867112 0.29410726 -0.35925123 -0.121893354 -0.63824946 0.27888805 0.37724575 0.028115839 0.404486 0.04679977 0.29174817 0.21237263 0.69361186 0.6457032 0.672696 0.2929283
realizar 0.35539353 -0.3742801 -0.49445954 -0.317091 0.038851544 0.518398 -0.35345277 0.4279118 -0.06855937 -0.1479154 0.51872855 0.04617726 0.34354013 -0.28924507 -0.33413422 0.010461579 0.21929003 -0.44427893 -0.72544533 -0.10589668 0.43890056 0.14960498 0.672132 0.16283008 0.06437947 -0.10127576 0.49539876 0.06883052 0.5873439 0.30281216
pensionado 0.32263553 -0.3037579 -0.1490484 -0.30493698 0.0014746913 0.5599781 -0.43693978 0.42843112 0.004264551 -0.20599304 0.31255162 0.08290091 0.24628146 -0.18675071 -0.17839666 0.0140422005 0.1915038 -0.4351461 -0.7701961 0.04333269 -0.009029787 -0.027173981 0.7358118 0.22639047 -0.005895514 -0.117794596 0.5528273 0.07915606 0.6209273 0.29768375
matricula 0.35184973 -0.04457707 0.16103539 -0.32741272 0.2537754 0.8380766 -0.696377 0.27374676 0.14115511 0.24987292 0.51893187 0.6982901 -0.022019973 0.22606276 -0.4068458 0.14778394 -0.21077473 -0.31113076 -0.38314238 0.24267437 0.69659096 0.2552633 0.18992217 0.34864226 0.16263506 -0.03759221 0.58270174 0.5327821 0.47517866 0.26300377
ovp 0.3034632 -0.25337613 -0.44807622 -0.46233737 0.072090566 0.4857209 -0.36338547 0.2860102 -0.0996281 -0.12385832 0.50380415 0.19696489 0.17835535 -0.39810374 -0.2084465 0.018807206 0.14845708 -0.44012478 -0.6381293 0.055389743 0.32360393 0.15212376 0.5527759 0.27330542 0.008417808 -0.14355679 0.45000198 0.029994793 0.5692985 0.2620049
compromiso 0.59848076 -0.24369235 0.13663918 -0.40427443 0.3072797 0.5584848 -0.98077625 -0.29031307 0.13889964 0.38173923 0.6857144 1.0203668 -0.09545173 0.4327004 -0.45974803 0.24495856 -0.3295755 -0.3628832 -0.21090937 0.24759197 0.12514691 0.519853 0.42707372 0.6651418 0.09099524 0.3435692 0.5959973 0.80827665 0.63895094 0.3451873
saber 0.4851571 -0.49044618 0.11032311 -0.13697344 0.07518306 0.82539254 -0.48858905 0.72389996 0.22025497 -0.20330289 0.25972742 0.24945931 0.41416058 0.017996766 -0.4106842 -0.060381506 0.10556646 -0.2868647 -0.687972 0.1029495 0.15608819 0.0051995767 0.73444766 0.1577162 0.08647669 -0.021397708 0.5587061 0.30776027 0.7006958 0.20017809
beneficio 0.46968797 -0.36623737 -0.3240093 -0.42266223 -0.047734123 0.46127877 -0.4052127 0.4701498 -0.14393553 -0.053424373 0.49196732 0.1469315 0.34295464 -0.23347078 -0.39131746 0.070055746 0.12079954 -0.5310412 -0.565673 -0.08456906 0.43647185 0.30321237 0.6775523 0.23629993 -0.031772327 -0.08688861 0.48699665 0.14461696 0.5060281 0.44238532
tramite 0.2639542 -0.24844511 -0.3119939 -0.360417 0.1037819 0.6776131 -0.36311337 0.48161268 -0.033997457 -0.22163412 0.49849892 0.25255084 0.13726863 -0.3265966 -0.28953284 -0.018025508 0.13507406 -0.5254749 -0.6076728 -0.05887977 0.5934182 0.2133673 0.5707511 0.18809171 0.011087368 -0.2747847 0.47352013 0.08011214 0.483938 0.28545216
proceso 0.37146384 -0.38114372 -0.101522185 -0.2323121 0.11313082 0.6453934 -0.4820551 0.5723221 0.039866384 -0.11745113 0.35216913 0.22277135 0.19302644 -0.21876328 -0.36529782 0.041901916 0.1484727 -0.46612316 -0.6405374 0.030263944 0.37868354 0.11157448 0.6918065 0.12922822 0.0642198 -0.09103553 0.51081187 0.13275617 0.53317493 0.27535522
hacer 0.4867882 -0.4072008 0.026697027 -0.14516047 0.052316755 0.65662915 -0.53672767 0.67530346 0.13299397 -0.15246013 0.42135513 0.08622276 0.34795633 -0.014015175 -0.40240005 0.055485893 0.24541426 -0.4045637 -0.7415597 -0.016043546 0.2985922 0.07387755 0.6834857 0.04696582 0.1297103 -0.015864426 0.6181198 0.19957912 0.53476214 0.24187791
solicito 0.1474611 -0.18140554 -0.25800022 -0.381823 0.18926135 0.70862955 -0.4475284 0.37145942 0.0034276084 -0.11215365 0.5456596 0.21889922 0.013311223 -0.21620226 -0.2853568 -0.037527867 0.00781902 -0.45561102 -0.6658753 -0.07450211 0.6773344 0.1259947 0.44228595 0.27308086 0.006216129 -0.3595133 0.49644732 0.13359249 0.4170549 0.27013394
legalizacion 0.40488473 -0.29732797 -0.19695003 -0.3115453 0.06813878 0.6504699 -0.44770533 0.40558496 -0.046122856 -0.07227047 0.46828258 0.29670352 0.30413675 -0.102415055 -0.43213302 -0.030744903 0.11545728 -0.40647474 -0.60624385 -0.024990957 0.37693515 0.15130094 0.5725539 0.18141131 0.0125733195 -0.0910982 0.52802896 0.20324355 0.5483915 0.32770184
respuesta 0.2350543 -0.33977148 -0.059737466 -0.1472418 0.13020855 0.7141087 -0.40321243 0.55406976 0.08088747 -0.18097645 0.17468949 0.28031364 0.2846253 -0.17448314 -0.48068485 0.006570968 0.06453487 -0.26620838 -0.8150635 0.040012024 0.31482655 0.067077264 0.7995617 0.042234924 -0.04900864 -0.28656396 0.55263114 0.055387508 0.72143674 0.34083927
fecha 0.39818054 -0.524679 0.39864364 0.1712434 0.022043658 0.9449281 -0.58803153 0.82571226 0.31537503 -0.2635131 0.09480397 0.31703612 0.4139067 0.37401018 -0.5832361 -0.0005999722 0.050559457 -0.1860585 -0.92236626 0.098855406 0.058296878 -0.12794092 0.875405 -0.05111806 0.0707904 0.078391105 0.6991986 0.3314188 0.79877275 0.24271475
les 0.38976952 -0.45927444 -0.15522438 0.21760273 0.13691877 0.8883836 -0.37408805 0.5465549 0.25467137 -0.29550368 0.2475606 0.22478488 0.5418387 0.2156525 -0.6462681 -0.0817714 0.22063239 -0.29694593 -0.5644918 -0.0969274 0.4790363 0.06459839 0.7622777 -0.00028433563 0.00777471 -0.1670621 0.5605662 0.29214624 0.73065627 0.289498
error 0.52231085 -0.1895499 -0.50153667 -0.31374636 -0.024363905 0.5930732 -0.47480997 0.3683781 -0.24899009 -0.12784398 0.45646754 0.19327316 0.47921795 0.049198188 -0.50067544 0.036374807 0.085261784 -0.58991486 -0.356559 -0.0010558665 0.7060089 0.27330363 0.52713764 0.15876721 -0.09936809 0.00674813 0.37633556 0.2663681 0.72467786 0.44702956
plataforma 0.4303702 -0.3018318 -0.7535724 -0.25700706 -0.10977615 0.50523555 -0.26770565 0.3933628 -0.18672743 -0.14835352 0.44046175 0.10523415 0.6554332 -0.13693433 -0.5572607 -0.01627386 0.3036415 -0.50369954 -0.5381695 -0.013195409 0.5684706 0.2395353 0.8404689 0.11850104 -0.16228049 0.046695814 0.4503003 0.08701064 0.6794062 0.54012793
beneficiaria 0.20758067 -0.07313768 -0.30889025 -0.5857043 0.112008914 0.6332711 -0.47369936 0.3067513 -0.2030392 -0.11694588 0.5499242 0.19895133 0.036593452 -0.50821394 -0.15877144 -0.008435973 0.02097796 -0.62264675 -0.56993157 -0.016668234 0.58363897 0.24663642 0.40046805 0.3551775 -0.013318762 -0.19823253 0.49469724 0.09942472 0.43859106 0.27148238
formatos 0.30726746 -0.24030596 -0.013286293 -0.3238363 0.21601707 0.7043741 -0.4677386 0.27213004 0.0376353 -0.044725314 0.42424655 0.3387662 0.08244313 -0.13041903 -0.28758264 -0.03969846 -0.03469926 -0.46885207 -0.6234622 -0.053147096 0.4237168 0.14205667 0.60752696 0.3163151 0.0262787 -0.23984958 0.5879868 0.2860262 0.50991863 0.3137839
estado 0.34412766 -0.33040166 -0.1544697 -0.32492173 0.03921086 0.6022668 -0.42177942 0.5282694 -0.012301318 -0.14636831 0.34720707 0.17089091 0.3043264 -0.22350702 -0.3232259 0.02551496 0.11148221 -0.3988818 -0.6167398 0.020224925 0.26278934 0.0925602 0.6506881 0.20061155 0.015689949 -0.15691924 0.45978987 0.18248186 0.5809062 0.27082804
colaboracion 0.06787509 -0.15101713 -0.18987627 -0.36609113 0.2902649 0.8109681 -0.39680257 0.3750721 0.03609241 -0.121511914 0.4894043 0.48637313 -0.22683242 -0.23054102 -0.32353544 -0.044694506 -0.013893912 -0.41231254 -0.7361269 -0.046523873 0.807745 0.081627816 0.40841952 0.17527054 0.12509522 -0.46768248 0.5765918 0.12631732 0.3932934 0.24353701
solicitudndo 0.35151383 -0.28882205 -0.19838086 -0.302024 0.11366347 0.57459736 -0.4502279 0.43199316 -0.06024279 -0.1989207 0.3632701 0.17623655 0.23754166 -0.1896886 -0.2551937 0.025462782 0.14195283 -0.442092 -0.67907643 0.005273757 0.24375212 0.073524706 0.6333723 0.21185885 -0.018335149 -0.16709156 0.500257 0.13896583 0.55430394 0.3121032
primer 0.14362022 0.19164817 -0.51576954 -0.87286025 0.3439185 0.64552635 -0.54298604 0.24924323 -0.026797552 -0.1513468 0.94648 0.4737778 -0.5916175 -0.69442284 0.019040555 0.22671635 0.042393602 -0.70828503 -0.5781072 0.046468683 1.0462312 0.28188774 0.08230432 0.36432278 0.22393124 -0.28953204 0.41864815 0.04524179 0.086311325 0.17382003
documento 0.45141536 -0.16483347 -0.20857632 -0.3685425 0.25787675 0.6852005 -0.51225674 0.26232913 -0.14754577 -0.039994072 0.4173722 0.47826245 0.14643817 0.010713345 -0.47017953 0.12452931 0.0026791957 -0.49347588 -0.3447728 -0.03760664 0.5779385 0.3486287 0.4551822 0.38910228 -0.016539937 -0.1478831 0.32108188 0.3625908 0.6048264 0.3627323
preguntando 0.34600607 -0.25346 -0.07609562 -0.27049464 0.041845895 0.51847 -0.45618588 0.49351603 -0.0014055357 -0.1964019 0.3304946 0.124278374 0.18994093 -0.10499841 -0.20518678 0.052875783 0.17701486 -0.379321 -0.74744755 0.041288983 0.06576512 -0.017104816 0.70250905 0.22516946 0.016765907 -0.13386293 0.5380607 0.17248163 0.54119295 0.31713173
presente 0.10779611 -0.06507044 -0.3403179 -0.46468621 0.21141277 0.6732551 -0.39074224 0.32328895 -0.06419783 -0.16444285 0.5437033 0.33251584 -0.09500832 -0.34240633 -0.230107 0.033512883 -0.053923123 -0.5274919 -0.6981269 0.034257516 0.7996648 0.11425494 0.34887037 0.32076493 0.058002386 -0.2641337 0.5460076 0.12477664 0.4215913 0.21901381
medio 0.24169809 -0.19212213 -0.53818166 -0.30239168 0.0849888 0.5885438 -0.32231033 0.33070278 -0.06623135 -0.14019279 0.43972898 0.21156056 0.2882228 -0.2952501 -0.36346748 -0.0015414802 0.17265548 -0.44784144 -0.551252 -0.055754155 0.5742817 0.18514167 0.6298058 0.1694589 -0.040902685 -0.17902538 0.46990934 0.0277709 0.5756509 0.38490686
opcion 0.8630155 -0.64711046 -0.85053575 -0.17338578 -0.36801165 0.1715898 -0.12363375 0.60402733 -0.14883323 -0.12425673 0.51195216 -0.18542609 0.8322625 -0.28686684 -0.6451995 0.19899252 0.5606138 -0.6821757 -0.62546253 -0.23479253 0.2791952 0.41210726 1.1078311 0.024160244 -0.05832794 0.14371097 0.5275265 0.019485079 0.48343527 0.83594793
dia 0.39987892 -0.4994319 0.13033001 0.042398848 -0.02764909 0.79315865 -0.4353598 0.841752 0.17820238 -0.2747995 0.08039563 0.24636516 0.4795519 0.14246601 -0.55295724 0.04418135 0.11204978 -0.18321633 -0.91287094 0.049901877 0.22777574 -0.08816539 0.7990267 0.046972558 -0.04491324 -0.06356598 0.5703075 0.21925646 0.7187797 0.19102095
muchas 0.11705278 -0.27878314 -0.20722327 -0.29437962 0.18382998 0.7674673 -0.47754207 0.3791544 0.044140257 -0.07712647 0.42072785 0.35817692 -0.07627212 -0.28222468 -0.33449876 -0.031018982 0.04163244 -0.46964875 -0.69662046 -0.017418535 0.57092655 0.13639669 0.5446409 0.17224146 0.106751956 -0.24440113 0.54085654 0.110563785 0.5038902 0.27598822
recibo 0.6286542 -0.1335979 0.25977898 -0.3432498 0.37241638 0.5867622 -0.9680507 0.10019293 0.18165028 0.31683192 0.7658564 0.9518885 -0.31653008 0.51320904 -0.35893816 0.3531315 -0.3786202 -0.30306122 -0.44798464 0.34753895 0.561774 0.17856462 0.15578887 0.21980864 0.31961024 0.2630008 0.65476584 0.76639616 0.5259744 0.33446804
puede 0.43243033 -0.33464307 -0.04404158 -0.18037157 0.014838187 0.6779506 -0.47665098 0.60867286 0.010675981 -0.17709345 0.34846872 0.103398904 0.34907815 -0.039621238 -0.3527377 -0.03500289 0.15722564 -0.37704062 -0.69712657 0.014849694 0.20968959 0.024228983 0.7374171 0.12090621 0.020663016 -0.055500336 0.54639465 0.18070786 0.5994514 0.28480837
herramienta 0.60587335 -0.41011098 -0.5650066 -0.1760152 -0.13319798 0.51391983 -0.377951 0.48379737 -0.16345227 -0.10084177 0.33723074 0.040223483 0.6279615 -0.06546442 -0.6709871 0.07198084 0.25532147 -0.52913266 -0.47684413 -0.06823182 0.42089614 0.33687449 0.8073301 0.07593145 -0.17964512 -0.009213893 0.4679249 0.19011466 0.7612839 0.5330895
atencion 0.09404584 -0.086591825 -0.23258896 -0.27680326 0.23332044 0.839472 -0.4481358 0.38668302 -0.12307604 -0.18138042 0.34747392 0.44082445 -0.16155824 -0.36257538 -0.2834737 -0.09684054 0.01572537 -0.57636696 -0.6696521 -0.09651617 0.77333987 0.12291102 0.60018986 0.11307982 0.079116605 -0.4298786 0.48880363 0.11000353 0.43965182 0.35283414
valor 0.686743 -0.12909797 0.38253066 -0.07782778 0.1893431 0.9045625 -0.8272075 0.4648591 0.16256025 0.4549985 0.5118003 0.6935244 0.28069872 0.71243215 -0.5483003 0.15504687 -0.029653836 -0.17911257 -0.36524078 0.26506814 0.5255857 0.20244724 0.3214935 0.26980639 0.1936534 0.13478895 0.64468056 0.78488386 0.6793456 0.3789083
gth 0.5239709 -0.1790397 0.06795596 -0.5261711 0.17889199 0.588819 -1.0198905 -0.31019852 0.057149682 0.42786404 0.7736982 0.8462219 -0.2808988 0.22136186 -0.2473919 0.13950202 -0.23385116 -0.52299917 -0.28994328 0.15824309 0.20967224 0.5010817 0.4508325 0.69433844 0.14852333 0.22646776 0.69173944 0.7010005 0.5779755 0.38327354
senores 0.1939163 -0.13759075 -0.3871216 -0.49442315 0.2384333 0.66868097 -0.45460722 0.29340458 -0.091750175 -0.09123976 0.61640394 0.30841008 -0.047120932 -0.28395718 -0.2794651 -0.017920554 -0.0047193635 -0.51417965 -0.6088717 -0.010972099 0.6968276 0.17092566 0.45468202 0.3614793 0.039292976 -0.30120546 0.57558113 0.112717256 0.45020565 0.3020555
aparece 0.56645393 -0.47342408 -0.46407595 -0.19076645 -0.097880445 0.44494748 -0.39145726 0.5733825 -0.034747064 -0.13739075 0.39663333 0.0884959 0.5860027 -0.064490125 -0.6241683 0.005524291 0.34344226 -0.4907833 -0.54242873 -0.08725586 0.33171093 0.25780392 0.7755111 -0.009498514 -0.03105226 0.06968452 0.4980555 0.09214645 0.5316394 0.53126603
debo 0.29071993 -0.36485463 0.3231731 -0.14821173 0.102472894 0.88317925 -0.7478115 0.6710992 0.27225587 -0.017506784 0.47924137 0.38964486 0.05876768 0.23075525 -0.35952732 -0.085766025 0.099161685 -0.26620188 -0.7250414 0.08327731 0.3934898 -0.05234441 0.5518223 0.1816723 0.26004648 0.029038057 0.63762915 0.31614715 0.49675098 0.15399304
anterior 0.5227038 -0.185136 0.14991608 -0.20205626 0.23963317 0.6449472 -0.66674614 0.34012318 0.08504293 0.2238859 0.4811982 0.6313882 0.11861029 0.4109211 -0.5990045 0.17149545 -0.2527844 -0.25178367 -0.38773432 0.16994971 0.50430536 0.2570071 0.42762747 0.24789003 0.14347401 0.13750654 0.5232959 0.578569 0.6746204 0.3451613
ustedes 0.23203923 -0.22948529 -0.25645158 -0.13927746 0.17151865 0.8139551 -0.3381923 0.46454164 -0.0005714891 -0.28572068 0.46642384 0.111009456 0.22440004 -0.030487891 -0.37898317 -0.080020845 0.11510132 -0.49864206 -0.6184396 -0.16193445 0.6143352 0.10974679 0.5713952 0.30206478 -0.16789289 -0.3970308 0.5539336 0.20612511 0.47711298 0.20638068
adjunta 0.44685614 -0.066480406 -0.4393526 -0.6210494 0.08918439 0.573999 -0.57752115 0.09543864 -0.34503365 0.08349475 0.6400087 0.34656838 0.070819326 -0.34445256 -0.26452875 0.052173715 -0.021963181 -0.6536245 -0.3439778 -0.001802793 0.6683504 0.39905685 0.3096637 0.36323997 -0.03935064 -0.07811169 0.41694146 0.23624396 0.4808976 0.4120074
fechas 0.28817976 -0.28035006 0.027586054 -0.21451773 0.12017516 0.6936855 -0.52103996 0.50445825 0.1435628 -0.11943798 0.33253628 0.25553465 0.0803565 -0.13324995 -0.28171122 -0.0031403769 0.09457732 -0.37343475 -0.7444188 0.04407129 0.29879022 0.06165389 0.6073405 0.17924355 0.07381152 -0.14836767 0.55706733 0.175436 0.49547508 0.24931584
nuevamente 0.4274663 -0.32425937 -0.17903581 -0.18171106 -0.008492498 0.7744187 -0.37884155 0.41946405 -0.06043324 -0.0054542096 0.25305104 0.31770733 0.56898713 0.13781403 -0.7716282 -0.114411734 0.08302863 -0.31843197 -0.45711744 -0.020090178 0.42007676 0.27220115 0.78778857 0.28833392 -0.16391967 0.017929416 0.47379595 0.3802285 0.72583264 0.4141557
indica 0.44559827 -0.29359466 -0.42700285 -0.40700975 0.068410784 0.5350121 -0.35301346 0.39423004 -0.11342816 -0.12813437 0.46044648 0.19736388 0.2579616 -0.3698328 -0.28073403 0.022434754 0.2184455 -0.46070608 -0.56025445 0.068929344 0.2770029 0.20968224 0.67709684 0.23237276 0.05673417 -0.07054527 0.44948137 0.10233054 0.59099907 0.34994173
crear 0.71444106 -0.54066473 -0.7488017 -0.27866727 -0.2303474 0.26962325 -0.1992662 0.47475168 -0.14721838 -0.13366461 0.45474115 -0.070423625 0.69860345 -0.30309224 -0.62719136 0.15925677 0.45407662 -0.5762454 -0.54558 -0.11794168 0.32461223 0.35237956 0.97238696 0.0037711798 -0.044552278 0.12357757 0.46317226 0.012509071 0.55717117 0.66672575
pdf 0.41026706 -0.1523286 -0.4142324 -0.26903078 0.2215222 0.6301393 -0.49317524 0.04613992 -0.017183619 0.042763744 0.6330707 0.58020866 0.038735796 -0.0017755073 -0.4327759 0.12095594 0.08501579 -0.44010442 -0.36211696 0.042761214 0.68429977 0.31074739 0.41667837 0.21422666 0.08886724 -0.00037404016 0.45560598 0.43294305 0.6094301 0.4385613
hasta 0.36840537 -0.3894112 0.29793495 0.0048738364 -0.01953845 0.8965429 -0.63732105 0.82731205 0.31642365 -0.25092897 0.25012565 0.36802292 0.34484184 0.2955899 -0.4972852 0.07175269 -0.0134464055 -0.20595574 -0.80771154 0.11267001 0.17421259 -0.059802335 0.7056671 0.06662615 0.07197503 0.0997558 0.6297458 0.2659537 0.6150898 0.14480226
he 0.51461995 -0.48052138 0.09186355 0.17397296 -0.033776715 0.76085865 -0.3817571 0.81889415 0.21323341 -0.29293185 0.087954275 0.1378001 0.68358415 0.22850491 -0.70876443 -0.030128296 0.24559425 -0.24987829 -0.7435654 -0.034216706 0.39524597 0.0057058535 0.92157674 0.02281397 -0.07679127 -0.07995332 0.56598514 0.30734628 0.82092834 0.5104025
llego 0.3955884 -0.39097908 -0.05313905 -0.21478689 0.033929 0.6631285 -0.46269125 0.5506971 0.058021657 -0.18633269 0.29148364 0.2902998 0.33957303 -0.04482312 -0.31970948 0.020897746 0.16296554 -0.25448915 -0.665787 0.030392392 0.18410172 0.0050472617 0.6249297 0.13525937 0.06556629 -0.08562747 0.49586836 0.19877294 0.6387731 0.17480335
noviembre 0.4701889 -0.48669693 0.23032655 0.030728739 0.056868784 0.9653079 -0.51785296 0.72552216 0.15747505 -0.18362568 0.14349544 0.3893853 0.41150847 0.20766461 -0.5010003 -0.055660427 0.009395882 -0.27609634 -0.6134723 0.02724596 0.4119811 0.07442227 0.6115781 0.19979744 -0.063720286 -0.15050103 0.49003118 0.34145793 0.71277666 0.2336028
tiene 0.4530233 -0.36924994 -0.06467071 -0.18512599 0.070021 0.72649145 -0.5097642 0.4317358 0.022677008 -0.13224438 0.3406376 0.2988696 0.40040743 0.10826387 -0.53197235 -0.06898432 0.085880905 -0.34717548 -0.56765485 0.057437368 0.24297386 0.08058596 0.65240824 0.1910525 0.014198193 0.05331455 0.5611482 0.25422096 0.6880796 0.31097645
encuentra 0.46624902 -0.13927329 -0.57443243 -0.6719605 -0.046294577 0.42533928 -0.3094103 0.25452432 -0.18190199 -0.039225414 0.69266605 0.3137606 0.16631274 -0.56428593 -0.18015239 0.14301714 0.23722911 -0.6637704 -0.5219161 -0.0055612805 0.44657025 0.37320134 0.6397196 0.3564903 -0.011802809 -0.06511021 0.4594498 -0.010972336 0.3212911 0.3324938
registro 0.16092415 -0.082125686 -0.55270755 -0.5567422 0.20883861 0.6505069 -0.38811958 0.20244233 -0.19721018 -0.05671419 0.55198425 0.37110272 -0.12777579 -0.4715902 -0.22723702 0.05655163 0.07377827 -0.6514107 -0.5719105 -0.0052767894 0.73282266 0.25921768 0.41535723 0.2970008 0.025737517 -0.29733232 0.4351109 0.056075685 0.4458534 0.4057134
enviado 0.5357467 -0.321137 0.09476191 -0.028354082 0.09851412 0.89096934 -0.5101454 0.47703263 0.03427718 -0.1185124 0.28220966 0.41235718 0.4155021 0.29946205 -0.45164162 -0.029340671 0.018867148 -0.3567589 -0.45158204 0.024624467 0.56794494 0.11065853 0.56887484 0.32890838 -0.12817065 -0.17004564 0.36066 0.4388173 0.74165463 0.38239303
informa 0.45422766 -0.31061128 -0.25628594 -0.27927828 0.04262201 0.52514863 -0.45708808 0.45013207 -0.05790557 -0.099857934 0.33358163 0.24125858 0.28034446 -0.1177857 -0.34790397 0.016124858 0.115246914 -0.40050396 -0.56813806 0.015793247 0.23836288 0.09267795 0.66693395 0.21881965 -0.029857099 -0.04916632 0.46505955 0.19197565 0.64776754 0.3588983
grado 0.17602257 0.34188363 -0.38949293 -1.1186242 0.13760328 0.7716788 -0.5416841 -0.030461859 -0.41225767 0.028330231 0.9171464 0.54374355 -0.40791833 -0.94051707 0.1801294 -0.118518904 -0.2006818 -0.92432886 -0.48655802 -0.077396676 0.9188261 0.46045834 0.3609656 0.62591624 0.08812846 -0.2824057 0.47651207 0.035355266 0.13136266 0.33312348
muy 0.19699156 -0.14179046 -0.30151454 -0.3264673 0.16362888 0.6525656 -0.4537224 0.4371741 0.047117192 -0.1597329 0.5683853 0.32827386 -0.09871692 -0.2383406 -0.25308347 0.049050637 0.040288333 -0.4346643 -0.76781094 -0.0020927703 0.8022787 0.15289411 0.43879294 0.18230005 0.10811449 -0.39756078 0.5087892 0.10488112 0.445115 0.24636398
cargar 0.47252896 -0.32516158 -0.44390652 -0.20018147 -0.06553058 0.5224761 -0.32791856 0.49143988 -0.10431008 -0.06667985 0.3268734 0.08073721 0.4958714 -0.037079107 -0.5286194 0.011160748 0.25084746 -0.46293887 -0.592562 -0.019237349 0.34626713 0.19598326 0.7601661 0.10279719 -0.06799975 0.0001416395 0.48486146 0.16975573 0.7255701 0.44930565
sistema 0.47347823 -0.24749205 -0.406077 -0.29627624 0.009392338 0.54718786 -0.34444475 0.49166673 -0.21025231 -0.0896096 0.41837773 0.15750001 0.47686848 -0.17181313 -0.5114562 -0.032763314 0.16379325 -0.45887148 -0.566288 0.02483744 0.55956113 0.22338723 0.5626391 0.0640533 -0.079555854 0.003281723 0.4127284 0.20319954 0.68451715 0.42018253
posible 0.47618222 -0.44025147 -0.35516405 -0.057250373 0.0010343464 0.6362004 -0.5690895 0.38928905 0.04628516 -0.059409145 0.37575626 0.28292033 0.36037686 0.031354062 -0.5034328 0.015905386 0.07402457 -0.4153412 -0.54563767 0.011515175 0.3639756 0.18436812 0.64686185 0.06158489 -0.10766168 0.08559522 0.51514024 0.2560738 0.72121507 0.40514472
pantallazo 0.54499125 -0.30417076 -0.6595563 -0.37210292 -0.13245244 0.45511085 -0.31937116 0.36682624 -0.2700259 -0.10689212 0.4373881 0.04273084 0.51932734 -0.22917432 -0.5043627 0.037710264 0.26903445 -0.58330065 -0.46972063 -0.08697792 0.6141597 0.3329614 0.6753045 0.13971454 -0.15825582 -0.04647038 0.37223342 0.1105001 0.6142837 0.60158116
cuando 0.44131735 -0.3686867 0.03447134 -0.1630638 0.036750592 0.73056746 -0.5195981 0.6630932 0.035241332 -0.18625744 0.35005724 0.22587258 0.41896486 0.00333505 -0.4355118 -0.032963075 0.17017043 -0.4274343 -0.75374395 0.019188004 0.21614726 0.06372268 0.728158 0.05610885 0.038122658 0.03599413 0.49273992 0.2253049 0.5827309 0.27024588
formulario 0.3399186 -0.1340176 -0.019277792 -0.43203548 0.21383059 0.721684 -0.76527655 0.06615909 0.07445769 0.21867807 0.6909999 0.6083882 -0.1690475 0.058820873 -0.2282129 0.037478484 -0.12759708 -0.45944762 -0.4659406 0.06903862 0.42524844 0.23451328 0.4487992 0.5093932 0.17240827 0.054233637 0.60206777 0.44811353 0.4788151 0.21818134
estoy 0.3864869 -0.107154824 -0.24420528 -0.4562509 0.13733073 0.6647515 -0.57254946 0.31021506 -0.027711175 -0.008350146 0.64354914 0.46230993 0.06426092 -0.1892523 -0.32029432 -0.098667555 0.08413142 -0.5508522 -0.56670845 -0.027413543 0.5824611 0.2637458 0.4625353 0.22005516 0.04004493 -0.21567222 0.59162456 0.16058616 0.38961563 0.2630973
yo 0.46308586 -0.3540694 0.10977465 0.054651197 0.20595665 1.0288678 -0.50524896 0.5990484 0.19223619 -0.2821247 0.23870772 0.27126533 0.3920619 0.2801658 -0.5941971 -0.15640576 0.17464347 -0.288146 -0.74745196 -0.059347894 0.38715374 -0.050957266 0.71402425 0.07243946 -0.10294099 -0.11418754 0.590581 0.4021023 0.70915157 0.19898485
sus 0.17958477 -0.14130932 -0.1729678 -0.33130395 0.1483427 0.8781035 -0.43459964 0.4526941 0.02947674 -0.12959538 0.426482 0.45613876 -0.07246062 -0.32609224 -0.30113187 -0.14501064 0.18028787 -0.43474397 -0.66572857 -0.08820092 0.47569892 0.17639768 0.59424037 0.20647451 -0.02519246 -0.33110237 0.48702967 0.18726598 0.4637716 0.26014513
dice 0.45071203 -0.14070137 -0.09221613 -0.28679514 0.08536507 0.7105711 -0.595706 0.47101456 0.005468629 -0.16905074 0.47740984 0.38483432 0.15947025 0.07391299 -0.27786022 0.056044918 0.1333782 -0.44978532 -0.6404399 0.14732839 0.3704043 0.09045718 0.5156812 0.11620211 0.092538044 0.02649754 0.43147475 0.22020288 0.51833636 0.27247036
cerca 0.33280277 -0.27427483 -0.20512961 -0.3817707 0.047305293 0.544991 -0.40432626 0.2904836 -0.119385205 -0.130203 0.46137995 0.20028704 0.11835664 -0.30672798 -0.21967946 0.0011386791 0.08317537 -0.45036265 -0.61639816 -0.014506231 0.36609513 0.10938609 0.61109453 0.22200046 0.07213546 -0.08547254 0.4796338 0.112770945 0.50498486 0.25747028
solicituddo 0.31623197 -0.19009575 -0.16108054 -0.29689834 0.15922813 0.70049745 -0.5577365 0.41194502 -0.06283804 -0.05342268 0.40988055 0.3490821 0.087860785 -0.13711984 -0.34558344 -0.037151624 0.015877802 -0.44814676 -0.5956491 -0.007793027 0.4772285 0.15629463 0.51518434 0.19230337 0.036968358 -0.1661136 0.44671834 0.25511128 0.61984724 0.36817932
archivo 0.5851647 -0.17055444 -0.17115521 -0.1606372 0.25981793 0.69738793 -0.5810765 0.019322101 0.076621525 0.016000329 0.6242213 0.7162988 0.21007007 0.3998027 -0.60289544 0.11882825 -0.09373057 -0.38574326 -0.20101494 0.2094812 0.7294465 0.32587233 0.37805736 0.24392374 0.094073065 0.103408135 0.54059327 0.63153225 0.73492885 0.4829787
desde 0.57265204 -0.4359984 -0.10075096 0.06797134 -0.062259194 0.7596247 -0.40667298 0.6626567 0.14444864 -0.19045089 0.2032926 0.17514698 0.6027401 0.15062445 -0.5547226 0.01724507 0.2673984 -0.3132151 -0.66884434 -0.073224075 0.32982302 0.08165572 0.83522755 0.100515515 -0.111982696 -0.029411009 0.5328528 0.26368988 0.755323 0.43919846
poder 0.2886536 -0.3943139 -0.08250781 -0.09370947 0.13312757 0.7086736 -0.5176261 0.5120087 0.10388189 -0.06922057 0.38736576 0.24167106 0.21260661 0.01237263 -0.5204991 0.0077945692 -0.016448071 -0.37545 -0.6518196 0.053562053 0.44489256 0.13167925 0.53558147 0.17881516 0.025660437 -0.09041736 0.55281997 0.23256189 0.67539257 0.32230884
adjuntan_soportes 0.34274754 0.09814128 -0.33978486 -0.87701344 0.2285551 0.6862767 -0.5596885 0.016489346 -0.3953148 0.054297913 0.6941547 0.24012177 -0.21494818 -0.7272025 -0.17808728 0.0042223395 -0.110241845 -0.8096217 -0.39067695 -0.04049462 0.6801144 0.3871144 0.22802818 0.2888975 0.0008539653 -0.08137597 0.38023612 0.13220093 0.32983124 0.25968114
necesita 0.40628648 -0.28060794 -0.056880217 -0.26372868 0.08661373 0.6120734 -0.4866337 0.4701351 0.04864246 -0.064108595 0.39911342 0.2525951 0.19487286 -0.07167658 -0.2531712 0.08124211 0.12205491 -0.3770011 -0.5858905 0.054436084 0.28008345 0.08797789 0.5156452 0.19429839 0.07596454 -0.047422916 0.47051752 0.22080919 0.50311536 0.2452775
hoy 0.43479693 -0.5504507 0.0839699 0.18068585 0.033495028 0.8293057 -0.42249417 0.88590693 0.25335002 -0.31433868 0.020762688 0.29137653 0.6137097 0.30827948 -0.62676156 0.046342272 0.19589654 -0.107105054 -0.85848165 0.06540049 0.2514234 -0.040508226 0.762023 -0.00036377972 0.022701459 -0.053141065 0.54186976 0.33384132 0.79623765 0.27012047
puedo 0.21673335 -0.2747304 0.0073409677 -0.21813351 -0.010616782 0.8168027 -0.6248482 0.54450995 0.2890984 -0.22170088 0.3882549 0.36290798 0.28613922 0.048034687 -0.43046728 -0.23911202 0.2651845 -0.32967058 -0.745408 0.09335199 0.31541172 -0.0957263 0.7833303 0.113487355 0.055490155 0.109697126 0.73231035 0.109143995 0.52276665 0.1305249
andes 0.051865023 0.24452785 -0.6954973 -0.98122984 0.48076218 0.86030513 -0.56456953 0.2538007 0.0028690367 -0.057561863 1.054593 0.7128741 -0.7410587 -0.5316023 0.054084122 0.102671504 0.082632564 -0.5917368 -0.6394198 0.09972159 1.2883295 0.107049674 -0.12161845 0.4007361 0.4045347 -0.2999523 0.59995157 0.15751503 0.05828639 0.09109198
primaria 0.29164648 -0.03199968 -0.07833727 -0.6176724 0.13022979 0.77779937 -0.53832805 0.25972742 -0.10414752 -0.07328313 0.58529264 0.37138045 -0.05659274 -0.40678385 -0.11576846 -0.07766372 -0.04148188 -0.5798221 -0.5740207 -0.10551589 0.6055485 0.3106229 0.45589837 0.47969016 0.050758544 -0.2290938 0.51645625 0.13433939 0.2986351 0.26488963
ayuda 0.3234126 -0.3582285 -0.043590143 -0.09390721 0.093448244 0.7171587 -0.42763078 0.51341295 0.08693392 -0.17779692 0.47391096 0.24812502 0.19888362 -0.08061731 -0.3855638 0.024311138 0.16019846 -0.43416262 -0.6616114 0.05260265 0.46853122 0.07451493 0.58524704 0.14475058 0.069317 -0.082290165 0.5315024 0.26386794 0.5381483 0.30910635
mas 0.2201398 -0.36817598 0.060820382 0.03366596 0.2375013 0.8404214 -0.70367867 0.5171534 0.17116883 -0.15915477 0.3185654 0.5052786 0.350278 0.24687088 -0.667729 -0.18168999 -0.0045062527 -0.26076502 -0.6212715 0.15347646 0.4342942 0.001818536 0.67763186 -0.044634756 0.010073683 0.008057302 0.63001937 0.26058897 0.69690657 0.16393937
rechazo 0.46985817 -0.27561918 -0.023842962 -0.19063936 0.13213478 0.6796789 -0.47121808 0.46245366 -0.007990396 -0.10065929 0.34061638 0.3459347 0.35868818 0.06772967 -0.5029197 0.0030969926 0.1117459 -0.38493243 -0.5283722 0.01705686 0.30364612 0.09966887 0.5999208 0.20846294 -0.02253014 -0.084780045 0.4906131 0.32920238 0.64310473 0.26437664
quedo 0.29910043 -0.29092935 -0.22167943 -0.15752535 0.05857277 0.7430218 -0.43967882 0.47284704 0.012397448 -0.10795363 0.2642535 0.33732098 0.5002763 -0.06507494 -0.57121104 -0.18471068 0.21338338 -0.25817385 -0.671058 0.104491755 0.40918082 0.07189132 0.7298046 0.08087145 -0.09065104 -0.03428361 0.6009721 0.22131823 0.8292862 0.36136478
quisiera 0.50888634 -0.5337409 0.5328381 0.056131676 0.08990557 0.9296512 -0.62908715 0.87996304 0.3127867 -0.16178562 0.1931238 0.4108748 0.5270235 0.3971658 -0.6460837 -0.035832383 -0.0121400915 -0.14715031 -0.6182098 0.1075943 0.33136442 0.0012441247 0.60495377 0.11754697 0.13053674 -0.014265485 0.62113446 0.44922885 0.74813575 0.07308692
va 0.24243024 0.046233296 -0.26894948 -0.6430408 0.19990778 0.7308396 -0.4949014 0.33557823 -0.09293234 -0.094545946 0.6818626 0.36971122 -0.19141376 -0.45235297 -0.1014382 0.048343785 0.03450996 -0.5466118 -0.60111356 0.09648762 0.7724956 0.13969858 0.3450082 0.25526565 0.18742286 -0.13195395 0.48560545 0.07879158 0.31441858 0.20527229
pedir 0.25401312 -0.2542964 -0.18666866 -0.25019342 0.10985304 0.7692126 -0.4497931 0.47417223 0.011845127 -0.15663446 0.40792397 0.20505027 0.13251105 -0.17099872 -0.24485354 0.015393519 0.13087761 -0.38793552 -0.6890833 0.053770237 0.44540802 0.057473153 0.52661526 0.2269631 0.05760766 -0.10816528 0.48198196 0.17673795 0.4951006 0.344388
cursar 0.12850662 0.40279338 -0.5783124 -1.1672368 0.3614416 0.77461034 -0.5129222 0.10536429 -0.30808643 -0.08743215 1.1095164 0.5628801 -0.6723626 -0.9602234 0.2240995 0.13913932 -0.1223863 -0.91554314 -0.63635075 0.0313518 1.3268903 0.37328663 0.07171892 0.45274946 0.2767018 -0.32751486 0.4276288 0.039515242 0.06649755 0.1914229
periodo 0.45023543 0.015102362 -0.06856255 -0.44690457 0.25293106 0.7680708 -0.64972603 0.19565965 -0.035631564 0.18102495 0.60755974 0.61144835 -0.1937167 0.027673371 -0.26266062 0.101998515 -0.156926 -0.5101643 -0.45883375 0.025028758 0.652271 0.18900567 0.2170214 0.29861847 0.18515214 -0.06748963 0.42964888 0.43463826 0.48345548 0.36170906
pueden 0.3969606 -0.44523403 0.014900549 -0.16808194 0.14989161 0.76311415 -0.65183276 0.28639978 0.22733147 -0.0998144 0.39404494 0.48950633 0.22256815 0.13056262 -0.4339314 -0.15283065 0.21620591 -0.36729547 -0.5364924 -0.012241438 0.17569837 0.054275565 0.81161124 0.2011414 0.13400519 0.109769315 0.6457162 0.31881547 0.67457885 0.23421763
diligenciar 0.2798418 -0.20403092 0.020055978 -0.3701168 0.16820635 0.715919 -0.68840075 0.2583633 0.040588256 0.028040003 0.52159745 0.3365817 -0.090839416 -0.13252918 -0.25161186 0.058748376 0.017231053 -0.5213378 -0.6074267 0.05212397 0.33426654 0.1340588 0.48911056 0.39448363 0.10077071 -0.043863494 0.53770375 0.27483737 0.47731924 0.26743212
requisitos 0.27016634 -0.24839461 -0.109087475 -0.49106997 0.13379529 0.57138515 -0.6148009 0.35366172 -0.008870571 -0.10154581 0.63170385 0.23610975 0.085075535 -0.21118908 -0.3000616 0.004878573 -0.004168254 -0.5416933 -0.52749944 -0.04671932 0.4288751 0.2932236 0.5184664 0.31864423 0.027688058 -0.16412045 0.5405775 0.21935351 0.35763246 0.24298446
permito 0.08384745 0.08166114 -0.48696142 -0.5605531 0.21871455 0.63382715 -0.38826972 0.20607498 -0.16677727 -0.10044317 0.64452887 0.28250152 -0.16396047 -0.4580028 -0.11159341 0.053107075 -0.099650055 -0.6025793 -0.63951075 0.0026241117 0.9245394 0.23721652 0.39746192 0.4173953 0.0094786165 -0.34920332 0.43242434 0.1027572 0.3869217 0.3016058
adjuntar 0.37575892 -0.24095681 -0.25417286 -0.3159811 0.13059473 0.5471794 -0.5185704 0.26862162 -0.09453616 -0.027128719 0.44768307 0.3549283 0.15798408 -0.102894485 -0.41064355 0.10167358 -0.05530361 -0.45438373 -0.516666 0.036278248 0.52846855 0.26586863 0.5225538 0.2571734 -0.003969076 -0.062207248 0.45618334 0.3031179 0.67489344 0.41751352
esposa 0.31489694 -0.24097916 -0.118115336 -0.25609854 0.062212966 0.60237 -0.44309667 0.41041124 -0.027349122 -0.14929287 0.3876161 0.19186738 0.18865944 -0.14786994 -0.23920576 0.018913303 0.12049459 -0.3786987 -0.63031393 0.040221926 0.19490698 0.036415733 0.57833165 0.19573534 0.029281307 -0.12765525 0.4940591 0.15109864 0.5128111 0.27579823
requeridos 0.17164753 -0.04432195 -0.42602116 -0.44064674 0.13303003 0.65572834 -0.44775417 0.3138625 -0.08279338 -0.09738511 0.50399005 0.33515054 -0.025782965 -0.4035238 -0.24413949 0.049113058 0.15758362 -0.53219515 -0.62761676 -0.03501994 0.7143101 0.2415664 0.518485 0.25947955 -0.08926026 -0.24831297 0.48433512 0.08371881 0.41985044 0.33663574
desea 0.3591471 -0.20178004 -0.022326348 -0.28600633 0.1548803 0.62955916 -0.534885 0.40178427 0.011354723 -0.08443536 0.4436652 0.36667058 0.1355436 -0.039180614 -0.32251054 0.026060272 0.027940882 -0.37430334 -0.5892713 0.034919996 0.37207812 0.096810006 0.5900315 0.1858287 0.11264278 -0.07145118 0.5345833 0.28133303 0.53495413 0.32614666
buenas_noches 0.14266516 -0.19365303 -0.3341687 -0.4230764 0.19601487 0.697698 -0.46762368 0.34029266 -0.048892107 -0.13323805 0.58090883 0.2927664 0.0046843025 -0.2642576 -0.2720103 -0.08028973 0.089070715 -0.4357703 -0.6120829 -0.0019837979 0.6088169 0.12753117 0.43952382 0.2796026 0.037150588 -0.19050634 0.57577163 0.101535305 0.42811817 0.25390032
soportes 0.27022865 -0.19998655 -0.46651247 -0.3195718 0.15362622 0.7266746 -0.40502536 0.24024503 -0.14087474 -0.06875374 0.49977282 0.36739635 0.14122337 -0.17478104 -0.45818967 0.0061904816 0.10823751 -0.53418857 -0.40972263 -0.11008362 0.62546235 0.25121376 0.4610191 0.14554076 0.054200858 -0.12820286 0.4404375 0.20023854 0.5481416 0.40076098
octavo 0.05462542 0.20905249 -0.46713045 -0.9143496 0.29252103 0.77546555 -0.47911614 0.25626808 -0.24805208 -0.16674733 0.890615 0.5080418 -0.3572075 -0.75475526 -0.015791463 0.009273063 0.009381884 -0.74621946 -0.59075874 -0.01530298 0.9620368 0.2120287 0.16657889 0.37617895 0.09084772 -0.22136536 0.4708555 -0.02641823 0.1274212 0.07408465
dos 0.49843064 -0.37313053 -0.0045495294 -0.17127043 0.02886109 0.8074728 -0.41348487 0.49984688 0.16047454 -0.16428185 0.3428815 0.36537915 0.41183957 -0.080493785 -0.45771563 -0.044605818 0.26662713 -0.40215155 -0.6082394 -0.21931238 0.27474958 0.16818224 0.78539455 0.14549313 0.018466279 -0.16825464 0.54346764 0.20112014 0.52706504 0.236829
mismo 0.43738857 -0.31920022 0.15450698 -0.032077197 0.12782688 0.9244485 -0.43048105 0.6240289 0.10130017 -0.39984977 0.29005885 0.32627875 0.65992117 0.39253455 -0.78795135 -0.105225705 0.13556851 -0.32147363 -0.3933967 -0.056771018 0.51482666 0.14681755 0.7274839 0.13746767 -0.09536333 -0.082402855 0.58202165 0.3832471 0.6909719 0.19831549
usuaria 0.3254599 -0.2475887 -0.18044057 -0.3036766 0.076204374 0.5380012 -0.44486335 0.3797155 -0.09679487 -0.08988555 0.40312892 0.20246972 0.25858423 -0.23775665 -0.27304375 0.023198131 0.092696026 -0.45808983 -0.61459905 0.024873937 0.27085406 0.13193654 0.60453373 0.16374685 0.0080518685 -0.07731581 0.48560336 0.0757534 0.5611134 0.24176301
mis_hijos 0.52183914 -0.4831486 0.111407995 -0.04512935 -0.050616965 0.9925857 -0.4080474 0.67502 0.2902988 -0.25735733 0.28577513 0.25470367 0.52582633 -0.057262026 -0.5997884 -0.08672774 0.124526985 -0.15457208 -0.7748011 -0.25096995 0.4473046 0.055721782 0.6829984 0.16102372 -0.06232903 -0.2564489 0.54085106 0.34612793 0.61421484 0.17298464
procedimiento 0.17498887 -0.17566857 -0.24277318 -0.49399754 0.11067042 0.71821046 -0.5574672 0.4027034 -0.022477858 -0.19164355 0.6468307 0.18855754 0.008470993 -0.25403315 -0.24318558 -0.10848907 0.106809184 -0.4945843 -0.53626555 -0.036702096 0.55488014 0.19370271 0.5164342 0.34731513 0.056188587 -0.15951848 0.5380321 0.04541337 0.35996398 0.20644376
asi 0.40345713 -0.3611667 -0.0008526861 -0.08780269 0.14287893 0.73684627 -0.60363674 0.35359263 0.09242548 0.0005878896 0.3819176 0.4801207 0.1636733 0.2062612 -0.5516343 0.024950651 0.003917357 -0.36127445 -0.50914955 0.04727497 0.35596937 0.16243152 0.63110745 0.14822419 0.108124845 0.026118994 0.58553946 0.35819188 0.60976857 0.34944537
estan 0.5041432 -0.49775085 -0.009350872 0.07503003 0.078124925 0.86111957 -0.514871 0.56489426 0.1945918 -0.21301155 0.28177568 0.3303205 0.42046303 0.1176901 -0.55919504 -0.10550022 0.21767299 -0.38578662 -0.6023244 -0.14172047 0.32530847 0.101311915 0.8041592 0.030585334 -0.0070157433 -0.13255228 0.6126944 0.32091895 0.7416362 0.2664173
anexo 0.41517705 -0.07813725 -0.26313946 -0.5242776 0.15902838 0.60209745 -0.58374864 0.15142456 -0.051839788 -0.0006605885 0.72133625 0.5502978 -0.075954616 -0.19945262 -0.22396304 0.14598814 0.015945906 -0.5271234 -0.48507053 0.050457552 0.5892586 0.26263642 0.41564938 0.3253444 0.036241055 -0.10597824 0.43880326 0.2800166 0.44829926 0.3031086
medicina -0.24873173 0.2634521 -1.0315106 -1.1203544 0.41187212 0.7966995 -0.3854834 0.2349735 -0.18980947 -0.24411748 1.2717594 0.64628625 -0.8993245 -0.8357975 0.16988868 0.21096183 0.22906516 -0.66777146 -0.7316358 0.16923492 1.513035 0.07402061 -0.03259093 0.45908687 0.34738377 -0.43924224 0.53519624 -0.16556607 -0.0003377339 0.13902622
permite 0.48468497 -0.37933597 -0.47681522 -0.2116396 -0.063527405 0.52177835 -0.36463106 0.53095716 -0.08825409 -0.083895795 0.43000406 0.07258048 0.46607473 -0.098176435 -0.4576672 0.04482662 0.24013248 -0.49984264 -0.5866631 -0.04652666 0.43599778 0.18562308 0.6473969 0.051781207 -0.02484524 -0.05371851 0.44135064 0.11720496 0.6488516 0.48554862
tramitar 0.31655404 -0.2176657 -0.14140841 -0.38871026 0.148226 0.7075187 -0.5438313 0.31980407 0.010286117 -0.08099647 0.57794327 0.35114402 0.02805032 -0.15237336 -0.27598202 -0.019759286 0.0067851734 -0.4814112 -0.58886886 -0.019041272 0.49764124 0.18757859 0.47565386 0.27107704 0.04382601 -0.12042421 0.5702046 0.23332532 0.46783152 0.24833374
envie 0.3441418 -0.44042668 0.0879741 -0.07396215 0.08475399 0.80838984 -0.49611118 0.5374856 0.15954113 -0.14767128 0.26713854 0.3125397 0.3736966 0.13324453 -0.49826407 -0.08434172 0.06658256 -0.22607334 -0.6624134 0.009493477 0.19768496 0.068993755 0.7379312 0.15215772 -0.027561177 -0.060445126 0.5468737 0.35001433 0.71816474 0.24187995
realizo 0.4115615 -0.27756205 -0.24209331 -0.3743585 0.05984524 0.5539709 -0.47376975 0.49073076 -0.113388404 -0.109532125 0.449578 0.24746266 0.30214608 -0.23985396 -0.3353775 0.032870337 0.12383453 -0.51884294 -0.6044102 0.012556483 0.37128946 0.18354611 0.6462473 0.13206597 0.04306427 -0.12158402 0.46343696 0.1730922 0.54174334 0.31709775
hijo 0.26907986 -0.12848905 -0.2549941 -0.4093009 0.1051352 0.5809313 -0.43458915 0.33407816 -0.08732676 -0.09031407 0.52263623 0.2825784 0.034723364 -0.28405753 -0.26044032 0.005866354 0.074684486 -0.48401606 -0.575968 0.02101941 0.4916929 0.16213876 0.46757326 0.24947487 0.04477916 -0.12240154 0.45338812 0.119885355 0.40804425 0.28372166
recibido 0.2749089 -0.21780145 -0.05536039 -0.3177043 0.19757205 0.73784465 -0.53343946 0.44719636 0.005306141 -0.1032535 0.3930638 0.37996757 0.020487258 -0.19154987 -0.3467599 -0.028462993 0.10637149 -0.4148945 -0.6613425 0.02009562 0.4447332 0.09612746 0.58452517 0.1568678 0.031199235 -0.17470525 0.4525487 0.20064217 0.5726774 0.34242782
septimo 0.20564534 0.27763084 -0.3934847 -0.8935555 0.20734192 0.7320295 -0.428863 0.17216188 -0.33522615 -0.10525912 0.8766842 0.4682773 -0.2164651 -0.7387802 -0.039727192 -0.02163375 -0.0289057 -0.7870752 -0.5400806 -0.010785234 0.8507773 0.31474644 0.25148642 0.40028933 0.054354686 -0.18644992 0.43267724 0.0057412214 0.16386099 0.13071316
proximo 0.28867197 -0.2543298 -0.024650704 -0.3717781 0.15916763 0.79666644 -0.6569132 0.41022468 0.17258997 -0.07708486 0.64504164 0.48837256 -0.110875204 -0.04267537 -0.29160434 0.075239375 -0.028955625 -0.4087524 -0.5818288 0.19009267 0.5765756 0.12716569 0.3006844 0.19873288 0.18414257 0.08546199 0.6322207 0.2918342 0.4520217 0.09590489
han 0.37904015 -0.34233776 0.12277416 -0.04302731 0.07172987 0.96637887 -0.43718544 0.6355099 0.18390097 -0.16718228 0.2847947 0.28672352 0.35531235 0.0909054 -0.5348148 -0.11857713 0.12945956 -0.32437533 -0.69537175 -0.024398835 0.41521963 0.029135615 0.71882296 0.06494541 0.023360772 -0.1846477 0.5595685 0.17711388 0.7371818 0.26652324
hay 0.46027812 -0.41075343 0.02093591 -0.019140175 0.04027716 0.8186132 -0.42101204 0.6903991 0.1307345 -0.2829083 0.26897237 0.2869801 0.5570075 0.1578123 -0.6551429 0.036070433 0.14713845 -0.33883366 -0.6642994 -0.07620116 0.3544929 0.1162415 0.7447643 0.05472374 -0.008594655 -0.17416628 0.505743 0.3005466 0.6772488 0.2733189
manera 0.06725215 -0.20036423 -0.22473374 -0.23689966 0.25112644 0.7193949 -0.4623593 0.4356026 -0.0402911 -0.19650932 0.57058024 0.37430084 0.07202417 -0.050822116 -0.41895428 -0.057063047 0.070245855 -0.46002698 -0.5963515 0.100736275 0.6660955 0.123179264 0.5433523 0.15072583 0.033553954 -0.26047364 0.6299946 0.13656554 0.49058568 0.25220335
cursara 0.10944974 0.31396392 -0.5997246 -1.0883492 0.33287746 0.69365877 -0.48880693 0.18477733 -0.34440055 -0.092812315 1.0175058 0.554042 -0.5306428 -0.8642564 0.13353956 0.16887374 -0.047388487 -0.8449332 -0.61258864 0.017419394 1.1654601 0.3412547 0.12746985 0.49907193 0.2214222 -0.3553911 0.34831688 0.068814516 0.12458529 0.21631803
sexto 0.25835884 0.27577472 -0.46690717 -1.0097228 0.27688846 0.76993805 -0.4946459 0.09007051 -0.30412322 -0.060555354 0.98472553 0.49418694 -0.39363682 -0.81497484 0.06432183 0.12639731 -0.07802432 -0.85293686 -0.55178076 0.111527264 1.0096642 0.3395446 0.2392805 0.46719214 0.19593517 -0.20486128 0.37563083 0.026759028 0.13633993 0.14825137
realice 0.6131409 -0.44327348 0.09014848 -0.11065988 -0.0410471 0.8542297 -0.40991062 0.7071483 0.20939055 -0.2503751 0.32551223 0.32272103 0.59297895 0.08907583 -0.6751797 -0.055546187 0.05488439 -0.11011281 -0.7269565 -0.071076035 0.4232038 -0.0026105437 0.5695247 0.18514791 -0.03129532 -0.056098726 0.4712277 0.45839402 0.68340456 0.13090242
correspondiente 0.384784 -0.15008785 -0.2264784 -0.4510845 0.08521553 0.5680282 -0.45833132 0.37186918 -0.14219618 0.025610149 0.5507879 0.29507574 0.024305804 -0.29233503 -0.25855595 0.07871357 0.021574767 -0.47886297 -0.59019476 0.014713638 0.6457321 0.28629065 0.45253298 0.19156404 0.05851849 -0.13252693 0.44074816 0.21670897 0.4814124 0.3247405
ser 0.5815236 -0.24091525 -0.3034275 -0.17977865 0.10458397 0.77287126 -0.33017924 0.4603191 0.016977085 -0.1543375 0.3374858 0.26605326 0.3502565 -0.12469249 -0.4289396 0.12571174 0.24498898 -0.55655265 -0.66861665 -0.1468355 0.5016417 0.22178861 0.77477795 0.11141979 -0.02246195 -0.054012638 0.485315 0.24591233 0.5561706 0.37315205
reconocimiento 0.51843405 -0.32597893 -0.25751713 -0.30852968 -0.049184382 0.52590847 -0.3366589 0.5714075 -0.121467024 -0.20343553 0.49021482 0.09039949 0.52064824 -0.1537151 -0.58796483 0.06347124 0.23018846 -0.5088704 -0.5316811 -0.042514782 0.42981952 0.25281087 0.6714486 0.1758002 -0.057261225 0.018235356 0.4953141 0.16413525 0.46584937 0.36264563
soporte 0.52370906 -0.22126003 -0.47576126 -0.3144029 0.011980544 0.5013778 -0.37594 0.3894737 -0.14081575 -0.08247847 0.43378386 0.21543705 0.30505434 -0.21720687 -0.46279168 0.05918013 0.19771159 -0.4913268 -0.50159144 -0.043306094 0.5175255 0.27541927 0.66116136 0.19950473 -0.030810699 -0.042727534 0.4731151 0.19731149 0.5622376 0.48592415
asunto 0.36030215 -0.22633527 -0.12865326 -0.36146718 0.090860665 0.7660052 -0.45547965 0.2789992 -0.16703571 -0.10795384 0.47852463 0.345488 0.18989082 -0.16187376 -0.24611342 -0.053338222 -0.11085773 -0.5804432 -0.4260435 -0.02022256 0.7740134 0.2089017 0.4497228 0.4521698 -0.120511405 -0.31716403 0.35336816 0.21732229 0.53836274 0.3625052
pasado 0.46944627 -0.37514547 0.3653191 0.14929058 0.14868706 1.0703297 -0.4652618 0.8002713 0.22290458 -0.3710926 0.23922165 0.3735665 0.9089925 0.75697917 -0.9517544 -0.1480709 -0.047119934 -0.24562088 -0.28787795 0.052203964 0.555542 -0.0013672475 0.6722608 0.22233342 -0.03898575 -0.045827694 0.6243711 0.5860813 0.8699364 0.20223771
ingresar 0.30220386 -0.117561825 -0.45280924 -0.45435363 -0.069833495 0.5848452 -0.46580127 0.19859098 -0.08665334 -0.08837907 0.42213687 0.32124877 0.28953347 -0.047562312 -0.45176262 -0.14502746 0.24025935 -0.50956213 -0.4715407 0.054804567 0.37515384 0.16110277 0.81329197 0.36055094 -0.07773767 0.19995075 0.52315706 0.037043598 0.5453368 0.42647618
indicando 0.41026345 -0.28997445 -0.32921055 -0.3398197 -0.014772818 0.47905886 -0.3359174 0.3848317 -0.013976848 -0.10157168 0.33336356 0.17278714 0.274331 -0.22158371 -0.31427363 0.024849184 0.1439262 -0.35795924 -0.6457979 0.053934563 0.19840449 0.15363272 0.6945089 0.21884777 -0.025479581 -0.14275558 0.4920077 0.1670492 0.60618407 0.3970962
todo 0.4482775 -0.31249398 -0.09856879 -0.21774985 0.15486623 0.65998286 -0.4277121 0.45618656 0.050975725 -0.06395515 0.52978265 0.34525502 0.29127234 0.05501115 -0.4961496 0.038270045 0.07299192 -0.39699677 -0.49375546 0.026778704 0.5266266 0.21393675 0.52527255 0.2944679 -0.025194855 -0.093337804 0.5188294 0.39760146 0.6323036 0.35186115
noveno 0.278161 0.08948497 -0.35105783 -0.7546086 0.21986845 0.62280625 -0.49267364 0.21491665 -0.30079186 -0.06306967 0.72729707 0.39858487 -0.20355397 -0.60216194 -0.10140681 0.08482389 -0.032860443 -0.7133556 -0.52523357 -0.028345747 0.786248 0.31584987 0.26186955 0.37660718 0.0937404 -0.22061257 0.4226087 0.11969217 0.297003 0.231387
tambien 0.31256795 -0.3268164 0.020523602 -0.0019952767 0.22832559 0.9545494 -0.56760365 0.27813485 0.19788417 -0.058181807 0.30319276 0.64465404 0.2913909 0.29715058 -0.6500821 -0.20719478 0.14690529 -0.27140146 -0.50259286 -0.022949738 0.40011036 -0.03518672 0.7621299 0.13847983 0.10910047 -0.044024635 0.5797223 0.3063008 0.691438 0.30939466
aun 0.43315294 -0.37279648 0.23484302 0.020226298 0.08672463 0.8717993 -0.48256552 0.66329503 0.19626717 -0.15833838 0.24722295 0.33827698 0.46341607 0.29330093 -0.6249406 -0.03063989 -0.012086116 -0.2288085 -0.53048825 0.114332475 0.433016 0.015449404 0.6462674 0.08059552 0.09293069 -0.00020804585 0.59716517 0.37398115 0.7551265 0.33609888
solic 0.36774573 -0.21385658 -0.22372273 -0.3080061 0.06940187 0.6224869 -0.4598739 0.4362182 -0.024922304 -0.10155099 0.42641017 0.3320956 0.23646793 -0.1538606 -0.34357142 -0.026896186 0.14802751 -0.39576527 -0.6355821 0.015244353 0.37520155 0.0860015 0.5699087 0.21721242 -0.02136328 -0.09021726 0.5530461 0.19251978 0.5585623 0.28146788
mes 0.45330048 -0.496679 0.35426384 0.15386052 0.06802197 0.91239077 -0.6287283 0.93387884 0.2916665 -0.2934989 0.1530217 0.36048704 0.40976804 0.27570736 -0.5766613 -0.05594697 0.08300478 -0.16584499 -0.8990397 0.010841097 0.33528742 -0.07495529 0.7204999 -0.03424194 0.08755426 -0.057247773 0.6219553 0.36494112 0.6778661 0.12614399
fin 0.20555948 -0.13983156 -0.30972293 -0.38007247 0.20559622 0.6336916 -0.42690337 0.30572963 -0.08078612 -0.013218302 0.6366299 0.2574703 -0.045984495 -0.31423813 -0.25127935 -0.028407427 0.0109054865 -0.5350522 -0.70055836 -0.008800264 0.6230641 0.20270063 0.404001 0.27432233 0.0047773034 -0.23744534 0.56032306 0.10842622 0.4547035 0.21865591
mis 0.3102399 -0.39093304 0.10053346 -0.12943314 -0.08273051 0.912069 -0.34603742 0.6110666 0.109812856 -0.30900717 0.37507907 0.24547908 0.50422686 0.024213104 -0.5321701 -0.1211109 0.221651 -0.4536183 -0.5845367 -0.28581023 0.3158147 0.14725381 0.8145015 0.29812968 -0.059147757 -0.2636673 0.6867781 0.12142153 0.41826278 0.1376709
solicitudes 0.540042 -0.39074564 -0.21931258 -0.21192868 0.035983693 0.6268021 -0.49665457 0.5275327 0.05098364 -0.23410238 0.39053 0.37046543 0.37180826 -0.09987105 -0.3931535 0.105321124 0.26709533 -0.38016254 -0.5178961 -0.034271654 0.23451369 0.19000441 0.71323293 0.06405311 0.09204731 -0.08560256 0.45715848 0.22485855 0.5082627 0.28750238
diciembre 0.26535055 -0.4053613 0.38827232 0.042897243 0.07271676 1.0294534 -0.71589243 0.8221044 0.40347156 -0.16931194 0.23175362 0.50181854 0.15905522 0.3300226 -0.4319556 -0.023321941 -0.04726596 -0.14858882 -0.8849307 0.14701524 0.4213382 -0.16574971 0.561259 -0.049524117 0.14119197 0.03649377 0.734099 0.27360675 0.6555764 0.11014418
esto 0.47992164 -0.31534413 0.19358574 0.0076566865 0.2789757 0.9971506 -0.5941238 0.64466286 0.127389 -0.19591667 0.38210693 0.40136045 0.19646285 0.29024988 -0.45734975 -0.043778457 0.12883157 -0.43552893 -0.6391519 0.009502085 0.5943698 0.0017961912 0.509628 0.1387147 0.029035335 -0.20395 0.5045652 0.40248203 0.6399942 0.2004262
cuenta 0.3910569 -0.19104275 -0.2139355 -0.34397712 0.13051854 0.6680299 -0.47502682 0.3823707 -0.069856726 -0.09240717 0.5120467 0.3466046 0.084328994 -0.127914 -0.35930267 0.07036239 0.048389018 -0.50960517 -0.6072259 0.012893932 0.5734979 0.17685187 0.45988432 0.20741545 0.063225284 -0.15172589 0.4485322 0.26825652 0.56670195 0.42273667
oficina 0.33059636 0.0076273168 -0.292518 -0.57011914 0.20612094 0.74809355 -0.42773625 0.18107918 -0.3051798 -0.02925354 0.46991014 0.33109167 0.0030174677 -0.3699 -0.343959 -0.14375143 -0.03673514 -0.6279188 -0.45225787 -0.14020129 0.82205707 0.21864273 0.38342938 0.31444404 0.013757222 -0.29923248 0.3977622 0.1766053 0.50129956 0.39094096
apoyo 0.4230035 -0.3626816 -0.1033378 -0.26600358 0.014063269 0.6055514 -0.51533777 0.40747157 -0.0010835077 -0.005627346 0.49203193 0.2335444 0.25348046 -0.04303871 -0.4170871 0.08819547 0.025260959 -0.46271902 -0.6424081 -0.08327905 0.42092317 0.19899343 0.58150136 0.22038403 0.037014198 -0.036190193 0.550582 0.23565567 0.52235675 0.42921755
vez 0.46948683 -0.29581857 0.16095431 -0.106032655 0.1669125 0.80387497 -0.5232515 0.53446084 0.109444484 -0.102185875 0.43124846 0.38113138 0.22657004 0.10947355 -0.33624795 0.030540127 0.062447015 -0.44736457 -0.56740665 0.0219263 0.47959876 0.10096389 0.5599963 0.06565789 0.12672845 -0.07528542 0.54936 0.35650015 0.58509934 0.25149593
confirmar 0.41485894 -0.35647914 -0.107615225 -0.22682655 0.12377552 0.6389701 -0.53889894 0.40518665 0.056041546 -0.06837627 0.38152862 0.35169202 0.1647613 -0.03758553 -0.3769626 0.03344162 0.062858745 -0.37914816 -0.6098571 -0.0041855318 0.33247632 0.13922006 0.6457628 0.13268144 0.068524495 -0.05429184 0.4987015 0.27441737 0.5916379 0.36127594
ayer 0.6084197 -0.48529628 -0.09782093 -0.07756209 -0.10308799 0.6698474 -0.3535514 0.68881166 0.21110955 -0.1468746 0.12910545 0.23600128 0.5846539 0.093325265 -0.5301769 0.051917575 0.2216427 -0.21900132 -0.7414421 -0.08549437 0.23459704 0.098061636 0.77499866 0.11601931 -0.117838286 -0.0008367577 0.50369155 0.2820281 0.7391659 0.2729041
dias 0.46927768 -0.64066535 0.009693078 0.031233558 -0.10968272 0.8344846 -0.45878834 0.8605195 0.29479176 -0.30642533 0.20519842 0.32322338 0.5895544 0.16340251 -0.60874677 -0.03256153 0.13104962 0.07426045 -0.8569849 -0.012687491 0.47035614 -0.09629231 0.66094816 0.01845701 0.08622734 -0.04943594 0.5208683 0.29057193 0.8835143 0.21084125
pronta 0.22416264 -0.38105926 -0.05017367 -0.0054453025 0.11160607 0.82129467 -0.43404323 0.5054173 0.14944166 -0.117943324 0.2679553 0.30098113 0.25324252 0.016272202 -0.5223501 -0.024886375 -0.048129328 -0.31610426 -0.6913767 0.0028421397 0.469162 0.10669094 0.7441453 0.15414347 -0.08095725 -0.21465506 0.53882307 0.16256003 0.663605 0.40973297
quinto 0.23403075 0.18190137 -0.51337355 -0.8343814 0.277365 0.6658836 -0.48086938 0.115359254 -0.1796743 -0.060090564 0.85186696 0.45662704 -0.3998458 -0.5698063 0.022191778 0.10832381 -0.04806237 -0.6843633 -0.58941835 0.09350658 0.8292157 0.31231833 0.19827412 0.35871032 0.2030826 -0.2681137 0.3921468 0.090007834 0.24071355 0.19972913
bien 0.2794922 -0.34107754 -0.19769098 -0.13609572 0.13806775 0.8295297 -0.38967106 0.50600654 0.0904441 -0.1353347 0.4051968 0.24485601 0.2049826 -0.21391675 -0.3896087 -0.011089484 0.07068487 -0.3154175 -0.7332887 -0.01886622 0.49685293 0.09638755 0.6247668 0.21126954 -0.009756152 -0.24595428 0.50012505 0.22365299 0.579329 0.3336311
radicado 0.22060004 0.023684911 -0.26584625 -0.45665348 0.07142633 0.7364031 -0.45123413 0.23017049 -0.1737889 0.0017471974 0.44065082 0.40356642 0.15362337 -0.14862752 -0.4728004 -0.008643205 0.10556811 -0.5864824 -0.56652087 0.12945345 0.53594047 0.28330955 0.6606568 0.45275065 -0.13031323 0.04997219 0.45755008 0.29471228 0.43980277 0.29990125
educacion 0.40274498 -0.25462374 0.033824503 -0.29407018 -0.009057829 0.71359354 -0.5757424 0.4372505 0.01262324 -0.1544364 0.48418146 0.30790034 0.2715636 0.01368014 -0.4085233 0.015362921 0.094837636 -0.4784959 -0.6030305 -0.04786281 0.3908507 0.17804328 0.6749069 0.2760317 -0.06965021 -0.089247994 0.59951615 0.27950323 0.4848622 0.31989667
valores 0.428054 -0.05797128 0.005662392 -0.19143735 0.059929647 0.8942945 -0.6220154 0.31770054 0.05254556 0.17072485 0.3562419 0.5392545 0.33710563 0.2894013 -0.44675168 0.0097634 -0.09031423 -0.26510477 -0.41215393 0.14703178 0.5606415 0.26135394 0.48002258 0.33909768 0.038693327 -0.045236513 0.53417844 0.54065835 0.7041207 0.40653762
certificado 0.4967595 -0.04665056 0.06288833 -0.3364749 0.15555179 0.79239386 -0.7345996 0.14195931 0.065079 0.14857557 0.5508334 0.69736516 -0.032713186 0.17643663 -0.38760298 0.08246278 -0.13892727 -0.477591 -0.51282924 0.13612828 0.46769825 0.3092591 0.4668634 0.43380547 0.13335201 0.09657989 0.58377755 0.54041356 0.5230187 0.28601268
dado 0.44216543 -0.3164114 -0.118644364 -0.18307987 0.03751511 0.6983666 -0.53490716 0.49885786 -0.0066345427 -0.08887887 0.3462951 0.34541574 0.28495553 0.009804826 -0.5005165 0.028049817 0.057475965 -0.35571232 -0.60012704 0.03931495 0.3856375 0.14930294 0.58902776 0.06266181 0.002603412 -0.003707463 0.49375713 0.20620407 0.6548594 0.36171806
acceder 0.26891455 -0.2766972 -0.15713988 -0.31929335 0.016692445 0.6641287 -0.35869393 0.47239035 0.03970114 -0.24589445 0.4447445 0.19089149 0.30530375 -0.21663119 -0.31561914 -0.022536743 0.17044622 -0.50674045 -0.6171676 -0.11754862 0.42524582 0.16907005 0.6524644 0.26932424 -0.094253145 -0.2257556 0.5974054 0.100716546 0.4568806 0.19681244
informar 0.44318822 -0.36284497 0.056625538 -0.1632748 0.048371352 0.74916416 -0.4937214 0.65265685 0.07314009 -0.21185945 0.3670395 0.29221594 0.25530645 -0.07581178 -0.41371247 -0.0074897893 0.08511501 -0.30474234 -0.67627865 -0.10412614 0.5053473 0.011629886 0.61834335 0.19363308 0.0034670967 -0.1302777 0.5628285 0.22900611 0.5627431 0.31734005
pension 0.4427602 -0.0008277083 0.13549607 -0.29619068 0.16523497 0.83609205 -0.6778847 0.22675852 -0.03752899 0.2581391 0.49600106 0.5621027 0.175421 0.17115954 -0.36641458 0.11504423 -0.084156916 -0.36384842 -0.33045727 0.1300262 0.5473607 0.3347801 0.38594675 0.531518 0.044071555 -0.068581246 0.49853668 0.58294094 0.59036267 0.34411946
nota 0.53405905 -0.20364176 -0.4230128 -0.50811774 0.011499104 0.5063108 -0.48915762 0.22923535 -0.22717069 -0.062394354 0.64905626 0.2798197 0.1697905 -0.27719542 -0.30671602 0.029795362 0.044065185 -0.6537227 -0.44186193 -0.01540204 0.5473741 0.38760456 0.42407033 0.2899384 -0.1174485 -0.10123452 0.40313455 0.20703204 0.6028198 0.3383395
nuevo 0.4362499 -0.34589335 -0.017738272 -0.12019473 0.079833455 0.7109855 -0.5443927 0.4064521 0.06266547 -0.039113943 0.41395387 0.34641007 0.27112126 0.11367354 -0.51741254 -0.034687635 0.051117763 -0.36450365 -0.59765905 0.05915062 0.3130317 0.1772405 0.6298229 0.1978838 -0.009295036 -0.06594701 0.56688225 0.3620705 0.62108403 0.34076807
pendiente 0.3659181 -0.3101396 -0.15622798 -0.23849371 0.06495504 0.6937286 -0.4342232 0.5126258 -0.03377342 -0.12182895 0.34502262 0.29620588 0.3362431 -0.08923758 -0.48820648 -0.05251383 0.13159685 -0.37448686 -0.55304 0.0077208425 0.38412783 0.1533409 0.60912323 0.032673113 0.02249162 -0.08460517 0.42976984 0.21677326 0.578449 0.3692252
atentamente 0.23830304 -0.18930939 -0.24000934 -0.37656656 0.16669016 0.69639874 -0.4526227 0.3250572 0.022905549 -0.09240846 0.5185826 0.33837745 -0.05766014 -0.31631353 -0.23573203 -0.0007241997 0.02471665 -0.4747519 -0.59444636 -0.09966319 0.671895 0.18738915 0.42419642 0.27554998 0.061453175 -0.29431474 0.4632371 0.14251257 0.43420473 0.29433045
dicho 0.3455981 -0.19498655 -0.1431586 -0.35387778 0.1524017 0.558182 -0.579624 0.38956293 -0.041515622 -0.03113337 0.53584695 0.3961054 0.11542021 -0.04008137 -0.38955754 0.069635436 -0.0035637128 -0.54060626 -0.502106 0.022596322 0.48489174 0.1739168 0.49775597 0.22768392 0.07609078 -0.08117409 0.5007728 0.29253948 0.44715008 0.3491155
pues 0.4240324 -0.12204803 -0.1597319 -0.20765208 0.22241963 0.6707583 -0.58143026 0.44825405 -0.052459385 -0.17795679 0.42358088 0.43448943 0.10864089 0.024609054 -0.48745397 0.108197734 0.091289766 -0.5107394 -0.6406478 0.015591183 0.59948015 0.15419577 0.5657146 0.05686395 0.14240707 -0.19561653 0.50694907 0.3445463 0.517572 0.41612065
podrian 0.37587124 -0.3922989 0.018041326 -0.22402626 0.11773897 0.7358974 -0.5504622 0.48054582 0.17142451 -0.12100458 0.3079402 0.26979995 0.24046755 -0.04150022 -0.48502347 -0.077319354 0.16166182 -0.40645665 -0.6500426 -0.090123385 0.34625182 0.01923046 0.69991237 0.20013596 0.09848602 -0.042894997 0.6203357 0.22733584 0.5288551 0.3162313
habia 0.58641946 -0.3908107 0.06216922 -0.0672296 0.050429255 0.86601776 -0.46169943 0.62165743 0.060488183 -0.10525973 0.22160684 0.42454988 0.5551082 0.0751914 -0.6274213 0.060740303 0.081205875 -0.22287117 -0.64828765 -0.0039777514 0.2974472 0.2074227 0.5940433 0.17969084 -0.06996074 0.020850845 0.49954325 0.47310254 0.7063037 0.32891688
antemano 0.14097875 -0.2838834 -0.19362798 -0.23538943 0.19723143 0.7571474 -0.44881707 0.45124313 0.04660414 -0.14302482 0.49551436 0.32136172 -0.066679075 -0.16140488 -0.27432555 -0.002425071 0.07719834 -0.48627138 -0.6639982 -0.03727917 0.686623 0.06552397 0.55296534 0.1705695 0.08052968 -0.23436807 0.58787876 0.15755518 0.48390007 0.23818989
consulta 0.25407696 -0.18321957 -0.112878874 -0.5199898 0.112157576 0.6670343 -0.57370436 0.4197099 -0.042477366 -0.13939711 0.5927059 0.18949804 0.13143048 -0.24545111 -0.22072873 -0.04586885 0.04456696 -0.508619 -0.5779566 -0.008404674 0.44870642 0.24006191 0.495337 0.3488925 -0.04965387 -0.18589006 0.48978934 0.16274473 0.34818703 0.17791092
sea 0.26140043 -0.26460123 -0.15615565 -0.19519845 0.08212658 0.73790044 -0.49814865 0.3844903 0.0017862518 -0.05260986 0.38411042 0.28356376 0.19784026 -0.16958335 -0.36317757 -0.08942552 0.058079634 -0.46024314 -0.61122715 -0.08113609 0.4032863 0.13266456 0.5919733 0.18159406 -0.013473106 -0.11676814 0.47613466 0.15452917 0.5559705 0.2568056
solicituddos 0.35857987 -0.20051436 -0.0014716268 -0.2670414 0.066838495 0.80005705 -0.37632644 0.36098063 -0.04177373 -0.14468615 0.43968827 0.28433457 0.39132887 0.014422464 -0.46525577 -0.013011118 -0.049008213 -0.45307547 -0.52579695 -0.13758637 0.5300696 0.14262265 0.47908437 0.40220562 -0.106369734 -0.23620003 0.59787023 0.31007335 0.56191325 0.2077766
rechazada 0.61190826 -0.46684104 0.0065940223 -0.0898425 -0.0016665021 0.7542083 -0.49264124 0.5313422 0.08641561 -0.05807828 0.29503846 0.42099681 0.5161838 0.14313272 -0.6303242 0.047259018 0.052813753 -0.12969895 -0.6135097 0.026263533 0.22684826 0.16397971 0.5750874 0.20781627 -0.04160256 0.061908383 0.4360203 0.46871603 0.75219786 0.24102578
pido 0.3820336 -0.40978512 -0.28215387 0.043044496 0.09731482 0.80184805 -0.31803858 0.52636826 0.153519 -0.3027689 0.3608371 0.13607658 0.41695526 0.023646696 -0.49181437 -0.118148364 0.32178047 -0.34809658 -0.6280512 -0.085242055 0.4830265 0.033404186 0.72025985 0.008374133 -0.06491103 -0.24870983 0.58165103 0.16655356 0.59249574 0.35377887
sale 0.5734038 -0.34776196 -0.23912887 -0.11803259 -0.22201522 0.5581507 -0.32453278 0.57556653 0.01031826 -0.16275594 0.30269688 -0.05095736 0.7331077 -0.025036776 -0.5305937 -0.008859723 0.3847085 -0.47957936 -0.6284768 -0.039501972 0.27285317 0.12468852 0.83451194 0.13295496 -0.05274703 0.13611057 0.49605405 0.1791721 0.6390953 0.47088754
podido 0.43463507 -0.36309958 -0.3080988 -0.20888333 -0.06689381 0.5376804 -0.3481154 0.51178914 0.037157055 -0.09541354 0.30842078 0.1591997 0.48440298 -0.037084445 -0.46242356 0.055889916 0.17229137 -0.41053912 -0.6551191 -0.0682264 0.32421583 0.12547715 0.7271638 0.12516655 0.0059932703 -0.064010076 0.48518106 0.19188085 0.67240125 0.48386574
mail 0.31790578 -0.20033233 -0.18722594 -0.31220537 0.13907973 0.7568179 -0.4970238 0.46411347 -0.038678218 -0.16928591 0.4335928 0.3266668 0.22803111 -0.1302301 -0.35059544 -0.0072934236 0.11954761 -0.4480884 -0.5946127 0.045642495 0.5151927 0.09876347 0.5867191 0.15877557 0.03710865 -0.055269178 0.48881543 0.21839061 0.55515 0.26765186
modulo 0.517389 -0.38005093 -0.39565527 -0.30667782 -0.13279964 0.37346488 -0.36943883 0.4457894 -0.11363902 0.009546332 0.42045614 0.09921577 0.38578972 -0.18287349 -0.40995914 0.109598726 0.19634388 -0.51437896 -0.5806019 -0.14665471 0.44542557 0.29917267 0.72445095 0.117372125 -0.025431948 -0.07942085 0.44514486 0.11651497 0.5563209 0.53372324
octubre 0.39467266 -0.46718553 -0.08507941 -0.09644958 0.033352513 0.6238383 -0.4464907 0.70047396 0.043675255 -0.18505982 0.19979233 0.2526032 0.42912748 0.056885485 -0.4618084 0.02056672 0.14780512 -0.2293401 -0.7563756 0.088701956 0.2803542 -0.03836623 0.71417934 0.018055754 0.018790804 -0.079264686 0.55960095 0.16471505 0.76301783 0.30886745
pe_pensionados 0.12568656 -0.068105645 -0.07286142 -0.14669524 0.051518656 0.27202183 -0.19352277 0.14906076 -0.020146366 -0.037322864 0.17387426 0.12247754 0.06536116 -0.06385934 -0.13467447 -0.012666757 0.030462451 -0.1678836 -0.24276797 -0.010685264 0.19294412 0.047799487 0.20361504 0.082717955 0.0042173555 -0.036563046 0.19877046 0.07588357 0.18254554 0.12020438
tener 0.36846155 -0.19179344 -0.32108182 -0.32323304 0.09188101 0.5259397 -0.4710879 0.3490967 -0.12367302 -0.03369098 0.5869644 0.3334126 0.06132288 -0.071310334 -0.3061041 0.104382716 0.05982632 -0.4773008 -0.56340843 0.030167967 0.59570855 0.18068315 0.48661092 0.22783834 0.10706513 -0.089702696 0.42103985 0.2910212 0.4785473 0.48756808
motivo 0.3927585 -0.23699583 -0.083174 -0.26133037 0.106811255 0.64346826 -0.46599403 0.3689524 -0.038426615 -0.15235943 0.4250936 0.3447692 0.23587616 0.0003694686 -0.36159918 0.0096742185 -0.043872118 -0.41816676 -0.50993806 -0.03087852 0.5675163 0.116526455 0.48891172 0.2777288 -0.019343924 -0.14964825 0.5222065 0.3140241 0.58454996 0.31377816
ti 0.119015194 0.12896505 -0.42755315 -0.7222643 0.24461436 0.6911695 -0.58479285 0.2957274 -0.061534047 -0.059097927 0.73336846 0.5104488 -0.4471313 -0.6382012 -0.058312967 0.09740538 0.03640167 -0.5778005 -0.6220412 0.090021424 0.8593177 0.24215984 0.20134112 0.4541634 0.013503963 -0.35569715 0.43574673 0.046381272 0.2709291 0.24326746
rechazaron 0.39006823 -0.24539709 -0.16366285 -0.29586777 0.07722736 0.5696505 -0.46966076 0.37427267 -0.06846764 -0.09186785 0.39952043 0.33460602 0.24492119 -0.024913576 -0.3616104 0.032291055 0.1180354 -0.4123277 -0.48181728 0.054213498 0.33648908 0.16589417 0.58581185 0.2445148 0.0047198734 -0.045702614 0.4922453 0.23087783 0.61335695 0.30010733
calendario 0.29521427 -0.22939996 0.026153602 -0.3190593 0.1210743 0.80077654 -0.519859 0.49302122 0.0003040179 -0.10570766 0.38930166 0.3746268 0.09839283 -0.08234518 -0.28991938 -0.05568165 0.025854992 -0.4683813 -0.53186184 -0.041580174 0.46389285 0.15515432 0.54499114 0.27571008 0.057798766 -0.13943844 0.511673 0.24721359 0.5027577 0.20791334
cualquier 0.17879568 0.010743231 -0.2731327 -0.1940099 0.34199432 0.9985005 -0.45630947 0.21405737 -0.066142894 -0.24721624 0.329628 0.5222084 -0.13605511 -0.3484364 -0.5174589 -0.018940322 0.20844793 -0.63942957 -0.493428 -0.23927459 0.7160107 0.21445403 0.6766154 -0.024369301 0.18285011 -0.5063169 0.49490654 0.15012413 0.44273737 0.38882726
tenido 0.30081618 -0.34607142 -0.10441479 -0.12264403 0.04960432 0.6780113 -0.2800885 0.53533566 0.1271222 -0.22832371 0.18418658 0.15464205 0.3651171 -0.1688424 -0.35669932 0.044976767 0.12608977 -0.3210573 -0.77000475 0.001138995 0.2502551 0.009030828 0.7574824 0.11991222 -0.036641974 -0.23873499 0.43477464 0.06361 0.70533425 0.31719878
sin 0.43842524 -0.28407487 0.11510752 -0.066746786 0.13248979 0.7934154 -0.5211229 0.527648 0.16188143 -0.032269098 0.3355453 0.5055839 0.2725465 0.35242927 -0.5978838 0.038447693 -0.017240943 -0.17498876 -0.49854058 0.13139562 0.43606135 0.06497257 0.5670385 0.09843898 0.0985579 0.021916669 0.5794125 0.36618322 0.6716576 0.2983849
hago 0.27629086 -0.110753514 -0.18222885 -0.2922047 0.2085253 0.8910426 -0.38680395 0.26723152 -0.07661844 -0.06591125 0.3680504 0.4096407 0.16706789 -0.116066806 -0.46924326 -0.26067352 0.09032061 -0.41320682 -0.62185746 -0.22788642 0.62016386 0.026630513 0.58226144 0.12972921 0.066320956 -0.29691294 0.51950204 0.1935513 0.44390425 0.45102194
confirmacion 0.16516703 -0.11838372 -0.29127413 -0.43382582 0.17110923 0.60219806 -0.41719836 0.34343323 -0.115717694 -0.08969333 0.48007762 0.25704196 0.048515514 -0.30504254 -0.22663268 -0.031458344 0.08612553 -0.40539542 -0.5968475 0.07000728 0.46735212 0.15270883 0.4836052 0.16965835 0.065508716 -0.19926621 0.44991735 0.08402017 0.50887513 0.29305753
todos 0.33317092 -0.19384237 -0.06956117 -0.18142116 0.121959865 0.8358201 -0.48801383 0.34773853 0.025718946 0.01809391 0.52319276 0.39662877 0.12263986 -0.097874165 -0.39593512 0.0018029747 0.12313415 -0.454632 -0.5643889 -0.08213045 0.44783267 0.18752058 0.49824604 0.25931463 0.028949093 -0.1358926 0.5235663 0.38242018 0.48506227 0.36617672
aprobacion 0.30400276 -0.21091814 -0.07642981 -0.25113416 0.11701088 0.77529436 -0.47454995 0.46056524 0.043924343 -0.022534847 0.43711814 0.3389354 0.101775035 -0.111801155 -0.41746473 -0.014387869 0.071924694 -0.38106984 -0.59832144 0.016090848 0.44060403 0.16458403 0.51508075 0.20568597 0.031554013 -0.15160896 0.5507872 0.23880625 0.53743696 0.32572797
creditos 0.41752103 0.5361776 0.8607389 -0.14825475 -0.30905175 1.2906754 -0.7090815 0.5250399 0.1992728 0.34185976 0.7065078 0.057250872 0.04467311 -0.061095513 -0.14804561 0.27390626 0.1328767 -0.96582896 -0.8995299 0.07240382 0.503568 0.03174824 0.39174235 0.837767 -0.06937878 0.47599953 0.72743994 0.8433859 -0.04595556 0.3748292
deja 0.45954454 -0.21584496 -0.5047885 -0.32406807 0.0021548395 0.51804245 -0.4526127 0.3798715 -0.1615752 -0.078456014 0.4203869 0.20166959 0.34170625 -0.09107948 -0.4414884 0.047316838 0.146947 -0.5196194 -0.48174217 0.0064062295 0.5729937 0.2168541 0.57950014 0.17030549 -0.035396624 -0.013650108 0.35905468 0.17131579 0.68305063 0.4425624
archivos 0.4792104 -0.3131103 -0.27934742 -0.050060596 -0.019357312 0.75094044 -0.34770265 0.51830095 0.047435313 -0.2509628 0.43204457 0.29460305 0.3955379 0.010188651 -0.5675975 0.051149756 0.24253167 -0.39535138 -0.53936225 -0.16999716 0.59366167 0.18218821 0.7065558 -0.02570488 -0.024290657 -0.16731392 0.5844147 0.28630364 0.6168914 0.31485084
hice 0.33275977 -0.24258524 -0.047714703 -0.15840413 0.16472432 0.79854655 -0.4641085 0.48675755 0.052907247 -0.20801136 0.40083018 0.23753501 0.21157974 0.0063094017 -0.34790906 -0.06689801 0.07625411 -0.3984834 -0.6756466 0.012239058 0.4470061 0.054255344 0.5363172 0.1296042 0.033712763 -0.10577424 0.41774774 0.284357 0.55039525 0.19666593
espero 0.17842995 -0.24548355 -0.13965254 -0.107313424 0.21889076 0.84199566 -0.39369673 0.3829221 0.05744658 -0.16009235 0.37317237 0.3613017 0.103485905 -0.20125015 -0.40850264 0.03177005 0.04858308 -0.3149921 -0.6893775 0.021344727 0.580562 0.15364075 0.6424263 0.23063831 0.00069672195 -0.3047272 0.5766102 0.1451483 0.6043267 0.3554183
aprobado 0.3810071 -0.22539333 0.05788327 -0.13407558 -0.04295979 0.79224837 -0.4399647 0.6188166 0.05127808 -0.11481041 0.37654865 0.14752394 0.35861972 -0.018072087 -0.42510143 0.05955506 0.1838843 -0.46399552 -0.67783666 -0.0038356427 0.42460153 0.09159883 0.6069216 0.20120852 -0.028260874 0.0039381934 0.50947875 0.31759772 0.5709147 0.25716534
ese 0.43811512 -0.32053834 0.1260075 -0.12989856 0.13779695 0.9037307 -0.6411576 0.5657204 0.16578634 -0.17703764 0.33354345 0.39674333 0.2765176 0.2358609 -0.42788985 0.067595966 0.09229318 -0.33501127 -0.712481 0.072235964 0.26927868 0.085978895 0.62923104 0.15197316 0.09082159 0.028690476 0.4574522 0.32878286 0.57959986 0.21378782
segun 0.40823033 -0.30716062 -0.13862237 -0.20769405 0.0905243 0.71502846 -0.44006836 0.55461144 -0.058660578 -0.088390045 0.42738342 0.3264456 0.26825163 -0.016395079 -0.46211952 -0.030216081 0.124751836 -0.3606381 -0.55678797 -0.009073077 0.4618547 0.12520075 0.5633224 0.1304731 0.017828317 -0.15089308 0.5105775 0.27020893 0.62641716 0.32884538
primera 0.5163722 -0.3191936 0.3426114 -0.15804031 0.12059946 0.8707191 -0.76429194 0.5822403 0.15732966 -0.21270147 0.53381145 0.5612577 0.13248162 0.25245056 -0.37608656 0.049100984 0.049797323 -0.3295341 -0.6598141 0.12158613 0.43743506 0.021634454 0.51700425 0.05406298 0.18392047 0.008121776 0.5608235 0.45889553 0.49196288 0.04980821
validacion 0.25064042 -0.011073278 -0.45506975 -0.60197407 0.053142447 0.5675614 -0.33477333 0.23994121 -0.23080415 -0.068426356 0.5732729 0.39915776 0.09004328 -0.3927487 -0.29244155 -0.06198755 0.18393202 -0.5822482 -0.5139889 0.023054974 0.5264155 0.21569502 0.6600384 0.31582657 -0.08517598 -0.10922871 0.37921223 0.092369705 0.42897463 0.30976576
otro 0.2650368 -0.29385948 -0.021000702 -0.24292457 -0.0030421023 0.8491275 -0.42018056 0.6150356 -0.004750768 -0.39191496 0.5375312 0.13874963 0.47034302 0.035789054 -0.5496575 -0.12168673 0.19437902 -0.4120251 -0.57656366 -0.1354973 0.4718725 0.11488672 0.6539618 0.25993133 -0.116380475 -0.18049912 0.64994216 0.177425 0.482571 0.14298686
pagar 0.39679196 -0.45557597 0.30936655 0.022102166 0.1194292 1.0192568 -0.59029883 0.74047047 0.29335368 -0.11955278 0.25987983 0.41542748 0.20086688 0.16459076 -0.43075353 0.017283643 0.057989445 -0.2693588 -0.7953634 0.101057574 0.34649116 -0.0055925786 0.60861623 0.0084906025 0.103235 -0.0032089178 0.5301496 0.34227195 0.69964117 0.19455425
saludos 0.24058641 -0.30687782 -0.12656279 -0.282969 0.1385165 0.7336268 -0.5290771 0.40522596 0.008601152 -0.0684877 0.4520217 0.2908373 0.1337603 -0.055596452 -0.36605158 -0.051832892 -0.013744237 -0.45006868 -0.5482382 0.00937897 0.49352792 0.13690786 0.5568444 0.272246 0.04759657 -0.18800645 0.5975373 0.20857058 0.5286935 0.2750158
cedula -0.104271784 0.24338832 -0.64484614 -0.77127165 0.17212096 0.7800857 -0.47740313 0.15955405 -0.09294782 -0.2353093 0.74827945 0.4160076 -0.16673073 -0.59076536 -0.06813834 -0.13507177 0.16325974 -0.6634634 -0.6371672 0.120003715 0.88939947 0.057726342 0.4862713 0.45215902 -0.031434406 -0.15824309 0.6119223 -0.062181897 0.32229382 0.1965002
teniendo_cuenta 0.46614575 -0.38677534 -0.04853398 -0.21212956 0.01918127 0.73743373 -0.46563736 0.51018924 -0.00038403246 -0.05967356 0.38681608 0.34914923 0.4437416 0.09462853 -0.59057766 -0.04806139 0.1259158 -0.37718263 -0.60291237 -0.024172936 0.31836915 0.11763856 0.6682262 0.17489521 -0.017911993 -0.085354075 0.5456925 0.2876708 0.6510151 0.32003254
ver 0.43462008 -0.3639637 -0.29092416 -0.19067341 -0.009530899 0.677524 -0.4095998 0.4416057 -0.02140682 -0.10132715 0.44743207 0.29634959 0.42342767 0.044851717 -0.5671071 -0.04801387 0.2068024 -0.40436673 -0.47470167 0.038210697 0.503259 0.1250258 0.6870562 0.074159004 0.091273546 0.04818564 0.5927514 0.21212898 0.6120189 0.40874752
bucaramanga 0.15973951 0.36931986 -0.40027156 -1.0483711 0.40618217 0.86075455 -0.59215754 0.19495514 -0.032093838 -0.14144975 0.9880275 0.6985793 -0.65168536 -0.8041394 0.05681284 0.19749933 0.0348212 -0.84532464 -0.58170754 0.03057691 1.0648918 0.2662835 0.1978042 0.6202606 0.015753394 -0.49438873 0.4885492 0.01828515 -0.0077628708 0.13204987
calidad 0.20372131 -0.110600285 -0.24155116 -0.48213 0.091533184 0.5892373 -0.485467 0.3872763 -0.12318325 -0.19614074 0.45184913 0.14736122 0.14637016 -0.27233082 -0.15894753 0.003633486 0.12861376 -0.5506072 -0.64018315 0.020681132 0.3968934 0.15043154 0.5331672 0.27215979 -0.0101869255 -0.14202465 0.44325224 0.16068006 0.47302526 0.34942377
requerida 0.2315231 -0.028110722 -0.4663194 -0.4711164 0.22832437 0.6846425 -0.30604106 0.24641924 -0.086876675 -0.11050346 0.6308747 0.3881515 -0.05909009 -0.38572636 -0.21736498 0.038965076 0.16783607 -0.5164268 -0.5236704 0.013944916 0.8419294 0.21257259 0.36434153 0.2400769 0.03855282 -0.2299384 0.45320824 0.089076065 0.37194398 0.2580085
servicio 0.027064133 -0.13917741 -0.2631937 -0.4621504 0.044564873 0.78054124 -0.416547 0.31632227 -0.0012880554 -0.15850802 0.5214432 0.68113166 0.12495357 -0.35742527 -0.4681465 -0.3315875 0.25040883 -0.35844576 -0.76896924 0.15000486 0.37720564 -0.06786612 0.6315048 0.07591272 -0.060137633 -0.10933768 0.64857125 -0.0818961 0.5189639 0.073654145
univ -0.108103685 0.088244066 -1.0255971 -1.1057585 0.41694152 0.8226611 -0.44349203 0.40589455 -0.061521217 -0.31820357 1.2149571 0.8359994 -0.7204087 -0.5795394 0.06596651 0.22540782 0.38994235 -0.44003823 -0.69560695 0.12560743 1.361632 -0.009822413 -0.08720986 0.3358466 0.44651723 -0.23373292 0.69844794 -0.08187134 0.029130207 0.05891489
ademas 0.44021934 -0.06563183 -0.086946905 -0.3466867 0.13852467 0.7795407 -0.6732781 0.41731644 0.07244617 -0.18986437 0.49055797 0.36943343 0.028688718 0.06827229 -0.2497327 0.09104547 0.1511135 -0.4971373 -0.6174191 0.07639801 0.43183902 0.09963502 0.52891403 0.18381968 0.11353562 0.0359034 0.46196347 0.23972084 0.40594047 0.30148104
sin_embargo 0.37100387 -0.32869163 -0.16334675 -0.21759129 0.06147363 0.73817027 -0.44025064 0.5131376 -0.06263503 -0.12643269 0.4319795 0.37605008 0.38794744 -0.014438908 -0.50106204 -0.036267724 0.09495924 -0.33862367 -0.6009311 0.055664692 0.47414777 0.120316654 0.62316275 0.08934588 0.042626597 -0.051513776 0.54196435 0.2263477 0.6020954 0.27610013
mayo 0.36332372 -0.31526184 0.30332804 -0.009868285 0.11469947 0.65644443 -0.890559 0.6100023 0.19522177 -0.058436822 0.36834446 0.64378226 -0.07782188 0.41449437 -0.4270793 0.12269578 -0.037730936 -0.21100795 -0.85765505 0.14468355 0.32251886 -0.05526371 0.64200807 0.022598173 0.23745103 -0.028506625 0.72887313 0.44512844 0.6296416 0.36786994
ingenieria 2.461893e-05 0.6117689 -0.777229 -1.4981112 0.57528204 0.92269677 -0.63127947 0.08687994 -0.041885924 -0.13388567 1.4480482 1.021263 -1.0060489 -0.99863464 0.31461734 0.24796957 -0.11779949 -0.9465709 -0.70939523 0.14343202 1.6320359 0.37630615 -0.3027752 0.68076617 0.3072167 -0.39765182 0.6071437 0.13250598 -0.15009971 0.14241599
son 0.36060953 -0.18247668 0.18682921 -0.058130268 0.051093206 0.85701036 -0.6386151 0.507589 0.0975832 -0.007333089 0.49852937 0.38356903 0.23657297 0.13926592 -0.42424822 0.022445958 0.11959926 -0.47785965 -0.5651081 0.10803998 0.39403048 0.16459297 0.6233898 0.25954396 -0.015789604 0.005332841 0.63184154 0.46568075 0.5092602 0.32081136
cargue 0.49929234 -0.3429082 -0.4080841 -0.30799338 -0.029109158 0.4383462 -0.39090082 0.33343303 -0.14659518 -0.017404163 0.46561515 0.13719985 0.29309455 -0.18244559 -0.38580248 0.019891389 0.160409 -0.47982427 -0.50713766 -0.055922333 0.3623037 0.2618673 0.62443197 0.21631944 -0.011511426 -0.048184153 0.4760798 0.18809983 0.547036 0.42884174
empleado_central 0.5591499 -0.34543112 -0.47952002 -0.24229506 -0.061805703 0.44618043 -0.40229478 0.42766556 -0.11051756 -0.076999426 0.43105564 0.15693153 0.42957786 -0.13357778 -0.48930562 0.09070357 0.24522978 -0.518151 -0.49345532 -0.07771722 0.410998 0.30361798 0.68257695 0.09852011 -0.04448869 -0.038599864 0.4563976 0.16855134 0.5888471 0.45912254
anexar 0.30949074 -0.25078508 -0.034869187 -0.28610316 0.15816589 0.6815673 -0.59827036 0.283486 0.0674269 0.013207242 0.39150468 0.40297842 0.0950187 -0.07485216 -0.452121 0.007473458 0.08130842 -0.40799156 -0.67663264 0.06917253 0.39446935 0.1208324 0.5926763 0.30751863 0.06558669 -0.05863972 0.5811902 0.24876817 0.5511711 0.27745888
quedo_atenta 0.20826265 -0.20362592 -0.14382157 -0.21223666 0.14316113 0.83661026 -0.4564309 0.47978643 0.030971559 -0.16144224 0.34257498 0.28139502 0.10982515 -0.25556356 -0.37571475 -0.09306767 0.11361587 -0.43329668 -0.66302454 -0.072963685 0.5545347 0.16222738 0.575972 0.1568323 -0.037870716 -0.26949805 0.48787886 0.16632198 0.54127675 0.2577294
respecto 0.27911976 -0.25130147 0.043501507 -0.18229426 0.17127265 0.78928447 -0.44632426 0.48550946 0.086019605 -0.10741893 0.30431366 0.39143446 0.12559193 -0.0063337707 -0.46009132 -0.018910974 0.008760352 -0.41373137 -0.6586361 0.0040925257 0.4403604 0.08679298 0.6392953 0.1820431 0.037810914 -0.12244066 0.5418533 0.25899503 0.5879744 0.29892573
plazo 0.33975527 -0.5030392 0.2932196 -0.017167287 0.04336426 0.92874336 -0.5524553 0.72584516 0.24161872 -0.30009273 0.17503728 0.33130443 0.32513052 0.17631815 -0.41850886 0.029124122 -0.046563495 -0.31552786 -0.84651226 0.031247014 0.27584487 -0.08026248 0.68589634 0.022425668 0.073342405 0.016356638 0.6268929 0.2775672 0.59600765 0.2008891
eso 0.41648212 -0.25520417 0.10082845 -0.10192178 -0.014921022 1.0459136 -0.50496304 0.6341667 0.17628828 -0.24169269 0.25447014 0.33939 0.38782355 -0.045779124 -0.41461372 -0.048012756 0.23039295 -0.45517868 -0.7708943 -0.0012318152 0.27435863 0.04536897 0.6824809 0.041377433 -0.038631774 0.12038648 0.5316299 0.21452974 0.4904866 0.18077146
nueva 0.25722888 -0.048831042 -0.15075782 -0.3816336 0.040396813 0.7446934 -0.50251496 0.37812668 -0.11836143 -0.17525326 0.44793683 0.36724785 0.3483661 -0.034338627 -0.52936316 -0.0020399746 0.084588274 -0.4662248 -0.44325027 0.001963057 0.5474281 0.262917 0.7095489 0.37909713 -0.1297273 -0.08116785 0.536661 0.21739094 0.45569214 0.20407633
beca 0.3406611 -0.23977834 -0.35121274 -0.29774272 0.051897686 0.6582903 -0.5044791 0.4104449 -0.035545565 -0.16875038 0.45878145 0.18447694 0.08380953 -0.27848834 -0.2519906 0.031509813 0.06587061 -0.5288499 -0.62096244 -0.015648752 0.46160293 0.22130938 0.45185336 0.30515102 -0.051246926 -0.10442226 0.45349947 0.16783732 0.59120566 0.41163167
circular 0.57241374 -0.010074962 0.47186223 -0.14965315 0.22049187 1.0428042 -0.57831657 0.23021325 0.21123986 0.048341617 0.43943322 0.80658054 0.5011211 0.5944716 -0.59958774 -0.008429378 -0.2758287 -0.3088737 -0.18676539 0.17941818 0.8508302 0.1918928 0.3162689 0.5711823 0.13165495 -0.07823031 0.6032569 0.7780459 0.7196314 0.3769719
hola 0.37239698 -0.27954122 -0.09827752 -0.19684848 0.07953724 0.7374218 -0.41571093 0.46797064 0.10172952 -0.19647673 0.41061532 0.23983005 0.19853763 -0.13903219 -0.32889113 -0.014192194 0.0724544 -0.37211287 -0.6528151 -0.014246439 0.44630206 0.112366825 0.6194583 0.19831446 0.03322197 -0.14992777 0.49855897 0.2235601 0.5497779 0.2871522
nos 0.38461158 -0.2949438 0.123949386 -0.051828656 0.18550175 0.85584146 -0.5416239 0.6974194 0.14111954 -0.22484528 0.33097938 0.41183668 0.14018363 0.0946207 -0.4085181 0.11022461 0.1916885 -0.50919765 -0.660397 0.018607743 0.46608078 0.016201818 0.67119235 0.12205927 0.11939499 -0.05766719 0.53814137 0.32363153 0.47123274 0.1595029
reintegro 0.73717034 -0.33119228 -0.086917184 -0.24401936 -0.06692094 0.5486558 -0.48999617 0.4908719 -0.088600315 0.05584162 0.51088095 0.29699975 0.5359264 0.17821677 -0.48224834 0.0931985 0.26285157 -0.43661487 -0.5597652 -0.0042811693 0.35781136 0.19984645 0.6661079 0.15371986 0.036619153 0.06586944 0.502787 0.3813991 0.6432402 0.46570224
dinero 0.5786772 -0.49073133 0.36127472 0.03787722 0.03729122 0.94280845 -0.7077346 0.85419226 0.21158005 -0.13604192 0.34401482 0.51811016 0.5077053 0.4503793 -0.49684125 -0.021170726 0.18009467 -0.10787811 -0.8953833 0.09961205 0.33167553 -0.10969056 0.66966385 -0.032341637 0.16658778 0.032880604 0.6622665 0.46478996 0.76773417 0.14239769
trabajador 0.2968877 -0.18190663 -0.16343713 -0.31250468 0.04071529 0.7658964 -0.3795577 0.409338 -0.07407813 -0.11845912 0.40886858 0.19661063 0.3095697 -0.1401535 -0.39206815 -0.07851944 0.114670165 -0.42555436 -0.61288023 -0.028331323 0.39199603 0.0945432 0.6589712 0.22231746 -0.04049779 -0.062195826 0.5270153 0.19382225 0.54184294 0.37952948
momento 0.31851393 -0.040541593 -0.25150523 -0.50450575 0.05623114 0.67254114 -0.44569334 0.3854 -0.10523678 -0.16819987 0.619875 0.23201136 0.15088199 -0.32014418 -0.2731423 0.10223209 0.057523962 -0.6156249 -0.6099803 -0.06902439 0.5854011 0.22462319 0.50008136 0.2925775 0.016466001 -0.04437838 0.48083612 0.15161575 0.36182794 0.2684659
ciudad 0.12041627 0.39659998 -0.37481922 -0.955937 0.30473495 0.7668836 -0.6947083 0.1938328 -0.13128439 -0.13190326 1.0187173 0.723556 -0.6648038 -0.80246633 0.10246936 0.27262625 -0.00057866867 -0.8739252 -0.5590902 0.1283403 1.1443864 0.34016353 0.11559728 0.70740527 0.100490816 -0.41442704 0.45525733 0.14085527 0.07253895 0.23939452
presenta 0.46694157 -0.32817593 -0.5015155 -0.29639757 0.03194733 0.49900958 -0.39563823 0.40426967 -0.13999248 -0.07192637 0.46182474 0.17628759 0.39722386 -0.15700689 -0.4232357 -0.005878449 0.12161854 -0.5245585 -0.420838 -0.00349692 0.5395118 0.32438156 0.62167424 0.16573225 -0.09036481 -0.17426185 0.41077578 0.10603393 0.63886285 0.41449776
problemas 0.34470934 -0.1793595 -0.2353091 -0.12822841 0.03170143 0.7030342 -0.4582794 0.47180757 0.040191095 -0.18671659 0.27069739 0.29674456 0.48580423 0.11709994 -0.49396116 0.017928077 0.101771034 -0.34762716 -0.48709247 0.14372517 0.53001714 0.18423103 0.62313956 0.12572198 -0.023413904 0.008795399 0.43040565 0.21993142 0.6962134 0.38361454
evidencia 0.43199176 -0.18541302 -0.50321454 -0.31056795 0.03309835 0.4708121 -0.37430072 0.41434947 -0.16081156 -0.17331292 0.44254485 0.1693664 0.38770235 -0.12477045 -0.41245842 0.047393207 0.19201559 -0.5282413 -0.46747488 -0.06332246 0.5519349 0.2203221 0.6278601 0.16695493 -0.0824446 -0.07180949 0.41632053 0.13411729 0.6338271 0.43065813
envioon 0.28050667 -0.25014198 -0.06479084 -0.17847867 0.14345226 0.81708324 -0.4691207 0.5316763 0.057680253 -0.26398838 0.29389033 0.34176984 0.24654548 0.061818544 -0.41647694 -0.09150619 0.15461498 -0.34475982 -0.73225147 0.092277065 0.35315794 0.020647865 0.66742736 0.10028409 0.01510671 -0.14236623 0.47726926 0.17803608 0.6486478 0.25033242
identificada -0.004058445 0.11094783 -0.5612445 -0.75443774 0.24102464 0.7115398 -0.42001933 0.24316296 -0.16111268 -0.19704524 0.73553985 0.31844547 -0.30377987 -0.6841418 -0.026785802 0.039742034 0.04519215 -0.64519143 -0.71233475 -0.019880021 0.9670835 0.24009052 0.26111126 0.42801747 0.031525064 -0.39512208 0.49197084 0.058175042 0.2936205 0.22694165
servicios 0.3504581 -0.25771827 -0.16250409 -0.2933295 0.088472575 0.65479887 -0.42613715 0.56801987 -0.018677745 -0.11970661 0.4596654 0.36150074 0.19483185 -0.0038319393 -0.40421212 0.08637604 0.13504326 -0.38730705 -0.6925584 0.034262493 0.50961983 0.12310454 0.60482126 0.15447186 0.09478098 -0.0704146 0.5440651 0.19830023 0.5372004 0.27900204
antes 0.25562906 -0.35611543 0.11237505 -0.02225493 0.08393834 0.8998988 -0.56666636 0.6045364 0.2255979 -0.18616807 0.33525288 0.40499344 0.15467088 0.17132002 -0.44120637 -0.019998867 0.11069332 -0.313921 -0.8174685 0.065299064 0.40089676 -0.06137295 0.5705908 0.048629344 0.1347441 0.015561915 0.60883826 0.28678647 0.5436085 0.16426298
bachillerato 0.15615626 0.19134267 -0.28756797 -0.8058316 0.19054082 0.8234305 -0.49567482 0.19448917 -0.15995897 -0.06585255 0.8341176 0.49096808 -0.23916152 -0.66695976 0.02469798 0.0012046237 -0.097940184 -0.72794676 -0.60289675 -0.10248805 0.8529712 0.28004798 0.39671022 0.5334902 0.010342662 -0.40836957 0.466713 0.14162968 0.17343883 0.2381054
enviome 0.23395365 -0.21291812 -0.124840945 -0.41990894 0.23422246 0.639321 -0.6180171 0.18356252 -0.0016845212 0.020322356 0.6198046 0.39778325 -0.088581465 -0.11135955 -0.20793037 -0.013150235 -0.017349476 -0.522116 -0.48886934 -0.00046400356 0.41478297 0.16113104 0.4519935 0.3711919 0.12767652 -0.13395679 0.59037894 0.2568885 0.47495288 0.24797763
tercer 0.3014584 0.14342722 -0.4237249 -0.7752447 0.21960583 0.7266885 -0.6039533 0.2639089 -0.3186934 -0.028486267 0.72887295 0.44842714 -0.23294136 -0.61817443 -0.15622285 0.0786903 -0.041223437 -0.72710013 -0.46429175 0.0077847163 0.87905294 0.2983127 0.26747277 0.35499477 -0.06803755 -0.28475794 0.3669834 0.048467133 0.41597822 0.30199087
bajo 0.40742937 -0.22035234 -0.30169377 -0.37511185 0.10098088 0.6437105 -0.4260685 0.4237741 -0.18923469 0.058236707 0.47715917 0.40401658 0.2636043 -0.23210536 -0.4486175 -0.05379854 0.054215815 -0.4503669 -0.5735433 0.11891201 0.49904597 0.2941043 0.4682736 0.1896365 -0.07352538 -0.09690588 0.43591264 0.25325707 0.61377954 0.4283167
corresponde 0.3398965 -0.18511243 -0.14255126 -0.38065308 0.21649998 0.7101675 -0.5022058 0.31186473 -0.09440203 -0.01232178 0.56347954 0.38460082 -0.07064972 -0.15146719 -0.314494 0.0061527477 -0.02426539 -0.46022406 -0.46170345 0.0012430631 0.6451531 0.22552656 0.41679174 0.24775404 0.08143443 -0.13631824 0.38708013 0.25729203 0.5560673 0.29175916
tanto 0.48139775 -0.25134525 -0.13745831 -0.32039294 0.0784945 0.66804916 -0.5589771 0.37869596 -0.00984094 0.05349994 0.51769453 0.32528037 0.21229945 -0.058056306 -0.3020036 0.02204679 0.06804907 -0.44711363 -0.49899158 0.05176673 0.5218344 0.22293232 0.48125258 0.2478301 0.04832631 -0.04797627 0.5172849 0.31734166 0.562578 0.2838853
secundaria 0.28851718 0.054973572 -0.19121532 -0.75584096 0.14422755 0.7708033 -0.54512924 0.012048087 -0.25053287 0.12435018 0.6448018 0.50495124 -0.16316544 -0.5188099 -0.06618891 -0.10146806 -0.1425713 -0.7033363 -0.50190103 -0.08148688 0.6206849 0.30536062 0.46042672 0.5391929 0.1021185 -0.17422147 0.44916204 0.20061475 0.36705124 0.2649096
ahora 0.6370986 -0.38376302 0.21496323 -0.045639288 0.13407022 0.8949974 -0.66181535 0.56464106 0.22519433 -0.18585 0.43681076 0.5654338 0.29578888 0.29416385 -0.47090608 0.07811338 0.07869233 -0.3370022 -0.54299253 0.03163045 0.3078796 0.123436585 0.5932121 0.17143038 0.045494054 0.1355665 0.5424774 0.5036458 0.63229686 0.132359
to_sem 0.051645298 0.01869388 -0.58890665 -0.86234546 0.35261977 0.83064896 -0.45745805 0.32548904 0.05427956 -0.1605143 0.9803572 0.6153986 -0.53630435 -0.4311309 -0.027051533 0.17376602 0.15462187 -0.5260913 -0.59572023 0.053064402 1.0420197 0.111692995 0.04342629 0.35615543 0.38623008 -0.23105751 0.58964837 0.16100213 0.09641163 0.061350673
tramites 0.3061261 -0.33602637 -0.118932925 -0.056712326 0.14974298 0.790338 -0.4158901 0.46557418 0.16305289 -0.13011713 0.40792647 0.29704574 0.1999421 -0.030277567 -0.4225786 0.0023336753 0.18602471 -0.4091801 -0.65398026 -0.07523912 0.423633 0.1095012 0.7053691 0.16404992 0.05437625 -0.14984256 0.5575596 0.22600861 0.5765933 0.32248142
copia 0.59894437 -0.052304447 -0.09989088 -0.3317833 0.12038527 0.7509167 -0.5869426 0.17800647 -0.07850791 0.26876938 0.52218187 0.5748172 0.07829663 0.17445555 -0.31168368 0.17122997 -0.12927593 -0.45628905 -0.43432352 -0.025539044 0.6069003 0.24011995 0.3908205 0.30967048 0.09721695 0.06029906 0.47792715 0.4331955 0.58885556 0.55873877
subir 0.63478136 -0.36491707 -0.45646605 -0.2428302 -0.13048391 0.46738613 -0.31947654 0.51880264 -0.042108633 -0.029870465 0.34750003 0.08590538 0.5645888 -0.04606666 -0.46527937 0.077435374 0.27019322 -0.4813863 -0.663143 -0.11794387 0.36958468 0.20528863 0.75575596 0.089209616 -0.12248174 -0.023194136 0.5037273 0.12544663 0.67802894 0.5268613
continuar 0.4108859 -0.29677182 -0.41251093 -0.28541517 -0.010176566 0.6256141 -0.42875063 0.46375892 -0.09146035 -0.14157166 0.46141192 0.16798909 0.23049442 -0.23898025 -0.353866 0.026277198 0.2270672 -0.49174953 -0.5865384 -0.07015214 0.46791667 0.19161104 0.60766053 0.10753225 0.022205781 0.013270058 0.4388098 0.0775688 0.5247763 0.34893107
estos 0.32435822 -0.37821102 0.10193144 -0.036134638 0.16870755 0.8424372 -0.48486936 0.55603033 0.09429667 -0.16611187 0.3477252 0.33913627 0.23896234 0.07391284 -0.49607503 0.015230103 0.09148285 -0.42742985 -0.64001167 -0.09156967 0.4172215 0.09899222 0.69944066 0.122680925 0.056948382 -0.11630462 0.59949684 0.35875195 0.6134394 0.2941672
dicen 0.49307275 -0.27882794 0.08502677 -0.061310325 0.15512662 0.83015734 -0.50113285 0.62594795 0.10330515 -0.08105398 0.35666358 0.3478656 0.4915632 0.27793378 -0.5667487 -0.05339237 0.05752231 -0.39909092 -0.45956656 0.086816356 0.5077221 0.12869184 0.58993495 0.085359775 -0.027651832 -0.08000472 0.5313067 0.44685608 0.7060055 0.24829157
seguir 0.2540764 -0.34966403 0.06529882 -0.28829464 0.14289907 0.64178884 -0.54161894 0.54311234 0.14714639 0.016209207 0.54982543 0.25317976 -0.015190551 -0.031073911 -0.3028992 -0.08846228 0.2176479 -0.48453325 -0.7434788 -0.0031970923 0.5002908 0.024174273 0.60948664 0.13348827 0.2757983 -0.22681226 0.6028456 0.25670546 0.47125682 0.33730572
realizado 0.4019926 -0.39619264 0.06476416 -0.11333581 0.07709857 0.7708131 -0.4971851 0.62997293 0.1033459 -0.13100994 0.33502254 0.38412574 0.36535352 0.16834939 -0.50160384 -0.010782679 0.08589061 -0.25917435 -0.6158564 0.08804856 0.4464588 0.016326677 0.6202171 0.12772648 0.091689974 -0.035559345 0.59242356 0.24836454 0.6446452 0.33734456
soliicta 0.22715016 -0.12684874 -0.12166474 -0.24562703 0.072809786 0.46305218 -0.34282765 0.28142828 -0.0064930283 -0.06774485 0.32321057 0.21957785 0.099307835 -0.0891877 -0.21963042 -0.00045851732 0.07978175 -0.29917213 -0.40633607 0.0059847715 0.314482 0.0871136 0.37799677 0.15739475 0.013455909 -0.09071334 0.36827278 0.118088536 0.35543483 0.20154963
cargo 0.3422672 -0.19059514 -0.25423405 -0.30760399 0.08144928 0.6216047 -0.46417925 0.35888636 -0.06696514 -0.08885275 0.4037731 0.27187467 0.21580526 -0.1009999 -0.36463952 0.021670567 0.07957526 -0.42814428 -0.5181613 0.0888581 0.42707968 0.16238737 0.529764 0.13320921 -0.00046314768 -0.06944752 0.4144629 0.18965872 0.5803754 0.2966947
rechazado 0.32097906 -0.2817417 -0.14508827 -0.20397054 0.11226995 0.6389529 -0.43029496 0.39979044 -0.0033684033 -0.1222415 0.38243303 0.25355172 0.17284232 -0.09008356 -0.31678572 0.03793878 0.11232935 -0.4134542 -0.59805375 -0.006724584 0.36534956 0.087487444 0.5112806 0.16266538 -0.020944927 -0.14786766 0.43057865 0.21626332 0.5520391 0.2582738
hijos 0.39191496 -0.39193106 0.049216677 -0.18280803 0.012706477 0.85757834 -0.50934327 0.57373476 0.07254447 -0.16522212 0.37414044 0.4060228 0.25418115 -0.10588335 -0.38252485 -0.005942429 0.1894648 -0.34848017 -0.62280524 -0.068157196 0.27226657 0.13865761 0.6629562 0.12337092 0.060538534 -0.1476013 0.4623106 0.20969371 0.556531 0.25853
colaborar 0.032104645 -0.24615227 -0.101532206 -0.18591402 -0.051501505 0.9668864 -0.6610311 0.2862791 0.31433156 -0.24698733 0.25841618 0.65316397 0.589692 0.21203236 -0.7414115 -0.60488296 0.37693503 -0.10228429 -0.5986074 0.21989301 0.07611207 -0.26433513 1.0616232 0.12146964 -0.20302908 0.3799766 0.88295346 0.0065838397 0.7751289 0.028320858
mensaje 0.34265697 -0.24236448 -0.20053948 -0.23579384 0.11462339 0.76047707 -0.3849749 0.46197492 -0.054901857 -0.18710604 0.3554387 0.25587776 0.23939654 -0.13472655 -0.4435565 -0.10280171 0.15124153 -0.4740663 -0.63940734 -0.03610631 0.6268325 0.123750225 0.5379127 0.11892606 0.03458212 -0.20461713 0.4444121 0.21028617 0.56487554 0.397396
sem -0.079343125 -0.03318342 -0.9331335 -0.9643691 0.33989826 0.6832022 -0.37827194 0.49584612 0.005678907 -0.32450074 1.0532111 0.69361615 -0.56775016 -0.6177938 -0.027830627 0.16695328 0.36969382 -0.5203436 -0.6888153 0.050893288 1.2351916 0.0386768 0.054780617 0.3563097 0.3149488 -0.2729293 0.66622734 -0.08810219 0.03420724 0.17493808
escalo_correspondiente 0.29221573 -0.102860674 -0.2460048 -0.43716753 0.17283031 0.6996857 -0.5103213 0.3320974 -0.11076249 -0.09341583 0.56019 0.4014281 0.08651546 -0.28279153 -0.32288826 -0.022564208 0.101797014 -0.55990034 -0.51542497 -0.057720292 0.6303147 0.24939029 0.46586236 0.24869344 -0.060920753 -0.24515694 0.47500214 0.1965227 0.51457554 0.2846774
llamada 0.22191201 -0.11247052 -0.28238687 -0.14349678 0.023601556 0.85910374 -0.37862924 0.48709968 -0.07982333 -0.13514987 0.20603363 0.32470882 0.39870194 0.13105698 -0.707128 -0.079493485 0.2728162 -0.47099775 -0.6724215 0.03802909 0.49076223 0.20241949 0.8804464 0.3636188 -0.21326447 0.12590356 0.40873903 0.251574 0.565126 0.33168915
cancelar 0.26340014 -0.29296044 0.05691371 -0.14089899 0.12872334 0.8149162 -0.5776019 0.5287974 0.102843516 -0.038919926 0.3530183 0.5121392 0.083692245 0.013922326 -0.46571612 -0.02092454 -0.051609367 -0.32092255 -0.76416856 0.11419612 0.4711048 0.08050927 0.46447763 0.12787068 0.047678925 -0.13799071 0.62768507 0.32429528 0.6133452 0.28852504
da 0.59010464 -0.24835888 -0.70502627 -0.29812047 -0.21180952 0.4211619 -0.34039474 0.33099598 -0.09368587 0.04876537 0.45606527 0.21027401 0.5657895 -0.022044377 -0.524094 0.008374849 0.45228884 -0.5033126 -0.55709517 -0.0034570643 0.4594951 0.21817991 0.8874363 0.109306715 -0.12816207 0.1703511 0.58778334 0.019684669 0.5770126 0.5964152
paso_paso 0.33568838 -0.27450955 -0.27628943 -0.28722328 0.07884148 0.4820906 -0.39411652 0.30545372 -0.021040088 -0.065131746 0.40301487 0.21954995 0.18655224 -0.2191936 -0.33189967 -0.0018604156 0.093488656 -0.45370194 -0.53874767 -0.055991106 0.32489416 0.17033835 0.5788055 0.20260285 -0.0045402646 -0.08484151 0.45573452 0.1643994 0.49400467 0.32626882
envien 0.21702044 -0.21902223 -0.14190963 -0.43245587 0.2269221 0.6630391 -0.5379622 0.18819858 0.007910467 0.024916658 0.5608286 0.39777005 -0.10068621 -0.21697563 -0.21071568 0.028389303 0.048817776 -0.48020175 -0.5844708 -0.024724798 0.40300542 0.19926979 0.5404219 0.3954466 0.13491638 -0.21751995 0.55597687 0.17492723 0.3977425 0.27108887
comedidamente 0.11667922 -0.07219756 -0.28650647 -0.4185674 0.18202415 0.7232426 -0.40040103 0.32678604 -0.05219464 -0.12759055 0.5364136 0.2783923 -0.07880735 -0.4180734 -0.18755245 0.03245627 0.010525327 -0.5215585 -0.68977046 -0.07687261 0.6948031 0.20944628 0.3881769 0.35622638 -0.014625015 -0.3962388 0.47394377 0.07834935 0.34680462 0.24603583
falta 0.70279914 -0.5013809 -0.017684158 -0.18880738 -0.021074964 0.7772854 -0.5582032 0.46686864 0.1320385 -0.10058677 0.43368173 0.4586679 0.47459704 0.07441985 -0.6039745 0.0003565567 0.17371438 -0.2544659 -0.61791986 0.045372453 0.25108525 0.14622588 0.6669581 0.17066988 -0.014059254 0.12635669 0.5785937 0.48293158 0.73454684 0.2834465
servicios_medicos 0.38712978 -0.2668789 -0.050717715 -0.25120655 0.0064333915 0.76879585 -0.39770916 0.47555372 0.036969252 -0.17236263 0.43068555 0.39687595 0.17406105 -0.065847404 -0.38434035 0.00199299 0.16242827 -0.4426023 -0.64732456 -0.028810281 0.33017096 0.1259925 0.58211905 0.14099911 0.011096136 -0.16713792 0.5150175 0.21224476 0.5609398 0.2364893
sustituto 0.3020189 -0.20451923 -0.12076815 -0.34286734 0.009168761 0.68645024 -0.4739214 0.48513976 -0.0020295375 -0.1903979 0.38862675 0.12531374 0.22877182 -0.19538313 -0.1579442 -0.03818782 0.16926874 -0.45454788 -0.70540464 -0.0202974 0.14780237 0.13023606 0.6085777 0.2519271 0.04653297 -0.089872696 0.44546327 0.13528392 0.49081236 0.31554982
inconvenientes 0.28978506 -0.20055637 -0.17754284 -0.2654935 0.114264436 0.7387253 -0.42928207 0.44161195 0.022321958 -0.15495367 0.40513402 0.3514168 0.1775669 -0.06726964 -0.39838502 -0.033835147 0.09416835 -0.40872866 -0.6521749 0.052857354 0.39277866 0.075504415 0.64146566 0.1871533 0.03330435 -0.030636275 0.53087324 0.2063618 0.55690855 0.2583858
