1932 30
facturar 0.20598313 0.98972225 0.20016761 -0.3934856 -0.10515307 0.1796586 -0.45519915 0.58941424 -0.25252387 -0.35255012 0.08312097 0.5625984 -0.26952657 -0.5006926 -0.46812162 0.36393446 1.0773618 -0.40428907 0.16388509 -0.51217496 -0.37465262 0.2616091 0.28218347 -0.04152195 0.47591314 -0.4810982 -0.651921 -0.41860735 -0.2148215 -0.5100053
llamar 0.11162691 1.1030413 0.2390251 -0.23812237 -0.39345235 -0.33949542 -0.5567036 0.5443203 -0.12105462 -0.38703647 -0.51585776 0.994331 -0.040823344 -0.1283203 -0.17998368 0.5002262 0.007917451 0.077677816 0.51519305 -0.6080233 -0.18218431 0.006476362 0.10730942 0.06151181 0.042727966 -0.1592213 -0.5058856 -0.6040526 -0.14353819 -0.12056019
enviar 0.42007428 0.40121353 -0.2296997 -0.39314422 -0.36106318 -0.59685796 -0.16803351 -0.31127167 -0.28203595 0.39564803 -0.68370587 0.21268511 0.24978678 -1.0092238 -0.70518374 0.53710395 0.6455204 -0.65159583 0.29250628 -0.5276738 -0.41086456 -0.16713323 0.26629856 0.31531152 0.35575745 -0.6765379 -0.49194103 -0.2040357 -0.35756063 0.056535587
informacion 0.61753756 0.38933086 -0.8187633 -0.34263927 -0.70860195 -0.85640824 -0.08755512 -0.20870002 0.08829584 0.30514833 -0.73516625 0.44751233 -0.18817621 -0.89249057 -0.39629737 0.51184785 -0.34741688 0.4306943 0.33116525 -0.56738424 -0.1720804 0.0683122 0.08189434 0.02376047 0.3716559 -0.3580703 -0.17550753 -0.45917004 0.15591499 0.04560735
telefono 0.20239416 0.8306074 -0.49056023 0.29306084 -0.5719584 -0.27140227 -0.67998624 0.22071458 0.7043648 -0.024538022 -0.8457808 0.72807467 -0.18515307 -0.02956619 -0.6653318 -1.1286168 -0.47879425 -0.45887217 -0.4531587 -0.6640576 -0.07815796 0.13042644 0.13456751 -0.6251488 0.6080959 0.2870918 0.15207323 -0.43109906 1.1071876 -0.27624956
respuesta 0.60086113 0.36763766 -0.2198622 -0.4637417 -0.77678186 -0.73181874 -0.24875551 0.3316188 -0.5668547 0.049951017 -0.3922288 0.6282248 -0.0044999276 -0.90080774 0.15665962 0.7817183 0.6555837 -0.79368657 0.0041862167 -0.6989296 -0.35984018 -0.14858244 0.38729197 0.9393934 0.2852023 -0.46884105 -0.4920578 -0.7308212 -0.24921332 -0.3462904
certificado -0.33425406 -0.6074989 -0.13274086 0.1242302 -1.1749778 0.35930103 0.28147984 0.53528345 -0.17842232 0.24758025 -0.58457553 1.3086638 -0.66967195 -0.93680185 -0.7999499 1.2770021 -0.6647088 0.17026211 0.055438112 0.29226828 -0.26261008 1.167809 -0.07359219 -0.102541275 0.7921491 -1.012925 0.3935617 -1.3850778 -0.06073951 0.47229847
proveedores 0.21158537 0.116362326 -0.52441394 -0.17101859 -0.45102364 -0.6647918 -0.07251134 0.06307047 0.18922995 0.018226353 -0.79826903 0.3029842 0.006571537 -0.90335673 -0.045177776 0.06810066 -0.17414555 0.0027691985 -0.14923628 -0.71488297 -0.28411955 0.4586361 0.39923465 0.12793368 0.43778023 -0.7969848 -0.2679575 -0.49543494 0.32548386 0.045891937
aparece 0.3058507 0.3183279 -0.3412785 -0.14155836 -0.50547504 -0.10515096 -0.72766817 0.34755048 -0.069097795 0.0013305298 -0.14701952 0.7272612 -0.37455475 -0.16829829 -0.573011 0.6094255 0.013633677 0.16704497 0.059851833 -0.38096622 -0.263201 0.5628886 0.44613338 -0.19575383 0.25665906 -0.024292778 0.031150278 -0.8363921 0.29654258 -0.28252867
solicitar 0.37580895 0.30424622 -0.44829977 -0.577141 -0.4767256 -0.620729 0.39441472 0.27417067 -0.34936062 -0.096978284 -0.9954553 0.53984344 -0.25642678 -0.41948533 -0.39263618 0.83665204 0.03303684 0.14203507 0.39809883 -0.093520254 -0.20063306 0.5528179 0.38820252 0.36338377 0.039245684 -0.4823085 -0.11867737 -0.8005477 -0.009817041 -0.091147766
electronica 0.26757064 0.60276634 0.34130138 -0.59667426 0.098989 -0.48155245 -0.53208894 0.21467167 -0.3401445 -0.32289773 0.458947 0.45969233 -0.049905166 -1.0284853 -0.5821263 0.02331527 1.5435466 -0.40125406 0.057396915 -0.7301693 -1.2497541 -0.15679063 0.6466022 -0.09844605 0.86608815 -0.08932607 -0.41427052 0.06447979 -0.053012077 -0.12393102
plataforma 0.36387628 0.13748854 -0.17609128 0.3445701 -0.76658034 0.13990378 -0.3884255 0.47939625 0.1850482 0.22490448 0.39408094 0.85582894 -0.26325116 -0.72452575 -0.4311825 1.0109454 0.17198656 0.5603894 0.2955737 -0.7476731 -0.45464936 1.0932205 0.4306839 0.3153312 0.5231964 -0.7299298 -0.42767426 -0.8404981 0.2146733 -0.30752382
sistema 0.19541551 0.10207413 -0.534392 0.35941565 -0.64663935 -0.37718266 -0.32640308 0.021228861 -0.001378057 0.031576324 -0.063364066 0.41817886 -0.41852507 -0.58066833 -1.0029682 0.7431656 0.100486785 -0.076716036 0.35988194 -0.4911527 0.02432588 0.19820489 0.3539522 0.14316277 0.30377033 -0.4538032 -0.7151676 -0.6702147 0.12157469 -0.06888681
registrada -0.18232827 0.11159789 -0.49371174 -0.13598329 -0.5192415 -0.4959822 0.062002193 -0.1519268 0.47963217 -0.0936338 -0.90895844 0.2311637 -0.12332628 -0.86766326 -1.0487114 -0.05131289 -0.8966951 -0.029897284 0.40371484 -0.25316373 0.15391937 0.2601129 0.44638947 -0.2891635 0.3856983 -0.50081503 -0.15068935 -0.39088625 0.7216181 0.04991394
comprar 0.08398996 0.31809908 0.15263994 0.09285795 -0.041605987 -0.0500765 0.15557908 0.09917296 0.28109163 -0.37226772 -0.884911 0.21214755 -0.026972987 -0.14629905 -0.73389614 0.17102051 0.21456742 -0.16387844 0.010800935 -0.42241693 -0.45530638 -0.05497662 0.27930027 -0.33382875 0.6285306 -0.16081212 -0.3944423 -0.7419896 -0.22829409 -0.13121988
pagina 0.078461535 -0.14384939 -0.36167166 0.8063687 -0.75828403 -0.19771913 -0.16699316 0.13549452 0.39395058 0.6890474 -0.43714324 0.7802679 0.104626946 -0.7204914 -0.97888356 0.9647106 -0.66938436 0.019398272 -0.07651954 0.007563234 -0.66287005 0.50622416 0.09721643 -0.06706428 0.41163018 -0.83277506 0.1257493 -0.8818875 0.4217244 -0.17207642
credito -0.15829836 0.51722854 0.246598 -0.8164551 -0.3455914 0.16250728 -0.06894445 0.21357417 -0.41326025 0.27560875 -0.24325205 0.819953 -0.1726235 -0.10392372 -0.10728005 0.3029659 0.023041526 -0.3882042 -0.31043065 -0.46124703 -0.73654014 0.17946273 0.17455183 0.1167226 0.6149891 -0.8693693 -0.4565379 -0.9756944 0.07505664 -0.13529064
retencion -0.10072902 -0.25734895 -0.058813587 -0.26388827 -1.3747289 0.3506723 0.056901377 0.47686 -0.17790441 0.17605464 -0.39003345 1.6741098 -0.6143503 -0.29669988 -0.37295783 1.6655118 -0.26830807 0.43945843 -0.4113 -0.073991865 -0.6159806 1.3827368 -0.31124076 -0.71948856 0.4771953 -0.63443273 0.42859945 -1.4208394 -0.106460825 0.025695575
pregunta -0.018348498 0.13895679 0.14122687 0.11686207 -0.45437038 0.042806223 -0.06542713 0.6025869 -0.055417426 -0.004783424 -0.49245298 0.19789542 -0.56526667 -0.4880601 -0.795465 0.3905077 0.13112988 -0.15129384 0.20190029 -0.5143177 -0.50288945 0.23574275 0.47768855 -0.1543591 0.35050154 0.0020763392 -0.4108924 -0.57435876 0.18992014 -0.017650135
problema 0.13486563 0.56579375 -0.1883414 -0.097153544 -0.16902806 -0.32775894 -0.12268335 0.16470942 -0.001090539 -0.2505396 -0.25281978 0.91475964 -0.0935287 -0.48510864 -0.45840845 0.26485947 0.54038626 -0.068820246 0.15482691 -0.5672788 -0.13564749 0.031373214 0.47099954 -0.10100006 0.22761703 -0.40801215 -0.55995405 -0.412141 -0.008586145 -0.097758524
necesito -0.11698039 0.28439143 0.23699032 -0.4867117 -0.41905665 0.27556276 0.3486427 0.55542827 -0.061907336 -0.33937618 -0.3231322 0.73275054 -0.28235152 -0.28055015 -1.01636 0.9512129 0.12931818 0.027819945 0.15914084 -0.41804722 0.030102681 0.70991105 0.6307247 -0.3180585 0.2857255 -0.32402286 -0.15009996 -0.5605636 -0.269644 -0.31886914
datos 0.28745413 0.19894585 -1.237104 0.13641347 -0.72091955 -1.1353066 -0.2592809 0.029397253 0.32274312 0.53467304 -1.062932 0.65931803 -0.1301399 -1.0525095 -0.7781407 0.45532677 -0.16241014 -0.00069039036 0.381719 -0.033606008 0.2924684 0.44110367 0.631915 -0.5466096 0.103937894 -0.55236745 0.398895 0.01945752 0.7112026 -0.1464742
contrasena 0.1355566 -0.49698126 -0.55647177 0.6114898 -0.65868014 -0.65839493 -0.61653537 -0.11940259 0.71088296 -0.04396093 -0.6121275 -0.09041765 0.10314802 -0.5544652 -1.610205 0.7627374 -1.1196891 0.13940972 -0.018790195 -0.9662164 0.56356955 0.47772032 0.18177411 -0.011929703 0.7230658 -1.1158798 -0.18518119 -0.7791938 1.1280586 -0.25019607
enero 0.070803024 0.6560826 -0.13049552 0.056019947 0.22353153 0.24915242 -0.11516407 0.099396065 -0.56247866 0.34228292 -0.018078066 0.75300413 0.16648652 0.019166399 -0.77766985 0.8187729 1.3200377 -0.59052277 0.5185072 -0.4013411 -0.95487183 0.2173966 0.8613585 0.24202973 0.5867956 -0.2814188 -1.0916437 -0.45727086 0.038100354 -0.09776058
llega 0.2551105 0.42935723 0.18673263 -0.45742866 -0.36632818 -0.2565231 -0.47232148 -0.24691959 -0.0676095 -0.30239874 -0.2557183 -0.020633377 -0.023530796 -0.7782429 -0.9353288 -0.114026666 0.6521421 -0.43293408 0.20773652 -0.6608406 -0.8680423 -0.41587815 0.8392592 0.41313496 0.76857364 -0.15495937 -0.6626489 -0.05268808 -0.30606133 0.15481402
interes -0.18716878 -0.27665418 -0.30201644 0.21716487 -0.18410078 -0.21829218 0.052749276 0.1351291 0.42348254 0.01915886 -1.0207143 0.5543858 -0.042823058 -0.46757206 -0.4185803 0.15936679 -0.33981404 0.2884342 0.05358659 -0.62572366 -0.47184822 0.31718782 0.05628767 -0.4652637 0.77648705 -0.3962516 -0.20476344 -0.7877916 0.36215904 -0.091436915
proceso 0.4601691 0.606261 -0.069029026 -0.19835451 -0.63394165 -0.0905852 -0.0696213 -0.17699806 -0.14030662 -0.28940123 -0.5919731 0.42117316 -0.020575538 -0.266589 -0.6509023 0.38286075 0.8993323 -0.048517365 -0.023931917 -0.25668576 0.20499842 -0.32090747 0.9073879 0.3415186 0.30025217 -0.6205766 -0.6374014 -0.71971637 -0.34280947 -0.06389078
contrato 0.57578194 0.7135666 -0.3605648 -0.26649043 -0.6100332 -0.6764253 0.46708816 -0.029066723 -0.032297246 -0.10670569 -0.68935055 0.32061067 0.1158434 -0.5510042 -0.075311296 0.87331563 0.36131155 -0.3159118 0.61407596 -0.4454453 -1.0154983 -0.32986146 0.4902789 -0.20412718 0.17652632 -0.19753164 0.47565913 -0.5850199 -0.10730935 -0.68844116
ingresar 0.6113305 -0.1508765 -0.83331734 0.47359732 -1.3284441 -0.22951503 -0.18354006 0.5104509 0.2820703 0.60494316 -0.066218 0.39369768 -0.16427223 -1.1837071 -1.2153636 0.7794244 -1.1714423 0.3404655 0.42476165 -0.5749111 0.2479927 0.59131014 0.21947657 -0.21179447 0.37403932 -1.0275942 0.073601834 -0.8690064 0.7081247 -0.23199593
pasado -0.12521684 0.58784837 0.059302684 -0.25711975 -0.41004014 -0.014252828 -0.1843642 0.7054244 -0.72398585 0.0059277806 -0.17898113 0.8700574 -0.17801964 -0.66125077 -0.13866255 1.6265786 1.0372759 0.02428005 -0.22125182 -0.43498817 -0.60963297 0.39409935 0.0033638426 0.22225995 0.537046 -0.4938863 -0.54469097 -0.90797144 -0.105035305 0.07359589
usuario 0.13438313 -0.17866199 -0.045795955 0.6000909 -0.39131537 -0.7045028 0.06269383 0.051796723 0.83533835 -0.00830522 -0.80869895 0.49405596 0.19837639 -0.5672477 -1.5669056 0.6559999 -1.2083721 0.33993506 0.41694108 -0.46795577 0.39239597 0.8665304 -0.36507154 -0.045195345 0.7185637 -1.313129 0.2311943 -1.0580066 0.47170508 -0.111108296
pagos -0.3296684 0.51032525 0.21995445 0.15894508 -0.4937797 0.21493807 -0.06449944 0.29458565 0.28613275 0.19927599 -0.106629714 0.6502087 -0.7079033 -0.61614263 -1.1057494 0.6720774 -0.12040852 0.33913875 0.56318396 -0.22526711 0.043874968 0.9335476 0.3247318 0.076610126 0.4639767 -0.8468472 0.12015989 -0.9341362 0.04542663 0.23234539
cliente -0.29636404 0.6750881 -0.016576244 -0.09654003 -0.42508844 -0.58544976 -0.09062142 -0.12658842 0.1318298 -0.33555916 -0.5877392 0.18741456 -0.19611591 -0.50467306 -0.68074596 0.25477993 0.08678003 -0.25570232 0.05263081 -0.08578609 -0.6431657 -0.14390504 0.30215174 -0.3357383 0.5829927 -0.20905109 0.04347994 -0.29291293 0.36635137 0.14539753
representante 0.46755078 0.5586161 -1.0506932 -0.10267471 -0.858828 -1.2859143 -0.5701007 0.7850213 0.6648534 0.023743719 -0.84816825 0.60048515 -0.13737391 -0.40046403 -0.66695005 -1.0821729 -0.13899334 -0.08658709 -0.38383737 -0.70846546 0.2095786 -0.06804838 0.6357253 -0.424528 0.21894658 0.20646016 0.30625987 -0.01931981 1.1318545 -0.121613435
verificar -0.049548037 0.6122858 0.058891587 -0.17380117 -0.24190025 -0.51787305 -0.07234762 0.025207499 0.3851479 -0.4155964 -0.76524144 0.67762834 -0.15494846 -0.38579834 -0.8151248 0.82255715 0.52293867 -0.06177151 0.18989904 -0.14578459 -0.17431116 0.6223287 0.3436109 -0.2578769 0.2582916 -0.21398196 -0.34988 0.05519386 -0.11675485 -0.013931481
fecha 0.67154956 0.9163565 0.3336089 0.09752555 -0.4484572 0.24825798 -0.15612519 0.55865234 -0.5800001 -0.4081591 -0.582944 0.8324276 -0.5339549 0.0303996 -0.35885537 0.38047448 0.5912221 0.19194815 -0.049883313 -0.39308015 -0.19384602 -0.06961713 0.78014964 0.5137868 0.07932448 -0.17143238 -1.1618791 -0.9042612 -0.4290426 -0.59645057
electronico 0.031546686 0.6359831 -0.5047181 0.2276857 -0.4450326 -0.5490899 -0.32869396 0.34351823 0.62741506 -0.19180724 -0.7156018 0.38668334 -0.056925856 -0.4238603 -0.59859157 -0.66716087 -0.3476524 -0.7016451 -0.26128113 -0.8550027 -0.25153098 -0.24198827 0.14142878 -0.4312973 0.44392136 0.29201278 -0.24400702 -0.3052817 0.4966105 -0.41346562
entrar 0.08228195 -0.13956475 -0.10109367 0.43191212 -0.303148 0.26825958 0.039084077 0.38689718 0.20464104 0.09274766 -0.55774504 0.70783055 -0.073404215 -0.5090752 -0.9900941 0.7483021 -0.059771 -0.024912462 -0.16152689 -0.36233115 -0.3075265 0.55794305 0.10726486 -0.14897671 0.22451648 -0.43221804 -0.14866371 -0.91806215 0.4270894 -0.27178773
haciendo 0.5707071 0.23621105 -0.23306036 -0.09026734 -0.6085879 -0.489145 -0.2919586 0.08794596 -0.29871365 -0.14160113 -0.8420064 0.4972378 -0.123022065 -0.47767982 -0.15560889 1.0243355 0.41941378 -0.18184267 -0.2600078 -0.48705482 -0.18192138 0.7101576 0.18951637 0.34130847 -0.14464721 -0.21155368 0.071922764 -0.92302924 0.022844557 -0.3527647
comun 0.31869057 0.19651872 -0.25655776 -0.08090851 -0.008687822 0.06320898 -0.19571245 0.24974507 0.3243971 -0.0450174 -0.7342217 0.18976752 -0.123285085 -0.21525198 -0.5507707 0.45313543 0.048853103 -0.2293842 0.037665162 -0.5813562 -0.39722222 0.2202482 0.26638296 -0.25402242 0.5909131 0.33369023 -0.5291327 -0.83735925 0.19840756 -0.18436891
confirmar -0.004000355 0.9116978 0.20058858 -0.28202227 -0.42938074 -0.20301826 0.13001743 0.50742865 -0.21125442 -0.7027755 -0.30148497 0.38881138 -0.2590076 -0.3827953 -0.20573676 0.41159248 0.86477494 0.013797167 -0.09013739 -0.44637313 -0.3858114 0.50161076 0.35230327 -0.10587237 0.50163186 -0.298838 -1.0756391 -0.40833786 -0.16349363 -0.34760845
espera 0.123386316 0.61639243 0.06260099 -0.34819922 -0.11716999 -0.2890511 -0.26307103 0.41469204 0.31665924 -0.5921524 -0.611965 0.74349123 0.16799991 -0.16067202 -0.7923521 -0.19992834 -0.40865982 -0.23642251 -0.2751196 -0.33741745 -0.105916925 -0.07156447 0.42414275 -0.1567497 0.40073958 -0.17901891 -0.3818685 -0.22440076 0.5207086 0.20354061
consulta -0.12240641 0.07844614 -0.064187445 0.06593269 -0.6659566 0.24813813 0.016484873 0.34591165 0.2572496 -0.10186747 -0.20266989 0.48121855 -0.4609602 -0.1697448 -0.67668384 0.8753574 0.24772738 0.024855632 0.008051175 -0.2515838 -0.71230805 0.8064731 0.042661108 -0.33706456 0.66902554 -0.36210337 0.0969875 -0.8953003 0.49574476 0.2430597
producto -0.1545069 0.18423197 -0.15375665 0.5113083 0.14426495 0.046771795 -0.24781086 0.30003542 -0.27601752 -0.3167886 -0.66821617 0.30928236 -0.04149212 -0.744125 -0.8409752 0.073503815 0.19026457 -0.46979776 -0.36456165 -0.12632373 -0.7862299 0.034179486 0.26973632 -0.04452001 0.6965543 -0.6848625 -0.3441684 -0.2879865 -0.0007316641 -0.40124634
proveedor -0.099847294 0.31021518 -0.21497762 -0.41482058 -1.079823 -0.5202451 -0.099236704 -0.23812875 0.053288423 -0.15902649 -0.770754 0.03727669 -0.32838637 -0.30235186 -0.39420497 0.23399194 0.39132315 0.12632993 -0.061519407 -0.63959545 -0.37240276 0.040449843 0.4326816 0.11199234 0.29860857 -0.49327126 -0.28488648 -0.48914808 0.22896565 0.17839743
hizo -0.0859751 0.58173317 0.010190965 -0.07163088 -0.5694113 -0.37336543 -0.02928353 0.2502908 -0.2567444 -0.03203749 -0.6773956 0.7570511 -0.235126 -0.34971064 -0.50135297 0.29377955 0.17781542 -0.15681055 0.062616274 -0.2834125 -0.321537 -0.33918923 0.15304829 0.09307371 0.2796238 -0.37501043 -0.25641426 -0.4903974 0.056744248 -0.25337684
documento 0.4358861 0.2212681 -0.377244 -0.34650767 -0.6913056 -0.14705567 0.11050515 0.05287694 0.20514533 -0.026544977 -1.1090276 0.3955623 0.08474354 -1.2390156 0.10603238 0.27962312 0.034635674 -0.099232845 0.4149892 0.1771514 -0.28972444 0.08618207 0.32980436 0.3391519 0.867804 -0.917126 -0.10291836 -0.77433383 -0.37988436 -0.09236757
ciudad -0.26392347 0.71394736 0.055807102 0.10881971 0.035888914 -0.15755051 -0.7722075 0.35827425 0.4628018 -0.2909474 -1.1073059 0.83910555 0.2507557 -0.2917492 -0.647727 -0.740658 -0.5431865 -0.36863267 -0.19697915 -0.7058318 -0.12555635 0.22284539 0.16133396 -1.0199267 0.27161524 0.13122517 -0.0056254854 -0.23253176 -0.091453925 -0.5287528
recibir 0.33401665 0.62189144 0.53754115 -0.40893948 -0.10256375 -0.29236323 -0.55634785 0.1971215 -0.44901514 -0.27150694 -0.5293718 0.07687967 0.1103595 -0.7875658 -0.46166572 -0.0038048984 0.9639429 -0.21556646 -0.11325455 -0.7052323 -0.5365693 0.09728847 0.81381136 0.28740358 0.60934025 -0.24099717 -0.757935 -0.29714262 -0.7096842 -0.2989218
gmail -0.12728259 0.30942765 -0.44350255 0.2247078 0.04062781 -0.31033656 -0.74475354 -0.116564065 0.49209294 0.007841177 -0.88507605 0.4343216 0.12370868 -0.5715257 -0.9006586 -0.8017002 -0.34505457 -0.25693706 -0.25437078 -0.78969586 -0.33316237 -0.09203048 0.38040367 -0.6770625 0.5612643 0.54451305 -0.18561812 -0.42602032 0.8879992 -0.14367141
respecto 0.05706607 0.46327314 0.15016939 -0.031400513 -0.57380795 -0.13888031 -0.04326872 -0.25613213 0.14735037 0.3717833 -0.25639895 0.38397235 -0.20920771 -0.18834381 -1.1235161 -0.05124669 0.38032684 -0.3075846 0.366016 -0.3836649 -0.6134956 0.23503503 0.4540697 0.11944217 0.25541273 -0.124219425 -0.4322778 -0.68082035 0.0065423828 0.301496
contabilidad 0.39940923 0.89883983 -0.5953909 -0.53629017 -0.39924404 0.2515337 -0.36016557 0.10105574 0.15123843 0.22891264 -0.6488749 0.21480171 -0.27744007 -0.08956387 -0.54900086 -0.5729013 0.4453643 -0.1287703 -0.1955552 -0.8074607 -0.16151135 0.3036984 -0.19558997 -0.86283416 0.43419465 0.64496005 0.21725188 -1.1886138 0.127707 -0.08606514
puesto 0.048481412 0.6387269 -0.13291642 -0.39499277 -0.5980838 -0.4261052 -0.11146745 0.17128436 -0.008676305 -0.506747 -0.45925844 0.759914 -0.23612902 -0.6964768 -0.13152464 0.24116358 0.42910063 -0.1485778 -0.11471857 -0.5253736 -0.33069855 0.23909387 0.09714045 -0.35550177 0.43600187 -0.23581365 -0.09881809 -0.13439313 0.30297777 -0.3230352
compra -0.3790929 0.7047751 0.050121717 -0.56967664 -0.31091487 -0.17936938 -0.07670367 0.25120357 -0.331593 -0.056283087 -0.32067597 0.092094034 0.14104111 -0.23400223 -0.60501224 0.3346222 0.5727694 2.5083427e-05 -0.06752309 -0.45621046 -0.47806647 0.08266978 0.43693596 -0.21134306 0.9491832 -0.3168099 0.0072261943 -0.5422369 0.26053268 -0.2905532
internet 0.16576824 0.124655925 0.19358277 0.10484091 -0.23627377 -0.3539339 -0.12910485 0.16290276 -0.07668729 -0.25067782 -0.76107615 0.6168257 -0.24720141 -0.21042578 -1.0158398 -0.013673849 -0.013152987 -0.35560593 -0.24842995 -0.3659093 -0.45668384 -0.0088068675 0.10234644 -0.42356333 0.52688575 0.040083267 0.10106992 -0.3601974 0.22156797 -0.32347745
control 0.35108837 0.5047965 -0.24819334 -0.18680641 -0.022373196 0.12596343 -0.30424833 0.6788781 0.35567707 -0.29911605 -0.7320469 0.39919612 -0.34500414 -0.50991714 -0.2741513 -0.11477637 0.24859707 -0.26466122 0.18261981 -0.78247756 -0.19404352 -0.24258627 0.38474137 -0.72021645 0.4711602 0.23014729 -0.029766826 -0.62259096 -0.24348925 -0.3452439
numeros 0.026664803 0.88923466 0.08068751 -0.18038906 0.049678516 -0.068155244 -0.2750394 0.39500365 0.27386853 -0.2975801 -0.7701805 0.4941244 0.3697146 -0.13347057 -0.8181865 -0.5177262 -0.26087874 -0.447894 0.040317286 -0.17736965 -0.40504768 0.24337171 0.1317962 -0.60367787 -0.0038604084 0.07519526 -0.3349304 -0.5782154 0.65151536 -0.28336188
pendiente 0.004246938 0.8347504 0.25115067 0.108527765 -0.2622739 -0.08636661 -0.18940389 0.3213845 -0.24107009 -0.12165819 -0.09232885 0.34879097 -0.14921156 -0.12819088 -0.673584 0.71174234 0.76061994 -0.2645282 -0.021263605 -0.3866753 -0.5022286 0.19554283 0.5233417 0.17915863 0.3079348 -0.23656946 -0.63711107 -0.8724406 -0.47533995 -0.14507255
unico -0.033989996 0.66304624 -0.15123414 -0.16536461 -0.5538371 -0.49708837 0.15505171 -0.27258754 0.2597227 -0.4650064 -0.63700616 0.25817576 0.02697601 -0.617936 -0.4870781 0.23111229 0.25250608 0.03217551 -0.27175453 -0.43401915 -0.37976027 -0.01922502 0.35096312 0.0023823096 0.4404253 -0.24876606 -0.04142792 -0.4465256 0.48898616 0.18179324
bancaria -0.4368842 -0.15437627 -0.56356734 0.17760934 -0.9624214 -0.5577904 0.3812897 -0.29729733 -0.12839462 -0.2116369 -1.0845728 0.45423985 0.36737013 -0.78611946 -0.97117305 0.7464853 -0.605854 -0.49103186 -0.016568072 -0.3168624 0.1681274 0.3005854 0.19754791 -0.18634368 0.5026809 -0.96331954 0.18930727 -0.4139187 0.663299 0.5336581
perder 0.015942886 0.3558613 0.10298663 -0.057707366 -0.2640173 0.32262293 0.30200267 0.45324746 0.054063864 -0.507698 -0.61560374 0.39790654 -0.063586205 -0.78340083 -0.29372784 -0.35103568 0.1950347 -0.099027716 0.13857839 -0.6237835 -0.30109462 0.018382488 0.37277415 -0.16425353 0.52761763 -0.027642302 0.026958907 -0.9610822 0.1685585 -0.20641696
conjunto 0.045300797 0.5285095 -0.09987622 -0.055129547 0.18401343 -0.19866274 -0.26366985 0.1390125 0.7256802 -0.13842154 -0.5204022 0.36201993 -0.040756322 -0.48755905 -0.66347563 -0.036039397 -0.13875313 -0.60120773 -0.18768755 -0.60617083 -0.33673415 0.006653267 0.11770687 -0.52657723 0.7138229 0.07498103 0.18709937 -0.65216184 0.41767043 -0.059578896
comercial -0.28386638 0.6857643 -0.21707475 -0.09341621 0.22732708 -0.5662451 0.0008586935 -0.27040514 0.6865738 -0.6248325 -1.0385423 0.29232883 0.21269494 -0.47176644 -1.0673885 -1.0385907 -0.3463851 -0.6780465 -0.34874398 -0.7451089 -0.5161033 0.046193354 0.24841955 -1.1174244 0.61316663 0.12194595 0.5206589 -0.40432405 0.4667859 -0.27174637
contacto 0.15469489 0.7348658 -0.27458063 0.30345237 -0.44816133 -0.25472927 -0.05452672 0.15206568 0.09899838 0.034831572 -1.0122466 0.23078431 0.11229468 -0.35447055 -0.50773996 0.22988348 0.0711783 0.0051386273 0.007003553 -0.12884092 -0.8516737 -0.07023651 0.15631509 -0.49809858 0.80215955 -0.07850725 0.5853816 -0.34658954 0.27358893 0.10639981
recibido 0.4102471 0.5835021 0.14730258 -0.20084485 0.119470865 -0.09297081 -0.5850128 0.1321362 -0.41494533 -0.3827452 -0.25376394 0.6139898 0.027732426 -1.0180558 -0.10068301 0.64138246 1.1642623 -0.62689966 -0.081024505 -0.5755385 -0.85823256 -0.11023233 0.69358605 0.53071445 0.5750217 -0.3527163 -1.2292882 -0.4637984 -0.743029 -0.045595642
diciembre -0.092370436 0.24523363 0.094045684 0.005724439 0.26945567 0.29295212 -0.38016492 0.5024338 -0.3295319 -0.37236348 -0.29178298 0.6778236 -0.3988013 -0.69655246 -0.8270339 0.5529881 0.48296982 -0.19593693 0.14821795 -0.714062 -0.24701738 0.15596303 0.6882858 0.07073452 0.3390139 -0.33510485 -0.3624048 -0.27047125 -0.078852296 -0.2717837
personas 0.24847351 0.7269989 0.050469484 0.016840681 -0.49502403 -0.34486088 -0.20055483 -0.062100258 -0.11241969 -0.3027889 -0.6194175 0.62109834 0.041412245 0.0037322997 -0.49151853 0.32425866 0.33174488 -0.025336277 -0.112126544 -0.47132134 0.007814735 0.1653768 0.24516636 0.255422 0.2072647 -0.24217166 -0.2834955 -0.8629519 0.1925704 -0.057457432
dices 0.40614215 0.40119308 0.15877382 0.41810262 -0.485149 -0.47780085 0.3888939 0.116864294 -0.055082034 -0.04004162 -0.21943754 0.4790076 0.1417063 -0.28847408 -0.86436784 0.16495879 -0.26868102 -0.2353338 -0.16864653 -0.5554436 -0.18304062 0.035579763 0.54970366 0.32028848 0.68976784 -0.41283092 -0.09152855 -0.66952 0.58074576 -0.04260382
nivel 0.12372474 0.46852678 -0.20008066 -0.01270867 -0.39799324 -0.23953721 -0.19580989 0.13509867 -0.07927435 0.62600875 -0.67303276 0.40168422 -0.23899171 -0.37032473 -0.7213837 0.14764252 -0.3102726 -0.21556151 0.63285017 -0.28318626 -0.40553665 -0.083178535 0.542629 0.0172808 0.22176614 -0.29871523 -0.32094014 -0.7909037 -0.010913454 0.07555632
celular 0.2922585 0.6060181 -0.38356933 0.8261659 -0.5408212 -0.3332255 -1.1844081 0.030484207 1.1766484 -0.33565056 -1.3712058 0.9235258 -0.093754746 -0.13233839 -1.5721955 -1.977114 -0.67993397 -0.93097746 -1.0212129 -0.80983835 0.030787203 0.12867662 -0.32831675 -0.50243956 0.5560625 0.53693444 0.72399473 -0.66801924 1.4125996 0.17009638
encuentra 0.18333495 0.72663534 0.22900845 -0.11267741 -0.4056545 0.0029639336 0.09122661 0.3189327 0.35844544 0.1212692 -0.23713103 0.3021571 -0.082871884 -0.24443775 -0.97384435 0.7081103 -0.44186646 0.033097208 0.2956984 -0.12154485 -0.3161368 0.6813456 0.22991419 -0.041413154 0.19191702 -0.4121354 -0.37975788 -0.8116758 0.15602063 -0.29964426
dije -0.22800858 0.17840742 0.06914604 -0.31783718 -0.5966771 -0.101974994 -0.15742397 0.54660636 -0.19569822 -0.3446251 -0.7058137 0.66443264 0.24945317 -0.1942979 -0.5525646 0.62197256 -0.1826454 0.41986415 -0.1733604 -0.56903994 -0.3747706 -0.016248044 0.5035272 0.21411577 0.22543016 -0.80857944 -0.64894193 -0.32376435 0.31153882 -0.35465017
quieres 0.5312112 0.049944628 0.007639037 -0.24524632 -0.50350577 -0.5885357 0.022629837 0.41784233 0.11109985 -0.4650482 -0.84668475 -0.025906919 -0.044679828 0.21428269 -0.78216475 -0.0929987 0.2835605 -0.21093754 -0.1718887 -0.6809288 -0.7793905 0.31539768 -0.15480451 -0.050269406 0.45930043 -0.15725191 -0.2716929 -0.64331144 0.15340205 0.18411642
ultima 0.1295528 0.86306953 0.13353337 0.181688 -0.57304275 -0.018492753 -0.18260206 -0.2032922 -0.13379776 -0.2420693 -0.35539404 0.32548925 -0.14398839 -0.4802778 -0.97949857 0.6354465 0.20929588 -0.08125571 0.20048633 -0.49390188 -0.4562817 -0.31063253 -0.18424307 0.28039777 0.43640357 -0.26553652 -0.6501601 -0.42186147 -0.35056186 -0.7141668
ayudar 0.20202783 0.69277406 0.1710689 -0.14018035 -0.48413968 -0.04914453 -0.08174119 0.19237724 0.311887 -0.104650766 -0.15575413 1.011574 -0.15311252 -0.68170303 -0.83030796 0.34865227 0.14028622 0.044028074 0.27954006 0.2358247 -0.1823716 0.6955745 0.10305743 -0.07102481 0.19688465 -0.76540226 -0.6226921 -0.51185995 -0.38266107 -0.19786185
inicio -0.36330605 0.66374755 0.10884728 -0.39779946 -0.8216944 -0.11317782 -0.3941803 0.12048685 0.010362059 -0.13075863 -0.45125002 0.33252612 -0.47873566 -0.15743762 -0.43748274 -0.2669673 0.26863837 -0.016311066 0.127416 -0.2336865 -0.5747908 0.2910005 0.12584503 -0.6343911 0.44499522 0.18002321 -0.43277523 -0.67645574 0.20771478 -0.043161124
unica -0.5948838 0.4285743 0.17329012 -0.3386694 0.05720477 0.04748765 -0.09722708 -0.062913485 -0.2844661 -0.33611664 -0.4115335 0.3252076 -0.2309348 -0.6369711 -1.0524485 0.042098574 -0.11120355 -0.25117347 -0.12199394 -0.45086026 -0.35520336 0.03193084 0.57548636 0.024594743 0.8120261 -0.18630424 -0.16515711 -0.38279486 0.25213426 0.23775968
completo 0.3231828 0.6577697 -0.5833747 -0.2561177 -0.67059475 -0.54024273 -0.479752 0.19592905 0.4438458 -0.16926363 -0.64655 0.33634976 -0.20053622 -0.05989125 -0.49839 -0.6027936 -0.3118964 -0.28183225 0.29730174 -0.31396398 0.034180652 0.25583735 0.33716688 -0.3594577 0.057310726 -0.08073294 -0.01850249 -1.0398741 0.1306683 -0.22880958
contar 0.062116414 0.9502236 -0.1820838 -0.17846838 -0.1960038 -0.48905107 0.017020436 0.5248947 -0.2646889 -0.39092046 -0.2674979 0.5853992 -0.10468413 0.48468044 -0.4822888 -0.5538963 0.11110798 0.13420744 0.18942758 -0.8015757 -0.29797298 0.28182632 0.73589313 -0.20704125 0.7382203 -0.21405716 -0.37851974 -0.63953215 -0.30053568 -0.115368664
registro 0.39668766 0.4323772 -0.5061583 0.18760239 -0.49712342 -0.6633348 -0.53763795 -0.21951413 0.48827013 0.16670129 -1.0578536 0.35771123 0.025488323 -0.6497969 -0.7103658 -0.018135214 -0.5453048 -0.08070867 0.17629458 0.28530857 0.059848182 0.15469548 0.997788 0.24087358 0.22691531 -0.15251623 0.021486733 -0.55905914 0.3478671 -0.08185298
financiera -0.6504716 -0.04515099 -0.7969162 -0.4853663 -0.15855029 -0.11271523 0.3865094 -0.19990242 0.2716919 -0.50728077 -1.0472442 0.6888863 0.4153038 -0.6465764 -0.89763695 0.019012403 -0.7802365 -0.16929063 -0.40863535 -0.31874558 -0.1876268 0.6516695 0.12898047 -0.6225952 1.1588187 -0.4200353 0.32050097 -0.30252 0.8190374 0.39324373
realizar 0.17702703 0.46375012 0.13384578 -0.32431832 -0.49561712 -0.41559032 -0.04070267 0.010297443 0.087948784 -0.0037436096 -0.22523 0.7819181 -0.12100974 -0.49499476 -0.62985975 0.29429725 0.32230294 -0.45266327 0.021672437 -0.49020007 -0.2947611 -0.084773324 0.5224535 0.20137516 0.33043855 -0.5100948 -0.5812554 -0.27882913 -0.142905 -0.15625528
compania 0.07746697 0.6989641 -0.05527815 0.08184427 -0.0024291654 -0.11907834 -0.09073836 0.22523466 0.013174039 -0.10410722 -0.4987346 0.68983066 -0.22334783 0.17987116 -0.70851064 0.14979076 0.40612745 -0.34485355 -0.18484555 -0.30109495 -0.4571557 0.29306835 0.7937627 -0.09107524 0.028956214 0.16756575 -0.6921515 -0.68023175 -0.24970673 -0.25463519
anterior 0.2240258 0.58675194 -0.6535829 0.037681732 -0.46242934 -0.44173908 -0.2903738 0.48046127 -0.2644805 -0.35880458 -0.6966693 0.8499466 0.29396868 -0.47872123 -0.6205328 -0.26819 -0.45899338 0.2534605 0.15698713 -0.62376 -0.26806659 -0.05619807 0.5155689 -0.17799807 -0.08196004 0.0063499385 -0.69051814 -0.0077235326 0.7798165 -0.33997646
correos 0.428337 0.40683812 -0.4833013 -0.1968591 -0.5228943 -0.95414126 -0.43552625 -0.31659746 0.0684108 -0.081593856 -0.9164381 0.26918954 0.24517848 -0.91428584 -0.044290762 0.42477247 0.652996 -0.3536015 -0.10673499 -0.3812106 -0.43659925 -0.045056302 0.25582242 0.38910872 0.23836687 -0.37616456 -0.035612077 -0.6040865 -0.22283027 0.10367365
contable -0.4861599 0.7862891 -0.19302395 -0.0011457447 0.40796405 -0.5539016 -0.36479306 0.18850031 0.6201519 -0.78581613 -0.75426596 0.5438765 0.19521889 -0.15241092 -1.0180588 -1.0902102 0.13930447 0.029625935 -0.32719654 -0.5819244 -0.4887278 0.50048053 -0.26048824 -0.8987187 0.7124068 0.2152822 -0.27306134 -0.3583943 0.31188145 -0.42918587
permitame 0.092652924 0.26461494 -0.4311374 0.1833891 0.47681814 -0.99483126 -0.82629734 0.11526928 -0.045448877 -0.5382744 -0.772449 0.95526046 -0.15756686 -1.2053897 -0.8582384 -0.53602266 -1.0301042 -0.41173482 0.24300691 0.26984 0.12419597 -0.56106055 1.2325414 0.11957095 0.5229846 -0.810006 0.13073252 -0.42423296 0.20265155 0.3858829
tranquila -0.41551462 0.20383902 0.87767947 -0.35531682 0.4747117 -0.5007062 -0.3872149 -0.36496788 0.049813163 -0.16591208 -0.6347829 0.6013332 0.29855108 -0.77825457 -1.4435078 -0.8469291 -0.13389869 -0.25866058 -0.49215105 -0.54961294 -0.31797466 0.19719897 0.32053396 0.016318442 1.3355426 0.40304548 -0.27456963 -0.2614251 0.52335435 1.1701205
proyecto 0.15398397 0.3701903 -0.10895046 -0.24418518 0.002025558 -0.08315961 0.026269114 -0.04126753 -0.015695361 -0.44487214 -0.7031732 0.43922195 -0.1591442 -0.28294837 -0.93585396 -0.1977953 0.25026485 -0.3009576 -0.032166008 -0.47938493 -0.2026586 0.095343515 0.38245565 0.08932823 0.49471927 0.12554948 -0.37135625 -0.5856846 -0.17075929 0.11905845
hicieron -0.058018483 0.50335616 -0.36547118 -0.14743376 -0.6710843 0.093070574 -0.53920853 0.37516832 -0.24037126 -0.12620068 -0.6183861 0.85745496 -0.07112127 -0.2543224 -0.35998303 0.5387973 0.780601 -0.30742976 -0.1530383 -0.042042077 -0.40491956 0.33894232 -0.05934726 -0.33436662 0.13532132 -0.08046023 -0.4326442 -0.677423 -0.026144182 0.059294116
averiguar 0.33516565 1.1562983 0.15761241 -0.117719956 0.25965533 0.12664539 -0.192688 0.20179157 -0.26110905 -0.20354041 0.057960242 0.7599474 0.0009355248 -0.38942224 -0.61589795 0.3757904 0.5391352 -0.49667796 0.28658336 -0.3792819 -0.6472778 0.033152167 -0.008878935 -0.5130576 -0.04851131 0.034125302 -0.67007226 -0.94057053 -0.017097054 -0.6859939
queda 0.26883245 0.4298159 0.06430139 0.2662441 -0.5293358 -0.20406257 -0.1660917 0.4505463 -0.1127077 -0.017044835 -0.33247575 0.26430666 0.033404283 -0.4473668 -1.1881005 0.4411421 -0.08110331 0.31503242 0.032849453 -0.33261272 -0.3299408 0.113721274 0.013151651 0.15908584 0.7386738 -0.12455919 -0.14793509 -0.5902697 0.35063225 -0.12786609
cobro 0.4903307 0.97064096 0.076935716 -0.17774679 0.38926116 -0.06433194 -0.015836703 0.6243186 -0.058396038 -0.78334016 -0.21392265 0.017744284 -0.20091772 -0.28369996 -0.3877151 0.11128989 0.7894246 -0.16398196 -0.40156522 -0.9109231 -0.7929727 0.21473096 0.5148578 0.111848384 0.09881441 -0.17055528 -0.33772808 -0.9598728 0.13471498 -0.5554673
intencion 0.2312338 0.6251852 -0.3422601 -0.025448313 -0.4187356 -0.16941857 -0.25695163 0.03947814 0.42150104 -0.10322796 -0.76263446 0.79055846 -0.2752466 -0.11737659 -0.6455287 -0.15454513 -0.1097762 -0.32439312 0.16733843 -0.18779829 -0.015919419 -0.21079913 0.44334513 -0.008050993 0.13974746 -0.32576796 -0.2649848 -0.70005345 0.14964627 0.13376772
aparecen -0.036651656 0.36539757 0.07232851 -0.26703405 -0.42045578 0.15313102 -0.691852 0.299288 -0.2989206 -0.23566973 -0.68477005 0.490709 -0.5186818 -0.6453245 -0.5393932 0.5053757 0.75034803 0.035362396 0.02686181 -0.5869941 0.092405885 0.4849309 0.577609 -0.20072635 0.057439443 0.18510772 -0.07411214 -0.64091873 -0.16183002 -0.338364
clientes 0.23671459 0.70638174 -0.22322772 -0.2522008 -0.67346084 -0.32501632 -0.34811017 0.08564038 -0.052074462 -0.30336607 -0.8088647 0.18991216 -0.54423517 -0.34656763 -0.6862231 0.26092732 -0.13520925 -0.0946196 -0.066757776 -0.17031223 -0.38243634 0.28563836 0.2377804 0.06830207 0.24895523 -0.15791906 0.022295488 -0.36871973 -0.112784326 -0.2732473
enviamos 0.49252635 0.78612655 -0.2404298 -0.5223333 -0.16098835 -0.9770093 -0.2158081 -0.1535986 -0.14086397 -0.027508302 -0.4372455 0.32498083 0.12994842 -0.97913915 -0.18685828 0.037958615 1.1348369 -0.4867222 -0.2626754 -0.43963152 -0.99126554 -0.17864583 0.015244888 0.5263299 0.059518646 -0.4420729 -0.49389958 -0.51279444 0.19729091 -0.052617203
perdi 0.21110603 0.30861607 -0.11387936 -0.07297268 0.01664231 -0.0072158277 -0.06925346 -0.029055705 -0.434688 0.28558204 -0.683331 0.7468004 0.30948216 -0.3592181 -0.8311233 0.4101823 -0.09046288 -0.048357654 0.030520054 -0.28092772 -0.58051723 -0.00010299927 0.25524864 -0.20954661 0.8845124 0.005946816 -0.08408061 -0.58920443 0.4327738 0.6446213
precio 0.0006189553 0.520135 -0.14354482 0.30120447 -0.02506372 0.14025156 -0.33490616 0.26469553 0.0940784 0.20857924 -0.6589964 0.29309988 -0.46966782 -0.24893102 -0.7433149 -0.371868 0.09286166 -0.38678306 0.20998335 -0.521405 -0.60707486 0.32181698 0.13459994 -0.35338223 0.50121456 0.02114347 -0.3065853 -0.5475762 0.5805055 -0.22035386
pendientes 0.2816073 0.46476957 0.06211097 -0.096416965 -0.3798537 0.2810527 -0.49458224 0.59371924 -0.20926274 0.13466719 0.3980969 1.0090933 -0.59124136 -0.09859808 -0.7219421 0.63579637 0.25849485 0.2896639 0.7867965 -0.57740396 -0.46893126 1.1269952 0.29896826 -0.025504248 0.34165245 -0.8640004 -0.077434786 -0.9404429 -0.14731951 0.350878
estacion 0.042041056 0.62788516 -0.08649251 -0.19560541 -0.35266492 0.11787786 -0.049255725 0.035362117 -0.07261596 -0.5811419 -0.46944308 0.72346413 0.05584468 -0.30815396 -0.19012305 0.035946693 0.14223073 0.13990115 0.106246464 -0.58454967 -0.6190264 0.091122136 0.38667434 -0.3337874 0.5629699 -0.14272451 -0.4145089 -0.6034213 -0.01774377 0.120032005
colaborar 0.14165047 0.26373214 -0.2042001 -0.14232294 -0.67270243 0.13691731 -0.11677349 0.39867923 0.06747838 -0.21369521 -0.48302683 0.6765706 -0.39813372 -0.6722987 -0.43714193 0.6170335 0.15834557 -0.13110799 -0.043034635 -0.29519925 -0.23338728 0.6287953 -0.018786356 0.39635995 0.51340663 -0.55045766 -0.590796 -0.5656204 -0.3016136 -0.13584146
total -0.047468103 0.4533726 -0.22551638 0.22441208 -0.061279047 -0.38280234 -0.14074728 0.09514364 0.24079344 -0.30005834 -0.44555783 0.4605716 -0.23364502 -0.16941746 -0.98821145 0.1600467 0.21650022 -0.29552796 -0.26257545 -0.47679192 -0.78033465 0.05793462 0.060020577 -0.5248249 0.503245 0.4456074 -0.3102413 -0.3822529 0.22955461 -0.24942563
febrero 0.18809669 0.5600119 0.03909949 -0.1330026 -0.3238803 0.09483844 -0.5481622 0.24266042 -0.6400303 -0.16083027 -0.02166766 0.7169846 0.07495271 -0.069852345 -0.4157099 1.0922306 1.3057746 -0.32136852 0.28268358 -0.51417 -0.6020972 -0.10884482 0.21667735 0.19936812 0.59920895 -0.582949 -0.5968928 -0.8620052 -0.23307635 -0.14245154
codigo -0.0366922 0.68024987 0.21505558 -0.60410696 -0.9551756 -0.5778586 -0.4966548 -0.43304053 0.3869638 -0.036541063 -0.49828902 0.21186686 -0.34611917 -0.38915294 -1.1044376 -0.40010035 -0.097477816 -0.22435708 0.13122645 0.03501632 0.053687062 -0.19720428 0.18240936 -0.13654949 0.025427006 -0.46714863 -0.3389065 -0.76118803 0.27849227 0.034750152
actual 0.08760323 0.25915313 -0.08993992 0.34794438 -0.47706646 -0.65889126 -0.2816361 -0.093391694 0.5090194 -0.26430163 -1.0249048 0.33959255 0.027769921 -0.11954788 -0.8523243 -0.03379943 0.18796718 -0.4197294 -0.044139158 -0.622716 0.041382264 0.34436062 0.5014553 -0.48066488 0.008667722 -0.31143698 -0.030917266 -0.16395898 0.4945605 -0.14426754
partes -0.14915621 0.7236151 0.6252007 0.011878317 -0.23568778 -0.21876568 -0.117631465 0.34617433 -0.07035561 0.019188017 -0.42096448 0.47197425 0.2725211 -0.17347142 -0.86295 -0.10134137 0.35592338 -0.107978486 0.12799042 -0.33224007 -0.8735986 -0.12045318 0.58957434 0.41630304 -0.022727763 0.010106264 -0.051329803 -0.8153991 0.36594427 0.10671884
visto 0.18782362 0.30860066 0.024012966 0.01373273 -0.39037746 -0.015487517 0.022696609 0.04996533 0.394057 0.20706081 -1.0090508 0.40949535 -0.12210452 -0.39529836 -0.42587358 0.42591843 -0.0115330275 0.0028354079 -0.015358763 -0.38227376 -0.8195275 -0.07429664 0.28755924 -0.025123438 0.4405085 -0.10506563 -0.0700841 -0.7096492 0.01789633 0.3086817
mirar 0.34628293 0.30001256 0.5510797 -0.050423976 -0.36629647 0.1064468 -0.6182811 0.3848318 0.22814134 -0.40657705 -0.12977637 0.34849557 0.07436475 -0.5857356 -1.0319597 0.3009579 -0.03847354 -0.10071682 0.003240998 -0.3645686 -0.16685386 -0.191199 0.030142814 -0.0096313 0.45321274 -0.2371149 -0.46441767 -0.93384665 0.09833743 -0.1905911
pasada 0.27711397 0.18437019 -0.26151183 -0.10902105 -0.36278024 -0.09393259 -0.06626938 0.44421348 -0.5972485 -0.35644543 -0.55692726 1.0004553 -0.03399373 0.11486423 -0.405601 1.0016568 0.6810787 0.22938903 0.5676814 -0.48060903 -0.6057758 0.5418347 0.13375151 0.5738285 0.29774335 0.0391626 -0.65241283 -1.0112416 -0.09634905 -0.3807764
asistente -0.5138822 0.94145817 -0.00805946 -0.4221608 -0.14625995 -0.60354203 -0.28028792 0.2734499 0.57333165 -0.5823748 -0.56147206 0.28249672 0.104449436 0.015663164 -0.8295169 -0.9984226 0.3674679 -0.21000823 -0.0382837 -0.4052038 -0.315445 0.5025637 0.20053914 -0.88151544 0.44414675 0.52632713 -0.24255468 -0.6153859 0.35702994 -0.020714283
confirmacion -0.08310123 0.526946 0.17397247 -0.83376855 -0.72729534 -0.5307144 -0.6474046 0.5475975 -0.41002157 -0.33871192 -0.28260425 0.24823351 0.00024069072 -0.28011313 -0.45971283 -0.02290724 0.7090405 -0.35788813 0.046113733 -0.7118279 -0.30824894 -0.21165623 1.0522681 0.21994142 0.72970057 -0.1680698 -0.55813736 -0.2007981 -0.6297486 0.002405556
radicado 0.39289612 0.7964462 0.2609973 -0.0108895 0.11264091 -0.3417671 -0.4041967 0.32074264 -0.03874998 -0.06266008 -0.4900328 0.40972856 0.115464754 -0.8341871 -0.52059 0.4279566 0.78459424 -0.3333651 0.00456435 0.043805413 -0.8505174 0.39062026 0.41111368 0.6671272 0.39232224 0.0147982165 -0.34217173 -0.7000442 -0.5982224 -0.03368188
confirmo 0.37576497 0.45957664 -0.11112836 -0.06532656 0.079505056 -0.58911884 -0.5667064 -0.0027898257 -0.11896148 -0.10193633 -0.89406276 0.30992618 0.20592861 -0.47553587 -0.45412675 -0.2720262 0.3183617 -0.24397825 0.32411683 -0.4125948 -0.33843789 0.39249465 0.6183165 0.18521902 0.10100728 0.1610273 -0.5343285 -0.5755938 0.56604826 0.07532635
cancion -0.00784918 0.50600725 0.12995869 0.066122964 -0.07049899 -0.26201567 -0.18723525 0.09452545 0.54473203 -0.14417002 -0.6240898 0.5291027 -0.09804969 -0.6565116 -0.7608713 0.0008829929 -0.41301334 -0.09152447 -0.09131412 -0.43838027 0.036763042 -0.07085897 0.103447795 0.0044245026 0.5656547 -0.14865614 -0.2817854 -0.8197499 0.37616122 0.1493571
oficina -0.70245075 0.3183862 0.026835898 0.283393 0.08609944 -0.66271585 -0.6354367 0.13485241 0.33468688 -0.4789996 -1.0853053 0.73230404 0.14517577 0.09121007 -1.2903954 -0.97030896 0.2967384 -0.5596102 -0.6889809 -0.37308896 -0.14794114 -0.109434955 0.4837818 -1.2926581 0.6411496 0.11352443 0.29088148 -0.21937092 0.838035 -0.43800664
tratar 0.06279999 -0.061589696 -0.008333907 0.14087431 -0.51631695 0.021477716 0.16520502 -0.13907915 -0.2835222 -0.08294239 -0.39738837 0.9579476 -0.1351027 0.017916374 -1.0265359 0.9074275 0.16396132 -0.054492366 0.29477057 -0.3671946 -0.085340336 0.6956708 0.11922452 0.12947711 0.16017887 -0.34848878 -0.11714178 -1.2068629 0.27904415 -0.25929335
llegar 0.15761754 0.41951704 0.066053666 0.09167092 -0.4318674 -0.34334317 -0.120007 0.32586828 -0.17650281 0.041241225 -0.3653944 0.54370105 -0.11935303 -0.5359733 -0.54564625 0.32415253 0.6047433 -0.16004942 0.014230592 -0.40371025 -0.5982656 0.12937085 0.5846224 -0.3204224 0.16489238 -0.20960942 -0.26964504 -0.3905547 -0.048974194 0.115169264
notificacion 0.34200144 0.5679866 0.081141755 -0.04440913 -0.29147133 -0.6035344 -0.59999436 0.3294497 -0.05084604 -0.1494928 -0.2578454 -0.08243541 -0.40615013 -0.87279 -1.0879142 0.6549522 1.4140395 -0.32047313 -0.2534608 -0.5288842 -0.71894956 -0.41285828 0.948751 0.45300955 0.5675707 -0.32964203 -0.92030954 0.06483878 -1.0079665 -0.22060008
administrador 0.34386253 0.71396583 -0.09292397 -0.31328914 -0.35281178 -0.6983405 -0.18329003 0.19355954 -0.029330965 -0.16546562 -0.39294028 0.23822105 0.31208986 -0.8843816 -0.5028938 0.59392333 0.8972721 0.13707389 0.7835493 -0.5735451 -0.6580074 -0.32218757 0.5018536 -0.027884305 0.19790399 -0.3657265 -0.11417311 -0.26065704 -0.27728748 -0.35276157
alta 0.31831318 0.17283162 -0.38436994 -0.45268634 -0.22490005 -0.11949821 -0.21123518 -0.09414824 0.22348681 -0.26513702 -1.2410208 0.33764854 -0.0147363255 -0.26055402 -0.6258212 0.11674704 -0.12952746 -0.27465594 0.20734663 0.05139108 -0.31546426 0.1391362 0.5275178 -0.33044103 0.38267404 -0.0032452377 -0.31486294 -0.45580694 0.3134096 -0.47558329
actualizacion 0.19146399 0.36351848 -1.1984509 0.23680168 -0.6938953 -1.0504067 -0.094076425 -0.26256138 0.49915263 0.30844155 -0.75260425 0.7524689 -0.009681706 -0.8235351 -0.9308737 -0.15300842 -0.17527384 -0.16656552 0.16524732 -0.19759002 0.096199535 0.07259788 0.32398412 -0.27260363 0.114572756 -0.38535157 0.510775 -0.21612193 0.85841405 -0.3924973
entro -0.3717795 0.14863741 0.0045207846 -0.16733849 -0.21486251 0.062265243 -0.21395591 0.46584314 0.033369146 -0.53007245 -0.6965721 0.19803852 -0.20032448 -0.08250929 -0.7208267 -0.035959605 0.43721753 -0.0320618 -0.48976943 -0.6390227 -0.26037875 0.275838 0.17820558 -0.33902043 0.55938923 0.16747311 -0.16848886 -0.89876586 0.44246382 -0.029028676
perfecta -0.18130167 0.63577473 -0.11411158 -0.4273215 -0.20013711 -0.09000752 -0.14593796 0.6082755 -0.05592542 -0.5051818 -0.5937418 0.6424897 -0.09076959 -0.42910567 -0.8843993 -0.42660138 -0.19463068 0.1529633 0.11154846 -0.38515764 -0.076908074 0.15442373 0.8750323 -0.08377451 0.15482958 0.31555337 -0.39098635 -0.29777175 0.5739357 0.15449426
preguntar 0.33295482 0.71293354 0.14027561 0.090674035 -0.18372841 0.22934443 -0.16422763 0.25767514 0.10477623 -0.5169358 -0.662468 0.98683965 -0.07689028 -0.26954398 -0.4083275 -0.12426156 0.11831711 0.042198766 -0.017761126 -0.5654815 -0.7214872 0.14299135 0.44985905 -0.15202023 0.06369998 -0.11272132 -1.3380777e-05 -0.44182238 -0.23475704 -0.47313744
ejemplo 0.14101923 0.019654524 0.36498758 -0.30690914 -0.14856376 0.2038839 -0.41205922 0.394343 -0.25395757 -0.37419984 -0.77410644 0.8254243 -0.2114616 -0.50047 -0.6060637 0.38637665 0.30772272 -0.18144695 -0.32295287 -0.35693178 -0.56508845 0.30455682 0.6188859 0.15199564 0.63245916 0.2171387 -0.253483 -0.23561311 0.009911722 -0.076445416
pacto -0.18936007 0.3203724 0.14815554 -0.32680598 -0.61007994 -0.29326212 -0.2968607 0.44582754 -0.04563902 -0.061979692 -0.68634903 1.0236831 -0.15204914 -0.08747389 -0.7246077 -0.29675558 0.23750742 0.15121502 0.08466344 -0.34338793 -0.47203165 0.30319962 -0.07575691 -0.5973659 0.06408633 -0.41011873 0.02603984 -0.43627548 -0.19289215 -0.051640376
validar 0.029687118 0.60890687 -0.12925747 -0.14002115 -0.18042088 -0.23057382 -0.48212162 0.4542491 -0.21181764 -0.3384108 -0.6173581 0.8937371 -0.063422784 -0.4007062 -0.51618314 0.37196568 0.11981154 0.15488791 -0.40511096 -0.3053812 0.0734464 0.07035946 0.45213383 0.5587005 0.35084483 -0.70805216 -0.6666747 -0.34000403 0.112676896 0.08675406
inconveniente 0.29201674 0.69917405 -0.10904994 -0.2733071 -0.39521423 -0.12774718 -0.7651463 0.105184 -0.1365891 -0.23540366 -0.29309398 0.3920958 -0.43898508 -0.2857621 -0.4735776 0.4742581 0.5746305 0.032462113 -0.04845623 -0.7903999 -0.09030444 0.12769638 0.5498847 0.38349527 0.20940867 -0.43389022 -0.51970124 -0.5902935 -0.073096775 -0.30652738
enviado 0.78469855 0.44172052 -0.2597382 -0.4471135 -1.1835982 -0.4244934 -0.22933485 0.52361816 -0.43534833 0.16773055 -0.7248913 0.18196642 -0.41008082 -1.0483826 0.14224769 0.7753676 0.67540985 -0.32966995 0.023886813 -0.2013234 -0.58806074 0.066835 0.034887604 0.88865197 0.26171622 -0.45291314 -0.32375565 -1.0113124 -0.4735356 -0.051350858
porciento 0.3116607 0.73664844 -0.43775642 -0.8331825 -0.07682082 -0.117998295 -0.5681367 0.27102152 0.15264581 -0.11884769 -0.63520086 0.40805474 0.280544 -0.36835873 -0.5199182 0.5722258 0.845265 -0.07975765 -0.5600032 -0.037161294 -0.7778968 0.5478838 -0.28713575 -0.51069814 0.19464599 0.17590551 -0.25504932 -0.72405845 -0.033770926 -0.21355839
permite -0.07387009 0.23748998 -0.061835293 -0.12809908 -0.3100167 -0.22239275 0.044339836 0.33010888 -0.07229664 -0.6263435 -0.7883434 0.5943861 -0.24548517 -0.5410062 -0.59648585 -0.14622125 -0.2675069 0.2426119 -0.14459394 -0.124879576 -0.19327115 0.48656085 0.47452468 -0.22327505 0.38743275 -0.86831236 0.17770222 -0.5299542 0.10693199 -0.24163839
senal -0.31943855 -0.2440497 -0.312415 0.12663275 0.10012574 -0.17402266 0.13943228 -0.11345926 -0.0410469 -0.48466945 -0.5271755 0.8794524 0.06905909 0.2786896 -0.5767466 -0.33365637 0.13998488 -0.24015978 0.4473407 -0.19668108 -0.58212495 0.19935885 0.49572733 -0.315915 0.7649215 -0.27177963 -0.42673913 -1.11537 1.0755537 0.010203557
equipo -0.09515443 0.4601479 0.0955179 -0.1191023 -0.4027885 -0.01044438 -0.24403138 -0.20485054 0.283723 0.334536 -0.3108885 0.3879399 -0.3720606 -0.73015714 -0.708468 0.20157559 0.4063458 -0.52808374 0.30788285 -0.42055967 -0.26381215 -0.15935953 0.47986063 -0.66507214 0.7345325 0.2353079 0.35055217 -0.80715644 -0.28292435 0.03301828
senores -0.035557896 0.21927236 0.18480158 -0.26186413 -0.026518412 0.33209035 0.013963315 0.33741814 -0.61710984 -0.20302485 -0.6154451 0.2669818 0.010928949 -0.1686646 -0.8227866 -0.3130409 -0.016374115 -0.09679875 -0.22840187 -0.40237424 -0.7194552 0.50262547 0.3053025 -0.22092289 0.7005522 -0.10545829 -0.24650323 -0.8520951 0.6364325 0.43650147
problemas 0.2598806 0.11380357 -0.4441706 -0.5548472 -0.5805878 -0.3232202 -0.16803057 0.034408096 0.04380623 -0.010277174 -0.2957076 0.8171564 -0.23336902 0.048354197 -0.63428366 0.14921185 -0.27839595 0.0049517844 -0.034822606 -0.48825803 -0.19986211 0.11202185 0.4840024 -0.12530452 0.36651212 -0.6333115 -0.12449404 -0.75198156 0.102508865 -0.06803507
temas -0.15236765 0.65129405 0.050679818 -0.1824959 -0.5120695 -0.079009615 0.23276775 -0.11530743 -0.3778824 0.61379254 -0.49391037 0.30973145 0.18999404 -0.27393693 -0.8666709 0.5820095 0.07891489 0.34667674 0.013704609 -0.6023474 -0.2536641 0.14126796 0.84542835 0.19220434 0.51286495 -0.29850325 -0.67911327 -0.6414329 0.16345973 0.26176223
miren -0.052933976 0.22665071 -0.12357367 -0.44596237 0.1626849 0.10667482 -0.28132907 0.60283417 0.41140264 -0.07017054 -0.62208194 0.15662062 -0.05904241 -0.43529606 -0.7663669 -0.048666336 0.14001416 0.075958766 -0.34864277 -0.12293766 -0.59102184 0.34984425 0.5104736 0.5684788 0.817556 0.21186629 -0.23874965 -0.90305346 0.37092254 0.032911446
volver 0.10441933 0.5033162 0.35226837 -0.5947934 -0.82402784 -0.54992574 -0.06816422 0.2204905 -0.034696825 -0.21298392 -0.3057659 0.6945013 -0.012912085 -0.58950716 -0.6399563 0.7574215 0.26742646 0.43526465 0.08286619 -0.6072964 -0.3635231 0.40410095 0.27806947 0.07804393 0.20376815 -0.675554 0.15736581 -0.3770628 -0.2060746 -0.15697053
empresas -0.42326754 0.76185066 0.06990929 -0.29563153 -0.35916972 -0.08410517 0.024176748 0.098553605 -0.2479749 -0.0500518 -0.64580107 0.3609926 0.21680298 0.007858348 -0.65899646 -0.014788037 0.16095774 -0.538117 0.25107765 -0.28793773 -0.6855928 -0.17094433 0.6107872 -0.433668 0.40630248 -0.20371413 -0.17365554 -0.48658115 0.13845359 -0.46615937
diseno -0.13788109 0.8018238 0.26517156 -0.15635791 0.3262959 0.12573294 -0.5456974 0.55906063 0.052283548 -0.14156193 -0.567858 0.4496517 -0.21527207 -0.29240432 -0.9480519 -0.3416872 -0.24187174 -0.45459157 -0.56874084 -0.027618017 -0.47535902 0.40980455 0.60939765 -0.038900517 0.4598312 0.13721564 -0.33099768 -0.491742 0.22731687 -0.20162976
efecto 0.030143287 0.12464313 0.06527106 0.08517973 -0.33897352 -0.28565952 0.0743006 0.060526486 -0.115291305 0.024806421 -0.43943402 0.82581776 -0.13629176 -0.4298879 -0.52459574 0.32561067 -0.09716816 -0.26803827 0.15758373 -0.36819664 -0.82610464 0.16791545 0.055187847 -0.10255227 0.59124994 -0.68232274 -0.13519832 -0.47971708 0.3427625 0.21814995
compuesto -0.13424334 0.6798289 -0.34235156 -0.44854653 -0.53180665 -0.084147744 0.2822478 0.239456 0.36755234 0.028271388 -0.4060142 0.08083916 -0.024645567 -0.06726466 -0.6536902 -0.18374597 -0.12527938 -0.47459364 0.057844106 -0.33031517 -0.69283724 0.19189669 0.4764693 -0.31802115 0.28829142 -0.22847806 -0.7106994 -0.7082287 -0.0017417208 -0.04321979
posible 0.83529955 0.5336401 -0.048698768 0.048265852 -0.885532 -0.19181427 -0.15099578 0.20906937 -0.4215462 0.2790309 0.023438642 0.35999295 -0.5500757 -0.25429314 -0.9791794 0.9065316 -0.09892601 -0.19577514 0.26742104 -0.22361267 -0.55371356 0.41663903 0.36676076 0.15751688 0.07555268 -0.40948418 0.12054076 -1.0950956 -0.1571666 -0.2899956
edicion -0.66911113 0.37693664 -0.45386374 0.13406743 -0.018516246 -0.37953988 -0.032973673 -0.03615395 0.25173634 -0.080217496 -0.69114894 0.5682862 0.3277962 -0.1333122 -0.910937 -0.2328667 0.16237783 -0.0054320344 0.31448978 -0.8244817 -0.3062766 0.1740928 0.29150504 -0.47829112 0.491371 0.047247905 0.5059895 -0.6811475 0.39546058 -0.060521346
acto 0.39119518 0.7294025 -0.057620216 -0.34661716 -0.41643193 -0.27836543 -0.18735592 0.2918326 0.06485021 0.11138625 -0.6332074 -0.27631536 -0.11573547 -0.18685663 -0.6619567 -0.10187841 0.19771439 -0.25575888 0.05833728 -0.48794946 -0.572665 0.22197704 0.5063779 -0.052633036 0.07211284 -0.2045629 -0.23765077 -0.7728308 0.3614577 -0.08702649
hablando -0.08317677 0.6026089 -0.12297691 -0.073668845 -0.18995647 -0.4913869 -0.13392176 -0.037286606 -0.23990552 -0.6408791 -0.36545473 1.0857719 -0.002863736 -0.11639386 -0.49857682 0.37998965 0.48071185 -0.06489067 -0.38151994 -0.3392164 0.2339234 0.06810256 1.046965 0.033080272 0.34327745 -0.1943348 -0.23042308 -0.5560736 -0.010574919 -0.24216077
oficinas -0.8328372 1.0689322 -0.42020848 0.12214174 -0.13771702 -0.27217475 -0.8167508 0.37704483 0.43105558 -0.615608 -0.781246 1.5300294 0.14182839 0.13961613 -0.6636437 -1.4703835 0.012007756 -0.3761553 -0.546654 -0.44023034 -0.1421479 0.075951934 0.58606535 -1.5046235 0.22748972 0.39715466 0.09457929 -0.5818421 0.5106529 -0.49884203
opcion 0.5672183 0.28232583 0.14398038 -0.018731039 -0.6999424 -0.29495785 -0.39795315 0.1589467 0.3144193 -0.13518482 -0.11017091 -0.0947786 -0.03595724 -1.122293 -1.0559181 0.26391864 -0.37138584 0.021299172 0.443275 -0.64337856 -0.27979276 0.06672216 0.110163696 0.124691226 0.061643716 -0.35443276 0.07460925 -0.99176055 0.39285314 -0.2134225
entra 0.18057995 0.5660035 -0.013572136 -0.30449593 -0.4811295 -0.10743575 0.18949635 0.10976183 0.5663981 -0.21732605 -0.26681456 0.56039786 0.12283678 -0.5643198 -0.88606304 0.06435687 -0.24058852 0.18669686 -0.0764911 -0.4017256 -0.03685253 0.10407033 0.29827762 -0.18844017 0.18025756 -0.24837045 0.02485214 -1.0342855 0.024514856 0.22532615
final -0.058844853 0.073864594 0.26427916 -0.24100631 -0.6183095 -0.3793638 -0.1930375 0.3680616 -0.048037514 -0.09892852 -0.94317067 0.46910235 -0.05673265 -0.25869238 -0.8032947 0.23724473 -0.18217199 -0.027219731 0.029419228 -0.2525074 0.21829487 0.11967775 0.31488284 -0.5171625 0.4356064 -0.33611333 0.4041442 -0.7085685 -0.040919796 -0.5105055
ingreso 0.21650732 -0.020536926 -0.13604642 0.43909597 -0.69541854 -0.34020096 -0.21537814 0.2319694 0.5248525 0.2988769 -0.43908745 0.16798884 -0.09681674 -0.7410143 -0.9737855 1.1698145 0.03898413 -0.34321496 -0.2553761 -0.19096541 -0.104490474 0.20078993 0.43881553 0.035769228 0.29105663 -0.35250834 -0.53246015 -0.64437646 0.27981865 0.00988138
minutos -0.19860592 0.7909347 0.16842487 -0.06553077 -0.1269588 -0.086425595 0.029770818 0.006798015 0.4332697 -0.727121 -0.8322491 0.1771737 -0.16616908 -0.13483544 -0.6573877 0.21848807 0.476451 -0.19635445 0.06465348 -0.49029443 -0.38198286 -0.14015451 0.25074705 0.2589395 0.40679002 0.13163355 -0.12817065 -0.71807754 0.09082843 0.16144311
envia 0.65846676 0.29572996 -0.3426579 -0.15975866 -0.2715771 -0.52331346 -0.06204106 0.080796555 -0.11286151 0.23626629 -0.534338 0.29272896 0.19376308 -0.39442837 -0.7173302 0.6676278 0.38560602 -0.5592892 0.28325325 -0.14059731 -0.43021286 0.059450824 0.26901895 0.42499864 0.42214954 -0.5542356 -0.46881592 -0.6369346 0.14910118 -0.026593288
error 0.5219882 0.65388674 0.015177677 0.12088846 -0.42857 0.15431267 -0.58797705 0.13102493 -0.21214455 0.33302417 -0.668606 -0.023807583 -0.028802019 -0.7373 -0.39005974 0.47109818 -0.10454623 -0.034002878 -0.06376483 -0.6445762 -0.15324385 0.28245804 0.36424828 -0.036625218 -0.033038244 -0.47349262 -0.5484186 -1.0528544 -0.16284043 -0.42908937
postura 0.18271923 0.5119131 0.021058844 -0.22247633 0.06307857 -0.0097450875 -0.52235156 0.62704754 -0.3626859 -0.4737987 -0.22585833 0.84782773 0.1413298 -0.23758054 -0.5581151 0.7743309 0.633944 -0.20512877 -0.4408286 -0.6123599 -0.4754169 -0.02699432 0.5359994 0.28098455 0.67803824 -0.2149186 -0.35762748 -0.38139892 -0.24718073 -0.11590572
especial -0.1930861 0.7267813 0.07881024 -0.11149045 -0.6243952 -0.22630444 -0.14908999 0.0841862 0.33806178 -0.24012896 -0.2149361 0.13861036 -0.27652037 -0.700996 -0.9591944 -0.2758587 0.19680889 -0.40131277 0.09436129 -0.54936725 -0.22836757 0.14110155 0.17935133 -0.16341524 0.14917809 -0.1469601 -0.3109565 -0.38279352 0.20937176 -0.39146525
llegado -0.06822487 0.658662 0.26300418 -0.18652955 -0.4124932 -0.27506438 -0.6976867 0.3333434 0.45329395 -0.3277833 -0.2098155 0.36316395 -0.108172156 -0.8184362 -0.18869896 -0.09561727 0.87382466 -0.7423191 -0.117088586 -0.51595354 -0.6684266 -0.37065426 0.29735717 -0.029089462 0.3448383 -0.3175232 -0.61083424 -0.4229502 -0.07854806 -0.025585072
retenciones -0.040108904 0.042189218 0.34533298 -0.16004145 -1.3388283 0.09877175 -0.3797863 0.41007128 -0.21618457 0.22060782 -0.80431384 1.556505 -0.03438633 -0.52310556 -0.22277996 1.4594634 0.18824512 0.3069739 -0.4941136 -0.1897768 -0.5800404 1.3320519 -0.3294411 0.101081684 0.4961492 -0.4534168 0.37538952 -0.67846686 -0.042051096 0.090104386
pagaron 0.1444085 0.56947345 0.6123766 -0.35500923 -0.5114373 0.03338812 0.06921136 0.14193648 -1.0790005 0.04611402 -0.52357006 1.5245761 -0.17169864 -0.0035888474 -0.3669796 0.5952707 1.2520812 -0.54788154 0.23692736 -0.2589426 -0.81711644 0.6016183 -0.055042095 -0.47475478 0.3761122 -0.049684335 -0.20363186 -0.77710885 -0.66505134 0.017151635
preguntas 0.13208538 0.106439516 -0.25729713 0.10370171 0.12112164 -0.59945774 -0.4546464 0.4253814 -0.14370185 -0.41095948 -0.8636268 0.20656812 -0.16721062 -0.6038126 -0.8610784 0.3407406 0.22036324 -0.08009047 -0.027685534 -0.28557548 -0.30378842 0.65806425 0.9149597 -0.064842395 0.19442478 0.079841696 -0.13397703 -0.11834788 0.3948472 -0.13104914
perfil 0.1494069 0.42534128 0.3019944 0.08802214 0.08610513 -0.31765974 -0.34291112 0.37199414 -0.15909126 -0.098111786 -0.93984276 0.37674558 0.07897126 -0.093666665 -0.605873 0.0007593413 -0.2635262 -0.24695925 -0.26709712 -0.40511087 -0.7410107 -0.012588956 0.664455 -0.44352567 0.52856815 -0.041265212 -0.1903409 -0.4769734 0.3753114 0.3476343
consultar 0.08721202 0.7103984 -0.053621642 -0.022933729 -0.2868445 -0.045828845 -0.20449696 0.6702939 0.01090387 0.035357703 0.10406591 0.6237258 -0.29401013 -0.5697881 -0.8506501 0.6320696 -0.10783659 0.022799302 0.10110389 -0.29798397 -0.2139606 0.84457225 0.11947914 -0.11024439 0.31463906 -0.91897225 -0.2844366 -0.48932546 0.13731284 0.21629415
listos -0.23477349 0.04217358 0.23043403 -0.7346103 -0.57696146 0.09177778 -0.69740784 -0.009873634 0.43564472 -0.05459091 -0.5453729 0.28996396 -0.2740981 -0.6796352 -0.9158003 0.5137151 -0.36541224 -0.38982004 -0.10390688 -0.47664312 0.065625176 0.40746948 0.8421336 -0.64768296 0.4541307 -0.23866555 0.16554388 -0.45501202 -0.20762834 0.0028934989
horas -0.14814031 0.31338924 -0.15436132 0.059564363 -0.5463064 -0.09496987 -0.21923181 0.059596043 0.088667385 0.17428388 -0.7608175 0.1839534 0.24209721 -0.2022474 -0.66938245 0.14311658 0.54521143 -0.27509767 0.31674516 -0.4133462 -0.3974443 -0.35920197 0.68393767 0.087191135 0.48807397 -0.0418483 -0.27010402 -0.73539835 -0.009773624 -0.1509633
pueda 0.6830808 0.7537382 -0.2758244 -0.032298632 -0.6262074 -0.53312016 0.27043912 0.13521022 0.31909215 -0.17060277 -0.37637633 0.7200528 -0.40255764 -0.7627244 -0.00035489583 0.6297206 0.039276287 0.09714777 -0.00046923128 -0.29272065 -0.5394354 -0.13966113 -0.023330443 -0.027012886 0.27571785 -0.6864807 -0.41347158 -0.6868533 -0.03427733 -0.14451891
termino 0.1744866 0.34827816 -0.3218909 -0.1215052 -0.8777085 -0.29254526 -0.08541095 -0.049181912 -0.11936456 -0.5430143 -0.6950615 0.47450113 -0.08575323 -0.09298244 -0.7457023 -0.2406269 -0.23290941 -0.13896792 0.21323022 -0.40405884 -0.6537806 0.13641046 0.28233674 -0.37581223 0.37028226 0.3215598 0.11663527 -0.46968502 0.044834565 -0.06401933
revisar -0.12630312 0.98894036 0.2628201 -0.10995699 -0.2720248 0.043854307 -0.5019892 0.77619475 -0.07467783 -0.34049657 0.10855305 0.4186304 -0.2762502 -0.6708899 -0.17472486 0.7595251 0.05044884 -0.40959248 0.50199515 -0.7254011 -0.23375127 0.43308774 0.1268462 0.107356384 0.41567096 -0.45501903 -0.28222415 -0.8962775 -0.09069478 -0.26845145
presente 0.34114027 0.4598428 -0.20860906 -0.5606085 -0.29971668 0.29257822 -0.103206925 0.088576846 0.40062094 -0.003085502 -0.6113845 0.41445485 -0.44292864 -0.44012737 -0.38934335 0.09631629 0.06690442 0.006753691 0.2994795 -0.14449508 -0.8522151 0.30437008 0.23200831 -0.45155916 0.11885132 -0.14763656 -0.004046237 -0.96718615 0.3198839 -0.055481423
radicacion 0.5480996 1.0091043 0.441103 -0.21381651 -0.16345607 -0.51266164 -0.35044208 0.43061668 -0.047855277 -0.5289522 -0.1376153 -0.092432834 -0.05516714 -0.3834547 -0.17900427 0.41359347 0.9210217 -0.19702752 -0.33317503 -0.6053776 -0.89680254 0.26993775 0.12144393 0.318306 0.24807726 -0.0978479 -0.86335754 -1.3059397 -0.37555662 0.009430813
presenta -0.68468636 1.1266441 0.076686315 -0.3815302 -0.29932705 -0.33377355 -1.0278113 0.36585572 0.42169377 -0.15643862 -0.512045 0.25963676 -0.23738368 -0.15040523 -0.46410942 -0.055660825 0.57894087 -0.06568759 -0.44321093 -0.21435621 -0.51211447 -0.16067818 0.6983166 -0.012786481 0.5832925 0.08545294 -0.3298363 -0.28897217 -0.22143465 -0.054044187
listas 0.34244412 0.27988318 0.14731921 0.12526621 -0.8620243 0.05380331 -0.16822083 0.2445689 -0.15166387 -0.25602406 -0.7233689 0.58447045 -0.014848335 -0.1511927 -0.41417956 0.26627672 -0.064791344 0.17305084 -0.0894437 -0.21261212 -0.4413396 0.52137613 -0.02945702 -0.9887695 0.36076447 -0.035752993 0.07967129 -0.7929481 0.5763626 -0.47873333
hicimos 0.105546094 0.6269681 0.28976563 -0.44068706 -0.41841254 0.0979188 -0.47061092 0.42642248 -0.050994035 -0.015724491 -0.32704955 0.26738235 0.0054958356 -0.58493716 -0.36215636 0.038922172 0.82766557 -0.07178107 0.37949118 -0.27276707 -0.55054575 0.22061771 0.85473716 -0.25808302 0.3679715 -0.4452292 -0.817999 -0.3891364 0.036004167 0.13478951
debil 0.04711332 0.653791 -0.10346748 0.003781903 0.07420841 -0.3417195 0.24149598 0.0905236 0.26540753 0.09510008 -1.0423284 0.54341936 0.017367437 -0.33443683 -0.6332801 -0.2936417 -0.17939292 -0.09290699 -0.05090818 -0.28736567 -0.9266877 -0.02308095 0.0035385771 -0.2540016 0.12480347 0.3158828 0.035571795 -0.85371834 0.63335276 0.022033826
hiciste -0.0010553075 0.6273981 -0.022344507 0.14733832 -0.37272218 -0.54132277 -0.29645136 0.1538497 -0.17405969 -0.28297913 -0.39293972 0.04448773 -0.17817524 -0.5009923 -1.0967039 0.08107073 0.3102628 -0.39787763 -0.097235635 -0.35163614 -0.09732943 0.30761424 0.2471605 0.065268606 0.39519674 -0.08985851 -0.45728266 -0.288051 0.37509656 -0.1609561
captura 0.22231176 0.41475317 -0.12551981 0.052190945 -0.46110576 0.19617738 -0.46801907 0.25621155 -0.31096157 0.38138714 -0.016762761 0.67917675 -0.4298485 -0.27639148 -0.6327763 0.5944013 0.65254974 -0.25846207 -0.41169098 -0.5530146 -0.65756655 0.18926272 0.4121952 0.14084478 0.31352404 -0.3228167 -0.79677534 -0.5755237 0.086315766 0.07806064
llevo 0.07718741 0.028367275 0.08899926 0.10898842 -0.09396785 -0.491176 -0.17910731 0.09234674 -0.45481995 -0.31038406 -0.4994017 0.7287281 -0.31532127 -0.8350964 -0.72223115 0.40873864 0.5336438 -0.37280163 -0.72570723 -0.20040235 -0.23499586 -0.10694825 0.28929073 0.4923636 0.5691264 0.071755454 -0.4389475 -0.6713129 0.47208625 0.2636427
pasturas 0.26528108 0.5231637 -0.105006166 -0.13835625 -0.62463236 -0.051695134 -0.21036519 0.20485823 -0.5426774 -0.5572459 -0.43164578 0.65692943 0.0019867753 -0.39163107 -0.53401506 0.31894544 0.16639523 -0.3049075 0.17585833 -0.65302986 -0.09491008 -0.09172242 0.48771065 0.40832525 0.3999802 -0.7711116 -0.38956156 -0.34707773 0.013858771 -0.2559
escucho -0.15993129 0.16262688 -0.32112125 0.061339974 0.066188075 -0.7568549 -0.21023722 0.09283512 0.44908544 -0.34218985 -0.41208547 1.0437112 0.28755873 0.010382973 -1.0514379 -0.92988235 0.28176895 -0.9491968 0.18104574 -0.09586196 -0.34373915 0.2877122 0.09800844 0.34959352 0.63860357 0.21885817 -0.25945523 -0.75143147 1.2381073 0.4053218
maestra 0.6146602 0.69181716 -0.46720797 -0.02129023 -0.84289354 -0.49548826 0.093941 0.16383126 0.5167516 -0.058838658 -1.5413396 0.18034728 -0.22042263 -0.7608457 0.11449357 0.01596288 -0.61952186 0.05142039 0.32373467 -0.0057067657 -0.16074255 -0.02417754 0.6027661 0.26457423 0.039092917 -0.19527277 -0.3866299 -0.57508 0.49965203 0.121990636
avenida -0.5216789 0.7251567 -0.51000625 0.487494 0.4681359 -0.3360068 -0.7161099 0.14270416 0.948501 -1.1852585 -1.2982692 0.98793995 -0.29105026 -0.32753414 -1.0001051 -1.0281912 -0.40831074 -0.3788354 -0.95848906 -0.0785411 -0.5853031 0.12414469 0.2750211 -1.2937106 0.44468895 0.8001451 -0.06989016 -0.53910106 0.36120185 -0.8293229
central 0.32438233 0.30812874 -0.6176043 0.27156544 0.12723693 -0.7846377 0.32257217 0.24665114 0.09039081 -0.35619596 -0.7310653 0.68923223 0.36579037 -0.22715385 -0.6479016 0.6010201 0.41435772 -0.27869993 -0.06328985 -0.6199216 -0.06296035 -0.10292417 0.14433151 -0.36772764 0.38502884 -0.2035668 -0.07727085 -0.7628641 -0.32440948 -0.37279958
quieren 0.3946414 0.4829523 -0.09749875 0.30460617 -0.7896366 0.056661632 0.007264395 0.054632578 -0.25788483 0.058830388 -0.5115067 0.74290955 -0.036896046 -0.13366914 -0.53290796 -0.16726789 -0.30399308 -0.011926969 0.28576604 -0.64652604 -0.29046333 0.60874104 0.3924642 -0.28149322 0.1355221 -0.61189777 -0.14747679 -0.7104987 0.032461293 -0.13570456
esperen -0.086341776 0.13370368 0.09788925 0.28174764 -0.49504593 -0.36969796 0.058703408 0.071278684 0.14299186 -0.33319625 -0.6947115 0.6830949 -0.016939554 -0.43779728 -0.5179073 0.13150121 0.85906965 -0.44102126 -0.21335688 -0.65308577 -0.1411401 0.72555524 0.2501007 -0.59415 0.7136632 -0.11881529 0.5899722 -0.15152124 0.4775217 0.27616146
trato -0.24260935 0.4507098 -0.34123847 -0.20316917 -0.33029714 -0.20796889 -0.14516538 0.35074404 -0.15461141 -0.0101217795 -0.6820182 0.480168 -0.36722076 -0.08982086 -0.41480756 0.65427935 0.66968626 -0.79206437 -0.30831692 -0.09987432 -0.7976021 0.36895046 -0.073001914 -0.18359074 0.48442814 0.17380112 -0.17859499 -0.70438594 0.12893742 -0.13623294
cambiar 0.43911716 0.6076486 -0.51772803 -0.12625691 -0.4608281 -0.114317015 -0.420194 -0.010055054 0.39038855 -0.08646758 -0.3161575 0.044889726 -0.21285333 -0.15431185 -0.8234842 0.5031182 -0.25753614 0.032482933 -0.05742337 -0.40443394 0.14293028 0.18966971 0.2869764 -0.081006706 0.5345689 -0.63761765 -0.42618144 -0.84896994 0.4676906 -0.14776321
barrancabermeja -0.31934023 1.076989 -0.2740996 -0.22450495 1.0887638 -0.5729058 0.27188057 -0.5631011 0.6634798 0.45070693 -0.864204 0.870486 0.37619683 -0.08312531 -0.77523774 -1.3470578 0.23997453 -1.1576809 0.5625313 -1.2293575 -0.6683901 -0.86924994 0.44971356 -0.09532906 0.95752287 0.22802365 -0.94149065 -0.489574 0.34109238 -1.1702763
comunicar 0.117871314 0.42437807 0.1268759 -0.2810065 -0.38912022 -0.57230467 0.00078306685 0.16297537 0.0120788105 -0.038090687 -0.768308 0.6414366 -0.23840228 -0.19644332 -0.40228668 0.6685611 0.15460652 0.37627128 0.14851786 -0.68080294 -0.08753816 -0.10785145 0.068854414 0.25808498 0.2623875 -0.772961 -0.14225411 -0.8500972 -0.071153134 -0.26971105
comunicacion -0.005510313 0.7057098 0.2396822 -0.26948223 -0.098431855 -0.25202227 0.020866808 0.03376321 -0.14326267 -0.27195644 -0.42814964 0.65786314 -0.24979441 -0.45881993 -0.896894 0.2163436 -0.12458335 -0.26247787 -0.040428907 0.070166446 -1.0020359 -0.21623582 0.7145928 0.13084349 0.43369722 0.032806963 -0.25086573 -0.22431983 0.37311724 0.44554895
interno -0.23454145 0.6306916 -0.09974298 -0.07810098 -0.4759141 -0.13109775 0.5824026 -0.5667971 -0.10553588 -0.4487761 -0.8219107 0.827329 0.24527931 -0.2875506 -0.38441664 0.2009664 -0.12572396 0.2017227 -0.08122821 -0.47344774 -0.3862272 0.30753556 0.31694183 0.17820176 0.35092863 -1.0419582 -0.3895565 -0.5992206 -0.29548582 -0.06465897
recibo 0.24623376 0.91773486 0.2777926 -0.49499497 -0.39536428 -0.39837945 -0.4467617 0.53525937 -0.19075477 -0.16314247 0.08780079 0.6822452 0.14215823 -0.8361078 -0.36072826 0.055698995 0.6744519 -0.46743435 0.13137598 -0.4553291 -0.4999292 -0.17884439 0.33975017 0.44957542 0.3761456 -0.33111385 -0.38140512 -0.41014773 -0.22028983 -0.23285154
decia 0.29141307 0.49551648 0.06479754 -0.12314603 -0.009958275 -0.062348694 -0.15913752 -0.16666192 -0.3645499 -0.029733824 -0.58539367 0.6538699 -0.097762614 -0.36758822 -0.62933105 0.19061498 0.32938963 -0.18539236 0.31642297 -0.1759296 -0.49039164 0.32742184 0.67134213 0.43563813 0.3924556 0.073126435 -0.61933523 -0.6511176 0.2244574 -0.064218424
digame -0.15700261 0.043018565 -0.17805219 -0.40205398 -0.05987461 -0.2725893 -0.00049372716 0.21183524 -0.10370693 -0.30110046 -1.2994889 0.40277416 0.18004164 -0.23421124 -1.2636464 -0.1952869 -0.013769595 -0.4753398 -0.22144482 -0.22136259 0.5034634 0.49363658 0.014258612 0.19068179 0.61888933 -0.44164932 0.15262978 -0.6327647 0.33679926 0.8427577
abajo 0.6676041 0.7819884 0.1591169 -0.016683858 -0.23837909 -0.6469254 -0.3245772 0.3534703 -0.20678443 0.2587459 -0.38986042 0.25287256 -0.7880538 -0.22658171 -0.92298824 -0.40414158 -0.2115277 -0.04913694 0.27750647 -0.31243736 -0.3233589 0.7548763 0.6082682 0.42463124 0.2702425 0.15212606 -0.5451015 -0.44962895 0.3051702 -0.15451123
facil 0.15593055 0.56530964 0.021755446 -0.37189862 -0.058770895 -0.6638894 -0.1635786 0.47249782 0.24767162 -0.20757167 -0.5827797 0.44742098 -0.056114376 -0.7137537 -0.8044818 0.046561997 -0.3561674 -0.24364498 0.18155813 -0.36183193 -0.37509996 -0.18219742 0.5048356 0.0039457334 0.7157467 -0.13036542 0.032280426 0.009362981 0.101445004 0.68950284
activo 0.8790489 0.0332874 -0.32189667 0.51507884 -0.6964708 -0.13277484 -0.32679525 0.38790876 -0.2509216 0.22697972 -0.4972533 -0.07905878 -0.31269768 -0.8954423 -0.7696044 -0.07068758 -0.13131738 -0.33676738 0.6841708 -0.32697824 -0.49976888 0.21959838 0.34182552 -0.22136635 0.49916568 0.12490005 -0.53975534 -0.55716664 1.180909 0.08076847
normal 0.01927357 0.16277623 0.15660459 -0.21190427 -0.25672704 -0.40338674 -0.5526461 -0.17244902 -0.13424824 -0.4709588 -0.52865493 0.6761325 0.1285716 0.17977482 -0.4061988 0.016026156 0.79575574 -0.6189159 -0.24013497 -0.5423197 -0.20133202 0.06698089 1.2223634 0.2732088 0.53113973 -0.014880583 -0.29100004 -0.5292844 0.01016075 -0.42027044
dijiste 0.10844915 0.6405351 0.22028883 -0.058659498 -0.44892323 -0.47282442 -0.29911155 0.16699275 0.37389654 -0.13932759 -0.6816541 0.3740275 -0.0378263 -0.17160001 -0.5047151 0.03364897 0.30835125 0.15144207 -0.13878977 -0.5256871 0.032180857 0.15268032 0.13199338 -0.1880052 0.73850226 -0.02361196 -0.22833046 -0.49722135 0.16885695 -0.36213228
contabilizadas 0.2048332 0.4458022 0.66328514 0.14540917 -0.17689082 -0.10085796 -0.13938539 0.79422873 -0.49350926 -0.6391486 -0.5874994 0.47836068 -0.030238824 0.06333582 -0.74240804 0.6062576 0.91058385 0.15931386 0.28946212 -0.7717033 -0.15522572 0.3424309 0.55071896 0.13906339 -0.13600825 -0.13050325 -1.0185764 -0.96945786 -0.31422836 -0.19359481
cedula 0.025878128 0.59315723 -0.47856322 0.23748836 0.09209028 -0.61710817 -0.54225665 0.030885568 0.87509763 -0.069255896 -0.9913672 0.28872132 0.28290096 -0.8074535 -1.0082169 -0.82294565 -0.5316621 -0.41482344 0.20664291 -0.19206661 0.44780913 -0.21830058 0.892958 -0.29943 0.45595554 -0.10104692 0.064663656 -0.6821087 0.4556066 -0.27154386
correr 0.12230888 0.29059204 0.11923457 0.35605916 -0.14882958 -0.4835854 0.11116393 0.24991103 0.26154917 -0.14440039 -0.8756205 0.27647474 0.16302772 -0.13938938 -0.3894468 -0.05234255 0.2949407 -0.2332024 -0.22793774 -0.86683536 -0.8515218 -0.28382307 0.56331897 -0.12179453 0.10143146 0.22553948 -0.70833784 -0.6043475 0.03420407 -0.58055866
tarjeta -0.040072087 0.46765223 -0.25825217 -0.048380803 0.016844733 -0.25382826 -0.13651235 0.0772631 0.3801057 -0.41373447 -1.1837832 0.15751596 -0.07130486 0.38303474 -0.9674903 -0.22082518 -0.3794525 0.27534285 -0.15531573 -0.5052913 -0.89478016 -0.022288939 0.5022311 -0.49952543 0.40674123 0.31153947 -0.22612044 -0.4888699 0.8608648 0.13951166
encuentran -0.33968022 -0.1312913 0.022765867 -0.094147034 -0.15394898 -0.07311037 -0.13308987 0.2082392 -0.47783637 0.14557299 -0.38109583 0.56100696 -0.2412719 -0.25379598 -1.0720781 0.3270774 -0.25585616 -0.50970685 -0.08817695 -0.29278496 -0.08383082 0.3230078 0.6045766 0.091900855 0.38169008 -0.28826857 -0.26815364 -0.9389325 0.40477234 -0.17317301
formacion -0.2267516 0.09768073 -0.15138812 -0.324208 -0.3891175 -0.1696829 0.07768494 0.05195413 0.08384991 0.14891075 -0.998344 0.5113958 -0.17274275 -0.7228892 -0.40982196 0.30788773 -0.20624642 0.11704598 0.14042813 -0.3168166 -0.46718255 0.5642621 0.2534241 -0.38290194 0.26353276 -0.33903706 0.097972356 -0.64801234 0.31646758 0.18089712
competicion 0.32942724 0.65192634 0.20828679 0.14800866 0.16249247 0.08114695 -0.27067634 0.1883577 0.45522127 0.15655187 -0.6279182 0.55990136 0.10142511 -0.71768564 -0.6174163 0.052418236 -0.04754217 -0.06432092 0.3220229 -0.3016502 -0.3981822 0.24455681 0.090453826 0.08610584 0.28730142 -0.2563403 0.048757162 -0.9259598 0.14957838 0.013840335
enviaron 0.70801425 0.39189026 -0.058871154 -0.20955852 -0.74993783 -0.15304573 0.058035985 0.30088395 -0.19668691 -0.038154468 -0.5244455 0.15427755 -0.1336303 -1.0864327 -0.16820839 0.661634 0.095661454 -0.2740684 0.1338437 -0.21498325 -0.58954877 0.12565213 0.21174358 0.24992679 0.2809742 -0.9130578 -0.46987417 -0.8521577 -0.5432091 -0.45024693
parecen 0.06515015 -0.09052915 -0.2420977 -0.09786655 -0.14373535 -0.36966866 0.029899783 -0.12681995 0.21651125 -0.63014543 -0.2438809 0.56079394 -0.1574333 -0.4693153 -0.69482404 0.120621726 0.18028997 -0.13525252 0.02358348 -0.29868832 -0.6434698 -0.020028604 0.40115073 -0.2833053 0.7959039 0.0023689712 -0.21483025 -0.8192499 -0.1300423 -0.10313847
actualizar 0.74393874 0.6593852 -0.91165596 -0.33226871 -0.8808852 -1.006948 0.009495145 -0.4828469 0.83070135 0.72006565 -1.0449495 0.417845 -0.3385481 -0.58631206 -0.6570424 -0.27919888 -0.33695272 0.024083953 0.22843222 -0.105109535 0.1765487 0.20074706 0.68326163 -0.408763 0.24985614 -0.19781315 0.022260066 -0.2633722 0.4153843 -0.14215718
nadie 0.56280607 0.24477687 0.34394157 -0.1973936 -0.43428004 -0.55755615 0.07479845 -0.10310659 0.1886011 -0.15660514 -0.8770688 0.46350834 -0.042527 -0.3720042 -0.23527746 -0.07162401 0.24227224 -0.3412683 0.0727892 -0.55924785 -0.7269499 -0.06848241 0.026020627 -0.15491933 0.60748786 -0.28534257 -0.4487024 -0.5317123 -0.1287259 0.4179707
tecnico 0.3597888 0.6227904 -0.50432914 0.24901189 -0.12611242 -0.3259745 -0.075285666 -0.018281167 0.09532796 -0.53170234 -0.695143 0.44577807 -0.5763946 -0.27398163 -0.559629 0.28106824 0.31626442 -0.438804 -0.022998925 -0.1868863 -0.6194411 0.53597796 -0.11162027 -0.41973507 0.16638488 -0.58071905 0.28409225 -0.67381096 -0.11345707 -0.019435452
imagen -0.31138766 -0.05233034 -0.2810002 0.026382418 -0.20853983 -0.19428138 0.025875857 -0.10709469 0.6131545 0.34949923 -0.44971016 1.2277776 -0.034500614 -0.5218964 -0.44259536 0.16264302 -0.12819944 0.2095637 -0.18288517 -0.4094939 -0.6631803 -0.041368745 0.40341407 -0.5720338 0.47717038 -0.25479382 0.07050551 -0.7170681 0.5125207 -0.303517
llamars -0.36132908 0.34277892 0.21599665 -0.16497274 -0.2447999 0.25053337 -0.12821063 -0.13431741 -0.23574582 0.1411689 -0.69196343 0.054478828 -0.014306117 -0.1473478 -1.1518866 0.4874156 1.1546291 -0.20601408 -0.014214408 -0.8842029 -0.1456426 0.21631576 0.46168527 0.15112719 0.21271053 -0.29930446 -0.69336265 -0.69275343 -0.14101417 -0.2757747
llegan -0.12533933 0.2632038 -0.26219422 0.2036869 -0.17782234 -0.36176324 -0.2524072 0.4078079 0.16768834 -0.2850472 -0.37304714 0.5585001 -0.012747124 -0.66333735 -0.6276839 -0.021855254 0.20689279 -0.26645964 -0.086283304 -0.5471199 -0.88099223 -0.04652383 0.42065883 0.1295654 0.27345392 -0.032201216 -0.22496744 -0.4070243 0.087753244 -0.16782776
gerencia 0.194174 0.91843545 -0.5133016 0.350995 -0.25379345 -1.0881301 -0.43876943 0.19346042 0.8974433 -0.13303077 -0.8815237 0.806608 0.3866784 -0.38889802 -0.63409346 -1.3578327 -0.29585207 -0.2773844 -0.22075072 -0.36486167 -0.17717206 -0.02052269 0.35791042 -0.82122 0.3300398 0.36456177 0.15900834 -0.48799548 0.33305418 -0.19425362
dolares -0.79427814 0.5552114 0.520741 -0.39384693 -0.23357207 -0.31641096 -0.72375655 0.40320495 -0.61379296 -1.1964818 -0.39342752 0.9465339 -0.6537613 -0.14400288 -1.0714021 1.1381786 1.0882725 -0.3603754 -0.83038557 0.046869144 0.15121129 1.1455035 0.030084666 -0.5391101 0.6490245 -0.69979876 0.17022498 -0.11134473 -0.09588232 -0.33047333
mitad -0.51666915 0.51793665 0.49324077 -0.11694986 -0.3966883 -0.60269797 -0.3475031 -0.014638955 -0.093503304 -0.29797843 -0.15887062 0.38212976 -0.059423164 -0.41696963 -0.6928863 -0.3899659 0.76855713 -0.36134067 0.13355106 -0.55215114 -0.52355903 0.22829056 0.2505712 -0.14299908 0.44217554 -0.2263701 -0.14011368 -0.57211405 0.046746377 -0.14158633
intentando 0.13031979 0.19176096 -0.45466438 0.3631477 -0.7469925 -0.24236023 -0.2140236 0.18642648 0.2817899 0.24974915 -0.091671765 0.76618534 0.16479436 -1.4009132 -1.069989 1.0336399 -0.4470445 0.3160448 0.036328346 0.05909387 -0.17281838 0.6852142 0.033982243 -0.27612817 0.2575831 -0.6920068 0.35537603 -0.9562736 0.27521485 -0.06351672
exactamente -0.39688691 0.021609768 0.018879894 -0.058685828 0.03148829 -0.30782235 -0.32616487 -0.22618392 -0.11488873 -0.31826577 -0.30000836 0.24753591 -0.21923575 -0.4894939 -0.9037173 0.791268 -0.01524735 -0.08826914 -0.37519634 -0.58961993 -0.29890862 0.39682567 0.6704485 -0.039254695 0.27836016 -0.31519872 0.1251289 -0.89436245 0.21291548 -0.31836486
intel 0.2328136 0.35588914 -0.2655297 0.47962597 -0.7709526 0.07033925 -0.12541334 0.29601356 -0.0720392 -0.17424308 -0.40156356 0.8196607 -0.07098144 -0.4402323 -0.35677865 -0.76030946 0.37423745 -0.24656686 -0.050785746 -0.56899375 -0.16707213 -0.045784205 0.58134574 -0.35138258 0.3937491 0.053052202 -0.55384535 -0.676661 0.2622142 0.07839674
hotmail -0.2253429 0.754894 -0.52888584 0.61163193 -0.36475825 -0.22854254 -0.112587586 0.5051277 0.65495574 -0.10936638 -0.9685031 0.2694837 0.24473357 -0.17164041 -1.0092468 -0.91805565 -0.4677115 -0.48428583 -0.36179698 -0.39705732 -0.18936613 0.41623262 0.19407542 -0.6712875 0.35631317 0.43238357 0.018814672 -0.85100406 0.8281207 -0.24669498
tercer -0.33664548 0.42501625 -0.03868538 -0.29304457 -0.51252913 -0.41951185 -0.32559425 -0.11432533 0.5881282 -0.0050619603 -0.38181564 0.6289366 0.10586647 -0.4480103 -0.6129418 -0.25125685 0.011270288 -0.03302299 -0.42821857 -0.016175022 -0.46305516 0.2793423 0.5661667 -0.7389293 0.5718678 0.30519125 -0.5836334 -0.62174517 -0.0576498 0.24833335
mensaje 0.20531414 -0.2829415 0.067722164 0.36442286 -0.30169797 -0.8083085 -1.0522184 0.19819497 -0.1138054 -0.11058492 -0.81478584 -0.28927878 -0.27176464 -1.2107488 -0.91312104 0.56927645 0.44474375 -0.12389197 -0.010005873 -0.7299928 -0.41253576 0.25774035 0.40333948 0.5535419 0.2437194 -0.51672834 -0.56053174 -0.31319237 -0.26802856 -0.08190848
hablo -0.05538467 0.27481848 -0.038775004 -0.23668224 -0.27596006 0.41370818 -0.11354983 0.87567896 0.24792258 -0.5731094 -0.5367318 0.4300756 -0.24117963 -0.26702178 -0.70481277 0.47783056 0.6117255 -0.003092112 0.15953009 -0.07039771 -0.37198642 0.2415014 0.65913355 -0.46309873 0.476196 0.35984096 -0.2791582 -0.70562875 0.10616982 -0.25214982
color 0.19975725 0.4402003 0.04195045 -0.21645573 -0.23392817 -0.26143843 0.1410412 -0.1335699 0.29537535 -0.43828303 -0.44692916 0.040657654 -0.06095492 -0.39839512 -0.43670204 0.18477063 0.31543398 -0.14659505 -0.17838535 -0.70458364 -0.40319735 0.2521323 0.5571957 0.08288905 0.7298027 -0.2534011 -0.13623527 -0.97071624 -0.29781502 0.40076378
revista 0.75046647 0.68267804 -0.37449417 0.22424299 -0.41086698 -0.0814272 -0.3179516 0.11483476 -0.06119453 -0.18878576 -0.5189149 0.69706756 0.07531342 0.13519855 -0.9437442 -0.5138111 -0.00065984856 -0.35728434 -0.049114846 -0.14673273 -0.274988 -0.10548047 0.41414446 -0.41129544 0.18510835 -0.019070012 -0.19366758 -0.6591489 0.25239632 -0.1843122
nombres 0.171779 0.657972 -0.15609497 0.04382367 -0.47531447 -0.019381186 0.062989086 0.5912738 0.21431667 -0.12466498 -0.40589526 0.082047455 -0.027965268 -0.7726817 -0.72211015 -0.3974092 -0.24611211 -0.3973296 0.14652105 -0.2441282 -0.54955065 0.04166795 0.43426633 -0.67399573 0.20943028 -0.08935152 -0.26287478 -0.70229197 0.08823071 -0.22615512
llegue 0.23833667 0.7583636 -0.01738165 -0.24011962 0.02361264 -0.5360715 -0.5070023 0.13298759 0.07542518 -0.22175813 -0.34963453 0.44705164 -0.061916232 -1.0701616 -0.57305294 -0.15237938 0.28235734 -0.36362708 -0.12284807 -0.6648597 -0.40438163 0.14247489 0.55504185 -0.021623166 0.35554942 -0.05337916 -0.15393469 0.003674888 -0.13344525 0.124249555
comento -0.04671384 0.592258 0.3044852 -0.32001743 -0.5987957 -0.4481381 0.030494642 0.16670482 -0.06691322 -0.46032462 -0.57224536 0.62046015 -0.06554974 -0.26084468 -0.439998 0.38380334 0.8069881 0.029642148 -0.20107208 -0.7003573 0.02606752 0.36295822 0.49054068 0.28366858 0.012731296 -0.07880633 -0.17188065 -0.65074366 0.1506399 -0.012186262
diferente 0.60162205 0.79931784 -0.22595482 -0.03790438 -0.80472684 -0.08177535 -0.05566537 0.22846371 0.39930055 0.047854852 -0.705452 0.6474765 0.032323826 -0.040796373 -0.32557255 -0.103628986 -0.05080419 0.29597273 0.39853925 -0.31357527 -0.5263751 -0.0048144124 0.23679914 0.07210894 0.06750184 -0.024180956 -0.13635753 -0.7627275 0.39416176 -0.1383435
deben 0.12971164 0.8152984 0.33612612 -0.35942718 0.025542833 -0.47299528 -0.18039817 -0.0291968 -0.029313648 0.5243248 -0.57021374 0.9977745 0.16926016 -0.12508923 -0.5211375 0.07908514 -0.44411874 -0.43908146 0.22107792 0.06976735 -0.4914066 0.37517267 0.0055405023 -0.23982328 0.40604162 -0.60706115 -0.36325827 -0.6498834 0.40548036 -0.28171924
segundito -0.019350698 0.09661572 -0.9132391 0.55989504 0.05931674 -0.9327906 -0.2132799 -0.019103386 0.28264493 0.19190855 -0.49441686 0.9872651 0.15005675 -0.79344004 -0.9003799 0.18625915 -0.7452139 -0.7224664 0.36152333 -0.08572815 0.3633124 -0.08575001 0.68858963 0.0016423682 0.71367556 -0.5358302 0.26605862 -0.7296682 0.47278392 0.18128219
momentico 0.34881783 0.10705445 -0.16954055 -0.29399106 -0.22256216 -0.875577 -0.44845942 0.24532065 0.15824707 -0.8854866 -0.44626123 0.89687616 0.12537636 -0.24710257 -0.85900944 -0.27487487 -0.6868697 -0.112344824 -0.17903526 0.20695251 -0.13436988 -0.5078338 0.84360766 -0.3576101 0.9623135 -0.34365064 0.18244469 -0.3289996 0.18481594 -0.005319242
social 1.030512 0.3995687 -1.0527133 0.05338688 -0.75695205 -0.55096716 -1.3550029 0.49921507 0.097058095 -0.25328818 -0.6948508 -0.1055301 0.043692686 -0.91891414 -0.50327814 -0.19831583 0.4046903 0.38164955 0.007977264 -0.26259544 -0.6416369 -0.07874853 0.44010162 -0.08581419 0.020750485 -0.45927265 -0.010025903 -0.3222759 0.5668173 -0.5456359
necesitamos 0.22869495 0.46786746 0.026992701 -0.36190802 -0.8760341 -0.24811572 -0.43587357 0.36049724 0.4602491 -0.043932095 -0.68634343 1.0370535 -0.8453668 -0.73477364 -0.06359376 0.63836515 0.5138229 0.2505702 -0.20509435 -0.23131965 -0.20402858 0.44848248 0.2089284 0.59083205 0.22564793 -0.2690807 0.29693803 -0.62038684 -0.08369412 -0.051581226
intente 0.31565836 0.8435225 -0.3512313 -0.0627757 -0.028927702 -0.026055949 -0.2318665 0.017637072 0.102503255 0.1354361 -0.6749588 0.46418175 -0.11662513 -0.67071295 -0.69969743 0.18025044 -0.14262655 -0.554967 -0.010709751 -0.038355865 -0.40816462 -0.11749422 0.13527673 -0.059074014 0.3379281 -0.296586 -0.25538108 -0.5105977 0.21834736 0.3189498
octubre 0.06628072 0.18780188 0.16674304 -0.096678525 -0.5309208 0.73923635 -0.019494776 0.93376195 -0.40200675 -0.78965014 -0.06695168 0.6321113 -0.6099339 -1.0272495 -0.21532355 0.3363337 0.8569697 0.32944784 0.37111828 -0.7931612 -0.36122856 0.41726026 0.7106955 0.47889665 0.4283655 0.068432495 -0.5482791 -1.1053644 -0.10917273 0.19130819
mandar 0.3263239 0.4118107 -0.1932279 -0.015530379 -0.33391848 -0.34538966 -0.49701536 -0.14088024 -0.38163748 -0.14633825 -0.19354525 0.57089597 -0.16057695 -0.61225075 -0.6032709 0.51767796 0.25205824 0.13291135 0.039486885 -0.18769728 -0.4751364 -0.030174732 0.16295409 0.27240312 0.5446522 -0.41311166 -0.3139293 -0.970966 -0.2784862 -0.077093236
lunes 0.100986846 0.78873545 -0.3149301 -0.013739889 -0.65399265 0.064930275 0.08933612 0.86797947 -0.22214113 -0.55246 -0.9734647 0.79767424 -1.1148335 -0.43821123 0.31787714 0.92636395 0.039175082 0.65620023 0.47268155 -0.36165988 -0.7011812 0.34020302 0.3018068 0.033344124 0.24866211 0.15458634 -0.44970137 -0.6301966 -0.1929386 -0.43404722
ingenieria -0.41865236 0.9196826 -0.7233399 -0.4644297 -0.25232643 -0.1680074 0.29959717 0.344509 0.020905076 -0.42083043 -1.1788874 0.6116384 0.33664486 0.13995741 -0.45461538 -0.68652475 -0.5095153 0.29604986 -0.15077779 -0.34847546 -0.59186363 -0.33641443 0.70677984 -1.101192 0.5034542 0.3268122 -0.1786652 -0.6766176 0.118108466 -0.52578837
podido 0.42232007 0.5570939 -0.23919982 0.42045358 -0.81604385 -0.25510755 0.02712138 0.030873602 0.34313482 -0.05452529 -0.32303578 0.7672532 -0.27466643 -0.8092178 -0.43414164 0.7480101 -0.02787644 0.28126526 0.0042245286 -0.04647923 -0.284094 0.43853468 -0.004648389 -0.060154922 0.35187715 -0.32962686 -0.41360053 -0.927641 -0.36096996 -0.06666015
gerente -0.23953049 0.5478654 -0.17955929 0.46490088 -0.11851329 -0.2932603 -0.32001248 0.023471348 0.95249426 -0.22949454 -1.2299325 0.783548 0.2900321 -0.3887902 -0.68075484 -0.8338501 -0.017014433 -0.67920053 -0.18440786 -0.052438617 0.14056253 0.62376547 0.55585223 -0.9590816 0.24128808 -0.16007109 0.62107265 -0.5711645 0.2985769 -0.3151244
queremos 0.29599318 0.52296823 -0.110390976 -0.1262714 -0.1220468 -0.22305372 -0.04655007 0.26773798 0.034448545 0.052920464 -0.8871895 0.79460293 -0.44005936 -0.39160302 -0.34060004 0.07778205 -0.1254803 -0.24172477 -0.07714388 -0.4570183 -0.73818755 0.1188937 0.4659218 0.24397825 0.16310002 0.0629584 0.02405323 -0.44801724 -0.37441495 -0.25240517
solucion 0.3414921 0.82417315 -0.40887603 -0.2572625 -0.19168384 -0.56994885 -0.25004137 0.64736575 0.0040677954 -0.29868996 -0.7878377 0.7079399 0.14678219 -0.207108 -0.16596854 0.29650402 0.17386669 0.009159421 -0.05817681 -0.2630233 -0.76990163 -0.2728025 0.5367299 0.43387058 -0.014813082 -0.32093754 -0.18267514 -0.5608878 -0.08539255 0.06350372
exito -0.14503533 0.2608928 0.04806708 0.075502954 -0.27512053 -0.76316214 -0.25687793 -0.044798993 -0.3502545 -0.29689646 -0.20276567 0.44225812 0.0693527 -0.53121823 -0.7539958 0.00035111193 0.18237504 -0.4545904 0.07304014 -0.8238218 -0.37322482 -0.09233326 0.25189018 0.02082644 0.48290548 -0.73773056 -0.2794505 -0.47150877 -0.1374726 -0.34161156
situacion -0.020208836 0.4478861 0.030878562 -0.010101269 -0.2646799 -0.42842215 -0.46481884 -0.23554783 0.38391083 0.025674926 -0.8008079 0.7628026 -0.26081002 -0.5790726 -0.6668821 -0.06613802 0.2507498 -0.44161475 0.38166127 -0.0038611756 -0.20274681 0.07222621 0.6815151 0.051558767 0.22408737 0.026044711 -0.26012573 -0.34006688 -0.33769858 0.23334083
creacion 0.16408315 0.39009452 -0.29362085 -0.5129944 -0.6181852 -0.47802842 0.21180756 -0.0050083883 -0.2816665 -0.09911784 -1.2551943 0.12361776 -0.15912946 -0.2221936 -0.2289085 0.4385014 0.45527092 0.18465725 0.42892995 -0.2979757 -0.48969 0.7238131 0.6638078 0.2104576 0.074112624 -0.67133397 -0.3989844 -0.56957173 -0.15741077 0.18174195
limitada 0.18403153 0.3963613 0.3775607 0.8412166 0.5348195 -0.35020337 0.24124284 -0.06131997 0.098198004 -0.3717852 -1.0837173 0.52571124 -0.22005685 -0.755921 -1.7024659 -0.6258982 -0.2792272 -0.44172257 -0.32565114 -0.847096 -0.025190158 -0.045646477 0.17674534 -1.272851 0.46818644 0.4062805 -0.040450543 -0.08342493 0.56939197 -0.7665315
entidad -0.39708984 0.14666766 -0.24224874 -0.60893255 -0.3716749 0.11938103 -0.022958528 0.2627557 -0.2224 -0.74438286 -0.59832656 0.3297369 -0.22552748 -0.82883394 -0.43762246 0.32348257 0.12675358 -0.13788451 -0.49281344 -0.66677564 -0.22703874 0.28906906 -0.08208716 0.07590779 0.64501 -0.7046753 -0.077027254 -0.69721776 -0.13926998 -0.40511304
analista -0.38267243 0.43368116 -0.3548005 0.11517263 -0.1760474 -0.11847012 -0.05925846 0.32390967 0.35521877 -1.0918429 -1.2773986 0.6402123 0.28959435 0.2893482 -0.6915077 -0.7893011 0.7788997 0.28349695 -0.5157799 -0.8562298 -0.4116876 0.9575066 -0.50039047 -1.2939091 0.5582718 0.83525693 -0.13931061 -0.8403659 0.21965575 -0.83852386
poquito 0.24759173 0.43778467 -0.059417207 -0.030778032 -0.5310036 -0.1612143 -0.073723525 0.18468983 0.28316087 -0.3216041 -0.51638615 0.6775499 -0.51455915 -0.34266478 -0.6575013 0.16294794 0.29290298 0.16163322 0.22566773 0.1271312 -0.5199351 0.16818175 0.3766881 0.14161557 0.38835502 -0.7519658 -0.7135592 -0.47328115 -0.08751398 0.051509116
pagado 0.038838357 0.5418726 0.019139769 -0.48634303 -0.37729692 -0.22048555 0.26240128 -0.0016857113 -0.19337463 -0.11031496 -0.74795085 0.8310733 0.08396771 0.31198227 -0.86120063 0.030134317 0.8626832 -0.20392482 0.10562152 -0.21198097 -0.6393349 0.59799874 0.8312778 0.24067457 0.23550096 0.065010116 -0.5175304 -0.1628011 -0.18857807 -0.29481983
bucaramanga -0.41791221 0.7605182 -0.61485606 0.40762457 -0.08824864 -0.60400134 0.071687855 0.201426 0.2204692 -0.8015962 -0.76432747 0.30586776 -0.016418345 -0.44419464 -0.64496124 -1.0587441 0.27508718 -0.29816744 -0.6196207 -0.72869533 -0.2451788 0.18016231 0.66604626 -1.1541957 0.58041424 0.28798625 0.3092446 -0.56483716 -0.23186181 -0.5109118
trata 0.07217464 0.37002578 -0.43956515 -0.26361355 -0.29157558 -0.64034545 -0.08010961 0.43519226 0.109040186 -0.11642318 -0.8078289 0.6797977 0.24814096 -0.13903761 -0.5034449 0.4392067 0.18007891 0.054377988 0.24693379 -0.9623459 -0.04786277 -0.1208415 0.29294005 0.1981495 0.08177343 -0.6222511 -0.13388613 -0.41265818 0.19342452 -0.3088724
existe 0.47488236 0.18028295 -0.09298383 0.15759465 -0.6651744 -0.23283386 -0.015232672 -0.0855469 0.46168298 0.35244778 -0.9110196 0.6906054 -0.6024719 -0.9303377 -0.3117154 0.32419616 -0.1656312 -0.03860486 0.5869937 0.2592031 -0.49758685 0.38668573 0.33911097 0.2756352 -0.044916786 -0.742822 -0.27963495 -0.7875702 0.28767517 0.18492319
solicitarndo 0.3234162 0.113390446 -0.47180158 -0.45048416 -0.6603816 -0.41239062 0.14378835 0.05551799 -0.26258135 -0.21891265 -0.8957391 0.6063269 -0.0119941635 -0.9828328 -0.1338679 0.77936625 -0.07486873 0.08260979 0.053110912 -0.19703917 -0.25890735 0.4787045 0.22013523 0.48587275 0.37977302 -0.98386765 -0.17198977 -0.8319746 -0.16701816 0.5654695
crimen -0.4527818 0.07433349 -0.082907684 -0.14268382 -0.5088762 0.0725188 0.055058517 0.5897389 0.74442786 -0.53473073 -0.44675386 0.31512675 -0.3175988 0.07644796 -0.67920464 -0.38784784 -0.35696125 -0.38604763 0.02866039 -0.66530275 -0.685115 -0.13324967 0.10900601 0.07030072 0.93696487 0.14278072 -0.18845683 -1.1110152 0.20072526 0.02413129
agente -0.20624557 0.6544423 -0.01822308 -0.044820096 -0.38100985 -0.06289262 -0.16004567 0.30064264 0.37370804 -0.26849294 -0.31070694 0.35135332 -0.12341163 -0.013495319 -0.70170355 -0.4569478 0.114455715 -0.13874434 0.06295585 -0.32914776 -0.7360133 0.17118062 0.66138417 -0.16228153 0.51671237 -0.20111679 -0.259958 -0.4801301 0.2984783 -0.3374765
titulo 0.1959477 0.2044148 -0.22490376 0.054588787 -0.29962903 -0.42551142 -0.013536848 0.4646571 -0.15095605 0.24992253 -0.5418492 0.4889991 -0.065799505 -0.5279081 -0.73248816 -0.21450251 0.43004543 0.05283688 -0.10326615 -0.6534971 0.010870439 0.25952983 0.65437675 -0.229586 0.5186813 -0.18853126 0.28935778 -0.5323294 0.24318184 -0.04396644
encuentro 0.23306933 0.41573462 -0.29761598 0.1859316 0.23667271 -0.35659537 -0.25539562 0.25474438 0.217679 -0.05046391 -0.5100812 -0.05417724 0.12706241 -0.5748527 -0.5856211 -0.04855543 0.14289407 -0.2282452 -0.09038499 -0.47799298 -0.15977825 0.5220967 0.6700011 -0.4155356 0.49786258 -0.096239254 -0.14611599 -0.90623426 0.35758486 -0.05446078
acerca 0.10911859 0.56534886 0.07687292 -0.19500121 -0.26024666 -0.7573898 0.1277494 0.13616838 0.0921 -0.17377833 -0.58040917 0.6851353 -0.3780482 -0.3274063 -0.47540542 0.0796158 0.18169749 -0.39341402 0.2769882 -0.6028269 -0.3927687 -0.2649699 0.31956038 0.017135113 0.33347452 -0.04542126 -0.17228165 -0.35412112 -0.020345656 -0.1499529
recibieron 0.28957966 0.5005314 0.27058893 -0.6140273 -0.07016721 -0.25706488 0.05515617 0.09515477 -0.6984696 -0.50098556 -0.33453086 0.76172054 0.24219353 -0.45070374 -0.6906746 0.19633321 1.3075966 -0.40533575 0.3273653 -0.9998616 -0.47896606 0.106206626 0.4581339 0.24312627 -0.07000761 -0.74430996 -0.8925499 -0.19721037 -0.44726703 -0.40108192
texto 0.32536998 0.3305775 0.16554846 -0.46603903 0.10637389 -0.280633 -0.30304572 0.24458389 -0.120436765 -0.30024374 -1.0112575 0.28666896 0.14848344 -0.472997 -0.6241027 -0.32017538 0.44036362 -0.43660927 -0.15598403 -0.48250726 -0.24402453 0.23803122 0.08739912 -0.43604764 0.62512946 -0.7147605 0.38535616 -0.2922355 0.21740907 -0.25883546
obviamente -0.003728537 0.78869957 0.42380235 -0.50395465 -0.37915176 -0.29748258 0.24092785 -0.29312143 -0.3260154 -0.122982614 -0.735203 0.25250483 -0.21717517 -0.5028296 -0.7714211 0.2956706 0.2440616 -0.413792 0.39439124 0.0037978636 -0.680624 0.08418261 0.2697964 0.34847465 -0.29439902 -0.5962217 -0.26305047 -1.0136133 0.042259246 0.083021455
paginas -0.3472653 0.08837828 -0.20534043 -0.6250338 -0.52637905 -0.33099666 -0.12477003 0.30960503 0.40055504 -0.28823847 -0.5345867 0.62028396 0.058873933 -0.14608331 -0.8993208 0.7149672 -0.5635987 -0.06253617 -0.021978408 0.05269679 -0.53302336 0.036356788 -0.0293663 -0.27445617 0.52585864 -0.7256825 0.3580105 -0.88541454 -0.0028861908 0.19309348
reporte -0.5778948 0.005367499 0.41251686 -0.27702975 -0.79735583 0.14595912 -0.11488081 0.16006967 0.16735312 0.6245889 -0.36193514 0.70006907 -0.22850047 -0.67008924 -0.6824781 0.5737373 0.28128794 -0.010532508 0.582383 -0.18505797 -0.4033214 0.10929536 0.46186045 -0.33010605 0.85324645 -1.5329628 -0.28922 -0.54394644 -0.20667502 0.26774174
concepto -0.057235744 -0.0015586412 0.08630222 0.119655244 -0.15324475 -0.037608117 -0.1555313 0.1664489 -0.3000406 -0.10935269 -0.8117357 0.76881266 -0.2520873 0.10209095 -0.5098165 0.45855156 0.07876616 -0.08971026 -0.05222438 -0.13363051 -0.48520842 0.422409 0.46091646 -0.49539718 0.8443845 -0.17893021 0.09407498 -0.6165984 0.39811105 -0.120176755
motivo 0.35533768 0.52141756 0.3123763 0.19961755 -0.5649371 0.31888837 -0.13950337 0.3707089 -0.27806222 -0.06849157 -0.11305763 0.6955548 -0.25090164 -0.26190877 -0.67627317 0.38816026 0.28353882 0.17154971 -0.05566309 -0.37120202 -0.78411037 -0.18783905 0.8760161 0.47667378 -0.038799156 -0.43824512 -1.0083773 -0.6488104 0.62320244 -0.5295068
coordinacion 0.6359131 0.79605204 -0.14835323 -0.4618859 -0.18106268 -0.7879964 -0.31767973 0.19017968 -0.30731815 -0.09864712 -0.36664873 -0.08530518 -0.12203575 -0.58168346 -0.15354101 -0.22406773 0.76832944 -0.5683654 -0.080692545 -0.6127686 -0.52536714 -0.13140212 0.4393824 0.22017053 0.7485822 -0.39211947 -0.5700923 -0.6220448 0.01364429 -0.39939168
raro -0.05685541 0.49290684 -0.024969483 0.115236536 -0.25279838 -0.12346527 -0.6499007 -0.085352845 0.09838596 -0.5026672 -0.73425364 0.4791579 0.2026255 -0.34640226 -0.6234488 -0.4976084 0.01715705 -0.008496949 -0.1662866 -0.43627602 -0.60496765 -0.066177815 0.40055302 0.043634765 0.60796267 -0.24023864 0.21132441 -0.4350068 0.37095717 0.34254694
triple 0.36304554 0.9535934 -0.39574382 -0.01703819 -0.59111315 -0.5423419 -0.23019081 0.568039 -0.022205235 -0.5748654 -0.8163917 0.20056953 -0.18762934 -0.11295564 -0.6472501 -1.1000637 -0.7614244 0.40104282 -0.268478 -0.9660979 -0.4058394 0.60396373 0.17235646 -0.5515009 0.19991302 0.03438808 0.04215024 -0.54382294 0.94632226 -0.14016503
importa 0.24451643 0.67677325 -0.3775024 0.07017816 -0.3389787 -0.47486296 -0.19972503 0.19329286 0.2817698 -0.22724779 -0.79800117 0.17785408 -0.23197126 0.02572893 -0.93172437 0.0033506062 -0.0895668 0.028608851 -0.09362925 0.011585098 -0.22065748 0.5512577 0.4160296 0.0057563405 0.47441888 0.34308478 -0.04154869 -0.71472305 0.3321431 -0.024753803
indicar 0.4801389 0.3542462 -0.2561736 -0.014671537 -0.10809261 -0.053507447 0.074692935 0.48182958 0.18035655 -0.37184918 -0.63621324 0.81350553 -0.038627304 -0.43394613 -0.23753776 0.2562731 -0.3841669 -0.08562162 0.07748584 -0.16839546 -0.19307333 0.6711726 0.198766 0.14250228 0.3931721 -0.3012001 -0.25728405 -1.0412023 0.43170348 0.1665466
frente -0.22077589 0.5876045 0.44825655 -0.3427182 -0.26483944 -0.48038274 -0.05353461 -0.008874043 0.11292489 0.00634821 -0.42728537 1.2751108 0.3499807 0.013407141 -0.6469908 -0.052922007 0.3789165 -0.653315 0.1601417 -0.21182504 -0.19200107 -0.054067817 0.44321704 -0.554719 0.7605776 0.00091800815 0.12932608 -0.48286897 -0.2913638 -0.07878394
cartera 0.02212064 0.46081892 -0.29500842 -0.020510212 -0.37308708 -0.7547496 0.10495606 -0.14556172 0.4849768 -0.39951646 -0.6691255 1.4706362 -0.046783466 -0.6252975 -0.57936114 -0.6534339 0.13238259 0.168316 -0.2588833 -0.6719856 0.11820868 -0.023495182 0.08502399 0.16027562 -0.03395464 -0.07641692 0.07656624 -0.50355417 -0.04818325 -0.4568499
bloqueo -0.29147747 0.05936017 0.09942432 0.10260844 -0.51668066 -0.1517916 -0.303252 0.2238728 -0.19704172 -0.22216181 -0.5010417 0.66807485 -0.3943988 -0.38379407 -0.72878426 0.920273 0.015822602 0.29410034 0.22805588 -0.62446076 0.09056248 0.81945986 0.23741469 -0.03041261 0.00923683 -0.9170911 -0.2682199 -0.81575793 0.024653051 -0.2862616
registra 0.066037975 1.0600733 -0.5791464 0.10706696 -0.24833107 -0.55071646 -0.37561733 0.43352997 0.5145229 -0.45672217 -0.68690556 0.4664281 -0.35306615 -0.2749329 -0.82652795 -0.48307496 -0.88241464 0.02937543 0.1217164 -0.6959096 -0.28119096 0.19476189 -0.18655747 -0.21112174 -0.21008047 -0.42517185 0.1501832 -0.60461205 0.8624101 -0.1853735
pregunto 0.2658669 0.30966538 -0.054442354 0.05650451 -0.04403006 -0.5320402 -0.6391713 0.47752964 3.0102674e-06 -0.086459324 -0.3432983 0.66577125 -0.07806658 -0.3383949 -0.6721648 0.30721503 0.5156719 -0.36724627 0.20558363 -0.31050375 -0.4275506 0.12687011 0.45083505 -0.022297995 0.433714 -0.3081684 0.1520342 -0.32601923 0.23984757 -0.08134979
necesita 0.04477916 0.49201927 -0.08561851 -0.18971486 -0.49534085 -0.3341755 -0.13269648 0.32071775 0.38459033 -0.21704507 -0.071545996 0.3946166 -0.42605075 -0.5203263 -1.0667498 0.39843017 -0.14225048 -0.35198596 0.15724882 -0.35870117 0.17319047 0.17968102 0.20979133 0.4274532 0.24733818 -0.34897745 -0.01765229 -0.95532435 0.3751515 0.102736756
viene -0.21891676 0.55957055 -0.19077238 -0.37164587 -0.13554043 -0.2751656 0.26763058 0.4758812 -0.3224331 -0.4454424 -0.70593715 0.7347863 -0.33215645 0.020447403 -0.6240015 0.33074152 0.38940272 -0.35603783 0.05590244 -0.5364681 -0.56258863 0.16487104 0.33038697 0.030315625 0.053519312 -0.065238565 -0.1229105 -0.50755125 0.079496086 0.09390548
registradas 0.4070469 0.5393231 -0.33804953 -0.23890486 -0.6062846 -0.30050167 -0.44467595 0.4536213 0.03536846 -0.37385014 -0.5769991 0.55077165 0.039953016 -0.60130435 -0.22240487 0.6387294 -0.13546257 0.14279455 -0.5045028 -0.30532563 0.12780425 -0.17291072 0.66536444 -0.11505974 0.27817902 -0.1710648 -0.04801047 -0.62847877 0.37399173 0.13557653
competidor -0.07051631 0.78547764 -0.010075904 -0.4270864 -0.09516807 0.019867051 -0.11497846 -0.21073207 -0.23640485 -0.0024962183 -0.15953006 0.35703018 -0.30264246 -0.51150525 -0.7703593 0.33953834 0.052723017 -0.4699418 0.1268839 -0.41995946 -0.6839275 0.17479338 0.3523044 -0.14252062 0.52783483 0.003487166 -0.5515885 -0.5047514 0.27391395 0.469103
realidad -0.05601601 1.1547459 -0.04037034 -0.3921303 -0.2718231 -0.092273295 -0.40458646 0.34646606 -0.02722713 -0.22844824 -0.18729079 -0.3351019 -0.45388553 -0.455957 -0.4964883 0.25258726 0.5927956 0.116771415 0.36951357 -0.36094642 -1.2844725 0.32698858 0.277824 -0.22442529 0.27968678 -0.2512579 -0.5509141 -0.5140756 0.6940278 -0.020123377
cuentan -0.15737116 0.28927162 -0.32366657 -0.056577932 -0.0788275 -0.27880248 0.04841363 0.007421631 0.093116105 -0.32103685 -0.9281602 0.55701387 -0.27676436 -0.6859797 -0.8267085 -0.18023922 0.4403234 -0.36098972 -0.4230785 -0.047518678 -0.52118295 0.2372025 0.4060099 -0.34746084 0.56542313 -0.1031595 -0.27297676 0.003845571 0.4183767 0.30991772
entrega -0.21656547 0.26099226 -0.25678393 -0.3640829 -0.081554085 -0.4021743 -0.23672287 0.28700143 -0.21001764 -0.36479557 -0.5758561 0.70030504 -0.3416118 -0.6938508 -0.7744967 0.30987373 -0.06532198 0.17344676 -0.17228395 -0.5986998 0.006540166 0.02518651 0.2547957 -0.05252711 0.1398767 -0.3650052 -0.10210578 -0.5396083 0.37091285 0.20636629
entran -0.475303 0.34114012 -0.55243784 -0.059759192 -0.24583973 -0.19945708 -0.2390097 -0.018133698 0.28186703 -0.022945747 -0.6993367 0.003773131 -0.1387058 -0.13460705 -0.5599435 0.13639106 0.22028768 -0.45492992 -0.0144603485 -0.73347545 -0.4799868 0.044760063 0.30258384 -0.4774113 0.6362719 -0.04368777 -0.11463433 -0.71623296 0.272898 -0.26346064
evitar 0.6655192 0.7576267 0.32724798 -0.026761077 -0.54965115 -0.25116327 -0.12120636 0.21382087 0.40418273 0.14278133 -0.6582905 0.058379542 -0.271716 -0.80939674 -1.3447225 -0.18294719 -0.05929114 -0.09339265 -0.40560156 -0.49564004 0.1428614 -0.17772949 -0.11879183 -0.24341631 0.27205107 -0.2177958 0.20166749 -0.51476055 0.13452509 -0.22168425
