591 30
documento -0.17188446 0.34871003 -0.19222167 0.12460345 0.20351374 0.21029833 -0.011856631 -0.04091067 -0.279054 0.034527794 -0.09402943 0.5180857 -0.2529635 -0.17778967 0.100177646 -0.23646076 -0.04015251 -0.3098665 0.5607026 0.09715563 0.29527986 0.09548829 -0.53202426 0.34731424 0.44966456 0.039025553 0.44094664 0.42540488 -0.62959504 -0.00074659375
informacion -0.16798201 0.37178797 -0.18697554 0.18109801 0.19411032 0.22614364 -0.017800441 -0.043644752 -0.28466955 0.0032614553 -0.12296891 0.53632295 -0.28782448 -0.16001052 0.108796775 -0.23844573 -0.054771993 -0.29648057 0.5664891 0.07271635 0.3208388 0.11527341 -0.5504125 0.34166348 0.440013 0.03994798 0.44280452 0.45196837 -0.64618826 0.007403031
proveedores -0.19866814 0.3215212 -0.16603225 0.14126973 0.1859099 0.22135104 0.013707283 -0.05916147 -0.26675177 0.017645018 -0.10421531 0.5067141 -0.2698091 -0.18438157 0.11950464 -0.25292686 -0.0343844 -0.3177013 0.556213 0.041399695 0.2980445 0.112365976 -0.5566451 0.35871887 0.45952347 0.015079762 0.3750452 0.4876332 -0.6276823 -0.005956734
proceso -0.15452564 0.3689674 -0.15589984 0.17186922 0.19976595 0.20934652 -0.0015089837 -0.041855093 -0.29240447 0.005378902 -0.0891297 0.53856385 -0.257092 -0.20419164 0.1006065 -0.2471968 -0.055548772 -0.30023044 0.5501412 0.039085515 0.31378984 0.10192599 -0.5620105 0.32459405 0.45219478 0.010806956 0.43615577 0.44566476 -0.6297693 0.014157112
llamar -0.16513182 0.36396968 -0.18009421 0.16616201 0.19412507 0.19015959 0.001373496 -0.0718563 -0.26879132 0.010464766 -0.10336168 0.5152684 -0.24641797 -0.20746185 0.11489805 -0.2458345 -0.0794976 -0.32982472 0.56610394 0.059836213 0.30327666 0.09477371 -0.5595926 0.35047108 0.4298794 0.013045019 0.43267468 0.46865118 -0.6637775 0.040702727
enviar -0.20115823 0.34359065 -0.17986403 0.16466166 0.20374659 0.21228454 -0.013848614 -0.060043864 -0.2577815 0.024026811 -0.098492794 0.5019942 -0.24438584 -0.20624183 0.11296815 -0.24631725 -0.043194707 -0.33417034 0.5505302 0.04671999 0.2889482 0.08019398 -0.5652356 0.350947 0.4487699 0.046597395 0.42704576 0.4556656 -0.6287534 -0.018593863
comprar -0.184567 0.32471186 -0.2030674 0.15135168 0.2235533 0.19482023 0.0008995412 -0.025786806 -0.30015722 -0.013000127 -0.09542418 0.5138961 -0.26033843 -0.19060488 0.10144789 -0.21117552 -0.06212378 -0.34075677 0.58140033 0.07110315 0.30001923 0.10039893 -0.5649631 0.3313628 0.4508138 0.034385204 0.40797445 0.4526078 -0.63590735 0.031001115
respuesta -0.20974 0.35467845 -0.18944347 0.17130372 0.21907315 0.21313728 -0.018710535 -0.025270997 -0.27079248 -0.007909347 -0.07151463 0.5430052 -0.2781532 -0.20894374 0.087841995 -0.2107044 -0.019252742 -0.2900983 0.55937713 0.08824029 0.28479347 0.08819347 -0.5706791 0.32377818 0.42249957 0.028185204 0.43611902 0.46766973 -0.6553275 0.035755876
relacionamiento -0.19134374 0.36528942 -0.15856168 0.16188121 0.22015251 0.22849724 0.02637353 -0.068600215 -0.2676375 -0.021559073 -0.09343627 0.5303445 -0.26429504 -0.20819443 0.109628126 -0.22864369 -0.059344202 -0.3205575 0.5779775 0.04168324 0.32050052 0.11933588 -0.543445 0.3570917 0.4688662 0.022486707 0.3879574 0.48343292 -0.64805996 -0.0034938566
solicitarrr -0.18191531 0.34845614 -0.19330202 0.15024711 0.19763316 0.20444839 0.00860611 -0.055479527 -0.29207948 0.0248387 -0.09581708 0.5272853 -0.26139215 -0.18281123 0.11334712 -0.20251323 -0.054595377 -0.31667364 0.57221085 0.090145506 0.3072712 0.08058038 -0.5642155 0.32698888 0.4270133 0.026457693 0.41805646 0.43148655 -0.63248634 0.01951494
plataforma -0.18373583 0.31933394 -0.19771495 0.14835435 0.22246891 0.19976549 0.004444473 -0.040419884 -0.2751022 0.021960754 -0.11939262 0.51848674 -0.2683364 -0.20986539 0.11272268 -0.253355 -0.07383956 -0.33402142 0.5798336 0.08204593 0.29978415 0.08250752 -0.5615528 0.35819027 0.43913835 0.048163313 0.41997746 0.43009678 -0.6356159 0.02227024
pagina -0.15218735 0.35347086 -0.18930551 0.1474523 0.1940744 0.22011214 -0.012807907 -0.046394676 -0.2840897 0.008028464 -0.113531046 0.49834606 -0.2577835 -0.21054393 0.08755937 -0.23513415 -0.06710921 -0.3227467 0.54560924 0.088004395 0.31569877 0.10893243 -0.54250914 0.35286552 0.4253764 0.018009514 0.43716708 0.4251783 -0.61168116 -0.0018178271
usuario -0.19079879 0.31085876 -0.18427147 0.17675082 0.22034594 0.21225016 0.002741034 -0.034847982 -0.2725319 0.008647902 -0.10449783 0.46129683 -0.2722648 -0.21721636 0.11072172 -0.22292778 -0.06868504 -0.33592534 0.59103596 0.10060321 0.30095363 0.09901856 -0.5768364 0.35245615 0.44154066 0.061215088 0.44137692 0.42098987 -0.631265 0.014222781
contrato -0.16988999 0.37064192 -0.2144196 0.15987527 0.21696322 0.19841914 0.0020685275 -0.05127377 -0.30094332 -0.023463188 -0.12184435 0.53086936 -0.29611513 -0.19542815 0.079175696 -0.24825168 -0.049810596 -0.3057351 0.54038036 0.052983418 0.30854076 0.08998671 -0.5923609 0.32701585 0.43573272 0.055324953 0.41554773 0.43358976 -0.6297949 0.035939187
datos -0.19180807 0.32368293 -0.19913529 0.153074 0.20488335 0.1963899 -0.024247725 -0.076932944 -0.2574612 0.0027016376 -0.1055504 0.49009183 -0.28045353 -0.19920981 0.11925832 -0.27269155 -0.034669604 -0.32205456 0.56780857 0.0706078 0.30143714 0.112845965 -0.5682721 0.3656505 0.44489267 0.023229973 0.42351496 0.45954275 -0.6451542 0.0013072304
proveedor -0.18286718 0.34609258 -0.20459127 0.1524116 0.19443177 0.21592917 -0.010668739 -0.060041234 -0.2772335 -0.01842032 -0.09579074 0.52698296 -0.27310592 -0.18111192 0.090610124 -0.23139034 -0.06542993 -0.32671565 0.56591785 0.07016855 0.30484974 0.087302856 -0.562092 0.36301917 0.42377388 0.03692824 0.42089304 0.44645545 -0.64703935 0.004249826
contrasena -0.19345936 0.3564713 -0.18713021 0.15643717 0.21957858 0.19787353 0.013196387 -0.033474095 -0.26367772 -0.015586774 -0.098910786 0.47584713 -0.2406725 -0.21335347 0.12995297 -0.23762688 -0.05044946 -0.3432964 0.5943421 0.07493644 0.31268397 0.08617307 -0.5354496 0.3793814 0.42581618 0.047837276 0.41639647 0.4208095 -0.65153605 0.007182695
registro -0.17837402 0.35735047 -0.18809298 0.13299656 0.18233582 0.21497002 -0.0043609724 -0.025310144 -0.29360992 -0.0066533834 -0.10789223 0.51349837 -0.24840808 -0.20857047 0.092934 -0.22920673 -0.074124545 -0.32423145 0.5766776 0.08673942 0.2941514 0.08956174 -0.53308576 0.33420756 0.4419007 0.055114303 0.43634433 0.45735556 -0.64175063 0.0022961663
documentacion -0.19137836 0.34395456 -0.21130402 0.13875408 0.20289265 0.21757282 0.011641732 -0.057218056 -0.27802938 0.011830327 -0.102617435 0.53451747 -0.28198168 -0.18060267 0.08983693 -0.24060807 -0.045274597 -0.3051559 0.566684 0.056391507 0.31109416 0.08300518 -0.54050606 0.32232454 0.44676408 0.04465731 0.45643723 0.4609491 -0.64962834 -0.009759832
compania -0.17368479 0.36652443 -0.17642859 0.13550271 0.2013225 0.19325651 -0.0006546278 -0.048789993 -0.2634397 -0.009945056 -0.09928951 0.52120316 -0.2704165 -0.20288764 0.123966455 -0.22350332 -0.07056909 -0.31485987 0.5906549 0.05640218 0.33204696 0.10699215 -0.5577221 0.3381047 0.46751782 0.025771035 0.42545363 0.4731542 -0.6502631 0.03785418
producto -0.17933163 0.35454273 -0.15704264 0.15157017 0.19543654 0.20744519 -0.016516767 -0.048810545 -0.27240676 0.02658077 -0.099101394 0.53489316 -0.26715454 -0.202093 0.090544045 -0.254521 -0.059475627 -0.30520952 0.5779662 0.058778245 0.3226323 0.099746615 -0.53598136 0.36464033 0.45019946 0.03328628 0.42472568 0.46010104 -0.6589081 -0.012301359
ingresar -0.1674094 0.34351948 -0.16141087 0.1686884 0.20886332 0.17473125 0.0057510496 -0.024044592 -0.27292445 0.015138105 -0.12128229 0.4857924 -0.28058502 -0.21441588 0.11495072 -0.25342062 -0.049987134 -0.3166463 0.5775935 0.09581549 0.28098735 0.092735015 -0.53407776 0.38535425 0.4646989 0.01610989 0.43431506 0.42954472 -0.6206338 0.017920947
certificado -0.14971548 0.3614272 -0.18169546 0.18257277 0.1967415 0.20201455 0.017518938 -0.04329913 -0.28422153 -0.016892996 -0.12837641 0.53716576 -0.27799252 -0.20019634 0.09821571 -0.22613892 -0.035956904 -0.30868018 0.5526015 0.057398546 0.27992228 0.095769055 -0.57159746 0.3108368 0.40787223 0.04768057 0.4252571 0.43847254 -0.6481161 0.023974312
personas -0.16155192 0.3277225 -0.16143113 0.16868074 0.22169507 0.19941379 -0.024843028 -0.027587937 -0.26177743 0.011603398 -0.0901691 0.5071299 -0.26341635 -0.19545199 0.10993293 -0.22748832 -0.048682548 -0.33037275 0.56374204 0.08118376 0.3225921 0.09483529 -0.5571615 0.36509305 0.433145 0.011419715 0.42829084 0.45420593 -0.64321095 -0.0049580564
comercial -0.18465404 0.34425965 -0.1882875 0.17140017 0.1826336 0.20154163 -0.018513363 -0.063823745 -0.28683203 0.007131718 -0.08528923 0.5065045 -0.26690853 -0.16709489 0.09204262 -0.22923923 -0.03334734 -0.31330013 0.5782237 0.042272832 0.316072 0.11400446 -0.5594648 0.32851034 0.4526598 0.02912343 0.41243768 0.47279474 -0.6323649 0.028580317
haciendo -0.16040955 0.36756316 -0.180702 0.1609083 0.18907961 0.20926248 0.0011352621 -0.055633433 -0.27312493 -0.009568887 -0.12324904 0.54151237 -0.2611969 -0.211832 0.10101937 -0.24097823 -0.049585033 -0.3011252 0.55487996 0.07029399 0.30643666 0.08895927 -0.5528031 0.35551998 0.45224273 0.03778315 0.4434109 0.45583537 -0.6586354 0.015781227
problema -0.1691702 0.3404214 -0.18687306 0.15985532 0.2143369 0.20487194 0.014210064 -0.06367323 -0.27117535 0.0062539103 -0.09213119 0.5213131 -0.2767096 -0.20414892 0.10218708 -0.23972543 -0.04890811 -0.3199071 0.59109944 0.08369161 0.28786662 0.10177977 -0.55037045 0.34345305 0.45287544 0.03835053 0.4153441 0.4426966 -0.6381909 0.02038454
interes -0.17660916 0.36605993 -0.18928042 0.1713713 0.1915564 0.2013061 0.0012888811 -0.055299215 -0.27541614 -0.006301492 -0.08711571 0.50548005 -0.28362963 -0.21490388 0.081614494 -0.22168738 -0.037885092 -0.33284304 0.5652146 0.045429405 0.32252157 0.11967961 -0.5523842 0.35445747 0.4435157 0.040752914 0.4066553 0.48950678 -0.6476265 0.016170412
sistema -0.16195297 0.32600975 -0.16747396 0.14481759 0.19580063 0.2231306 -0.012518522 -0.024903094 -0.27488285 -0.014677375 -0.081558086 0.4980165 -0.28054458 -0.20446783 0.11161489 -0.23622894 -0.05161473 -0.3017518 0.5716238 0.076285005 0.31566718 0.10786158 -0.57292044 0.33696967 0.43846086 0.033248845 0.42879128 0.4494331 -0.6390216 -0.0015896156
compra -0.14802071 0.34042713 -0.15404855 0.17075633 0.19063297 0.18285461 -0.030910876 -0.04183214 -0.2706084 0.026667116 -0.119416066 0.51503754 -0.2598468 -0.18804744 0.10020321 -0.21318497 -0.07542587 -0.2934302 0.55475956 0.06808508 0.29454103 0.11820783 -0.5771394 0.3634494 0.42910528 0.029572047 0.41574273 0.4560207 -0.64791894 0.0020026083
proyecto -0.1740872 0.36961836 -0.18652318 0.15126638 0.22192235 0.18820885 -0.014053626 -0.06093276 -0.30417 -0.012844278 -0.10366608 0.5357257 -0.25025666 -0.21438879 0.12734912 -0.24279717 -0.078558855 -0.31773168 0.55500394 0.07184003 0.32326603 0.1081603 -0.58504885 0.36212474 0.46557596 0.03989492 0.4307183 0.43424326 -0.64519596 0.0011888354
empresas -0.1740547 0.3309896 -0.19250639 0.15524282 0.20840693 0.21550499 0.012873772 -0.05986301 -0.2910628 0.010345015 -0.09099467 0.4860692 -0.24839829 -0.20605822 0.11462639 -0.24687165 -0.05942701 -0.2976208 0.5742682 0.053660125 0.30757165 0.10589957 -0.53654593 0.35878837 0.42503476 0.019252641 0.43093768 0.45847225 -0.623085 0.029784482
contratacion -0.17211755 0.34538144 -0.20197575 0.17293082 0.19788621 0.17717607 -0.01669786 -0.047878135 -0.27564272 -0.0016301696 -0.12888236 0.51169544 -0.28880382 -0.18935558 0.11716727 -0.22372583 -0.06315091 -0.31778502 0.5554574 0.046814907 0.29453877 0.10806967 -0.5690129 0.3601027 0.4573405 0.025935845 0.4028226 0.45398623 -0.62962955 0.0373212
electronico -0.19102345 0.35193038 -0.2024233 0.160788 0.18719105 0.21347247 -0.0039753863 -0.040049445 -0.28409356 -0.017115278 -0.11270008 0.4928468 -0.24874775 -0.20930085 0.079931736 -0.22012621 -0.06471197 -0.3268283 0.56327057 0.057721842 0.30655822 0.11862739 -0.55211973 0.36017984 0.46346855 0.010436591 0.4315647 0.47006646 -0.63806415 0.03493662
actualizar -0.1881426 0.358151 -0.20138669 0.14070438 0.19463359 0.21964799 0.01553528 -0.03706479 -0.26158702 0.010089232 -0.09656104 0.50444615 -0.25589845 -0.22236648 0.102113254 -0.2407187 -0.062409345 -0.29208532 0.5472369 0.0748653 0.31747302 0.11160273 -0.57400256 0.34679946 0.43557286 0.059630957 0.44409072 0.42882797 -0.61466414 0.01225941
llega -0.17268296 0.32726145 -0.18715768 0.14024214 0.22288859 0.1881646 -0.014995175 -0.053347893 -0.29394853 -0.0044876873 -0.09236509 0.5057088 -0.26307037 -0.19780336 0.123356394 -0.26398656 -0.06733206 -0.29724738 0.56227493 0.056716852 0.30033043 0.09389914 -0.5520712 0.35598025 0.42302597 0.047220167 0.41404814 0.46722826 -0.6208846 0.03377294
registrada -0.1681507 0.32282802 -0.19608895 0.14037411 0.20303935 0.19905385 0.0057285666 -0.024853539 -0.2865217 0.022069288 -0.11872068 0.5158307 -0.27209386 -0.17580593 0.121742904 -0.2207185 -0.0543753 -0.31739816 0.5776762 0.08311794 0.29182136 0.09102352 -0.5336871 0.33234438 0.43606266 0.05187597 0.42016962 0.43550178 -0.62977356 -0.0010145952
verificar -0.14794841 0.3455753 -0.17285651 0.15741064 0.21498802 0.19670421 -0.022785202 -0.04488694 -0.28422365 0.0021212015 -0.12299759 0.52013946 -0.26773092 -0.19533977 0.08035942 -0.2536068 -0.055220015 -0.33590806 0.55884254 0.09389439 0.3315533 0.089377284 -0.5723672 0.36463964 0.43844813 0.038913507 0.39648762 0.45841804 -0.6150701 -0.00022466059
comun -0.16991791 0.36681727 -0.17382763 0.16724026 0.21556231 0.20910533 0.0010457283 -0.044165086 -0.2767737 0.0022428257 -0.08897251 0.4870562 -0.2628598 -0.1792165 0.12102026 -0.22520311 -0.0506289 -0.33513787 0.57575464 0.07659091 0.31129542 0.09323395 -0.565418 0.34356964 0.43329054 0.04181781 0.40082806 0.42670372 -0.6244335 0.023085933
actualizacion -0.19522277 0.32318643 -0.17320435 0.14871672 0.2210962 0.2221275 -0.017934794 -0.0445211 -0.28141817 0.024490999 -0.101935536 0.5042587 -0.26014158 -0.21112308 0.1263697 -0.25143993 -0.03299634 -0.30421257 0.5652259 0.053830925 0.30404848 0.07663652 -0.5652611 0.33172894 0.431166 0.033749957 0.44198275 0.45368552 -0.6207538 0.011079495
queremos -0.18728654 0.35708717 -0.17273802 0.15095879 0.20801589 0.21432482 -0.0096242 -0.047503833 -0.28882018 -0.0081633935 -0.108587466 0.5169343 -0.2643238 -0.19157211 0.09782941 -0.21645533 -0.04692336 -0.31232592 0.55914444 0.048817784 0.3202278 0.10249943 -0.57353354 0.34235305 0.43572366 0.01430044 0.41343093 0.44205984 -0.6310595 0.03584602
necesito -0.1697073 0.3572856 -0.16573767 0.161492 0.19717066 0.18442704 -0.00611552 -0.037307043 -0.27092925 0.008812437 -0.09592081 0.51685935 -0.24007581 -0.20877308 0.114422396 -0.23403282 -0.072695054 -0.33965388 0.56756926 0.08087828 0.28156888 0.109262764 -0.5357521 0.33823574 0.43398893 0.024570482 0.40763068 0.46276754 -0.6377295 0.01681897
hizo -0.17278191 0.333681 -0.19354387 0.16061905 0.21827082 0.20379286 0.008758057 -0.061553705 -0.30045044 0.0022782232 -0.1179937 0.5178429 -0.28184068 -0.20961986 0.08534856 -0.24881946 -0.0461073 -0.3329062 0.55770326 0.056972902 0.29648235 0.09768222 -0.56180227 0.33925045 0.4256058 0.02136491 0.41303006 0.47020265 -0.653527 0.005022224
ayudar -0.16476294 0.36187857 -0.17606682 0.1504143 0.20791793 0.2187084 0.0033365807 -0.055447202 -0.29448834 0.006500728 -0.09660304 0.5430816 -0.27148658 -0.20202234 0.11672406 -0.2555812 -0.04123422 -0.31381902 0.5564362 0.053629413 0.3260065 0.092248924 -0.5752951 0.362371 0.44118163 0.019260343 0.42537105 0.4406647 -0.6569771 0.026828704
hablar -0.1942818 0.3365484 -0.16724364 0.15060918 0.20855805 0.20702499 0.003870271 -0.030901967 -0.27975842 0.012244265 -0.10184859 0.50290316 -0.27223083 -0.16344254 0.083740726 -0.24578933 -0.052923553 -0.30680293 0.5624939 0.03710248 0.28774112 0.0896245 -0.5717482 0.33463418 0.4422635 0.038657747 0.42289284 0.45446265 -0.65668744 0.028065627
ejemplo -0.15521653 0.34262374 -0.1616316 0.1742327 0.21355498 0.17000856 -0.027883396 -0.030446319 -0.2702719 0.008567708 -0.11634113 0.5081512 -0.2697768 -0.21049057 0.118099555 -0.26159877 -0.03924267 -0.30992067 0.53685224 0.060337577 0.2775228 0.08877789 -0.56535953 0.3603663 0.42592654 0.04224181 0.43207827 0.4507271 -0.65046227 0.020745562
procesos -0.1617269 0.34039155 -0.2042529 0.16431361 0.21755995 0.185711 -0.020566069 -0.054439303 -0.28495705 0.016587947 -0.11887071 0.52644974 -0.24589784 -0.17461461 0.10673769 -0.22052002 -0.060208213 -0.3343343 0.56981325 0.07637028 0.2948452 0.08722837 -0.5477996 0.33629316 0.45518348 0.035082545 0.42775247 0.4386538 -0.6513494 0.022985775
telefono -0.1875292 0.33627778 -0.1853114 0.1787959 0.2040951 0.20323081 -0.038669623 -0.07356816 -0.26782912 -0.006579156 -0.101302296 0.51121163 -0.28988215 -0.22055505 0.11487031 -0.2274721 -0.06903741 -0.3307471 0.5655236 0.06569989 0.30392072 0.087054394 -0.58050615 0.33167782 0.42647102 0.023468846 0.40120083 0.44764224 -0.6166795 0.0182156
participar -0.18321659 0.3505328 -0.17386004 0.159844 0.20766313 0.23257363 -0.0027394835 -0.06605527 -0.29208845 0.008186517 -0.09321758 0.53925335 -0.2564944 -0.17638882 0.12357785 -0.25514695 -0.050190184 -0.3070321 0.55245197 0.053911217 0.333541 0.103982635 -0.6004019 0.3273422 0.4449249 0.04384316 0.4530803 0.4419903 -0.64452654 0.022820579
pasado -0.1828464 0.34494117 -0.19176383 0.12812881 0.20024416 0.21302742 0.006575227 -0.049318448 -0.29235515 0.029312115 -0.100464895 0.53473395 -0.27066267 -0.19352035 0.09279753 -0.22947052 -0.073249236 -0.30807915 0.5821666 0.051028963 0.31734893 0.09973797 -0.5838542 0.32022834 0.45018217 0.047475222 0.4199729 0.4386953 -0.6199234 0.024507629
facturar -0.17266676 0.37279198 -0.17087062 0.15614025 0.2017941 0.2192367 -0.032386184 -0.05214913 -0.2930256 0.014017951 -0.09135802 0.5242585 -0.27577436 -0.17236966 0.0698022 -0.20922248 -0.03433703 -0.30828467 0.54755044 0.04305011 0.31991127 0.09058224 -0.55252534 0.3376699 0.4310455 0.03725696 0.42071673 0.41235045 -0.64657044 0.020263601
nivel -0.18665105 0.34261402 -0.18112595 0.1616587 0.2198443 0.21262221 -0.0008970263 -0.05480822 -0.29119384 0.0047880337 -0.10860842 0.51897746 -0.28199622 -0.18464173 0.11115924 -0.25869942 -0.077508375 -0.32430118 0.5578653 0.07582726 0.30362886 0.0985281 -0.5647853 0.35857055 0.4404953 0.029775305 0.4145159 0.44132903 -0.6361104 0.007807524
espera -0.17660558 0.36077484 -0.1702374 0.1726121 0.21562119 0.2205341 0.0057548527 -0.06329851 -0.27423635 0.001621392 -0.123011924 0.49872375 -0.26000333 -0.19020411 0.10452829 -0.2479156 -0.049953252 -0.3132855 0.57815564 0.07537171 0.29454887 0.08864599 -0.5664987 0.3414015 0.4311146 0.022446997 0.41405344 0.4433247 -0.62586945 0.029629126
control -0.1675361 0.36367774 -0.19896793 0.15818235 0.20627567 0.18927586 -0.012834871 -0.028047407 -0.2628814 0.015066856 -0.09884362 0.511124 -0.24725445 -0.21131521 0.082901925 -0.2467666 -0.06604841 -0.3320715 0.58530056 0.06509464 0.29653648 0.11263414 -0.56286097 0.34629178 0.4540825 0.03523422 0.40990737 0.44673628 -0.6547681 0.0060754973
encuentra -0.15807055 0.3673937 -0.18115129 0.16211016 0.1895742 0.21983051 0.0028976097 -0.047122043 -0.27863786 -0.006974936 -0.08627545 0.5097685 -0.27563223 -0.212418 0.115906656 -0.22433656 -0.044857237 -0.30625597 0.5819227 0.081547596 0.30367625 0.11158871 -0.58228636 0.35167646 0.4434655 0.023336878 0.42689803 0.45644608 -0.6354588 0.027861271
opcion -0.1677822 0.35387745 -0.18947425 0.14447822 0.19034255 0.21441813 0.011087556 -0.036226217 -0.2562742 -0.007901466 -0.10604643 0.49476963 -0.26890123 -0.2112836 0.10835926 -0.22643071 -0.05234847 -0.33427817 0.5852997 0.07979382 0.28541982 0.10113041 -0.5687835 0.3262613 0.45745486 0.050786298 0.42043746 0.44163358 -0.64594376 0.008886227
unico -0.17636497 0.35954303 -0.20461196 0.16501245 0.21586236 0.22497045 -0.010924757 -0.026949523 -0.2691314 0.007655143 -0.09818542 0.5012899 -0.28871787 -0.1866545 0.069309875 -0.22493039 -0.037041347 -0.3297181 0.57555056 0.043376762 0.3234955 0.09813771 -0.5812307 0.33693728 0.46723145 0.020586906 0.42727658 0.45509914 -0.6398431 0.02413257
plataformas -0.15719695 0.34409758 -0.17666581 0.16502024 0.18287413 0.2000254 -0.009768311 -0.047791768 -0.29457232 -0.0071552396 -0.113613084 0.53190297 -0.24847896 -0.17020328 0.10520343 -0.23517083 -0.04597612 -0.3061577 0.5753502 0.08116067 0.27776843 0.110352546 -0.55915195 0.35471365 0.45266873 0.034887917 0.41528818 0.4423072 -0.64254415 0.022458116
correos -0.16710702 0.33251902 -0.19400409 0.16234556 0.2052773 0.22805078 0.011268274 -0.06719612 -0.2899779 0.010271263 -0.0842754 0.521382 -0.2590254 -0.19702224 0.124487214 -0.23198248 -0.065945454 -0.33114964 0.5547104 0.06585836 0.30835602 0.08991567 -0.5489671 0.338949 0.43889627 0.016347433 0.43952715 0.43777376 -0.6279718 0.0073813237
pueda -0.18027112 0.33967173 -0.16182482 0.17452724 0.21893188 0.1854976 -0.028015144 -0.06995522 -0.2902405 0.002577271 -0.10035249 0.5238019 -0.2493939 -0.18513782 0.08061244 -0.24196987 -0.0669054 -0.3279412 0.56733257 0.06283064 0.2889879 0.09444169 -0.5460942 0.35650545 0.4129055 0.012275947 0.42695796 0.44233838 -0.61983955 0.012405005
equipo -0.18145083 0.36138204 -0.17271636 0.15096822 0.19897398 0.1850285 -0.027898623 -0.036076214 -0.26269096 0.012689235 -0.07378716 0.5061858 -0.26628086 -0.21038692 0.075559705 -0.2268038 -0.064749025 -0.3381486 0.5675534 0.060294565 0.32481495 0.08912807 -0.5450774 0.3580181 0.4283641 0.051431224 0.40126228 0.4525645 -0.6435928 0.03174396
cargar -0.17536086 0.33240762 -0.1947085 0.16796102 0.18069632 0.21849987 0.015664767 -0.06136803 -0.2943033 0.0220296 -0.1277074 0.52386254 -0.238193 -0.17007048 0.09033446 -0.23033525 -0.05646913 -0.3288123 0.54730237 0.05435387 0.31915832 0.0697916 -0.54109335 0.32716164 0.43649295 0.04881639 0.4101993 0.41543484 -0.60164684 0.015475312
propuesta -0.19561987 0.36213365 -0.17607942 0.1394115 0.18535168 0.19494915 0.0003486534 -0.06114134 -0.30428344 -0.011229147 -0.07103624 0.5300525 -0.23787902 -0.18114515 0.076882765 -0.2609048 -0.037684545 -0.31928164 0.5615913 0.045469534 0.2887448 0.09167182 -0.57245284 0.3158531 0.45327365 0.019080069 0.42199445 0.44140476 -0.64932364 0.003705133
social -0.15553194 0.35500944 -0.17063253 0.1854718 0.17395401 0.20509633 0.0046517397 -0.03539541 -0.26821327 0.012718765 -0.122153826 0.5031333 -0.28704432 -0.18938383 0.110475674 -0.2369326 -0.059932634 -0.34326583 0.54384273 0.04601678 0.30316842 0.082576774 -0.54258335 0.3676966 0.44833586 0.02611193 0.402498 0.47174037 -0.6326271 0.013220415
representante -0.16360605 0.34074777 -0.21000934 0.19211881 0.22740798 0.2218506 -0.029252646 -0.07380317 -0.26126522 -0.0086432425 -0.10301579 0.49226385 -0.24653322 -0.18864423 0.10534297 -0.25318527 -0.05686042 -0.2996473 0.58608466 0.04004232 0.28954488 0.12736915 -0.56985223 0.35240868 0.45494986 0.025508309 0.40783745 0.46966636 -0.669544 0.018129827
ingreso -0.1583936 0.34310547 -0.20166008 0.16831173 0.20891416 0.18638438 0.003519904 -0.034744818 -0.30210665 -0.011737236 -0.13420887 0.49933326 -0.25152478 -0.19008875 0.10163773 -0.24644876 -0.07803162 -0.32260308 0.54942733 0.09027682 0.31889284 0.10648612 -0.5361124 0.3353275 0.45758775 0.028326685 0.4416891 0.43248823 -0.6478093 0.007619781
experiencia -0.17099147 0.33413613 -0.17708065 0.18006006 0.2230869 0.22506088 -0.002623601 -0.0373922 -0.29126638 -0.0026877609 -0.09718165 0.5199567 -0.28552344 -0.20307517 0.10029628 -0.24226601 -0.056461304 -0.29941517 0.559345 0.069713905 0.3139748 0.11369904 -0.5474653 0.34471998 0.43144768 0.052371453 0.42966133 0.43538567 -0.6306721 0.01786426
encargada -0.19067687 0.32249 -0.17767663 0.15882672 0.19903341 0.22512464 0.0007080785 -0.05576566 -0.25200942 -0.013684986 -0.10479924 0.51927 -0.24111 -0.19470847 0.07906706 -0.2443708 -0.039915357 -0.32678503 0.55129653 0.08180441 0.31434348 0.12840736 -0.5504768 0.3125969 0.45508018 0.032812413 0.3906461 0.45202792 -0.62872654 0.0078081083
error -0.18592072 0.3478275 -0.1954736 0.1441138 0.20277742 0.19231065 -0.012740023 -0.06510102 -0.2680923 -0.000764186 -0.10795089 0.49290758 -0.26560283 -0.20736407 0.082654454 -0.26675853 -0.040804658 -0.3022191 0.5941106 0.062044233 0.27936718 0.07724731 -0.5437449 0.35168695 0.44789618 0.020023031 0.44617948 0.42490613 -0.6362813 0.00546106
licitacion -0.18072751 0.34633788 -0.1753997 0.16461536 0.22752333 0.19936469 -0.016771162 -0.050548144 -0.27869213 -0.00258593 -0.12127164 0.50044554 -0.25566316 -0.19834293 0.11773077 -0.22439691 -0.07013695 -0.33730596 0.5724971 0.0671444 0.3011536 0.11332573 -0.5850009 0.36029318 0.43617418 0.02631984 0.4188052 0.45030645 -0.6455526 0.011414748
confirmar -0.17512956 0.33772406 -0.16779342 0.15766168 0.2014484 0.19061041 -0.017725484 -0.060031816 -0.28309157 0.025471618 -0.10104129 0.52277064 -0.24678369 -0.19865796 0.105526544 -0.25162777 -0.062514074 -0.326361 0.56445503 0.05210079 0.32083514 0.10945742 -0.55744386 0.34848285 0.45275334 0.044559825 0.41332448 0.44551942 -0.6488689 -0.003472417
acceso -0.16968493 0.34570986 -0.18328075 0.17786717 0.22666216 0.21560568 0.0109786065 -0.036580887 -0.2973712 0.018931791 -0.14615293 0.48649195 -0.27179074 -0.20658481 0.11587219 -0.27242306 -0.0712844 -0.32433847 0.5699945 0.075972855 0.30548966 0.09647837 -0.5489467 0.37249243 0.4437682 0.046682343 0.40747097 0.44918963 -0.6570017 0.01051334
consulta -0.16349223 0.33766472 -0.18214676 0.15534513 0.21192332 0.18846482 -0.009937115 -0.03435125 -0.28362408 -0.00015130315 -0.0966487 0.49121368 -0.25619644 -0.18935576 0.0876703 -0.236761 -0.07590922 -0.32505146 0.56726944 0.075242385 0.31856385 0.10443012 -0.5552687 0.35210967 0.43237445 0.01783775 0.4265274 0.4571047 -0.6376006 0.0070723225
abastecimiento -0.16849966 0.35023868 -0.19457051 0.15351208 0.20106193 0.21880722 -0.009841373 -0.039267976 -0.31084988 0.0133177005 -0.08368669 0.51508653 -0.2665957 -0.20259953 0.0934949 -0.26128182 -0.055740476 -0.33140868 0.56533784 0.07925537 0.3342936 0.11452485 -0.5530755 0.36679217 0.4505081 0.04221575 0.4244194 0.45515454 -0.65749484 0.002360652
dices -0.1622845 0.34350282 -0.19915839 0.1796604 0.20202732 0.19377992 0.0015979111 -0.057996012 -0.2716239 0.005829299 -0.10626362 0.50895655 -0.24702519 -0.19874135 0.116105266 -0.237592 -0.037299965 -0.3116931 0.57824033 0.07583433 0.31202036 0.082790285 -0.5843697 0.3645202 0.46816814 0.056600925 0.4399879 0.47876683 -0.65297055 0.00091327593
permitame -0.15312254 0.34727764 -0.17168547 0.14297059 0.22773938 0.18232302 -0.016058337 -0.07044339 -0.2688476 0.009391715 -0.09838573 0.52853286 -0.27506873 -0.19510162 0.084137216 -0.26161888 -0.06858622 -0.33283165 0.5531769 0.042349033 0.27949306 0.12353655 -0.58438975 0.37075764 0.4495759 0.02326114 0.42683122 0.43931088 -0.6330743 0.018997855
perder -0.19821735 0.349475 -0.1753601 0.14402065 0.21409486 0.19673455 -0.019082533 -0.05205781 -0.30091754 -0.009880461 -0.07707406 0.49365944 -0.27848205 -0.19539702 0.0842034 -0.25947005 -0.07707473 -0.32745814 0.5856131 0.08994855 0.28157833 0.11522981 -0.55210656 0.3177046 0.4462321 0.037042506 0.42698175 0.46802586 -0.65327173 0.030481996
llegar -0.19187382 0.36245084 -0.19442731 0.16977857 0.22106655 0.2242238 -0.0027012166 -0.043967336 -0.30731106 0.017293701 -0.10950572 0.5145436 -0.2588095 -0.20402926 0.11974295 -0.26644614 -0.061295606 -0.3066792 0.5624983 0.0469105 0.3228935 0.10654634 -0.55663896 0.34978864 0.43212533 0.052615426 0.43396914 0.44862843 -0.6467302 0.014469689
enviaron -0.17794082 0.37198415 -0.18404274 0.12688339 0.19246311 0.19837867 0.003603703 -0.036589216 -0.27610692 0.02979423 -0.12068109 0.5265954 -0.2438859 -0.21419874 0.10376623 -0.24746317 -0.068043634 -0.30902287 0.56912744 0.06290077 0.28536636 0.10550889 -0.54840034 0.35935035 0.47232628 0.021381086 0.42623177 0.43293178 -0.63926756 -0.010821842
provee -0.16192427 0.33117226 -0.17954485 0.16759416 0.19926703 0.19259714 -0.008403127 -0.029265175 -0.2707153 -0.0034374578 -0.10427142 0.5225997 -0.27179605 -0.1892824 0.09128246 -0.25617343 -0.079876706 -0.32704207 0.58803153 0.07332824 0.29174647 0.09131094 -0.5719448 0.3485826 0.446687 0.031018207 0.42556915 0.45711333 -0.6475243 -0.008448769
internet -0.18990734 0.3529629 -0.18409745 0.1640742 0.19956018 0.22462624 0.003771319 -0.035094373 -0.28056154 0.006829339 -0.09301978 0.5217942 -0.26369 -0.18504997 0.089742824 -0.22307116 -0.047263093 -0.3038615 0.5634729 0.061182916 0.31295142 0.110374786 -0.5749007 0.34472725 0.4336967 0.034034904 0.41702887 0.4410616 -0.62224233 -0.003672287
contratista -0.1773044 0.372231 -0.18899934 0.17557779 0.21806303 0.1923351 -0.04105225 -0.055554945 -0.2987464 0.011486587 -0.1053526 0.5266396 -0.2714701 -0.1959737 0.08447829 -0.23932855 -0.05972917 -0.30536562 0.56298184 0.037526023 0.31640977 0.09142518 -0.5749158 0.33649412 0.40879393 0.043267753 0.40197513 0.43628696 -0.6303545 0.03347109
pendiente -0.1604065 0.3476996 -0.17545319 0.15043142 0.21646035 0.22140494 -0.026279537 -0.055674236 -0.27869835 -0.0023713207 -0.12110361 0.5095721 -0.27623275 -0.19301112 0.118040554 -0.24203323 -0.06544681 -0.32338834 0.5580288 0.07093947 0.31488904 0.09975647 -0.53864443 0.34938216 0.4523615 0.045499273 0.41029182 0.4485785 -0.6365268 -0.012798817
queda -0.1888039 0.36661914 -0.17685032 0.14408562 0.22385482 0.20555751 0.00011931917 -0.06113789 -0.2986003 -0.017059816 -0.098297 0.518379 -0.26205295 -0.21153387 0.12090838 -0.23462021 -0.051834054 -0.29825857 0.5786593 0.080610834 0.31943327 0.09060591 -0.54369867 0.34939823 0.45519784 0.029770132 0.40759948 0.4373409 -0.6406243 0.028614633
perfil -0.16129947 0.32822287 -0.17659837 0.16898535 0.18440618 0.21666238 -0.015148376 -0.056261998 -0.2647286 0.0050162096 -0.10384323 0.49876592 -0.27161193 -0.18733437 0.08386196 -0.22212231 -0.07485763 -0.3195652 0.567471 0.06590925 0.30555454 0.08671284 -0.5542806 0.35754615 0.43710008 0.02885577 0.4284723 0.46311963 -0.63432467 0.0073578926
comunicacion -0.19262119 0.3354909 -0.197105 0.17138596 0.19689478 0.21644026 -0.009178281 -0.04358174 -0.2717193 0.022943698 -0.11492193 0.5288076 -0.26886377 -0.19937278 0.11062746 -0.22645324 -0.06651586 -0.33240533 0.5708734 0.060573157 0.3126774 0.10905906 -0.537853 0.34095982 0.4166373 0.02106403 0.3970922 0.42168152 -0.6271919 0.018013757
productos -0.16217853 0.33100653 -0.18293573 0.16932258 0.1810567 0.20707384 -0.013459622 -0.032694045 -0.26107764 0.019060202 -0.08656141 0.48968574 -0.24582855 -0.16168308 0.09184959 -0.21782179 -0.06259377 -0.32866162 0.57422596 0.056600668 0.2964699 0.1377427 -0.5419464 0.34644592 0.4347071 0.05687435 0.39438197 0.48299873 -0.6608135 0.009236704
situacion -0.18121198 0.35502443 -0.17418332 0.14313939 0.19548957 0.19848315 -0.0054104547 -0.017089244 -0.27092475 -0.009190519 -0.0995168 0.51654994 -0.27183315 -0.18781923 0.103832304 -0.24477911 -0.0458051 -0.3065808 0.5652101 0.05063378 0.30371627 0.1231999 -0.5864784 0.31466827 0.43856826 0.036065396 0.421812 0.48082796 -0.6444412 0.012230071
completo -0.16688733 0.34592527 -0.17357871 0.16100653 0.20419975 0.19651176 0.011039659 -0.04752504 -0.27530554 0.010431651 -0.09020609 0.5167719 -0.24811888 -0.20255616 0.10921837 -0.23265453 -0.04698111 -0.32267514 0.579759 0.073209636 0.3167461 0.11390016 -0.55415887 0.35512093 0.45104995 0.0553921 0.41541198 0.4502428 -0.6078379 0.0027197653
comunicar -0.17795841 0.33154127 -0.1669631 0.16281752 0.22030737 0.21348818 -0.02736021 -0.031891853 -0.26847547 0.0033673102 -0.07188221 0.51858324 -0.25500068 -0.19329166 0.105948135 -0.21451506 -0.040911593 -0.32834303 0.5458387 0.060056496 0.28500143 0.11955933 -0.55472565 0.323648 0.44515505 0.034644436 0.4288712 0.4742498 -0.64495796 0.029596407
final -0.18746054 0.3441253 -0.17636517 0.13584736 0.21384868 0.21789871 0.0023231409 -0.039490785 -0.295309 -0.0064549516 -0.12057816 0.53587747 -0.27012816 -0.21324462 0.11125696 -0.25126272 -0.06453385 -0.32082492 0.5605891 0.08415104 0.2906947 0.09508576 -0.5461479 0.35393837 0.43694285 0.05266765 0.44776833 0.44626173 -0.644081 -0.004504094
realizar -0.18961966 0.33142164 -0.16121392 0.15385124 0.20565124 0.20538904 -0.005707474 -0.023283225 -0.2983391 -0.017396567 -0.1044397 0.5066304 -0.24869168 -0.20066033 0.101769224 -0.2453016 -0.046635278 -0.2879189 0.5578547 0.08013319 0.2748614 0.08857674 -0.5672444 0.34670582 0.42857128 0.027259849 0.4428404 0.4598523 -0.63290703 0.01837604
revisar -0.1642859 0.3413341 -0.18964407 0.15103063 0.1935738 0.20760821 -0.012089937 -0.042633712 -0.2597209 -0.0043276614 -0.12297305 0.5329459 -0.25496483 -0.17517711 0.0998489 -0.25562036 -0.07233505 -0.3401299 0.5839911 0.06702593 0.30487776 0.10415998 -0.56849575 0.3374037 0.44199303 0.013615161 0.42550305 0.46229166 -0.6481482 -9.81358e-05
colaborar -0.18174458 0.32629177 -0.17612772 0.16382807 0.19627808 0.20131421 -0.016612098 -0.02886098 -0.2774102 0.013573149 -0.10878531 0.51492184 -0.2406805 -0.1823962 0.112788565 -0.2365405 -0.043936323 -0.31571707 0.5734818 0.044529006 0.30862394 0.10735246 -0.5374701 0.34957048 0.45616162 0.02424023 0.39727163 0.44691882 -0.63522077 0.02062989
entro -0.15882292 0.35784954 -0.21160829 0.14146107 0.18317223 0.20648329 -0.006239503 -0.03173774 -0.27462763 -0.0043034097 -0.08622936 0.49583653 -0.28142002 -0.21552 0.08339063 -0.23060533 -0.071382254 -0.34465355 0.57178396 0.070821725 0.300042 0.12208362 -0.5681761 0.3422056 0.45598838 0.059958607 0.42779642 0.46725595 -0.65980744 0.028261092
partes -0.16144586 0.35439014 -0.17788568 0.17505798 0.20768642 0.19676793 -0.0066692103 -0.037715584 -0.3025929 -0.02227138 -0.08660264 0.53233033 -0.28337717 -0.19052093 0.07847842 -0.23929085 -0.060859144 -0.35075712 0.57662743 0.07977175 0.30930072 0.11891924 -0.59090424 0.33698532 0.45135403 0.038590174 0.42880717 0.46604046 -0.6499103 -0.0016828366
credito -0.16676387 0.35247546 -0.18543987 0.14960365 0.18647674 0.21690495 0.003378141 -0.032049354 -0.29192778 0.0035841686 -0.12508395 0.5218093 -0.285037 -0.21206823 0.10205506 -0.24558216 -0.046265256 -0.3278016 0.58816195 0.05928313 0.31110817 0.097583905 -0.5495203 0.34213877 0.4337098 0.030859917 0.43620378 0.4474842 -0.66500974 0.010102508
formacion -0.17209095 0.34595263 -0.19554691 0.16098356 0.228383 0.22115135 0.010460733 -0.032098833 -0.30728662 -0.011795528 -0.090539426 0.5190604 -0.27167538 -0.21077734 0.10948767 -0.26798248 -0.048946828 -0.33293954 0.5808492 0.077107966 0.2939203 0.116195515 -0.5614978 0.34693933 0.46728858 0.03278859 0.41678372 0.45743603 -0.63361084 0.030566948
categoria -0.1604156 0.3758924 -0.15548508 0.18687151 0.21057086 0.22801453 -0.01350128 -0.039462205 -0.25685045 0.0022475577 -0.110329784 0.50032127 -0.27646267 -0.1820811 0.0753881 -0.23416346 -0.05522733 -0.29688478 0.56373185 0.05368638 0.2960924 0.12637584 -0.5461569 0.3692358 0.42676172 0.040367763 0.42744035 0.4726257 -0.6364822 0.012752458
entra -0.17659426 0.33468837 -0.19900675 0.14440931 0.20544732 0.22690672 -0.022424605 -0.059113484 -0.3022715 0.023611983 -0.12652567 0.52072656 -0.24577464 -0.19415508 0.0891457 -0.25607887 -0.06930554 -0.31624752 0.5979387 0.057823513 0.30408326 0.09569601 -0.5500173 0.34243512 0.47161657 0.04773277 0.44351938 0.471239 -0.6522387 0.035513956
termino -0.18994798 0.3437896 -0.19503403 0.16263011 0.21942042 0.20779052 -0.011263574 -0.04340214 -0.29080287 0.016059672 -0.109337755 0.5116286 -0.25089905 -0.21319051 0.10792201 -0.24004921 -0.046018958 -0.32485962 0.57873464 0.077086136 0.32210222 0.115969576 -0.56602275 0.34454504 0.4522335 0.045245104 0.41812956 0.45467517 -0.6391196 0.02328054
unica -0.17069586 0.332044 -0.17423262 0.15267085 0.18743345 0.19215725 -0.029360102 -0.055826515 -0.2808096 0.015545753 -0.10556736 0.51795495 -0.26621285 -0.20161927 0.09942829 -0.2290556 -0.067783326 -0.31916624 0.55941826 0.07000028 0.31176472 0.119048715 -0.5596907 0.36350086 0.4455802 0.029786453 0.42218515 0.44648406 -0.6507282 0.012367853
carga -0.17981257 0.3718082 -0.17513414 0.14156233 0.22391158 0.20333217 0.0070012407 -0.031386342 -0.28541383 0.002008721 -0.103473924 0.5176728 -0.2607789 -0.2048688 0.12091589 -0.26655322 -0.04383067 -0.34358448 0.5570162 0.051161174 0.31226835 0.09269509 -0.5516631 0.32704666 0.4530307 0.047410294 0.4214941 0.43383446 -0.635923 0.004191968
codigo -0.19477722 0.3435554 -0.18074675 0.15353157 0.20127413 0.22664173 -0.023062985 -0.037082963 -0.27017173 0.022539305 -0.10761064 0.5227245 -0.24645485 -0.18490295 0.10634455 -0.2333543 -0.06071814 -0.33817065 0.5522149 0.061750498 0.30159613 0.08538775 -0.5656364 0.34498984 0.4406738 0.044545576 0.42272535 0.46149033 -0.651158 0.028333759
financieros -0.16725655 0.35538432 -0.1716771 0.17060463 0.20410372 0.21028376 -0.022364916 -0.046734292 -0.30053788 -0.007354219 -0.12819102 0.49473658 -0.2389321 -0.1830976 0.11397469 -0.2742605 -0.052042384 -0.31326184 0.55468464 0.059136182 0.27900058 0.09750889 -0.5643505 0.35697886 0.45933577 0.076743886 0.40186614 0.4491481 -0.64103836 0.011919704
posible -0.19264099 0.3213769 -0.16755019 0.1333795 0.22087093 0.21124518 -0.02026254 -0.04124259 -0.26396075 0.0125641115 -0.09663949 0.50962615 -0.2584804 -0.17915699 0.084679656 -0.21796857 -0.071380846 -0.31758723 0.5658358 0.07437227 0.29875535 0.09925808 -0.5710847 0.35984504 0.44629145 0.03774432 0.40993306 0.43446416 -0.6400073 0.0035668325
recibir -0.18591286 0.36607847 -0.18604033 0.1592885 0.21745789 0.2057057 -0.00050578977 -0.03858526 -0.29888797 -0.018050538 -0.1066231 0.5303826 -0.25989628 -0.19524087 0.11584264 -0.2281332 -0.038692504 -0.30363548 0.5695527 0.055479024 0.3202921 0.09029721 -0.57168204 0.3466956 0.4338692 0.015803026 0.41122305 0.4550892 -0.6469861 -0.0019707086
ultima -0.18992655 0.33191183 -0.17807925 0.14618243 0.20086254 0.21221343 0.009108873 -0.06628626 -0.2678419 0.00859471 -0.09212315 0.5195926 -0.24869911 -0.17476723 0.11939558 -0.2310031 -0.052604124 -0.30971298 0.54683983 0.06854291 0.30884662 0.12351971 -0.57507396 0.33455122 0.41754737 0.022803653 0.43565887 0.45144528 -0.6324183 -0.00063436985
contratos -0.18658675 0.33090967 -0.19135405 0.18224634 0.18546762 0.19921696 -0.026459666 -0.053806473 -0.2992182 -0.024302568 -0.11821786 0.5225313 -0.27562463 -0.17366695 0.08457722 -0.2592628 -0.084900394 -0.3052237 0.54292786 0.06962335 0.3041561 0.074048154 -0.5530027 0.35547718 0.4512077 0.02325346 0.41797954 0.43522763 -0.6051929 0.015011253
contractual -0.19283205 0.33540314 -0.20575227 0.17652184 0.21723169 0.20987704 -0.038936708 -0.044612404 -0.28807843 -0.026549743 -0.13978054 0.5331477 -0.25010338 -0.17838955 0.059388205 -0.27068722 -0.041493263 -0.33148137 0.569349 0.042925414 0.29626927 0.11360641 -0.5607587 0.3190379 0.42204568 0.06554673 0.4134755 0.45804435 -0.66028214 0.024476398
precio -0.19693258 0.37099627 -0.18613942 0.16880153 0.18824121 0.21119826 -0.0037432313 -0.063683175 -0.28910428 0.01716582 -0.09972982 0.5191116 -0.25473017 -0.19583288 0.092116624 -0.23992774 -0.040887535 -0.32859886 0.58110017 0.051142745 0.31661928 0.10430671 -0.56717116 0.35316792 0.4125405 0.01780486 0.4151646 0.44444737 -0.62206465 0.035070207
relacion -0.18028995 0.35498852 -0.18008874 0.17287153 0.18721317 0.2223973 0.002544684 -0.03948574 -0.26778868 0.013354668 -0.08767253 0.53669167 -0.25809112 -0.1796644 0.07443479 -0.2480431 -0.040687814 -0.3158902 0.5668579 0.06591702 0.30997616 0.09497266 -0.562548 0.35552636 0.4625608 0.037512723 0.40360457 0.47238085 -0.64588505 0.031570256
fecha -0.168928 0.34143886 -0.1690346 0.17470534 0.22436859 0.21221006 -0.02657306 -0.039302535 -0.31739187 0.0021122086 -0.1269325 0.51501876 -0.28431875 -0.21388492 0.08887721 -0.26815033 -0.05542212 -0.3170948 0.5865817 0.05510999 0.29940543 0.11716068 -0.6007596 0.34841394 0.4408743 0.04747802 0.41706222 0.43807304 -0.6560516 0.009193523
especial -0.18480861 0.33833042 -0.20655493 0.1549422 0.22151916 0.19926599 -0.005563457 -0.04475796 -0.30514264 0.00816088 -0.11246318 0.5230492 -0.2471404 -0.22568534 0.10632312 -0.23545606 -0.08266465 -0.32152426 0.6057341 0.055105466 0.30584344 0.11889918 -0.5727804 0.35861936 0.45417157 0.043277413 0.44550586 0.45484135 -0.64278615 0.015981963
minutos -0.19625622 0.3409332 -0.16691461 0.16606191 0.20268223 0.21905236 -0.018409519 -0.04970694 -0.26248926 -0.0067635486 -0.12114607 0.524722 -0.26286206 -0.17569835 0.087691106 -0.26737636 -0.07688974 -0.32549968 0.5835993 0.06622755 0.2890443 0.107174784 -0.5506729 0.36142594 0.45539132 0.029293237 0.4306335 0.47478962 -0.6284838 0.019130474
senal -0.18626666 0.32875583 -0.17190604 0.1398161 0.20530286 0.19858363 -0.0011288854 -0.03879235 -0.29441786 0.025094055 -0.09349293 0.5136241 -0.27048716 -0.20748739 0.106467225 -0.234436 -0.075564004 -0.32537195 0.5589835 0.08509226 0.2965774 0.11775632 -0.56027013 0.3293037 0.44667798 0.02958398 0.4171498 0.472018 -0.6127786 0.013097082
portafolio -0.19611242 0.37111145 -0.16086236 0.15127432 0.21221279 0.21112517 -0.014859173 -0.045095045 -0.28358883 0.013617073 -0.10844404 0.5328431 -0.26515034 -0.17424268 0.10914701 -0.23295219 -0.05278561 -0.32136515 0.5653299 0.06452337 0.31230712 0.13007866 -0.5475707 0.32627577 0.44780746 0.01785712 0.4188908 0.46579432 -0.6341901 0.011601474
efecto -0.17400458 0.354197 -0.15756795 0.15024467 0.19994627 0.21937466 -0.0049609225 -0.034740496 -0.27373585 0.016857313 -0.1014694 0.5085049 -0.26442298 -0.19712327 0.10788043 -0.23678505 -0.04009431 -0.33471408 0.5693659 0.044873077 0.3066283 0.096203275 -0.56071734 0.33297583 0.4514 0.043237146 0.40123534 0.46897283 -0.6462425 -0.011180184
deben -0.16931835 0.33950076 -0.18493062 0.16612913 0.22571152 0.21171667 -0.0088007515 -0.06378876 -0.2860137 -0.006367315 -0.11883164 0.51983595 -0.25882044 -0.19511265 0.081906 -0.23887792 -0.05895527 -0.3220063 0.57974106 0.065405086 0.3100544 0.09376448 -0.56741995 0.35448262 0.42496628 0.014706728 0.39642313 0.45857272 -0.61433154 0.038872734
confirmo -0.21643014 0.3619226 -0.19102286 0.15992987 0.21169938 0.19513355 -0.019118343 -0.054063093 -0.2664644 -0.0078538135 -0.08545757 0.50980246 -0.28714386 -0.18059117 0.08722806 -0.22461653 -0.03542099 -0.34188527 0.5897398 0.045322448 0.3006956 0.1241078 -0.5539047 0.3406299 0.4443919 0.02558466 0.3978327 0.47847328 -0.64281625 0.010930365
solicitarrndo -0.17380151 0.3715484 -0.17746037 0.15818542 0.19560005 0.18139435 0.007968574 -0.033172764 -0.29310137 -0.015006199 -0.10854641 0.5450412 -0.26109338 -0.17852883 0.099271104 -0.25705948 -0.076852866 -0.30302253 0.5497238 0.09039727 0.2961841 0.098403506 -0.57409644 0.35792813 0.42807928 0.035407275 0.44822472 0.46809688 -0.6524427 0.01868524
revisado -0.18740359 0.3349468 -0.18401285 0.13013557 0.20423487 0.19101375 -0.018513745 -0.03204847 -0.31222865 -0.00011329229 -0.1196915 0.5437487 -0.2507585 -0.21298334 0.10243875 -0.23923379 -0.077458784 -0.3181165 0.5500685 0.078041546 0.27855283 0.10007967 -0.5845152 0.33439687 0.45600456 0.021195533 0.4304405 0.44858554 -0.6575168 0.016876968
oficina -0.19537835 0.33511296 -0.18152066 0.16843298 0.22853959 0.17504399 -0.026316514 -0.054080218 -0.27020454 0.00082879537 -0.10580206 0.5282989 -0.27938542 -0.1837097 0.108681515 -0.24321191 -0.059360165 -0.34066525 0.55739707 0.0886488 0.30927068 0.12885298 -0.5547024 0.33718622 0.4649296 0.01993684 0.42149773 0.44207752 -0.6336902 0.028604845
escribir -0.19630726 0.32950896 -0.17220011 0.15015996 0.20058282 0.21861151 0.0082802065 -0.058421697 -0.2942164 0.007476371 -0.09887744 0.5209996 -0.2566803 -0.21162203 0.12311165 -0.25971898 -0.059581835 -0.3040023 0.5762933 0.08347532 0.27486965 0.099080175 -0.5816968 0.35599995 0.46048763 0.055804294 0.43721953 0.45201585 -0.67182374 -0.008693462
formulario -0.20439813 0.3778173 -0.19201611 0.16005878 0.18654768 0.20247754 -0.004761943 -0.014923567 -0.2591899 0.022808988 -0.12455613 0.54892373 -0.28418896 -0.16242087 0.10394109 -0.24410217 -0.09122024 -0.343603 0.5600611 0.0671416 0.29990616 0.086748146 -0.56485957 0.35285687 0.442003 0.037806228 0.44004625 0.44184408 -0.649181 -0.00936857
listos -0.18238893 0.3409526 -0.20842649 0.15594743 0.23292716 0.22453584 -0.0070206225 -0.067586705 -0.30992007 0.020227633 -0.08814786 0.5178688 -0.2779054 -0.1818592 0.10500893 -0.23783879 -0.047065232 -0.30859345 0.55852556 0.0656485 0.2859456 0.085946284 -0.58926123 0.3658378 0.46230718 0.023326566 0.4298547 0.4559556 -0.6424122 0.0018424155
inicio -0.15547727 0.3488467 -0.20011716 0.14117788 0.21688586 0.21329024 -0.014424234 -0.036296286 -0.27294573 -0.0028928448 -0.119292185 0.49402028 -0.2733156 -0.17908694 0.118455224 -0.2282693 -0.059553746 -0.33107907 0.5704642 0.07377151 0.3133607 0.0803423 -0.56562555 0.35213625 0.4301078 0.052757066 0.40314052 0.451477 -0.60465634 0.0022931618
contar -0.18952152 0.3283275 -0.17513521 0.16301456 0.21406135 0.21033002 -0.015686454 -0.05873286 -0.265891 -0.0033057726 -0.07521682 0.51239014 -0.27789876 -0.19877107 0.089933984 -0.22529325 -0.048013724 -0.33404127 0.5477058 0.07469569 0.28757787 0.10342302 -0.5535057 0.35361034 0.4508337 0.04128212 0.40535423 0.43510127 -0.61995184 -0.0052154073
necesitamos -0.16910955 0.37585983 -0.20618528 0.17028919 0.21104181 0.2221042 -0.023223698 -0.041517816 -0.28301767 -0.016303798 -0.111567564 0.5043355 -0.2602773 -0.20707849 0.09946504 -0.2515121 -0.060055748 -0.3459239 0.58371603 0.08936883 0.3078341 0.09299736 -0.5541207 0.3474689 0.4473761 0.029659498 0.4044715 0.4632242 -0.63145995 0.024494916
carpeta -0.1532829 0.3652524 -0.18627925 0.16954903 0.21038252 0.2197953 -0.01801226 -0.043247543 -0.30023494 0.01116812 -0.114725515 0.53154784 -0.26614523 -0.19717394 0.07869858 -0.26493996 -0.043446206 -0.32300216 0.5733549 0.05004093 0.29752415 0.07832398 -0.5867927 0.3262468 0.43145618 0.061595686 0.41093367 0.46784896 -0.6344588 0.03305628
comunicarme -0.1812544 0.35072172 -0.18929477 0.15486303 0.20144466 0.22459285 -0.025615362 -0.02900557 -0.29843163 0.010169927 -0.09709824 0.5335639 -0.2661979 -0.19215192 0.08125321 -0.23294196 -0.033643603 -0.29777718 0.55076957 0.06713739 0.29934317 0.08903878 -0.5839147 0.335781 0.42772308 0.018315902 0.42956737 0.44203976 -0.6289184 0.038916722
enviado -0.1791225 0.3472688 -0.17615205 0.15210304 0.23377547 0.20940767 0.010539356 -0.06818726 -0.29520866 -0.0034478987 -0.09760033 0.5370037 -0.2716829 -0.199778 0.114671655 -0.25029275 -0.058409832 -0.31140944 0.5545091 0.0846926 0.2791134 0.069048665 -0.567312 0.32290715 0.44229847 0.01738461 0.44679302 0.45543444 -0.6424452 0.002119608
central -0.16645853 0.33030486 -0.20422465 0.15187013 0.22299592 0.18279429 -0.0007318062 -0.04806723 -0.26367816 0.010112653 -0.10558966 0.49970394 -0.24381101 -0.20952193 0.1058552 -0.24835545 -0.07033341 -0.34229863 0.58114886 0.063076586 0.32153928 0.122659124 -0.5620514 0.34975153 0.45286003 0.020544263 0.40621915 0.44523597 -0.65020293 0.032872308
alta -0.17910375 0.36444756 -0.18071151 0.17381215 0.18815693 0.23662992 -0.007259265 -0.04515394 -0.29236606 0.026250852 -0.110423416 0.5224438 -0.28606337 -0.17526841 0.109018855 -0.24105452 -0.04030829 -0.30276343 0.5623012 0.06999771 0.32137033 0.10091943 -0.5673822 0.33555642 0.4380372 0.035872806 0.4108037 0.46071628 -0.6395381 0.022009859
bienes -0.15804957 0.34454867 -0.1915951 0.14646102 0.21180546 0.19180681 -0.022737902 -0.06810181 -0.27424607 0.0005041312 -0.08321135 0.4884871 -0.27557755 -0.19150929 0.100162715 -0.25425607 -0.06142345 -0.3253939 0.5547815 0.05129435 0.2852536 0.10733769 -0.56326383 0.35509446 0.4409695 0.01783676 0.3899104 0.46838117 -0.63991296 -0.0047389967
correr -0.17885113 0.36877295 -0.19408804 0.154965 0.21136616 0.22142258 -0.017891245 -0.06365739 -0.28638744 -0.016600363 -0.10985038 0.49948955 -0.2707333 -0.21760882 0.10689944 -0.255395 -0.07802515 -0.32831532 0.5767607 0.08406872 0.30971447 0.112574056 -0.5797028 0.34372863 0.42992792 0.03307429 0.43286717 0.46579647 -0.63710284 0.015274845
importante -0.15917027 0.3635936 -0.20292595 0.1337951 0.220751 0.20249549 0.008670714 -0.066674665 -0.29760334 -0.008850475 -0.10522719 0.5342407 -0.2763091 -0.20063761 0.09588698 -0.23776636 -0.04937495 -0.31890446 0.56538 0.059329186 0.28944877 0.08174132 -0.57288194 0.3266564 0.43880647 0.029732995 0.41434422 0.4510972 -0.620103 0.04113853
gerente -0.16126595 0.3294718 -0.18881159 0.14763229 0.19289702 0.20767193 -0.026189983 -0.06791125 -0.29647788 0.007383137 -0.11388503 0.49388438 -0.26825038 -0.17683458 0.10612702 -0.2192193 -0.040058207 -0.3342585 0.57520854 0.05893617 0.28320163 0.10500418 -0.5725534 0.35077527 0.41962984 0.027407162 0.42189184 0.46722403 -0.6320949 0.02449219
digame -0.15359774 0.33141255 -0.1969462 0.17569056 0.20748048 0.19886744 0.008491044 -0.035678867 -0.28870666 -0.0030789657 -0.08180801 0.50538516 -0.2658222 -0.19134018 0.10259611 -0.2301482 -0.06690006 -0.29682168 0.5526631 0.07745462 0.31514895 0.097300455 -0.55045193 0.33569035 0.44720626 0.028386962 0.40146112 0.42318925 -0.6345272 0.03279929
encuentro -0.1801635 0.33635876 -0.19236335 0.14021504 0.22339316 0.19276288 -0.00774289 -0.04364998 -0.28489992 0.0065040244 -0.09071825 0.50728995 -0.2717217 -0.19726133 0.08354011 -0.24672918 -0.064821005 -0.33966365 0.55168563 0.08228764 0.31960365 0.102303125 -0.56868255 0.34611046 0.4494119 0.044893328 0.40083086 0.4482877 -0.61973345 0.0023853881
compuesto -0.19561903 0.3457316 -0.19191025 0.15976013 0.1915153 0.21775706 0.009460235 -0.040317796 -0.29830638 0.021489393 -0.08159974 0.5176341 -0.2646548 -0.17774479 0.109113425 -0.24500445 -0.0626356 -0.31317028 0.5942638 0.04739614 0.29968134 0.09557966 -0.58257204 0.33420038 0.44158682 0.054596093 0.41851237 0.48026264 -0.67250365 0.020503912
temas -0.15807477 0.35011294 -0.16385096 0.17559981 0.20058766 0.20975552 -0.021864608 -0.063007936 -0.29726818 -0.01217662 -0.12034994 0.50832283 -0.26806784 -0.18585692 0.08805265 -0.2599591 -0.08073328 -0.3093639 0.55822456 0.059920266 0.31295204 0.11428929 -0.56610113 0.32822156 0.43282726 0.026142072 0.41618836 0.46067044 -0.63425577 0.029584676
ingeniero -0.15820965 0.3543524 -0.1821341 0.1708533 0.20478733 0.19183475 -0.026043145 -0.06834829 -0.28000253 0.0044832323 -0.099039316 0.51215506 -0.27081066 -0.21472602 0.117023446 -0.2610795 -0.08970982 -0.3237313 0.5571491 0.08778239 0.29470655 0.119781576 -0.57298225 0.3476602 0.43431672 0.009175795 0.39390215 0.4820933 -0.6412561 0.011940996
permiten -0.1868849 0.35018694 -0.19229823 0.14425114 0.22867057 0.22000946 -0.0009157526 -0.036605414 -0.28356227 0.023291761 -0.13743357 0.52182955 -0.25398368 -0.17918183 0.09114998 -0.22124521 -0.03936904 -0.31522837 0.56792706 0.049502384 0.32193208 0.100650355 -0.58013666 0.3667708 0.45618293 0.048196185 0.44055155 0.4422227 -0.62755215 0.0054703224
intel -0.16063593 0.3586748 -0.17306519 0.1519801 0.21105142 0.21456677 -0.016343351 -0.05728484 -0.27690023 0.015878947 -0.11341968 0.5038616 -0.27816308 -0.21131237 0.11704826 -0.24494064 -0.061923765 -0.3217905 0.58591205 0.07708423 0.30039787 0.12294733 -0.55795157 0.35959542 0.46507978 0.021221805 0.40605754 0.44635147 -0.65296507 0.0030177685
estudio -0.17231216 0.34403557 -0.16756564 0.14783633 0.19655214 0.22490205 -0.028317092 -0.04028683 -0.30698296 -0.021414498 -0.11638074 0.5297373 -0.27801576 -0.17153524 0.124212064 -0.23493506 -0.04321322 -0.29219544 0.57157785 0.07946279 0.31839356 0.08748946 -0.5473667 0.35269183 0.4223388 0.054124214 0.45295393 0.4562346 -0.6578658 0.01364371
obviamente -0.18457986 0.3659895 -0.18181342 0.15758264 0.21257278 0.20324193 -0.015269263 -0.050508793 -0.2739781 0.008852103 -0.09186114 0.52257663 -0.24845427 -0.20822494 0.09460856 -0.23376168 -0.07209594 -0.31631738 0.5713273 0.07005007 0.28299487 0.11015173 -0.541397 0.3644356 0.46087387 0.030970868 0.43556336 0.4461433 -0.6386686 0.017424911
inicial -0.15541802 0.3438394 -0.20396966 0.17550322 0.20953135 0.23541808 -0.0015431244 -0.036622707 -0.30100444 -0.014656904 -0.10738652 0.50727373 -0.26138714 -0.16866387 0.08169674 -0.24212417 -0.054969814 -0.32624835 0.57378435 0.066106535 0.30775958 0.11639205 -0.5534171 0.3291961 0.45373428 0.045887686 0.41200775 0.46982387 -0.6655723 0.010372837
inconveniente -0.1918127 0.34782693 -0.16468458 0.13114251 0.19560333 0.20720384 -0.0072898967 -0.05295857 -0.2873343 -0.020610334 -0.10710183 0.52122325 -0.2834883 -0.19466344 0.096003264 -0.24282609 -0.07251285 -0.3185728 0.5573925 0.061874516 0.31667906 0.10566016 -0.574402 0.3596085 0.43245077 0.010541441 0.41189817 0.45824492 -0.6579883 0.03339548
entidad -0.18062535 0.32665542 -0.16517493 0.14385065 0.19649087 0.21291302 -0.024469327 -0.026551211 -0.27325174 -0.010272211 -0.12133671 0.51205736 -0.2425253 -0.21563286 0.12291402 -0.22706038 -0.060906153 -0.29595113 0.5528807 0.08506557 0.28120852 0.07610868 -0.54073495 0.3400088 0.44911492 0.042314205 0.43633908 0.452966 -0.63511395 0.013435616
presentar -0.17323907 0.33690876 -0.16764599 0.17815877 0.20719521 0.19648768 -0.02080618 -0.045040052 -0.29324335 -0.017048785 -0.122508205 0.5054249 -0.27322555 -0.16785109 0.08816571 -0.2666306 -0.05394184 -0.30529755 0.5821053 0.07396509 0.30453077 0.12026726 -0.58755445 0.36115825 0.41974422 0.010867334 0.41221166 0.47330782 -0.6228939 0.03925922
problemas -0.18560487 0.36873007 -0.18367872 0.16170901 0.22683437 0.21960188 -0.0069331615 -0.05888637 -0.2660952 0.006657994 -0.1274874 0.5096653 -0.25774637 -0.17740978 0.101158984 -0.2607853 -0.06137782 -0.3030681 0.5719109 0.051272273 0.3060814 0.11706149 -0.5673143 0.3438913 0.42130962 0.022285767 0.41677922 0.44672534 -0.62932235 0.023574503
tarjeta -0.17218862 0.37198848 -0.17094591 0.15173028 0.18628696 0.21859299 -0.008274927 -0.056066453 -0.2633967 0.013131674 -0.09778773 0.516813 -0.2530325 -0.17666592 0.08633574 -0.22152781 -0.07557656 -0.3339989 0.5531118 0.08019939 0.31978104 0.11305312 -0.55408967 0.33834305 0.45619732 0.045587372 0.43180993 0.45418677 -0.6418309 0.024714101
perfecta -0.18597704 0.36423022 -0.19419585 0.15123782 0.20319845 0.20814048 -0.02371379 -0.046506647 -0.2673601 0.007787741 -0.09167105 0.49105284 -0.26682067 -0.19972612 0.11502072 -0.22444952 -0.054431826 -0.3394766 0.5592374 0.08185931 0.29553932 0.1111846 -0.54317844 0.32688257 0.4415127 0.04863841 0.41854596 0.4657002 -0.6469125 0.018146496
paginas -0.18704434 0.35458753 -0.18639337 0.15274288 0.18292385 0.18504785 0.015327802 -0.037115287 -0.2665552 0.010181621 -0.110187374 0.49258894 -0.2765745 -0.18675818 0.086116634 -0.24044229 -0.061988942 -0.32986373 0.56436527 0.07617955 0.2881287 0.11719778 -0.56189734 0.3272957 0.4215354 0.016036524 0.41435337 0.447498 -0.64268297 0.033635147
respuestas -0.19092543 0.34927782 -0.18830986 0.1508075 0.19330207 0.20076214 -0.025472187 -0.037662584 -0.27614182 -0.0151243005 -0.11979082 0.5081907 -0.26349926 -0.17568511 0.08435956 -0.22623803 -0.04111626 -0.33058774 0.5598608 0.06158615 0.30132684 0.10574016 -0.55040616 0.3344152 0.44497886 0.015161535 0.42821008 0.43852943 -0.63010097 0.020836823
registrar -0.1796877 0.32914892 -0.17023176 0.14008977 0.19262287 0.19574372 -0.026024729 -0.04061747 -0.2778173 0.013786925 -0.11376948 0.47802466 -0.2647388 -0.18936656 0.090944014 -0.23349684 -0.07930327 -0.32456413 0.5425171 0.06723276 0.29785445 0.1184827 -0.5323995 0.35912278 0.4461922 0.054033935 0.42937008 0.438163 -0.62475073 0.03710464
esperando -0.19345668 0.3374956 -0.1757187 0.15359065 0.19447027 0.19377847 -0.014750286 -0.031746596 -0.2647056 -0.011274271 -0.10490929 0.5276744 -0.27658436 -0.18201865 0.10624185 -0.23428248 -0.04732711 -0.33590567 0.575819 0.053582434 0.3252655 0.08687607 -0.5769057 0.34501064 0.45928702 0.018127989 0.434746 0.44805318 -0.62248427 -0.0035373364
intente -0.198599 0.36658087 -0.17776862 0.17274858 0.21148254 0.23130874 -0.009640256 -0.06722765 -0.26341343 0.007950522 -0.107000574 0.5133942 -0.25433284 -0.18879518 0.11578325 -0.25908187 -0.0585394 -0.32302192 0.5772668 0.072351635 0.30233297 0.09926259 -0.5410889 0.35952285 0.45072415 0.03874263 0.4333465 0.44864577 -0.64587355 6.4797976e-05
solicito -0.1835751 0.3587742 -0.20354286 0.16665049 0.23786455 0.20756657 0.0033879026 -0.05573251 -0.28370848 0.0070018275 -0.1150515 0.52916306 -0.27164546 -0.18565065 0.0844073 -0.23362212 -0.032710366 -0.34278467 0.57963425 0.05191509 0.3046587 0.10223177 -0.57756853 0.3230876 0.45403853 0.04354846 0.43610266 0.4475346 -0.61181676 -0.007742452
estacion -0.18152161 0.35423627 -0.18501551 0.1502513 0.21825378 0.19747894 0.012883869 -0.06355733 -0.2944975 0.01749577 -0.106942594 0.50690424 -0.28478864 -0.21202904 0.10708902 -0.25898078 -0.050849278 -0.31116506 0.5632965 0.06991853 0.2910899 0.09975016 -0.5777739 0.3524446 0.44939077 0.022788083 0.4361674 0.47748995 -0.65069026 -0.0026957348
acceder -0.18678974 0.32895252 -0.1661617 0.15548159 0.20601526 0.21407984 0.012850989 -0.040277492 -0.25776705 0.008384636 -0.11446709 0.51101387 -0.2791876 -0.18759142 0.11977957 -0.22647332 -0.06634576 -0.30287355 0.55456513 0.06243412 0.3066877 0.08452772 -0.5614114 0.3188606 0.44640005 0.024152061 0.42345175 0.43439844 -0.64185745 -0.012710459
cambiar -0.17260711 0.35332626 -0.19222759 0.14557822 0.2091105 0.19868171 -0.027148511 -0.06631531 -0.27318174 -0.008577567 -0.108221345 0.4981415 -0.27074575 -0.19842355 0.082162105 -0.25240943 -0.0827367 -0.33562306 0.5863168 0.04749732 0.30952555 0.120114304 -0.57939655 0.3443458 0.43222794 0.045687236 0.4108042 0.4698328 -0.63763154 0.011637465
numeros -0.19677323 0.35696056 -0.16988957 0.14803407 0.22423159 0.21979487 0.006575542 -0.06925849 -0.2991441 -0.00445873 -0.12129545 0.5250018 -0.25429034 -0.2097446 0.10951785 -0.25844052 -0.06703047 -0.32890975 0.5761812 0.052054465 0.29679543 0.10052433 -0.5407698 0.33331773 0.46263853 0.022950161 0.4209368 0.44318926 -0.6230546 0.0040030405
mandaron -0.18528861 0.33869973 -0.18320443 0.17686218 0.19544663 0.2005224 -0.01319742 -0.031291902 -0.29717183 0.012238104 -0.09784677 0.5282372 -0.26372394 -0.19525434 0.120610565 -0.22810215 -0.053700197 -0.3134087 0.5490494 0.046377372 0.32863104 0.116352625 -0.56790954 0.3436677 0.46055952 0.046631217 0.40125546 0.45376012 -0.65244913 0.005441243
categorias -0.1759235 0.36446393 -0.19252197 0.16219504 0.22330439 0.20143257 -0.0061949734 -0.07673991 -0.273512 -0.0023235655 -0.10854249 0.51419824 -0.27927938 -0.21865812 0.11242351 -0.28865063 -0.053202923 -0.3274169 0.5702171 0.08446926 0.31858873 0.09170425 -0.5929693 0.37920746 0.4394376 0.05799585 0.42722842 0.48792562 -0.651574 0.023466788
procedimiento -0.18693948 0.34680113 -0.18467052 0.16530971 0.21264198 0.20113403 -0.013531743 -0.030839896 -0.2807765 0.0019076798 -0.109788515 0.47991014 -0.2556792 -0.20003307 0.09269355 -0.24460465 -0.037332773 -0.3157692 0.55965924 0.08184078 0.28346622 0.098251626 -0.53893167 0.3420147 0.4428075 0.055059172 0.42014477 0.44181114 -0.63326406 0.019437356
intencion -0.16939835 0.34039932 -0.17689879 0.16843626 0.19737965 0.20341897 -0.0059539853 -0.052899715 -0.2918061 -0.0131073855 -0.08023666 0.51710224 -0.24913973 -0.19456375 0.097003974 -0.25673193 -0.071126 -0.339179 0.5504872 0.07315069 0.29315183 0.10618055 -0.5518094 0.33776793 0.4574917 0.04575906 0.42305586 0.4634235 -0.62117213 0.005944978
tramite -0.17485026 0.37191984 -0.20182773 0.15248491 0.20125967 0.20188643 -0.008855559 -0.06091661 -0.28876522 -0.022154858 -0.119778425 0.50150764 -0.24805182 -0.20108725 0.09191959 -0.23922887 -0.061420925 -0.3088606 0.56127495 0.045410704 0.3165626 0.110623255 -0.5438807 0.350065 0.4561259 0.02265367 0.4165148 0.46344888 -0.624009 0.026999531
revista -0.1979531 0.36861414 -0.1662829 0.16214564 0.22256556 0.23001482 -0.014457023 -0.06316841 -0.2759668 0.016845956 -0.086184 0.5308368 -0.25412932 -0.17799498 0.12115498 -0.2225743 -0.058092237 -0.33550867 0.5810965 0.08140567 0.2975789 0.10597569 -0.5460156 0.32773674 0.45116356 0.029423112 0.40816548 0.4670951 -0.65691924 1.2250719e-05
termina -0.16652183 0.33589184 -0.17399287 0.14204045 0.20439544 0.22626096 -0.0190481 -0.069507845 -0.29360625 0.012379858 -0.122278646 0.52483064 -0.2704558 -0.18415135 0.11033596 -0.23990382 -0.07529591 -0.31745812 0.5832959 0.06850696 0.28988403 0.09558208 -0.5723512 0.34495294 0.4455969 0.052710105 0.44208348 0.45185366 -0.64582247 0.030258775
acabo -0.16998215 0.35110137 -0.17715396 0.13683517 0.22601677 0.22357053 -0.023347573 -0.04183956 -0.28116792 -0.022258542 -0.09699285 0.5376136 -0.27528542 -0.19949286 0.12114762 -0.25956255 -0.07455771 -0.32432714 0.5709127 0.06471184 0.28855 0.0844635 -0.55615497 0.32939622 0.45191717 0.022797992 0.41355658 0.4326298 -0.64967096 0.022764117
confirmacion -0.19809724 0.33716533 -0.18851928 0.15662283 0.21304849 0.20783107 -0.005978305 -0.071207985 -0.26794675 -0.009217737 -0.08834632 0.52112085 -0.25562605 -0.178129 0.09897944 -0.23462863 -0.07558711 -0.33166665 0.5898941 0.07434001 0.28376853 0.0859859 -0.5670468 0.34405735 0.4549362 0.035176825 0.41440368 0.4597875 -0.6143481 -0.0027332231
subir -0.1639761 0.32856777 -0.1864928 0.1506473 0.19016322 0.20061044 0.015010137 -0.0420034 -0.27966532 0.022616807 -0.11453959 0.50500655 -0.2611358 -0.20230584 0.096365474 -0.24963306 -0.06602215 -0.2958508 0.5528589 0.08317666 0.28730083 0.08889071 -0.5238097 0.32639304 0.42882457 0.04732383 0.4307867 0.4340418 -0.6332646 0.015220375
claves -0.1843493 0.33691582 -0.17588972 0.15517351 0.19873375 0.19738364 -0.01982142 -0.06110478 -0.27665696 -0.021523288 -0.10582908 0.5213263 -0.26433027 -0.20649241 0.12803754 -0.22959955 -0.057098325 -0.31121033 0.60312927 0.071709536 0.32750025 0.094938375 -0.55249697 0.37048194 0.44482833 0.016667845 0.40310815 0.4343528 -0.6407857 0.023060292
administrador -0.18556775 0.3501661 -0.18625142 0.1763907 0.2189821 0.18666 -0.0016674867 -0.047265146 -0.29012144 -0.003229158 -0.096980564 0.5385635 -0.2830394 -0.19261639 0.082193956 -0.22705343 -0.061028745 -0.28898945 0.5673988 0.05577816 0.2803076 0.12575592 -0.5618105 0.35588282 0.4294394 0.014837423 0.41051802 0.45105135 -0.6247838 0.0025024184
titulo -0.16514185 0.346537 -0.15892959 0.15045749 0.2128377 0.21861719 -0.010438405 -0.06627336 -0.29344603 0.010792661 -0.09670785 0.50804293 -0.26866624 -0.19859172 0.108334 -0.2519859 -0.071397655 -0.2978826 0.5568669 0.05596996 0.30152804 0.113060996 -0.5389235 0.3403694 0.42050418 0.02299434 0.4272227 0.44161436 -0.63261086 0.020610176
experiencias -0.17383058 0.35198784 -0.18103 0.1503956 0.19716018 0.20118265 0.0002876906 -0.0627091 -0.29901138 0.022903904 -0.120171905 0.51881784 -0.27626085 -0.19979544 0.09270537 -0.25587597 -0.08005811 -0.30739868 0.55925405 0.08254639 0.2987382 0.09524524 -0.5721618 0.3414486 0.43764862 0.03615973 0.40435156 0.4534459 -0.6514234 0.023093835
necesita -0.18637626 0.35313463 -0.17005381 0.13781612 0.18752992 0.20132056 -0.019706648 -0.046195734 -0.27512887 0.0059006945 -0.08806895 0.49552023 -0.25300407 -0.19968888 0.11568569 -0.23746343 -0.066042155 -0.31530264 0.54416364 0.06913176 0.28693905 0.111745134 -0.5703142 0.3417217 0.44011047 0.03774157 0.42660186 0.4246925 -0.6262687 0.004582193
seguir -0.19841282 0.3421713 -0.16103776 0.16933425 0.19498925 0.21473128 -0.026525043 -0.054435484 -0.28785026 -0.006647133 -0.07761609 0.49396932 -0.23457061 -0.18031347 0.10741343 -0.24453893 -0.049778994 -0.3283705 0.5328403 0.059836507 0.27688533 0.107269935 -0.555841 0.34425837 0.44013175 0.038014162 0.40160814 0.45553207 -0.6300721 0.017255649
pedir -0.18706998 0.364087 -0.20368308 0.13242431 0.21555692 0.22147739 -0.020800415 -0.04951568 -0.2901607 0.0066056596 -0.101482525 0.50827754 -0.2825739 -0.18212417 0.10699034 -0.24175718 -0.071912155 -0.32045254 0.5540013 0.06617702 0.3200489 0.12444087 -0.58639365 0.35831612 0.42821497 0.042644188 0.43479344 0.41927442 -0.6366052 0.02793958
requerimiento -0.18769902 0.3664948 -0.16961488 0.17368902 0.22758465 0.23959431 -0.02736872 -0.04883292 -0.28864214 -0.009883436 -0.12414941 0.5492295 -0.25238007 -0.1762539 0.11050153 -0.24269095 -0.046348058 -0.3152233 0.5490486 0.07380055 0.31668258 0.103890374 -0.55297416 0.33624113 0.4546672 0.003247422 0.4198287 0.4750156 -0.65876186 -0.0070097996
hablando -0.16031718 0.36672553 -0.19288138 0.15238196 0.2155165 0.18119276 0.0017851556 -0.08252172 -0.2568314 0.0028354668 -0.09259722 0.512343 -0.24927512 -0.19271326 0.10919652 -0.23890449 -0.056891847 -0.31819716 0.5624467 0.05749212 0.319611 0.099463634 -0.5794238 0.34162602 0.44104472 0.04727481 0.40968803 0.4599716 -0.64874774 0.0210881
activo -0.17057385 0.36116853 -0.2066427 0.18007009 0.18872146 0.20955476 -0.024911381 -0.032261033 -0.2816313 0.022769216 -0.13313459 0.510612 -0.2650896 -0.18647572 0.08803999 -0.25186765 -0.055214386 -0.31279108 0.57477576 0.048879378 0.29359567 0.10283673 -0.5832164 0.3520945 0.43565226 0.044998758 0.4457734 0.44537944 -0.66305035 0.033564273
volver -0.17776047 0.3662796 -0.17778741 0.1411415 0.21888888 0.22336248 0.0054086433 -0.037962522 -0.29339907 0.0254559 -0.09155613 0.51057124 -0.25426722 -0.19002639 0.092030056 -0.25321308 -0.043658264 -0.3348262 0.5462776 0.0824318 0.3261127 0.11704648 -0.5646564 0.33626583 0.44376075 0.027034067 0.4440097 0.44575986 -0.6400773 0.011930074
espacio -0.1934183 0.36482197 -0.20420733 0.15784335 0.17879632 0.20789577 -0.015031035 -0.034014054 -0.2718931 -0.008753712 -0.093683444 0.5086431 -0.25509048 -0.17496282 0.10146381 -0.23450324 -0.07342784 -0.2997699 0.5743778 0.049770225 0.32159328 0.116691805 -0.5544387 0.35690418 0.4336819 0.036346205 0.40837476 0.44340214 -0.6417514 0.008806398
equipos -0.16307129 0.3208063 -0.19675776 0.16689554 0.21540985 0.21526375 -0.0002542361 -0.030025927 -0.29422873 0.013295336 -0.1278985 0.49860644 -0.25266758 -0.18298024 0.114937305 -0.21541233 -0.054616857 -0.32352987 0.5816988 0.07677807 0.31335825 0.12471015 -0.55134094 0.36521375 0.459656 0.045779295 0.4301106 0.47514015 -0.6423025 0.024759315
facil -0.1635761 0.33257818 -0.19169693 0.15230227 0.20376486 0.19520013 -0.0059085162 -0.05038361 -0.2706545 0.011706687 -0.089047134 0.5048446 -0.2689951 -0.198006 0.08565898 -0.23124167 -0.07298542 -0.33452946 0.5732485 0.08071073 0.32489365 0.08716008 -0.5489914 0.3462653 0.44258133 0.043954678 0.43696043 0.46965328 -0.6300311 0.014262814
internamente -0.1761062 0.35860488 -0.19250767 0.1433419 0.21125127 0.23012362 -0.034557775 -0.06961564 -0.2949494 0.0004564428 -0.09487394 0.5363572 -0.29233205 -0.17812355 0.09928815 -0.25549257 -0.081576295 -0.3456064 0.572139 0.068988256 0.30310988 0.09446037 -0.5560647 0.35394272 0.45352355 0.006852746 0.43549454 0.45372114 -0.63132226 0.03706611
punk -0.1612028 0.33880883 -0.17749405 0.14029391 0.18681942 0.20470014 -0.0072039575 -0.042459063 -0.2914837 0.020547753 -0.108425245 0.5308447 -0.2854531 -0.17198858 0.12244436 -0.2541249 -0.053317875 -0.3093636 0.58429205 0.06337895 0.30316657 0.112236656 -0.5700675 0.32795095 0.43123972 0.033602238 0.4375869 0.44315404 -0.64841944 0.027800417
ciudad -0.17791781 0.37204626 -0.18146227 0.16806535 0.197305 0.20187399 0.00095520297 -0.047384538 -0.284484 -0.013858025 -0.10603493 0.5135013 -0.25217444 -0.19186184 0.08948406 -0.23820408 -0.0490335 -0.3260848 0.5681365 0.05362676 0.3258669 0.085139066 -0.5846531 0.35955584 0.43208417 0.02244573 0.4261862 0.46106467 -0.66123104 0.021512484
activos -0.19374721 0.3825616 -0.16991454 0.17290445 0.2331015 0.21503274 -0.013561169 -0.033225417 -0.2946056 -0.007661576 -0.110958256 0.5236889 -0.28649193 -0.21256275 0.09539952 -0.2309231 -0.049724795 -0.3169471 0.58137953 0.05896177 0.2975484 0.113245726 -0.5876947 0.33988762 0.45464706 0.04512847 0.43819997 0.457277 -0.6471667 0.011388195
dijiste -0.17481156 0.34534365 -0.17623703 0.14966615 0.19919527 0.1906442 -0.008804661 -0.04526352 -0.2589593 -0.0016728638 -0.12293201 0.49204162 -0.27011982 -0.18708318 0.11252466 -0.23751561 -0.068422474 -0.2973652 0.5610159 0.068992876 0.2750607 0.107322276 -0.5567156 0.35494798 0.4207919 0.043469686 0.41197887 0.43534872 -0.61906147 0.01904836
conoce -0.18673934 0.33091995 -0.18473268 0.14791995 0.19941682 0.20243508 -0.018829862 -0.03410364 -0.28219065 -0.011568305 -0.09672432 0.52112025 -0.2415757 -0.21403314 0.11284142 -0.24094903 -0.04522282 -0.33474982 0.5725558 0.046068687 0.31033418 0.093512446 -0.56479406 0.3494512 0.4381837 0.01976152 0.39780307 0.44098213 -0.6054767 0.0071067754
trata -0.19234583 0.3262552 -0.16612509 0.16563767 0.20707282 0.22791782 -0.020310313 -0.026620582 -0.2782348 0.016321968 -0.07423542 0.5004953 -0.28012174 -0.18706556 0.12682767 -0.24110161 -0.06769674 -0.31476068 0.5939184 0.0647413 0.31075233 0.08949292 -0.5797829 0.372884 0.4484141 0.031950817 0.41270489 0.4622977 -0.6626389 0.009927104
sucursal -0.1588148 0.355602 -0.18235834 0.1845201 0.22534916 0.1999722 -0.026432117 -0.043357264 -0.29067144 -0.025265414 -0.117188305 0.5381585 -0.288731 -0.18888868 0.09176316 -0.26394174 -0.07636134 -0.33807242 0.56434405 0.064529635 0.33748108 0.10940569 -0.5661406 0.35031375 0.45505828 0.038391255 0.41913393 0.4481813 -0.65460014 0.03293384
crimen -0.18992801 0.35170785 -0.1868946 0.14840162 0.19914736 0.18500705 0.009891579 -0.0406693 -0.28167063 -0.004265787 -0.11066018 0.5119885 -0.2584699 -0.18812975 0.105228305 -0.22218288 -0.045490738 -0.31402454 0.56430405 0.06438221 0.31233284 0.10784529 -0.53833413 0.34153378 0.42920864 0.021880347 0.4296461 0.42989403 -0.6338879 0.011938251
registra -0.18903565 0.34077287 -0.18316308 0.16097882 0.21490268 0.20366848 0.0064755324 -0.059364736 -0.28371125 -0.015255489 -0.09948971 0.49531454 -0.25631148 -0.1730363 0.09138768 -0.25279585 -0.050159916 -0.30951968 0.5476962 0.07425802 0.3148055 0.09947291 -0.562134 0.33307388 0.42395952 0.02849894 0.423192 0.4554314 -0.6308274 0.030037794
contratistas -0.1786951 0.3495236 -0.17841281 0.14841393 0.19078474 0.21775132 -0.00076817936 -0.04699434 -0.26927227 0.00570584 -0.082688354 0.5280584 -0.26298994 -0.21360531 0.12681767 -0.25000978 -0.04883422 -0.3277504 0.56595707 0.059541587 0.32983726 0.080576465 -0.57395136 0.3594317 0.45142743 0.028703665 0.39921075 0.4559153 -0.6320242 0.007484185
funcionario -0.19201735 0.35730213 -0.19163847 0.14947295 0.20473914 0.2345648 -0.020887878 -0.056282796 -0.30217436 -0.010179175 -0.11552928 0.50209826 -0.25497526 -0.19742198 0.1070195 -0.26487035 -0.053873904 -0.33800146 0.58261806 0.07215353 0.29002595 0.12278756 -0.55766916 0.34071198 0.4487089 0.02837469 0.4412623 0.46927044 -0.65812504 0.022238035
tercer -0.18373868 0.35041606 -0.18842778 0.17468747 0.20027007 0.19989413 -0.018356605 -0.047679678 -0.28385982 0.020936187 -0.10840673 0.49447826 -0.26965797 -0.19071046 0.08506923 -0.25696805 -0.07803536 -0.31518236 0.5829157 0.06606566 0.3264442 0.124485634 -0.56131935 0.35791686 0.46652016 0.03889325 0.43795687 0.45832023 -0.6529069 0.009467492
preguntas -0.19503583 0.36259088 -0.1966924 0.16691987 0.1998514 0.23659106 -0.028995095 -0.036712553 -0.27754432 -0.012945547 -0.08501288 0.5338674 -0.27342886 -0.2065947 0.10573833 -0.24991934 -0.06655353 -0.32595754 0.5928813 0.05811904 0.33010852 0.09451069 -0.5574556 0.3433606 0.46656317 0.013643086 0.44080386 0.477287 -0.6734482 -0.004122458
financiera -0.18694873 0.34780866 -0.1943484 0.1594858 0.19950736 0.21227795 -0.01656948 -0.026400382 -0.29053986 0.02345588 -0.114099495 0.5390134 -0.26754096 -0.19102089 0.087094896 -0.2751734 -0.04016983 -0.31015185 0.57045805 0.05558262 0.2777949 0.107480735 -0.5430689 0.3168811 0.42023164 0.05719883 0.43660876 0.46734032 -0.61825126 0.009172358
buscando -0.1849994 0.36176783 -0.19438426 0.1445711 0.19945264 0.18874791 0.0016627968 -0.062305763 -0.2715846 0.014139207 -0.089806214 0.4937497 -0.25254607 -0.19375546 0.09080902 -0.22503543 -0.059045114 -0.348365 0.55510575 0.06356886 0.31590003 0.104604825 -0.54328436 0.36539155 0.45602193 0.03677016 0.3987782 0.45954973 -0.6386074 0.007938909
tecnica -0.18661137 0.3723876 -0.18381871 0.17744692 0.20679642 0.20410578 -0.017139692 -0.07470492 -0.28001198 0.017135981 -0.10164659 0.5098966 -0.2883094 -0.21457237 0.0823958 -0.25498074 -0.044568196 -0.32482758 0.56225413 0.06878419 0.32204214 0.10971106 -0.5807044 0.32883233 0.4416101 0.05536266 0.43290955 0.45455268 -0.64937645 0.03529071
abierto -0.17015125 0.3415468 -0.19170086 0.17398508 0.18988025 0.21681707 -0.027307436 -0.055581342 -0.29850456 -0.009848477 -0.10415391 0.5131599 -0.24797323 -0.1747791 0.095230155 -0.23261042 -0.032723427 -0.32129633 0.5699811 0.055614535 0.29295546 0.09051106 -0.5696442 0.34337953 0.41756406 0.019207811 0.438307 0.45888418 -0.6172434 0.032799825
disculpa -0.16684248 0.34846568 -0.18102072 0.15084168 0.19347279 0.2108914 -0.021595925 -0.052807454 -0.29646757 -0.003368479 -0.1203649 0.50527495 -0.25755525 -0.19226126 0.08959997 -0.26087812 -0.038334895 -0.32163078 0.58558947 0.052602634 0.31344205 0.09909572 -0.5649439 0.35017398 0.43462202 0.045954846 0.4182019 0.4482231 -0.65832454 0.009526823
departamento -0.16038907 0.34850043 -0.17031108 0.17146581 0.2003237 0.24246448 -0.010371414 -0.021353742 -0.2799903 -0.019024022 -0.106974095 0.51730037 -0.25585213 -0.17732297 0.074105695 -0.25438306 -0.04365489 -0.35650548 0.57199776 0.072712354 0.2980285 0.14359379 -0.59319085 0.35180894 0.4419389 0.03670016 0.44167617 0.45866838 -0.65587956 0.034580622
competidor -0.15603724 0.36520535 -0.19861136 0.16271447 0.18554679 0.22515702 -0.032357864 -0.028032463 -0.27520815 0.011270919 -0.086711876 0.5138704 -0.26858816 -0.19537553 0.11183689 -0.23378874 -0.05496379 -0.31286627 0.5358428 0.051067643 0.2970241 0.10848387 -0.55395937 0.3525752 0.4443127 0.014720793 0.40781775 0.436211 -0.6143196 0.039731905
puedan -0.18797398 0.344563 -0.17411996 0.14042535 0.2117216 0.21166705 -0.018693257 -0.06574242 -0.28262132 0.009818795 -0.10206545 0.49927852 -0.2600961 -0.1800754 0.08149728 -0.25122052 -0.06866713 -0.2919982 0.55728185 0.060832962 0.3036702 0.105669655 -0.5583099 0.33418235 0.41166374 0.018544417 0.4138364 0.45143563 -0.61723423 0.040634606
interno -0.16088927 0.36927435 -0.18321808 0.15431176 0.20421341 0.22280443 0.0093651125 -0.058808304 -0.27195385 0.010905063 -0.12988578 0.5323785 -0.2533229 -0.20255525 0.100189365 -0.25678864 -0.043616086 -0.31786066 0.5901803 0.06700781 0.30892572 0.10267243 -0.5773797 0.36697665 0.4251857 0.042884104 0.42966673 0.45551133 -0.6362222 0.031215196
revision -0.16888465 0.36020598 -0.18947989 0.16721293 0.19033377 0.20097756 -0.013835054 -0.036785286 -0.28009897 -0.008081897 -0.12344583 0.5485637 -0.27737048 -0.20257777 0.112939775 -0.2552633 -0.056939695 -0.32218352 0.574541 0.07657209 0.31321266 0.098411195 -0.5626521 0.32495233 0.4507032 0.033191726 0.42252958 0.47954875 -0.6580139 0.0048476974
embargo -0.19161719 0.32435104 -0.20373382 0.1521356 0.19162263 0.22016582 0.0017009242 -0.028481536 -0.26866934 0.011544625 -0.08689019 0.52286845 -0.25580212 -0.2080065 0.1224524 -0.24943723 -0.049413387 -0.3330352 0.5445313 0.06399432 0.31580797 0.11214639 -0.5677911 0.3251399 0.4496673 0.054172564 0.43254107 0.4488621 -0.6479429 0.017240213
seleccion -0.12061183 0.41177878 -0.1353622 0.19530784 0.13116288 0.18736272 -0.03590113 0.015799902 -0.2807795 0.008919611 -0.12494359 0.4923327 -0.26566112 -0.21904533 0.099144906 -0.22963926 -0.049016546 -0.34377766 0.4989296 0.058885276 0.3524865 0.09713957 -0.57483065 0.35359135 0.45071593 0.052029554 0.42195293 0.48589203 -0.6366871 0.0071067973
podia -0.1982151 0.3727495 -0.18260743 0.14494869 0.20809776 0.20134799 -0.009586264 -0.045368794 -0.29157147 -0.00204888 -0.09606471 0.5276668 -0.27462417 -0.18585728 0.098875925 -0.25479862 -0.081094295 -0.32714123 0.5581088 0.08311004 0.2989797 0.07793876 -0.5660284 0.32877132 0.44613445 0.014805555 0.41869903 0.45226663 -0.6348085 0.01866136
tecnico -0.2035749 0.37139368 -0.17304094 0.1648981 0.20350906 0.21394391 0.0070910393 -0.039579034 -0.27905303 0.0184737 -0.08492476 0.5238061 -0.26875132 -0.19498274 0.07954578 -0.25486037 -0.061667398 -0.33016902 0.58064747 0.049692787 0.3224617 0.106110394 -0.5782034 0.34975532 0.44816333 0.044100393 0.43491933 0.46700224 -0.6486697 -0.00014243828
entendi -0.16402565 0.3467237 -0.17820416 0.16314024 0.20888261 0.22264941 0.0016575615 -0.054015096 -0.2993691 -0.0047827703 -0.117547154 0.52717984 -0.24506274 -0.18975353 0.080203645 -0.25601175 -0.072160296 -0.29737958 0.5737912 0.06917977 0.2896994 0.08890857 -0.5546725 0.35403344 0.42454198 0.041699316 0.41547933 0.4378108 -0.63173145 -0.004414403
ofrecer -0.19186378 0.351607 -0.17645204 0.13591787 0.18613175 0.2140386 0.008758517 -0.067138515 -0.27726454 0.008794697 -0.07584792 0.5018947 -0.27638218 -0.17335138 0.09369934 -0.22306019 -0.053388573 -0.30294776 0.56567585 0.056105368 0.29529855 0.124376275 -0.55340666 0.3187165 0.44101915 0.023801219 0.3975957 0.4671904 -0.64685315 0.018413907
hiciste -0.16898683 0.3485385 -0.1899883 0.16414873 0.22669047 0.19993356 0.0059836083 -0.043666504 -0.2963382 0.0002881415 -0.11966704 0.53615725 -0.2697264 -0.2008952 0.114095606 -0.22742544 -0.05023321 -0.3022566 0.5675071 0.072102465 0.31815055 0.10408528 -0.56501055 0.3384181 0.43567178 0.039385457 0.4174528 0.467496 -0.6366215 0.023760796
reunion -0.16227351 0.33098865 -0.19154918 0.13837025 0.20875268 0.2240786 0.0029043749 -0.055761147 -0.27440986 -0.009796895 -0.13296552 0.5225061 -0.26428652 -0.206716 0.11820171 -0.22157611 -0.04429805 -0.33601382 0.58403647 0.046244856 0.28980485 0.07535858 -0.54307204 0.34637305 0.424905 0.047626402 0.41278124 0.4451921 -0.65249026 0.014488395
solicitarrres -0.17185132 0.3398643 -0.20252125 0.1716784 0.18679348 0.20523593 -0.0026433212 -0.03855434 -0.30082425 0.0073509733 -0.08180488 0.5039407 -0.24871969 -0.2157175 0.09739473 -0.22040321 -0.051860802 -0.3231935 0.5731109 0.06787301 0.3087064 0.084224224 -0.56185985 0.3673997 0.4327406 0.031689286 0.43349358 0.45903218 -0.6357732 0.024881687
invitacion -0.21063177 0.36554566 -0.15071352 0.16650659 0.17318586 0.23577999 -0.043381933 -0.06201093 -0.27311844 -0.0070752837 -0.07991654 0.514464 -0.2716012 -0.16528097 0.08272481 -0.24552993 -0.071419425 -0.33863387 0.5509497 0.045527346 0.31158552 0.10641842 -0.55726 0.34583467 0.43410194 0.007363558 0.4119408 0.47694978 -0.6517138 0.0037590216
queriamos -0.19215302 0.3571401 -0.19047578 0.16443364 0.19519779 0.20673914 -0.029640574 -0.03771696 -0.29735547 0.012236741 -0.0998512 0.5341095 -0.24665473 -0.17000844 0.096185 -0.24831027 -0.033563737 -0.31420842 0.56604785 0.07001313 0.27613172 0.09661056 -0.56773746 0.32266974 0.43024823 0.022749363 0.42420593 0.44632298 -0.6563287 0.00022908147
empezar -0.17841345 0.36648178 -0.18722643 0.14192583 0.21612263 0.23267654 -0.019611254 -0.049839754 -0.29485092 -0.005424789 -0.107788235 0.52335936 -0.25303856 -0.21022998 0.09921284 -0.22533719 -0.08435669 -0.33379748 0.565483 0.0609838 0.3131346 0.108345516 -0.5876881 0.36541164 0.44627556 0.016418086 0.43298244 0.4334063 -0.64097327 0.029658817
agente -0.19429474 0.36411703 -0.16791569 0.14852542 0.18927984 0.21139142 -0.00558846 -0.023737872 -0.2874429 0.017121583 -0.120278545 0.50897646 -0.26062962 -0.18783465 0.080959484 -0.2279081 -0.055177156 -0.30928135 0.5517168 0.07647983 0.29319882 0.088937625 -0.54725534 0.31888202 0.44526115 0.039254896 0.42686927 0.45104635 -0.64223784 0.032361843
enviamos -0.19763774 0.33898678 -0.1645466 0.16774061 0.19746444 0.18616523 -0.011413304 -0.046931367 -0.25567567 0.0071438607 -0.088519976 0.502133 -0.24220127 -0.19684367 0.083674125 -0.22234909 -0.029756326 -0.31855026 0.5474705 0.06188939 0.28896713 0.09323688 -0.53416216 0.34849918 0.44191894 0.03687709 0.384374 0.45066273 -0.6161634 0.018929863
colocar -0.19070373 0.3708791 -0.19918188 0.16852087 0.20490319 0.22835197 0.0068197143 -0.0732075 -0.30439293 -0.0021209454 -0.095659696 0.53587276 -0.27627978 -0.19376491 0.11235982 -0.21936662 -0.046622418 -0.31450662 0.5629609 0.07720982 0.301679 0.082926326 -0.5673799 0.32876784 0.43425888 0.01608603 0.43854964 0.44113815 -0.63932693 0.011492272
buscar -0.17058995 0.3738867 -0.1859479 0.16626978 0.2058152 0.22170904 -0.010143302 -0.049933728 -0.27400458 0.011257981 -0.123963244 0.5197538 -0.27937698 -0.18840396 0.1116717 -0.24508253 -0.08079466 -0.3070769 0.59389466 0.0716604 0.31906468 0.100483164 -0.5515553 0.3404508 0.44463515 0.022822233 0.4270842 0.47162926 -0.67774564 -0.008008149
imagen -0.16248302 0.35668465 -0.17818439 0.14411074 0.2312348 0.22846256 -0.013818664 -0.05736323 -0.27100974 -0.013340027 -0.1074142 0.5092733 -0.27053696 -0.21138324 0.110255435 -0.24718376 -0.06754231 -0.3251135 0.5955064 0.051068585 0.30211085 0.09468162 -0.56937045 0.34166348 0.44972995 0.04191782 0.4046954 0.45440963 -0.64684397 0.016997369
imagino -0.15726787 0.3513806 -0.19669902 0.16513143 0.21434216 0.22787489 -0.0028873647 -0.049616437 -0.2903924 0.018171445 -0.087913826 0.51955414 -0.28657204 -0.18967853 0.108197324 -0.25627235 -0.056631025 -0.31450984 0.5884744 0.06548693 0.28776857 0.098368764 -0.54920524 0.36320537 0.43204972 0.032979723 0.42781368 0.46439618 -0.6374164 0.03457787
diferente -0.16036578 0.37571627 -0.20390236 0.16190478 0.17574082 0.2046207 0.0023994448 -0.03812879 -0.2801022 0.0015927465 -0.11569908 0.4984485 -0.25870183 -0.19483975 0.1155044 -0.22695711 -0.075528175 -0.3506396 0.59007585 0.05255852 0.29189613 0.084515974 -0.5563986 0.34408623 0.4283189 0.049962074 0.40246183 0.46315646 -0.64578587 0.037456665
pendientes -0.1868422 0.3674321 -0.17347668 0.14127478 0.21881354 0.19840303 -0.015657755 -0.043199215 -0.29148436 0.013988536 -0.119352154 0.519445 -0.2611101 -0.2144238 0.12042694 -0.2291852 -0.04989375 -0.34650362 0.56264544 0.08055771 0.30240217 0.10681964 -0.5680948 0.35696602 0.45694712 0.013214873 0.42902288 0.46305573 -0.64530826 0.031161424
radicado -0.16542146 0.33273727 -0.17315951 0.16534428 0.23354693 0.20707493 0.011839352 -0.070413075 -0.30465135 0.014414919 -0.08778296 0.52185917 -0.2663976 -0.19079274 0.11431081 -0.22285984 -0.059077382 -0.327609 0.57835734 0.03693329 0.30719116 0.0956838 -0.57270586 0.366289 0.45455468 0.022757314 0.40670973 0.45020542 -0.6432279 0.031771876
validacion -0.1674137 0.31847003 -0.16887455 0.16365978 0.21223521 0.19405772 -0.017823795 -0.026638484 -0.28859589 -0.002403867 -0.07290328 0.51987433 -0.26167426 -0.19816364 0.09843069 -0.23151867 -0.040472668 -0.2969424 0.539804 0.08149077 0.27911523 0.11169014 -0.5780362 0.33320633 0.4575573 0.03836855 0.45004842 0.44171563 -0.6440345 0.014982917
perdio -0.191716 0.34810972 -0.16638261 0.17898399 0.2123789 0.21694127 -0.0024867302 -0.05753979 -0.28494054 0.014332033 -0.11561265 0.50113255 -0.26453465 -0.21386829 0.10214112 -0.25073427 -0.06771699 -0.34356332 0.5638626 0.06897123 0.3154694 0.09476689 -0.5578004 0.36581728 0.4504237 0.01967688 0.43480858 0.4734805 -0.62333155 -0.001155
llegan -0.16360869 0.3565876 -0.19314007 0.16658685 0.20694903 0.20789221 0.0055712564 -0.06237066 -0.2765171 0.0100710215 -0.12816034 0.51982236 -0.23969653 -0.18097155 0.12498638 -0.2586551 -0.076574355 -0.33716497 0.5600955 0.05114022 0.3118079 0.092477225 -0.56474185 0.36484078 0.448721 0.05965103 0.43490967 0.45572513 -0.6339242 0.005101256
quedar -0.14537989 0.3433816 -0.16458166 0.14496131 0.20532298 0.21450385 -0.021118257 -0.037933756 -0.29161724 -0.0076794797 -0.08616077 0.5077065 -0.26824445 -0.19001503 0.104975894 -0.23574479 -0.05049736 -0.29937193 0.57884765 0.053753827 0.30364147 0.11661884 -0.56679404 0.33824733 0.42925575 0.023071188 0.4327586 0.44464883 -0.63650715 0.016341902
miento -0.17088751 0.3336767 -0.17022324 0.15788957 0.19955514 0.19194597 -0.01745937 -0.0607024 -0.28752804 -0.00258544 -0.08493277 0.5175716 -0.26619062 -0.18385755 0.12132721 -0.23969749 -0.06492813 -0.30653322 0.5567136 0.048787594 0.3093301 0.079234645 -0.55524945 0.34308383 0.4329627 0.011505527 0.39698017 0.45578456 -0.6512962 0.027347263
recibi -0.2047591 0.33554247 -0.18608843 0.13578148 0.18620732 0.21453658 -0.022890327 -0.033321552 -0.27763122 0.014528198 -0.078957625 0.515729 -0.2552071 -0.17634371 0.080425434 -0.24396674 -0.043291222 -0.32273948 0.5850178 0.06831658 0.31941703 0.08376193 -0.57196105 0.32947 0.43966195 0.02830157 0.4174491 0.46861857 -0.6441768 -0.0026896885
modificar -0.1558459 0.3593414 -0.17698984 0.16856395 0.23909758 0.22216314 -0.0060405075 -0.06546533 -0.27441683 -0.0018522395 -0.11385036 0.52673995 -0.2603358 -0.22102253 0.1276653 -0.2445434 -0.06252052 -0.33798903 0.60212564 0.051212963 0.3207365 0.10939509 -0.5986992 0.37592015 0.43546343 0.05083143 0.40836418 0.450837 -0.62997615 0.0018870562
formas -0.16635719 0.3661344 -0.19125059 0.17574677 0.208302 0.1856037 -0.032019526 -0.030036224 -0.2880697 0.010071259 -0.09030387 0.52968246 -0.25255808 -0.20780487 0.095861554 -0.22034203 -0.050443258 -0.33252063 0.5467985 0.06407084 0.28834683 0.11256015 -0.57719105 0.35215217 0.44743684 0.011190333 0.42429277 0.45527756 -0.6211359 0.021246074
enviando -0.1966785 0.35524535 -0.18775152 0.1668567 0.21718249 0.18172775 0.01590798 -0.058031283 -0.2627169 -0.0034131624 -0.08876917 0.49248034 -0.27056846 -0.20907435 0.09032844 -0.2209974 -0.048118405 -0.2964845 0.5527593 0.07044961 0.28149712 0.08601154 -0.5442535 0.35367513 0.4283102 0.03996559 0.42369053 0.4584069 -0.6398505 0.017098062
empleados -0.18120992 0.34425545 -0.18440883 0.1661608 0.19454789 0.1898412 -0.021787908 -0.052948497 -0.27887934 -0.0025204422 -0.08486267 0.52636385 -0.2532317 -0.19697477 0.117070034 -0.2572092 -0.05996505 -0.33845383 0.5595893 0.06859473 0.30392104 0.12993175 -0.56445515 0.3514316 0.4731439 0.04909605 0.4014933 0.47798887 -0.65009016 0.025994303
celular -0.17385258 0.3495237 -0.17189166 0.15508363 0.2096031 0.19203855 -0.02342949 -0.05504201 -0.25591105 0.009234125 -0.109282166 0.48725992 -0.2711183 -0.17496452 0.072202414 -0.24558476 -0.085165046 -0.30227748 0.5660137 0.067077965 0.282664 0.1098033 -0.5571976 0.35156843 0.44018728 0.045583434 0.40268347 0.45508632 -0.6400843 0.024615308
encuentran -0.16178073 0.3503815 -0.18524945 0.15052162 0.22232918 0.204735 -0.0061964947 -0.030021898 -0.28830674 0.0071855956 -0.12897012 0.50660545 -0.27349764 -0.1980936 0.120090194 -0.24441235 -0.060475744 -0.32784006 0.57580966 0.066884324 0.31510815 0.119353004 -0.55667126 0.35547486 0.44311315 0.041341167 0.40942782 0.45250615 -0.65703195 0.017396446
pasada -0.16230492 0.34631014 -0.19385463 0.14477503 0.2008692 0.18462871 -0.0022611725 -0.02596015 -0.27868158 0.007891505 -0.11616908 0.49812007 -0.27759886 -0.18059626 0.11036683 -0.23894466 -0.07858684 -0.30187893 0.54673684 0.076891065 0.3119072 0.10737313 -0.5742142 0.3284916 0.4254081 0.034476317 0.4247459 0.45842585 -0.6174904 0.0035405927
comunico -0.1709008 0.36306554 -0.17916052 0.17330185 0.20154451 0.20193282 0.00045185923 -0.05947886 -0.27552235 -0.011675113 -0.12607716 0.51224107 -0.2615685 -0.19865017 0.09342964 -0.23475575 -0.06832176 -0.33701485 0.59509665 0.07283765 0.30983058 0.10708325 -0.56336284 0.35402206 0.4555621 0.03984484 0.43086252 0.44805717 -0.64548594 0.002452613
total -0.16080676 0.3377845 -0.178285 0.16034427 0.19343655 0.20297934 -0.01746235 -0.048918635 -0.29187524 -0.0037169664 -0.092620514 0.5115673 -0.25330704 -0.209127 0.09088211 -0.21117894 -0.058215488 -0.32764515 0.5640962 0.08156233 0.29486933 0.11764199 -0.5301591 0.35391727 0.45445937 0.04131811 0.4128346 0.43592963 -0.63939 0.0070741894
concreto -0.1899358 0.35051405 -0.1918462 0.14149594 0.2207335 0.22787017 -0.018561486 -0.050123304 -0.26910558 0.007260392 -0.10788781 0.50638115 -0.27391452 -0.19075896 0.09721205 -0.22311375 -0.043458633 -0.3252283 0.5446194 0.0856589 0.28160962 0.096641324 -0.55648726 0.3624585 0.44060206 0.015144946 0.40797135 0.4572405 -0.6383974 0.028526904
citroen -0.18061389 0.34625328 -0.19215736 0.13968621 0.2144804 0.20258981 -0.018320477 -0.048493147 -0.28601855 -0.008030002 -0.08006752 0.49950302 -0.26818222 -0.18293306 0.10847719 -0.21349321 -0.060837295 -0.3022257 0.5367807 0.08492929 0.28257748 0.1055863 -0.5639146 0.3449829 0.45723304 0.013772697 0.43798983 0.41663083 -0.62704396 0.018983698
probar -0.15856911 0.347945 -0.20936473 0.1353407 0.19596119 0.18649459 -0.02346867 -0.04689188 -0.256691 -0.019091992 -0.12108279 0.5011572 -0.2585226 -0.17092715 0.10897394 -0.25052035 -0.06942355 -0.31342304 0.5629531 0.055980235 0.306419 0.08345666 -0.5692862 0.35753903 0.42322603 0.044942096 0.40560624 0.4298242 -0.63481575 0.010972052
computador -0.16467625 0.38544318 -0.18515773 0.16355512 0.20976152 0.2139624 -0.019788489 -0.038082615 -0.28082198 0.010431172 -0.10993867 0.5070801 -0.2796804 -0.21543299 0.09796454 -0.24065194 -0.06592395 -0.32027435 0.5696207 0.043403693 0.33086097 0.112953536 -0.56644297 0.37423488 0.46916762 0.02220189 0.42656213 0.4813704 -0.63574666 0.006305027
competicion -0.1706053 0.3411387 -0.19368544 0.15603036 0.19802448 0.19672652 -0.020306496 -0.025986984 -0.29789177 -0.004674478 -0.07337528 0.5212894 -0.26014218 -0.19048136 0.08171118 -0.22951615 -0.06266174 -0.3440994 0.5829771 0.0698485 0.31308156 0.0889661 -0.5585708 0.32794166 0.46234283 0.010516751 0.41067365 0.473006 -0.63143474 0.012953721
usuarios -0.1536629 0.33985084 -0.194215 0.17216817 0.21325175 0.20496951 -0.0110553745 -0.0537466 -0.2886415 -0.013722114 -0.12473713 0.51365745 -0.24150386 -0.19196293 0.1259573 -0.24590507 -0.06781864 -0.3204037 0.55395937 0.070564434 0.32129815 0.10031988 -0.5666982 0.3574472 0.4566798 0.017853921 0.41487965 0.43930426 -0.61241966 0.0056627556
quisieramos -0.16410331 0.3414802 -0.18380801 0.1527954 0.22819418 0.20418653 -0.03055977 -0.058993887 -0.28840345 -0.00072254124 -0.10064524 0.5325735 -0.2623213 -0.18317361 0.10881925 -0.2448431 -0.037946846 -0.30738816 0.57332027 0.059470825 0.2936843 0.116294466 -0.58178765 0.3579123 0.4284755 0.021289086 0.41552424 0.46247533 -0.6391991 0.006908215
minimo -0.16713081 0.33283654 -0.17200325 0.15166232 0.2161634 0.18589485 0.007825428 -0.05194527 -0.28482234 0.024466546 -0.111668535 0.5274204 -0.26483294 -0.17645939 0.07972661 -0.24471794 -0.07441838 -0.30500853 0.576494 0.069112934 0.32208717 0.105959974 -0.5328972 0.36043724 0.43484825 0.04492072 0.42745036 0.46081796 -0.63016534 0.014546139
petroleo -0.16618684 0.34597674 -0.17944852 0.15112214 0.21214977 0.20610085 -0.015949037 -0.05712188 -0.25435856 -0.008202296 -0.102517165 0.4969868 -0.25828442 -0.2056164 0.0964425 -0.23162195 -0.069248036 -0.31053078 0.55265063 0.07933728 0.29430726 0.103191555 -0.5567796 0.3403439 0.4568458 0.023500465 0.40833145 0.43971863 -0.6587387 0.016812457
realizacion -0.20119233 0.38114458 -0.19434476 0.16093786 0.23406488 0.20186944 -0.014512152 -0.05372567 -0.2799204 0.009420159 -0.12409716 0.5409762 -0.27308992 -0.19168475 0.07540331 -0.23635535 -0.06528174 -0.30091438 0.57223165 0.055487983 0.29953218 0.10938885 -0.5905619 0.3320446 0.46775478 0.055759102 0.421177 0.46174788 -0.6362285 0.028081352
creado -0.18560535 0.33786714 -0.18215391 0.1382539 0.22614619 0.19778176 -0.006764764 -0.037328716 -0.30522248 -0.011919343 -0.09315796 0.51699656 -0.25962257 -0.20229715 0.120854706 -0.25596473 -0.07363176 -0.33460352 0.56962574 0.05824968 0.31439272 0.10552322 -0.5631661 0.35961756 0.43715963 0.024818959 0.42806163 0.46841204 -0.6270586 0.0074225613
sistemas -0.1934931 0.35735038 -0.19274051 0.16147386 0.21125239 0.21562706 0.006101703 -0.044664983 -0.27500775 0.009102958 -0.107329085 0.49698558 -0.29042417 -0.20100436 0.09967063 -0.22190148 -0.06081887 -0.32708257 0.57651067 0.03920231 0.28522992 0.09656622 -0.55542284 0.3261241 0.42284334 0.04146142 0.41156772 0.4393404 -0.64401734 0.00571415
perdi -0.17694269 0.35623902 -0.20152505 0.1470143 0.19993712 0.22065058 0.0038021735 -0.047785085 -0.29034677 -0.0084450515 -0.08197493 0.5266379 -0.24901979 -0.20930682 0.07683762 -0.22742954 -0.07258984 -0.31054005 0.58360875 0.068209395 0.29616222 0.11296577 -0.5799573 0.33015072 0.45348093 0.046236817 0.44512352 0.4609265 -0.6299465 0.0020953708
coloco -0.16167338 0.36828667 -0.17347988 0.17213644 0.20874298 0.21278322 -0.016412638 -0.03326089 -0.28086877 0.009844295 -0.111001946 0.5175959 -0.26392707 -0.20260043 0.13150817 -0.24536565 -0.0855333 -0.33364478 0.5693433 0.048405293 0.33580795 0.09111364 -0.55691016 0.35900435 0.45152035 0.03236533 0.40773225 0.47179258 -0.65503347 0.02844336
tecnologia -0.18106326 0.33555275 -0.17211933 0.16322984 0.21978174 0.2167952 -0.0048376834 -0.032322235 -0.29765972 -0.0007325231 -0.09327358 0.5139025 -0.24224654 -0.17743094 0.11491888 -0.23394415 -0.067292206 -0.3359284 0.5447078 0.04645636 0.3014964 0.08837336 -0.54046756 0.35007328 0.45740482 0.03838659 0.43154657 0.4457981 -0.6189692 0.020655764
trabajando -0.19404016 0.34405884 -0.18961538 0.14171985 0.2033589 0.22459933 -0.02830421 -0.053278953 -0.2925723 -0.0047477926 -0.109761655 0.5204403 -0.24625503 -0.21577764 0.11639366 -0.23706268 -0.049376186 -0.3251442 0.57153535 0.08102188 0.28375125 0.08693458 -0.57205635 0.34009925 0.43124563 0.03977772 0.43319035 0.43708783 -0.62663877 0.030974599
inicialmente -0.17476968 0.35375506 -0.1776514 0.14950179 0.21729323 0.20688604 0.0030154826 -0.0634672 -0.28616968 -0.009266761 -0.11023497 0.5110073 -0.26376316 -0.18637148 0.08362813 -0.2485815 -0.069365725 -0.34464636 0.57590157 0.05936202 0.3247574 0.09024844 -0.58110446 0.34107378 0.43936703 0.039719902 0.43852887 0.46476457 -0.6550007 -0.012349713
perdedores -0.1730873 0.3549595 -0.18155803 0.13976319 0.2154658 0.21892871 0.015262563 -0.054130774 -0.25727016 0.009376219 -0.08513413 0.5011935 -0.26661077 -0.20112924 0.0821832 -0.24998425 -0.055955734 -0.32076013 0.5532465 0.05477708 0.30567405 0.11250051 -0.55502653 0.36047944 0.4680772 0.05294194 0.39481327 0.46726185 -0.6251179 0.02293359
hogar -0.16960523 0.33968517 -0.18077299 0.16419971 0.23741205 0.23308891 -0.0075952755 -0.063920885 -0.27037954 0.024655033 -0.10653822 0.52097183 -0.2551072 -0.20481876 0.09785083 -0.25388888 -0.055352382 -0.349937 0.6070429 0.06837462 0.3305433 0.11679125 -0.5649314 0.34786886 0.46520248 0.042534254 0.4242112 0.45401537 -0.6718872 0.015586442
presento -0.1852637 0.34150875 -0.19840893 0.17009388 0.2183349 0.19011906 -0.022112159 -0.06092727 -0.28659075 0.006908594 -0.12121643 0.48715988 -0.25835592 -0.1952982 0.07430729 -0.22542451 -0.039008655 -0.3189475 0.56374294 0.048531786 0.28840274 0.10644933 -0.55615044 0.3152166 0.43736565 0.039382298 0.41991127 0.45236492 -0.6283095 0.017472912
ingresando -0.17091084 0.33684227 -0.18684699 0.13391298 0.22846314 0.21575946 -0.010413246 -0.052698594 -0.2710255 -0.0174127 -0.11271676 0.4920839 -0.2840417 -0.19263108 0.10834753 -0.25050625 -0.033833586 -0.29462302 0.5394682 0.059801124 0.30788803 0.08719881 -0.5304175 0.34790054 0.43097585 0.004988273 0.4225591 0.4207332 -0.6336253 0.016178036
comunique -0.16995387 0.3374754 -0.16813765 0.16441864 0.21859817 0.22250679 0.0065201283 -0.033969965 -0.28738108 0.0021441404 -0.10430738 0.5061477 -0.27454245 -0.17958422 0.094074816 -0.24903509 -0.079732455 -0.30027106 0.5609724 0.055149384 0.2822201 0.11749059 -0.5624263 0.3588977 0.44111103 0.03253903 0.42667156 0.4517522 -0.6507691 0.009227738
aplicacion -0.17707537 0.37441203 -0.18233997 0.18120432 0.22456366 0.2148304 -0.0031601125 -0.040186945 -0.27956873 -0.002335037 -0.13237788 0.51272285 -0.27477497 -0.21013102 0.08912455 -0.27062756 -0.044762865 -0.3436719 0.6056145 0.058711346 0.29028755 0.113598935 -0.5739141 0.36239436 0.44451132 0.017626913 0.42327523 0.45691887 -0.6387777 0.004645803
principal -0.19337174 0.3583299 -0.19188263 0.1665859 0.21245135 0.22683266 0.0035185376 -0.047524102 -0.28437573 -0.008384173 -0.105845705 0.50865597 -0.25637498 -0.17985678 0.09065344 -0.2231877 -0.059581395 -0.32447177 0.5755433 0.07218916 0.31560186 0.115013205 -0.58438426 0.3488112 0.44011283 0.038129345 0.43585795 0.47078285 -0.650481 0.013669779
participacion -0.17180412 0.33857444 -0.1800088 0.1798329 0.22456685 0.1950673 0.0035700167 -0.06830683 -0.28826734 -0.0043780464 -0.09483398 0.5147446 -0.25854084 -0.18087745 0.11235501 -0.2442873 -0.07064013 -0.34568253 0.56504005 0.050421253 0.31593466 0.09573292 -0.57197 0.36470675 0.4429807 0.0493112 0.4124285 0.44814894 -0.63842905 0.010486049
grupos_interes -0.19418746 0.34623566 -0.17730108 0.15621021 0.19008316 0.20808417 0.0022784935 -0.044243667 -0.29208425 0.00962094 -0.073260084 0.4961036 -0.25508088 -0.18466319 0.10801408 -0.23869163 -0.033791225 -0.34116483 0.55791587 0.0298969 0.30753595 0.12070879 -0.5497738 0.37710947 0.4632873 0.026077786 0.40139124 0.47290188 -0.6660369 0.004377389
llevamos -0.15411127 0.35622483 -0.20453371 0.14525972 0.21562807 0.21587937 -0.0064259274 -0.058521613 -0.3029487 0.0076195276 -0.11894396 0.5279547 -0.26755103 -0.18770288 0.10821965 -0.25940305 -0.066651985 -0.31300673 0.5511234 0.06501776 0.27877077 0.084017314 -0.54772955 0.33634663 0.41343716 0.0137867145 0.42753553 0.45285332 -0.63027453 0.022233691
llamars -0.16270322 0.33961606 -0.18022314 0.17368907 0.18639843 0.2200545 -0.015333878 -0.034789614 -0.2933282 0.003490492 -0.12135968 0.535562 -0.26397488 -0.18455844 0.1047801 -0.22784263 -0.06076919 -0.33184287 0.5746202 0.069619775 0.29033262 0.10351257 -0.58227414 0.357292 0.44908446 0.029909775 0.3953246 0.46733344 -0.65535676 0.0012107475
policia -0.19399834 0.3374608 -0.16144557 0.15592512 0.2260214 0.23394988 -0.026952485 -0.068987064 -0.25739604 -0.007932062 -0.09707582 0.5265145 -0.24600242 -0.19540241 0.09547854 -0.2268575 -0.04669951 -0.32947186 0.58800656 0.054717205 0.3065249 0.10943834 -0.55584806 0.35697833 0.4417821 0.04795705 0.42780226 0.4686142 -0.63791 0.02290292
probe -0.16489653 0.3605209 -0.17560755 0.15553011 0.19866979 0.19422723 -0.025790768 -0.03442017 -0.28842837 -0.023737472 -0.11753143 0.5240135 -0.25440332 -0.20110556 0.08864878 -0.23970287 -0.07439457 -0.34913376 0.5474791 0.06031108 0.29117867 0.098894246 -0.54327315 0.3421451 0.4517492 0.05192239 0.40328184 0.45347026 -0.6464344 0.011863928
produccion -0.18138044 0.36338246 -0.18295431 0.15238543 0.2008549 0.2244115 -0.028297033 -0.056465827 -0.28449717 0.0022563154 -0.11758314 0.5112378 -0.25868747 -0.19290836 0.10006176 -0.22238083 -0.05070734 -0.2976552 0.58163345 0.0565066 0.2846962 0.08603641 -0.5649137 0.36427763 0.43881303 0.027520819 0.39655754 0.4387527 -0.6212425 0.024543043
prestamos -0.1627718 0.35177845 -0.1895956 0.17135681 0.21606608 0.20918064 -0.0062334174 -0.033476084 -0.28305566 -0.008929961 -0.13208753 0.5345893 -0.28753957 -0.18519388 0.099123105 -0.22571386 -0.06145269 -0.31160113 0.5729508 0.0709693 0.3053488 0.12714386 -0.591371 0.34490445 0.43823415 0.05830762 0.40902045 0.44400418 -0.64849854 0.0013275117
funciona -0.16164736 0.3301029 -0.19355841 0.1503284 0.22200885 0.22315389 -0.020061817 -0.042818457 -0.27979696 0.022962207 -0.08555727 0.54137754 -0.27482697 -0.19252943 0.093962714 -0.26030502 -0.06667977 -0.33985582 0.56930393 0.056187827 0.32747903 0.1267451 -0.5566876 0.33516 0.4322418 0.033486877 0.4235278 0.47206098 -0.62225854 -0.00599925
recuperar -0.18394734 0.342484 -0.18332809 0.15716603 0.21947238 0.22275463 -0.0056851283 -0.055462252 -0.2689054 -0.0077709453 -0.0958801 0.46947187 -0.23787728 -0.20802532 0.12354476 -0.21315399 -0.054705407 -0.31500375 0.5519871 0.07943875 0.30209237 0.079414986 -0.5575192 0.34068894 0.42911354 0.04928064 0.4043907 0.44342935 -0.6230383 0.0074286163
edicion -0.17337663 0.36754483 -0.17682374 0.14684458 0.20181747 0.2025253 -0.01463828 -0.052492544 -0.30482873 0.021949848 -0.10935444 0.49756396 -0.2691564 -0.18521437 0.07832411 -0.23893134 -0.05834856 -0.31544915 0.5702465 0.05938494 0.31099206 0.10952819 -0.5699651 0.33158195 0.4302802 0.039243527 0.436378 0.48468181 -0.6479239 0.03648911
correcta -0.16965403 0.36857492 -0.19661082 0.15756558 0.23484877 0.20488766 0.010897163 -0.05089759 -0.3036512 0.011895712 -0.12631662 0.54075336 -0.26918644 -0.1826593 0.12987003 -0.26849383 -0.054918416 -0.30334148 0.5933446 0.053340986 0.31584236 0.12451042 -0.5747314 0.37605697 0.45841637 0.036649775 0.4309817 0.45263794 -0.64138615 0.029579682
