590 30
documento -0.06043272 0.13594548 -0.12729742 0.17015088 -0.31619984 -0.5156981 -0.46816486 0.15189828 0.12129646 -0.043400634 -0.295028 0.3860254 0.14013803 -0.8201408 -0.5002812 0.24937749 0.21122803 0.04536933 0.043401673 -0.10416299 -0.28866905 -0.05436028 -0.07959299 0.19741422 0.661911 -0.1273006 -0.033612076 -0.21852446 0.07995621 -0.070602454
informacion -0.07123365 0.10547666 -0.1672389 0.1450334 -0.3102659 -0.4892481 -0.47766337 0.18761428 0.1374883 -0.015473958 -0.2732206 0.39772618 0.12023501 -0.88056755 -0.5238958 0.25119936 0.23111697 0.04819248 0.061611645 -0.1329628 -0.31169343 -0.05756469 -0.076381 0.19928005 0.6693497 -0.15669131 -0.054597367 -0.22653323 0.12925792 -0.065585785
proveedores -0.04378937 0.08987769 -0.15339997 0.12574984 -0.32230183 -0.5300664 -0.45400056 0.20745105 0.1514801 -0.0012025394 -0.28336972 0.40481508 0.14472803 -0.8426387 -0.5254403 0.23750286 0.23678778 0.06609548 0.008639799 -0.15736833 -0.29752526 -0.050214857 -0.06185424 0.17315246 0.6464471 -0.18829359 -0.060818788 -0.23268865 0.11258613 -0.051523358
proceso -0.05313778 0.103332356 -0.15806925 0.16237517 -0.3375471 -0.49249083 -0.46112064 0.1719738 0.13622504 -0.051010057 -0.28446504 0.38346627 0.11995618 -0.86625063 -0.526193 0.27506256 0.25553408 0.055872142 0.050563782 -0.111453556 -0.29243866 -0.049774718 -0.080933474 0.21257995 0.6830769 -0.17915729 -0.05887049 -0.22299288 0.13429175 -0.104531236
llamar -0.07668589 0.1252022 -0.1417022 0.14898783 -0.30091548 -0.5299217 -0.4737444 0.19203945 0.13368364 -0.029163463 -0.30631855 0.4243392 0.14443481 -0.84736264 -0.508675 0.28042972 0.23093547 0.04428046 0.056058183 -0.1337715 -0.27725232 -0.046853863 -0.072654255 0.2018507 0.66803813 -0.14124194 -0.05282042 -0.24074705 0.13152196 -0.079088114
enviar -0.07208156 0.12794034 -0.16471285 0.14147082 -0.31521133 -0.5108255 -0.44097656 0.15793164 0.12156016 0.014172285 -0.26213077 0.41287053 0.11501351 -0.88293797 -0.5363742 0.26472655 0.26281872 0.061809853 0.029708754 -0.14982522 -0.31288394 -0.05840337 -0.059497997 0.20593533 0.6660986 -0.17979613 -0.041024778 -0.2220529 0.096214816 -0.07546764
comprar -0.08192404 0.1041653 -0.14124517 0.15821771 -0.32134748 -0.5239943 -0.4508914 0.17300023 0.1499473 -0.009250704 -0.3018633 0.37818253 0.13497685 -0.8499357 -0.52873564 0.2554719 0.25807425 0.034558095 0.026178734 -0.11995797 -0.3069209 -0.021276735 -0.08164262 0.190025 0.64206755 -0.18188754 -0.03722563 -0.22392362 0.094333924 -0.0609168
respuesta -0.05163532 0.06953207 -0.16898985 0.16583435 -0.31422448 -0.515027 -0.48134652 0.19584887 0.09985551 -0.016010977 -0.2754232 0.40723598 0.12802179 -0.8628574 -0.531099 0.27565965 0.21739784 0.0173231 0.03429647 -0.093213975 -0.30861858 -0.04263791 -0.08375797 0.19219856 0.64350706 -0.1675972 -0.037031267 -0.24236439 0.11632299 -0.10034396
relacionamiento -0.071908005 0.08047331 -0.17770694 0.12761204 -0.3379715 -0.56515056 -0.4481449 0.2143557 0.117868505 0.02909319 -0.26639706 0.42749786 0.13860391 -0.8504334 -0.52772844 0.26024792 0.25830713 0.052570228 0.017071798 -0.1378122 -0.31612697 -0.030477008 -0.043189865 0.20267038 0.65324277 -0.18736537 -0.038002864 -0.26206598 0.10676674 -0.09277003
solicitarrr -0.07637902 0.09247372 -0.16041495 0.17453514 -0.30293676 -0.52575266 -0.43949932 0.16665928 0.1354063 -0.027165454 -0.2828167 0.38154098 0.12880115 -0.8472422 -0.5178578 0.27602097 0.22169979 0.03309272 0.033822645 -0.11298904 -0.29466122 -0.07154871 -0.07686114 0.1835155 0.6374859 -0.17063166 -0.026506662 -0.22946216 0.10282003 -0.0939629
plataforma -0.08815035 0.113031074 -0.15246712 0.1761745 -0.32502782 -0.5107759 -0.47301757 0.14630544 0.12682821 -0.024026094 -0.26694256 0.4038221 0.13719158 -0.8379707 -0.4861015 0.2633088 0.24672414 0.060005363 0.051970273 -0.14205885 -0.33414188 -0.03233281 -0.05109371 0.18499601 0.6747511 -0.12883516 -0.042169858 -0.19309077 0.11094968 -0.05775304
pagina -0.07493944 0.13113183 -0.12022492 0.15118553 -0.31082642 -0.520625 -0.44060138 0.18115968 0.15622583 -0.0104074245 -0.2856545 0.40731877 0.13385035 -0.82487357 -0.49123767 0.24634063 0.26006234 0.018018559 0.053162325 -0.12034029 -0.31530204 -0.048628468 -0.06844245 0.16033834 0.64884394 -0.17134488 -0.043040574 -0.2321388 0.11867382 -0.074009344
usuario -0.051425964 0.10475662 -0.14027981 0.16404364 -0.304721 -0.54279995 -0.45679608 0.14650035 0.15571368 -0.024214448 -0.3090725 0.40341246 0.12970205 -0.83247644 -0.5215609 0.2481498 0.22638024 0.074534975 0.019219154 -0.18172644 -0.285551 -0.037638202 -0.08453624 0.18349804 0.66042525 -0.16018482 -0.019770714 -0.22204088 0.1265893 -0.06678175
contrato -0.07744754 0.11580849 -0.16899994 0.17090642 -0.2968522 -0.50284487 -0.4315731 0.16292964 0.13233323 -0.03844535 -0.2895167 0.39319316 0.13171138 -0.8796492 -0.50428873 0.2657562 0.25514856 0.070013374 0.055263553 -0.15307635 -0.30952162 -0.06259491 -0.055256475 0.19941667 0.6849647 -0.17264067 -0.037595816 -0.22606088 0.08282931 -0.09213508
datos -0.089518085 0.095852934 -0.16598147 0.16048333 -0.32925388 -0.53688025 -0.475868 0.1958812 0.1323712 0.010157228 -0.29121813 0.4244318 0.114277095 -0.8537111 -0.536661 0.22994022 0.26102105 0.05789508 0.026267473 -0.12931632 -0.29150292 -0.017966574 -0.07582341 0.17831293 0.6600132 -0.15156372 -0.03242847 -0.20049717 0.12220353 -0.07058195
proveedor -0.0851345 0.12272061 -0.13496506 0.14220268 -0.33118594 -0.51371986 -0.46285403 0.15516517 0.13760228 -0.0123217665 -0.27317798 0.39628178 0.12196157 -0.8401656 -0.5120025 0.2407039 0.24677092 0.053914465 0.045537308 -0.14227241 -0.2928111 -0.041662425 -0.07464367 0.17998835 0.67143124 -0.1451961 -0.051048018 -0.21511933 0.12212497 -0.082956016
contrasena -0.0898054 0.091511615 -0.14337185 0.18394704 -0.30794325 -0.5387236 -0.4875415 0.15870763 0.12956111 -0.021664847 -0.27476212 0.38114297 0.09891953 -0.8338634 -0.49909332 0.25836644 0.2230146 0.07666664 0.020897219 -0.18103518 -0.30511138 -0.05051117 -0.07124161 0.16819227 0.6694339 -0.15659806 -0.05267647 -0.23279816 0.11731456 -0.08320926
registro -0.06739091 0.111817524 -0.13650735 0.1777876 -0.31666204 -0.5318325 -0.45144063 0.15875489 0.14009978 -0.0006379867 -0.29689747 0.4082567 0.1250258 -0.84360665 -0.5400154 0.24511823 0.2272737 0.07242396 0.033032905 -0.13029335 -0.31954303 -0.039260864 -0.06487871 0.1862825 0.6444184 -0.14895949 -0.041662317 -0.24656634 0.13140185 -0.060724936
documentacion -0.08374241 0.13270658 -0.15804134 0.15397194 -0.33275118 -0.51073885 -0.4570785 0.1572664 0.13516606 -0.012872355 -0.2847829 0.4047737 0.13068531 -0.8595613 -0.5154777 0.2686593 0.24309377 0.032382313 0.027506117 -0.1153877 -0.32851928 -0.029388018 -0.048013538 0.1848652 0.69164026 -0.1391717 -0.039322425 -0.19695978 0.11018369 -0.07093535
compania -0.09129165 0.12334892 -0.15379153 0.14072025 -0.31277838 -0.5368593 -0.44248104 0.19517235 0.12485029 -0.020621466 -0.29621994 0.4030694 0.121614546 -0.8645286 -0.5272896 0.27565667 0.24644756 0.028405204 0.044132717 -0.14407879 -0.32684025 -0.03475739 -0.06338739 0.15720616 0.6366925 -0.14246723 -0.053832084 -0.23699148 0.11258543 -0.05571593
producto -0.07779406 0.10737119 -0.15535897 0.16228461 -0.2951364 -0.5393466 -0.46998528 0.18728566 0.14620475 0.00062855135 -0.2862221 0.40476468 0.11762736 -0.85482377 -0.539952 0.24708523 0.26388785 0.045720596 0.03618565 -0.15203424 -0.30887014 -0.02193654 -0.08044494 0.18105128 0.66724145 -0.18823712 -0.06762971 -0.2250562 0.12859179 -0.067660026
ingresar -0.053002086 0.117899865 -0.15353413 0.14531091 -0.34374854 -0.50681156 -0.45229307 0.18471882 0.17214106 0.0052242563 -0.27778104 0.38033822 0.14534895 -0.85919243 -0.5147826 0.23293644 0.23712802 0.039367005 0.061194543 -0.13040508 -0.2851625 -0.045228086 -0.06031552 0.16774365 0.66482437 -0.14200035 -0.036813226 -0.19862431 0.13293606 -0.07537524
certificado -0.09426864 0.0945799 -0.1333205 0.14770584 -0.3262977 -0.5026483 -0.45056102 0.17453554 0.11639632 -0.049758352 -0.3029577 0.3813689 0.123443745 -0.8518659 -0.49131325 0.26892635 0.22038594 0.054013453 0.0357816 -0.103693865 -0.30335414 -0.05817092 -0.06424336 0.1937935 0.6874911 -0.15224847 -0.048106804 -0.23102956 0.09032846 -0.07123416
personas -0.088528425 0.11557194 -0.15944833 0.14731972 -0.3258619 -0.5318798 -0.47800013 0.16727002 0.14281653 -0.008950251 -0.3137367 0.4212939 0.14353691 -0.85818815 -0.5107066 0.25445256 0.22473557 0.044646975 0.030013563 -0.15483487 -0.28263474 -0.028736293 -0.08240711 0.1759334 0.62962896 -0.14804874 -0.028396172 -0.23386905 0.10513894 -0.082665384
comercial -0.07995902 0.0945117 -0.13797131 0.15700366 -0.312651 -0.5303974 -0.44055316 0.16135806 0.13266832 -0.008053695 -0.26513073 0.4240433 0.1337893 -0.86842597 -0.5222698 0.24128269 0.25310302 0.047156684 0.051356006 -0.15402988 -0.29853165 -0.039702326 -0.07648524 0.17558822 0.63763726 -0.17382729 -0.030209612 -0.2193264 0.10651073 -0.08294613
haciendo -0.070785925 0.087589934 -0.1559314 0.17022018 -0.33759463 -0.5184715 -0.4558175 0.16625796 0.14272892 -0.036559295 -0.27210018 0.4054681 0.11603354 -0.87400603 -0.51975554 0.28283882 0.24637587 0.0324326 0.03125498 -0.13478279 -0.30512533 -0.039411876 -0.08709593 0.21172525 0.6668014 -0.14564428 -0.03244208 -0.21636847 0.10611701 -0.09105436
problema -0.07269463 0.09882081 -0.14378548 0.16704309 -0.32112193 -0.51945907 -0.44446534 0.19043925 0.10948875 -0.00616928 -0.287992 0.41727757 0.12367845 -0.8468045 -0.5188954 0.24024396 0.24320523 0.055600468 0.051592346 -0.1365472 -0.31798398 -0.05595586 -0.08670798 0.18139325 0.64792645 -0.15283602 -0.06752583 -0.23104984 0.09839471 -0.06286864
interes -0.07705718 0.11315312 -0.13844241 0.16816828 -0.31517273 -0.50691247 -0.46426678 0.16730578 0.12528652 -0.030627733 -0.28637898 0.4069087 0.13412896 -0.8623569 -0.50893855 0.25581464 0.24982175 0.0573493 0.030975372 -0.15322408 -0.30753502 -0.035852578 -0.09153962 0.18344934 0.6568587 -0.1578658 -0.03148841 -0.240637 0.10492324 -0.06682504
sistema -0.06323865 0.102567784 -0.15515582 0.17297204 -0.31609043 -0.48948434 -0.4688012 0.17361706 0.14745104 -0.033548314 -0.27483106 0.4037096 0.1365206 -0.85209626 -0.51755834 0.27762315 0.22238718 0.062473305 0.054548033 -0.1375135 -0.2728966 -0.022519365 -0.07448712 0.19490688 0.66159165 -0.16024761 -0.053703427 -0.21781665 0.13034588 -0.081213035
compra -0.06449594 0.10972196 -0.15799044 0.13635075 -0.3112707 -0.5282317 -0.46315446 0.19751802 0.11535793 -0.026927266 -0.29025847 0.4075042 0.15579878 -0.8474859 -0.51173836 0.24746157 0.24910313 0.04020254 0.04167783 -0.1265867 -0.30953482 -0.026452206 -0.057567712 0.20560616 0.6634218 -0.15082267 -0.02916831 -0.23541169 0.12602547 -0.0862901
proyecto -0.07260607 0.11625545 -0.13832504 0.14407259 -0.30671793 -0.52600133 -0.4758602 0.19939578 0.158456 -0.0155524025 -0.29495034 0.39704093 0.15415147 -0.884015 -0.5347273 0.2780058 0.25932464 0.020190248 0.033440314 -0.12554716 -0.3253849 -0.05748823 -0.072557315 0.20003138 0.6896124 -0.15068667 -0.06565101 -0.23156227 0.11102352 -0.07249563
empresas -0.08687378 0.11736293 -0.15311234 0.16716015 -0.33023912 -0.5412871 -0.44711888 0.19941255 0.11613282 -0.006680239 -0.29396388 0.39545333 0.1442073 -0.85305244 -0.5252327 0.25047526 0.24088456 0.031940646 0.041662797 -0.12733139 -0.30818292 -0.0465283 -0.060929354 0.18761857 0.65430623 -0.17482165 -0.03303613 -0.19557583 0.13740535 -0.08868364
contratacion -0.092630334 0.118376344 -0.15988304 0.17046908 -0.3056109 -0.5302674 -0.43630537 0.18124384 0.14752941 -0.031180607 -0.27494818 0.4061874 0.13628922 -0.85362047 -0.5250175 0.25433928 0.23323277 0.03706259 0.0233834 -0.1129134 -0.29460835 -0.040118694 -0.06762045 0.167941 0.68035394 -0.16902936 -0.046390165 -0.22938634 0.09589758 -0.067890644
electronico -0.061105266 0.10369754 -0.17451292 0.13327451 -0.31549504 -0.51178205 -0.47063872 0.18774663 0.12850496 -0.014103621 -0.29566783 0.3937691 0.13315587 -0.85241157 -0.5257021 0.24018425 0.2512177 0.030091276 0.033910915 -0.15319578 -0.30157658 -0.044540644 -0.04874904 0.180101 0.6324951 -0.14644533 -0.06340367 -0.1966908 0.102213174 -0.07711823
actualizar -0.09119774 0.085294105 -0.1509308 0.17299068 -0.32983708 -0.52072775 -0.463115 0.15247123 0.14538799 0.003993626 -0.29594365 0.4055449 0.11510315 -0.827038 -0.49215385 0.23546138 0.24126327 0.051953994 0.023133697 -0.14104939 -0.28782442 -0.027746035 -0.080941245 0.18635868 0.67649865 -0.1589776 -0.054470036 -0.22907187 0.10100974 -0.061194174
llega -0.071794644 0.10922897 -0.1260349 0.1642532 -0.33949003 -0.5215086 -0.47876003 0.16614994 0.1356365 -0.028082004 -0.28922394 0.3896262 0.10960997 -0.84597236 -0.52567464 0.28047654 0.2658817 0.043466993 0.05379959 -0.13212875 -0.3144488 -0.051212944 -0.04297036 0.19654374 0.68423176 -0.1802982 -0.03480938 -0.21119513 0.09945331 -0.07305925
registrada -0.08451207 0.123322666 -0.15896994 0.15012811 -0.3164696 -0.5176563 -0.46134758 0.15790828 0.14893897 -0.028635578 -0.30187333 0.4213937 0.117419876 -0.85760444 -0.4991091 0.23960163 0.234936 0.06874737 0.059117362 -0.13180976 -0.29815996 -0.044522572 -0.051387303 0.19319616 0.6437744 -0.15772198 -0.039123647 -0.21946809 0.1255186 -0.06201322
verificar -0.08999359 0.12631181 -0.16567102 0.14693604 -0.30284426 -0.52506673 -0.4752507 0.18315361 0.16140103 -0.029834019 -0.29422873 0.4155228 0.1378228 -0.8473495 -0.5053819 0.26880464 0.24290696 0.055667225 0.063643254 -0.12927543 -0.31178105 -0.04180667 -0.09058842 0.17016523 0.6541573 -0.14752968 -0.04861239 -0.21809894 0.12392332 -0.06934879
comun -0.08393294 0.097026095 -0.13964666 0.13856572 -0.2930319 -0.5113856 -0.43820217 0.16157825 0.13599387 -0.0084392 -0.29373324 0.391932 0.14522144 -0.8360876 -0.52888036 0.26657698 0.24488673 0.026502365 0.05071831 -0.13741548 -0.31318194 -0.034128774 -0.05678702 0.17301585 0.67186314 -0.15169813 -0.055774152 -0.24221875 0.11553817 -0.06356523
actualizacion -0.06079205 0.117754795 -0.14904137 0.1668342 -0.33620614 -0.4942167 -0.46763033 0.16688962 0.116787076 -0.0043858583 -0.29671285 0.40737528 0.122789025 -0.8568675 -0.49824515 0.23926175 0.25051147 0.034531772 0.055421885 -0.13300738 -0.31345478 -0.022761026 -0.0740864 0.17635338 0.6467249 -0.14882536 -0.018805515 -0.22139095 0.119630314 -0.08886218
queremos -0.076483585 0.115124956 -0.17563596 0.16166605 -0.3277682 -0.5139107 -0.45345235 0.19477232 0.1446705 -0.0044741724 -0.30078578 0.41040406 0.117995 -0.8517134 -0.5167312 0.26939783 0.24592948 0.042097956 0.018261697 -0.14210686 -0.3136023 -0.02341575 -0.09033919 0.19641104 0.6371441 -0.15613008 -0.029372193 -0.21008202 0.09368225 -0.083004266
necesito -0.07015109 0.10310289 -0.14524467 0.15351659 -0.33965123 -0.51243407 -0.4499873 0.1755009 0.13733232 -0.013030377 -0.2892507 0.39464036 0.1497301 -0.8703006 -0.53162205 0.2813885 0.2610252 0.026634008 0.04617104 -0.13318256 -0.2941092 -0.029209988 -0.068374306 0.19646262 0.6704124 -0.17565016 -0.055461343 -0.22131585 0.10617902 -0.07418892
hizo -0.08720326 0.09668242 -0.14773218 0.1465272 -0.32243752 -0.50982475 -0.45970365 0.19072719 0.14276534 -0.012119504 -0.28107843 0.42651153 0.11795984 -0.857341 -0.5290945 0.24968469 0.25705644 0.05465479 0.060565334 -0.12018436 -0.3178632 -0.05070317 -0.07039112 0.17381988 0.6902271 -0.17414317 -0.03217581 -0.22452205 0.13341281 -0.07739232
ayudar -0.089218765 0.099644534 -0.1302855 0.14616123 -0.30216563 -0.5042596 -0.46188554 0.18250181 0.12718882 -0.029920204 -0.26372972 0.41387323 0.13941698 -0.8661039 -0.5095412 0.26581344 0.23089664 0.035786465 0.038159657 -0.11687857 -0.30715927 -0.028227044 -0.058762826 0.20308739 0.65254 -0.17269059 -0.050821953 -0.2093725 0.1017549 -0.06375202
hablar -0.064200304 0.08574954 -0.17228444 0.1454849 -0.32272074 -0.5234544 -0.46720052 0.18499725 0.1417861 -0.028022794 -0.29577023 0.41311845 0.120041914 -0.84385955 -0.50314987 0.27345085 0.24317063 0.049050476 0.038706366 -0.14792418 -0.3114289 -0.026851336 -0.073311016 0.16843422 0.6531915 -0.16121294 -0.055882297 -0.23976187 0.107655786 -0.09840036
ejemplo -0.082962304 0.08982086 -0.14019862 0.15109822 -0.32179043 -0.5155539 -0.47357672 0.18250178 0.14999096 -0.0041596405 -0.29729494 0.39401722 0.10942084 -0.88210773 -0.5118973 0.27637234 0.2591561 0.061446514 0.024216771 -0.12582636 -0.29140097 -0.059995998 -0.07595027 0.20936441 0.66813815 -0.17527084 -0.023339894 -0.20965548 0.09115771 -0.05999774
procesos -0.08659109 0.12202313 -0.15667683 0.1642662 -0.3138783 -0.50618577 -0.4527355 0.15235327 0.13370529 -0.026760308 -0.30171284 0.3976145 0.1468458 -0.8600418 -0.5336938 0.28092754 0.26268414 0.017014012 0.06279912 -0.11202534 -0.32167426 -0.022541791 -0.05919817 0.1801399 0.6450433 -0.14023083 -0.035753023 -0.23115622 0.10725472 -0.07716178
telefono -0.08443591 0.114721544 -0.13448167 0.13756955 -0.31730396 -0.5414212 -0.49374846 0.17679894 0.16268867 -0.0034741145 -0.3061799 0.42677432 0.13569544 -0.8298849 -0.5030726 0.26971123 0.23360232 0.029974828 0.027856195 -0.12239375 -0.27826354 -0.03946344 -0.05598695 0.18628956 0.68668276 -0.15528783 -0.025001727 -0.22742385 0.13137008 -0.08839429
participar -0.07939843 0.11128975 -0.16506334 0.14105627 -0.30109754 -0.5159319 -0.46255732 0.16713892 0.1428143 -0.008202504 -0.29430568 0.40710208 0.14508428 -0.8682123 -0.52069724 0.2967409 0.22382072 0.05528366 0.025207229 -0.14410613 -0.34141436 -0.043661464 -0.06799067 0.19015631 0.7004788 -0.16047247 -0.07050888 -0.22531106 0.11516614 -0.06484117
pasado -0.07644678 0.11202878 -0.15549162 0.1398591 -0.30242166 -0.5257965 -0.47561955 0.19492014 0.13163666 0.0041038636 -0.2690876 0.414347 0.15735137 -0.87565845 -0.5195347 0.29426527 0.21704057 0.04692287 0.04327448 -0.109765984 -0.31960386 -0.042868156 -0.07767483 0.20375511 0.6840483 -0.1777962 -0.06881453 -0.23496486 0.12276874 -0.05841197
facturar -0.083016045 0.1012687 -0.14139183 0.15815601 -0.29425216 -0.48271215 -0.42986006 0.20332158 0.10897222 -0.036096815 -0.29453316 0.38953876 0.11261232 -0.8603518 -0.5234743 0.30716613 0.2713921 0.02113567 0.05190862 -0.15260008 -0.28920892 -0.064650185 -0.084564194 0.16655105 0.6780074 -0.1880367 -0.066599816 -0.20477812 0.122083806 -0.1065158
nivel -0.07727025 0.12726331 -0.14318895 0.13767976 -0.32856187 -0.51583964 -0.4510591 0.17910318 0.12495594 -0.010550135 -0.30315304 0.429279 0.118879594 -0.88829124 -0.5114231 0.25856936 0.2287224 0.027067209 0.0242346 -0.120924346 -0.3237482 -0.051621452 -0.074277066 0.20087549 0.6608937 -0.16671827 -0.07295655 -0.2295108 0.09521817 -0.06933475
espera -0.056785952 0.10782653 -0.1473344 0.16215384 -0.30216798 -0.50465786 -0.47428387 0.18203862 0.13336073 -0.00019683322 -0.28479794 0.3824802 0.1505314 -0.83978814 -0.51322514 0.2785501 0.24998009 0.039205913 0.034733467 -0.12109312 -0.29254955 -0.06036364 -0.077152416 0.18899393 0.6702882 -0.16403812 -0.04726338 -0.20358908 0.12523846 -0.061692014
control -0.06797456 0.09801926 -0.15586278 0.15728775 -0.33751372 -0.50316113 -0.45756936 0.19223414 0.15408736 -0.007740728 -0.3051338 0.41477045 0.13030902 -0.8750368 -0.49743316 0.28003734 0.2589466 0.022969523 0.038037628 -0.15903421 -0.31562784 -0.03568271 -0.08936399 0.16856928 0.6580017 -0.16410212 -0.04113607 -0.24520989 0.08742141 -0.057916485
encuentra -0.05936105 0.12042472 -0.13435026 0.15575992 -0.3178049 -0.5054902 -0.45714185 0.15768224 0.14698926 -0.02148303 -0.26695272 0.4056123 0.14326993 -0.84508497 -0.5156226 0.2675924 0.2300853 0.049397323 0.033403527 -0.14970471 -0.30010334 -0.01898269 -0.093672164 0.21021238 0.6440576 -0.15773569 -0.039269727 -0.21596645 0.12461292 -0.10157295
opcion -0.0751621 0.08480532 -0.12402039 0.15904287 -0.31240153 -0.49935865 -0.46931452 0.17486659 0.13613348 -0.011469192 -0.27313933 0.3895219 0.14481008 -0.8354217 -0.52677214 0.26206324 0.23836488 0.0669931 0.05635524 -0.15238799 -0.3042985 -0.04277708 -0.07935681 0.19983035 0.6554769 -0.12959786 -0.031964023 -0.23769152 0.12058986 -0.08853499
unico -0.06446821 0.11400292 -0.15574509 0.15755194 -0.32229754 -0.5029731 -0.43683472 0.18495902 0.12701932 -0.025275847 -0.2685016 0.38393858 0.12246287 -0.87891346 -0.5282141 0.2853734 0.25972283 0.06067714 0.03135539 -0.13248077 -0.29119638 -0.04171065 -0.073381856 0.18810888 0.6592876 -0.17043121 -0.036007356 -0.23435715 0.123861626 -0.07696926
plataformas -0.06487251 0.09416174 -0.13134499 0.16692181 -0.328933 -0.5112246 -0.46088153 0.15188392 0.1158134 -0.023849415 -0.27619582 0.38199407 0.14877084 -0.834337 -0.5208614 0.27697316 0.24499886 0.06453766 0.05152342 -0.13184272 -0.30887243 -0.03066994 -0.06628154 0.19848937 0.6683807 -0.17037874 -0.032667533 -0.21389024 0.08887785 -0.06503571
correos -0.09448592 0.080923215 -0.15175226 0.13474582 -0.30479342 -0.52428234 -0.47222462 0.17931102 0.14289829 -0.026057139 -0.30039102 0.38661674 0.14379588 -0.86169076 -0.48643517 0.26206687 0.24242534 0.046599977 0.023263033 -0.13705164 -0.31051433 -0.040116154 -0.066712536 0.18148617 0.6648775 -0.16755028 -0.042379573 -0.22457239 0.11899955 -0.075174324
pueda -0.0841209 0.11852137 -0.1567384 0.14055787 -0.2965046 -0.5316973 -0.4726582 0.17834522 0.15288505 -0.031043315 -0.2960642 0.38635275 0.13860798 -0.8411227 -0.51010084 0.26023334 0.2538086 0.033259835 0.018342461 -0.10954972 -0.28819895 -0.056229603 -0.09452854 0.17667355 0.6564374 -0.15389861 -0.06269943 -0.21288468 0.10025502 -0.0741107
equipo -0.09205708 0.11474636 -0.1347995 0.17382213 -0.31534576 -0.5115012 -0.46014225 0.17966153 0.12752678 0.014372398 -0.2687703 0.4202703 0.1322878 -0.8795264 -0.51495796 0.2725939 0.24539638 0.03420101 0.05823649 -0.12449358 -0.2937867 -0.07036923 -0.08339315 0.172074 0.66606927 -0.16194506 -0.03949397 -0.25276437 0.13280252 -0.09873603
cargar -0.060890704 0.11657466 -0.13167658 0.16003804 -0.3257623 -0.50609344 -0.4514394 0.1571729 0.1250208 -0.030901825 -0.29282218 0.40570685 0.13314979 -0.8530251 -0.5008415 0.2790768 0.22030823 0.043533314 0.043946028 -0.13580386 -0.2910967 -0.048505038 -0.050838754 0.1780309 0.6696297 -0.15917036 -0.053356543 -0.1958429 0.10835674 -0.06585905
propuesta -0.08373687 0.10804929 -0.16482694 0.15732946 -0.32239985 -0.50696474 -0.43894655 0.18363178 0.14914072 0.01977221 -0.29247344 0.42326945 0.12973033 -0.8865453 -0.50616014 0.24343054 0.25038597 0.038662627 0.030571982 -0.14659119 -0.30074534 -0.035678793 -0.08283688 0.17466791 0.63564247 -0.19097073 -0.066626005 -0.21505843 0.10480242 -0.05268481
social -0.05279864 0.09904656 -0.16901423 0.16402747 -0.3441099 -0.5256232 -0.45267344 0.19445218 0.13598797 -0.02777248 -0.29449025 0.40243217 0.138231 -0.8425082 -0.48892358 0.24150673 0.23887703 0.062260702 0.043635644 -0.13846676 -0.30386576 -0.04566938 -0.092399344 0.21082333 0.66509295 -0.17732438 -0.052937653 -0.20163588 0.15099981 -0.06921734
representante -0.08480565 0.08779757 -0.15031278 0.1553631 -0.31052095 -0.5409773 -0.46436396 0.19832721 0.1429842 -0.030846313 -0.2641555 0.4178669 0.10293495 -0.854571 -0.523592 0.24654564 0.23602861 0.06166588 0.040471762 -0.16583021 -0.28895178 -0.057623718 -0.06434405 0.19893186 0.6646234 -0.13936658 -0.032805264 -0.22830246 0.13744256 -0.09751075
ingreso -0.06707708 0.109622665 -0.15671922 0.16332148 -0.33464497 -0.53625244 -0.44681403 0.17339922 0.15494384 -0.022560827 -0.30993858 0.38911805 0.14202546 -0.8552286 -0.50417435 0.27727804 0.25955603 0.04951158 0.020724729 -0.122350246 -0.28986612 -0.040418256 -0.081966735 0.17333925 0.66012716 -0.16737926 -0.071793675 -0.24022803 0.13513556 -0.061300512
experiencia -0.08255182 0.09494882 -0.1286701 0.15271202 -0.30245352 -0.5128529 -0.46572262 0.19344096 0.13452433 -0.022368724 -0.29972678 0.3752912 0.11298293 -0.85522556 -0.53451616 0.27204123 0.2307396 0.058709856 0.030534329 -0.14823262 -0.3177938 -0.04636722 -0.044764604 0.1994032 0.67878765 -0.14152828 -0.046068087 -0.19118798 0.09186166 -0.0816079
encargada -0.093084246 0.09455432 -0.15078272 0.13686016 -0.32161376 -0.5088959 -0.48805496 0.16594099 0.12476416 0.010647474 -0.2673712 0.38330534 0.14296359 -0.8362132 -0.5337417 0.27423143 0.25434467 0.05382197 0.039374918 -0.15666248 -0.28112584 -0.036705263 -0.07931249 0.19915095 0.6344805 -0.15352952 -0.03126313 -0.21109308 0.09964344 -0.08416342
error -0.055158038 0.1385429 -0.17274407 0.17979065 -0.34139296 -0.5011361 -0.4501747 0.14885326 0.11877157 -0.006618725 -0.2855091 0.3756602 0.13692561 -0.8752601 -0.510644 0.24977346 0.26121756 0.04238839 0.023238322 -0.14182658 -0.29314515 -0.048653487 -0.06002015 0.19948973 0.64110374 -0.14225295 -0.046172675 -0.2316837 0.106472075 -0.079073936
licitacion -0.07083087 0.13233188 -0.16368848 0.15222344 -0.3136558 -0.49553144 -0.46182474 0.18429632 0.120086096 -0.0053974297 -0.27886456 0.410607 0.11765786 -0.8343764 -0.5210517 0.26319212 0.2633565 0.053785518 0.059210755 -0.1402609 -0.32421774 -0.050780468 -0.061304756 0.19274059 0.6520288 -0.15292215 -0.065911114 -0.21214733 0.116788946 -0.09993382
confirmar -0.06761724 0.09474272 -0.14925969 0.15708572 -0.30487427 -0.5256193 -0.45433915 0.18156463 0.14494555 -0.022790272 -0.27995053 0.41679716 0.12943262 -0.86713576 -0.5144989 0.2602845 0.26015994 0.03715858 0.060016353 -0.12219204 -0.31058615 -0.029265037 -0.083518654 0.1927462 0.68023264 -0.16874613 -0.05667319 -0.23805094 0.11091892 -0.066822246
acceso -0.07595064 0.11643366 -0.15250143 0.15550134 -0.33245355 -0.52082646 -0.46655434 0.15113227 0.14054678 -0.019368723 -0.3185009 0.40984792 0.100920655 -0.8679502 -0.51372516 0.25612855 0.24142529 0.0278919 0.039703105 -0.15998968 -0.30716893 -0.027889432 -0.068972014 0.18777096 0.66944385 -0.18608119 -0.046998594 -0.22561517 0.088141866 -0.04904128
consulta -0.06527121 0.08996482 -0.15012476 0.1574333 -0.3035074 -0.53414226 -0.47367525 0.16012125 0.12431317 -0.0015399315 -0.29365265 0.40561286 0.1325425 -0.8456365 -0.53182304 0.28115928 0.2451979 0.0385816 0.058461934 -0.1262056 -0.2889937 -0.03327607 -0.09072512 0.17427613 0.683007 -0.16792232 -0.036532916 -0.21640912 0.12910882 -0.07552947
abastecimiento -0.07638615 0.12555821 -0.16090795 0.175394 -0.3280769 -0.5293156 -0.45939633 0.16833062 0.14921002 -0.014988323 -0.29829842 0.3999991 0.14659172 -0.845398 -0.52045035 0.28068733 0.2599097 0.03724716 0.063021556 -0.15002167 -0.29252547 -0.06444046 -0.062500395 0.1948936 0.64732033 -0.15165646 -0.07218213 -0.20882414 0.11278161 -0.06002883
dices -0.062449414 0.12257261 -0.13126943 0.1661726 -0.31639364 -0.53385913 -0.44522324 0.18449205 0.14742415 0.0028979252 -0.28190267 0.42937618 0.12547411 -0.8513591 -0.5345464 0.24982253 0.23295909 0.043810837 0.028248549 -0.14185126 -0.29835615 -0.053917997 -0.066431195 0.1960939 0.67104954 -0.15280539 -0.037544545 -0.24126497 0.13684897 -0.087603614
permitame -0.084425576 0.10156054 -0.15355691 0.1510264 -0.2960869 -0.5135599 -0.4659216 0.15752785 0.12422882 0.00096322334 -0.28394407 0.41785738 0.114535905 -0.8956725 -0.50037044 0.25474557 0.22846176 0.056006797 0.056952532 -0.116529755 -0.2999516 -0.057848126 -0.067704774 0.20248923 0.665769 -0.16997544 -0.03786046 -0.22170575 0.095551886 -0.086524025
perder -0.07427319 0.09763514 -0.16190375 0.15058501 -0.3140768 -0.50985634 -0.4643515 0.18723214 0.15594368 -0.023269994 -0.3010061 0.3985765 0.1168059 -0.87850916 -0.52032024 0.24632311 0.2567149 0.025289489 0.041881386 -0.14367971 -0.2871528 -0.052502494 -0.067043014 0.20344274 0.6474652 -0.17215827 -0.052697178 -0.2398416 0.10515873 -0.054774847
llegar -0.0830038 0.10527985 -0.15125328 0.15040842 -0.33766237 -0.52607536 -0.47019315 0.1820381 0.14292711 0.007045429 -0.2737671 0.4271664 0.12182197 -0.8645261 -0.5338153 0.26285645 0.27027947 0.030921554 0.057140715 -0.13845055 -0.30401927 -0.04530418 -0.054515403 0.17727783 0.64417106 -0.16282676 -0.042076565 -0.238709 0.1013627 -0.08293339
enviaron -0.054381113 0.13564625 -0.15576538 0.18623254 -0.31949362 -0.5281016 -0.46810865 0.18498282 0.13839564 -0.020421041 -0.31254852 0.40433016 0.14656582 -0.88411534 -0.5234736 0.2688014 0.23592192 0.030932328 0.04507493 -0.112312116 -0.29326683 -0.042981397 -0.07445467 0.1832823 0.6756255 -0.17751797 -0.048248857 -0.24659394 0.08899472 -0.08294575
provee -0.08458882 0.101132445 -0.16098936 0.17337583 -0.29598185 -0.5117112 -0.44899875 0.18636818 0.1337318 0.0029007113 -0.28277272 0.39798558 0.13736826 -0.8439448 -0.52632606 0.27913576 0.2549215 0.05830478 0.05320023 -0.14912422 -0.28108135 -0.038792465 -0.076343104 0.20631237 0.6553476 -0.17011097 -0.033089105 -0.22953846 0.09050098 -0.07871804
internet -0.05901498 0.10134879 -0.13855365 0.16339602 -0.3139175 -0.5203752 -0.45432755 0.160478 0.15199439 -0.021643918 -0.28996935 0.41109833 0.12583277 -0.84864706 -0.530685 0.24957135 0.26637712 0.042617675 0.035814784 -0.13419491 -0.3164116 -0.057295594 -0.066607855 0.18867633 0.6787414 -0.15463486 -0.053849027 -0.22357723 0.11288243 -0.07604748
contratista -0.072906464 0.0937368 -0.14361054 0.14129396 -0.3225357 -0.49746695 -0.45423827 0.1731443 0.14327897 0.00069683185 -0.30483857 0.40783137 0.13785441 -0.8749086 -0.50738865 0.24587557 0.23706476 0.05265463 0.0348182 -0.14385122 -0.3052076 -0.06507077 -0.068884715 0.18094574 0.65749025 -0.17993051 -0.06917317 -0.22005981 0.0938383 -0.08702239
pendiente -0.092692465 0.12282117 -0.1354912 0.1671505 -0.31681633 -0.5062073 -0.45607933 0.18463686 0.12560326 -0.03128438 -0.26984867 0.39516947 0.121057436 -0.8535089 -0.52004665 0.25963184 0.2139171 0.04189048 0.041142806 -0.12642829 -0.3099379 -0.060439643 -0.09146931 0.1840297 0.6774836 -0.14483203 -0.059928466 -0.22280824 0.10020743 -0.09794343
queda -0.06967973 0.114639945 -0.13491477 0.1706638 -0.34119916 -0.54089624 -0.4801017 0.19140778 0.13069959 -0.011762649 -0.28104776 0.40249383 0.14576599 -0.8552313 -0.53488034 0.26227754 0.23896646 0.04562894 0.02422647 -0.12363049 -0.29799202 -0.045388352 -0.076738656 0.17645176 0.6773716 -0.18100676 -0.06533267 -0.22905588 0.12046708 -0.0885085
perfil -0.07870305 0.09887685 -0.137815 0.15020853 -0.30312812 -0.53045374 -0.46821058 0.1901969 0.12859857 -0.021144751 -0.29751688 0.41678524 0.13825007 -0.83250064 -0.5110749 0.2717833 0.22674623 0.054048926 0.036556836 -0.12786968 -0.28237543 -0.05471582 -0.05753713 0.18181765 0.6637753 -0.16923028 -0.036084093 -0.2312973 0.117823005 -0.07203872
comunicacion -0.057146333 0.10970161 -0.15223482 0.14410244 -0.3192483 -0.52589077 -0.4563981 0.16215026 0.14242595 -0.026933037 -0.2782759 0.39609554 0.12025355 -0.842791 -0.5257076 0.27638838 0.23645607 0.059466545 0.024888221 -0.11738729 -0.32201424 -0.05405099 -0.061155442 0.20355695 0.65993685 -0.14948674 -0.06339189 -0.21994668 0.09744213 -0.066694155
productos -0.08444737 0.11012094 -0.17111552 0.129992 -0.3119977 -0.5315392 -0.4480262 0.16748221 0.14431788 -0.013675551 -0.29413453 0.4159696 0.110879414 -0.8177129 -0.51979375 0.23730606 0.23450081 0.07340678 0.014092356 -0.16724868 -0.2773987 -0.02948588 -0.059990387 0.17224248 0.66473305 -0.17097811 -0.048424624 -0.2395938 0.092158005 -0.09209655
situacion -0.0779907 0.10290151 -0.12755059 0.16571164 -0.33733535 -0.50154954 -0.48285767 0.1630813 0.14028437 -0.02044253 -0.25080892 0.4074973 0.13721861 -0.8690168 -0.5370235 0.25802442 0.23888673 0.021899376 0.05343808 -0.110028796 -0.292648 -0.048916467 -0.08079115 0.19539525 0.6670662 -0.15637186 -0.06566047 -0.23393163 0.1199855 -0.07495969
completo -0.07411339 0.12487097 -0.1450948 0.14916602 -0.32253098 -0.53318435 -0.4758663 0.17930953 0.121803485 -0.035821643 -0.2741933 0.39841536 0.12640557 -0.87589407 -0.5108048 0.23837036 0.22596121 0.04048931 0.05624814 -0.15412062 -0.30226085 -0.02825264 -0.04821567 0.170234 0.67217815 -0.1809468 -0.02887429 -0.24199118 0.10884466 -0.08453886
comunicar -0.08811233 0.09507013 -0.16296366 0.13619485 -0.287986 -0.525997 -0.43865362 0.1866055 0.12133957 0.004715542 -0.28926405 0.40363055 0.11175358 -0.85244364 -0.503474 0.28829813 0.2502166 0.021698888 0.032547392 -0.13096906 -0.27942196 -0.04206246 -0.08052547 0.17711064 0.6254697 -0.17891489 -0.042993937 -0.24601552 0.1115447 -0.09349764
final -0.08552255 0.1006053 -0.1402191 0.14047785 -0.33215538 -0.5268898 -0.4554874 0.1842576 0.16273473 -0.027492745 -0.29664373 0.40001202 0.13493507 -0.8382765 -0.5073271 0.24885212 0.26650473 0.07351463 0.029230181 -0.124011576 -0.30367512 -0.06262458 -0.064077795 0.1943709 0.68246514 -0.15367098 -0.042173564 -0.23292181 0.09967232 -0.09538068
realizar -0.06553379 0.11146694 -0.12827246 0.14530881 -0.29930726 -0.51118034 -0.4543184 0.17597753 0.11951369 -0.02727171 -0.29201743 0.40811327 0.1401452 -0.826865 -0.51238143 0.25417262 0.23135364 0.034840558 0.033754524 -0.13356051 -0.294054 -0.034744 -0.079451665 0.19078787 0.6656723 -0.17180724 -0.054695036 -0.21181169 0.09427995 -0.08843049
revisar -0.093760006 0.12201112 -0.14626637 0.13574043 -0.29522905 -0.5184076 -0.48004052 0.1818969 0.15275717 -0.03225007 -0.2955941 0.42251617 0.12156396 -0.87029403 -0.505325 0.25875735 0.2331661 0.041562703 0.036180276 -0.14221679 -0.30171654 -0.06138231 -0.06658383 0.20428552 0.6504577 -0.16484591 -0.06705182 -0.24487571 0.12247388 -0.085403614
colaborar -0.05532108 0.08236487 -0.15600008 0.1431842 -0.32797235 -0.5078443 -0.4441731 0.17820953 0.143146 -0.013479274 -0.2794312 0.38842717 0.11930093 -0.85840356 -0.5102986 0.24855943 0.23009644 0.029595146 0.04711714 -0.13531207 -0.29493988 -0.02589264 -0.08829284 0.1968987 0.64186895 -0.1854976 -0.05844159 -0.20367531 0.11158938 -0.105191484
entro -0.09664941 0.08188732 -0.15059242 0.14138183 -0.3122781 -0.5381171 -0.47635582 0.16245885 0.12723061 -0.012575007 -0.29441145 0.3804914 0.10881091 -0.8401775 -0.53524864 0.25382707 0.2519955 0.044136636 0.031692244 -0.12738289 -0.28803664 -0.029028332 -0.07939593 0.1820154 0.64915884 -0.18135181 -0.048034724 -0.24231635 0.12261973 -0.04943658
partes -0.061315108 0.114856385 -0.12883878 0.1568562 -0.3081687 -0.5195568 -0.47720557 0.20484339 0.14268644 0.008583353 -0.27244458 0.433095 0.14376657 -0.8483927 -0.5311511 0.25398198 0.25778434 0.041792613 0.05942675 -0.13696012 -0.3303913 -0.06650589 -0.06672383 0.19247231 0.6742028 -0.15258849 -0.028916107 -0.2341444 0.12962079 -0.057177328
credito -0.081844375 0.11237507 -0.12467135 0.15286726 -0.32815114 -0.518592 -0.4791346 0.1849674 0.14140265 -0.001851306 -0.284245 0.40764058 0.13484858 -0.85467154 -0.5202145 0.25909212 0.25524318 0.067063384 0.033083286 -0.14068393 -0.29498562 -0.020858888 -0.058321685 0.18412523 0.6707658 -0.18422131 -0.043445777 -0.23200254 0.10462706 -0.09129048
formacion -0.07798104 0.0893922 -0.14225961 0.16724199 -0.31082866 -0.54776555 -0.4799921 0.16733618 0.11875275 -0.0031278983 -0.28846338 0.38626632 0.13474871 -0.8880884 -0.524146 0.29331073 0.23766074 0.041037437 0.035244882 -0.15557085 -0.29975295 -0.02701059 -0.06448024 0.19998568 0.6697059 -0.15163288 -0.031051807 -0.2203907 0.09321306 -0.081515364
categoria -0.09722649 0.11355474 -0.13584824 0.14436892 -0.3082425 -0.52213407 -0.47755504 0.16229391 0.14440116 -0.036450367 -0.2655917 0.4001588 0.10872372 -0.8416267 -0.5284133 0.23134671 0.2542194 0.055239655 0.048052263 -0.14467762 -0.28856677 -0.024265163 -0.067011446 0.20207326 0.68553406 -0.16327679 -0.037799902 -0.23845898 0.13557662 -0.08821629
entra -0.06002715 0.106546484 -0.13116096 0.17111248 -0.3026361 -0.5152273 -0.4634489 0.18521175 0.15454137 -0.03279744 -0.3019408 0.41524646 0.12027188 -0.8562501 -0.5287801 0.25098625 0.23698714 0.03052915 0.027518138 -0.12690578 -0.30427754 -0.03172009 -0.05857934 0.18492366 0.6562162 -0.14424628 -0.052459836 -0.23261592 0.094725266 -0.066559635
termino -0.078867264 0.10669906 -0.16864432 0.14018497 -0.33641124 -0.5434108 -0.45440125 0.16924131 0.12018357 -0.019763598 -0.29477432 0.42251217 0.12115304 -0.8648624 -0.5381709 0.26719472 0.23181923 0.044249747 0.056184173 -0.15343247 -0.3259701 -0.05887979 -0.08499358 0.20404427 0.6569188 -0.14749344 -0.05301297 -0.23797463 0.112251155 -0.06597849
unica -0.09483442 0.090568945 -0.15628986 0.13701557 -0.31575024 -0.5173196 -0.46161872 0.16027433 0.11783196 -0.023174597 -0.27972445 0.39222583 0.116743594 -0.87503976 -0.52901524 0.26472226 0.23345737 0.027180284 0.029301198 -0.13219559 -0.3026544 -0.045899805 -0.07023341 0.19678694 0.67527384 -0.18531547 -0.033618376 -0.21943256 0.10750099 -0.073874794
carga -0.09147957 0.1196747 -0.1355935 0.14464033 -0.31001452 -0.51616216 -0.4838576 0.17355707 0.12555295 -0.0048280098 -0.26961264 0.41852117 0.14741102 -0.86110795 -0.5511435 0.2747143 0.24503049 0.07026193 0.02477932 -0.13960719 -0.31515294 -0.06423479 -0.080915116 0.19755332 0.6875449 -0.18332532 -0.04804961 -0.21292394 0.11898555 -0.0604778
codigo -0.094718724 0.10477993 -0.15962967 0.13721773 -0.31316745 -0.51337624 -0.46635014 0.16478506 0.13097309 0.003660837 -0.28533477 0.3955285 0.124435335 -0.8711208 -0.5347569 0.2530771 0.25966018 0.028113555 0.022749178 -0.1353696 -0.30805 -0.045303576 -0.06273867 0.17518336 0.65175384 -0.14347228 -0.033141587 -0.2518814 0.11492944 -0.069619805
financieros -0.08615867 0.1044619 -0.13365762 0.14360735 -0.32336622 -0.535853 -0.455258 0.16908659 0.13544567 -0.04600775 -0.2938347 0.42987037 0.11789297 -0.8599443 -0.5060407 0.26847836 0.20266578 0.056147516 0.039241448 -0.10516205 -0.3058638 -0.03791526 -0.04624867 0.18005347 0.7132609 -0.1307045 -0.015869696 -0.23240504 0.11446643 -0.04670114
posible -0.054666404 0.12016574 -0.16195458 0.14993429 -0.309472 -0.509773 -0.44680655 0.16473909 0.1225713 -0.00064721314 -0.2556734 0.39214793 0.120456725 -0.85231966 -0.53371054 0.2552899 0.23307677 0.044795047 0.028891768 -0.14605074 -0.31371552 -0.04011277 -0.06835587 0.1933175 0.65915614 -0.14520945 -0.031667694 -0.23709188 0.10250408 -0.09206611
recibir -0.054161534 0.08734837 -0.1433423 0.14924838 -0.31361258 -0.5131941 -0.4547699 0.1729832 0.11766738 -0.0118454555 -0.2751117 0.3935846 0.142466 -0.8757025 -0.5249071 0.25642124 0.24596636 0.049077395 0.04313861 -0.13021879 -0.2978006 -0.036654532 -0.05999101 0.19281068 0.6763244 -0.15524185 -0.04752454 -0.21991374 0.09550335 -0.0977619
ultima -0.07041961 0.11981962 -0.13252205 0.15908077 -0.3036689 -0.5037791 -0.46856394 0.16016848 0.15201294 -0.009402471 -0.28759727 0.4041816 0.14530142 -0.85527134 -0.51753545 0.2777873 0.22376865 0.041655056 0.045769367 -0.13064738 -0.2871528 -0.038161587 -0.0538129 0.19590442 0.674373 -0.14286062 -0.06894065 -0.21828528 0.103198275 -0.09016614
contratos -0.08788572 0.08452899 -0.16335398 0.17627627 -0.3287605 -0.49359906 -0.4345457 0.17198306 0.13782522 -0.016385658 -0.2925171 0.38879776 0.15066418 -0.8801963 -0.49710885 0.25500125 0.23691763 0.061638497 0.03535639 -0.12177042 -0.31882963 -0.029625814 -0.08392412 0.17617358 0.68565196 -0.1804917 -0.054401312 -0.21165387 0.09029954 -0.10118717
contractual -0.06216256 0.110503 -0.17938197 0.12990835 -0.32832807 -0.5012575 -0.43322065 0.15921482 0.13013254 -0.01794187 -0.3108801 0.4158239 0.114849955 -0.8904614 -0.4830247 0.25652146 0.25563484 0.06276395 0.035304073 -0.15629105 -0.2999217 -0.061669897 -0.07147105 0.19741529 0.6935149 -0.15939485 -0.06928118 -0.22134055 0.09527817 -0.08899002
precio -0.10054934 0.09185657 -0.15680712 0.17813468 -0.3145431 -0.51583004 -0.46561858 0.18000643 0.13646811 0.0004425606 -0.3013507 0.38459343 0.117146924 -0.88127977 -0.5221024 0.25869077 0.26860753 0.04424134 0.02682895 -0.12836821 -0.29834795 -0.03741261 -0.07958594 0.20590149 0.6717201 -0.16608456 -0.060785968 -0.21350573 0.13219766 -0.07274742
relacion -0.08633898 0.094858415 -0.1415905 0.14488612 -0.3284111 -0.53848004 -0.4531553 0.21156238 0.14162444 -0.007745261 -0.27650285 0.4003878 0.1172115 -0.8732928 -0.50768715 0.24845178 0.26382035 0.032097142 0.024432376 -0.1498575 -0.293118 -0.03740667 -0.05660222 0.20254631 0.6537129 -0.19018699 -0.052523423 -0.22429274 0.12906563 -0.05937805
fecha -0.08152406 0.1288539 -0.1481128 0.15873037 -0.32066372 -0.52829796 -0.47606605 0.17187971 0.14963457 -0.044208672 -0.29457244 0.42658368 0.12724903 -0.8828963 -0.5396475 0.2643513 0.21960936 0.053610906 0.056217097 -0.12502556 -0.2971815 -0.06717219 -0.06277616 0.18434678 0.6906088 -0.15080665 -0.06413281 -0.21059255 0.11104299 -0.1003156
especial -0.100032546 0.112582594 -0.15578955 0.15367723 -0.35152912 -0.5270184 -0.46542886 0.20106669 0.15205097 -0.014618184 -0.285772 0.3947015 0.11493978 -0.89286745 -0.5415044 0.27023864 0.24415185 0.05888021 0.061988633 -0.11752296 -0.3030605 -0.051119648 -0.07471289 0.21013807 0.6738474 -0.17321174 -0.04881028 -0.23131098 0.124508776 -0.092378855
minutos -0.06648641 0.12057076 -0.16241941 0.17429891 -0.32578364 -0.50201315 -0.45160088 0.18382129 0.1408655 -0.025537258 -0.2861883 0.40802976 0.120126426 -0.86700684 -0.52190393 0.2749074 0.22812703 0.019597497 0.055171367 -0.13150007 -0.31127188 -0.058077578 -0.09251181 0.19326751 0.65733284 -0.1845744 -0.047762696 -0.22317411 0.11389577 -0.05891337
senal -0.08949888 0.09101846 -0.15158956 0.16570947 -0.29143682 -0.52036494 -0.46726558 0.15413241 0.12429881 -0.024486335 -0.2976985 0.41523966 0.12984681 -0.8372303 -0.52021915 0.25077638 0.2498273 0.040956806 0.056840476 -0.114370875 -0.30939302 -0.063994065 -0.06554874 0.17515512 0.66965324 -0.15084045 -0.049546227 -0.23558985 0.12961482 -0.06779115
portafolio -0.083788134 0.11740205 -0.15224338 0.15548831 -0.3153434 -0.54206586 -0.4585512 0.19598792 0.12246285 0.0096954815 -0.28289473 0.39599633 0.15468672 -0.8803927 -0.5133782 0.2771238 0.24844141 0.05096427 0.02608049 -0.1523133 -0.2796256 -0.031166261 -0.06463441 0.20598853 0.6613563 -0.16437359 -0.04425019 -0.20723239 0.0890139 -0.081041075
efecto -0.09162866 0.09154332 -0.15938988 0.14306545 -0.32541645 -0.5222374 -0.44923097 0.18798687 0.1468596 -0.0036166925 -0.2736822 0.4056807 0.13741864 -0.8488577 -0.5257249 0.2553656 0.23882549 0.043994214 0.056790825 -0.12518387 -0.30634394 -0.036066603 -0.05795842 0.18458149 0.6731131 -0.1731376 -0.024404101 -0.22609346 0.11459522 -0.07974244
deben -0.08617086 0.111870185 -0.14530107 0.14562812 -0.30319095 -0.5304283 -0.46610373 0.16626589 0.13785128 -0.030770509 -0.30266038 0.4063507 0.116848394 -0.85874814 -0.5126726 0.28821978 0.23839389 0.037440095 0.04573788 -0.13724256 -0.29418513 -0.03166043 -0.09586006 0.20301914 0.67229766 -0.18081403 -0.059716705 -0.21208169 0.10379541 -0.08652075
confirmo -0.06126867 0.08015407 -0.154368 0.12034328 -0.31044275 -0.53027326 -0.44964314 0.17066863 0.14976236 0.027623883 -0.28983903 0.4000851 0.14154305 -0.890149 -0.52935 0.2672008 0.25518587 0.04400219 0.031770762 -0.1304186 -0.29633358 -0.033663116 -0.0750792 0.1630904 0.6575145 -0.17093822 -0.0677519 -0.26392832 0.10253814 -0.08708103
solicitarrndo -0.08692091 0.10165961 -0.1440849 0.16031432 -0.32626504 -0.5188952 -0.47948697 0.19311263 0.1485508 -0.015392616 -0.27568164 0.41919813 0.14033526 -0.87464523 -0.49944186 0.27414253 0.22646405 0.05617236 0.05097245 -0.1493794 -0.3102457 -0.032027636 -0.09136045 0.18344161 0.68057275 -0.17111109 -0.033706356 -0.22587246 0.09638663 -0.057124846
revisado -0.06937113 0.10417946 -0.15738241 0.16286562 -0.30402598 -0.490562 -0.47640866 0.1582741 0.12625684 -0.038217794 -0.28633183 0.4156283 0.14475136 -0.85524637 -0.52511626 0.27645665 0.24784812 0.05367713 0.045307107 -0.107880704 -0.28815848 -0.032129016 -0.09467977 0.1753874 0.6645075 -0.1488717 -0.042595036 -0.22005624 0.11933534 -0.09704017
oficina -0.105614625 0.09280117 -0.120788075 0.16731885 -0.30330372 -0.5263055 -0.47662818 0.1669907 0.1301058 -0.0329168 -0.3105566 0.39626783 0.15019207 -0.8373854 -0.53176636 0.29298568 0.2734653 0.06778983 0.07068407 -0.1083869 -0.2691969 -0.028033389 -0.09305654 0.18006101 0.6657895 -0.1753092 -0.04271803 -0.20207338 0.14292693 -0.09867554
escribir -0.050512277 0.106576174 -0.15662134 0.17067564 -0.31320885 -0.50182974 -0.4450639 0.18534677 0.13140081 -0.022951432 -0.309506 0.41912484 0.12720498 -0.8836522 -0.50256425 0.2816689 0.22529957 0.06775052 0.027604198 -0.1280412 -0.32504562 -0.019319871 -0.07329241 0.20462924 0.6623441 -0.1398036 -0.05073522 -0.23212054 0.11091669 -0.0575083
formulario -0.09360562 0.10331668 -0.15873915 0.1211021 -0.33063224 -0.50336885 -0.46310693 0.18887049 0.18810277 -0.03091897 -0.31803066 0.4264876 0.10685951 -0.8639846 -0.52697444 0.23273921 0.27789515 0.04913016 0.06443144 -0.16185868 -0.29645485 -0.063933946 -0.038486898 0.17772228 0.6764091 -0.15768678 -0.08089675 -0.19963993 0.10062219 -0.105549924
listos -0.09430985 0.08867745 -0.15980227 0.14230347 -0.29948315 -0.5053982 -0.48415366 0.16500159 0.15739362 -0.0049804887 -0.29815817 0.42742178 0.120872654 -0.8895362 -0.52110606 0.2806619 0.25279415 0.017618882 0.021520518 -0.13497534 -0.30165142 -0.028297339 -0.0490915 0.17381157 0.6791349 -0.17830075 -0.045934577 -0.2229045 0.121630885 -0.09094243
inicio -0.088511065 0.12366536 -0.12830035 0.13674541 -0.3100426 -0.5159512 -0.4720015 0.17234047 0.15988097 -0.011660685 -0.26876262 0.3898805 0.1359804 -0.85218084 -0.49835128 0.24861905 0.24545059 0.048714258 0.050149065 -0.13338786 -0.2975689 -0.0381523 -0.08417004 0.18627901 0.6763004 -0.17665575 -0.049850468 -0.23673737 0.09856807 -0.071245864
contar -0.052823365 0.08479549 -0.15738098 0.16043964 -0.30897895 -0.5330793 -0.44264132 0.16594006 0.12938559 -0.0133243725 -0.284172 0.42162183 0.15025999 -0.84334034 -0.5074319 0.24790002 0.23417951 0.048102 0.029176172 -0.14935164 -0.3135406 -0.04623683 -0.056353033 0.18665297 0.6807725 -0.1648392 -0.059035916 -0.22595619 0.09263487 -0.08417854
necesitamos -0.06415986 0.08160671 -0.12855156 0.16752872 -0.32416844 -0.5139998 -0.42668316 0.1555494 0.14678672 -0.022499127 -0.275721 0.41247863 0.1043472 -0.8476692 -0.5054866 0.27737492 0.2515429 0.041765608 0.028156424 -0.115384236 -0.30788746 -0.055108476 -0.092643045 0.18534887 0.6464199 -0.15318032 -0.0298425 -0.23543797 0.11883606 -0.07543081
carpeta -0.08229436 0.11346284 -0.16133963 0.15855575 -0.32605645 -0.5282306 -0.45380154 0.19178364 0.13248937 -0.012180363 -0.2752374 0.38286713 0.10877086 -0.83826774 -0.5215055 0.28253025 0.23538359 0.06280265 0.028382484 -0.12141227 -0.3145356 -0.042985093 -0.044654503 0.19445057 0.68029636 -0.15986148 -0.0504806 -0.20968007 0.12625203 -0.052404176
comunicarme -0.0638449 0.07689412 -0.13895968 0.16200362 -0.28791943 -0.52237594 -0.4434214 0.17683817 0.13993874 -0.0097076455 -0.25686815 0.40725324 0.13599798 -0.8416265 -0.52718616 0.27135405 0.26031628 0.011292934 0.060006306 -0.10678952 -0.30504584 -0.045003865 -0.04980642 0.1924037 0.667336 -0.1734447 -0.05458412 -0.23550297 0.12952936 -0.102802224
enviado -0.07139523 0.09627471 -0.13069303 0.14944264 -0.33448482 -0.5207639 -0.49215865 0.19959576 0.13167125 -0.011217878 -0.28083095 0.39276862 0.112616725 -0.8542268 -0.54822373 0.26905406 0.22864227 0.028004859 0.06075599 -0.10528228 -0.31806746 -0.061652116 -0.056665346 0.20526268 0.65223765 -0.15406714 -0.03773363 -0.2221003 0.13305302 -0.059568997
central -0.06373188 0.12777191 -0.17234388 0.16454853 -0.29441738 -0.54286736 -0.47387502 0.17751765 0.12899925 -0.029350417 -0.28330833 0.39424437 0.12235306 -0.8343513 -0.5297275 0.2813215 0.2583027 0.02579696 0.016320636 -0.1454902 -0.29504588 -0.049900953 -0.08829631 0.16486195 0.6609929 -0.16379814 -0.060761508 -0.22333987 0.12137099 -0.070752054
alta -0.064602226 0.108029924 -0.15918984 0.14604121 -0.32812524 -0.50139356 -0.44070387 0.16387412 0.15044507 0.0035686165 -0.3020612 0.41220462 0.13324244 -0.84011334 -0.51143354 0.2679757 0.25455543 0.031085175 0.040949926 -0.13654214 -0.30367988 -0.06230187 -0.08325706 0.17798272 0.6704384 -0.17903881 -0.04576689 -0.21632278 0.1312622 -0.0890537
bienes -0.07740652 0.12380983 -0.1537484 0.15468584 -0.32391515 -0.5425504 -0.4676722 0.19373311 0.16248287 -0.029140776 -0.2710555 0.4223936 0.12755919 -0.84379905 -0.49923387 0.23683 0.2592974 0.047747687 0.02308585 -0.1472261 -0.28362238 -0.07028056 -0.06744023 0.16449395 0.6559037 -0.14304118 -0.0437014 -0.222365 0.085010014 -0.089132614
correr -0.06270501 0.09335116 -0.15281564 0.17635821 -0.33256364 -0.5359381 -0.45202872 0.20597178 0.1238875 -0.007916397 -0.31353182 0.4006192 0.13585465 -0.857382 -0.51303726 0.27772492 0.25014883 0.054641556 0.02770344 -0.1599666 -0.307274 -0.045793273 -0.07628843 0.17801437 0.6561306 -0.1643766 -0.06527024 -0.24944867 0.11746832 -0.08861865
importante -0.087640755 0.11836532 -0.14603668 0.14849986 -0.29639953 -0.52179974 -0.46453404 0.17896429 0.12010833 -0.01103126 -0.28605756 0.42622522 0.11660134 -0.8620747 -0.51550275 0.26817724 0.2421375 0.061046183 0.022422943 -0.112969495 -0.3216769 -0.052236628 -0.058475435 0.20081925 0.6747861 -0.14825718 -0.038451616 -0.242319 0.10810534 -0.07194029
gerente -0.07336004 0.11935213 -0.12604205 0.16777004 -0.3242756 -0.506449 -0.4338358 0.16675115 0.15428652 -0.0022650592 -0.2899418 0.39315698 0.13920017 -0.87928575 -0.51050854 0.24708563 0.2591506 0.02378862 0.037666544 -0.1269332 -0.2907425 -0.034060463 -0.050787058 0.1803565 0.6504002 -0.16827925 -0.02493647 -0.20321631 0.11978666 -0.06883488
digame -0.08806829 0.09565517 -0.15645963 0.14829081 -0.32701975 -0.537091 -0.4533467 0.20207159 0.13190342 -0.026740965 -0.29806316 0.39945325 0.14089406 -0.86047167 -0.54258287 0.25457758 0.24229553 0.05874091 0.04725297 -0.14602579 -0.28245357 -0.04492876 -0.08152534 0.19777177 0.64393324 -0.1548761 -0.026489906 -0.1992348 0.092300825 -0.06005726
encuentro -0.058995385 0.098122954 -0.17172724 0.16304132 -0.29025313 -0.51367646 -0.4421272 0.19093934 0.14138316 -0.019664675 -0.2782067 0.38666645 0.12918046 -0.8367497 -0.5055301 0.26364505 0.25345707 0.029758273 0.026491996 -0.13777912 -0.27773106 -0.04973335 -0.08026049 0.1692756 0.65746814 -0.16472979 -0.05371168 -0.22649986 0.10325145 -0.0868731
compuesto -0.0769996 0.10586615 -0.14422388 0.14801031 -0.32024515 -0.5213452 -0.4770242 0.19458593 0.1365066 -0.0005260539 -0.27402568 0.40673944 0.12899399 -0.8533404 -0.5345444 0.2821023 0.22101176 0.022959461 0.036466543 -0.12191971 -0.31307063 -0.02533221 -0.06861358 0.1875522 0.6361813 -0.17710058 -0.06533549 -0.22942378 0.12388969 -0.08025658
temas -0.089190826 0.12471483 -0.16750808 0.1626975 -0.3236252 -0.5225633 -0.43995368 0.17763114 0.11822762 0.011405171 -0.2815372 0.3772585 0.14721385 -0.85504806 -0.53149414 0.2728729 0.24100876 0.054603986 0.030337121 -0.13889521 -0.27763665 -0.038898382 -0.07128056 0.18033107 0.6585637 -0.16114226 -0.06660901 -0.24199352 0.10445459 -0.08429478
ingeniero -0.06538378 0.112048194 -0.13075122 0.14180456 -0.34176734 -0.53081036 -0.48273084 0.18067537 0.15053429 0.006800853 -0.2911269 0.3815268 0.11652321 -0.84670633 -0.5096975 0.24796359 0.2567091 0.046849925 0.035875574 -0.114681356 -0.31828701 -0.062610306 -0.07158816 0.19480479 0.6693847 -0.14493906 -0.050828855 -0.24360523 0.09343053 -0.09839812
permiten -0.07803895 0.100884646 -0.16676371 0.15876628 -0.34017038 -0.5249664 -0.4839756 0.18052581 0.14905253 -0.03740389 -0.27832428 0.39672285 0.11984855 -0.8827077 -0.5087558 0.2862965 0.25474274 0.030452928 0.034914054 -0.14659974 -0.32635584 -0.045568578 -0.060035966 0.20904496 0.6628654 -0.16764146 -0.062982865 -0.23607872 0.11677865 -0.08717282
intel -0.07390594 0.08755571 -0.16442768 0.17045468 -0.32755747 -0.5026586 -0.47558764 0.16740121 0.13459417 -0.0015780911 -0.28673467 0.39551124 0.13417983 -0.84726644 -0.516179 0.24722125 0.24744785 0.024344476 0.033600822 -0.13938361 -0.31343412 -0.034017444 -0.07659956 0.1784857 0.6676752 -0.15697838 -0.05027921 -0.21402875 0.11372543 -0.07407655
estudio -0.06686274 0.13504067 -0.15889055 0.14183496 -0.3419756 -0.5283312 -0.45222196 0.19128647 0.12443242 0.0006803548 -0.28367147 0.42308456 0.12072034 -0.85049146 -0.5236137 0.27452657 0.23075879 0.033457022 0.064433955 -0.1239711 -0.3251469 -0.03378775 -0.07313248 0.2029122 0.673961 -0.18734634 -0.05127551 -0.23665567 0.087708555 -0.096850105
obviamente -0.0932329 0.09874163 -0.15330306 0.16285457 -0.3081751 -0.5027495 -0.44169202 0.18320961 0.11563132 -0.03313009 -0.2883185 0.40373036 0.13495107 -0.86425996 -0.5336633 0.26174045 0.24022281 0.05309946 0.04550891 -0.14603786 -0.29282647 -0.051868793 -0.08643392 0.20206946 0.6428372 -0.1723637 -0.05276097 -0.21915936 0.11819578 -0.095933124
inicial -0.08479532 0.109509446 -0.15536831 0.14518821 -0.31455243 -0.51338917 -0.44834483 0.1923145 0.13313317 0.0033140741 -0.2856184 0.40945178 0.13248493 -0.8700011 -0.52735466 0.26617214 0.2518422 0.036265086 0.038382776 -0.14643763 -0.32594168 -0.04118866 -0.08468533 0.21247543 0.67854583 -0.16268776 -0.043938436 -0.22470926 0.1297922 -0.07152742
inconveniente -0.06864187 0.114255436 -0.15574197 0.14195533 -0.3158356 -0.51378876 -0.48930365 0.1713929 0.15638453 -0.03837482 -0.29225716 0.42004618 0.10720721 -0.85770726 -0.5058707 0.28099918 0.26054707 0.051490888 0.029685779 -0.15267822 -0.31463057 -0.06252355 -0.06943409 0.20447111 0.649523 -0.1768916 -0.05071721 -0.22347185 0.12555663 -0.07310002
entidad -0.0873297 0.08118297 -0.12518038 0.16780853 -0.31472096 -0.49245104 -0.44573513 0.18217885 0.10576672 -0.03140747 -0.31398943 0.4053885 0.10757985 -0.86474985 -0.4884768 0.2501489 0.22477002 0.022297014 0.0595717 -0.15754412 -0.2970148 -0.030436954 -0.0790949 0.20994242 0.65676475 -0.16744035 -0.03253643 -0.21476439 0.105052166 -0.10252966
presentar -0.0807465 0.10964943 -0.17764565 0.14586747 -0.32344592 -0.52410156 -0.45432222 0.19096066 0.13779595 -0.032191135 -0.27507222 0.4266472 0.1479312 -0.8682688 -0.53553677 0.25681254 0.25302157 0.042531267 0.060991142 -0.15098844 -0.29557478 -0.031345967 -0.07749799 0.21536718 0.6343161 -0.17234252 -0.074428834 -0.21863912 0.110411055 -0.102205746
problemas -0.06435347 0.11140626 -0.16844602 0.15075707 -0.32660407 -0.52020186 -0.4447125 0.17043874 0.15149638 -0.030429913 -0.2736527 0.423549 0.12688456 -0.8401738 -0.5370981 0.24919948 0.22784543 0.051091306 0.020667747 -0.16396478 -0.30791593 -0.04610228 -0.079492524 0.19031549 0.6647413 -0.1654459 -0.04609256 -0.22930607 0.10603989 -0.06754064
tarjeta -0.07323396 0.11027837 -0.15499577 0.17416485 -0.3196466 -0.50904834 -0.47417387 0.16669424 0.1492211 -0.02368411 -0.31139392 0.41772428 0.13351257 -0.8314762 -0.52247584 0.25854483 0.22425324 0.0633862 0.03819532 -0.13786301 -0.28899187 -0.02190313 -0.07109351 0.20437595 0.6600314 -0.15224776 -0.063143186 -0.22941649 0.12934549 -0.07844343
perfecta -0.07830628 0.09443751 -0.15685332 0.14089821 -0.33808383 -0.49292746 -0.44604075 0.18366213 0.13727833 -0.030722657 -0.30669662 0.39930788 0.12475114 -0.86257744 -0.4916614 0.24916813 0.22854874 0.052952025 0.05685761 -0.12756538 -0.31105098 -0.03792213 -0.058846936 0.21618575 0.6654584 -0.16465993 -0.059463587 -0.19765341 0.13986816 -0.072348244
paginas -0.060010128 0.11304459 -0.16431779 0.15039925 -0.29718384 -0.52822137 -0.4685348 0.19145052 0.15822518 -0.032247107 -0.26903942 0.4121208 0.14417653 -0.84559107 -0.52488863 0.27610296 0.25358525 0.047532957 0.03486731 -0.13418758 -0.31887054 -0.063785635 -0.048712876 0.20132042 0.6707088 -0.1637345 -0.049630996 -0.2289122 0.12583706 -0.05230168
respuestas -0.06693879 0.123770565 -0.16174494 0.16106084 -0.31351483 -0.504209 -0.47765252 0.17109922 0.12017884 -0.026853707 -0.2686196 0.39395082 0.14036182 -0.8627546 -0.51880383 0.2722025 0.22364172 0.024990376 0.04358916 -0.13432369 -0.3068342 -0.05198789 -0.09527048 0.18667364 0.6542852 -0.18697427 -0.05700149 -0.23875532 0.10586872 -0.08353468
registrar -0.06119046 0.119842514 -0.15362541 0.1531387 -0.29502028 -0.503386 -0.43646327 0.15941113 0.14889902 -0.003175522 -0.3030505 0.39918542 0.135779 -0.84315455 -0.5078798 0.27486214 0.23734574 0.056560554 0.05349292 -0.12836471 -0.30895737 -0.063589 -0.07709402 0.18727 0.6515653 -0.1573852 -0.05450896 -0.21348917 0.10983663 -0.07529834
esperando -0.055940527 0.10476729 -0.14020018 0.15284443 -0.3304319 -0.5189649 -0.45403105 0.1929486 0.14788061 -0.016527982 -0.269437 0.40850833 0.12461132 -0.87563825 -0.5045349 0.2497034 0.2519584 0.028159894 0.049776725 -0.14626548 -0.31368586 -0.02972806 -0.05801277 0.19921003 0.671663 -0.18381032 -0.028752785 -0.23225327 0.09179825 -0.08036998
intente -0.052032385 0.113189995 -0.15525252 0.14005552 -0.3137866 -0.53224707 -0.46674797 0.1724472 0.1514165 0.009081628 -0.26709205 0.3773285 0.12546146 -0.8728212 -0.5097793 0.27271217 0.22382815 0.029133238 0.04694421 -0.12080157 -0.3054231 -0.0546309 -0.06544154 0.18247569 0.6503233 -0.17897435 -0.057362974 -0.23910019 0.1303157 -0.05982867
solicito -0.06934382 0.09086636 -0.13385151 0.16779901 -0.3304673 -0.52512175 -0.50383043 0.16270103 0.15348724 -0.023568332 -0.26807547 0.40030643 0.12194051 -0.8884238 -0.54004455 0.27068943 0.2477565 0.05734815 0.039253548 -0.11768796 -0.30408743 -0.058378175 -0.07289587 0.20678031 0.67456025 -0.16046132 -0.04490626 -0.22740942 0.12926582 -0.05128254
estacion -0.06444103 0.115689 -0.14380847 0.15565747 -0.32994187 -0.51334935 -0.46276826 0.15741399 0.12862861 -0.018736232 -0.26656812 0.3981673 0.14430025 -0.84816563 -0.5413114 0.24784167 0.2506793 0.035055503 0.028821472 -0.14340103 -0.32550287 -0.026807055 -0.07058407 0.18481323 0.6780257 -0.14092825 -0.06400659 -0.24432153 0.09988779 -0.06385817
acceder -0.060170826 0.11967247 -0.15469794 0.16390914 -0.3206886 -0.48800063 -0.45002294 0.16384773 0.14722155 -0.03373157 -0.30207282 0.4180943 0.10973507 -0.8502646 -0.5135507 0.26361045 0.21573366 0.06475934 0.048677884 -0.117622845 -0.28528348 -0.024266502 -0.046744145 0.20494157 0.6744505 -0.1739103 -0.05915697 -0.22145857 0.116902165 -0.06479447
cambiar -0.08424719 0.11663132 -0.15137236 0.14161094 -0.3266265 -0.5227419 -0.47351596 0.16921426 0.15877509 -0.021348365 -0.2659981 0.39910775 0.11121906 -0.8533702 -0.54217994 0.28017607 0.24209748 0.05316048 0.049241927 -0.13643248 -0.29238772 -0.047383998 -0.079718344 0.20627949 0.6706211 -0.18596795 -0.07620933 -0.23048629 0.12134594 -0.07276275
numeros -0.055200823 0.121568896 -0.15338244 0.1702628 -0.30705163 -0.5195147 -0.46601063 0.1921749 0.14352012 -0.009155427 -0.29095683 0.4062653 0.13192123 -0.8749694 -0.53673995 0.28757375 0.22228938 0.03536539 0.06214806 -0.12734999 -0.31311765 -0.03290395 -0.08202765 0.16903734 0.6449722 -0.1569959 -0.045167696 -0.22314309 0.13665475 -0.07543306
mandaron -0.08493648 0.08992707 -0.1452748 0.17360279 -0.33019286 -0.5064893 -0.4429923 0.17323734 0.15803115 -0.0020587246 -0.27597207 0.41071868 0.13846323 -0.877483 -0.5209089 0.25804815 0.2433048 0.018955896 0.057046972 -0.11977091 -0.32253268 -0.052099448 -0.08180399 0.18497376 0.67922467 -0.15857294 -0.041467905 -0.2038599 0.090187676 -0.064204104
categorias -0.07128676 0.13943447 -0.12823403 0.15811619 -0.32149386 -0.52787155 -0.48492685 0.17824809 0.15470423 -0.00065408845 -0.29034907 0.41971502 0.13033493 -0.8491333 -0.53583944 0.25276193 0.26499474 0.06565771 0.07384388 -0.15131536 -0.3186137 -0.06089959 -0.07519415 0.19760257 0.68401116 -0.16266339 -0.022292744 -0.2346905 0.14136852 -0.09805004
procedimiento -0.06554562 0.10464001 -0.15737928 0.13810764 -0.32188866 -0.5174634 -0.44857663 0.16806932 0.11146 -0.035605732 -0.2956985 0.39504445 0.1300971 -0.82962936 -0.49322072 0.2707325 0.22431052 0.059153847 0.03878587 -0.12067313 -0.29264838 -0.033336647 -0.090516604 0.19095162 0.6576072 -0.16994381 -0.059486784 -0.20560452 0.10722231 -0.053612713
intencion -0.07957297 0.11335949 -0.16190277 0.16532068 -0.30109304 -0.5097369 -0.44291458 0.18016328 0.12667404 -0.012875999 -0.28774795 0.3987052 0.11533137 -0.8543381 -0.54105955 0.26148182 0.23743021 0.022001827 0.060966454 -0.110051766 -0.30261013 -0.07511141 -0.06510343 0.19482222 0.64542097 -0.18457863 -0.0625709 -0.23851798 0.10932558 -0.054735
tramite -0.06385332 0.13053122 -0.13608056 0.14905795 -0.31873944 -0.53572017 -0.47865042 0.16866587 0.14027435 -0.028686395 -0.27611938 0.4025111 0.14681478 -0.8492528 -0.53132784 0.2531611 0.23388329 0.027997715 0.032875337 -0.124382064 -0.3052365 -0.068502635 -0.057878226 0.17817791 0.662169 -0.15757717 -0.042258263 -0.20603682 0.09621115 -0.097397156
revista -0.07026212 0.123541005 -0.16901684 0.1743864 -0.3107298 -0.52722657 -0.46306974 0.17881618 0.13298061 -0.03208792 -0.29943562 0.42473063 0.13597947 -0.8786889 -0.52474964 0.24169779 0.24155818 0.043664344 0.03614025 -0.14214072 -0.30722833 -0.055453897 -0.06380506 0.18758382 0.65712404 -0.15234092 -0.04176872 -0.24658942 0.08890011 -0.07851668
termina -0.08837892 0.09748451 -0.14131491 0.15761411 -0.32664073 -0.50890166 -0.45170993 0.1632777 0.12698214 -0.03421197 -0.3022814 0.41672254 0.1428999 -0.8637077 -0.5175045 0.24961543 0.225076 0.056898296 0.04922022 -0.12418374 -0.28709635 -0.041558303 -0.073324755 0.1922337 0.6512445 -0.1426409 -0.06259371 -0.2183389 0.123071015 -0.08413783
acabo -0.06835788 0.09404021 -0.14537254 0.17530608 -0.31830546 -0.51833284 -0.46046278 0.2000622 0.14627267 0.007980681 -0.3011466 0.4222534 0.14537399 -0.85891193 -0.50091183 0.26178488 0.26132044 0.048229773 0.028952796 -0.13118958 -0.3319301 -0.06169702 -0.078425996 0.19805527 0.6531611 -0.15035594 -0.045013618 -0.2427296 0.104180835 -0.0715559
confirmacion -0.07026182 0.12217598 -0.15082201 0.14616157 -0.33313346 -0.5344371 -0.4861566 0.19149263 0.11935057 -0.0123212235 -0.26605433 0.39356798 0.13545722 -0.852831 -0.52667266 0.25150433 0.24728684 0.039103203 0.04801904 -0.14795958 -0.32359865 -0.054050293 -0.062477414 0.1720893 0.66978437 -0.14524834 -0.049751613 -0.22785792 0.09214099 -0.083374046
subir -0.06762676 0.12647259 -0.14572941 0.16956115 -0.32968026 -0.5173979 -0.44382095 0.1628435 0.123217754 -0.03917697 -0.25619322 0.37452793 0.12384208 -0.8347781 -0.51792985 0.26178607 0.23809105 0.034708187 0.05317527 -0.115211144 -0.29905325 -0.036988948 -0.08116149 0.18899529 0.6713802 -0.14549546 -0.029390665 -0.20847996 0.12284035 -0.064341865
claves -0.07511183 0.108594045 -0.15581067 0.13941361 -0.3418004 -0.53509206 -0.4774085 0.17378785 0.1490036 -0.021790009 -0.3022413 0.43282366 0.110740185 -0.86308056 -0.5190206 0.23862645 0.23327531 0.03579999 0.058238633 -0.14923467 -0.29996017 -0.046475254 -0.073453106 0.17290728 0.6584872 -0.18337007 -0.041222367 -0.23105602 0.10922405 -0.06707806
administrador -0.06807977 0.107832655 -0.169478 0.15894057 -0.316134 -0.5329484 -0.43957198 0.18340762 0.14528868 -0.02166678 -0.28521368 0.40994316 0.12622362 -0.85608953 -0.5177137 0.26916978 0.27387875 0.057211954 0.065257594 -0.12927678 -0.2917575 -0.05245216 -0.06381716 0.18619058 0.66131896 -0.16868077 -0.0774206 -0.20620985 0.1009762 -0.08223027
titulo -0.051018186 0.12420499 -0.13671036 0.1587248 -0.3188464 -0.49908257 -0.45067066 0.1639994 0.11762366 -0.0049938895 -0.2558427 0.39316624 0.11818617 -0.8508645 -0.50393593 0.25396246 0.24911883 0.0385659 0.037834734 -0.14289682 -0.30916244 -0.02412134 -0.0629669 0.19073509 0.6684382 -0.1532932 -0.06641364 -0.22230494 0.10699088 -0.069834955
experiencias -0.090398945 0.102394745 -0.15423825 0.1305424 -0.32655656 -0.5101214 -0.47922227 0.17969854 0.15414247 -0.036738954 -0.2873261 0.38480562 0.15408067 -0.86975604 -0.508608 0.2554697 0.25878724 0.043193407 0.053561553 -0.12049418 -0.31434548 -0.031332128 -0.0641763 0.20903201 0.680249 -0.15643185 -0.066093236 -0.20175223 0.11810229 -0.08736865
necesita -0.09113603 0.09286116 -0.13508372 0.15091331 -0.30243945 -0.49464807 -0.46468446 0.1843892 0.14432569 -0.010415378 -0.26141548 0.3779915 0.13855156 -0.8616386 -0.5240752 0.26669374 0.22689012 0.042502467 0.060724556 -0.12612458 -0.29002395 -0.052864797 -0.07983416 0.20067206 0.63526946 -0.16798836 -0.047715515 -0.22381325 0.12421536 -0.08160154
seguir -0.06745114 0.08720076 -0.1560546 0.17146656 -0.31941625 -0.5210072 -0.45089984 0.16962832 0.11779871 0.006263105 -0.26752767 0.40254706 0.14419666 -0.85712326 -0.5112809 0.27882254 0.25016782 0.049480654 0.039171297 -0.136667 -0.31117555 -0.047977615 -0.061688516 0.19747098 0.6559309 -0.16432424 -0.051920366 -0.23033676 0.12300464 -0.08507106
pedir -0.06593545 0.12940769 -0.16638981 0.1613128 -0.31028342 -0.51208735 -0.45253453 0.17028825 0.1303678 0.0044255434 -0.30620763 0.41034672 0.11481602 -0.8670437 -0.5390243 0.2667509 0.22803703 0.054149345 0.038297784 -0.13177817 -0.3264945 -0.06513307 -0.088433266 0.18056335 0.6431226 -0.18510912 -0.059113152 -0.20753197 0.09375017 -0.08334045
requerimiento -0.082301654 0.12206307 -0.1411739 0.16628468 -0.31514952 -0.55071586 -0.4494837 0.16501704 0.16796128 0.0022316468 -0.2784625 0.42951345 0.12219746 -0.8713516 -0.5271224 0.28947324 0.2600685 0.01991707 0.0694493 -0.13202636 -0.3068453 -0.042697344 -0.060047492 0.1951693 0.67017007 -0.18709306 -0.05356203 -0.19895937 0.12268909 -0.08380768
hablando -0.08232885 0.111175336 -0.14821784 0.1632435 -0.31225073 -0.51538116 -0.47038928 0.1542424 0.11355364 0.0074455803 -0.26762557 0.40297982 0.14506578 -0.851995 -0.51923215 0.27360687 0.22436178 0.015375007 0.016770745 -0.11620521 -0.2934866 -0.057307485 -0.04379181 0.18880211 0.66721493 -0.15270436 -0.06172718 -0.23728639 0.091573246 -0.094853975
activo -0.059989672 0.107263215 -0.1454256 0.16562746 -0.31859997 -0.5278841 -0.44413933 0.16908251 0.1640832 -0.022477621 -0.27183503 0.4036063 0.108528905 -0.8828139 -0.51475614 0.25935903 0.24059571 0.032268435 0.045134153 -0.15533032 -0.3088903 -0.030618496 -0.06395092 0.18913865 0.69178754 -0.16411294 -0.061156396 -0.21181208 0.12226964 -0.06803831
volver -0.062838495 0.10045973 -0.123520486 0.13282672 -0.31088912 -0.5100845 -0.4562755 0.16379426 0.12588476 -0.036583923 -0.26729283 0.40486512 0.14401038 -0.8712683 -0.53173864 0.25139278 0.24899034 0.034268063 0.024564968 -0.1336966 -0.31532985 -0.02968211 -0.05553699 0.18812501 0.6470271 -0.16401505 -0.03645423 -0.20672973 0.09950996 -0.09272377
espacio -0.09071851 0.08727526 -0.14961387 0.16558397 -0.331214 -0.52733415 -0.4582108 0.15577178 0.13014619 -0.01813637 -0.3019054 0.3799811 0.13673945 -0.84580094 -0.5318455 0.27251846 0.24672623 0.03134828 0.022385428 -0.12469269 -0.30470833 -0.03753053 -0.05147098 0.20152655 0.6261398 -0.1822886 -0.04707629 -0.23609608 0.1270189 -0.085742496
equipos -0.059201695 0.10991781 -0.1524319 0.15368345 -0.32924464 -0.54636 -0.4665135 0.16287065 0.12161827 -0.012670827 -0.30871552 0.40284505 0.14202215 -0.8530529 -0.54723084 0.26615793 0.22672558 0.040607046 0.06300666 -0.14688051 -0.3050665 -0.046125565 -0.06827428 0.19935149 0.6729079 -0.15462041 -0.042374827 -0.19620742 0.11242855 -0.056925647
facil -0.06510174 0.11100544 -0.15165627 0.13219869 -0.32549393 -0.51794505 -0.4657074 0.18001711 0.1487304 -0.019043686 -0.2806831 0.39972416 0.116486035 -0.85669845 -0.5205625 0.26253697 0.21851408 0.023298128 0.04587634 -0.12686174 -0.2842236 -0.06066343 -0.06836576 0.19336459 0.66138315 -0.16441904 -0.0475471 -0.20459743 0.12336927 -0.06752533
internamente -0.07328451 0.08657318 -0.12932362 0.16278686 -0.32709616 -0.51275957 -0.4643199 0.19407594 0.15125488 0.0035800198 -0.29507497 0.40831262 0.12563993 -0.9169143 -0.55680764 0.30241913 0.23633781 0.023048403 0.042620976 -0.1424195 -0.29488346 -0.0548135 -0.074736714 0.18729754 0.6746595 -0.1510427 -0.05166932 -0.23278017 0.11523872 -0.09829515
punk -0.07653753 0.10186726 -0.13818783 0.13202216 -0.30956355 -0.519501 -0.4627477 0.18787882 0.13971803 -0.033316016 -0.30007485 0.38863406 0.13224688 -0.8729188 -0.53461295 0.26805374 0.23435432 0.059968237 0.04407848 -0.15190777 -0.28718668 -0.030082777 -0.07166852 0.19382516 0.6576492 -0.17317343 -0.034297533 -0.20142135 0.12146925 -0.08372352
ciudad -0.07442105 0.10846586 -0.13653661 0.17164071 -0.3316039 -0.52804697 -0.48560065 0.18196592 0.14916831 -0.01734086 -0.29786804 0.42319995 0.12777853 -0.8685528 -0.50952804 0.25830302 0.2600322 0.048066657 0.049008124 -0.1308544 -0.31920853 -0.028321633 -0.08341986 0.18921116 0.66636395 -0.1443672 -0.062354323 -0.2157722 0.09527423 -0.08135828
activos -0.06378628 0.09751167 -0.13452955 0.17217806 -0.33267033 -0.5270078 -0.44305304 0.15734889 0.12368785 -0.024433255 -0.29681134 0.42951527 0.11372577 -0.85112953 -0.5055615 0.27742535 0.25745043 0.06398639 0.042597346 -0.123244405 -0.33214173 -0.06374488 -0.058605112 0.19654366 0.66977733 -0.16791578 -0.044354185 -0.23634174 0.09406556 -0.0834356
dijiste -0.06788307 0.1161944 -0.13584816 0.14033951 -0.3262403 -0.52013004 -0.44767705 0.18060854 0.14517076 -0.0017433463 -0.2670142 0.375931 0.1466861 -0.8160632 -0.4949034 0.25207904 0.24919163 0.048710946 0.05217345 -0.13049667 -0.28882283 -0.057583276 -0.08165688 0.17001405 0.6661503 -0.16111356 -0.050376773 -0.21990447 0.103887156 -0.09159356
conoce -0.06444553 0.11363581 -0.13586575 0.13615644 -0.2903276 -0.5129375 -0.46924394 0.16559693 0.13478841 -4.5658537e-05 -0.28160942 0.38771474 0.151434 -0.8535978 -0.51581717 0.26735756 0.25494295 0.046534523 0.032524623 -0.13687097 -0.28841016 -0.03811722 -0.053554073 0.17978236 0.6396055 -0.15137526 -0.06406818 -0.19928792 0.122923516 -0.06510134
trata -0.07971955 0.13012345 -0.17473672 0.15367989 -0.33770797 -0.55580455 -0.46421432 0.19688387 0.13555543 -0.028727056 -0.29687053 0.40941828 0.12393974 -0.8679236 -0.54025114 0.25316957 0.27034307 0.053399235 0.03992647 -0.16245398 -0.308464 -0.07224525 -0.08050149 0.18023622 0.6642666 -0.17260903 -0.056310397 -0.22167957 0.11928078 -0.09024026
sucursal -0.097278856 0.095748164 -0.14696015 0.18061624 -0.32402855 -0.52666295 -0.4548164 0.19658905 0.11480207 -0.03690077 -0.29102087 0.4071515 0.11087437 -0.87625074 -0.55417514 0.25941524 0.2218609 0.07033358 0.035790496 -0.11738232 -0.30673543 -0.04750751 -0.08829384 0.18960595 0.66326326 -0.17017798 -0.011706463 -0.22216873 0.12757209 -0.07068106
crimen -0.09395542 0.08781734 -0.1350434 0.13510533 -0.31998348 -0.51045465 -0.437053 0.17722411 0.14991243 0.002769488 -0.26943147 0.3832801 0.114195324 -0.8383806 -0.5116582 0.24726622 0.2401232 0.051197466 0.04641671 -0.1317225 -0.31144944 -0.060635302 -0.06710673 0.1916716 0.66790736 -0.16125128 -0.057262413 -0.2327693 0.11086731 -0.08096483
registra -0.07490667 0.12648422 -0.16203108 0.15835522 -0.30576062 -0.52651095 -0.45321098 0.18189047 0.1462637 -0.03583862 -0.2783917 0.4071283 0.10799793 -0.82786715 -0.5163247 0.26543394 0.22748643 0.049955714 0.02421762 -0.13753068 -0.2998451 -0.06077977 -0.08438226 0.18813214 0.64713925 -0.16897069 -0.06896497 -0.20050754 0.10636853 -0.058247045
contratistas -0.07004727 0.12452091 -0.14947574 0.14573023 -0.32214725 -0.5271462 -0.4689791 0.19478455 0.15090013 -0.0069265873 -0.3000605 0.39401293 0.118226334 -0.8802143 -0.5168905 0.2431063 0.27034375 0.021841777 0.047269803 -0.1245075 -0.33230057 -0.052987132 -0.052468292 0.15889665 0.6568272 -0.17601909 -0.058450855 -0.2111157 0.1062872 -0.076479614
funcionario -0.10117543 0.10972377 -0.15338543 0.16823995 -0.32831776 -0.54389673 -0.49484056 0.18396972 0.1505865 -0.00714688 -0.27945644 0.42907545 0.15696323 -0.8878085 -0.54254663 0.27362555 0.22910653 0.06032991 0.064132966 -0.11285315 -0.2884131 -0.064378336 -0.07848959 0.20792517 0.6573469 -0.16735834 -0.06288618 -0.22738473 0.12862316 -0.09890509
tercer -0.08097858 0.09990247 -0.1688002 0.1431384 -0.32841069 -0.5204083 -0.4576769 0.17525388 0.16435245 0.0069418484 -0.30854243 0.42835695 0.14236993 -0.8992803 -0.52564573 0.25112337 0.24874723 0.043081794 0.050381117 -0.11552572 -0.31255436 -0.027065592 -0.06618245 0.17703785 0.675157 -0.1517411 -0.052609432 -0.22724466 0.12260971 -0.07310407
preguntas -0.08654275 0.08540423 -0.14056371 0.17526329 -0.30370584 -0.5536172 -0.4811921 0.2058492 0.15445143 -0.0039616525 -0.28186667 0.41908574 0.12270279 -0.9129889 -0.55057865 0.2769836 0.24852149 0.060988136 0.042740054 -0.12766694 -0.30072016 -0.030282686 -0.07556468 0.20021641 0.66507643 -0.1690995 -0.048942775 -0.2263565 0.12706779 -0.09082404
financiera -0.089492574 0.11141602 -0.14457282 0.13513543 -0.3445323 -0.51776 -0.44389656 0.15873708 0.13051462 -0.042956334 -0.2796957 0.41591513 0.14305604 -0.8460809 -0.5122501 0.26705196 0.22320107 0.042762578 0.032480143 -0.112998314 -0.3102053 -0.05205374 -0.051466644 0.20614237 0.7075495 -0.15308028 -0.03584286 -0.20196326 0.11235379 -0.063223116
buscando -0.08341432 0.11681725 -0.16967389 0.164244 -0.30188552 -0.5254715 -0.467668 0.16163363 0.14789297 -0.00811929 -0.2887803 0.4068547 0.11368668 -0.87467915 -0.5382307 0.2651308 0.23292275 0.040530287 0.051991448 -0.13905199 -0.2923072 -0.058904145 -0.08946938 0.18925428 0.654099 -0.18066368 -0.0416884 -0.22708414 0.10306347 -0.089297906
tecnica -0.08464202 0.108098246 -0.15066871 0.15341671 -0.34329826 -0.5186237 -0.46246487 0.17591251 0.14686652 -0.021951184 -0.27617258 0.40858957 0.14173822 -0.85294557 -0.534542 0.25939852 0.24594939 0.06571514 0.04471027 -0.10678214 -0.2878386 -0.026344672 -0.06798233 0.17605604 0.67609924 -0.17036195 -0.02249949 -0.21900864 0.13674644 -0.08723384
abierto -0.07450914 0.113226324 -0.14427881 0.16455919 -0.3248391 -0.52356595 -0.44182676 0.16060157 0.121683545 -0.0060234964 -0.27424437 0.4049256 0.1283704 -0.8296615 -0.51180637 0.2686721 0.2252797 0.03314943 0.0345201 -0.12671368 -0.30035472 -0.032829218 -0.07416015 0.19223197 0.6664856 -0.16495419 -0.038326032 -0.22998455 0.12747058 -0.08655856
disculpa -0.066407956 0.115980625 -0.12845875 0.16704293 -0.2970947 -0.52727705 -0.45668346 0.17415436 0.13934201 -0.0026677554 -0.27545568 0.393472 0.11751101 -0.86749786 -0.5015244 0.2715168 0.24465232 0.035790913 0.04032676 -0.123279594 -0.29789236 -0.02121227 -0.078281246 0.20532368 0.68319833 -0.1707054 -0.03687116 -0.22842547 0.12873428 -0.087703764
departamento -0.096414275 0.11430826 -0.17480421 0.14194547 -0.30407435 -0.519668 -0.47140807 0.18438481 0.13492319 -0.039447546 -0.31961212 0.43066388 0.12975919 -0.8957074 -0.5094261 0.27288014 0.23485799 0.022756577 0.058472082 -0.15185352 -0.33099386 -0.038213346 -0.07508735 0.18190423 0.6444935 -0.19239834 -0.061859623 -0.2331577 0.12882717 -0.10285699
competidor -0.07373947 0.11326783 -0.14594528 0.15914771 -0.30146587 -0.50921303 -0.44228157 0.15448257 0.120954156 -0.023632374 -0.27809364 0.4124317 0.11355982 -0.861521 -0.5170402 0.25591236 0.22815813 0.031672478 0.02847271 -0.13431123 -0.30592692 -0.050240427 -0.07048192 0.17845078 0.64305335 -0.1431453 -0.05959401 -0.21644206 0.10179564 -0.06104182
puedan -0.083716415 0.116979696 -0.15950502 0.15109438 -0.29347178 -0.51848847 -0.4510449 0.16057 0.14396515 -0.020478532 -0.2770655 0.40669966 0.13048404 -0.83730173 -0.51862746 0.2852039 0.22039963 0.037277117 0.053879116 -0.122613475 -0.2815446 -0.029171335 -0.058871552 0.17396666 0.659982 -0.150233 -0.03526117 -0.24004811 0.11655356 -0.059732556
interno -0.08610425 0.11055259 -0.13299397 0.16865537 -0.30198774 -0.5250237 -0.46595076 0.16735078 0.13749686 -0.021783236 -0.30111173 0.4113707 0.115373716 -0.8622649 -0.52257264 0.25264227 0.23942962 0.055369623 0.021374911 -0.14868371 -0.3272561 -0.019919645 -0.055039156 0.2043421 0.6451879 -0.1732078 -0.056873266 -0.22036636 0.1015068 -0.070943825
revision -0.09022342 0.12219106 -0.14588743 0.14787069 -0.33876893 -0.5258237 -0.49090636 0.18329835 0.12883586 -0.0021374437 -0.28172848 0.40613642 0.12571429 -0.87162185 -0.54404575 0.29233804 0.22173485 0.03292084 0.029741032 -0.14116992 -0.2997216 -0.060171712 -0.08530588 0.22163536 0.6670688 -0.18348575 -0.048664693 -0.2214772 0.1013105 -0.08883999
embargo -0.09075945 0.08082592 -0.13713236 0.15995051 -0.31943962 -0.52088034 -0.46857458 0.15671782 0.12409824 -0.025905158 -0.27872115 0.410176 0.115638345 -0.86818 -0.50638735 0.25368342 0.25259128 0.06043122 0.0455011 -0.15207942 -0.30351368 -0.02912691 -0.07922137 0.20282495 0.64702487 -0.1757493 -0.036508612 -0.20902783 0.09810723 -0.073841095
seleccion -0.06492406 0.13812436 -0.12720893 0.12035874 -0.35627294 -0.4648402 -0.46326575 0.20603476 0.13913932 -0.09120563 -0.2970826 0.39024758 0.15750104 -0.8614362 -0.501246 0.23245156 0.28367463 0.032191124 0.06182194 -0.16069178 -0.2650258 0.0054011527 -0.12845543 0.24137306 0.67492217 -0.17795707 -0.07521041 -0.17384651 0.18667027 -0.103360936
podia -0.09277911 0.09716394 -0.13549747 0.16863143 -0.30751655 -0.55283 -0.47533017 0.17910227 0.14617729 0.00040651739 -0.2753628 0.40695918 0.121496044 -0.8463801 -0.5435294 0.28129098 0.23213246 0.051762283 0.043653116 -0.1509845 -0.29470584 -0.047633063 -0.07692908 0.19007935 0.6760371 -0.15345491 -0.060047224 -0.22499919 0.10910337 -0.08307804
tecnico -0.06309638 0.124476254 -0.16352306 0.16903745 -0.32369784 -0.54493284 -0.47345367 0.15696284 0.13995568 0.004163861 -0.27988997 0.4066161 0.11570594 -0.87550205 -0.5158143 0.26837918 0.24590844 0.024568915 0.04108625 -0.12401945 -0.29549626 -0.03827321 -0.09082193 0.17629588 0.6570812 -0.18363127 -0.06400903 -0.21656278 0.10076513 -0.061740816
entendi -0.06640058 0.095098585 -0.1429981 0.16173829 -0.30291396 -0.5040112 -0.4468504 0.19682193 0.13348283 -0.008248713 -0.2872459 0.42270097 0.1218393 -0.8616397 -0.5049803 0.2890639 0.23809335 0.042980734 0.059940543 -0.11304263 -0.2855609 -0.028049441 -0.0896991 0.20851234 0.6497281 -0.16308627 -0.042713698 -0.21870132 0.12590387 -0.09294168
ofrecer -0.069284044 0.10537577 -0.17339277 0.13445486 -0.30410478 -0.51891345 -0.44822264 0.17737 0.13486212 -0.02336727 -0.28181493 0.42724252 0.11520344 -0.85933393 -0.54208887 0.2502593 0.22874974 0.032278232 0.009778462 -0.1540411 -0.28689578 -0.042506546 -0.087765984 0.2071371 0.6359159 -0.16967584 -0.05688481 -0.24693957 0.08152233 -0.05796745
hiciste -0.0906989 0.11871578 -0.1514638 0.13623828 -0.3299725 -0.5415674 -0.4485879 0.16061778 0.12547885 -0.031642172 -0.27655298 0.39318156 0.12858227 -0.8745137 -0.5394083 0.24108016 0.26035878 0.03024452 0.032739438 -0.14795594 -0.2830574 -0.034171313 -0.07612854 0.17211694 0.670479 -0.17717254 -0.06779386 -0.22490776 0.1326187 -0.07211894
reunion -0.08221692 0.09874628 -0.14612225 0.16775638 -0.33065024 -0.49013412 -0.44621202 0.17053215 0.148985 -0.02697683 -0.2979874 0.41021964 0.12267655 -0.85730344 -0.52998537 0.2611041 0.24849114 0.046541728 0.06614424 -0.1426097 -0.30691314 -0.050280683 -0.06124936 0.16998045 0.67707306 -0.14070101 -0.04940886 -0.21408556 0.13131572 -0.095258795
solicitarrres -0.059477746 0.11151151 -0.15819503 0.16201355 -0.3233768 -0.51059777 -0.47635177 0.19287857 0.13702077 -0.02486879 -0.27694228 0.3989737 0.14838599 -0.88176626 -0.5098404 0.27748385 0.2567058 0.026040163 0.025436446 -0.12196978 -0.2883417 -0.028268375 -0.05971107 0.16745181 0.64554274 -0.15078293 -0.03351188 -0.23188247 0.09685349 -0.08753089
invitacion -0.0908454 0.12815289 -0.16943896 0.1314712 -0.32986915 -0.54434526 -0.4864116 0.15751709 0.15552707 -0.019272033 -0.28749335 0.42554826 0.15999645 -0.8644664 -0.50857717 0.28146094 0.22685881 0.0070942193 0.031004606 -0.123442635 -0.31290835 -0.072266884 -0.050752062 0.2021797 0.64965415 -0.18180569 -0.043828595 -0.2013663 0.09912504 -0.078042984
queriamos -0.057670668 0.1220838 -0.16639827 0.14185305 -0.31855762 -0.53248894 -0.43997672 0.17122974 0.14955819 -0.009002494 -0.28229424 0.38909876 0.11543171 -0.83935356 -0.532723 0.2747394 0.251114 0.045660473 0.033311475 -0.14626728 -0.2998354 -0.04434799 -0.054895364 0.20077844 0.66753364 -0.17616226 -0.06845152 -0.22041687 0.105712034 -0.085273154
empezar -0.08603149 0.10565146 -0.12294624 0.17067637 -0.3320614 -0.50622475 -0.43645826 0.182873 0.12872708 4.3055697e-06 -0.26487726 0.4200833 0.14329432 -0.8633074 -0.52843577 0.26625875 0.21645536 0.023083856 0.034534164 -0.12149228 -0.3177231 -0.03863444 -0.051542494 0.17693907 0.6733599 -0.17498587 -0.034517657 -0.23850337 0.09308994 -0.079418495
agente -0.08131322 0.12223255 -0.15591982 0.16982195 -0.3281899 -0.5126634 -0.44047704 0.17707172 0.13967906 -0.025336994 -0.2774332 0.4021549 0.12486666 -0.8440972 -0.5156294 0.24139895 0.2449754 0.049890164 0.040329866 -0.1252354 -0.32025832 -0.024046434 -0.08141553 0.20256926 0.65637344 -0.1741307 -0.036437638 -0.20301656 0.109840326 -0.079947874
enviamos -0.048421524 0.0816168 -0.16462773 0.15226145 -0.30685818 -0.5306091 -0.44404325 0.18451402 0.13345772 0.013314933 -0.2687725 0.37817717 0.1517668 -0.85430884 -0.51561445 0.25236422 0.23445609 0.056127813 0.034313403 -0.12529987 -0.30544478 -0.05275213 -0.08248917 0.17326477 0.62858623 -0.18051788 -0.06332525 -0.232621 0.092625484 -0.09076484
colocar -0.09545671 0.08985474 -0.14131594 0.15614964 -0.3058269 -0.5206274 -0.46504593 0.1854653 0.15802129 -0.0014294672 -0.2906988 0.41270465 0.13697569 -0.8442203 -0.51818144 0.24234734 0.26386333 0.06354916 0.04667092 -0.13681532 -0.29932523 -0.055579387 -0.08292967 0.19098125 0.68129 -0.14975187 -0.039556503 -0.2347694 0.09938989 -0.05921974
buscar -0.088736005 0.13179918 -0.17125736 0.14957286 -0.3123429 -0.53407425 -0.4628313 0.17069177 0.14906137 -0.0048417943 -0.2883063 0.4365252 0.113756336 -0.874097 -0.52988833 0.26947102 0.22164437 0.048124965 0.042232595 -0.13016601 -0.31826812 -0.060403846 -0.07153709 0.18789859 0.68554693 -0.161263 -0.04076766 -0.24489893 0.105797134 -0.07014084
imagen -0.082079224 0.09951806 -0.17618088 0.15533537 -0.32128012 -0.51771456 -0.47906336 0.16205785 0.15599371 -0.005950354 -0.26836205 0.42672414 0.11413869 -0.8869365 -0.5369411 0.2685286 0.22449084 0.012120869 0.030239081 -0.1590948 -0.33679366 -0.04223383 -0.059208017 0.17714891 0.672416 -0.16553685 -0.04826537 -0.2444044 0.12580125 -0.08095771
imagino -0.07959887 0.11626595 -0.15520296 0.15204832 -0.3296472 -0.5275729 -0.4707307 0.17947705 0.13488011 -0.024292191 -0.31203273 0.40388408 0.14200681 -0.8595668 -0.53057534 0.2889882 0.2386223 0.044038597 0.024129402 -0.13121952 -0.285314 -0.023536477 -0.060948662 0.18958806 0.6777036 -0.16705984 -0.053221695 -0.23224081 0.10381103 -0.087251864
diferente -0.06690239 0.11891289 -0.14418964 0.15300356 -0.32770646 -0.5241885 -0.43622723 0.1951236 0.15440726 -0.017375637 -0.3003278 0.41003627 0.14779055 -0.85212696 -0.5270253 0.25365943 0.23084395 0.04584892 0.04212336 -0.15164064 -0.29205185 -0.041219298 -0.071852304 0.20075512 0.64273435 -0.14924309 -0.026768498 -0.228962 0.09854683 -0.06678989
pendientes -0.081756994 0.12168253 -0.15011704 0.16129684 -0.32350126 -0.5062761 -0.48503202 0.19204286 0.12394328 -0.01883681 -0.28565687 0.41940787 0.113740325 -0.8446431 -0.54188013 0.26362956 0.24049181 0.04436579 0.051772587 -0.14222966 -0.3171733 -0.040349163 -0.06473615 0.19772194 0.6580442 -0.17114702 -0.037159078 -0.22333638 0.09816368 -0.06865089
radicado -0.063931435 0.084187634 -0.16037188 0.17501447 -0.3304238 -0.5195641 -0.48298794 0.18636584 0.15609637 0.0066116136 -0.29012638 0.38711435 0.14282238 -0.84893167 -0.52887404 0.28564385 0.24377045 0.038175244 0.032755524 -0.107588485 -0.2884906 -0.026971115 -0.09539933 0.19954024 0.6645288 -0.15408187 -0.03936248 -0.23914856 0.091855116 -0.0675226
validacion -0.09463055 0.10023255 -0.11603282 0.16311292 -0.3107911 -0.47802052 -0.46775696 0.14866105 0.12181053 -0.0017150224 -0.27103218 0.38309237 0.14696766 -0.8537487 -0.53263175 0.28659245 0.23056863 0.035114616 0.06646217 -0.1034966 -0.29315826 -0.0558993 -0.064829126 0.17507902 0.63385683 -0.15827267 -0.05304648 -0.22900753 0.111271806 -0.060175452
perdio -0.059690945 0.11124964 -0.16103804 0.17703247 -0.29155686 -0.51838404 -0.4675945 0.16522099 0.12526678 -0.022371788 -0.28840202 0.40049466 0.12875895 -0.8756475 -0.53172874 0.25632092 0.24551196 0.031765774 0.025639543 -0.14530173 -0.32014853 -0.04744967 -0.09976438 0.20139964 0.65984297 -0.17520346 -0.03471032 -0.21333458 0.10462997 -0.087754354
llegan -0.07423047 0.09703971 -0.15271169 0.14729199 -0.29905894 -0.50814277 -0.4639939 0.18109603 0.121563345 -0.030303255 -0.2859155 0.40294123 0.11834531 -0.8678347 -0.5282815 0.26130608 0.24776237 0.030081552 0.040935237 -0.13039261 -0.32583156 -0.045971293 -0.058918826 0.19970198 0.64724505 -0.15219827 -0.06309543 -0.1997448 0.084743194 -0.0901429
quedar -0.06402267 0.10642047 -0.15075101 0.14636663 -0.31416357 -0.5288941 -0.44968224 0.1925854 0.12703082 -0.025644325 -0.29335117 0.40565762 0.12356169 -0.8407768 -0.53134185 0.24716976 0.22496097 0.0174985 0.05562686 -0.12809704 -0.3012493 -0.021675749 -0.05357874 0.19007699 0.6341069 -0.16380693 -0.0547128 -0.23389477 0.11628521 -0.07340725
miento -0.08756871 0.08769805 -0.14373124 0.15652741 -0.31744638 -0.5050928 -0.45544967 0.19471641 0.13810292 0.012046028 -0.26818717 0.39616838 0.14902395 -0.8572984 -0.50503504 0.25090405 0.23461328 0.03264028 0.055711746 -0.12029789 -0.28135413 -0.02734233 -0.0514796 0.17229928 0.64850044 -0.13964403 -0.051414825 -0.22673346 0.12177299 -0.07419073
recibi -0.065021195 0.11733679 -0.14478114 0.13697629 -0.3076265 -0.5334317 -0.46224436 0.17134207 0.15103303 -0.033113178 -0.3028532 0.4194383 0.12331195 -0.86855555 -0.5005872 0.28371513 0.23005137 0.03332646 0.034017835 -0.10797225 -0.30014354 -0.056574345 -0.04565671 0.18485646 0.6663006 -0.17362405 -0.024484182 -0.20743982 0.123733506 -0.055720627
modificar -0.06900029 0.12005974 -0.13396296 0.16681069 -0.32111707 -0.5437244 -0.4576207 0.17348716 0.13241433 -0.018400999 -0.27955428 0.42469877 0.12722206 -0.8769336 -0.5284754 0.26623636 0.25341374 0.040850744 0.05984804 -0.12184289 -0.30956745 -0.038822107 -0.05743673 0.21177346 0.64448285 -0.18938597 -0.0398475 -0.2470166 0.114655204 -0.070563726
formas -0.08856447 0.08724063 -0.1456566 0.14391148 -0.32021046 -0.49667376 -0.47321993 0.17239141 0.15436952 -0.029718725 -0.29003277 0.412808 0.15516402 -0.85157603 -0.5066961 0.28003716 0.25763977 0.034356717 0.058796212 -0.110433504 -0.29960418 -0.06603572 -0.07349712 0.19010477 0.6709413 -0.1602944 -0.05416103 -0.23706527 0.12412018 -0.06001698
enviando -0.065516464 0.0961496 -0.13761951 0.16754638 -0.33205944 -0.51250565 -0.4485563 0.18005532 0.1155361 -0.006858909 -0.27999893 0.38209006 0.12935804 -0.859877 -0.51856965 0.24406424 0.22566468 0.04853394 0.055449903 -0.12314366 -0.28243867 -0.049231578 -0.05104747 0.19175108 0.65260065 -0.1412769 -0.052380923 -0.24628742 0.1274469 -0.062216237
empleados -0.0882879 0.093331516 -0.15467557 0.12894392 -0.28749633 -0.5287443 -0.44146457 0.15432766 0.1319329 -0.038252104 -0.29469663 0.41202077 0.12635389 -0.8735397 -0.52483785 0.254381 0.25490302 0.060827643 0.06429655 -0.121048234 -0.30560756 -0.04956605 -0.09613947 0.20958954 0.65642095 -0.16176842 -0.041036226 -0.24008659 0.1339446 -0.063121386
celular -0.07607247 0.11786713 -0.15736407 0.16178437 -0.2984292 -0.509642 -0.46571073 0.1701844 0.14922786 -0.019425897 -0.2921855 0.406624 0.121550746 -0.8456354 -0.5173189 0.23284362 0.24890828 0.025945228 0.03566159 -0.13783696 -0.30415243 -0.058232196 -0.07181425 0.17083527 0.6529924 -0.15210733 -0.032373663 -0.23881608 0.11305304 -0.079131044
encuentran -0.07453558 0.09038745 -0.1368418 0.1494709 -0.3147583 -0.5092311 -0.46443352 0.17298947 0.12194758 -0.00041856186 -0.26920265 0.4301107 0.105720475 -0.86773324 -0.53498703 0.2512152 0.24256824 0.05410324 0.024842432 -0.14149293 -0.31772944 -0.037708905 -0.07646577 0.20212114 0.6727953 -0.16167863 -0.035224725 -0.24395587 0.12562594 -0.098481305
pasada -0.065755986 0.0907067 -0.1345082 0.16828068 -0.29246604 -0.51123524 -0.45962867 0.16414088 0.15002713 -0.015421358 -0.25549003 0.41809833 0.11070429 -0.85705936 -0.4951188 0.26754764 0.2313327 0.025793465 0.056627817 -0.12762704 -0.28912875 -0.037050527 -0.064902805 0.19926351 0.65993655 -0.14744958 -0.06268054 -0.23837438 0.11965335 -0.05607344
comunico -0.09278589 0.11425885 -0.14965989 0.14245631 -0.33386296 -0.5415813 -0.4637368 0.19150811 0.15950184 -0.0057967235 -0.2998989 0.39257726 0.13214166 -0.873504 -0.5331314 0.25089732 0.26298553 0.04065972 0.05675108 -0.13254872 -0.28799975 -0.036339022 -0.060184103 0.19918206 0.6625749 -0.16437934 -0.040982697 -0.22008947 0.1315167 -0.06506745
total -0.0851861 0.087695725 -0.16349086 0.17446278 -0.31412846 -0.5272433 -0.44687665 0.17177992 0.14403042 -0.0132301925 -0.29763776 0.39651123 0.10953617 -0.8383416 -0.50329095 0.2673141 0.23302706 0.047810867 0.03559831 -0.11359265 -0.31237543 -0.06483566 -0.09292615 0.17685148 0.661429 -0.14746524 -0.05601343 -0.20931846 0.119258024 -0.059062697
concreto -0.055816796 0.10193265 -0.14456171 0.1621703 -0.31200546 -0.5403596 -0.46005738 0.19373329 0.1355326 -0.026356256 -0.27554658 0.4272548 0.13150942 -0.8573402 -0.54120576 0.2603271 0.26536283 0.041699357 0.043065004 -0.13761859 -0.32803994 -0.06350025 -0.0687025 0.19873571 0.655433 -0.16574998 -0.02810864 -0.21878615 0.12546115 -0.0718229
citroen -0.07826074 0.12491963 -0.16736317 0.17580482 -0.31424066 -0.5068013 -0.43494058 0.17578422 0.14120075 -0.020361291 -0.27779996 0.38352603 0.14749715 -0.8503458 -0.51441056 0.24567744 0.24151143 0.049363513 0.06508525 -0.12107293 -0.30788955 -0.01845688 -0.058507796 0.17109369 0.64643705 -0.1626278 -0.041106217 -0.23102702 0.08932316 -0.085211374
probar -0.07086536 0.09732936 -0.13872547 0.14582919 -0.32630724 -0.5210811 -0.44096935 0.17795692 0.118031606 -0.007244455 -0.2637446 0.39081198 0.13640565 -0.8098822 -0.5132736 0.223849 0.24402626 0.04227496 0.0308119 -0.12468025 -0.29457963 -0.06150066 -0.0800525 0.17743172 0.6577912 -0.17383087 -0.069151245 -0.21843772 0.11373832 -0.061928246
computador -0.091620535 0.095900014 -0.14930639 0.18177995 -0.3173911 -0.51562244 -0.48619407 0.16812898 0.14108664 0.0038342455 -0.2806369 0.40317577 0.14517441 -0.8883619 -0.5275379 0.2674507 0.24081235 0.030611696 0.04315595 -0.14139408 -0.2992408 -0.052136995 -0.054560702 0.18651947 0.66969657 -0.16277161 -0.073014714 -0.22882758 0.11817343 -0.057652745
competicion -0.05666307 0.11336693 -0.132415 0.1580037 -0.30543458 -0.51347864 -0.46958846 0.19305123 0.14323977 -0.013992508 -0.2965102 0.41170037 0.14215389 -0.8629662 -0.52842414 0.2733393 0.25975978 0.02843638 0.03948484 -0.13731179 -0.2969592 -0.059144396 -0.08465821 0.1972518 0.6458862 -0.14888649 -0.04762908 -0.23525521 0.13295956 -0.08369829
usuarios -0.08477582 0.08240537 -0.17058967 0.15503252 -0.33095497 -0.53222305 -0.48248976 0.1945922 0.123029344 -0.0038568547 -0.30749142 0.39124474 0.13866283 -0.8507566 -0.52177346 0.26768753 0.25939262 0.04553689 0.06305312 -0.14913948 -0.30740052 -0.0563405 -0.090877414 0.19232818 0.6775473 -0.15010273 -0.058301233 -0.21086551 0.09767105 -0.060987167
quisieramos -0.07916611 0.11665766 -0.16928896 0.13785776 -0.2983279 -0.5166491 -0.45909628 0.19419909 0.13378651 -0.01570729 -0.26474044 0.38190258 0.14877401 -0.84849995 -0.53046954 0.28554177 0.2503515 0.064408645 0.057563737 -0.13759455 -0.2783995 -0.06669041 -0.06288193 0.17673813 0.6518577 -0.16772152 -0.034405682 -0.22456494 0.11271785 -0.07236028
minimo -0.09348419 0.09528353 -0.16447547 0.13530734 -0.34069976 -0.49662596 -0.4699061 0.19903642 0.15731068 -0.044531576 -0.28825757 0.41836792 0.11652177 -0.8611979 -0.5184569 0.25045264 0.25468293 0.051363863 0.06982664 -0.12727255 -0.29909462 -0.01661019 -0.078081295 0.20846811 0.6488707 -0.15330967 -0.04504608 -0.19952461 0.14011319 -0.07290798
petroleo -0.09954941 0.1021182 -0.16252321 0.15036388 -0.33697817 -0.531409 -0.46484077 0.19040945 0.1396709 -0.029215023 -0.27989832 0.40817246 0.12848441 -0.8396438 -0.5318669 0.2808248 0.22254774 0.04437451 0.047281202 -0.13615541 -0.30313984 -0.055466942 -0.054118242 0.16957924 0.6389218 -0.17437403 -0.028500656 -0.22611165 0.13357951 -0.08189742
realizacion -0.08545902 0.10378611 -0.1637658 0.17131716 -0.3254086 -0.5250779 -0.449432 0.15754752 0.15262018 -0.015872756 -0.29224035 0.39251226 0.12155123 -0.8821246 -0.5099263 0.25493962 0.26237983 0.042114742 0.06305036 -0.14420487 -0.3165096 -0.047589593 -0.078618824 0.1868796 0.6631142 -0.19066943 -0.027073609 -0.21992299 0.13182548 -0.07616351
creado -0.0743224 0.08628458 -0.15294138 0.13839678 -0.30743742 -0.52404875 -0.47777325 0.17169127 0.1267414 0.0020155886 -0.28914094 0.4110088 0.11058982 -0.89012265 -0.51059717 0.2533893 0.2438707 0.053459954 0.053338822 -0.1348966 -0.29650056 -0.047125474 -0.08909445 0.18524486 0.6777794 -0.17114392 -0.058747306 -0.23209573 0.099077515 -0.064424835
sistemas -0.08659859 0.08339254 -0.14993456 0.14009088 -0.32538018 -0.49271932 -0.47419432 0.19208664 0.13509107 -0.0027562496 -0.27058002 0.41751602 0.13298963 -0.86057395 -0.5084288 0.2878271 0.22775497 0.031056345 0.03500278 -0.1454586 -0.2924379 -0.05560906 -0.051528227 0.2106128 0.6670645 -0.17800635 -0.035653025 -0.23527308 0.13432406 -0.08828217
perdi -0.062066473 0.111258045 -0.1755514 0.17402089 -0.32331896 -0.5415432 -0.46100453 0.16430387 0.14414516 -0.015949897 -0.30112308 0.3902743 0.14121574 -0.87601393 -0.5217208 0.26735023 0.25141108 0.026435385 0.026369829 -0.11271419 -0.29857966 -0.033654485 -0.09951173 0.17304268 0.6934514 -0.14706393 -0.03691445 -0.21086413 0.13041456 -0.054813657
coloco -0.09655258 0.11139344 -0.1514877 0.14324932 -0.31201175 -0.5061558 -0.47639307 0.15241235 0.14465821 -0.026202267 -0.30238917 0.4069027 0.13632476 -0.8621502 -0.50423986 0.27063897 0.27156556 0.03612827 0.053889386 -0.13400029 -0.32260036 -0.047238257 -0.07643227 0.19260469 0.6474835 -0.18683071 -0.04776789 -0.20535299 0.101295605 -0.07441308
tecnologia -0.08529491 0.09942818 -0.15725727 0.15941334 -0.29291087 -0.4933687 -0.44202906 0.17605093 0.15127109 0.004102772 -0.29344875 0.38946003 0.12961319 -0.85135365 -0.4997303 0.2703186 0.2431961 0.0412867 0.0506577 -0.15499546 -0.29879776 -0.055518396 -0.07702863 0.2050869 0.6731512 -0.16398475 -0.031293765 -0.24025303 0.12989703 -0.086751044
trabajando -0.08316052 0.1184132 -0.15532844 0.16936086 -0.3318406 -0.53141457 -0.44939557 0.18452734 0.12892757 -0.0038850221 -0.2753577 0.39617673 0.11589761 -0.8758787 -0.5251341 0.27091318 0.2617449 0.0566134 0.031653743 -0.123641744 -0.3161374 -0.046181977 -0.0758298 0.18032482 0.67255956 -0.17342585 -0.04616908 -0.23934828 0.09984282 -0.09371795
inicialmente -0.0674211 0.1351427 -0.14556813 0.17117694 -0.3193567 -0.49347058 -0.4535591 0.18378228 0.14645459 -0.031016812 -0.29577136 0.40638396 0.12606716 -0.87384665 -0.50219554 0.2661405 0.25695226 0.032686364 0.03256181 -0.11335265 -0.3254092 -0.039690364 -0.05735678 0.18896744 0.6872712 -0.14943041 -0.06108635 -0.23528872 0.08899835 -0.06661367
perdedores -0.07883886 0.1101059 -0.14618747 0.15039009 -0.3036679 -0.5403585 -0.46527213 0.18778896 0.11379527 0.0028695306 -0.28699672 0.38622394 0.12323845 -0.85907036 -0.53736126 0.2383451 0.26463208 0.027568834 0.02506128 -0.1310938 -0.32013097 -0.034149922 -0.06782568 0.17142624 0.6323727 -0.17991959 -0.048886776 -0.25183016 0.08649669 -0.070787966
hogar -0.09441592 0.11868264 -0.16229004 0.16045189 -0.30718186 -0.536694 -0.48310563 0.1892902 0.14427994 -0.02211742 -0.2727837 0.42293006 0.12831706 -0.8553543 -0.52160954 0.2685295 0.2544924 0.046478707 0.029522728 -0.122558326 -0.31679216 -0.038841855 -0.05707478 0.20681432 0.6530286 -0.18018106 -0.037575983 -0.21210378 0.091812685 -0.07331337
presento -0.07022148 0.12086389 -0.14053012 0.13199364 -0.31792822 -0.482579 -0.4545093 0.15311073 0.1457063 -0.016333234 -0.27509835 0.40160012 0.105894424 -0.84509593 -0.49272797 0.25102103 0.23489057 0.054292046 0.014693378 -0.12403655 -0.3021385 -0.036054287 -0.08580631 0.18629505 0.6502233 -0.1661487 -0.04907004 -0.23709233 0.10424848 -0.088821135
ingresando -0.0823756 0.12974337 -0.16621998 0.15825698 -0.32365757 -0.49451563 -0.43735862 0.17454748 0.15368456 -0.013446351 -0.29181463 0.3993674 0.12613937 -0.82741255 -0.49721968 0.25796285 0.24863255 0.029994763 0.055548426 -0.12135921 -0.3109921 -0.0328147 -0.06728647 0.18716031 0.6550265 -0.15236977 -0.07025146 -0.22681111 0.105155975 -0.07790013
comunique -0.08429167 0.10191945 -0.13709742 0.16568844 -0.29989964 -0.5396809 -0.44345254 0.17799307 0.1330095 -0.014942461 -0.29599243 0.4010711 0.13806143 -0.89085877 -0.51938367 0.260884 0.26857257 0.031236302 0.0480338 -0.120502956 -0.29437584 -0.025508557 -0.06604562 0.16895871 0.6576238 -0.17190112 -0.070153765 -0.23205173 0.12871227 -0.09389365
aplicacion -0.060185622 0.098734155 -0.16402023 0.17993483 -0.3364157 -0.52724344 -0.47972345 0.17101051 0.16080719 -0.004039736 -0.31686515 0.41056576 0.14009574 -0.89915115 -0.52247846 0.26286277 0.24551316 0.05232166 0.047707733 -0.13387235 -0.2976484 -0.06492192 -0.055308938 0.18846859 0.66930175 -0.17951512 -0.03128344 -0.21243775 0.11547993 -0.06633711
principal -0.07917999 0.12342848 -0.1363187 0.17698511 -0.32319358 -0.53736633 -0.4742773 0.17403738 0.12013452 0.009526732 -0.2894639 0.4020804 0.14129494 -0.8647532 -0.5214683 0.26928008 0.23192556 0.04478833 0.024015894 -0.15052187 -0.30716494 -0.069241606 -0.06992253 0.19653922 0.65396136 -0.17811647 -0.06134458 -0.21892548 0.10230843 -0.058003437
participacion -0.1009969 0.105178416 -0.13483573 0.15764901 -0.3158113 -0.54880416 -0.4610897 0.1838251 0.15660903 -0.011171965 -0.27814326 0.40271932 0.1127064 -0.8827596 -0.5145893 0.28484318 0.2452742 0.038925078 0.050197326 -0.1254224 -0.30730328 -0.055608474 -0.05715845 0.1826115 0.6552646 -0.17102803 -0.038538132 -0.20733567 0.093317375 -0.096892156
grupos_interes -0.059913877 0.09454458 -0.17273228 0.1361142 -0.29141977 -0.53085506 -0.4659673 0.1624602 0.15281884 -0.030279007 -0.29265383 0.42612144 0.099380635 -0.85162854 -0.532496 0.23720042 0.26391372 0.08070484 0.060239673 -0.1343148 -0.29231697 -0.07379911 -0.07569556 0.20474003 0.65398 -0.16106176 -0.0535605 -0.22325821 0.12976906 -0.045074183
llevamos -0.07860632 0.12402227 -0.12653394 0.17788213 -0.30802897 -0.50307804 -0.46886492 0.16084257 0.15571612 -0.009959027 -0.29829523 0.40520173 0.12824641 -0.84958994 -0.5191868 0.2612105 0.22642298 0.02441781 0.052772474 -0.1340125 -0.28628615 -0.039340727 -0.062813826 0.18874869 0.6602272 -0.15653467 -0.028481869 -0.23534471 0.11265995 -0.094274536
llamars -0.063589565 0.09840677 -0.14837545 0.17479008 -0.31687355 -0.53800917 -0.46052384 0.16479222 0.13280082 -0.0010759075 -0.31336448 0.41501614 0.12951939 -0.8771838 -0.5429667 0.25402823 0.25294027 0.062019467 0.037060745 -0.1538135 -0.29625517 -0.053653657 -0.08508481 0.18645588 0.6626612 -0.1788864 -0.062706485 -0.21979204 0.104067504 -0.072037615
policia -0.06427022 0.11895204 -0.14125998 0.15896627 -0.30257326 -0.5375522 -0.45404962 0.1855082 0.12706107 -0.0061396356 -0.28651288 0.39917985 0.12037888 -0.8706253 -0.5133689 0.2878964 0.25540614 0.060861696 0.06056165 -0.14766787 -0.30456716 -0.029634727 -0.04873873 0.19460896 0.65608263 -0.1525488 -0.034345478 -0.24518414 0.10618477 -0.06367079
probe -0.08841984 0.10030466 -0.15470298 0.16914453 -0.33441356 -0.503313 -0.45375898 0.18052585 0.12933877 0.0003842529 -0.2948289 0.39284462 0.12749423 -0.86258173 -0.539656 0.26793897 0.22829257 0.06767413 0.03986889 -0.15348856 -0.2846159 -0.038895342 -0.066782534 0.17243867 0.6778716 -0.16472682 -0.020865738 -0.24724124 0.112544544 -0.08185269
produccion -0.09274558 0.118960045 -0.16245618 0.17333318 -0.31134593 -0.52632225 -0.43957955 0.17756307 0.12597802 0.0054663476 -0.2665921 0.39254397 0.110232405 -0.8659725 -0.5034695 0.25425845 0.24355423 0.016538912 0.03259071 -0.13897137 -0.28769565 -0.06900569 -0.058849428 0.161249 0.6558572 -0.17835167 -0.059091557 -0.20341551 0.12247118 -0.081856795
prestamos -0.06386359 0.12448857 -0.16415118 0.14662823 -0.33985606 -0.50779974 -0.4734521 0.1723196 0.15694073 -0.021260254 -0.28868964 0.40658215 0.11553943 -0.88593686 -0.5141063 0.26703572 0.2540735 0.033243347 0.047190964 -0.13615122 -0.2863773 -0.048666295 -0.06458831 0.20034347 0.6745528 -0.18167493 -0.028450724 -0.20534696 0.108334914 -0.07754255
funciona -0.06502875 0.088532686 -0.1603422 0.13326523 -0.3197384 -0.516377 -0.44872284 0.1573122 0.119331054 -0.007887775 -0.2758943 0.40706736 0.123503454 -0.87051517 -0.51773584 0.26857367 0.26530543 0.046972502 0.06652461 -0.14409739 -0.32214028 -0.060636614 -0.06933046 0.19547766 0.6542254 -0.1487479 -0.035849255 -0.21095648 0.10323151 -0.09023209
recuperar -0.056521468 0.11938221 -0.13024604 0.14336255 -0.32620335 -0.5046515 -0.45977458 0.18237695 0.13804033 0.004243509 -0.29696423 0.40814844 0.107982896 -0.8255327 -0.48868793 0.23698443 0.25465375 0.058298144 0.05506177 -0.15638418 -0.29360253 -0.055549327 -0.052287325 0.18673052 0.6593709 -0.1732471 -0.052318297 -0.20452103 0.10042168 -0.059844326
