2501 30
llamar 0.24538189 0.33396664 0.60171086 -0.039534293 -0.020862455 -0.83997726 0.11228905 -0.2160962 -0.52815413 0.006766391 -0.90081865 0.2881922 -0.26221782 0.28492737 -0.7228093 0.024787126 0.087716095 -0.3799105 0.085197695 -0.49591938 -0.5351497 0.010062048 0.16981386 0.51197237 0.18114735 -0.06780854 -0.41243583 -0.23389345 0.6031958 -0.27283794
medico 0.44614828 0.85451573 0.30805403 0.13238241 -0.5146283 -0.6082681 -0.49186876 -0.46589693 -0.39901504 0.1285597 0.2387779 0.73907167 -0.044509124 -0.7404857 -0.17797184 0.10118146 0.19663182 -0.044016425 0.25379354 0.08263153 -0.22977066 0.088985816 0.2712895 -0.11430732 0.25678653 -0.078634515 -0.3179756 -0.38817862 0.5360957 -0.7304339
paciente 0.17737299 0.353246 -0.2636705 0.0050004935 -0.5169334 0.30455697 0.00012384553 -1.4822768 -0.6771427 -0.34823856 -0.9781538 -0.3774505 -0.7784408 -0.97462523 -0.7572357 0.54729724 0.028483022 -0.4613739 -0.7027077 -0.6924488 0.3293863 0.325039 -0.13510405 -0.36041513 0.042250726 -0.9004305 0.79147595 0.053674042 0.8113675 0.12959388
telefono 0.83726114 0.6305289 0.7746725 -0.025291005 0.16856518 -0.7881973 -0.7374185 0.0046576676 0.60636836 0.19607615 -0.74312145 0.23124433 -0.2553672 0.42507958 -0.5300801 -0.07123485 -0.24558738 -1.598387 0.3367269 -0.9541087 -0.65358853 0.562261 0.18215127 0.32190648 0.13213468 -0.11525009 0.06538211 0.27714807 0.9148712 -0.53130925
solicitarrr 0.55666065 0.5385261 -0.33427995 0.41705897 -0.27574918 -0.42957884 0.22437179 -0.6877775 -0.10545317 0.18598841 -0.8677029 0.3204221 0.08216199 -0.69859356 -0.6112322 1.0107456 0.08833153 0.16453636 -0.09603809 -0.08147769 0.14531717 -0.016436778 -0.19081604 -0.34170645 0.68205345 -0.33628118 0.5856023 -0.60239214 0.73518306 -0.8064704
informacion 0.6445856 0.40671897 0.15793855 0.17591472 0.28222907 -0.50803155 -0.18912688 -0.20620194 0.20934041 0.11403407 -0.8906388 0.16266179 0.20842677 -0.80267626 -0.83343655 0.029426146 0.5932965 -0.0800069 0.27428937 -0.63580847 -0.5844184 -0.016190499 -0.021285187 0.042806007 0.5352018 0.24255294 -0.3429298 0.38056752 0.21814705 -0.06755384
pregunta 0.10755167 0.7864598 0.6080799 -0.082213305 -0.2169363 -0.11316827 -0.23846659 0.059324224 -0.31222332 0.092214435 -0.30461812 0.16082005 0.020500133 -0.5370859 -0.19314224 0.34860483 0.7612773 -0.56257373 -0.7760629 -0.6388908 -0.30325195 0.09563172 0.18065806 0.1985925 0.30909064 0.02594838 -0.32332003 -0.26628897 0.43176368 -0.6309319
medicamento -0.26802376 0.34976134 0.79400164 -0.44792652 -0.08924814 0.7889693 -0.6226568 -0.91344184 -1.0762465 -0.20820713 -0.16017608 0.45880863 -0.51823676 0.065629184 -1.1998836 0.0165774 0.00846195 0.45300987 1.2654533 -0.8690651 -0.51169884 0.027437583 1.4307762 0.55226344 0.52834666 -0.28123608 0.49851745 0.64157706 0.95973307 -0.057639107
bucaramanga 0.40197402 0.71058875 0.4152013 0.13524242 -0.1037978 -0.26737404 -0.40481028 -0.4917307 -0.38019767 0.30839518 -0.56334364 0.8405893 -0.43377268 -0.6130691 -0.10909864 0.27882293 0.41530094 -0.7526555 0.12602909 -0.22521551 0.631448 -0.0405208 -0.45521381 -0.46019235 0.9420351 -0.58137965 -0.43725464 -0.28101408 0.54076374 0.042559657
necesito 0.6070334 0.31020483 0.37118566 0.043780744 -0.7086441 -0.17860219 0.43831295 -0.46103418 -1.0620602 -0.3061234 -0.49441284 0.62328964 0.07219335 -0.18395738 -0.39945474 0.02216883 0.29404497 -0.9182421 -0.2232241 -0.15742604 -0.14460392 0.93655086 0.08618836 0.030717485 0.47699517 -0.70568436 -0.1617971 0.044249315 0.56473565 0.07099295
enviar 0.096793644 -0.058011394 0.2840417 0.30034292 0.07374576 -0.19902056 0.00022643921 -0.0981834 -0.709319 -0.061399143 -0.98080873 0.35493714 -0.11771857 -0.5162086 -0.55300933 0.7410208 0.9329348 0.5420197 0.3341738 0.36342758 -0.13593589 -0.8844022 0.4135042 0.23723216 1.1486803 -0.60152406 -0.021933593 -0.3729155 1.0788251 -0.48307446
problema 0.07498341 -0.06299502 1.2513413 0.38973227 -0.7737668 -0.1871325 -0.16813824 -0.5151291 -0.09371174 -0.2383099 -0.15025651 0.80146796 -0.41750535 0.20436375 -0.7414688 -0.4567929 0.7653339 0.36224374 0.41593018 -0.5433573 -0.5569228 0.48166734 0.63066214 0.49278986 -0.037411563 -0.3248088 -0.17242467 -0.022620069 0.21433428 0.40717041
codigo -0.21261792 0.58762944 -1.0412769 -0.48941335 -0.6946686 0.44812635 -0.043608546 -1.1527141 0.4754565 0.0883431 -0.9603299 -0.10979787 -0.32670847 -0.96376294 -0.7151972 -0.009027302 1.1675183 -1.2840393 -0.37572476 -0.7064678 0.42827463 0.8188037 -0.5250972 -0.59549403 -0.12940465 -0.9506816 0.37106484 -0.53456366 1.0590861 -0.04207542
datos 0.51469266 0.36662734 0.19525376 0.9711593 0.7720326 -1.2453016 -0.27580747 -0.046897158 0.23561388 0.43659836 -0.5427575 0.90668553 -0.93928677 -0.38974506 -1.5166731 0.27664617 1.0040891 0.07959678 -0.57225376 -0.21204765 -0.9804589 0.35197082 -0.6119989 -0.32577246 0.40050787 0.23146689 0.071712464 0.568655 0.7643699 0.0948366
comprar 0.11537753 0.5987013 0.11565319 0.34640694 -0.3257829 0.27765584 0.16062367 -0.56252605 0.16639778 -0.53562856 -0.5846138 -0.2206557 0.07601062 -0.17918132 -0.2796709 0.110084146 1.4857358 -0.25175613 0.14680481 -0.2320745 -0.5854666 -0.13802984 0.3408843 0.6037685 0.36628243 -0.36969873 -0.2495205 -0.048588816 0.07777172 -0.09644896
vacuna 0.092335664 0.14925236 0.7065016 0.078316815 -0.38896108 -0.7942957 0.8098026 -0.06933096 0.023718499 0.24614842 -0.9489386 0.42998552 -0.0038846827 -0.5733514 -0.97055817 0.44141585 0.73405594 -0.9570944 0.7576779 -0.39690745 -0.7562515 -0.69774324 -0.43620726 0.8957359 0.59938735 0.6364385 -0.27260602 0.7886884 -0.030927535 -0.24273728
urgencia 0.15697904 0.92001146 -0.854652 0.08999369 -1.0076562 0.4124606 0.2068366 -0.807049 -0.26946524 0.063666046 -0.8071398 0.02834729 -0.51497775 -0.8840729 -0.5390065 -0.22797905 0.3965197 -0.9121541 -0.5448357 -0.9850411 0.51781625 1.335193 0.24900123 -0.5329597 -0.45768836 -0.64593774 0.3416118 -0.69447404 0.5394621 -1.0237234
contestarrr 0.510028 0.85746276 0.59940815 0.14081413 -0.2736154 -0.7038292 0.18846208 0.14115572 0.046500705 -0.0040186457 -0.59387 0.37636715 -0.20139664 0.7397904 -1.0449088 -0.44172353 -0.5739879 -1.189231 0.6503383 -0.72753817 -0.85402787 0.5635769 0.692471 0.8769204 0.069228895 0.008885729 -0.2145819 -0.4095494 0.8954883 -0.116737686
ciudad 0.71635234 0.16465777 0.25891817 0.4302562 -1.4889826 0.0398336 -1.0840781 -1.0497558 -0.50957555 0.119208306 0.09949729 0.87933236 -0.836138 -0.86091346 -0.164309 -0.18038118 -0.09846589 -0.4458534 0.00024077785 -0.1398404 -0.11174219 -0.018228855 -0.34953338 -0.25934172 0.63284975 -0.17095092 -0.6232874 -0.08983353 0.27609828 -0.37276042
hablar 0.48308787 0.77826786 0.2474691 -0.12868814 -0.61487424 -0.14991166 -0.14252357 -0.36172408 -0.58341026 -0.10311594 -0.3786449 0.479833 0.56240267 -0.24579492 -1.0224348 0.20490362 0.2508108 -0.6057614 -0.024289832 -0.76305836 0.15040214 0.32230026 -0.04684241 0.22490464 0.5397796 0.9730571 0.22711039 -0.7428707 0.27348185 -0.27745843
haciendo 0.7336327 0.28000274 -0.13491768 0.30960646 -0.15661861 -0.16167809 -0.2929201 -0.48445812 0.011716177 -0.4017866 -0.30159917 0.55450994 0.10193764 -0.5036275 -0.67458427 0.41437966 1.0366807 -0.41209695 -0.12501825 -0.27633816 0.3390861 0.05013917 0.23567839 0.30727553 0.42641795 0.12389513 0.107251085 0.0031782615 0.48510408 -0.050871097
respuesta 1.0642158 0.26842007 0.13487051 0.7461977 0.26651824 -0.5692638 0.28577828 -0.20388635 -0.41696134 -0.38058975 -0.28245983 0.99029166 -0.08955361 -0.6153116 -1.1069279 0.4964369 0.04786194 0.30745068 0.42643428 0.3533521 -1.1636436 -0.53080887 -0.20824407 0.44915864 1.0352023 -0.32297748 0.66959506 -0.43984357 0.6377534 -1.0290462
cedula 0.0045854584 0.030870289 -0.40058345 0.58500797 0.00050772517 -0.27731052 -0.022938015 -1.0621251 0.60501283 0.3187702 -1.0251907 -0.98057985 0.113258675 -1.3577176 -0.43852204 0.5496391 0.84429324 -1.4841257 0.7221982 -0.3362938 -0.3683472 0.35279953 -0.046400554 -0.30824232 -0.5046363 -0.5137529 0.25258297 -0.7847607 0.9789717 -0.12947074
documento 0.22237521 0.29216313 -0.12495989 0.16296025 -0.28190818 -0.2248238 0.19521277 -0.7413064 -0.4457059 0.068749174 -1.1624669 -0.18825908 -0.121998094 -0.9033262 0.027008342 0.5573481 0.30769503 -0.33629057 0.21303084 -0.40835965 -0.25117847 -0.38682008 -0.20964435 -0.015667245 0.25389856 -0.052817404 0.857882 -0.745505 0.7874555 -0.40951863
control 0.12717046 1.1291163 0.15438552 -0.51547265 -0.38219798 0.27316916 -0.348375 -0.38757268 0.20086567 0.047364004 0.16398507 0.91127944 0.44084418 -0.68126184 0.06724475 0.2594636 0.955753 -0.710407 0.8289904 -0.6074786 -0.35225558 0.22979991 -0.38415784 0.115868576 -0.30813292 -0.33553508 -0.07398177 -1.0947495 0.10869319 -0.11519839
beneficiario 0.8103854 0.140171 0.8492371 0.057458907 0.2585164 -0.8152451 0.4464577 -0.24396075 -0.4042476 -0.16354215 -0.4178606 0.41275606 0.030800736 -1.2919809 -0.78138065 0.36843982 0.4997216 -0.5219689 -0.3043659 -0.13716958 -1.0756313 -0.16093244 -0.5668725 -0.51345235 0.410805 0.12878276 -0.15854065 -0.3021873 -0.018714266 0.12679543
celular 0.43331593 0.4160772 0.33399567 0.8380338 0.20637935 -1.137585 -0.7672128 0.10717284 0.6923596 0.26054323 -1.174593 0.30220336 -0.362127 0.39516556 -1.4997314 -0.7835845 0.00841068 -1.1659619 0.46960527 -0.5926914 -0.62627757 0.3893391 0.0067218444 -0.3831274 -0.03856852 0.22792108 -0.25084445 -0.8247686 0.32184386 -0.42457968
ejemplo -0.31615895 0.5879271 0.23287009 -0.1360203 -0.5588184 -0.29397014 -0.12836985 -0.35810262 0.38683274 -0.12045964 -0.08717743 -0.07986464 -0.75103956 -0.6958151 -0.31234822 0.3209245 0.69867325 0.04280778 -0.3477044 -0.7646729 -0.7422303 0.2776425 0.33019683 -0.09234079 -0.056990374 -0.36525068 -0.16385718 0.069238245 -0.082380205 -0.21793768
comun -0.53982013 0.7812483 0.29490948 -0.04613252 -0.4617683 -0.74605083 0.4465673 -0.44487205 -0.11930034 -0.5124938 -0.48184422 0.4543648 0.1631205 -0.040894914 -0.29174408 0.19723028 0.72655255 -0.54060745 0.40794376 -0.49748477 -0.35064426 -0.18489449 -0.042569622 -0.23468904 0.38098744 -0.18247838 -0.2614885 -0.31773636 -0.04933489 -0.37521255
dije -0.06776614 0.45302278 0.4697174 0.101180054 -0.22946945 -0.33538473 -0.22179979 -0.016473688 -0.19004326 0.27912843 -0.26204813 0.6929364 0.08982213 0.040596224 -0.64312726 -0.19853587 -0.21289624 -0.22674534 0.29082564 -0.6959554 -0.4645694 -0.00549215 0.9309262 -0.033481658 0.5782202 -0.3228855 -0.44030553 -0.21812679 0.708133 -0.830061
consulta 0.72217005 0.95375466 -0.3434962 -0.08757247 -0.80791587 -0.0015800877 -0.33201548 -1.3913732 -0.13968018 -0.21679948 -0.35280785 0.3381356 0.4167851 -0.6294685 -0.84518886 0.28097615 0.25474742 -0.24701898 0.34402215 -0.13165838 0.4428339 -0.3792329 -0.74826515 0.50765586 0.71839464 -0.49520367 0.43501136 0.6445673 0.37917602 -0.5572111
llega -0.2948246 0.22213502 0.7066828 -0.097617835 -0.6160351 -0.13341779 -0.47046536 0.24168769 -0.35080478 -0.26207623 -0.511795 -0.12647448 -0.13433497 -0.477382 -0.31252396 0.50154203 0.34266573 -0.78389937 0.16002735 -0.7142214 -0.77743834 0.21245982 1.1256212 -0.17851132 0.25970426 -0.6346374 0.3252714 -0.01448332 -0.27589515 -0.5166165
queda 0.2582983 1.0496737 0.33358237 -0.11062535 -0.34781268 -0.7963782 -0.31673834 -0.37394 0.40715754 -0.29993474 -0.47584563 0.39257067 0.47145042 0.19389239 -0.116011314 -0.17884582 0.063091956 -0.22958088 -0.5008865 -0.6537826 -1.1609527 -0.60440624 -0.16545902 -0.011180345 0.469402 -0.29812384 -0.29898852 -0.59168714 0.36101356 0.07336458
nadie 0.1490502 0.57441306 0.94359416 0.2937416 -0.78179145 -0.69750315 -0.06683857 0.054570347 0.4975376 -0.27867678 -0.19054255 0.44455138 -0.47560838 0.25455567 -0.6528791 -0.28266644 0.07616479 -0.8113438 -0.28099558 -0.72093433 -0.8055361 0.88827837 0.35306498 0.18099532 0.23089547 0.34527713 0.38521457 0.29606166 0.6431668 -0.1716118
producto 0.044023834 0.5486731 0.37076673 -0.26072064 -0.2433228 -0.38703203 -0.25983903 0.4321305 0.6235894 0.057514474 -0.74342835 0.1455166 0.24134922 -0.43542355 -0.3000723 -0.20365143 1.1237178 -0.23698425 -0.08232675 -0.30866826 -0.76700747 0.43771076 0.44890672 0.24862853 0.7057491 -0.45182282 -0.39430162 0.074653834 0.52838165 0.2368082
pasado 0.43600056 0.44778988 0.5433242 0.66008276 0.030820236 -0.15353887 -0.4819391 -0.52639353 -0.38870496 -0.2461829 -0.31603214 0.5908444 0.033678878 -0.0904649 -0.22361448 0.7785077 0.2522136 0.3754576 0.73820025 0.12379235 -0.8268811 -0.15127383 0.24127713 1.284007 0.32118386 -1.0741045 -0.4961929 -0.34516495 0.84692174 -0.17414255
vacunacion 0.42574668 0.934711 0.8965123 0.62074816 0.21633653 -1.4200555 0.30801925 -0.07287334 -0.30424744 0.21246158 -0.70019376 -0.17156732 0.60686135 0.15641312 -1.2751029 0.66945493 0.96483237 -0.4041662 -0.71159434 -0.07824096 -0.58678925 -0.28998685 -0.5520934 0.5393923 0.7746954 0.29635245 0.23732921 0.1430864 0.7126756 0.15664266
proceso 0.7017816 -0.07760158 0.18398859 0.027244471 0.39148906 -0.7334862 -0.5325465 -0.53592896 -0.5159308 -0.84947526 -1.173798 0.36653993 -0.08056719 -0.75474656 -0.98707706 0.61398107 0.13679181 0.13062274 -0.6578053 0.029629262 -0.2939943 -0.18405426 0.1739885 0.26352447 0.4078714 -0.2600937 -0.46550983 -0.38902232 0.5169091 0.071310684
perder 0.20665857 0.3654162 0.423906 -0.45724243 -0.4464084 0.20478463 0.024482166 -0.32297435 -0.04657477 -0.45844048 -0.3813046 0.74867004 -0.17107171 -0.33824146 -0.28094575 -0.09691883 0.7680082 -0.62767774 -0.12891065 -1.0305612 -0.21922517 0.0072603393 0.012836857 -0.048431173 -0.43375218 -0.53487355 0.3598314 -0.33726308 0.05888278 -0.24804361
esposa 0.13791119 0.59656614 0.54932517 0.18482877 0.17262684 -0.7896072 -0.5041701 -0.19424555 -0.21650314 0.38280323 -0.42811367 0.30906683 0.13283788 -0.5469095 -0.52781063 0.4227588 0.4861114 -0.13274184 -0.27791888 -0.05270416 -0.6166809 -0.12989351 0.66393304 0.19189653 0.32741112 -0.0012677877 -0.14539565 -0.58477944 0.2044941 0.058865335
medios 0.20373061 0.34476572 -0.65981007 0.8088299 -0.77988887 0.09678236 -0.16429472 -0.60327876 0.15554258 -0.048334785 -0.8542061 0.025142722 -0.66673774 -1.4109386 -0.44077978 0.39444283 0.67355496 -1.5046695 0.06725485 -0.51211774 0.05184839 0.5812263 -0.13226359 -0.9742455 0.1233724 -0.77541417 -0.02365163 -0.35197142 0.018444443 0.04412522
unico 0.35775992 0.25489733 0.61665124 0.049975082 -0.25449383 -0.4379113 0.5881702 -0.4729225 0.14530836 -0.33467573 -0.599993 0.1415252 -0.13405801 -0.3303873 -0.8142449 0.2165626 0.8072063 0.39783722 -0.21104354 -0.71767265 -0.036716845 0.027681379 0.9487495 -0.46492997 -0.4380634 -0.27443627 -0.41078553 -0.54004085 0.12874745 -0.10696259
enero 0.4972813 1.2440158 0.066441275 0.3316769 0.5009951 -0.24375403 0.6195065 -0.9309496 -0.40643603 0.81098425 0.11251618 0.18877229 -0.26404625 -0.5773388 -0.91126 0.14719787 0.027540518 0.5498932 0.5753162 -0.8944567 -1.0949937 -0.40722346 -0.32457307 -0.598841 -0.068989456 -0.4175702 -0.2940211 -0.53313375 0.5997889 0.13247856
problemas 0.21749723 0.67629844 -0.28441992 -0.3626008 -0.9452132 0.08048844 -0.07215807 -0.6745009 -0.052883025 -1.0207129 -0.12602276 1.2018702 0.2550481 0.10409955 -1.3158542 0.094353534 0.45525864 0.32369956 -0.23116322 -0.49652535 0.15134212 -0.33827415 0.51908475 0.367585 0.17425497 -0.63569105 -0.33049768 -0.42032626 0.10839264 0.53462535
oficina 0.076924086 -0.2587756 0.41571552 0.4894597 -0.47161612 -0.31559253 -0.024734939 -0.77289003 -0.9286253 -0.8367673 -0.98510635 -0.035521697 0.36607668 -0.41588342 -0.77915084 -0.03240464 0.45059684 0.14875965 0.31102324 0.3851675 -0.021930335 -0.31348467 -0.19931966 0.4399076 0.8627313 0.19799681 -0.23559874 -0.3483245 1.7753569 -0.9104612
espera 0.33122292 0.74856997 -0.027468314 0.5183994 -0.39814034 -0.8213345 0.067603745 0.3334969 -0.47341973 -0.1700795 -0.67766535 -0.4643142 -0.15758559 -0.47803095 -0.73317903 0.1882396 0.114552096 -1.0822443 0.14659233 -0.5427151 -0.3631763 0.034878902 0.08077505 0.089899786 0.5036621 -0.036169477 -0.4865876 0.07265564 0.71276647 0.2758784
pacientes 0.34040144 1.1697446 -0.20930897 -0.035656687 -0.8542649 -0.021553036 -0.92816 -1.0592581 -0.045926046 0.3763567 -0.24613515 -0.48630786 -0.5271511 -0.8495539 -0.6691271 0.31409818 0.10883717 -1.2908717 -0.33503303 -0.29041976 0.466932 0.656355 0.042490516 -0.29396015 0.07369703 -0.7459655 0.1814206 -0.29680157 0.20997865 -0.15903512
diciendo -0.21938306 0.43548483 1.1576737 0.19608961 -0.16735615 -0.63587284 -0.24776565 -0.12597984 0.10375619 -0.20513672 -0.60254604 0.29636818 0.52035457 -0.2517637 -0.8344995 0.9316496 0.47804993 -0.123693146 0.4093781 0.025425054 0.023288228 -0.037172753 0.33798873 0.31268436 0.9315378 -0.5287668 -0.032601908 0.1806206 0.6062791 -0.088061035
autorizacion -0.10666454 0.8705931 -0.7039379 -0.06940144 -0.363206 -0.4276147 -0.18668361 -1.0872041 -0.7165021 0.41933265 -0.3978868 -0.36094934 -0.9259281 -1.0432829 -0.7513164 -0.12627478 0.20640951 -0.1711582 -0.101979114 -1.258911 0.5030726 0.5447797 -0.27812755 -0.49651814 0.19639207 -0.76944906 0.8119893 0.2718053 0.7080048 -0.8088992
sistema -0.004701755 -0.2103612 0.1974148 0.9194589 -0.32068375 -0.4642833 -0.6979539 -0.78203785 -0.29286924 -0.46162248 -0.49315953 0.313856 0.4117252 -0.24844053 -0.8308282 0.88545084 -0.0023926338 0.2825972 -1.0356336 -1.0892311 -0.37763265 -0.055915177 0.4700161 0.17044479 0.30381373 0.0729019 -0.13822608 0.11541557 0.96127486 0.41325507
interes -0.25753284 0.6103993 0.7505598 -0.31508222 -0.04374856 -0.6113106 0.3033166 -0.72635937 0.043368563 -0.4324655 -0.17446755 0.80506456 -0.15898599 -0.64900136 -0.3111299 -0.22734743 0.36386165 -0.08781716 -0.16605611 -0.776503 -0.23756863 0.03718796 -0.4359203 -0.09129119 -0.1434318 -0.3614728 -0.023805184 -0.7255587 0.32687694 0.20730531
traslado 0.7621016 0.9133224 0.12958993 -0.2351216 -0.6553898 -0.25518215 -0.013978879 -0.53270084 -0.7240366 0.4141148 0.06315639 1.4212599 -0.70006466 -0.8824646 -0.57383364 0.28914756 -0.35616046 0.19033708 -0.75402796 0.046057306 0.50906885 -0.7200259 0.5784876 -0.3172233 1.4006582 -0.60649115 -0.27546433 -0.2278906 0.9480657 -0.30684736
contacto 0.8252472 1.0771558 0.6528548 0.3028022 0.5390654 -0.62573117 0.007503435 -0.41136548 0.54965645 0.43237525 -0.28093544 -0.2573366 -0.3521355 -0.55091465 -1.106532 -0.3976956 0.4253299 0.028942468 0.61893934 -0.8364493 -0.84765685 0.23635462 0.046542652 0.12192782 0.67184734 -0.014471768 -0.64184725 0.21253568 -0.012778218 0.55350685
mandar -0.60119545 0.7703885 -0.03572689 0.34179583 -0.19626522 -0.23374139 -0.52936286 -0.25422552 -0.26037866 -0.4872779 -0.7133749 0.9333301 -0.25454122 -0.34464937 -1.0062971 -0.46923864 0.34038535 0.2682092 0.65580344 0.0021931694 -0.7938019 0.12122477 0.09757153 0.1856209 0.57132477 -0.6443251 0.039419875 0.3783566 -0.0043072957 -0.40279374
cliente 0.59451467 0.78150725 0.61385036 0.28349316 -0.48821577 -0.31041187 -0.5089814 -0.10193798 -0.13645442 -0.37287948 -0.40637058 0.44007793 -0.4177624 -0.17570616 -0.29129252 -0.02665425 0.10539639 -0.5748538 -0.33208022 -0.30455342 -0.575593 -0.03635447 -0.22701234 0.16745283 0.01706317 -0.48741952 0.26212096 -0.033298697 0.43485427 -0.043999765
hizo -0.016002782 0.060383987 0.6584741 0.459215 -0.59150505 -0.40956265 0.012699053 -0.5286084 -0.058551867 0.0033930603 -0.6285475 0.32490477 0.34696838 0.68137807 -0.4602663 0.33678627 0.7836659 0.01422357 0.58713615 0.0029172439 -0.9239533 -0.23511985 0.17354286 -0.04112137 1.0657256 -0.26251942 -0.020303795 -0.29844916 0.93557054 -0.03309326
pueda 0.38365674 0.5055946 0.7012152 -0.48745492 -0.35643953 -0.82529044 -0.248011 -0.81324005 -0.21805556 -0.20550005 -0.27548772 0.51971495 0.41392267 -0.32213858 -0.9393826 -0.23850386 -0.3334802 -1.0653629 -0.36843255 -0.2951026 -0.0468849 -0.3607704 -0.04530574 0.10955458 0.39247933 0.38314113 -0.5333011 -0.36455557 0.48793066 -0.21685076
puesto -0.1390874 0.4160485 0.5022821 -0.45225793 0.02888618 0.23574242 -0.09075506 -0.24625547 -0.22897352 -0.71116865 -0.43125695 -0.12154327 -0.50071836 -0.7567788 -1.0353587 -0.06567853 0.7595487 -0.7953569 0.20673664 -0.82546395 -0.66989386 0.026202725 0.21693529 0.10588467 -0.3245751 0.238105 -0.33440477 0.16694438 -0.16474684 -0.28804633
cuestion 0.75755316 0.9487265 0.7967537 0.51226056 0.46347058 -0.18427362 0.1913487 -0.33563185 -0.550691 -0.098562516 0.32092494 0.83312696 0.20452227 -0.23138404 -0.9521996 0.5500556 0.9462657 -0.32568765 0.45510474 0.08341749 -0.5690607 0.34383065 0.3327289 -0.039477784 0.5925679 0.15729563 -0.6311373 -0.023277102 0.32186002 -0.31344125
pensionado 0.7820658 0.7188259 0.6024556 0.06189371 -0.09390316 -0.53398675 0.12375139 0.31637624 -0.5057124 0.15602922 -0.5510584 0.74695027 0.49796727 -0.8001394 -0.07342321 0.5525899 1.1535645 -0.15958808 -0.11336553 -0.016939372 -0.31007075 0.18327565 -0.56298935 -0.2080628 0.8524833 -0.46075422 0.2584918 -0.03751983 0.5826541 -0.26966316
oficina_virtual -0.7232979 -0.83703077 0.33800575 0.1343622 -0.97326857 -0.14721766 0.035349853 -0.51268 -0.0077124457 -0.6642963 -1.1527604 -0.31013003 -0.35787275 -0.8547148 -1.066369 0.5843864 0.61265194 -0.044809245 0.07927053 0.5552567 -1.4331645 -0.9550283 -0.1290975 0.29469404 0.9882586 -0.19400428 0.37644422 -0.75184757 0.20732959 -0.88616616
registro 1.0820254 0.14310971 -0.17458844 0.76896477 -0.12306098 -0.19345541 0.28406587 -0.6184448 -0.042359047 0.07367664 -1.3497633 -0.48595765 -0.47337213 -0.69216263 -1.0890538 0.08057484 0.34476525 -0.27353 -0.35073516 -0.48666832 -0.5151536 0.051343873 0.25968012 -0.4306581 -0.59028804 -0.47897035 -0.3993597 -0.15699776 0.5290642 0.24656333
historia 0.32806668 0.5781878 0.26608956 -0.12178746 0.0018489247 0.3097126 -0.3261489 -1.1594082 -0.33403847 0.57568 -0.12575854 0.36903432 0.5608598 -0.96207106 -0.95969695 0.005002445 0.34312096 -0.24627116 0.14907949 -0.2958526 -0.58968556 0.24864659 -0.49037233 0.023954134 0.5711021 -0.19604146 0.49723962 0.15256609 0.48073232 0.24654306
posible 0.97434574 0.5723974 -0.026773551 0.20862351 -0.511569 -0.5443864 0.45641947 0.25320137 -0.3193987 0.47537675 0.24503163 0.46085 0.22939765 -0.043252386 -0.758461 -0.023462463 0.45964822 -1.1853772 -0.41192946 -0.6562255 -0.847462 0.3363617 0.9259634 0.849886 0.3457005 0.2732825 -0.12810631 -0.70053977 0.2301324 -0.86220837
comunicar 0.49912843 0.68762976 0.16581935 -0.14599188 -0.35144305 -1.1889126 -0.035065815 -0.1566812 -0.0831478 0.5756463 -0.6242987 0.026768778 0.19479969 0.01013142 -0.6909168 -0.050803114 0.26752502 -0.98056626 0.46093997 -0.22274925 -0.18187235 0.05086942 0.21472985 0.49205175 -0.2583451 -0.18835431 -0.78002864 -0.8791796 0.21275653 -0.5662285
internet 0.49732733 -0.12360662 0.120163105 -0.3440526 -0.7656536 -0.12667221 -0.006251185 -0.39143905 -0.35988113 0.015807569 0.17656875 0.3811393 -0.7556093 0.0829493 -1.3903021 0.39873672 0.7652002 0.15175019 0.0047015217 0.10121446 -1.3642988 -0.9757981 -0.0971756 0.34401852 0.034843255 -0.19977435 0.43980354 -0.47613764 0.7971635 0.7552124
perdi 0.40709493 0.9043596 0.010143948 0.020800022 0.20048004 0.009289682 0.2451422 -0.74599314 0.41407573 -0.62914795 -0.31415874 0.27682072 -0.07850617 -0.1279102 -0.5473214 -0.26524016 1.3003753 -0.8497732 0.3154284 -0.42496493 -0.90975213 -0.7584875 -0.5458779 -0.46108377 0.7308306 -0.343052 -0.25572965 0.05900666 -0.28058454 0.22737165
verificar 0.46573338 0.23499934 -0.21526916 -0.10291284 -0.28956112 -0.20611408 -0.1880914 -0.22332862 0.038577136 -0.111742444 -1.316583 0.27199194 -0.80548257 -0.9320985 -0.17876182 0.094691776 0.708518 -0.28814724 -0.24777468 -0.724034 -0.093393125 0.69883335 -0.668546 -0.5334055 0.048834708 0.18567881 -0.034495346 -0.1489357 1.3280416 0.389415
mandaron -0.21362108 -0.033168748 1.1464616 -0.42664513 -0.7775175 -0.57009935 -1.1670743 -1.1225457 -0.21588346 -0.44188985 -0.4964632 0.5875194 -0.49398175 -0.7379515 -0.6379419 -0.20357394 -0.3719253 -0.24100101 0.8229401 -0.38762373 -0.5543655 0.4366432 0.60962415 1.0401672 0.76586974 0.36446017 -0.64223486 0.3100373 -0.387717 -0.6863286
situacion 0.104508586 0.8945412 1.0812179 -0.37869337 -1.279267 -0.36646223 -0.22268325 -0.8890452 0.043655742 -0.17941223 0.42783406 0.7699484 0.072627895 0.4486707 -0.37731874 0.41620803 0.74492323 -0.27594593 -0.35550597 -0.37125337 0.22806235 0.44304898 0.512289 0.706955 0.26604202 0.07397997 -0.28940088 -0.057212308 0.6712505 0.2252243
completo 0.27435738 0.40281558 0.30197245 -0.57885796 -0.12190977 0.36560062 -0.46710783 0.08899455 -0.57946557 0.22717679 0.008854455 0.1969615 -0.4295089 -1.131542 -0.660052 -0.1132559 0.26595226 -0.4104389 0.52216333 -0.65735275 -1.0068928 0.23997279 0.74149305 -0.4854221 0.09388791 -0.15674795 -0.057751447 0.26366255 0.4612078 -0.52227503
comunicarme 1.0821459 1.2650664 0.41663647 0.37603402 -0.13338089 -0.8637109 0.1175364 0.14667161 0.12983236 0.19501074 0.023605144 0.57495886 -0.26125816 0.19348648 -1.4423189 -0.5826487 0.27680457 -0.8369721 0.09672055 0.33593565 -0.3056007 0.35403714 0.3217136 0.3558441 -0.05565255 -0.99007684 -0.06109144 -0.59977514 0.0473992 -1.1527466
colaborar 0.0034782488 0.5373189 -0.4203632 -0.31200796 -0.6965943 -0.012089426 -0.14585806 -0.86954355 0.16412818 -0.07216598 -0.7337938 0.22440878 -0.25579995 -1.1724814 -0.23988192 0.7363479 0.14283578 -1.3635706 0.02562774 -0.69879365 0.18344943 -0.02657744 -0.19755447 -0.3979724 -0.34982875 -0.7027657 0.08189432 -0.041860566 0.41450593 0.070358604
cambiar 0.462904 0.61451167 0.5596836 -0.29165757 -0.35674268 -0.99667245 -0.6591604 -0.1845452 0.05016815 -0.55326414 -0.20146671 0.7133921 -0.80514187 -0.26318064 -0.05232793 0.70563704 0.050378818 -0.06295147 0.033169936 -0.37278226 -0.2209015 0.24563785 0.6430635 0.52754366 -0.20674935 -0.33445147 -0.108565 -0.3321534 0.40834433 -0.79216117
llegar 0.24782315 0.8597318 0.7714355 0.1540842 -0.14109838 -0.097752355 -0.6296156 -0.4249154 -0.7800494 0.28865173 -0.8275397 0.37980413 0.17121202 0.01851526 -0.8596481 -0.35876107 0.9806674 -0.31897688 0.455184 0.31496027 -0.51511943 0.256376 0.094421595 0.38663203 0.47237703 -0.3941918 0.3763947 0.026400808 -0.25332707 -0.08497636
procedimiento 0.52176684 1.0205653 -0.04117857 -0.46078902 -0.61694986 -0.42484832 -0.58958954 -1.3838428 -0.552024 -0.37555906 -0.28977072 0.07889844 -0.70592135 -0.33063108 -0.44320938 0.6408715 -0.01010632 0.11203969 -0.13446641 -0.17288116 -0.20575172 -0.26687518 -0.20395762 0.56068313 0.64394253 -0.56331253 0.002172798 0.8203948 0.46489125 -0.3306594
barrancabermeja 0.21190669 0.41224352 0.09547464 -0.32541063 -0.7701735 0.1411218 -0.39616132 -0.9906624 -1.1658336 0.09356721 -0.38629544 0.6465555 -0.6645681 -0.35632044 -0.05877183 -0.004625481 -0.047219317 -0.6528978 -0.2846215 -0.06905604 -0.13362807 -0.14884205 -0.2080977 0.44184354 1.3018922 -0.12899798 -0.28764898 -0.68721485 0.7326495 -0.14240012
fecha -0.40245816 -0.014597651 -0.15230156 1.1405184 -0.12471467 -0.6896884 0.4259492 -0.68485445 -0.64753807 -0.06322937 -0.6363788 0.18254116 -0.46893027 -0.8755163 -1.3401635 1.1951536 0.03651302 0.6141252 0.7239895 -0.14731744 -0.7622257 -0.90304476 0.39174107 0.5186657 0.2492681 0.14976741 0.89703894 -0.13251394 0.6568799 -0.4241181
preguntar 0.3543193 0.7446439 0.58741736 0.45729306 -0.5127789 -0.850659 0.7675334 -0.08949136 -0.36073944 0.8002423 -0.11036746 -0.038785882 -0.0065692314 -0.5901837 -0.7547938 0.805366 0.22719876 -0.3690874 -0.036530867 -0.87536883 -0.13997807 -0.4859411 0.13073234 0.25308836 0.4800355 0.28126648 -0.29074934 -0.03673882 0.22595912 -0.6985234
gmail -0.27086112 -0.16513762 -0.18931049 -0.56861395 -0.02514792 0.060875095 -0.38445345 -1.1249764 0.7014415 -0.9615646 -0.6081423 0.2918198 0.89748067 -0.5825163 -0.685154 -1.0442978 1.5141486 -0.16657774 0.70694906 0.21197511 -1.3105237 0.22915101 0.54919124 -0.4935125 0.6991253 0.14299753 0.13058266 -0.6967934 0.6007096 -0.077905595
entrar -0.58513504 -0.04536148 0.66137815 0.52720284 -0.12887064 0.06978064 0.3059917 -0.81629664 0.5319924 -0.2205646 -0.009749152 0.77037257 0.29805362 -0.64969474 -1.4503753 0.22610396 0.5549484 -0.037792377 -0.39934316 -0.934729 -0.7099097 -0.34117693 -0.4549711 -0.087256335 0.04390888 0.47284102 -0.5015319 -0.6162271 0.48366588 -0.40367636
idea -0.22504781 0.60024804 0.67810255 -0.26464656 0.104402825 -0.42018542 -0.47759232 -0.2786845 -0.38548252 -0.15350224 -0.25769287 0.17384267 0.36819917 -0.37111235 -1.1345325 0.28787887 -0.035153378 -0.31383893 0.03568287 -0.44048262 -0.5694541 0.094464004 0.615175 0.31144065 0.17868772 0.06122871 -0.20098981 -0.6267559 0.32305866 0.7005938
pedir 0.4266264 0.60586786 0.33857632 0.48210785 -0.81670624 -0.022309022 0.4277694 -0.6059423 -1.3918731 0.27427766 0.10174085 0.20270061 -0.27320117 -0.8183226 -1.2777053 -0.24430457 -0.25976065 -0.54252654 -0.47755128 -0.2988926 -0.5547187 0.22759962 0.17554946 0.02410581 -0.60492295 -0.7781099 0.27731907 -0.3428468 0.19853067 -0.25927874
pagina 0.05459953 0.6893568 0.035422828 0.2884464 -0.30209786 -0.59026504 0.9567977 0.1112948 0.85809714 0.2902991 0.24887887 0.94776267 0.2093112 -1.1300927 -1.2514033 -0.18105541 1.4900672 -0.77487665 0.6142077 -0.54761237 -0.15423404 -0.045711167 -0.570074 0.36794198 0.39286667 -0.1487265 -0.45094833 0.0664766 -0.36830655 -0.228184
autora 0.01227058 0.94009346 0.38584757 -0.48506227 -0.15523738 -1.0734069 -0.62457514 -0.34726924 -0.713985 -0.65036905 0.04372637 0.06905478 0.15165743 0.024813714 -0.85993534 0.31023327 0.45584026 -0.13455634 -0.06676138 -0.13900854 -0.06015891 -0.8368279 0.6561471 0.6515167 0.8743295 -0.23459318 -0.20353676 0.15376548 0.1812793 -0.8523782
llevo 0.09114475 -0.34582624 0.084252276 0.14714254 -0.24688567 0.090056725 -0.4928422 0.036581848 0.35067976 -0.25980827 -0.37449864 0.8933849 -0.40520334 -0.26525176 -1.2986798 -0.111445725 0.28732735 -0.77337676 0.46181324 -0.5601567 -0.91975343 -0.15976578 0.23725668 1.0974729 0.17258552 0.4790268 -0.31628537 -0.94143033 0.31061798 0.06411862
termino -0.43845156 0.24732219 0.47674552 -0.13349466 -0.5705164 0.0446333 0.050992046 -0.70495886 0.14184295 0.363013 -1.0268174 0.41917616 0.28408974 0.02605106 -0.06710827 -0.31734 0.5569791 -0.33596903 0.5156962 -1.0275234 -1.1280736 -0.11871359 0.05779367 0.089705326 -0.23302175 -0.2625364 0.12633558 -0.6758144 0.07912424 0.29510725
final -0.23087284 0.5744901 0.67748445 -0.037374277 -0.20152947 0.18933702 0.1426427 -0.05694313 0.20327584 -0.5372599 -0.7269391 0.30025327 0.4350016 -0.37222382 -0.58265364 0.38159075 0.84539187 0.3281224 -0.4498616 -0.47293007 -0.616737 -0.43127915 0.4767248 -0.24153753 0.47384235 -0.56570387 0.050752647 -0.12349356 0.34724706 -0.39003214
digame -0.37776065 0.032749746 0.33084434 -0.18117303 -0.6038363 -0.56080794 -0.23626915 -0.5410752 -0.53040844 0.00012754637 -0.72007626 -0.29358652 0.10100509 -0.5904891 -1.4394959 -0.25866657 0.063344195 -0.87673956 0.709106 -0.29290178 -0.5332018 0.92179453 -0.61126035 0.2325748 0.31116033 0.10437077 0.017859554 -0.20580475 0.26257116 0.3896971
pendiente -0.5125764 1.1195552 0.57645565 -0.023316713 -0.13725743 0.27583906 -0.019204129 -0.57777023 -0.4233168 -0.33196536 -0.8762613 0.60246754 -0.2856152 0.021790402 -0.5427303 -0.00605785 0.56394935 -0.45454052 0.6664926 -0.32824075 -1.0075762 0.1306133 -0.035493992 0.33944806 0.4170381 0.43488863 -0.45766535 0.67948145 0.21230245 -0.04504979
certificado -0.1332596 0.12074282 1.268627 0.14739272 -0.19108576 -0.531726 1.1348273 -0.09458229 0.0061667953 -0.5864694 -0.8107598 0.3760097 -0.70663655 -1.2669615 -0.22379003 0.93839175 0.68449813 0.011548242 -0.93987775 -0.2976298 -0.5127825 -0.091479495 0.6409097 -0.47599936 -0.29307836 -0.729986 0.09894281 -0.66092926 0.23523301 0.46466646
quieres 0.03993785 -0.1310965 0.24962345 0.0949953 -0.07627134 -0.4963543 0.111933984 -0.45614347 0.6344542 0.05153214 -0.9701005 0.23642963 0.53548294 -0.4940124 -0.99837697 0.161683 -0.32168907 -1.0533155 0.05211889 -0.8073437 -0.29646286 -0.37320027 0.30430454 -0.12972406 0.8309811 -0.22832744 0.41299716 -0.83896405 0.24357988 0.28302535
comunicacion 0.16017157 -0.18358399 0.19763307 0.13810903 -0.69323015 -0.5972995 -0.1887783 -0.37356427 -0.12606077 -0.58700067 -0.27045405 0.7562511 -0.12495305 -0.47797197 -1.2545329 0.139958 0.665178 -0.23942524 -0.569123 -0.023675913 -0.28275323 0.02229733 0.20884664 0.45404845 0.062306017 -0.076491565 -0.31797618 0.028133096 0.22584105 -0.119865015
especial 0.058952596 1.3382434 0.41242453 -0.84175146 0.06700332 -0.36757085 0.25825775 0.05667498 -0.24842292 0.1503467 -0.3343756 -0.01016522 -0.33246064 -0.645593 -0.93615013 0.6289808 1.04664 -0.0011211981 -0.12842363 -0.36374512 0.51311743 -0.14161287 0.21695773 0.513248 -0.2039379 -0.51558155 -0.731342 0.13966976 0.42492262 -0.7483623
mandan -0.7339522 1.1780044 0.8118463 -0.06691803 -0.34673935 -0.76966065 -0.4694604 0.13436858 0.49466532 0.24224441 -0.92208385 0.41145775 0.5601857 0.23687422 -0.9953825 -0.2772971 0.70446455 -0.2225005 -0.17845955 -0.031698298 -0.34418452 -0.08920827 0.3717376 0.0699581 -0.03641405 -0.21611953 0.02616105 0.23402509 0.54863876 -0.19289494
senal -0.3526253 0.32423645 -0.09515501 -0.057998277 0.108104415 0.13196842 0.044987284 -0.6952194 -0.30422297 0.020528113 -0.8023474 -0.12194567 0.0053890683 -0.30748677 -0.25396776 0.542996 1.1704234 -1.0793916 0.83742785 0.109887876 -0.9918572 -0.2541193 0.58380926 -0.13428676 -0.15794717 -0.6325398 -0.52210623 -1.0360358 0.031962726 0.37433845
electronico -0.021993428 0.024771728 0.096100315 0.6735072 0.11909844 -1.290311 -0.9325952 -0.32219052 0.13651168 -0.24897936 -0.98470527 -0.14726487 0.2934499 0.13323104 -0.802083 -0.3503465 0.7233181 -0.43296656 0.7907546 0.07095243 -0.8450354 -0.0363613 0.5717852 -0.15094112 1.4067775 -0.17374451 0.25197655 -0.56941074 -0.19711162 -0.8590735
alta 0.3866523 0.48768497 -0.1689494 -0.053672325 -0.0067731766 -0.122384086 0.049066193 -0.83722514 0.02795756 0.037115645 -0.41203284 0.41885602 0.39822575 -0.0139174 -0.29642192 -0.041006893 1.0699755 -0.07293323 0.41977802 -0.8375649 -0.34606484 0.24366972 0.07841474 0.38531312 0.26807246 -0.15401341 -0.13563001 0.15464357 0.6982744 -0.18285276
dicho 0.24209964 0.8913281 1.3083019 -0.7474226 -0.07540545 -0.1075199 -0.11313816 -0.27144578 -0.36102766 0.21948166 -1.0354955 0.3880409 -0.06516668 -0.6955501 -0.40473625 0.5207548 0.22219686 0.23710829 -0.0800525 -0.56667715 0.072891295 0.19068123 0.95535153 -0.021596612 0.037716433 0.2835736 0.1348718 0.06895187 0.50387466 -0.28312987
miren -0.10634524 0.20725852 -0.41742626 -0.73036885 -1.3006586 -0.34830257 -0.5984072 0.08249209 -0.021155246 -0.5876322 -1.2862848 0.87629735 0.3103438 -1.2170323 -0.5671827 0.70975035 0.26779386 0.67999184 0.15740295 0.5128066 -1.4301519 0.56497407 0.570349 0.61690176 0.7453771 -0.67830443 0.50508314 -0.7676068 -0.24583204 0.8618421
respecto 0.38080668 0.22486325 -0.34421656 -0.2631801 -0.46677232 -0.7750803 -0.08888639 -0.081346385 -0.8553617 0.048943233 -0.30438077 -0.2333653 -0.20945683 -0.46517894 -1.2563127 0.052359402 1.0813568 -0.38545576 0.2859108 -0.116177574 -1.1164911 -0.43880728 0.2118888 0.5292141 0.29758108 0.114188775 0.012875767 0.2816247 -0.14906035 0.44057262
temas 0.427886 1.1328926 -0.23542936 0.67379314 -0.67619866 -0.52152574 0.1905259 -0.21303046 -0.1795322 -0.026711257 0.032123312 0.22787124 0.39269993 -0.65707856 -1.029976 -0.15043168 0.344307 0.098407105 0.37643886 -0.36566684 0.2992922 -0.33589023 0.8999744 -0.25707275 -0.047071587 0.2271114 -0.83046687 -0.38777795 0.5582524 -0.42313877
horas 0.8138455 0.6516789 -0.05377066 0.012857978 -0.020316286 -0.97137964 -0.107526414 -0.54163635 0.16726498 -0.20730887 -0.20842421 0.29071897 -0.11897213 -0.08719367 -0.98736185 0.09599817 0.30572549 -0.48209852 0.5218046 -0.36494496 -1.2661314 -0.69324034 -0.31409878 0.6331513 0.20723133 0.22086284 -0.18587029 -0.23242666 0.10273361 0.5825779
confirmo 0.20586172 0.020362161 -0.6023681 -0.028070673 -0.6960144 -0.3930164 -0.48635936 -0.57988155 0.47917795 0.025850862 -1.079143 -0.5335122 -0.42003763 -1.3921468 -0.015442074 0.035441108 0.8984723 -1.1523666 0.4132316 -0.5675759 -0.30589566 -0.18677686 -0.22266974 -0.7046392 -0.27337357 -0.8746264 0.047682412 -0.34808904 0.5524837 0.33034033
visto 0.14290392 0.44610554 0.15930514 0.4681586 -0.27941263 0.15577298 -0.02857329 -0.447953 0.4089747 -0.19623837 -0.69026005 -0.09435974 -0.04964914 -0.19086298 -0.25827545 0.17016558 0.59558606 -0.6701412 0.43410683 0.18872546 -0.5130694 0.1185783 0.18345164 0.28195548 0.7420401 -0.15222624 0.5799383 -0.41685826 1.2323729 -0.067959875
ayudar 0.21133831 -0.0041475287 0.89086366 -0.38222185 -0.11219087 -0.99789095 -0.46800727 -0.40989783 -0.21226686 0.091597036 -0.58081 0.7425094 0.28867254 -0.42996815 -0.71303934 0.18001935 0.48486945 -0.90111715 -0.5651312 -0.44689727 0.08838542 0.25911683 0.40008935 -0.0056052976 0.6903793 -0.2529501 -0.32466874 0.006194303 0.13023417 0.8864546
diciembre 0.40282848 -0.19025518 0.42565113 0.84777343 0.0041295704 -0.48364633 -0.06525246 -0.4149534 -0.24081784 0.3766098 1.0889393 0.091505125 -0.6191615 -1.0079223 -0.87338406 0.611068 0.11021872 -0.21363714 0.34868863 -0.28356937 -0.95378226 0.18632317 0.40218544 0.44460684 1.1015818 -0.82318497 0.6140273 -1.1939903 0.7573558 0.5246075
recibir 1.1805109 0.3310563 0.8976996 -0.15385914 -0.17694521 0.19776842 0.22013487 -0.34781608 -0.5813974 -0.04726806 -0.41290408 0.139965 -0.48869494 -0.61068434 -0.5601918 0.22428773 0.30272317 -0.113467164 0.09351544 -0.12805294 -1.2495465 0.01301159 0.42697355 -0.020006657 0.22725646 -0.2643409 -0.009323929 -0.27332932 -0.27474734 -1.1481975
preguntas 0.49917597 -0.17760704 0.5055558 0.5151312 -0.24704057 -0.55906177 -0.21082431 -0.39209577 -0.64423823 -0.02899944 -0.22728299 -0.47863325 -0.4136913 -0.5619906 -1.0678061 0.4298956 0.82173043 0.08465234 -0.13580213 -0.34060746 -0.26228023 -0.43046606 -0.10088867 -0.27556643 0.53757405 0.038714793 0.24754423 -0.4947379 0.55811346 -0.1712064
conjunto 0.46968183 0.17826377 -0.20371675 -0.1825924 -1.0900185 -0.4250869 -0.09783536 0.005362427 0.23174927 -0.22870778 -0.5031276 0.15033594 -0.552666 0.07980989 -0.42083296 0.76882654 0.73691654 -0.47790846 -0.055492457 -0.27957952 -0.45744103 -0.30156475 0.31520534 -1.003996 0.11389726 -1.1977694 -0.63095325 -0.429441 0.50196004 -0.2046224
mensaje 0.586038 -0.25481907 0.20784019 0.034923635 -0.30993536 -1.3632675 0.22018829 0.5784 -0.6889266 -0.08177037 -1.1380229 0.7874962 0.5100134 -0.86448014 -0.90150326 0.8035216 0.18262646 -0.60473055 -0.036064062 -0.3502874 -0.415113 0.62730443 0.39857447 0.9376842 0.5054604 -0.007707702 -0.26666054 -0.38113257 -0.010425091 -0.55170006
momentico -0.13592917 -0.6536653 -0.32577917 -0.19790158 -0.11507898 -0.43900973 -0.44107062 -0.43584424 0.50771505 -1.0568696 -1.44995 0.5364109 0.38863662 -0.26386514 -1.4302953 -0.06914964 0.8535714 -0.9656973 -0.5407207 0.12661152 -1.1080292 -0.015642527 -0.11733094 -0.007287892 0.41447574 0.5435348 0.22899823 -0.38114598 0.65911794 0.10110298
formula 0.19041836 0.38373092 -0.17884153 0.24768628 -0.5516106 0.6457229 -1.1862245 -0.53046083 -1.9421653 0.45369318 -0.081510924 0.9283759 0.5930748 -0.37069747 -1.3853778 -0.046701558 -0.12664133 0.1324693 0.80302435 -0.6499268 -0.9282728 0.5911967 1.6819507 1.3062172 0.6306869 -0.9728056 0.4626093 0.6027985 0.1760854 -0.53456944
viene -1.0047946 0.45899156 0.18621284 -0.41193408 -0.11555646 -0.8319106 0.22136962 -0.53272104 -0.31765348 0.2001208 -0.6932002 -0.10993676 -0.52748317 -0.7095254 -0.21451266 -0.5865593 1.4406525 0.03825764 -0.18481125 -0.7340424 -0.69224596 0.4895632 -0.45007223 0.025910432 0.16321336 -0.10576323 0.48245797 0.2265735 0.6787481 0.3957927
llamars 1.4782381 0.9444349 0.3352109 -0.11753323 -0.05028067 -0.84992146 0.34009513 0.21389177 0.32220283 -0.15016639 -0.6841627 -0.21667874 0.08614958 -0.042650305 -0.9312811 0.34287292 -0.027506508 -0.2763832 -0.5500361 -1.3860756 -0.593228 0.3105175 0.014581433 -0.049925577 -0.123077534 -0.42819214 -0.81088877 -0.0022033146 0.45569843 -0.26467386
numeros 0.6359182 0.9135345 -0.11796068 0.83044237 0.29253188 -0.36500534 -0.06957213 0.13919345 -0.09077794 -0.6383999 -0.42248708 0.65421647 -0.72603726 -0.17351371 -1.55127 -0.29188848 -0.44293457 -1.5221058 0.7145218 -0.5177417 -0.80197597 0.35320875 -0.12553078 -0.39501634 -0.2331144 -0.12142535 -0.57601345 0.41767356 0.664063 0.16744477
unica -0.29614934 0.4537855 -0.015533963 0.42087448 -0.43123126 -0.1905942 0.021019487 -0.75824237 -0.018960504 -0.52581125 -0.22699139 -0.56054467 -0.43971568 -0.9939966 -0.98833317 0.42203614 0.10310242 0.034067478 0.21030912 -0.29348287 -0.47087905 0.3457775 0.7735347 0.93665504 0.63070273 -0.4686664 -0.059249096 0.24944514 -0.032850876 -0.24563248
mirar 0.9945273 0.90786 -0.10916912 0.19655718 -0.35950115 -0.40856004 0.0486982 -0.40207925 -0.2888354 0.16499689 -0.15047008 0.7088418 0.2724762 -0.2133662 -1.2286277 0.58437943 0.31154048 -0.45275798 0.9119252 -0.07097983 -0.8523786 -0.24948725 0.41778305 0.18444821 -0.045044534 0.9375974 -0.3554584 -0.37065485 0.028086988 0.23590378
salir 0.2227093 0.84511507 1.0909715 -0.60456544 -0.9955692 -0.44152755 -0.38189575 -0.052409142 -0.35304683 0.14454797 -0.009939356 0.36138427 0.18932089 0.16985492 0.24418105 -0.02005587 0.8046746 -0.10902368 -0.5630245 -0.46152845 -0.29239073 0.75709003 0.68227273 0.34765416 0.5800774 -0.58161074 0.4446276 -0.3450441 0.781497 -0.32693923
confirmar 0.23210432 -0.07018628 0.1755513 0.96532756 0.14715582 -0.8662084 -0.20763084 -0.7571221 0.15594032 0.14013863 -0.0039273864 0.5136655 -1.1180166 -0.36115384 -0.43241102 0.6929362 1.036939 -0.7497659 -0.09861472 -0.85329765 -0.69184977 0.71960366 -0.2353108 -0.65923727 -0.028388197 -0.13705093 -0.82282835 0.42104727 0.6146639 0.13030484
nivel -0.15189013 0.235194 0.7575952 0.050389547 -0.59144104 0.307915 0.09114373 -0.46722487 -0.9171608 0.16592175 -0.8891874 -0.14310166 -0.18238848 -0.6710254 -0.9412738 -0.07182918 0.49025992 0.09945505 -0.9240138 -0.53061944 -0.32970318 -0.4092983 0.2562638 0.73130924 0.13264771 -0.18922779 -0.48087615 -0.4639438 0.25825232 0.23414497
opcion 0.7895825 0.40315413 0.33318838 -0.14709932 -0.45948532 -0.513607 -0.37333682 0.15999734 -0.2958428 -0.11798211 -0.18534936 0.526475 -0.47266477 0.064635426 -0.61462694 -0.8208795 0.46246287 -0.22958875 0.3424893 -0.48381436 -0.83056265 -0.08238619 0.1903786 0.21760617 0.086429045 -0.21567927 -0.602134 -0.85342324 0.5276509 0.34162992
tratamiento 0.16555297 0.82520586 0.58399844 -0.09391201 0.47989386 -0.26927787 0.39408535 -0.48800352 -0.1784341 -0.7944828 0.21538614 0.4572154 0.15828729 -0.52889043 -0.3130699 -0.15023461 0.6742037 0.3900987 0.06832881 -0.8964673 0.18819644 -0.3351682 1.456079 0.3347792 0.41318777 -0.34424454 0.41553858 -0.56745565 0.5361036 -0.26958352
necesita -0.43209684 0.079722546 0.40868917 0.15978077 -0.01812928 -0.3105869 0.49962398 -0.59935296 0.12567003 0.07242902 -0.28961292 0.7817122 0.03187582 -0.24874337 -0.72920334 1.0208731 0.9325561 0.6452259 -0.50931054 -0.74037516 -0.16803412 0.5107651 0.121794336 -0.6219857 0.53996664 -0.58630383 0.6887521 -0.5456168 0.866932 -0.15219627
dices 0.21683264 0.28446656 0.6722087 0.69470364 0.3107134 0.24014674 -0.38836095 -0.31208614 0.46671176 -0.15510312 -0.5549384 0.77443564 0.21208476 -0.113079 -0.51461744 0.48972228 0.3214178 -0.74453646 0.14008422 -0.8621331 0.034840558 -1.0189108 0.34020767 -0.23139256 -0.07635365 -0.6620902 -0.15710488 -0.43350124 0.61838144 -0.90394896
edad 0.46400318 0.50653183 1.0518955 -0.8508146 -0.23324877 0.4019703 -0.097005814 0.020674452 -0.95242894 0.052520745 -0.12739503 0.37373194 -0.2934372 -0.012774929 -0.29193568 0.98499715 0.9594714 -1.1181248 0.23729436 -0.836963 -0.79806125 0.18094523 0.06456844 0.3676743 0.32247272 0.4230475 -0.33475488 -0.023968508 0.12275469 -0.82844114
estacion -0.016396457 0.33398202 -0.07604263 0.6847638 -0.56089485 0.0018569436 0.30332044 -0.62577397 -0.37384456 -0.6361385 0.20189652 0.30744278 -0.13845092 0.3133185 -0.6567845 -0.36657488 0.7964918 -0.91793525 0.18207154 -0.3719512 -1.0989811 0.021605145 0.839154 -0.77099466 -0.1608643 -0.45677263 -0.068373114 -0.45900658 0.51980716 0.5500381
precio 0.1420184 -0.079566024 0.4622096 0.3878788 -0.3583042 0.27805713 -0.22519036 -0.097009845 0.1393888 0.19809015 -0.8381929 -0.13512 -0.23340227 -0.60186386 -1.1908214 -0.26004392 0.8025006 -0.40973485 0.23888174 -0.2501241 -0.4951238 -0.3337153 0.06759946 0.8813006 0.11606961 0.36924878 -0.09294711 0.07547613 0.9083502 0.12150407
partes 0.54623985 0.6615277 0.2507136 -0.40222675 -0.4906066 0.4439218 -0.0744589 -0.80755967 0.020460935 -0.1478247 -0.33169436 0.69440395 -0.37176314 -0.12532106 -0.1500762 0.04385386 0.46792874 -0.6535194 0.80677104 -1.0164467 0.09347998 -0.422683 0.77405196 0.174574 -0.55949885 0.56077456 0.1991411 -0.41693103 1.1099321 0.71154356
queremos -0.18132348 1.3706161 0.39131883 -0.07497089 -0.21357355 -0.8995237 -0.3126103 -0.14659521 -0.6074793 0.28444886 -0.35222855 0.71620625 -0.6018487 -1.3600909 0.043075617 0.7829285 0.8880244 0.1345329 -0.6630247 -0.485221 -0.79952747 0.50310004 0.12026902 0.13186528 -0.028931523 -0.28638056 0.28909847 0.37750736 -0.8297772 -0.38885888
tarjeta 0.34371433 0.58631706 -0.07209163 1.0019691 -0.16836727 -0.27695015 -0.6787311 -0.21836817 -0.11338402 -0.2295612 -0.7752447 -0.34378076 -0.15550362 -0.9819422 -0.11878723 0.13764164 0.07758584 -0.29744288 -0.66927373 -0.7223829 -0.8580624 0.3237819 0.4356516 0.25817674 -0.21689098 -0.47220844 0.1959947 -0.5608399 0.28779098 0.21525662
barranquilla 0.12228176 0.49116227 0.88387597 0.8500384 -1.8372254 0.8326239 -0.9270504 -0.8396616 -0.13649067 0.20781603 -0.13506676 0.12517756 -0.64173174 -1.5635521 -0.35377628 -0.26610264 0.49016422 -0.88704664 -0.11842654 -0.47373503 0.760006 0.20397845 -0.47497186 -0.3925087 0.77719605 -0.95560265 -0.27666342 0.30062562 0.27734175 0.2211019
octubre -0.23517932 -0.0931084 0.01532438 0.025369564 -0.45388344 -0.19369684 -0.48080567 -0.8534793 -0.1775915 -0.3610808 -0.5993199 0.39741096 0.6814578 -0.6050432 -0.35885945 -0.011261954 1.018988 0.08258393 0.5040904 0.5186305 -0.9345113 -0.9865473 0.014834987 -0.16070929 0.22611178 -1.0456325 1.0460476 -0.88505 0.47107592 -0.15993708
comento 0.35823965 0.6852484 0.46834174 -0.41443968 -1.0153804 0.14727624 0.3366945 -0.6738905 -0.2268229 0.16593803 -0.3637663 0.16635971 0.15389746 -0.7820145 0.62840855 0.23103994 0.9275539 -0.8544981 -0.52468455 -0.70180255 -0.38772172 0.11493608 0.088754825 0.18647538 -0.77538836 -0.63529825 0.9881121 -0.28194287 0.6086456 -0.15679309
actual -0.3851068 0.55078584 0.85401416 0.5172537 0.31200546 -0.80704653 -0.55417365 -1.198259 -0.51967263 -0.43425226 -0.06784397 0.5269957 -0.5447074 -1.197298 -0.37597227 0.06283129 0.78660524 0.3350261 0.24978241 0.46441653 0.21534856 -0.25903147 -0.050179083 -0.2640707 0.21966487 0.13558704 -0.8211961 -0.14790699 0.9946202 0.28297937
hablando 0.54279536 -0.14006706 0.016073145 0.21018438 0.3949103 -0.57756436 -0.27759066 0.055595316 -0.40567604 -0.14517966 -0.7335134 0.30879962 -0.15772639 -0.5851273 -1.355081 0.4365266 0.8441491 -0.0052596964 -0.13809466 -0.8298106 -0.81781375 -0.4641111 0.5003128 0.10267458 -0.012772512 0.07822187 -0.9573012 0.260756 -0.039173048 -0.018496579
entra 0.22026622 0.5482238 -0.50667393 0.73996586 -0.09207998 -0.38030288 -0.38224846 -0.4247206 0.20865928 -0.03316981 -1.4621071 0.65204644 0.12352507 -0.32611892 -0.40069923 -0.02921124 0.7115107 -0.30334634 -0.122165576 -0.76561546 -0.14876625 -0.46822226 0.15988043 0.14966622 0.3779937 0.19237722 0.06138262 -1.0668589 -0.3700992 -0.18895197
compuesto 0.38181886 0.26916844 1.1864685 -0.22895268 0.11118597 0.13993843 -0.5196601 -0.38613296 -0.07120974 0.3985752 -0.49920425 0.86049175 0.8310566 0.021968251 -1.2003105 0.18001854 0.121279016 0.22666746 -0.18923944 -0.7452597 -0.84084135 -0.062397797 -0.10242757 0.6674697 0.37197268 -0.31726688 0.017701866 -0.67674285 0.4493802 0.18240902
tramite 0.349807 0.5430685 0.19815983 0.1678955 0.58864045 -0.72516984 -0.8222983 -1.4158072 -0.3625912 -0.30775473 -0.17656946 0.6803243 0.6854672 -0.48851576 -0.95711315 -0.021468734 0.41939202 -0.26994058 -0.010415389 0.0377732 -0.09724023 0.1481673 0.33875522 -1.1782624 0.8127197 0.059021212 -0.3014289 0.0683946 0.69994634 -0.30337757
podia -0.048278205 0.0027793539 0.39558086 -0.063476704 -0.68245494 -0.13285413 -0.20880662 -0.7398787 -0.8302347 -0.17139554 0.44044867 0.984544 0.3612123 -0.52196455 -0.66752994 0.36094433 -0.11473803 -0.3847961 0.19115806 -0.84446776 -0.71070063 0.11232362 0.54672426 0.5798376 0.7458767 -0.05142907 -0.8937763 0.3885086 0.35124415 -0.47950807
deben -0.17482424 0.38370267 0.23100427 -0.046596535 0.12300016 0.4176234 -0.08290298 -0.7508719 0.14136462 -0.14321168 -0.24020241 0.8522254 0.6845622 -0.6804427 -0.6662791 -0.11236522 0.48725575 0.012066586 -0.7254925 -0.5684883 -0.5624224 0.4937519 -0.1955463 0.07671427 0.2576177 -0.35772854 -0.2112368 -0.09427549 1.2090267 0.019228872
esperando 0.9904988 0.2981924 0.34574363 -0.3236242 -0.48199457 -0.7930794 0.65574205 0.19219725 0.3268269 0.17803735 -0.5190433 0.21367745 -0.16151114 -0.12977898 -1.1742316 -0.70125747 -0.22308828 -0.64003056 0.030094339 -0.73166436 -0.85003203 0.3530761 0.83399135 0.21997234 0.5108311 -0.4186605 0.36797705 0.5137953 0.67421114 0.15961024
poner -0.3264441 0.42450696 0.36692923 -1.1687788 -0.67095214 -0.71719235 0.15857165 -0.46232188 -0.13083743 -0.30154493 -0.56276935 -0.079521604 0.46556535 -0.47251803 -1.1292604 0.12924197 -0.5752338 -0.080820434 0.7148857 -0.8910784 -0.4087263 0.0092581855 0.4826959 0.24785455 0.034300353 -0.2969645 -0.16595449 -0.0120581435 0.572429 0.36224833
lleva 0.64144856 1.1592475 0.2880192 -0.19078583 -0.6960163 0.17480403 -0.25678456 -1.4990458 -1.0458896 -0.56414586 -0.35348743 -0.330018 -0.002416797 -0.6162637 0.015919281 0.062240347 -0.08620882 -0.49679628 0.085653625 -0.67603725 -0.4665535 0.1678549 0.4272822 -0.64279544 -0.6020063 0.27855858 -0.78239536 -0.36796516 0.44220388 -0.0024393862
hogar 0.3614593 0.18848161 0.15530175 0.037763525 -1.1910288 -0.64147496 -0.88675606 0.2767827 -0.052826338 -0.07124711 -0.27010912 0.83929497 -0.6525509 -0.91018295 -0.3754819 -0.44378027 0.46233585 -0.2664047 -0.049153723 0.20976399 -0.62753516 -0.7682704 0.17738143 1.0397726 0.06649172 -1.4210919 0.48723546 -0.2894702 -0.29102764 -0.24414401
perdio 0.19596902 0.9100441 0.18461926 -0.2928826 -0.22679424 0.039970953 -0.21430936 -0.1919218 -0.0115296105 -0.1201109 0.27279425 -0.24856123 -0.22829907 -0.50379485 -1.1815609 0.6660821 0.4618857 -0.4716931 -0.3869102 -0.3052227 -0.3461556 0.090207994 0.12536576 0.7661836 0.32929954 -0.7864431 -0.43137133 -0.23689684 0.18970583 -0.081746705
programa -0.00632701 0.56766313 -0.10477342 0.43447107 -0.6200857 -0.05988823 -0.13594134 -0.5520728 0.4676253 -0.43989345 -0.54816014 -0.025048815 -0.52590495 -0.7905518 -0.7431942 0.06783976 0.71913666 0.4733959 1.041625 -1.3095034 -0.84218025 0.44648072 -0.37699822 -0.32931486 -0.43799517 -0.9605335 -0.4658418 0.1419777 -0.53982455 0.50847095
competidor 0.18010622 -0.37569863 1.034857 0.17474896 0.10143543 -0.25440416 -0.01609816 -0.14980507 -0.61900866 -0.11447172 -0.58703977 0.11947392 -0.26491046 -1.7732997 -0.7819142 0.3171415 0.47760284 -0.4911885 -0.70101094 -0.3016494 -1.26772 -0.41551855 -0.43220976 0.35829785 0.07854736 0.27113792 -0.34600812 0.29614043 0.4685533 -0.036741003
beneficio 0.38225386 0.35835063 1.3396672 -0.1419228 1.1416236 -0.628952 -0.20065421 -0.20000437 -0.4597856 0.047110572 -0.314256 0.5148132 0.119739234 -1.8647481 -0.40892673 0.7529078 0.81807786 0.40900886 -0.24139059 -0.6342868 -0.5559631 0.66204756 0.7698846 -0.540027 -0.17107132 0.35753396 0.15467076 -0.8688617 0.6005938 -0.30877182
total -0.2618714 0.39395916 0.30444983 -0.40467542 -0.25233012 -0.069840916 -0.1539813 -1.0208621 0.108563654 -0.09427942 -0.6567303 0.4985062 -0.779308 -0.6407028 -0.50695115 -0.09063588 0.34968206 0.23074177 0.26125327 0.23934413 -0.7452721 0.022358466 -0.48169526 -0.34172195 0.31333816 -0.13729395 -0.3275771 -0.20176612 0.7701614 -0.64967954
cancion -0.024894042 0.83204216 0.40831402 -0.253261 -0.315535 0.3246578 -0.072355606 -0.20884219 -0.2136267 -0.5941777 -0.30075017 -0.015355795 0.2329094 -0.1523256 -0.8522823 -0.22147654 0.20710883 -0.15290178 -0.09429572 -0.40414584 -0.50845426 0.065045506 0.5913808 0.36699808 -0.011714096 -0.77134925 0.14670727 -0.3676497 0.7198694 -0.014654284
enviaron 0.37672365 0.21840005 0.25565094 0.9403909 0.34731397 -0.060785037 -0.67746425 -0.5237023 -0.5439588 0.3619301 -0.98341584 0.7544218 0.19409756 -0.7221187 -0.83979386 0.89132804 0.08103607 0.3152345 0.8450346 0.34033257 -1.0161048 -0.75022715 0.18681398 0.75305593 0.87498903 -0.528609 0.4490672 -0.40510735 0.13587946 -0.9292577
inicio 0.14340279 1.1259845 0.36073098 -0.25492907 0.13919666 -0.11632546 -0.336537 -1.4797767 0.83750683 0.8129653 -0.44929203 0.2483621 -0.07366194 -0.7902285 0.033973847 -0.18310653 0.6983884 -0.03315423 -0.053230975 -0.8820043 -0.599142 -0.5170035 0.08372784 0.39731708 -0.045897707 -0.17469665 0.46915802 -0.57033736 -0.34217548 0.27742916
trato 0.7282868 0.792169 0.2904787 -0.3062711 -0.4288255 -0.6997578 -0.11849154 -0.33923784 -0.07835596 0.08604683 -0.041363373 0.08602555 0.29931223 -0.3007723 -0.70829403 0.2341736 0.5421728 -0.35487214 -0.31210124 -0.41154888 -0.6735418 0.22441414 -0.26821005 -0.38383517 -0.016094616 -0.66472584 -0.5968082 -0.62343305 -0.22231959 -0.41844556
activo 0.8143867 0.21737811 0.27089646 0.93032396 -0.5686643 -0.54963183 -0.0837281 -0.5509098 -0.0037818244 -0.30777103 -0.37482128 0.422619 -0.64292777 -0.38163805 -0.5612149 0.0898122 -0.16384898 -0.55120045 -0.19131704 -0.16409235 -1.2487059 0.6968611 0.26654145 -0.27591622 0.39347318 -0.47683316 0.76300436 -0.045065824 0.03699004 0.05472658
pasada 0.8656759 0.6714281 1.0372369 0.62789387 -0.14234662 -0.30023643 0.31917262 -1.0315558 -0.7212849 -0.61741865 -0.032183487 0.7848024 -0.35359585 0.3112902 -0.32021663 0.46536338 0.53874135 0.12792064 0.41469154 0.049004182 -0.6395477 0.11270958 -0.1129737 0.7750915 0.7283628 0.66093546 -0.19604696 -0.73059016 0.74442476 -0.7788927
proyecto -0.22377928 0.8315922 0.8521815 -0.6721766 0.25285524 0.23101193 -0.23982434 -0.049357895 -0.17678584 -0.6583736 -0.95434064 0.51797837 -0.4566203 -0.9843422 -0.892739 0.20538156 0.14795823 -0.36169586 0.302107 -0.0068098544 -0.272421 -0.54376453 -0.052436918 -0.0303322 0.07517547 0.44442293 -0.264203 -0.050111476 0.92130786 0.1501525
hagame 0.69835794 0.68292624 0.049308863 -0.40153354 -0.3224452 -0.17578073 -0.039201155 -0.3462913 -0.21594943 -0.12490655 -0.5147972 0.37682185 -0.19256 -0.92108095 -0.5293665 0.05662979 0.55195266 0.21380773 -0.016241137 -0.4929276 0.014296042 0.23617385 -0.2842226 -0.008751815 0.63761455 -0.5887699 -0.12152655 -0.097989105 0.06619991 -0.09863038
ultima -0.47911566 0.6903725 0.7752402 0.5640714 -0.20403959 0.22232537 -0.28003535 -0.62675256 0.24611893 -0.69446236 0.25901166 0.58687854 0.86769074 -0.92313427 -0.20930104 0.07672331 0.40660754 -0.7399731 0.35661334 -0.38476178 -0.3507878 0.66475254 0.8111132 1.0590776 1.1239012 -0.15385307 -0.19335449 0.74924934 0.62550104 -0.45636263
credito 0.34291008 0.99755436 0.7246124 -0.13759735 0.19132213 0.57990384 -0.618869 -0.36080325 0.2824308 -0.39055136 -0.88087606 0.21441625 -1.2705431 -0.35212874 -0.31510597 -1.1060382 0.8961573 -0.06851138 -0.41976258 -0.51551133 -0.3050665 0.39856243 0.29647386 -0.07228488 -0.11149968 -0.6406476 0.075301036 -0.45578584 0.33267266 -0.28553897
beneficiarios 0.60531294 0.6163253 1.0832496 0.76873374 0.6704495 -0.46721372 -0.4168321 -0.6499235 -0.7631093 -0.1326091 0.00271408 0.9580591 -0.09505467 -1.1621252 -0.6261837 -0.19273041 1.1260369 -0.5079618 -0.21710409 0.1920153 -0.32198882 -0.044727936 -0.53434956 0.30688313 -0.08217442 0.03385205 0.30114493 0.0691886 0.31830823 -0.0050562704
entidad 0.1843831 -0.0325716 0.3931331 0.32766607 -0.99795455 0.06739099 -0.2623915 -0.18542556 0.095654756 -0.5200962 -1.0636436 0.09768472 -0.6597304 -0.5741429 -0.70571786 -0.49485606 -0.17804174 -0.59033996 -0.34911257 -0.506988 0.007161424 0.23847929 0.3290359 -0.14286694 -0.23064037 -0.09471335 0.41869354 -0.4033929 1.07496 -0.31898442
minutos 1.4701464 1.2837286 0.038569123 0.14895019 -0.20122741 -0.014763941 0.0018270407 0.32318038 0.29750195 -0.84008783 -0.9402457 0.6355034 -0.007011307 0.15076798 -0.5425263 0.33214027 -0.13631813 -0.70907474 0.5158781 -0.45590648 -0.9100011 0.46179268 -0.28660345 0.84148693 0.27896008 -0.21839267 0.55306506 0.18452308 0.7747969 0.06240247
pandemia 0.8198546 0.9787355 0.87829655 0.046605524 -0.4481187 0.01779857 -0.5229123 -0.18187094 -0.5978259 0.22545993 0.4409388 1.4217678 0.2812066 0.019053414 -0.25674027 -0.65311974 0.87530524 -0.11319696 0.35008532 0.04150163 -0.023631599 0.23268595 -0.05426711 0.20625885 1.0737858 -0.50553125 -0.12132037 -1.1456805 0.49327153 -0.69377476
exactamente 0.2068527 0.51241523 1.1208873 0.10433241 -0.027759671 -0.191529 -0.65037864 -0.6848722 0.31633785 -0.76214087 -0.10556984 0.5995638 0.055633336 -0.044958442 -0.1986165 0.26769793 0.4587764 0.03146026 0.40003416 -0.6818506 -0.7621669 0.3883048 0.4553106 0.06389904 0.2550758 -0.5980962 0.08646337 0.11206737 0.032333285 -0.052377068
listos 0.46471003 -0.33207542 0.5871208 -0.96038866 -0.66692245 -0.60702884 -0.77774096 -0.49551508 0.23235989 -0.14289083 -1.1630434 -0.3251662 -0.35518208 -0.48843324 -0.11045685 -0.7565785 0.39017576 -0.43766546 -0.26607552 -0.42766178 -1.3118112 0.062849514 0.100817524 -0.40864307 0.6875099 -0.47975582 -1.2413956 -0.1358164 0.3074001 -0.0326804
atender 0.08936372 0.6228325 0.29960382 0.062043335 -0.63970643 -0.86376727 -0.52872366 -0.5964282 -0.6752926 0.09660989 0.0781233 0.912063 0.18412143 -0.20197597 -0.5584752 0.8659749 0.0706512 -0.56468594 0.04229778 0.090407595 -0.062460028 -0.7755168 0.71247005 0.7856176 0.060582846 -0.6083712 -0.83831 -0.2557509 -0.037603535 -0.13243249
averiguar 0.62920266 1.0481429 0.66780376 0.05211066 0.8115848 -0.979791 -0.16390389 -0.07894916 -0.08283898 0.03091361 -0.38551667 0.27791142 0.6786118 -0.7138145 -1.2898129 0.13028054 0.4046013 -0.3869807 0.42479098 -0.25670922 -0.1499781 0.76145905 -0.13220385 -0.102859624 0.0830671 0.046394307 -0.25896233 -0.20089173 0.5002945 -0.19403881
volver 0.89121664 0.13127421 0.5178752 0.3744611 -0.34397304 -0.5711003 0.5008398 -0.37443164 -0.74779326 -0.055185687 -0.64557743 0.9130193 0.10001363 -0.1804481 -1.3228784 -1.2067878 0.1546286 0.16483268 -0.0905121 -0.28800973 -0.25895464 0.4383238 0.42678967 -0.27010885 0.045504134 0.09940182 -0.2243131 -0.32151723 0.64710003 -0.8831949
autor -0.72433186 0.54873496 0.117866665 -0.49222144 -0.118421756 -1.04028 -0.078962356 -0.62557876 -0.3616892 -0.23622397 0.5040279 0.096534535 -0.04773467 -1.0619675 -0.49863943 -0.195282 0.05864289 -0.14885171 0.6987009 -0.5482245 -0.3462834 0.50924695 0.02909806 -0.17611668 0.92909825 -0.6658869 -0.2776537 0.22545333 0.71109146 -0.39130166
hermana 0.47425392 0.21908635 -0.13481347 -0.15304351 -0.27541038 -0.025589932 -0.027620409 -0.5668386 -0.31044203 -0.8296892 -0.12017938 1.2107946 -0.7946623 0.1722755 -1.2155039 0.62489575 -0.09953417 0.13124985 -0.36980885 -0.69383705 -0.1767197 0.18663174 0.4966106 0.16578208 0.7638319 -0.35279977 1.012698 -1.2426484 0.06707928 -1.2720768
derecho 1.1067361 -0.08394175 0.08154143 -0.081600174 -0.03315662 0.23834722 -0.13203412 -1.0119915 -0.28818244 -0.09417392 -0.11767585 0.112621 0.553701 -0.6987395 -0.21788715 -0.39254332 0.5200718 -1.4544538 -0.13275139 -0.54508495 -0.39655414 -0.4303021 -0.04204488 0.15868074 -0.26197788 -0.5008575 0.4925366 -0.7030949 1.7872671 0.8142544
agente 0.15397593 1.2689909 0.03961812 -0.33687806 -0.0129345115 -0.1711278 0.18448451 -0.10163019 0.1129791 0.5900135 -0.59656966 0.23396392 -0.3026225 -0.81860614 -0.8120324 -0.38746437 0.61588186 -0.22071923 0.44525498 -0.46246672 -0.22707239 0.25828564 -0.4358069 0.2721074 -0.13300791 -0.3509212 -0.6529184 -0.794254 -0.043028675 -0.37579998
quedan -0.094181806 0.37756434 0.39041957 -0.016145824 -0.4884022 0.17967281 -0.9908548 -0.5372985 0.42222455 0.26801032 -0.37206185 -0.051328786 -0.35287672 -0.3520199 -1.0576549 0.43954515 0.43933028 -0.75556064 0.21800865 -0.04148273 -0.11014889 0.36477304 0.59870017 -0.2108224 1.084944 0.17205657 0.41093758 -1.0001376 -0.08247353 0.14539252
preguntica -0.38214964 0.09535561 0.8470443 -0.16904199 -0.0143612 -0.5424124 -0.1525075 -0.37071973 -0.72854257 -0.9701332 -0.8646108 0.48333952 0.35500225 -0.17184825 -0.4510089 -0.683543 0.9763113 -0.6293497 -0.17039828 -0.020134946 -0.47430965 -0.12145967 1.3329535 0.42875057 0.34596804 0.28551748 -0.34779465 0.014978418 0.597991 -0.27714744
telefonos -0.014866163 1.6295102 0.99371016 0.23082589 -0.24249466 -0.45971882 0.35466027 -0.43732598 0.092186145 0.20943268 -0.15447558 0.6683883 0.25676253 0.8241935 -1.1541723 -1.3466988 0.24125989 -0.956365 0.024675988 -1.1195999 -0.1916041 1.0212061 0.046264496 0.37867668 0.6360042 0.77343005 0.4327662 0.047317486 1.1157825 0.21983351
examenes -1.5580595 1.2190037 0.43377304 -0.08379296 -0.48225117 -0.058032446 -1.0272818 -2.2650795 0.32069448 -0.35995758 -0.126373 0.6243693 0.019214071 0.2619085 -0.17562759 0.04698445 0.34814963 -0.2858831 1.9253564 0.21241182 -0.45393482 -0.823213 0.19910783 0.10778697 0.5867597 -1.2886707 0.55057585 0.07699087 0.255942 -0.30761325
entendi 0.6209315 0.05849975 0.45749587 0.37281477 0.24445269 -0.3784645 -0.73647475 0.21946524 -0.36795616 0.18420093 -1.1021171 0.2426202 -0.41307184 -0.72697896 -0.08172082 0.6789682 0.8712529 -0.16017394 0.39979362 -0.12752452 -0.5834731 0.3733996 0.72153664 0.15769616 -0.6569593 -0.71722376 0.73600745 0.3253989 1.0800267 -0.40867272
encuentro 0.26108602 -0.110367954 0.33021313 0.72255903 -0.48081845 0.17799476 0.51842433 -0.8640816 0.5450731 -0.74827564 -0.75462085 0.041356623 -0.2627946 -1.2432935 -0.592728 0.12859339 0.9251334 -0.59563756 0.0668806 0.1764952 -0.26456478 -0.69030374 -0.3770922 0.2768081 0.045652363 -0.68129516 -0.36792022 -0.076721855 0.23237179 -0.0744819
normal 0.21722752 -0.11654383 0.6976562 -0.17692687 -0.09613429 -0.1320706 -1.1673678 -1.692704 -0.296474 -0.40967909 0.37147528 0.8539797 -0.04376805 -0.26429325 -0.00256248 0.4846194 0.7158467 -1.0178415 0.11364077 -0.8078876 -0.11339997 -0.21388228 -0.08431527 0.4117471 -0.28321278 -0.5889944 0.15754557 0.43471247 0.19126509 -0.8250016
pregunto 0.62744474 0.3821983 0.48768264 0.06585976 -0.42506728 -0.7431877 -0.5853459 0.16382311 0.13668199 0.098464526 -0.35078144 0.037796628 -0.3256501 -0.20672801 0.54285073 0.4450024 0.8094959 -0.33276072 0.13627349 -0.65504175 -0.039776247 -0.54030526 0.5396708 0.2162673 -0.25134897 -0.49019322 0.5107704 -0.64358234 1.4982538 0.49122635
correr 0.50593126 1.0451024 -0.030710554 0.45612696 -0.6007167 -0.4620891 0.20743935 0.62713486 -0.09712448 0.02933453 -1.2243282 0.33351526 0.16427524 -0.35074076 -0.47219345 0.13375519 0.5937531 0.3467544 0.29959822 -0.66200876 -0.36817905 -0.45786905 0.7518661 -0.26434416 0.51798844 -0.42006263 -0.0968869 -0.41117898 -0.45205393 -1.7740924
contrato 0.33241072 1.4143147 0.8288535 0.32970804 -0.0731672 -0.5258301 -0.638739 -0.13038488 0.06893562 -0.10575586 -0.5356521 0.120298676 0.04558442 -0.21767573 -0.22701663 0.29071647 0.543719 -0.43003038 -0.6259651 -0.6695913 -0.064281255 -0.38141593 0.93790287 0.028171217 0.68229383 0.804955 -0.7261518 -0.5500237 -0.10552611 -0.5533638
presente 0.017379276 0.5101531 0.91132337 -0.35210577 0.41621616 -0.42130682 -0.6387037 -0.9599246 -0.12635235 0.2317034 -0.042566657 0.7320021 -0.8300788 -0.34692845 -0.6319088 0.56562257 0.19842768 -0.02956209 0.28009832 -0.21650147 -0.3578182 -0.49921066 -0.20178434 -0.33240378 0.027589148 -0.765348 -0.1331611 -1.0021789 0.045369983 -0.41206077
hotmail -0.2062169 0.758929 -0.18711627 -0.6458005 -1.0556271 -0.9627725 -0.21379663 0.91413873 1.0821021 -0.198327 -1.2430623 0.3328188 0.91760767 -0.48606256 -0.52048033 -0.80801153 0.76931834 0.029173633 1.1799179 -0.15012643 -0.19262932 0.6877327 0.8305575 0.68742263 1.3386827 -0.9325682 0.013432354 -0.76544076 0.57802624 0.31462952
llegan 0.46759617 0.10721073 -0.033721484 0.8206362 0.22339714 0.09873979 -0.2423186 -0.50302243 0.4346692 0.20576033 -0.7307199 0.31497988 0.46069497 -0.6246588 -1.1107632 -0.06497443 0.0039461507 -0.70288503 -0.19165866 -1.1944062 -1.0920857 0.12270269 1.1995021 0.66788167 -0.98144686 0.199062 0.03463612 -0.20764609 0.26939785 -0.18370277
color -0.026538331 0.10845239 0.65026903 -0.21330148 -0.4499921 0.3073298 0.4948014 -0.840932 -0.2779186 -0.7340738 -0.37966985 0.06409984 -0.31286517 -0.41357026 -0.08406296 -0.3222271 0.5312778 -1.3741541 -0.5046383 -0.75614643 -0.9448555 -0.1620705 0.13371208 0.22760507 0.69419444 -0.60462993 -0.14134347 -0.371432 -0.30317172 0.25730422
virtual -0.34484634 -0.08869312 1.5070418 0.20579849 -0.7044432 0.66092074 -0.23058735 -0.6953921 -0.3520037 -0.29303217 -0.5860395 0.051048484 -0.4681365 -0.23563875 -0.6608026 0.07134097 0.9401703 0.145901 0.22550346 0.8018879 -1.1938615 -0.33210933 0.71877295 0.028560234 0.070052326 -0.070190124 -0.01694863 -0.11288412 1.0637815 -0.8135462
importa -0.12858514 0.97120315 1.2551465 -0.54625094 -0.20258015 -0.51880974 -0.14448988 -0.43078595 0.37340623 0.3773759 -0.63477266 -0.0138580995 -0.43618026 -0.6861136 -0.31759307 -0.28004998 0.96418315 -0.05218055 0.2631536 -0.8317031 0.068291344 0.2337168 0.2393935 0.20275255 0.29765728 0.8619722 -0.34345078 -0.29692918 -0.031299457 -0.15254018
lunes 0.07116608 0.9961583 0.9960931 -0.066842236 -0.7581572 -0.6163535 -0.033388197 -0.31740868 -0.296486 -0.2858318 -0.7182114 -0.14229678 -0.9552694 0.48949426 -0.63725066 -0.048664533 0.5602876 -0.5110163 0.37993503 -0.1833793 0.12240186 0.7737767 0.3333798 0.6356188 0.16988617 0.13405283 0.06274936 -0.5043986 0.23178084 0.032537855
estudio -0.13494208 0.494892 -0.28275576 -0.45413777 -1.1790401 -0.23377708 -0.3350978 -0.31288746 -0.41747895 0.49045578 0.052218944 1.1920872 -0.93684095 -1.072951 -0.2559161 0.34860873 0.66851544 -0.04973465 0.31332296 -0.13176796 -1.1103483 -0.08688769 -0.40064064 0.18297558 -0.09340266 -1.0118651 0.10343363 -0.7182087 -0.7957044 -0.28626907
urgente 0.17753482 0.7528369 0.50331897 -0.52673656 -0.1754596 0.72828484 0.06155562 -0.20225564 1.0186989 -0.074225076 -0.63613117 0.1135427 -0.14258419 -0.8560358 -1.3324416 0.5579006 0.43753523 -0.45510313 -0.27614236 -0.9530726 0.005999109 1.3151603 -0.40816233 0.42936885 -0.38167495 -0.23817874 1.2091916 0.13036104 1.2176319 0.10826361
poquito -0.6210454 0.18928549 0.5096649 -0.009444323 -1.1697674 -0.68802834 -0.23863417 -0.5472327 -0.4472459 -0.10360104 -0.29426926 0.5305831 -0.35657185 -0.4577722 -0.47456625 0.24609533 0.86795646 -1.1212181 0.1779547 0.8740648 -0.60588175 0.29694656 0.7842829 1.3858097 -0.42116973 0.27727106 -0.4005313 0.48950073 0.83965427 -0.5431064
llamarn 0.06907925 0.093863495 0.3248545 0.27700216 0.05543149 -0.85451317 0.3741939 -0.54724467 -0.20009096 0.22941296 -0.73796165 0.74454606 0.24732758 0.17876068 -0.88198143 -0.09808763 0.14736475 -0.28199452 0.40935856 -1.0914016 -1.1839268 -0.15340607 0.17715928 0.105487406 0.31720257 0.2098946 -0.5171715 -0.08378105 -0.10028558 0.1803637
titular 1.4508091 0.733292 1.4817336 0.41021496 1.1849842 -0.8177551 -0.32205787 -0.3303925 1.1922866 0.4741538 -0.7713294 0.7007483 -0.16140744 -2.0247908 -1.3365756 -0.011379125 0.7287417 -0.2588247 0.52363265 0.28472814 -0.998323 -0.04897943 -0.98246306 -0.09796386 0.3487992 0.43386206 0.049361277 -1.5296032 -0.35444567 0.15579684
realizar -0.094590895 0.56170696 0.46742508 -0.05367722 0.0653438 -0.271431 -0.22299252 -0.54377997 -0.024186978 -0.24782793 -0.43961793 1.1827574 -0.18409935 -0.62388486 -0.8293898 0.0033300687 0.615661 -0.33417594 -0.28596818 -0.14441095 0.52921826 1.0493128 -0.7541575 -0.051010557 0.5177025 -0.9300675 -0.22635005 0.03535077 0.548031 -0.6402583
vacunas -0.85092944 0.66497576 1.0512714 0.61967456 0.3265088 -1.634696 0.21123075 0.78071547 -0.13376746 0.3767442 -0.6799204 0.45013422 -0.29301494 -1.4624349 -1.2312752 0.7124785 0.8333694 -0.9630027 -0.4163665 -0.39197853 -0.60435325 -0.4956519 0.40275142 1.1261462 0.42797333 0.43013266 -0.27428326 0.99552566 0.0044462346 -0.6287778
formulario 0.510074 -0.11728195 0.58994514 0.577895 0.28998238 -0.73574054 -0.48911732 -0.4582346 0.015853463 0.6805039 -1.0913405 1.2522866 -1.2069838 -1.524986 -0.90300214 0.5387224 0.2061159 0.8956034 0.08755095 0.07934946 0.023497697 -0.48377767 0.63345003 0.27594364 1.274604 0.35403073 -0.33501127 0.3790671 0.41682997 -0.9689098
sede -0.7128159 0.45790628 1.1711929 0.17996825 -0.9202277 -0.28522 -0.034144774 -0.2380165 -0.18832715 0.08309658 -0.11740889 0.7728113 0.10308372 -0.11447605 -0.6296379 0.11023661 0.61844486 -0.974239 0.93644583 -0.3065242 -0.29112998 -0.5847724 -0.49260265 -0.5124796 0.47860023 0.4587734 0.024620876 -0.5950786 0.35069582 -0.29423025
familiar -0.019276977 0.83380103 0.16743708 -0.5086308 0.4830196 -0.8266317 -0.08128373 -0.17855145 -0.77319497 0.25355476 0.80800027 0.77274126 0.1205929 -1.5602037 -0.11001777 0.90933895 0.9745701 -0.34793022 -0.59001845 -0.83650017 -0.69174975 0.49804956 -0.21469398 0.34621778 -0.2411617 -0.37191862 -0.005083224 -0.05036983 0.5377179 -0.85905933
plataforma -0.04812547 -0.5273924 0.6278628 1.1122259 -0.23986664 0.19986176 -1.502442 0.24677764 0.060778625 -0.8215826 -0.0469494 0.7407903 0.4486983 -0.50055057 -0.9189594 -0.16416867 1.3642738 -0.2819365 -0.8921612 -1.2556957 -1.0682015 -0.4207623 0.0051736957 -0.29551417 1.1786625 0.6261684 0.13810728 -0.7304841 0.34966663 0.5016333
central -0.25860316 1.082933 -0.5811053 0.77215934 1.2310519 -0.36553168 -0.28595382 -0.75338995 0.6970498 -0.6162235 -0.5258841 1.4509829 0.70464617 -0.6156196 -1.5358474 -0.0016549053 0.83631724 0.02796647 -0.6972407 -0.86643237 0.26662967 -0.07525439 -0.3944736 -1.187607 0.5502284 0.14750502 -0.29748094 -0.5734807 0.9420427 -0.25638255
amables -0.54511577 0.03570487 -0.15671057 0.06602065 -0.7466509 -0.7622652 -0.6186411 0.20982939 0.3943293 0.4156982 -0.9020558 0.08845447 -0.21958719 0.12077515 -0.44997945 0.02304573 0.8592874 -0.9295753 -0.34350765 -0.25569898 -0.80098706 0.34962913 -0.058307257 -0.42695004 0.36795282 -0.56988233 0.29757908 -0.2866763 1.2385043 0.070067115
agua -0.10972306 0.25829145 0.3987378 0.034767985 -0.1423771 -0.9243882 -0.2592104 -0.72031254 -0.013171263 -0.12858817 0.05105329 0.5336594 0.17987834 -0.17969693 -0.91114706 0.80847126 -0.3216664 -0.4390223 0.562753 -0.35492983 -0.3678052 0.58229005 0.34320536 0.088874094 -0.6496005 -0.91219354 -0.17710282 -0.2738516 1.0647739 -0.07160368
realidad 0.08204663 0.16065475 0.91805315 -0.09784055 -0.06986612 0.215638 -0.517987 -0.4974801 0.14839134 0.023797866 -0.24125719 0.44819483 -0.87027484 -0.69543135 -0.2991364 0.18956913 1.0558723 -0.03446235 0.339511 -0.10876562 -0.1262939 0.19935665 0.46798435 0.29336354 0.42916223 -0.83337766 0.3897283 0.18023226 0.3362698 0.30449966
entro 0.19227548 0.15567864 0.114287876 -0.31702998 -0.066711016 -0.50840455 0.42276934 -0.9106649 -0.31899807 0.14575283 -0.05730891 0.00024399476 -0.6318401 -0.72422016 -0.52452964 0.33639073 2.0513804 -0.031075042 -0.038954012 -0.656538 0.24190629 0.6888483 0.32129252 -0.78689367 -0.39452067 -0.20325324 0.55868924 -0.06280681 0.19268273 -0.72905564
encuentra 0.5100276 0.83776456 0.06807263 0.4758863 -1.0358394 -0.5367837 -0.0167372 -1.1342121 0.17925003 -1.027038 -0.18054964 0.30693254 -0.056036137 -0.694059 -0.12982562 0.1478131 -0.012550591 0.42848828 -0.53318614 -0.6313705 -0.69353384 0.12451592 0.51074696 -0.19642752 -0.083330415 0.031631615 0.95010966 0.0824538 0.36472514 0.3574432
policia 0.23872148 0.76271707 0.14955492 -0.4594848 -0.2507994 -0.6260059 0.205783 -0.4313878 -0.5102417 -0.46620646 -0.6495543 1.3365852 0.86099 -0.26928908 -0.4610192 0.355132 0.02252519 0.19210023 0.62364155 -0.20915931 -0.7008473 0.55793047 0.52980113 0.57156837 0.6220329 0.22131369 -0.57313126 0.41791207 1.0907732 0.643839
efecto 0.63555354 0.35248134 -0.11885728 0.3517536 -0.311064 -0.8764503 0.18781294 0.2101325 0.13216048 -0.40032342 -0.9592779 0.1730866 0.1217019 -0.2960346 -0.08503217 -0.10375857 0.81320864 -0.79873604 0.47544172 0.40990272 -0.782432 0.7598822 0.6731048 0.37867475 0.18993795 -0.60725975 0.3082621 -0.092344336 0.768814 -1.1663289
aparecen 0.29307225 0.069086716 0.5834888 0.69676495 -0.16065232 -0.49050802 -0.48635578 -0.77654296 0.03796605 0.13477525 -0.2836713 0.01824256 -0.15300512 -0.300778 -1.1853899 0.5880518 0.25027972 0.1782002 -0.08694417 -0.8329783 -0.9654216 0.4479905 0.17231825 0.007777118 0.38898525 0.013976742 0.70278466 0.13716406 -0.012077314 0.3559345
maneras 0.20944005 1.0660616 0.8069216 0.42110804 -0.074185856 -0.3107315 0.82850885 0.11966973 0.11958549 0.29413053 -0.46719784 0.2610721 -0.6640714 -0.4061761 -0.914872 0.33493048 0.89111763 -0.37470683 0.07587564 -0.054183383 -0.8013191 0.29046902 -0.1270472 0.18860959 -0.74044144 0.17187692 -0.5974792 0.050315276 0.4658547 -0.8617281
hijos 0.5306151 0.926919 0.78728247 0.86247116 -0.2845046 -1.2082126 0.09164421 0.18482815 0.4110873 0.06645163 -0.54765075 0.55522615 0.25596577 -0.2470587 0.8073577 0.7629301 0.4058104 -0.66834027 0.40306517 -0.29334247 -0.92851615 -0.2594211 -0.04299634 -0.70317364 0.7080647 -0.94451416 0.043988954 -0.5755904 0.24637926 -0.6887954
llegado -0.32377943 -0.42951238 0.4211881 0.034419674 -0.14721273 -0.7773701 -0.22548257 -0.37199515 -0.80990547 0.21413535 -0.57767755 0.8143003 -0.07444831 -0.15852456 -1.4807496 0.024072956 0.010645814 0.09396254 0.47218987 -0.24842852 -0.20337552 0.20058946 0.8197025 0.3394277 -0.020522054 -0.3268554 0.19032621 0.26131192 1.0467381 -0.5756845
trabajando -0.17585117 0.9935278 0.7645727 0.19390632 -0.44121283 -0.45442787 0.29647678 -0.28943515 -0.9745813 -0.09787528 0.4426836 0.73141325 -0.16280249 -0.48013568 -0.51696116 -0.081413604 0.92282045 -0.65830094 -0.15373594 0.3979443 0.02676838 -0.0427579 0.4678905 -0.3425147 0.7823133 0.026925944 -0.25750285 -0.8141345 0.1930073 -1.309647
comunico 0.2500206 0.762016 0.7935443 -0.23500715 -0.121436186 -0.55339295 -0.5396329 -0.36305767 -0.34363052 0.05604593 0.0061915508 0.78941476 -0.16648582 -0.3005436 -0.5141735 -0.28720632 0.05652178 -0.59179896 0.15476266 -0.33419368 -0.035920616 0.5422804 0.61123633 0.34646824 -0.6038758 -0.6710916 1.1659319 -0.3783081 0.7113644 -0.38678324
atendiendo 0.14317764 0.8462524 1.005038 -0.77932966 -1.4281284 -0.65574676 -0.29907984 -0.7071746 -0.6542348 -0.070122436 -0.48084408 0.09354622 0.046500076 -0.15302344 -0.56729114 -0.54087543 -0.4328606 -0.40356186 0.49401155 0.2923426 -0.11859113 1.1073339 0.23143151 0.78144586 0.82445604 -0.07422108 -0.4115213 -0.44067988 0.89820945 0.337637
nombres -0.42410713 0.6403353 -0.6726133 0.37983665 -0.9046725 -0.54792774 0.08751059 -0.5133232 0.94215673 -0.09999943 0.022523766 1.0514485 -0.22544773 -0.565339 -0.44472104 -0.06716104 0.04015936 -0.7314551 0.53063667 -0.62510765 -0.54203457 -0.6181842 0.29536608 -1.0925307 0.5011108 -0.2091042 -0.6676958 0.12489442 0.99818546 0.37012458
equipo -0.24879079 0.15440863 0.8033136 0.120581694 -0.49003288 -0.36779445 -0.2754504 -0.48030105 -0.024982266 0.8754326 -0.3280907 0.48586613 0.13894086 -0.55858755 0.05470089 0.9509739 -0.06552781 -0.105066985 0.94350946 -0.6492113 -0.261891 -0.24024245 0.22908176 -0.16485308 0.13008536 -0.68273574 0.36448073 -0.9613319 1.0537614 -0.20194659
actualmente -0.21047181 0.71576893 0.9845741 0.12935057 0.083775 -0.7092783 0.30527908 -0.36664847 -0.10770045 -0.5267418 -0.013315736 0.10247161 -0.3617992 -0.7024198 -0.64346266 0.7841002 -0.1619844 -0.27476102 0.32940888 -0.5856904 0.11140027 -0.27870184 0.6344457 0.19176395 0.9446022 -0.21248548 -0.103549145 -0.8618767 0.010143368 -0.16795205
debil 0.47269103 0.5452898 0.5206677 -0.12902048 -0.14072733 -0.2502162 -0.62818474 -0.30778712 -0.0060448847 0.14425457 -0.8957716 0.37515557 0.3836713 -0.24847808 -0.6170752 0.37067217 0.39123836 -0.38865587 0.34007066 -0.39773363 -0.8043228 -0.09391814 -0.3585961 0.053368617 -0.08297645 0.48464897 -1.0497634 -0.09053454 0.73280025 0.022459053
abajo -0.008499733 0.40557766 0.9486778 -0.22540684 0.17461495 -0.24141134 -0.57576776 0.27173328 0.63068837 -0.49546131 -0.32739702 0.39797437 -0.5787229 -0.6989742 -1.3276858 -0.19264375 0.69129306 -0.24550053 0.47341916 0.033786327 -0.64402896 -0.18704084 0.10729798 0.15655471 0.07354577 0.355791 -0.58616495 -0.4199948 0.35784918 -0.121547095
clinicas 0.24574909 1.3076465 -1.0447739 -0.24733657 -1.3350178 0.30414644 -0.39761087 -0.8016981 -0.2031061 -0.37419382 -1.1981333 -0.044558622 0.13584137 -0.20714737 -0.5725096 0.46838334 0.00018287444 -0.8931969 -0.549718 -0.15875077 -0.25719637 0.17450967 -0.3740167 -0.87250185 -0.15735626 -0.30797392 -0.078147314 -1.1228869 1.0592052 0.19993779
hacerlo -0.23127523 0.2559493 0.294161 0.23459908 -0.28229615 -0.6635357 -0.15345486 -0.6816879 -0.057906583 -0.039939024 -0.0089456625 0.55613834 0.24152558 -0.5419469 -1.0431932 -0.63263273 0.1017095 -0.86501175 -0.027396617 -0.051329758 -0.74481094 0.7956116 -0.36961776 0.14547054 0.88949996 -0.49931362 -0.38914385 -0.0039463066 0.5228678 0.37397206
citas 0.6709958 0.13656662 1.039595 0.04522117 0.006894325 -0.95751387 -0.33110958 -0.38070884 0.42621946 -0.16968685 -0.08257096 -0.3949121 -0.71811205 -0.6501467 -0.7718988 -0.052062523 -0.46220356 0.11413094 0.9165175 -0.68211436 0.081620015 -0.5039431 0.42961812 0.54421085 0.59379965 -0.327842 0.2298726 0.18932442 1.1953017 -0.4438486
prueba 1.288985 0.29817477 0.42333165 -0.6923073 -0.34397292 -0.8890669 0.13315926 -1.7630785 -0.4850672 -1.4489622 0.21749301 0.64922535 0.5425621 0.33049604 0.21236093 1.7510625 2.3235312 -0.10112931 -0.28053772 -1.1822734 -0.01760129 0.012641242 0.5070825 0.4336572 0.37376353 -0.57668746 0.5567251 0.76065236 -0.13627933 -0.33760193
covid 0.6967662 1.110219 0.040366173 -0.14159974 -0.61616427 -1.0011768 0.6287869 -1.1557055 -0.3397944 0.036518574 0.9704409 -0.19557917 -0.3793556 0.5861305 -0.6680035 0.63259375 1.5672868 -1.173832 -0.17580947 -0.20477927 -0.29334375 -0.2790616 0.42639956 1.14166 0.13634455 -0.4901651 -0.7869034 0.08239104 -0.15709801 -0.7199962
perdida -0.7464224 0.5598147 -0.4401401 0.5157541 -1.8073143 -0.9472259 -0.019658802 -0.6431536 -0.138992 0.46870008 -0.3609706 0.6361612 -0.51333797 -0.47195074 -0.45562926 -0.12609273 -0.17383572 -0.33761445 0.020245451 0.14880535 -0.6241839 -0.49058434 -0.18002935 0.18078537 1.097302 -0.98635876 -0.2601828 0.5532947 0.51698554 -0.2181794
edicion -0.18543045 0.7159181 0.25177518 0.28680795 0.09241215 0.03833661 0.32226142 0.084358655 0.13273595 -0.94911444 -0.46076113 -0.44112298 -0.87583196 -0.18240611 -1.6864209 0.6788797 0.75827175 0.06265288 0.5449394 -0.71952665 -0.013962784 -0.5759246 -0.55127335 0.23039521 0.38425052 -0.021093301 -0.5431553 -0.7694535 0.48505238 -0.5619067
validar 0.3231404 0.4323702 -0.079429604 -0.106777556 -0.16801389 0.08572423 -0.79307586 -1.2885579 -0.95781916 -0.02458845 -0.46205127 -0.6897805 -1.0070834 -1.6253453 -0.0780505 -0.09268229 0.47808123 -0.51152825 -1.0830097 -0.54774505 -0.042816453 0.18675588 0.35894263 -0.53855294 -0.31906167 -0.81397504 0.19473071 -0.10484996 1.1921744 -0.03252663
comunique -0.24434015 -0.04716577 1.3925383 0.48117477 -0.49656963 -0.75595266 -0.2774078 -0.5428539 0.040989865 -0.44180992 -0.0004880568 1.0066481 -0.5794932 0.3853133 -0.35465473 -0.56926286 0.4485489 -0.05215285 -0.42756757 -0.60832375 -0.6866206 0.5200968 0.726831 0.3156073 0.5468761 -0.20447798 -0.48998973 -0.303469 0.35788566 -0.5864098
traje 0.07332458 0.21977337 0.18537185 0.53203243 -1.0341192 0.5319617 0.00945519 -0.10092414 -0.6749517 0.5664814 -0.3883981 0.5490659 -0.49649006 -0.65820986 -0.59167004 0.23289002 0.5186847 -0.7249184 0.18991794 -0.67870176 -0.36655587 0.52397376 0.004337202 0.5737932 0.2551024 -0.023065794 0.23627558 -0.41517097 0.24757439 0.4076492
loco 0.2924768 0.29865247 -0.30330294 0.26751965 -0.3195788 -0.54525274 -0.8339215 -0.49700436 0.33844826 0.59797245 0.28657773 1.1460658 0.3270379 -0.57751673 -0.74756664 -0.070868 0.115719974 0.6717641 0.7584315 -0.06616112 -0.7906927 0.15207718 0.33056244 0.19622894 0.6283697 -0.68411666 0.097663306 -0.54392946 0.7406946 -0.24452402
especie -0.12596671 0.38876095 0.41370127 0.25417164 -0.06671082 -0.7465746 0.11306938 -0.0870014 -0.37497926 -0.2862855 -0.58315265 0.17098229 -0.543063 -0.45697084 -0.6209447 0.9434 1.1352956 -0.4173382 0.3763432 -0.8623444 0.21038197 -0.42491427 0.50716114 -0.7109486 -0.8654156 -0.11736036 0.65654624 0.37713435 0.5511631 -0.43304932
quede 0.58473 -0.006654465 1.0956515 -0.45787296 0.3104311 -0.8899195 -0.08803789 0.19233392 -0.1520956 -0.5545686 -0.28945765 -0.20886122 0.5762363 -0.5131185 -0.1040691 0.1738473 0.9877173 -0.47031528 0.17113547 -0.27055094 -0.8689559 0.80665743 0.5077397 0.12992014 1.1263027 -0.80572104 0.28216702 0.7747618 1.2685055 -0.5338581
acabo 0.7210395 0.0365846 0.519971 -0.47255138 -0.46540943 -0.5682519 -0.021819528 0.17745347 -1.1685647 -0.16473696 -0.38131273 0.31277677 0.057007384 0.15416764 -0.38463935 -0.1383159 0.9266772 -0.6878333 0.36927587 -0.63697946 -0.6008695 -0.53746384 0.3429032 1.0585238 0.5362101 0.014385905 -0.05190497 -0.43131408 0.36095414 0.07343046
sitio 0.7321222 0.52205044 1.0644281 0.5146856 -0.285027 -0.9034915 0.07463057 -0.5556374 0.9942439 0.2319968 -1.167072 0.6215364 -0.40519387 -0.33667243 0.31513733 1.1186063 0.43213984 -0.4990863 0.48911896 -0.93723136 0.48037094 0.08645258 0.3560345 -0.08775074 -0.23716778 0.534085 0.54689145 0.334229 1.0814824 -0.012874631
viendo -0.017029213 1.1235572 -0.83212703 -0.23668262 -1.007091 -0.20504832 -0.22730306 -1.0356982 -0.21593313 -0.4096912 -0.05272531 0.31105423 0.7482317 0.16378064 -0.7477475 -0.8328287 1.6266017 0.79380447 0.2206144 0.19750522 -0.50037915 -0.41041908 -0.05939151 0.41015458 0.7836064 -0.72381055 0.04611467 -1.0994694 0.28085762 0.70761955
crimen -0.9293366 0.43932018 -0.43762553 0.1557751 -0.94533193 -0.0028863274 0.033512358 -0.9262895 0.6488951 0.2911143 0.20484358 -0.14598665 -0.50754166 -0.14777087 -1.2161025 0.31697392 0.70023453 -0.42455977 0.10389661 -0.48911864 -0.20391259 0.34414107 0.4790981 0.25799444 -0.30627438 -0.49113637 -0.12873 -0.120004766 0.84145963 0.01331558
compania 0.3081894 0.93947953 0.47326952 0.3810665 -0.8208929 0.19382302 0.6397595 0.039024517 0.53282505 -0.32513127 -0.12519136 0.76002574 -0.7466267 -0.68692744 -0.5615943 0.08590547 -0.301716 0.5272214 0.18059322 -1.3217926 -0.34235287 -0.14927004 0.7491194 -1.0747883 -0.11066129 -0.057397183 -0.21202396 -0.83852476 0.60293746 -0.20184578
clientes 0.70410514 1.3525594 -0.3734881 -0.397126 -0.6782001 -0.67240936 0.12996426 -0.5004757 0.07842586 0.030741526 0.023637028 0.002964252 -0.557712 -0.3584384 -0.48923314 0.34164456 -0.025831742 0.5589198 -0.7795414 -0.7962543 -1.0840307 -0.17561916 -0.13489081 0.20905271 0.5450907 -0.17456754 0.4160031 -0.36209452 0.20486142 -0.43676004
debido 0.5767945 0.78315926 0.47005174 -0.26523295 -0.018391654 -0.2877344 -0.16495198 -0.25683588 -0.34396985 -0.25416893 0.24733101 0.85095054 0.19737619 0.21736751 -0.7377653 0.5615318 0.38781193 0.12777987 -0.12688302 -0.15505435 -0.7479676 -0.04852601 0.43988922 -0.78710765 0.6958984 -0.16630353 -0.52769715 -1.5690145 0.40915483 -0.20000985
haria 0.49171925 0.08629239 -0.22530437 0.6559339 -1.3982984 -1.0148292 -0.15744416 -0.48705566 -0.46423513 -0.087400794 -0.24952473 -0.019023914 -0.7918471 -0.9946137 -0.5898979 -0.0064523877 0.43447644 0.37081125 0.08374865 -0.26770705 -0.70983124 0.500883 0.20332268 0.21874087 -0.4602438 -0.76577246 -0.07080692 0.18774492 -0.103734046 -0.1601971
actualizar_datos 0.15792467 0.4157947 0.60933363 0.42897904 0.76046354 -1.3561802 0.52376753 -0.38814062 0.20118022 0.14556263 -0.40758297 0.7582748 0.52732 -1.0125922 -1.5443608 0.47032934 0.5883912 -0.8302924 0.1307726 -0.2843915 -0.13529696 -0.22831601 -0.30599454 0.18550356 0.959003 0.70399195 -0.5564128 -0.20278443 0.07836871 -0.052865457
puedan 0.11000727 0.5526175 0.02903392 0.1619701 -0.5748506 -0.4611937 -0.7606856 -0.964997 -0.028811129 -0.045151073 -0.37463132 1.1228441 0.24703051 -0.33221725 -0.83124655 1.0338529 -0.07387957 -1.225877 0.36548564 -0.2346151 0.5137098 0.592234 0.248748 0.63344854 -0.51604366 0.28759167 -0.041755266 -0.20695136 0.64553654 0.62578696
solicito 0.8406113 0.5647129 -0.21925661 0.46788934 -0.06707178 -0.48200122 -0.26367667 -0.59713817 -0.23561208 -0.043938834 0.30413094 0.7216742 -0.5439617 -0.9394007 -0.14894007 -0.4515886 0.04027365 -0.14741749 0.12855005 -0.08530655 -0.78738886 -0.8531574 -0.06764859 -0.9172485 0.7269054 -0.31929678 0.44267344 -0.56309456 1.1311584 0.22934194
intencion -0.2714317 0.30469054 0.3412318 -0.19224106 -0.4959742 0.07988919 -0.07572923 -0.76399744 0.38997376 -0.43387237 -1.0346622 0.48919243 -1.2050645 -0.42112714 -0.6888108 0.36516243 0.8791533 -1.0147694 0.40065143 -0.5418041 -1.0854745 -0.05122243 -0.15301076 0.4854925 -0.341634 -0.55732924 0.026484864 0.6062064 -0.8284613 0.52472895
pensionada 0.2986295 0.97052485 0.76577556 0.62798864 0.4484729 -1.2080327 0.4586231 -0.43852827 -0.3129112 0.28073314 -0.34076515 0.08199365 -0.055557076 -0.5677359 -1.1103082 0.78102934 0.19770218 -0.8791297 -0.5237172 -0.1437835 -0.47700095 -0.019476293 -0.30315706 -0.44497806 0.5045347 -0.032485835 -0.86450297 0.24163496 0.3922841 -0.104165345
obviamente 0.68993497 0.7329581 0.26650718 -0.16292657 0.27780828 0.6269768 0.35703462 -0.83149457 -0.70521516 -1.0181383 0.8504855 0.47576565 0.5061035 -0.5842401 -1.1176995 0.035670236 0.95635784 -0.52771056 0.041222524 -0.98544693 -0.46581286 -0.26687983 0.439708 1.0064323 -0.16420314 -0.30909353 -0.05337028 -0.18571818 -0.025984075 -0.6342602
actualizar -0.060430206 -0.17296562 0.90779436 0.09423267 0.3195054 -1.3664 -0.44471478 -1.1115727 0.54944396 0.57328457 -0.87818617 1.0725436 -0.27955577 -0.30886462 -0.57121927 0.30308637 1.2405077 -0.067786954 -0.6756616 -0.61684626 -0.55875784 0.40988883 -0.26678705 0.09876301 1.0057557 0.6568536 -0.2989483 0.13807663 -0.029820796 0.7035549
dosis -0.61983323 -0.04353006 0.21018068 1.2936525 -0.9937228 -1.383602 0.051391944 -0.42292255 0.036230218 0.9265135 -0.8285968 0.07426213 -0.80478853 -1.0112965 -1.1453658 0.0012823669 1.1927445 -1.1857737 0.8264861 -0.2191898 -1.3778291 -0.4310878 0.6463493 1.8835541 0.4585924 1.5297973 0.29517967 0.28197172 -0.37705773 0.7605885
recuerda -0.123469844 0.030591605 -0.48225927 -0.09010434 -1.0514522 -0.33207723 -0.28161234 -0.8935178 0.24601263 0.48845202 -0.8875111 0.06273311 -0.72135353 -1.0127091 0.2003515 0.37432998 0.9554707 -0.49599195 0.26303807 -0.6055331 0.004786388 0.35404277 0.030939404 -0.5793457 -0.0068606143 -0.87585515 0.1025542 0.48842153 0.9838661 0.05226057
contar 0.4731092 0.92866206 -0.31011343 0.17857754 -0.5357187 -0.3932916 0.99137706 -1.1676944 -0.04655033 -0.45735642 -0.68450546 0.6366912 1.0688378 -0.14189844 -0.34289834 -0.5624176 -0.040595986 -0.68127346 -0.66083235 -1.0346465 -0.89727986 -0.78397614 0.29822418 0.26834017 0.3705128 -0.36791947 -0.29237938 0.105648704 0.064310364 0.6074125
dificil 0.9663145 0.7275097 -0.23017517 -0.40616298 -0.69072425 0.070195 -0.879963 -0.9669617 -0.24107125 -0.6225129 -0.52703345 1.1419017 0.3714048 0.567503 -0.5936794 0.43021074 1.5156403 -0.92715883 -0.5526006 0.50591016 -0.4685989 0.13088442 -0.328527 0.083575934 0.8011643 0.2675086 0.050148904 -0.5720313 0.4441684 0.93476194
venga 0.8635301 0.13144468 -0.035387266 -0.2359541 -0.2853218 -0.5651814 -0.21231061 0.09122497 -1.4246964 -0.23234709 -0.80595124 0.24030155 -0.2951408 -0.56351656 -0.54331905 -0.32388407 0.42912772 -1.1535323 0.36588067 -0.18884611 -1.1779072 -0.28048703 -0.20237663 1.2709955 -0.29225615 0.47701266 0.20785956 -0.15016048 1.2132696 0.71239644
colocar -0.8928306 0.03870032 -0.23083422 0.2338401 -0.9157603 -0.9038004 0.25562632 -0.3505764 0.9925307 0.72413456 -1.2152387 0.8909298 -0.8265203 0.18626383 -0.37294292 0.1208985 0.69049513 -0.0599104 0.043733895 -1.3733658 -1.442629 -0.12929004 0.37897375 1.5798241 0.17285258 0.32674435 -0.03298203 -0.12564448 0.26092818 0.5783986
seguir -0.17597736 0.83499116 0.7395748 0.36536616 -0.009814041 0.32358706 -0.19413613 -1.1693281 -0.5336035 0.39104018 0.3556003 0.36285678 -0.07369972 -0.31416193 -1.0116389 -0.018334933 0.35691348 -0.1755386 -0.3954922 -0.63997793 -0.17866719 -0.5473705 0.05195066 0.78917503 0.94293624 0.4270934 -0.40160972 -0.018093776 0.48337847 -0.7674039
maldicion 0.0821781 0.17998259 -0.0155683085 1.4224966 -0.39621636 0.28708225 0.037163094 -0.7891576 0.31626534 -0.40527648 -0.512353 0.27811575 -0.34777197 -0.85419935 -0.106883325 -0.539657 1.096045 -1.1350542 0.40638983 -0.2120891 -1.1359761 0.35444877 0.14404759 0.34943208 -0.12779826 -0.24996263 -0.33073372 -1.0411677 -0.20461434 0.6467712
acaba 1.1781509 0.40564144 0.28590974 0.8626264 0.10758398 -0.5837501 0.5207707 -0.76952964 -0.5789583 -0.30410737 -0.3509409 0.56499463 -0.090442136 -0.7168235 -0.16424412 0.5116891 0.25751156 -0.18655318 0.90259063 -0.57857186 0.27846003 0.08112685 1.080101 -0.23056264 0.031016162 0.06110728 0.314209 0.20867771 0.90976477 -0.6914479
entendido 0.20963794 0.4548295 0.014155118 0.16644621 -0.51624936 -0.47839335 -0.784027 -0.325457 -0.8036608 -0.5549435 -0.5342527 0.7033992 -0.2900064 -0.6622485 -0.30299214 0.098674275 0.63304704 -0.38184327 0.76804155 0.0057137264 -0.28683516 -0.1826048 0.71129024 0.62236595 0.57829595 0.21731344 0.61942786 -0.1135074 -0.06092342 0.6276349
correos -0.045081344 -0.6685733 0.13436846 0.019323956 0.17799415 -1.455974 -0.23928864 0.18541653 -0.6889218 -0.22003616 -1.4580497 -0.12872 0.82531196 -0.44440317 -0.49643788 0.49645638 1.0754875 -0.32744738 -0.027425084 -0.3362103 -0.32287 -0.82942235 0.8144518 0.5772255 0.7813186 -0.20644341 -0.91408217 -0.47379282 0.9674092 -0.048819188
linea -0.78284913 0.5970039 -0.08424805 0.37349826 -0.7527965 -0.74495125 -0.047251612 -0.31768483 -0.48365048 -0.96940476 -0.08404559 0.8731801 -0.13771829 0.2215922 0.083321825 0.060250558 0.7444286 0.33855778 -0.1991851 -1.139501 -1.075213 0.07412059 0.20852907 0.349046 -0.09514205 -0.42260724 1.0290833 -0.110615514 0.48586196 -0.21519026
activa -0.068614446 0.7430087 0.68182147 0.83646274 -1.1561815 -0.7919051 -0.25472042 -0.6553201 -0.40300652 -0.7882199 -0.37509838 1.0490896 -0.32328832 -0.5441153 -0.40552315 0.8833033 -0.19715855 -0.19428243 -0.10754591 0.07152203 -0.6020929 -0.7806612 0.9081087 0.052876286 -0.5090108 0.054047544 0.510904 0.21443594 -0.17283173 0.07751123
preocupa -0.32229525 0.92651343 0.23670879 0.45305097 -1.016165 -1.3908805 0.0456805 -0.1840274 0.04868676 -0.53708094 0.48173812 1.2989889 -0.020544741 -0.03272702 -0.67599946 -0.18789771 0.70322114 -0.24703681 -0.16776435 -0.28119996 -0.44875115 -0.3665969 0.4036722 1.1751995 -0.24059474 -0.27757114 -0.48866048 0.6193344 0.5548528 0.70536095
septiembre 0.3775985 0.49153095 0.26285666 -0.16618419 -0.10740113 -0.2719716 -0.37466654 -0.06174062 0.071236394 -1.4426103 -0.9114717 0.6315985 0.7045902 -0.1447642 -0.680612 0.7457915 1.1259958 0.20248337 -0.17184037 0.84640527 -0.88011324 -0.47365287 0.5733331 0.6636548 1.0700686 -0.04096945 0.708375 -1.0407473 0.4445722 0.24130382
importante -0.19803369 0.71400034 0.33527672 0.22555368 -0.50856125 -0.2626997 0.121775515 -0.6515458 -0.24229144 0.38450953 -0.30544987 1.0443949 -0.5914097 0.11381766 -0.5751731 0.15962294 0.40469384 0.9861674 -0.16831264 -0.29201615 -1.5479366 0.069833145 0.50732046 0.119037285 0.2396615 0.35657522 -0.07762005 -0.1659132 0.64678055 -0.73361385
indica -0.8397658 1.0375429 0.018791355 0.046784274 -0.3904459 -0.83376217 0.0057634143 -0.67463475 0.25857013 0.26749888 0.1915558 0.24666135 -1.191116 0.2146458 -0.6595967 0.050826274 0.1937771 -0.677616 -0.088134155 -0.61937207 -0.3607286 0.013791422 -0.100851856 -0.29385498 -0.25482213 -0.22034298 -0.12751338 -0.4636686 1.0790433 -0.918464
tranquila -0.43456832 -0.10378825 0.4822712 -0.60428 -0.1064166 -1.4218044 -0.24444705 -0.73310983 -0.8903344 0.526958 -0.12453932 0.16273692 0.15644753 -0.36472157 -0.7172109 0.23930177 0.24375924 -0.72549105 0.6050486 -0.6293422 -0.6226715 0.31729817 0.53673184 -0.46859536 0.12648232 -0.26951352 -0.978929 0.558171 1.192665 0.5485033
porciento 0.18701032 0.24194182 -0.70105624 0.25343955 -0.314237 0.2759375 -0.3605897 -0.69820935 -0.118964076 -0.38791454 -0.39386836 0.35785675 0.5244705 -1.3625602 -0.14545655 0.3222412 0.9099539 -0.124222554 -0.13342634 -0.16839354 -1.1911778 -0.16566782 0.7990657 -0.020100268 -0.76438427 -0.54102606 -0.13746926 -1.1198636 0.44890732 0.73706883
tele 0.10162478 0.096175104 -0.12603194 -0.5283774 -0.70168394 -0.63198173 -0.44468746 -0.26766774 0.41291013 -0.69301665 -0.46698886 0.7935258 -0.5829588 0.16101785 -1.1678007 -0.63697904 0.34795082 0.0178931 0.22709815 -1.1692485 -0.5783614 -0.8469898 0.21398675 0.31597793 -0.3465701 -0.013535455 0.4492687 -0.040505666 0.25348794 0.3771987
cinta 0.024669876 0.42042553 -0.028628513 -0.7836985 -0.60806364 -0.8252574 0.8437181 -0.58494264 0.69433695 0.62777054 -0.84986997 1.0580122 0.024969546 -0.25619656 -0.3956867 0.1812908 0.62247324 -0.19617479 0.36296266 -1.1686809 0.1114194 0.2994073 -0.27659217 0.0136788115 -0.31155866 -0.32354972 0.43696487 -0.14856157 0.42273453 -0.425681
perfecta 0.05950479 0.19094351 0.46174887 -0.5686551 0.0021402389 -0.322984 0.3011299 -0.10348207 0.076894864 -0.5215136 -1.2953064 0.24615604 0.5388651 -1.8812907 0.09316056 0.81873333 1.4028196 -0.5775576 0.21281143 0.068988994 -0.38756728 0.1844707 -0.49181247 0.58135146 0.7110805 0.4794876 0.14188309 0.66900635 1.0050309 -0.26812035
unidad 0.17496496 0.29500386 -0.04494729 0.70859617 -0.59870905 0.41992307 -0.3345302 -0.58735 -0.5917788 -0.44393876 -0.64198834 0.833207 0.14360557 -0.8664219 -0.33069634 0.21187615 0.48232615 -0.40259647 -0.15555534 -0.7449255 0.16310968 0.29601374 0.031933703 -0.40380502 -0.5271133 -0.4186921 -0.1811571 0.15566672 1.0175824 0.48958367
club 0.5375113 0.7287179 0.65076506 -0.53276867 -0.4313869 0.40365776 0.2830136 -0.35319173 -0.030795518 -0.0723145 -0.67426175 0.35115016 -0.35692292 -0.41394594 -0.99685335 -0.24349138 0.29222795 0.24373521 -0.056272544 0.53543574 -1.4430588 -0.22397017 -0.08918811 -0.6398975 0.09966791 -1.3535823 0.3797644 -0.051005892 0.35029212 -0.523254
fijo 1.2941126 0.13643436 1.4900422 1.2777253 0.05624461 -0.9707441 -0.8585625 -0.1980208 0.32750732 -0.24461082 -0.9864475 -0.042225905 -0.3731916 0.7857446 -1.2459011 -0.38097903 0.17708556 -1.8790783 -0.5762957 -0.749796 -0.688667 0.4899375 0.82021666 -0.50984925 -0.15690665 -0.080380894 0.530173 0.07527221 0.62435675 0.22601788
febrero 0.7095609 -0.056558657 0.95155734 0.67474544 0.19152236 -0.78474456 0.12116998 -0.54785186 -0.86985844 0.4256234 0.071540065 0.64837265 -1.0441077 0.58143044 -0.8013806 1.2009465 0.54503673 0.15733829 -0.5375806 -0.6430252 -1.2019359 0.08868895 -0.4289455 -0.4078668 0.7288879 -0.81972116 0.056311734 -1.1361097 0.18861291 -1.104653
perfil 0.23870185 0.70230407 0.1804407 0.10433548 -0.047530513 0.17302123 -0.05835802 -0.37264448 0.6092225 -0.08460524 -0.6756585 0.30104947 -0.19527522 -0.29657358 -0.5893908 -0.13339478 0.4588042 0.17328815 -0.24466503 -1.0892944 -0.37187552 0.1629854 0.041832667 -0.5662874 0.49799645 -0.7701457 0.075579 -0.9489865 0.2673696 0.77622783
trata 0.6238496 0.7430081 -0.5128484 0.06542039 -0.37008008 -0.29818836 0.6928602 -0.26087904 0.118611574 -0.66799563 0.12070155 -0.27963734 -0.9321503 -0.377103 -1.1242971 -0.47842658 1.0805651 0.53365916 0.059801638 -0.7295326 -0.65553373 -0.048997045 -0.085189216 -0.49470708 -0.57221067 -0.38408855 -0.6174744 -0.56389 0.62662584 -0.33527738
hiciste -0.32556817 0.42630854 0.532282 -0.61106926 -0.5821299 -0.5171509 0.27552223 -0.07824377 -0.5056343 0.18268116 -0.79240054 0.53769654 -0.01373757 -0.42675024 -1.06767 0.05249103 0.4880201 -0.15341552 0.23069526 -0.48173442 0.5087764 0.44868848 0.3281419 -0.00082211243 -0.10388712 -0.23479967 -0.29089576 0.4043782 0.93530864 -0.11966427
inquietud 0.88343906 1.1537927 1.1084121 0.060252003 0.06545602 -0.57138646 0.51586425 -0.6932201 -0.12878011 0.20893544 -0.3924335 0.7395288 0.35820743 -0.24211793 -0.47351703 -1.0633813 0.7221128 0.18207532 0.289727 -0.49975944 0.033814818 0.3008484 0.57410085 -0.49297538 0.32188046 -0.4350755 -0.24467094 0.5481234 0.433022 0.1889905
evitar 0.657217 1.3337444 0.92713255 -0.5410806 -0.3221233 0.646744 -0.68017626 -0.52873564 -0.4881217 0.4423343 -0.4099652 -0.025641883 0.086883985 -0.31383806 -0.1978153 0.5628661 0.7924807 -0.3407545 0.30436718 -0.35257354 0.10781164 -0.4624657 0.17591949 0.033361454 -0.2772807 -0.90164113 0.60889786 -0.32548198 0.24499506 -1.0494841
vive -0.24311036 0.21377365 0.47977838 -0.8661714 -0.75753385 -0.016864676 0.03557385 -0.74528635 0.40300798 0.6332018 -0.44428784 1.0847703 0.23586704 -0.32000238 -0.5560762 0.17289203 0.16611822 0.11022209 -1.016791 -0.9729354 -1.0140243 0.26527563 -0.12138583 0.11549858 1.0808688 0.46342775 -0.5632599 -0.4004235 0.54299307 0.2916886
quiera 0.3450866 0.18276942 1.0727292 -0.26615816 -0.81684196 -0.80117375 0.16005875 -0.2786943 -0.4534776 -0.021990597 0.8687086 0.6367416 0.18429703 -0.6428755 -0.28731683 1.3492591 0.6498385 -0.31795183 0.1807639 -0.33701515 -0.7988874 0.116006665 0.67999357 -0.24788652 -0.35436586 0.14371225 0.563252 0.33772224 0.85438156 -0.86086684
ademas -0.71451485 0.7614979 0.8248199 -0.030976014 -0.22112921 -0.27327 0.18811896 -0.04438583 0.67751855 -0.11153903 -0.22134331 0.90386134 0.5462311 -0.26456398 -0.6447295 0.25447154 1.2841067 0.0027610706 -0.033737637 -0.55673236 0.21326783 -0.6511567 0.03744051 0.5075271 -0.2315553 -1.1456329 -0.31323385 0.12857638 0.5408983 -0.7129428
diente -0.10124165 0.30515 0.6381621 0.29529187 -0.5899066 0.81921196 -0.124625005 -1.0596373 -0.05481464 0.7184645 0.043104064 -0.044484753 -0.014655331 -1.1712984 -0.7480473 0.16152862 0.2833446 -0.078688845 -0.18567148 -1.1757265 -0.29964778 -0.22124903 -0.025670726 0.48559967 -0.13910155 -0.65279543 0.07899962 -1.1617731 -0.14827605 -0.09998921
entrega -0.3508592 0.3410215 0.7411818 -0.27997464 -0.5868554 -0.20199746 -0.42815322 -1.0300056 -0.43632007 0.20455575 -0.09191271 0.4254593 -0.28169033 -0.5326816 -0.63091135 -0.026693309 0.31390876 0.4299624 0.35133395 -0.3975573 0.44413674 -0.087389484 1.3739256 0.15678738 0.1651025 -0.8201293 0.15398751 1.0572801 0.97064614 -0.49513417
actualizacion -0.64183986 0.21099798 0.22631545 0.45650086 0.29428115 -0.5737816 -0.50492036 -1.0878317 0.10943693 1.3682188 -0.77119476 0.722836 0.070853256 -1.3692559 -0.43629065 0.6573282 0.75460714 -0.115632005 0.73769087 -0.6710728 -0.15033141 0.15449981 -0.9479252 -0.51553476 0.1875165 -0.25688362 0.2401271 -0.15784882 0.6744052 0.44380435
mayores 0.92475027 0.1421206 0.18721977 0.35320064 -0.5049064 -1.1107618 -1.0112478 0.40648916 -0.7108019 -0.35005358 -0.065117486 -0.039694782 0.6964847 -0.329385 -0.6748041 -0.043429177 1.5959468 -0.6515357 0.42135632 0.30839506 -0.8839877 0.49930653 -0.22330998 1.1914521 0.87440646 0.43861306 0.46361575 -0.6230604 0.5520074 -0.16478139
motivo 0.89815193 0.40498412 0.9274499 0.010080305 -0.38853922 -0.059239063 -0.124028005 -1.1481383 -0.56504804 0.13330461 -0.41406515 0.39880055 -1.0915397 -0.89618963 -0.10493005 -0.06056123 0.3439392 -0.13151996 -0.10465537 -0.09537901 0.4534002 -0.20855682 0.083127774 -0.12458171 0.591637 -0.1829294 -0.5111511 -0.6066605 0.18342972 -0.7126626
precisamente 0.22763148 0.32406002 0.57808965 0.32656577 -0.8687019 -1.3001099 0.3533439 -0.17383312 -0.037576858 0.093639106 -0.4187756 0.70462865 0.65864265 -0.1647344 -0.025111621 0.8700751 0.1933779 -0.23197913 0.14102808 -1.1706673 -0.61785245 -1.2880979 0.36322585 -0.65240693 0.30737203 0.2602285 0.3944371 -0.60348105 0.27675983 -0.22082826
