2539 30
llamar 0.79028016 0.1266784 -0.23969468 0.14641681 0.13191336 0.50562406 -0.37548327 0.20661613 -0.6417636 -0.026886221 -0.32635042 -0.1389782 -0.55998397 -0.07745369 0.48930183 -0.63556176 0.83857745 0.0994606 -0.48780638 -0.10242708 0.17020366 0.46944243 0.070296116 0.6291734 -0.5350609 0.25691766 0.15084285 -0.65673 0.27180204 0.16210814
paciente 1.0566493 0.6063582 -1.2885557 -0.3548133 -0.005848754 -0.21983631 0.46168277 0.99317646 -0.18231586 -0.3729849 -0.5710616 -0.4032888 0.43773955 0.9853977 -0.20735702 0.3672098 0.62135285 0.101593286 0.3050664 0.60336804 -0.32855564 0.7133741 0.018059898 -0.53288645 -0.63932604 0.06419452 -0.78515387 -0.39177477 0.2875222 -0.11616501
telefono 0.26881927 0.5195206 -0.18501508 0.3613143 -0.39652187 0.6244782 -0.48190635 0.17567019 -0.61487156 0.3877687 -0.16449511 -0.11238954 -0.7945744 -0.02074705 -0.16854145 -1.3973356 0.7126965 1.0519199 -0.6732076 0.11515067 0.05487111 1.0554138 -0.0067476598 0.3447276 -0.57768035 0.32721967 -0.32068002 -0.65643865 -0.35206062 0.89400953
informacion 1.1523436 0.27465945 -0.19735019 -0.05505684 0.1543376 0.5869102 -0.13493998 -0.119048595 -0.51063025 -0.11870644 -0.6737787 -0.09191681 -0.21022278 0.18147539 0.32569528 -0.72662026 0.3334338 -0.018911174 0.7449092 -0.28015462 -0.15692212 0.4984681 -0.39327675 -0.22774673 -0.58549124 0.00946399 0.59913075 0.0030933653 -0.08505056 0.16556895
medicos 0.68028605 -0.14169249 -0.98677343 -0.5083694 -0.08685939 0.4112744 -0.08601187 -0.7594229 -1.0579948 -0.16405383 -0.45237973 0.18951847 -0.72244316 0.98195285 0.106889494 -0.5426522 0.18117742 -0.35741037 0.289307 -0.83849865 -0.27342275 -0.15170299 -0.43907884 0.08788338 -1.2128344 0.1286318 0.16110161 -0.64046776 0.037844867 -0.16888118
pregunta 1.1488831 0.10215691 -0.8243109 -0.4854544 0.38556677 0.04626107 -0.31065953 0.015845224 -0.2963238 -0.04215658 -0.3357767 -0.534579 -0.20702507 -0.48807183 0.029060451 -0.19646594 0.34131777 0.5358335 -0.0062410166 0.26865613 -0.13353138 0.29963157 -0.03433751 0.37127686 -0.5896474 0.016638897 0.10013729 -0.23992059 0.075902894 -0.16488327
bucaramanga 0.6269303 0.3916097 -0.909041 0.10698976 0.2183093 -0.20483741 0.053303894 -0.7176405 -0.84304875 -0.32011658 -0.39064592 0.24387068 -0.16409665 0.33714768 -0.41202235 -0.008461096 0.6290591 -0.29117385 0.43459317 -0.22797024 -0.7597442 0.25961667 0.1276656 -0.00939613 -1.4405862 0.35761705 0.21653627 -0.15520427 0.2969369 0.6635381
necesito 0.12872647 0.03455835 -0.47598946 -0.21770327 0.4937332 -0.50938076 -0.16939324 0.104351826 -0.7464855 -0.04134312 -0.08239023 -0.014974414 -0.3728861 0.54252404 -0.2961622 -0.15964594 0.59613454 0.027350146 -0.0429335 -0.037241343 -0.03816583 0.70378256 -0.081693985 0.4647798 -0.9086953 0.29255155 -0.24940312 -0.79897434 0.5931337 -0.45956787
problema 0.6502252 -0.2897714 -0.16500515 -0.050057296 0.28094724 0.0062771733 -0.09955107 0.23860984 0.5128204 1.0225377 -0.7431733 -0.006116111 0.17434192 0.4266099 0.031683825 -1.1387266 0.43612933 -0.3398877 -0.46000317 0.06676535 -0.06524291 0.59947544 -0.026409637 0.47838488 -0.3406419 0.23891525 -0.0962891 -0.1769924 -0.014277358 -0.4780135
enviar 0.95621306 -0.051322896 -0.29960644 -1.168374 0.31367543 0.65100175 -0.48417842 0.11846871 0.113911845 0.013296689 -0.47849625 -0.49586 0.42876497 -0.1358996 0.40321404 -0.4411887 0.002819485 -0.6768099 -0.71431667 -0.051130485 -0.11958981 0.58744514 0.4208353 0.16184196 -0.6288579 0.13589595 -0.13643897 -0.96805406 0.46496168 -0.16665523
codigo 0.5483453 1.627231 -1.0060346 -0.6040076 0.26315582 -0.018991072 -0.010317528 0.62499166 -0.58478355 -0.47732875 -0.94767344 0.42039853 0.54637325 0.1623047 -1.3262532 0.19481643 0.8857788 0.6002523 0.24651818 0.5014718 0.56692386 1.6404636 -0.28494218 -0.37688547 -0.58419883 0.109055355 -0.18759213 -0.43273047 -0.026504282 -0.20406273
datos 1.4071085 0.314735 0.3151056 0.4159355 0.9650055 -0.40049818 -0.8707981 -0.15270193 -0.17482637 0.2791714 -0.6560532 0.37243223 -0.14314637 -0.284689 0.3498387 -1.3358793 0.27404365 0.048462152 1.3326527 0.25371775 -0.016877698 -0.18922006 -0.5053408 0.3502131 -0.5807556 -0.54999644 0.47753358 -0.94009256 -0.102285564 0.23003337
vacuna 0.8796147 0.5303591 0.8423179 0.11574339 1.3273205 0.25844502 -0.476925 -0.055759754 -0.8473764 0.076168075 -1.2526604 -0.11240701 -0.6682606 0.03764003 0.7452437 -0.7999299 0.020940753 -0.16852994 -0.062556714 0.27695832 0.42966446 0.6647567 -0.114587046 0.41206092 -0.76612073 -0.43058577 0.6759763 0.33501476 0.19084103 0.38468903
solicitud 0.9034834 0.21152265 -0.4610368 -0.85212976 0.14662671 0.5210476 -0.17122403 -1.0422392 -0.16810666 -0.25161988 -0.27445385 -0.74619025 0.13129263 -0.0941956 -0.10576565 -0.64508516 0.2583875 -0.99052507 -0.2228065 -0.9209704 -0.042269032 0.2876683 0.41770977 0.39800513 -1.3004143 -0.13215858 0.3465139 -0.8956479 0.22228952 0.6751344
medicamentos 1.1954468 -0.25328043 -0.5621262 -0.008911926 -0.01263359 0.430225 -0.3726524 1.6252573 -0.8572426 1.2978072 -0.9565913 0.18876906 0.43150586 0.5973188 -0.5456753 -0.6814411 1.0355263 -0.55904615 -1.0095277 0.1307338 -0.5811103 0.04618288 0.50083476 0.9965096 0.03614362 1.313753 -0.3121808 0.24580063 1.0149502 -0.7180949
ciudad 0.7274353 0.13086024 -0.8711389 -0.07767339 0.72027504 0.32286638 -0.1545941 -0.792159 -0.8194753 0.09746224 -0.33745432 0.2149391 -0.044612914 1.2601255 -0.50111073 0.263182 0.63272065 -0.7261578 0.318421 0.002888211 0.11814371 -0.028014662 0.10885514 0.20319426 -1.2696152 0.5077061 0.22590001 -0.6336495 0.054446973 0.5580275
hablar 0.86505735 0.17135635 -0.6468702 0.1337073 -0.18022324 -0.010720142 0.32652387 -0.018791087 -0.5623124 0.26811722 -0.110417895 -0.45626828 -0.40038222 0.14088973 0.28715983 -0.4333434 0.5097998 0.556213 -0.4978931 0.09297846 0.042903386 0.8010044 0.20288862 0.55104226 -0.8067077 -0.51791906 -0.30625102 0.12496578 0.67711794 0.59585893
haciendo 0.6617651 0.46925962 0.044702753 -0.5411904 0.3861076 0.058695644 -0.477987 -1.0228466 -0.88210225 0.15993133 -0.44786936 -0.19867676 0.36735392 -0.25755265 -0.104807466 -0.84760135 0.3423174 -0.30331096 0.036623064 -0.43967542 -0.28053227 0.6364743 -0.35922533 0.07717928 -0.24549073 0.3042238 0.32402834 -0.7650588 0.41668516 0.13110916
respuesta 0.60724884 -0.10355891 -0.14420253 -0.9491104 0.15829822 0.29828689 -0.5365154 -0.382436 -0.07603397 0.14722131 -0.27667573 -0.6851345 -0.104118116 0.39304587 0.4770687 -0.91446674 -0.38485032 -0.72934204 -1.033632 -0.25411516 0.12063011 0.34741765 0.31023815 0.4979402 -1.496524 -0.051775966 -0.0839932 -0.897915 0.1812957 0.40859625
cedula 0.28552455 0.81234735 -0.22627257 -1.056279 0.6038322 -0.46714282 -0.539856 -0.0696297 -0.72042215 0.3442538 -0.48298573 0.23599476 0.5093023 -0.28504953 -0.84339565 0.33575168 0.8162727 0.4533505 0.572943 -0.30008766 0.78135705 0.7052167 -0.3583916 -0.6974704 -1.5404842 -0.37300864 -0.7207309 -0.8699501 -0.6681639 0.11952871
control 0.27605322 0.051421925 -0.98737323 0.2969103 0.25809488 0.07804808 0.31303823 0.24185814 -0.50650734 -0.116348594 -0.24252482 -0.45650825 -0.39672303 -0.32152995 -0.9550659 -1.0611482 0.54908204 0.06989311 0.24101427 0.2541582 0.7509693 0.5743088 0.3295105 -0.23320168 -0.5936127 -0.014876184 -0.29623854 -0.024334919 0.32530183 0.034923688
celular 0.71941376 0.8803718 0.39354765 -0.055032905 0.57836926 0.7159672 0.011796647 0.0056745224 0.028132217 0.3081994 0.056070156 -0.46021923 -0.7876851 0.27588367 -0.064129055 -1.5338953 1.1705607 1.0240929 -0.6226965 -0.19795662 0.42237085 0.40944293 -0.24414665 0.06359807 -0.6009056 -0.014668075 0.04656456 -0.78487796 -0.7253143 0.13844782
ejemplo 0.7674864 0.14585127 -0.5643599 -0.21036829 0.3329586 -0.36410522 0.051824808 0.008844117 0.016945286 -0.0122868605 -0.13114695 -0.0011753188 -0.099077985 0.24804124 -0.5976477 -0.68801063 0.8244287 0.08806418 -0.13069841 0.09158939 0.18598422 0.42852175 -0.10426349 -0.015552303 -0.46381953 -0.44897223 -0.15055548 0.39070615 0.37209547 -0.367594
comun 0.71959114 0.16023615 -0.39683303 0.044560675 0.16751565 -0.18581608 -0.30795127 0.09227243 -0.24905078 0.293566 -0.433468 0.039299734 0.17278033 -0.16005322 0.24434969 -0.64842963 0.79646486 0.04195238 0.16096081 0.18919349 0.6362966 0.4048251 -0.1389016 0.37540075 -0.27746662 -0.0855361 -0.5427742 -0.055686586 0.36688185 -0.4171332
dije 1.1293731 -0.18100354 -0.18465425 0.08218024 0.99042743 0.5989786 -0.7352816 0.33996245 -0.7692089 -0.21742658 -0.7163698 0.46074784 -0.22183408 0.28225985 0.085937895 -0.8122867 0.25162947 0.4777784 -0.6006971 -0.36880645 -0.48797292 0.101163276 0.18554279 0.4969768 -0.19346738 0.18749413 -0.4618425 0.3528749 0.5949949 0.19935104
nadie 1.009412 -0.042255655 0.39796057 -0.14067104 0.5695232 0.05470422 0.22587211 0.82450265 -0.83548063 0.36856654 0.482791 -0.1398824 -0.59206814 0.46829778 0.4492275 -0.8811212 0.76514447 0.17760953 -0.82274777 0.7141094 0.6375023 0.67661315 0.08464975 0.038193963 -0.47836342 0.44894168 -0.42465854 -0.9658303 0.34390688 1.0445058
consulta 0.7890783 0.3677098 -0.8629579 0.26700577 -0.052407574 0.576231 0.024147015 0.3873784 -0.82556766 -0.33199093 -0.49516052 -0.5909258 0.8090123 -0.22078554 -0.22467697 -0.72086704 0.41890287 0.21633618 0.01097804 0.0858417 0.1516366 0.9687727 -0.4805531 0.56186837 -0.6615087 0.56741905 0.95356023 0.20765004 0.24637833 0.49566102
doctora 0.94733524 -0.55066824 -0.3067594 -0.0026110918 -0.008016882 0.51704067 0.012577874 0.062570736 -0.448926 0.23065262 -0.073434874 -0.23515593 -0.13039874 0.26277336 -0.8377499 -0.77311176 0.6221258 -0.724211 -0.9238358 -0.38908586 0.13936365 0.32343277 0.17348738 -0.36395544 -0.82473963 -0.48799384 -0.2108547 -0.30626136 0.56826687 0.8800548
llega 0.83340794 -0.28308064 -0.36158323 -0.19919133 0.35757375 0.09365115 -0.45741147 0.6588726 -0.37757638 -0.00076180627 -0.18883747 -0.12841888 -0.099453434 0.14612193 -0.48531875 -0.4724156 1.2560983 -0.7652085 0.043761995 -0.14250147 -0.26561382 0.20062812 0.28967762 -0.0023751818 -0.67685264 -0.1652908 -0.578914 0.20141853 0.10674381 0.18276154
queda 0.86823344 0.0841654 -1.0335168 -0.017845321 -0.1465033 0.23105834 -0.5073278 -0.07718089 0.04506976 0.28883106 -0.0527864 -0.22516353 0.20716074 -0.4094253 0.5400219 -1.3555255 0.59155494 0.45540625 -0.14086351 -0.01258922 0.24121371 0.11223176 -0.63545555 -0.039906368 -0.3693027 0.101506665 -0.43768364 0.14417873 -0.05350359 -0.24415585
producto 0.6016581 -0.44942257 0.6055608 -0.32344264 0.15896723 0.10153016 -0.12681991 -0.29366222 -0.08602804 0.12660965 -1.0702541 -0.004418066 0.25587988 -0.09053039 -0.26702535 -0.8327793 0.98302656 -0.39524868 0.40926373 0.012045225 0.086893834 0.47533885 -0.25063556 0.01747077 -0.5046482 0.28497142 -0.3364138 -0.65329295 0.10328843 -0.19984014
solicitar 1.0737695 1.3394223 -1.2220502 -0.39438936 0.24962524 0.4555039 0.050854947 0.25069362 -0.43696544 -0.62480617 -0.68451524 0.025617287 0.5492069 -0.022502255 -0.90599453 0.28868926 1.0833099 0.26520663 -0.3704378 0.028095502 0.7707485 0.39996147 -0.1378583 -0.465274 -0.47159123 -0.09546168 0.5930975 -1.0069509 0.38277546 0.012252498
pasado 1.0883957 0.19496273 -0.33320364 0.111563586 0.06053805 0.34408134 -0.25567168 -0.26281816 -0.4373741 -0.3215628 -0.16837914 -0.39312354 -0.07698175 -0.23404312 0.03711635 -1.4884436 -0.27440935 -0.8339984 -0.61853606 0.3793586 -0.5728483 0.30166674 0.4594302 0.29398 -0.5502261 0.5792035 0.37752333 -0.45868734 0.09696787 -0.96922904
vacunacion 1.053296 0.39789927 0.25438902 0.29306963 0.21085663 0.02106121 -0.27149865 0.32019588 -0.37791377 0.10429961 -0.9262694 -0.11506812 -0.80871415 -0.36501235 0.8421945 -1.0830393 0.48745143 0.12788686 0.7239655 0.3543516 0.65477127 -0.044480678 -0.3928963 0.85694844 -1.0402598 -0.46660474 0.61322564 -0.3502135 0.7131653 -0.07240138
llaman 1.3544358 0.62541604 -0.21189493 0.5048097 0.4059573 -0.02671831 -0.18968324 0.0038468102 -0.12745252 -0.0244638 -0.7562611 0.002339886 -0.84026706 0.141175 0.31699166 -0.42587528 0.031848483 -0.036839996 -0.3304395 0.03582907 0.4627239 0.75975376 -0.25451598 0.11958884 -0.16791412 0.2368589 0.05662761 -0.34524179 0.108560644 -0.23254332
llamado 1.595046 0.5122517 0.28170842 0.26907554 0.66917795 0.41239893 -0.0058363504 0.5878776 -0.019842176 0.37398002 -0.2302516 -0.22338143 -0.8848293 0.3638839 1.0854791 -1.3494364 -0.24272552 0.5346938 -0.15545166 0.2877812 -0.0068925824 0.82088524 -0.119498715 0.5403528 -0.009604951 -0.19967727 -0.32592922 -0.91979223 0.18734735 0.5456845
proceso 1.2958626 -0.21738112 -0.31308913 -0.20183428 0.2773193 0.033246543 0.40899262 -0.83690065 -0.6666282 -0.51928806 -0.38795397 0.07627031 0.53534615 -0.23972315 0.46344683 -0.5815203 0.80569464 -0.047236852 -0.21452379 -0.28131428 -0.34244457 0.26213717 0.009203506 0.07440195 -0.58994734 -0.27688992 0.8068529 -0.81175 0.7249001 -0.65885836
perder 1.0695328 -0.06027816 -0.26357135 -0.23883109 0.0712285 0.1794138 0.5292821 -0.38686684 -0.4428423 0.12733658 -0.8801228 -0.28578186 0.08077405 -0.5536106 -0.49421492 -0.2804471 -0.063743554 0.07894205 -0.2612779 0.0874361 0.2962026 0.5548058 -0.4837606 -0.10669261 -0.67955637 -0.20438863 -0.7140595 0.082374975 0.1541594 -0.15192491
esposa 1.0823178 0.34348628 -0.26344606 -0.29027507 0.18899624 0.009488454 -0.6620689 -0.4089178 0.022769956 0.06246247 -0.3450752 0.10897624 -0.2584865 -0.007222076 0.2988605 -0.6810763 0.2559381 -0.44258294 -0.04190361 0.13429114 -0.13252503 0.04564432 0.10183883 0.6238771 -0.94128335 -0.60443896 -0.028868617 -0.14698684 -0.006604536 -0.28537336
medios 0.3450335 0.9896398 -0.8255289 -0.25424704 0.7982972 0.30436677 -0.07456465 0.26388758 -0.78334993 0.19764985 -0.77998763 0.33613986 0.37294224 0.12040278 -1.1014906 0.1208075 0.87030655 -0.24638951 0.2398733 -0.30873635 0.34219635 1.2853425 -0.34013194 -0.7115599 -0.3347637 0.13375574 -0.16081972 -0.7951169 -0.2881152 -0.042364683
unico 1.2190325 -0.4593811 -0.6153876 -0.13217424 -0.277125 0.05826775 -0.4848124 0.09941437 -0.20185767 0.5682039 -0.486771 -0.55101955 -0.8147946 -0.3279932 -0.2136883 -0.18598154 0.52227426 0.16659167 0.22696598 -0.547131 0.6785961 0.88138044 0.2667598 -0.064442016 -0.5422678 -0.5344104 0.24387787 -0.20974846 -0.6692366 -0.56706864
enero 1.1491463 0.17543261 -1.5771618 0.33591577 0.19330116 -0.328166 -0.8576399 -0.65729666 -0.846532 0.53025424 0.1828054 0.43828878 0.0666647 0.26680294 -0.4895538 -0.8810004 -0.12157808 -0.4064039 0.040579047 -0.6556592 0.1972329 0.33267203 0.040103305 -0.510137 -0.3538765 0.32349753 -0.1961339 -0.017274126 -0.8883326 0.017356467
problemas 0.84754515 0.37188566 0.21548381 -0.22915263 -0.05853148 -0.29300496 -0.2762038 -0.06130534 -0.06255682 0.055912197 -0.71828824 -0.30819556 0.092065044 0.554909 -0.53579736 -0.7973651 0.43545675 0.14100945 -0.4337899 -0.24211758 0.07177425 0.42984617 0.3582853 -0.37940943 -0.65987355 0.4229197 0.3293245 0.36366647 1.1248302 -0.8842689
oficina 0.23013926 -0.24114065 -0.14266421 -1.2729897 0.033514656 0.836578 0.24847932 -1.005149 -0.33730727 0.05618727 -1.3536948 0.068222255 0.55122817 -0.32517326 0.3159755 -0.3717112 0.2034237 0.11534175 -0.65809673 -0.19363198 -0.18153691 1.3005459 0.4230978 0.17095615 -0.8234066 -0.4899977 -0.17769182 -0.314988 0.8344705 0.3460638
pacientes 0.76070863 0.58743125 -0.9216206 0.043873288 -0.46116236 -0.03975512 0.5511646 0.27118173 -0.69239944 0.13578819 -0.28936848 -0.83971393 0.86015093 0.29488757 -0.83073336 0.37671766 1.0954249 0.30414543 -0.14373998 0.8277735 -0.12256668 0.9223513 -0.20964788 -0.10090414 -0.9478308 0.3653421 -0.16488951 -0.7154051 0.041660283 0.29031977
urgencias 0.40324375 1.3689854 -1.535828 -0.32318288 0.5690438 0.33082706 0.14619553 0.49669906 -0.70824975 0.15972689 -1.0522046 0.15393442 0.5738783 0.69609267 -1.1704899 0.33442718 1.1743339 0.34728876 0.012900635 -0.12100785 0.5724992 0.7254621 -0.35257715 -0.04372048 -0.36786237 0.39056408 0.15595838 -0.6461943 -0.25346994 -0.049114022
espera 0.60559386 0.08049448 0.016833892 -0.08137887 0.35238525 0.049051825 0.115785606 0.83352286 -0.8498914 -0.29252955 -0.40812078 0.22524421 -0.481842 0.67948854 -0.1097803 -0.46818656 1.2887676 0.032924682 -0.5661855 -0.59703463 0.09656641 0.79396135 0.15979762 -0.20835415 -0.32352793 0.15845673 -0.5551797 -0.40845552 0.10384861 0.22210728
diciendo 1.4227834 -0.38267192 0.13814783 -0.26094243 -0.24854583 0.36110693 -1.1735859 0.38223895 -0.07654741 -0.10086939 -0.19588906 0.19754776 0.2763124 -1.1528763 0.06463596 -0.6893971 0.08238275 -0.5854291 -0.17477244 -0.23354065 0.45874918 0.7119882 -0.25706387 0.29472795 -1.042174 0.37192708 -0.004789723 -0.46657538 0.18095289 -0.62367654
autorizacion 1.0645323 1.0658224 -1.129172 -0.07401284 0.4810784 -0.3290902 0.13791925 1.2561415 -0.9372193 -0.3169064 -0.14393209 -0.6153432 0.2813817 0.29345188 -1.1477094 0.46014673 0.7063976 -0.5502022 -0.09050051 -0.14969411 0.48484308 0.8376809 -0.7470955 0.12269236 -0.5863496 0.41050217 -0.4202027 -0.5537201 0.30185488 0.073449194
sistema 1.3156359 0.13907515 -0.8027439 -0.2776862 -0.38769925 0.21512274 -0.3939692 -0.25165638 0.0780409 -0.021503959 -0.06450716 -0.2258509 0.014666882 0.35370097 0.5507123 -0.3967936 0.27698806 -0.47522813 0.47000027 0.58918583 -0.33871236 0.58788717 -0.14125669 0.94940066 -0.6245586 0.25364026 0.12818338 -0.42580965 -0.23271154 -0.42325807
interes 1.5142556 -0.32565486 -0.3946314 -0.35035938 -0.17344481 -0.10756867 -0.1666316 0.0754593 -0.11509116 0.41059572 0.19357836 0.94668555 0.40347457 -0.27054662 -0.4599638 -0.89028686 0.21753961 0.396455 -0.06345316 -0.3598392 0.7402033 0.82889307 0.79025936 -0.25282857 -0.51402867 -0.15525347 0.0038611013 -0.021424426 -0.04436082 -0.82751137
traslado 1.8895783 -0.14917764 -0.3485747 -0.94663936 0.42839664 0.1026155 0.15135972 -1.0940001 -0.3224717 -0.41331214 -0.12212568 0.008641919 -0.23890772 0.9094961 -0.91774035 0.050707705 0.46907687 -0.61914897 0.13843048 -1.0528462 -0.23308973 -0.34492803 0.07366465 -0.13950849 -1.3087426 0.70166576 0.5918093 -0.7753866 0.8041375 -0.07995649
contacto 1.406628 0.85439974 -0.2759967 -0.02191467 0.26704648 -0.18355684 -0.23961286 -0.5234132 -0.0110780075 -0.14309095 0.6738995 0.1529589 0.04259337 0.44504067 0.051009685 -1.5794817 -0.22979549 0.09988442 -0.33153906 -0.46149814 0.63045114 0.53536576 0.08775245 -0.08349096 -1.0041015 0.22993721 0.5081895 0.029670518 -0.21845935 0.28608927
contestan 0.78593767 0.28782666 0.05891131 0.5709887 -0.34952673 0.79064727 -0.052555103 1.0213007 -0.12512115 0.13976653 -0.1913535 0.3818223 -1.0940593 0.56661785 0.2739564 -1.2521149 1.3710141 0.75663966 -0.90917784 -0.15470006 0.67360824 0.67505634 0.4694974 0.98808444 -0.8503624 0.6311776 -0.9932069 -0.8674363 -0.062434528 0.8164948
mandar 0.9782426 0.30883014 0.4606622 -0.28924543 -0.15575221 -0.1835237 0.38200065 -0.00042091438 -0.4736316 0.08700642 -1.0320278 -0.4493288 -0.03823143 0.3106158 -0.14552234 -1.365464 0.09333482 -0.6265469 -0.6832179 -0.28088805 0.14402652 0.478878 -0.26065084 -0.5180468 -0.15654245 0.47036934 -0.51955247 -0.042968947 0.28728116 0.6459619
cliente 0.54399294 0.33727822 -0.6101395 0.19934301 0.2861749 0.19317824 -0.44686264 0.054317724 -0.5834462 0.45834917 -0.1736727 0.17734537 0.3684233 0.73949987 0.07945077 -0.90541923 0.09269189 0.29137993 -0.16792 0.26506934 0.005286835 0.55389464 -0.21090218 0.039291926 -0.22826804 0.0044042263 -0.2574486 -0.63095415 -0.018964348 0.54604435
pueda 0.8405237 0.14772415 -0.17810763 0.1308619 -0.46133724 0.36646545 -0.61442673 0.17169125 -0.6822776 0.25763312 -0.1931006 0.45052338 -0.4503645 0.7980184 0.38069412 -0.5233315 0.2796593 1.2584897 -0.48767585 0.21459639 0.069627315 0.3887176 -0.5545331 0.22754115 -0.92291933 0.49922386 -0.38182935 -0.76353747 0.4594553 0.17368497
puesto 0.7760811 0.39204714 -0.2939725 -0.53923833 0.270653 -0.17422646 -0.5156752 -0.23632008 -0.3436142 0.68403363 -0.7018811 -0.7424312 -0.040082406 -0.07830278 -0.052773897 -0.3398675 0.36013862 -0.45201325 0.2102125 0.12462334 -0.038488586 1.1395733 -0.5826904 0.024977889 -0.13748166 -0.33861065 0.32222006 0.3377676 -0.36903444 -0.24105074
hizo 0.5949108 -0.64971477 0.11417608 -0.5445795 0.13325918 0.4420092 -0.39462444 -0.26163548 0.075255014 -0.29977942 -0.04744358 -0.2523827 -0.16545647 0.2207831 0.03862159 -1.568855 0.5555494 -0.15149772 0.24751993 -0.18977971 -0.33165467 0.63918996 0.5882348 -0.05271661 -0.7697668 0.17964917 -0.39942098 -0.042209234 -0.29391056 -0.09490152
cuestion 0.47855517 0.5342615 0.083563834 -0.33375812 0.5046367 0.63751835 -0.12647288 -0.7204965 -0.15564844 -0.018214382 -0.99806887 -0.38904768 -0.9122582 0.08981896 0.25079316 -1.1241199 0.8469656 -0.25295004 0.38452598 -0.15514272 0.099068336 -0.40416846 -0.1826216 -0.18056913 -0.9127025 0.25435263 0.001331351 -0.26094505 0.4088187 -0.48874503
pensionado 0.4459832 0.0010238306 -0.03964133 -0.15264669 0.5396207 -0.38964194 -0.2695265 -0.60781944 -1.4384542 -0.3914034 -0.39551502 -0.41523868 -0.3901922 -0.11426968 0.29116702 -0.8376884 0.38203484 0.04791882 0.7062106 0.12891737 0.38517088 -0.015043946 -0.34013784 0.1669764 -0.9275626 -0.4887239 -0.19148004 -0.28499994 0.6256731 -0.10533118
oficina_virtual 0.19980493 -0.5817814 0.36298293 -1.1375024 0.16028582 0.22937068 -0.5305713 -0.91903716 0.075855464 0.51971084 -0.46858582 -0.30021986 0.9853092 0.52689916 -0.121130355 -0.4401907 0.80309653 -0.52009267 -0.6665599 0.255845 -0.051396284 1.0598416 0.41042644 0.39032933 -0.83797574 -0.99014044 -0.92814547 -0.51935834 0.7330514 0.38027066
registro 0.94480807 0.7301097 -0.7189307 -0.45697147 0.56350857 -0.4070952 0.2601271 -0.13801394 -0.56594217 -0.34769022 -0.37080812 -0.1561918 -0.027789645 0.34051606 0.20915301 -0.2544367 0.8549658 -0.55677027 1.2363757 -0.32612714 0.3715 0.7968214 0.3379052 -1.049905 -0.23047821 0.05944026 0.12443539 -0.85997957 0.087929554 -0.27212113
llamaron 1.1421238 0.07952593 -0.7730315 0.22545564 0.4070265 0.41950992 -0.32098967 0.7561115 -0.54732805 -0.49026507 -0.8258587 0.28332758 -0.71273136 -0.1737467 0.5002863 -0.92681694 -0.41227108 0.543032 -0.60297775 0.09595214 0.25444487 0.99028635 0.02184123 1.4879497 -0.47587684 -0.028729636 0.5217005 -0.08843158 -0.22604223 -0.040372774
historia 0.48608539 0.18216811 -0.8815484 -0.6224806 0.085771 -0.31782037 -0.13932659 -0.064355105 -0.5180569 0.25752732 -0.28081602 0.541581 -0.2330376 0.37341538 0.10455217 -0.72978586 0.13195303 -0.43461505 0.08212852 -0.251678 0.15413572 0.775354 -0.6628931 -0.11708619 -0.41656372 0.013788894 -0.32081416 -0.029390784 0.18004438 0.75460535
posible 0.18893142 0.3809794 0.1762332 0.007166097 0.54072535 0.28439814 0.25958988 0.16110212 -0.040293124 0.7666459 -0.55576205 0.15579924 -0.93830174 -0.11362293 0.09002487 -0.9644381 1.0448141 0.105801105 -0.37605965 -0.9136062 0.26985064 0.45024845 0.07308925 0.4652853 -1.0458158 -0.00966976 -0.31834528 -0.6081026 0.694467 0.385189
internet 0.06921597 0.06164228 -0.77111965 -0.35359162 0.42856643 0.1021397 0.056751277 0.15602982 0.3138369 0.10613412 -0.5042933 -0.07263818 -0.2303016 0.33435002 0.51860493 -0.9940608 0.36861622 -0.5420685 -0.83523405 0.4534127 0.036872752 0.7739511 -0.47749773 0.11352395 -0.82066363 -0.6116019 -0.1804657 0.023096219 -0.14124642 -0.5867477
comunicar 0.8172154 -0.041715506 -0.33753473 -0.256061 -0.09195468 0.27664232 0.042648997 -0.03545657 -0.3195907 -0.4542995 -0.39793435 -1.1383022 -0.27895975 0.71170086 0.14053333 -0.3981405 0.86740005 0.6469971 -0.79272765 0.017239107 -0.1160204 0.47367206 -0.050398555 -0.083794974 -0.6557321 0.17137955 -0.4847782 -0.5015265 -0.013422802 -0.021480547
perdi 0.46233374 -0.15699685 0.42622003 -0.63537675 -0.15789767 -0.25678822 -0.55558753 0.527148 -0.82335263 -0.06796864 -0.5191414 0.35443264 0.80132955 0.2613561 -0.24327828 -1.1338233 0.6641504 0.13973886 -0.19688338 -0.8393305 -0.14098525 0.2419015 -0.47426474 -0.77175075 -1.2525463 -0.61978287 -0.02768784 -0.065181084 -0.427567 0.002024715
medicamento 0.50203353 -0.60887754 -0.67773485 -0.407795 -0.29073915 0.67542326 0.03029738 1.086788 -0.11712365 1.0898246 -1.0455025 0.031477053 0.6917943 -0.10409396 0.064088024 -0.5031826 0.992396 -0.80302227 -0.72424626 0.14666547 -0.52750325 0.9081086 0.049763132 0.608205 -0.6684787 1.5039638 0.0020345172 -0.1850213 0.5563808 0.11041681
mandaron 1.533128 -0.54633284 0.40556926 -0.2900879 0.10048414 0.37961113 0.60307336 0.111424595 -0.27430892 0.96959966 -0.074197605 0.44501588 0.49165255 0.9361615 -0.11228181 -1.2250954 0.6634687 -0.16169856 -1.5467184 -0.7799263 -0.37224272 0.4881068 -0.3128239 0.906359 -0.4123281 0.56196284 -0.09161834 -0.21957284 0.3663327 -0.26236433
documento 0.49870455 0.45551023 -1.0741192 -0.26566756 0.49205792 -0.02361713 -0.072258495 0.42399052 -0.6688907 0.2582324 -0.7893495 0.5704418 0.4727545 -0.22373493 0.2875783 0.26779816 0.45206982 0.09330062 0.44025883 -0.42891544 0.17612241 0.9044487 -0.0038413648 -0.63551366 -0.8449973 -0.39975652 -1.5551999 -0.683317 -0.60091233 0.8672509
situacion 1.0738724 -0.6529125 -0.8536678 -0.64304817 0.13513304 0.03303062 0.81713575 -0.17722696 -0.58344203 0.95083714 -0.17871825 -0.08146828 -0.44574335 0.31902078 -0.5570489 -0.46702066 0.68189985 1.0058982 -0.20891789 0.2687854 -0.34883133 0.34350038 -0.418369 0.524608 -0.5850215 0.9277774 0.42439276 0.055832557 0.18440503 -0.20931159
completo 0.2674403 -0.25662407 -1.0998956 0.14181513 0.3874208 -0.39613903 -0.5462324 0.36578447 -0.58225346 0.7993513 -0.7495464 -0.4103628 -0.4901533 -0.1756729 -0.11657639 -0.46236145 1.1736699 -0.717087 -0.11534737 0.41424564 -0.4141984 0.20105277 0.11004276 -0.5210688 -0.08415681 0.08959351 -0.11070905 -0.3050052 0.65231216 -0.19816151
llegar 1.0515049 0.38391197 0.8305452 -0.41639188 0.36799356 0.23833735 -0.21085632 0.8343474 -0.06574583 0.27206698 -0.6763309 -0.6676633 0.28244302 0.23272741 -0.10446109 -1.0430994 0.09986256 -0.20606826 -0.43780482 0.5569968 -0.6467194 0.40948728 0.090474404 -0.26231828 -0.7362866 0.1212962 -0.39923522 -0.2223965 0.58233315 0.92281634
comunicarme 0.84431314 -0.19046926 -0.36850655 0.29555708 0.30359405 0.57167065 -0.41000667 -0.21492451 -0.46404922 -0.06938078 -0.37402263 -0.26018453 -0.9006981 -0.43245026 0.16579789 -0.43432367 1.0418831 -0.7639328 -0.58612466 -0.10759474 0.85998565 0.2027676 -0.2082889 0.42804018 -0.6696152 -0.27484116 0.013919166 -1.3249592 0.9359111 0.49782696
colaborar 0.5813832 0.561921 -0.7725755 -0.124035545 0.20382704 0.2069444 0.1355646 0.7821291 -0.743556 -0.08466812 -0.95099795 -0.016931841 0.389522 0.48944312 -0.5974616 0.4741942 0.60990685 0.45015416 0.04130583 0.0030203196 0.28109688 1.0690473 0.057711337 -0.22522104 -0.69402486 0.13755137 -0.44080436 -0.7226557 0.25906867 -0.6233603
cambiar 0.70339143 0.08243707 -0.4132786 0.37543723 -0.22367986 -0.16215615 -0.56693923 0.1069715 0.31617868 0.10010602 -0.39713416 -0.71165633 -0.37555057 -0.009157877 -0.41037607 -0.6015968 0.7634736 0.4071589 0.4812168 -0.052008167 -0.52015865 0.3607947 -0.073361166 0.27356753 -1.4554241 0.07023245 0.35536486 -0.46948344 0.042976122 -0.7749603
verificar 1.2136085 1.1425573 -0.97346175 -0.5471443 0.63231367 -0.31546447 0.7825129 -0.019453408 -0.01900355 -0.09046941 -0.158681 0.25762936 -0.22546846 0.073364146 -0.35655957 -0.36752006 -0.23111728 0.45233268 0.6882407 0.05385435 -0.79544544 0.6198419 -0.4528675 -0.9578508 -1.2074945 0.38827685 -0.4982428 -0.5173739 -0.24672091 0.09786747
procedimiento 0.81018186 0.82633394 -0.38205615 0.07116487 0.32906276 -0.2702401 0.12613603 -0.008842947 -1.2438242 -0.57025665 -0.19657843 0.34362927 0.23353831 0.90616804 -0.056749746 -0.8402805 0.39214578 -0.06789312 -0.39075062 0.10332674 0.017204726 0.61217993 -0.29170978 -0.13879162 -0.32175133 0.08348468 0.17026383 0.33598703 0.27752748 0.45996454
barrancabermeja 1.1462215 0.123819426 -0.68877614 -0.38140866 0.32721958 -0.03138981 -0.12560293 -0.7565934 -0.23012106 -0.2459201 -0.23533285 -0.10690116 -0.5460604 0.5268984 -0.64118767 0.2171149 0.62304825 -0.18400835 -0.1793299 0.1456121 -0.49998865 0.16300444 0.18682492 0.3101938 -0.9393758 0.14679131 -0.5208859 0.01707824 0.62476504 0.11247364
fecha 0.49204427 0.18106577 -0.7573354 -0.39429724 0.9867149 0.36297908 -0.06628844 0.20850742 0.18153343 0.6737781 -0.11922741 -0.42246124 -0.2532859 -0.4067971 0.97639966 -1.0728409 -0.26510295 -0.94026935 -0.33328247 0.5019488 -0.10410515 0.64756376 -0.1354374 0.51816595 -0.8900578 -0.95616454 -0.5286914 -0.3488253 -0.5381037 0.04579975
preguntar 0.7981708 0.34567013 -0.29773486 0.5225182 0.7096105 -0.061583634 -0.3236593 -0.23003544 -0.9359256 -0.13492937 -0.48990133 -0.13311525 -0.29968518 1.00543 -0.036394008 -0.48807523 1.0055684 0.1594384 0.033012617 0.20189899 0.40195942 0.122724116 -0.16446732 0.5345574 -0.55797625 -0.25055173 -0.06588056 0.27374274 -0.89830863 0.2715922
gmail 0.5692492 -0.254035 0.0403156 -0.9226836 -0.07072245 -0.4313803 -0.09603812 -0.065782174 -1.1438899 0.76528114 -0.20309307 -0.32352605 0.56710666 -0.3405038 0.52620304 -1.8308358 0.8642061 -0.12993614 0.75700873 -0.047546808 -0.2013936 0.29552776 0.4221116 -1.2601022 -0.534401 1.0339681 -1.1354547 -0.13769051 -0.031384617 0.9751504
contesta 0.9133101 0.2510835 0.4342588 0.16452682 -0.17541975 0.1115464 -0.045615286 1.028325 -0.8566966 0.37644055 0.40429097 -0.43656135 -0.7184432 0.6600721 0.35345158 -1.3825071 0.8369279 0.5087842 -1.3175492 -0.33221763 0.40265986 1.3315111 0.0041101314 0.3946471 -0.65776336 1.2517096 -0.2760733 -1.0205022 0.18035771 1.2017312
entrar 1.11019 0.15301989 -0.79599565 -0.2027776 0.003562424 -0.115567945 -0.015767496 -0.4084814 -0.45612955 0.062174175 -0.3189575 0.9468667 -1.0114218 0.46064958 0.48912588 -0.41241437 0.14862664 -0.14214058 0.14403933 0.3732716 0.8786921 0.47786015 -0.6433968 0.14316478 -0.5737593 -1.5091013 0.09313283 -0.1453232 0.842001 0.49222508
idea 0.6775547 -0.2622981 -0.20142126 0.18191898 0.019527381 0.14953296 -0.073950686 -0.35264164 -0.38253495 0.6977973 -0.20437331 0.2851746 -0.4328481 -0.23386109 -0.22211684 -0.8321152 0.36378253 0.11083379 -0.10224991 -0.07014488 -0.40150622 0.1635398 -0.5877381 0.4754927 -1.0839014 0.7009084 -0.19624081 -0.41908088 0.6594188 -0.5311414
autora 0.33564195 0.64121354 -0.13104346 -0.3234619 -0.5621737 0.46131477 -0.4822216 -0.1712942 -0.5116149 0.41065532 0.010846364 -0.012791383 -0.0054002954 -0.22495548 0.58324146 -1.2916788 0.9567292 0.31843296 -1.1497173 -0.5834222 -0.39087254 0.20623262 -0.27355114 0.27937952 -1.076938 0.60770965 -0.37651244 0.015405798 0.041874487 -0.86300564
pedir 0.09170299 0.8464652 -0.96566707 -0.3925752 0.372249 -0.17071338 -0.009176486 0.36076635 -0.86542046 0.66086 -0.3892571 -0.18742871 0.076903775 0.71656215 -0.4267551 -0.17983381 0.36918592 0.116298765 -0.33018327 0.23753792 0.32427576 0.5040782 0.20800288 0.74280876 -0.83513033 -0.2546875 0.3929077 -1.248274 -0.24540623 0.07782024
pagina 1.0759866 0.11731074 -0.03826389 -0.07954655 0.4643611 1.3259716 -0.44897765 0.12224533 -0.93995035 0.7916837 -0.9405619 0.58969337 0.59061325 0.6903428 -0.062334258 -0.23094457 0.10635346 -0.41989204 0.42371538 -0.13518608 0.83571345 0.47871086 -0.23603226 0.818775 -0.4110208 -1.048146 0.8527877 0.020183254 0.5034736 -0.74038434
llevo 0.27255374 -0.10410301 -0.36886293 0.057035025 0.09132174 0.06676702 0.96362823 -0.19449435 -0.3166362 1.0425162 -0.23517884 -0.06632573 -0.6807602 0.7500471 0.19228052 -1.2257981 0.77128756 -0.1494192 -0.31813666 -0.45100877 0.52551746 0.61704826 -0.2210774 0.29297665 -0.7456086 0.27364814 -0.21329394 -0.010277708 -0.16151722 -0.27393177
termino 0.8854124 -0.26742065 -0.11388394 -0.8060657 0.16894448 0.6070729 0.040706653 -0.15299162 0.24970084 0.35352358 -0.6199444 0.6486361 0.0709201 -0.14833778 0.07826953 -0.5579123 0.7919686 0.076879114 0.09333082 0.076018475 -0.26240712 0.80823505 0.38210094 0.14625876 -0.83513904 -0.075233 -0.0678236 0.5764932 -0.3087862 -0.14133331
final 0.2858411 0.2878829 -0.3460561 -0.40952295 0.1607803 -0.015886407 -0.773637 -0.1686137 -0.1659703 -0.015582887 -0.053301595 -0.43889165 0.48184693 -0.085113585 -0.08340201 -1.0397695 0.31787476 -0.22655894 0.38128874 -0.19132732 -0.24876949 0.7203157 -0.20298013 -0.06148376 -0.5711863 -0.32276753 -0.23483993 -0.33227995 0.86497676 -0.22880277
digame 0.973781 0.052317988 0.051241517 -0.05585062 0.85626453 -0.8770138 0.050200146 0.49451497 -0.7691333 0.2603213 0.05224628 0.44064572 -0.49724215 0.61870694 -0.47416395 -0.2928721 0.48604703 0.4229522 -0.5971502 0.46747825 0.12234219 0.7824693 0.18001023 -0.14012459 -0.53382766 0.0981715 -0.24224123 -0.1582146 -0.07653113 -0.2010091
urgencia 1.1819977 0.41800147 -1.0203351 -0.10509218 0.5366262 -0.4071841 -0.034162223 0.1730357 -1.5499288 -0.23534665 0.18042232 0.051577132 0.88207483 0.4965499 -1.7804047 -0.04048408 0.5474952 0.043660145 -0.2046203 0.41903922 0.73764324 0.9944325 -1.0929645 -0.07963193 0.10530562 0.938739 -0.4198909 -0.6669653 0.3321253 -0.2175961
pendiente 0.72601974 -0.17609714 0.4148645 0.12919877 -0.14358759 -0.5945535 -0.5152635 0.64253247 -0.71447307 0.40201998 -0.53865486 -0.3562748 -0.00086177804 0.46102455 0.4546444 -1.1891439 0.27704808 0.0056300233 -0.065467596 0.34501112 -0.09354976 1.0144852 0.3475628 0.099158384 -0.46903592 0.36136904 0.13910146 0.16144443 0.49213287 0.054835778
quieres 0.7920236 0.33728164 0.0026657965 0.12509626 -0.15274903 0.22214757 -0.6433151 -0.020387165 -0.22599435 0.09997472 -0.32714024 0.18432721 -0.08358259 -0.8215642 -0.60814846 -0.48632237 0.65884036 0.67832476 0.03112201 -0.47034228 -0.028434811 0.512248 -0.43257812 0.34733808 -1.3757447 0.18738581 -1.0568397 0.2253276 -0.16031265 -0.09137543
comunicacion 1.3736652 -0.23211034 0.041544918 -0.50446916 -0.17387448 0.053973053 -0.31574613 0.5447166 0.20514317 0.14377323 -0.049931426 -0.01437857 -0.5998366 0.04131193 -0.013668485 -0.94103533 0.053302996 -0.09535149 0.06361695 0.3587632 0.0644578 0.6532521 0.36920086 0.04743111 -0.66542655 0.4851129 -0.315347 -0.39026767 0.21544413 0.007223014
especial 0.84479433 0.06554007 -0.8293468 -0.42415842 -0.3461532 0.4653524 -0.23511194 -0.5928653 -0.6645682 0.7003607 -0.36636516 -0.918954 -0.24112935 0.053110875 0.3378523 -0.4050716 1.0158664 0.17905873 1.0120603 0.33350554 -0.4889991 0.5383795 -0.5822059 0.45313472 -0.1729994 -0.29146445 0.19010077 0.07474357 0.61015487 -0.013158341
senal 0.57858413 -0.084755905 -0.6500476 -0.29655835 0.29737025 -0.032940235 -0.05897752 -0.013234679 0.20985691 -0.03706679 -1.3428562 -0.18394352 0.0038753622 0.36785635 -0.27240697 -0.3745812 1.1696956 -0.01052661 0.09957315 0.2825134 -0.3177847 -0.3261935 -0.4331902 -0.29149815 -0.61826444 0.36020193 -0.92346585 -0.13788465 -0.34456667 -0.59577185
mandan 0.65505236 -0.4606194 0.28229073 0.5737471 -0.08703681 0.5685678 -0.11685613 0.360514 0.21736696 0.4085145 -0.60673815 0.438756 0.26449034 0.42230153 -0.2694851 -0.98681986 0.6535462 -0.48336244 -0.2917833 -0.07666502 -0.040636215 0.35913193 -0.11239027 0.09343347 -1.2652241 0.4058088 -0.7460634 -0.43039748 0.12413481 0.3107474
electronico 0.36323607 -0.12756892 0.8418068 -0.6032259 0.1830636 0.4098959 -0.51395154 -0.43038556 -0.19227855 0.330484 -0.44182768 -1.0561098 0.18620905 0.7750804 -0.116707794 -1.793159 0.3218957 -0.33153132 0.028171707 -0.54997885 1.0756109 0.58000845 0.20154929 0.11491384 -0.6374944 -0.18843465 -0.68025315 0.15578051 -0.056068454 0.5719403
alta 0.62720937 0.64970154 -0.5714392 -0.08063912 0.8182089 0.040553674 -0.34809804 0.039989725 0.20719607 0.09894658 -0.45348814 -0.05673431 0.075383835 0.3240991 0.12636171 -1.279705 0.45147738 0.4439021 -0.80717134 -0.23749992 -0.05113593 0.6302511 -0.48393577 -0.24479444 0.1725025 0.25188592 -0.98756623 -0.22206551 -0.20648661 0.33207107
dicho 0.47715634 -0.1772423 -0.8551491 0.13540877 0.01264998 0.27830914 -0.8671263 -0.26755828 -1.2072496 0.46391463 0.5776414 -0.75732726 0.2810857 -0.32568902 0.1353679 -0.15486924 0.8388834 -0.025722953 -0.004835871 0.028705884 -0.009266254 0.5029559 -0.13222958 0.054679316 -1.3489492 -0.09833362 0.073122494 -0.3895568 0.5465306 0.65593445
miren 1.5989815 -0.95305574 0.7060269 -0.9684529 0.83866245 -0.75823045 -0.13740496 -0.57416123 -0.1486429 -0.4761476 -1.093064 0.39011213 0.032746777 0.32633656 0.31900835 0.081093356 0.07853881 -0.8292675 -0.050660476 0.66817564 -0.70121014 0.9201744 -0.12942815 0.3550257 -0.83791506 0.74796146 -1.1362718 -0.009057651 0.4134042 -0.46525872
respecto 0.87312365 0.08974488 0.2317705 -0.14207442 0.1299149 0.33925465 -0.38700512 0.03952047 -0.4177796 -0.06354641 -0.6404426 -0.21760015 -0.1203146 0.334614 0.91181016 -0.9975656 0.73974884 -0.46112713 -0.24196874 0.40104213 -0.5128469 0.4485076 -0.36366105 -0.1625102 -0.27253792 -0.5476652 -0.19910264 0.14811894 0.21050887 -0.107386775
horas 0.7455258 0.0886914 -0.39413303 0.045280427 0.39808246 0.5950258 -0.16400039 0.3852285 0.25995862 -0.24567136 -0.28013557 -0.21052045 -0.4082209 0.6444258 0.44657227 -1.1382172 0.59495723 0.8136696 -0.8777747 -0.17366105 -0.046877407 0.6975345 -0.077355996 -0.38288987 -0.7105276 -0.24565716 0.2997204 -0.24904908 -0.6057647 -0.053937636
temas 0.65021104 0.50261974 -0.23263814 0.17333753 0.085879415 0.58204573 -0.49732825 -0.16268706 -0.8896591 0.013633355 -0.11613057 -0.59378177 0.20638692 0.40529463 -0.009968866 -0.83823156 0.42767522 -0.13007112 -0.14184818 -0.24269345 0.086624786 0.46814525 0.2376309 0.0566234 -0.6829782 -0.0833424 -0.0031788172 -0.27937996 -0.05576408 0.3648551
ayudar 0.55215824 -0.12603314 -0.6035601 -0.7757326 -0.17356917 0.17386867 -0.17537731 0.54429156 0.06300369 -0.008832541 -0.60190123 0.26667088 -0.25983506 0.44406733 -0.35166156 -0.934968 0.99478865 0.6447143 -0.2427086 -0.17855908 0.019914996 -0.09252447 -0.2325767 0.3781478 -0.51783764 0.15996851 0.14234485 -1.0935509 0.6787214 0.27904037
confirmo 0.5214637 0.52349 -1.2996286 -0.6130805 0.2754972 -0.17708479 -0.0516025 0.66901934 -0.601589 -0.089895025 -0.89522225 0.68209285 0.6756143 0.30372584 -0.66556287 -0.12015754 0.97678906 0.08248391 0.34293196 -0.07114904 -0.06423588 1.0943317 0.37923476 -0.6455678 -0.016642407 -0.19847398 -0.06534955 -1.0587527 -0.068392225 -0.20517471
visto 0.18911253 0.087393865 -0.9182626 -0.28202274 0.71332395 0.6344536 -0.50241905 -0.7374167 -0.1969612 -0.42871532 -0.21528104 -0.2777325 -0.14803024 0.023728745 -0.13584583 -1.1212312 -0.342488 0.38602906 -0.22903857 0.1227983 0.34799626 0.89770997 0.448611 -0.34321415 -0.8534206 -0.40749598 0.10610159 0.094926536 0.47725037 -0.2539759
beneficiaria 0.37845594 0.7301077 -0.29288015 0.11019824 1.2539705 -0.17922537 -0.48489428 -0.9684081 -0.5133168 0.15251572 0.10335152 -0.4213036 -0.81916845 -0.68016076 0.34412786 -0.5724246 0.82525957 -0.4365773 0.01805894 -0.5121542 0.97092944 0.35727012 -0.96540314 0.80227655 -1.234748 -0.3716906 -0.3529196 -0.09562236 0.10858249 -0.4233712
diciembre 0.7578383 0.14136149 -0.9181931 -0.7020355 0.4132204 -0.80212045 -0.5635643 -0.5908074 -1.5759987 1.1762581 0.1153587 0.18849634 -1.1158442 0.31676304 -0.48628065 -1.7441708 -0.23749278 0.15089443 -0.37129152 0.08911318 0.34849203 -0.21671723 1.4765406 0.5752283 -0.7198902 -0.059379853 -0.50729054 0.43385345 -1.320504 -0.9033091
preguntas 1.0172726 0.765158 -0.21240938 -0.4270898 0.45871308 -0.69934255 -0.6061723 -0.613058 0.16475819 0.44317377 -0.6352227 -0.8601846 0.30765808 -0.12229032 0.0089448495 -0.8308124 0.7360382 0.73599225 -0.42984465 0.1629237 0.08853296 -0.40974972 -0.35537234 -0.80881983 -0.6994484 -1.0858139 -0.13913381 -0.8361086 -0.3730117 0.45938706
conjunto 0.22854267 -0.11196827 -0.5730332 -0.000110621215 0.47841516 -0.26653004 -1.0373205 -0.5274552 -0.077694446 0.23366752 -0.5228675 -0.43697786 0.98858494 0.120785356 -0.7068984 -0.6130759 1.106681 0.03674352 0.010906697 0.36524424 0.5456369 0.51148874 -0.2222383 -0.23513696 -0.13135523 -0.299969 -0.44105124 -0.3961339 -0.02836849 -0.1752014
beneficiario 1.1549345 1.2670804 -0.41302612 -0.50110245 0.22251604 -0.926719 -0.8651155 -1.3029337 -0.37751895 -0.31584716 -0.5896155 -0.15987799 -0.1618951 -0.011262513 -0.17502089 -1.171451 0.235495 -0.15799876 0.65169734 0.568088 0.2833644 -0.0038607256 -0.02088109 0.25158215 -0.6894955 -0.43409654 0.61507004 -0.086817995 -0.90315455 0.016525717
mensaje 0.9303151 0.09318794 0.68487966 -0.40492103 -0.10883852 -0.07908533 0.30757406 0.38955307 0.28565153 0.35207778 -0.5471989 -0.19340685 -1.319471 0.30322295 -0.17861901 -0.4371534 0.785865 -1.171639 -0.7930175 -0.037512593 0.51821357 0.45131272 0.09867273 0.3055902 -1.745169 -0.27139056 -0.17058611 -0.47055238 0.1958485 -0.13191268
viene 1.2804937 0.4567418 -0.387193 -0.5285682 0.3499251 -1.0538639 0.14552352 -0.015598015 -0.06415647 -0.2566835 -0.38514253 0.3998727 0.1785839 -0.27388227 0.03962744 -0.6550047 0.13124508 -1.3105996 -0.3524379 0.36427516 0.483594 0.84494865 0.02572974 -0.6708341 -0.44324103 0.24146132 -0.70467293 -0.07639731 -0.3749128 0.7578487
momentico 0.4668587 0.1072438 0.6957632 0.17500179 -0.4093882 -0.42752934 -1.4870725 0.07853708 -0.44989437 0.6280602 -0.8196181 0.3452824 0.25825652 -0.4024232 1.2735109 -0.9048203 0.34351742 0.6662905 -0.37152386 0.33347887 0.32934698 1.3224759 0.40714487 -0.46636787 -0.79814607 -0.7545506 -1.3997109 -0.8067753 0.57851654 0.5885074
numeros 0.9287256 0.4480782 -0.16156477 -0.18990819 -0.012132261 0.830758 0.214404 0.22639704 -0.45603338 -0.0398612 -0.58230567 0.40140182 -1.2044755 0.21728735 -0.45055977 -0.592468 0.71027184 0.41736022 -0.82714957 -0.29316518 -0.22427398 0.92628795 0.46804374 0.24085024 -0.62637544 0.05072766 -0.04902856 -0.7682672 -0.7713531 0.52313364
formula 1.0588734 -0.7066327 0.04370408 -0.061340176 0.07200541 0.3508252 -0.48060107 0.7856031 -0.28436384 0.67939407 -1.0230848 -1.269697 -0.11630594 0.7626151 -0.14856172 -0.45058227 0.76420593 -1.3602258 -1.6215649 1.0806677 -0.4772564 0.10656598 0.15014865 0.41999283 -0.55540806 0.84732366 -0.9509048 -0.4446541 0.96535367 0.07873728
unica 1.0175936 0.31765842 -0.7609911 0.01315164 0.67878705 0.0086195655 -0.07619859 -0.06544802 -0.24444112 0.3062326 -0.30945033 -1.2257396 -0.20237437 0.1805885 -0.2833668 -0.3895688 0.19710912 -0.24879248 -0.5360451 -0.07562492 0.34113905 0.35479435 0.03873249 0.014656003 -0.24561395 -0.22131748 -0.3035015 -0.45132822 0.51285344 0.13047388
mirar 0.40833852 -0.1840392 -0.36396697 0.38736215 0.15741716 0.108203165 -0.31472448 -0.4634386 0.11443814 0.08793856 -0.62291926 -0.2285488 -0.8208889 0.68038553 0.10517871 -1.1829569 0.5783156 -0.028286567 -0.32827502 -0.27820504 -0.18485242 0.32896534 0.26536748 0.42895412 -0.54997987 0.07719257 -0.064722486 -0.92119706 0.060280345 -0.88074154
salir 0.29833734 -0.40690866 -0.30519506 -0.39831743 0.12778856 0.3080584 0.18586902 -0.09943821 -0.14397822 1.5101076 -0.6013498 -0.09889685 -0.22098482 -0.3172827 -0.6093521 -0.5299686 0.9085235 0.118634075 -0.008476424 0.73990685 0.14039993 0.44751987 -0.61632085 -0.21853608 -0.89399993 0.5352325 -0.70278955 0.53073066 0.56489813 0.39909104
confirmar 1.0903444 1.216804 -0.27339265 0.18354844 1.179605 -0.07037048 -0.08490646 0.021692865 -0.10673656 -0.19311193 -0.21470135 -0.010383614 0.2279077 -0.20123409 -0.261515 -0.6444654 0.9518074 0.16415852 0.26525602 0.48559836 0.121582486 0.41025364 -0.34018397 0.103441186 -0.26891562 -0.24854471 0.44974393 -1.2528735 -0.8538061 0.22538021
nivel 1.4386672 0.7149089 -0.1696041 0.14865015 0.22181883 0.09459603 -0.15545376 -0.088930786 0.1679873 0.1526084 -0.7847884 -0.5067421 0.20235172 0.72419435 0.025178395 -0.4385777 0.4143148 -0.15187888 -0.33099994 0.34422296 -0.65314084 0.21843928 0.7185814 0.04922893 -0.29049265 -0.13761531 -0.14446874 -0.34959638 0.6454136 0.27029538
opcion 0.826257 -0.6285013 -0.4147921 0.107107274 0.3270686 0.03368757 -0.45686707 0.043905 0.21457212 0.04309698 -0.7689222 0.25254115 0.001381086 0.59930795 -0.21329252 -0.6801375 0.75698745 0.5353251 -0.43187198 0.0014008016 -0.16086318 0.5403794 -0.51849276 -0.658829 -0.37109724 -0.07394731 -0.16144362 -0.11531224 -0.20738508 -0.066294424
tratamiento 0.8390818 0.02972631 -0.90458345 -0.2561837 0.8627606 -0.40023893 0.48271227 -0.19763365 0.44090104 0.75339484 -0.9021907 -0.38762775 0.10384586 0.11831195 -0.110561915 -1.3848313 0.22102372 -0.22508897 -0.58425885 -1.3236301 0.116439655 -0.6851218 0.7977782 0.26242408 -1.4521563 0.2717225 -0.114681646 0.7354027 0.20201096 -0.10906736
compre 1.1154473 0.10341072 -0.66511065 -0.14773074 1.0212165 -0.9921721 -0.47762668 -0.2461754 0.07447613 0.65041375 -0.52137464 -0.4293915 0.38075742 -0.014395321 0.66049296 -1.0096816 0.06827207 -0.11424227 -0.61563486 -0.49950913 -0.10317135 -0.12144804 -0.14093736 0.39866963 -0.47371274 0.50307864 -0.03110526 -0.08199841 -0.034530576 -0.6628085
necesita 0.77029914 0.6672353 -0.46492514 -0.25188124 -0.26942936 -0.13873616 -0.2915072 -0.43449122 -0.4704668 0.10170118 -0.2017013 0.060107872 1.0104213 -0.33011368 0.1097999 -1.0616689 0.7078046 0.08501845 1.0944167 0.042756587 -0.051961184 0.41594175 -0.96990764 0.6570984 -0.46648628 0.36527428 -0.566471 -0.36272505 -0.2283431 -0.09908512
dices 0.86869085 0.09806864 -1.0772736 0.6699148 0.343251 0.1865205 -0.73929405 -0.22696519 -0.57063276 0.3758454 -0.41096827 -0.21013884 0.17780203 -0.1373699 -0.079924196 -0.5365956 0.26424453 0.30346823 0.1267578 0.7112219 -0.097443774 0.3339201 -0.06357272 0.031545915 -0.3912816 -1.4726592 0.19656451 -0.064040996 0.368988 0.19203039
edad 0.41128057 0.7037641 -0.3799311 0.4393536 0.09304373 0.29174337 -0.6270863 -0.06975529 -0.43761554 -0.21776846 -0.3193305 -0.678035 -1.0131376 -0.38367507 -0.37588128 -0.87352604 0.6727776 -0.46532595 -0.30157202 0.23322618 -0.25034073 0.6108753 -0.17213231 0.22184128 -0.7532257 0.032361653 -0.31461787 0.18475431 0.24204119 -0.15362042
estacion 0.6998295 0.9283849 -0.50007105 -0.75609446 0.043212492 -0.26418173 -0.557572 0.4736794 0.52413195 0.16011523 -0.6885911 -0.41062233 0.39837694 0.039812528 -0.44393668 -1.1914843 0.8973304 -0.6583021 0.24297225 1.1362565 0.31274262 0.06919705 -0.3496839 0.025163027 0.18501705 -0.37889954 -1.1424226 -0.5523778 -0.3741035 -0.16200611
partes 0.7506805 0.54781795 -1.099772 0.026057258 0.071902774 0.20000266 0.4738729 -0.28587693 0.19854572 -0.15764166 -0.3560289 0.27025604 0.47384945 0.5642355 -0.51406723 -0.77783614 0.6289027 0.2425318 -0.5219309 0.42073655 -0.17085665 -0.09413473 0.22517155 -0.4095463 -0.99519885 0.32403818 -0.5974661 0.53342766 0.8342958 0.37267375
precio 0.2593237 -0.06888237 0.14558482 0.15971279 0.11659173 0.20592883 -0.17240092 -0.09875094 -0.3793747 1.3297625 -0.542667 0.021499729 0.1510315 0.044373076 0.11010436 -0.70486903 0.5548164 -0.6085472 0.06159475 0.38574094 0.5441111 0.48324078 -0.26450977 -0.24166618 -0.82607645 -0.13652283 0.050868016 -0.62663066 0.4460593 0.3422008
queremos 1.7610923 0.16579257 -0.4392785 0.3303014 -0.050085116 -0.34198216 0.13766532 0.48024243 -0.19896343 -0.0031454423 -0.4522404 0.10704209 -0.122178465 -0.3894961 0.2583192 -0.009056929 0.03027159 -0.9945391 -0.3021433 0.17044602 -0.37078866 0.6602476 -0.51026326 -0.6057391 -0.83610487 0.024363931 0.22791941 -0.23637666 0.7373272 0.08598703
tarjeta 0.6539807 0.20911628 -0.28933543 -0.65992826 -0.106724635 -0.08801524 -0.5936963 0.08742905 -0.20790045 0.38683644 -0.36717245 -0.082957566 -0.04642752 0.48371187 -0.43176007 -0.6924082 1.0073543 -0.041484147 0.6057778 0.38554135 0.11804953 0.26659414 -0.036207043 -0.36654395 -0.56391335 -0.60060173 -0.113948025 0.5274779 -0.13168177 0.39100078
esperando 0.87531114 -1.0721959 -0.788578 -0.15511961 0.3519897 0.64199096 -0.09195761 0.7694056 -1.0141317 -0.21612757 -0.46559316 0.038125865 -1.2033294 0.3968088 0.4822173 -1.1103028 0.032140184 0.573409 -0.45102707 0.78697 -0.20881823 0.7437592 -0.23694523 0.35337877 -0.15669084 0.47981867 -0.49957228 -0.6371154 -0.14969209 1.3433049
barranquilla 0.31949478 0.5976836 -1.230236 -0.59141636 -0.093383305 0.07405363 0.9040022 -0.27998555 -1.0526268 -0.22391734 -0.67457 0.16224833 0.49438927 0.62325823 -0.4581174 -0.5095623 0.023428777 -0.22348015 0.7653589 0.9937719 0.20814142 0.71684515 0.56654346 -0.71627563 -1.0809387 0.53809273 -0.0314026 0.09157407 0.5137655 0.20498462
entra 0.7574671 0.029975725 -0.9078463 0.012939307 0.63778675 0.4260858 -0.11571977 -0.577311 0.09125368 -0.41827965 -1.1581064 -0.72968566 -0.16132796 0.18354696 0.08736654 -0.27701408 0.05784249 -0.18039303 0.80775565 0.49611273 0.41629374 0.24233739 -0.35384932 0.35413548 -0.6720066 -0.21885826 -0.279926 0.38431507 1.0811555 -0.27902892
octubre 0.68771625 0.6180042 -0.36068693 -0.23246962 0.38586736 0.57158595 -0.596155 -0.43832326 -0.64571893 -0.030973038 -1.2567762 -0.36981133 -0.03488205 -0.39147973 -0.13545455 -0.42617667 -0.62141603 -1.2936949 0.0995282 1.2064799 -0.13097554 0.35907698 0.11201581 0.5665869 -1.0654532 0.09174709 -0.5237325 0.36032993 -0.17403466 -0.21039993
comento 0.13493732 0.7814865 -1.0425667 0.35002407 0.018528523 -0.2402262 0.5652605 0.46857512 -0.46140158 1.0075362 -0.5097955 -0.19162962 0.24859506 -0.303169 -0.31938004 -0.8209539 0.37542582 0.078277946 0.8887419 0.1366675 -0.10745713 1.3628137 -0.16727881 -0.44637445 -0.603086 -0.50193524 -0.47029415 0.219307 -0.147389 0.0051553943
actual 1.0883934 -0.23984987 -0.6741675 -0.30518717 0.03516774 -0.018335067 -0.18142512 -0.10751856 0.0038245898 0.10766918 -0.8878966 0.07729145 0.49945816 -0.32545447 0.22570567 -0.9407847 -0.069847226 0.5171959 -0.2231755 0.30844128 -0.26995644 -0.016193114 0.042905036 0.1183985 -0.68967396 -0.08761999 -0.038522057 -0.7606153 -0.5126826 -0.13890967
hablando 1.0948217 0.22627932 -0.02220957 -0.46772602 0.18161377 0.066973165 -0.38098654 -0.23816739 -0.6716259 0.37135646 -0.35890642 -0.067265324 -0.43413016 0.12941594 0.33703262 -0.28897443 0.6388382 -0.8170874 -0.25023124 -0.36743078 -0.001919696 0.6950767 -0.31065166 0.28445062 -0.33265266 -0.012115721 0.6211874 -0.3972205 0.06211417 -0.7429036
poner 0.6465514 -0.32341546 -0.46610948 -0.15791062 0.34690782 0.15241343 0.06465325 0.29159296 -0.6635637 0.0040999614 -0.19863392 0.34502447 -0.1422892 -0.2323279 0.82538253 -0.5131116 0.77801657 0.36390293 -0.1709915 -0.017641217 -0.40604284 1.176104 -0.7751957 -0.68813276 -0.62217236 0.11052422 0.6055925 0.27880013 0.832887 -0.1857836
compuesto 1.3606917 -0.6334976 -0.46605062 -0.46993005 0.44285443 -0.106914505 -0.36371905 -0.17153868 -0.5268873 0.50715214 0.07856695 -0.16313526 -0.011052513 -0.7585568 0.24793048 -1.142014 0.017630788 0.25008348 -0.13706756 0.35812426 0.31070152 0.1523099 0.55106974 0.7383852 -0.68472826 -0.0860106 0.3081945 0.2594255 0.39348602 -0.71029246
tramite 1.3903127 -0.0056557227 -0.2923031 -0.7909442 0.3915185 -0.44028914 0.2386443 -0.2131187 -0.7981607 -0.8889285 -0.12022936 -0.8420879 0.29417962 -0.019996682 -0.23269254 -0.6303205 -0.04703563 -0.29891837 -0.49505404 -0.016018236 -0.15563035 -0.45742625 -0.5600754 0.43998328 -1.3681481 0.39437526 0.16366096 -1.0024822 -0.13977656 -0.031087264
podia 0.5922819 -0.35396335 -0.018334124 0.23756914 0.0038707987 -0.34048247 -0.40979007 0.18450604 -0.22006728 -0.11384015 -0.81574535 0.32286072 -0.5719448 0.78875136 0.062015083 -0.895368 -0.20583336 -0.338672 -0.27557656 -0.06980461 -0.5465238 0.91405606 -0.19366017 0.30325344 -0.6121983 0.37731016 -0.54452074 -0.60281795 0.48150954 -0.43124545
deben 0.55756617 0.5911078 -0.061426774 -0.21229716 0.8368143 -0.56883585 -0.46026573 -0.028614316 -0.47312644 0.8787858 -0.68281275 0.38585597 0.39216578 -0.705608 -0.23515421 -0.9711706 0.059832416 0.1083776 1.3068265 0.26705465 -0.43580303 0.8446637 0.12960358 0.2604501 -0.43316895 0.4721568 -0.15273286 -0.45378152 0.49979144 -0.08785634
lleva 0.804569 0.7505489 -1.2906636 0.031910144 0.064687595 -0.30909428 0.4231702 -0.27482036 -0.63824123 0.17318535 -0.5512576 -0.40158206 -0.19490822 0.4712956 0.344316 -0.53966796 0.5083785 0.79796946 -0.16189352 0.467164 -0.93573976 0.012192225 -0.13907942 -0.4256947 -0.48163286 0.6142138 -0.50668544 -0.12396359 0.42276776 -0.22241911
hogar 0.82866776 -0.60700846 -0.6616988 0.19621438 0.59774846 -0.038359918 0.054852743 -0.31442127 -0.0867633 -0.4420687 -0.77978975 0.4371405 0.22283612 0.46361598 0.5615882 -0.35961065 0.9221348 -0.5269154 -0.21272598 -0.16736972 -0.5868121 0.5817193 0.40003872 -0.37967554 -0.53045976 -0.39177415 -0.15232162 -1.2417827 -9.570189e-05 -0.027075088
perdio 0.98998207 -0.19548623 -0.5723312 0.15571363 -0.6548844 0.16463062 -0.43849233 -0.013330306 -0.61229825 0.49603745 -0.73122895 0.23329921 0.15115246 0.81484413 0.20598312 -0.24587464 0.79977214 0.30215654 -0.21297914 0.06412686 -0.40328735 0.29550493 -0.5322073 0.25817686 -0.71587974 0.2835273 0.26814258 -0.00951608 -0.3416367 -0.14378539
programa 1.0103737 -0.09684325 -0.704001 0.06835997 0.86948115 -1.1076398 -0.14418194 -0.4509277 -0.081154995 -0.49727046 -0.7122192 -0.95885706 -0.27421868 -0.5714591 -0.52208596 -0.63077617 0.46954644 -0.41018587 -0.64575654 -0.55442154 0.8267456 0.93047774 -1.080836 -0.4844903 0.100381285 -1.014541 -1.123317 0.35016823 0.60737795 -0.16746862
competidor 0.32003662 0.3938964 0.022303754 -0.014011405 1.0100392 -0.87089145 -0.8004385 0.06647869 -0.6114825 0.884858 -0.61700886 0.24735492 0.23369606 0.16097301 0.92034847 -0.13637151 0.414824 -0.032901768 0.21501489 0.0967252 -0.3574069 0.4400993 -0.61308366 -0.087939195 -1.2877489 -0.6784127 0.21004727 -0.8198221 0.4684202 0.5121133
total 0.7446396 -0.40988752 -0.6075145 -0.5503755 -0.05143546 -0.05824335 -0.8271409 0.16857953 -0.78004104 -0.029766746 -0.495991 0.10666251 0.43256176 0.47000104 -0.017537232 -0.52446336 0.12705238 -0.21923165 0.23138665 0.4259201 -0.10860062 0.87290907 -0.4876371 -0.5970692 -0.36240965 0.9927613 0.030410152 -0.009487673 -0.04272465 0.046593353
cancion 1.0069872 0.14902192 -0.30128157 -0.39468333 -0.011672795 0.61864704 -0.29698643 -0.28076622 -0.56526846 0.22710972 -0.36739558 -0.79941857 -0.07382325 0.42055959 0.029663747 -0.8259555 0.64128923 -0.12910594 0.0974039 1.0784214 -0.1499365 0.22689646 -0.4552561 -0.7010752 0.04843436 0.27510738 0.030705538 0.23910475 0.63686776 -0.06806084
compro 0.5911591 0.39947408 -0.13723773 -0.47074258 -0.15824701 0.31685063 -0.41131893 -0.38748935 -0.9001339 0.59056985 -0.53059477 -0.1321917 0.25390017 0.037267357 -0.4809017 -0.88653266 0.23579472 -0.6076406 -0.09102166 0.29898182 1.2190096 0.48176798 0.21070132 -0.35752255 -0.122450225 -0.570002 0.18659316 -0.2010035 0.7401301 -0.24338609
pasada 0.9139826 0.8973641 0.061706003 -0.1906895 0.033669498 0.98340225 -0.6019384 0.063561164 -1.0559895 -0.29508242 0.25595662 -0.14763151 -0.52801144 -0.011393729 0.20816611 -0.87172896 0.24034238 -0.10474077 -0.6901612 -0.70795333 0.7201978 0.124030225 0.0396346 0.21341553 -1.4675254 -0.07937271 1.1638279 -0.5214859 0.7508337 -0.82522005
enviaron 0.85720176 -0.42955875 -0.3349496 -1.0910466 -0.124362096 0.34864607 -0.29680714 -0.18187533 -0.598459 0.043124087 -0.8931295 0.027001945 -0.4525841 0.16602719 0.6612313 -0.27817616 -0.51202244 -1.3685321 -0.43935603 0.06449027 0.09581792 0.7290442 0.48823574 -0.049109604 -1.3996804 0.30755135 0.4239208 -0.03986189 0.3317401 -0.18691386
inicio 0.8844064 0.4577806 -0.791027 0.09572932 0.5302092 -0.06814694 -0.08457039 -0.74095476 -0.12998766 0.65627956 -0.6923628 0.17625365 0.44242895 0.18479075 -0.44154206 -0.56388795 -0.13913698 -0.03748598 -0.4133188 -1.2705388 0.47012416 0.8594547 0.38133115 -0.86891425 -0.546345 -0.17677382 -0.10482119 -0.14223237 -0.27453303 -0.1705625
trato 0.14584844 0.4252036 -0.4226122 0.5995381 0.39686757 0.4175474 -0.003961671 -0.6918828 -0.9559423 0.3741813 -0.34146285 -0.1515018 -0.30261612 -0.7275362 -0.22934948 -0.80703235 1.128125 -0.26950935 0.30923194 -0.13299282 0.39330992 0.6056436 -0.4084942 0.4006288 -0.58740807 -0.07169372 -0.11119689 0.22374022 0.434853 -0.61920434
activo 0.37803143 0.2487726 -0.40946984 -0.30973855 0.2990933 0.06146663 0.15591633 0.468678 -0.14957213 -0.18871175 -0.46225 -0.95057446 -0.624922 0.09558949 0.14517184 -0.80089504 0.41664386 -0.49891794 0.1971842 0.31736678 0.6669568 0.7631274 0.29005653 -0.15424468 -0.8073608 0.056106996 -0.660549 -0.72806466 -0.49257433 0.5070005
ultima 0.8476552 -0.18972297 -0.63122964 -1.09172 0.108440116 0.24923363 0.2131873 0.5302426 -0.85409784 1.2187959 -0.98919326 -0.10402374 -0.17952631 -0.20353067 0.097933546 -1.8316692 -0.13657145 0.51560086 -0.38964 0.43991065 -0.5461261 -0.1497747 -0.63327414 0.6998591 -0.17562687 1.1625342 0.284065 -0.07046684 -0.5511325 0.09588595
proyecto 1.1143576 0.37194523 -0.5673656 -0.084388465 0.82022053 -0.044352848 -0.36808655 0.05116098 0.38168967 0.5448453 -1.0669343 -1.0588193 0.028069725 -0.15238844 -0.5677357 -0.4221733 0.3733235 -0.15916172 -0.20901303 -0.5192039 0.0889087 0.22559734 0.20951201 0.5007593 -0.072478965 0.28013697 -0.37566495 -1.0959426 -0.4513874 -0.5022028
documentos 0.6983476 -0.18037112 -0.9871545 -0.5131008 0.30443475 0.9898112 -0.5431732 -0.3223374 -0.794189 -0.36845717 -0.20244637 -0.43510142 -0.072842784 -0.11481389 0.14330806 -0.21622147 -0.31795183 -0.7394214 -0.3685923 -0.2044615 -0.10405103 0.75811696 0.4095147 0.062360656 -1.0629659 -0.21108006 -0.5236473 -0.52991325 0.122540146 0.12182911
hagame 1.2974123 0.5830375 -0.22941141 -0.2767195 0.27206028 -0.35642058 -0.10560578 -0.31277978 -0.5227506 0.022424074 -0.07213689 -0.30529344 0.070784 0.8711541 0.64417255 0.21051966 0.367204 -0.2179559 0.15941498 0.2432878 0.01673656 0.34425485 0.028444268 -0.40713894 -0.9647008 0.36539698 0.030009218 -0.15148543 0.70435286 0.1750482
pandemia 0.2989326 -0.207283 -0.18789977 -0.15794207 0.099742144 0.2570066 -0.059104264 -0.3538152 -0.6924112 0.40482727 -0.3439146 0.6809891 -1.1826117 -0.077143215 -1.1175528 -1.404399 -0.0012101817 0.6073375 0.59947765 -0.45847762 0.19433695 -0.16807462 -0.32585952 -0.30386898 -1.5358634 0.38312945 -0.031595077 -0.00687272 1.3317533 -0.34080762
entidad 0.5231697 -0.006242632 -0.60443836 -0.5337348 -0.33672896 0.2686427 0.09455465 -0.1311852 0.27266803 -0.02319962 -0.4397283 0.056428447 -0.04467482 0.05215799 -0.5858957 -0.470172 0.7848508 0.3330926 0.40642217 0.57241154 0.364709 1.1941533 0.0074038883 -0.11616255 -0.66218936 -0.085799225 0.10697964 -0.38258493 -0.09552127 -0.9557793
minutos 1.1444534 0.49875325 -0.28039926 -0.14115474 0.31335667 0.30974025 -0.47365206 0.37518156 -0.13676928 0.59742975 -0.31694376 -0.60595906 -1.1242526 0.61136216 -0.11699703 -1.3044251 -0.053595413 0.50807375 0.025205174 -0.11161497 -1.0173322 -0.41998327 -0.5602426 -0.022575472 -0.9038556 0.20644586 -0.62128603 -0.30311647 -0.062523544 1.2907437
atender 1.4711365 -0.31272766 0.032430165 0.24118964 -0.6802223 0.16148606 0.16742137 0.035138797 -0.854993 0.29153767 -0.3199633 0.42493224 0.18748368 0.82101214 -0.164434 -0.5022535 0.14002028 -0.07538667 -0.29563457 -0.5161324 -0.33842528 0.7466997 -0.12923966 0.15006447 -0.7395517 0.0434225 0.33698544 -0.31782106 0.16137828 -0.48807883
exactamente 0.9814175 -1.1366131 -0.8876409 -0.44572422 0.2580315 0.28747618 -0.23039375 -0.6044956 -0.63944787 -0.18432471 -0.2590252 -0.22835246 -0.033590514 -0.25853956 0.2394909 -0.9208995 0.33243844 -0.33778444 -0.018324986 -0.19739525 -0.64251775 0.63446236 -0.19486442 0.10854704 -0.82444555 0.40873104 0.033255376 0.40424514 -0.4463912 0.7251202
listos 0.5694243 -0.70414996 -0.45000666 -0.45007393 0.22880435 -0.3109289 0.22789934 -0.40604573 0.17851514 0.038231824 -0.61499923 -0.18282282 0.35764813 -0.51396686 0.25240624 -0.726393 0.9030969 0.32369012 -0.0968033 0.58233356 0.1027502 0.40449053 -0.23608898 -0.8568099 -0.5281598 0.019148286 -0.5171786 -0.93684787 0.46101168 0.09076839
averiguar 1.3818284 0.4115056 -0.40232837 -0.34527814 0.4408659 0.19067228 -0.025852386 -0.27666655 -1.0595303 0.08479068 -0.3112376 0.08987155 -0.68263847 -0.16209975 0.759258 -0.35800716 0.12814502 0.037889834 0.21212451 -0.8503918 0.11688225 -0.30043328 0.38591337 -0.0934209 -0.9864159 0.086436525 -0.21855155 -0.4049009 0.08891447 -0.30597812
volver 0.17338046 -0.6418114 -0.5706347 0.05511809 0.49854103 0.9104663 -0.9258087 -0.23761068 -0.442174 -0.3615013 -0.37102234 0.12548424 -0.38956168 1.2827282 0.14033929 -0.31280932 0.48340032 0.36196083 -0.7698582 0.2786026 0.85653716 0.93652993 -0.15172029 -0.17748702 -1.1650901 0.42001286 0.6328211 -1.0159333 -0.68987244 0.17712477
hermana 0.5473708 0.01143478 -0.6134701 0.32833275 0.34724662 0.32949632 -0.21357569 -0.8281075 -0.56489587 -0.26074776 0.27249497 0.24009775 0.021687575 -0.39553875 0.1222493 -0.45317647 0.379661 0.0948779 0.12448433 -0.19506383 0.23425125 1.1669217 0.1851135 0.10049693 -1.7653179 -0.014197448 0.15722096 0.48443493 0.1795523 0.62691045
autor 1.1138679 -0.36691085 0.4641827 -0.4305004 0.30207694 -0.54049593 -0.23678723 0.3741819 -0.43812174 -0.05738165 -0.37674332 0.1374049 -0.55192274 0.63314414 -0.92238176 -0.68723667 0.25385717 -0.14883527 0.04204359 -0.102397256 0.024862073 0.35034862 -0.16711088 -0.19064048 -0.6773938 0.30820617 -0.7934237 -0.6720009 0.012222926 -0.035388656
derecho 0.43414414 1.4686714 -0.76747143 -1.280305 0.25704432 -1.0165623 -0.06958553 0.51938194 0.48450142 0.4993223 -0.6338154 -0.19684365 -0.40799338 -0.58852994 -0.20567511 -1.0562164 -0.20116304 -0.08502215 1.0075699 1.1112857 -0.030995104 0.11718602 0.37335175 -0.10072057 -1.4874499 0.38384417 -0.6974707 -0.6717168 0.25974718 0.21493371
agente 1.094308 0.26791415 -0.4134608 -0.63212204 0.76883566 0.3452585 -0.7727132 0.39292076 -0.53049344 0.25646448 -0.05377764 0.10772364 -0.48929632 0.9611058 -0.34262043 -0.53745264 -0.16664658 0.18002829 0.07492954 0.035968076 0.004556709 0.9716734 -0.06641221 -0.20138888 -0.41232535 -0.52015007 0.53286564 0.64921165 -0.60192263 0.14425208
llamars 1.0604111 0.3033187 -0.19502926 -0.07049092 -0.3295785 -0.016055264 -0.3811658 -0.087277696 -0.095038034 0.010559653 0.20042902 -0.39626864 -0.67749435 0.055241443 0.801431 -0.59157073 1.3079386 0.31042743 0.5354809 0.35451418 0.3911851 1.1252637 0.31890103 0.07163741 -0.2545479 -0.04231997 -0.13364628 -1.1523234 0.069147184 -0.06166637
quedan 1.0937474 0.15986896 -0.2969825 -0.122797325 0.8346505 0.21139501 -1.1925627 -0.052124772 -0.07199069 0.68398523 -0.4098528 -0.019410029 -0.3503689 0.16905825 -0.22977725 0.39668506 0.60237235 0.73703253 -0.09053953 0.8477051 0.20923035 0.49198088 -0.22211441 0.29377007 -0.49247575 0.42141044 -0.44669914 -0.690777 0.15172791 0.5399639
preguntica 0.715919 0.5747833 -1.0311276 -0.5302769 0.024046825 0.30389178 0.042512927 -0.2896864 -0.08220784 -0.20129888 -0.60376817 -0.390716 -0.6617532 -0.69763947 0.29685563 -1.0880578 1.0128559 0.48764893 -1.1708444 0.50846237 -0.4249325 -0.21288809 0.23211294 0.15327093 -0.709622 0.119218305 0.0077788266 -0.24708724 0.013340065 0.1305977
telefonos 1.0314138 0.5805867 -0.31687677 0.8322804 -0.29153335 0.05829084 0.08463302 0.3829453 -0.6351987 1.0074109 -0.6982481 0.48723337 -0.41979906 0.4910005 0.37609965 -0.56178766 1.1624621 0.25030124 -0.34553042 -0.06716952 0.5669624 1.172851 1.094635 1.5480224 -0.3643178 0.9584922 -0.2942809 -0.83340466 0.21647654 1.5307707
beneficiarios 2.316973 0.8080418 0.13425416 -0.647206 -0.7126314 -0.87790006 -0.4802033 0.04201313 -0.36109644 -0.04577974 -0.61776584 -0.6690834 -0.47820643 -0.030300673 0.37039545 -1.0243025 -0.048108857 -0.6604634 0.38873336 0.76470935 0.1666703 -0.703573 -0.31561276 0.30543464 -0.8616388 -0.5007017 0.46184826 -0.2229835 0.051080786 0.10165378
examenes 0.9812083 -0.3787431 -0.6051683 0.59792525 0.36687952 0.15690607 -0.12443586 0.11663717 -0.99475825 0.44102618 -0.45162413 -0.0656773 -0.06993657 1.4470634 -1.0611432 -0.2679553 0.017243601 -0.12091328 -0.5416497 0.6221017 0.3481854 1.1962943 0.33457837 -0.11841407 -0.21352896 0.70462525 -0.7021185 1.2638596 0.82356167 -0.045376275
entendi 0.92678124 -0.43410802 -0.648579 -0.2231205 0.6255982 0.4514639 -0.5644634 0.15303369 0.1604953 0.52551305 -1.0338995 -0.5800577 0.33814698 -0.39073527 0.2652944 -0.8837559 0.600799 -0.17465201 -0.0349644 -0.38114035 -0.27126133 0.04263376 -0.0697395 -0.4177241 0.33881438 -0.5003554 -0.70826954 -1.2403495 0.24362823 0.045468226
encuentro 0.011102187 0.25215015 -0.31520244 0.36404592 0.51988775 0.5454385 0.05149374 -0.12369494 -0.23843165 0.14537236 -0.9705118 -0.23931211 0.33629873 1.0410271 -0.48605937 -0.92720526 -0.07334125 -0.17527136 0.1032038 0.014638631 0.54434186 0.85134083 0.49865177 -0.24385437 -0.94000655 -0.6213797 -0.016594885 -0.26407853 -0.20282142 -0.3167703
normal 0.77686125 0.27814966 -0.56097454 -0.11221416 -0.65973693 0.26467302 -0.29457754 0.6750237 -0.6046497 1.0085204 -0.6733052 -0.27171558 0.4691729 0.72442657 0.04058638 -0.95504946 0.43532023 0.8226636 -0.024470555 0.8181364 -0.2938443 0.28047296 0.022785405 0.19537662 -0.28067636 -0.46184745 -0.02058593 -0.043165058 0.2498385 -0.4829669
tratando 0.7541009 -0.1709535 -0.6241303 0.73567706 0.30440283 -0.105341114 -0.36083925 -0.120133236 -0.70410913 0.11683207 0.19809432 -0.00840031 -0.7157036 0.9239041 0.5181468 -0.75196075 1.0468712 -0.46672156 0.39603966 -0.31033516 0.1701056 -0.08507814 -0.08346741 1.6906481 -1.2204946 -0.29549485 0.01843071 -0.17879242 0.6614494 0.1473657
pregunto 0.7715637 0.16839747 -0.7240037 -0.4404777 0.6199662 -0.8944626 -0.33651006 -0.5733315 -0.04629138 0.5776022 -0.1591296 -0.35075068 0.45224276 -0.06008069 -0.2594638 -0.61800367 1.0101684 0.46892554 -0.23653625 0.77564585 0.02279766 -0.07186417 -0.40915355 0.10669378 -0.42650288 -0.591249 -0.6776358 0.2238595 -0.26292798 0.15089986
color 0.7136422 0.2220603 -0.24395026 0.06758255 0.28457683 -0.02166477 -0.16865975 0.084606774 -0.26629204 0.7821732 -0.99734443 0.64402115 0.17534459 0.061858628 0.2051354 -0.3925308 0.16724753 0.2484858 -0.006725163 0.43524966 -0.22201052 0.8069945 0.29683226 -0.2867365 -0.44045967 -0.14979045 -0.6466387 -0.0283514 0.2922936 0.19503985
correr 1.4330223 -0.86420125 0.029013896 -0.5570633 -0.09349578 0.06557254 -0.26694912 -0.34816268 -1.0243509 -0.38793656 -0.2070747 -0.9282862 -0.6935861 -0.2720768 0.38050973 -0.6191822 0.34069085 0.11099107 0.075055584 0.4981798 -0.135655 1.1000994 -0.38362134 0.051092323 -0.6156325 0.3134063 -0.40834603 0.86307555 -0.07323604 0.7935631
contrato 1.1134288 0.5826752 -0.11284232 0.4060512 0.31853694 0.70862806 -0.42331892 -1.0734855 -0.53154826 0.6416354 -0.011469937 -0.5764848 -0.2220014 0.5534939 0.17930956 -0.43601963 1.1512245 0.97549534 -0.40435943 0.09161983 0.085783884 -0.048299555 -0.31409565 0.13052583 -0.6206046 -0.52611536 0.29428223 -0.31386632 0.13280983 -0.71986085
presente 1.2727228 -0.43198615 -1.0233785 0.023169015 0.9259793 0.023561748 -0.8745937 0.21036467 -0.18276334 0.20991221 -0.7341344 -1.1029782 -0.6066285 -0.3002719 0.21952112 0.18751347 -0.16016054 0.10693383 -0.10323542 0.039821945 -0.7591781 0.9123064 -0.62697834 -0.34331748 -0.27786422 -0.1553739 -0.58656114 0.51021177 0.771176 -0.16733412
hotmail 1.2760428 -1.7780391 0.19934313 -0.5001008 1.3679646 -0.19512077 -0.15652576 -0.45598337 -0.12329174 0.36684197 -1.3976927 -0.2176731 0.43823358 -0.4396659 -0.5548264 -1.9640834 0.45697874 0.65356106 -0.33503488 0.11024222 -0.3626608 -0.03397687 0.17863265 -0.32983804 -0.029909834 1.1133279 -0.5591308 0.32579264 -0.34631166 -0.004240392
llegan 0.4557778 -0.18246996 -0.90915895 -0.52867216 0.35952362 0.34738398 0.5284429 0.13902448 0.502252 1.0819027 0.14131975 -0.5326431 -0.29681113 0.6353805 0.22990496 -1.2702442 0.76319706 0.10730463 0.28124368 -0.16706084 0.06905088 0.7015825 -0.31326523 0.51759845 -0.7384531 0.26215193 -0.12839153 -0.007367034 -0.5782942 0.5909864
lunes 0.93710995 0.5044856 0.06523057 0.48972452 0.27503693 0.2531033 -0.2182149 -0.006580717 -0.44510752 0.5207073 -0.6478691 -0.5719306 -0.16066897 0.3819735 0.22230558 -0.2787496 0.9499434 0.18577419 -1.5837147 0.793879 0.063076004 0.21754551 -0.22735909 0.40753397 -0.4097328 -0.5539029 -0.34811583 0.086785406 1.2181205 -0.42000255
urgente 0.11514955 0.7657283 -1.1299827 -0.5836593 0.14055504 0.18400292 0.7048097 0.3003525 0.032573886 -0.06389999 -0.92520183 1.073338 0.25532472 0.2897072 0.074276604 -0.47410575 0.27583775 0.69663703 -0.36952248 -0.44530123 0.5391272 1.5103724 -0.12473721 0.11064581 -0.6648959 1.0289787 -0.7331691 -0.63825506 -0.04015763 0.12753284
virtual 0.6023271 0.05715196 -0.007086976 -0.7147167 -0.58626276 0.16553478 -1.1566597 0.053346064 -1.0769821 1.148077 -0.6896287 -0.3829504 0.8231217 -0.08943137 0.7469584 -0.09921784 0.36493823 -1.2497054 -0.100099795 0.23282568 -0.91419375 1.3602415 0.23999809 0.37075624 -0.9181775 -0.26672953 -0.52038753 0.17529047 1.2461721 0.6370742
importa 1.1969582 -0.20938371 -1.1184808 -0.12477209 0.4048039 0.3246434 -0.43875346 0.15634492 0.41211072 0.8112281 0.18275876 -0.09305858 0.2199832 -0.28093776 0.101185784 -0.12391588 0.51241744 0.6156775 -0.30823454 0.1355866 0.6637857 1.3181448 0.40457034 0.38284144 -0.33258647 -0.08941294 -0.33014345 0.22008757 0.081845924 0.075642355
plataforma 1.1044928 0.77176774 0.37657714 0.45536664 -0.3601164 0.6921071 0.1068449 -0.6410373 -0.3391897 0.73889357 -0.70940375 0.3255717 -0.4533939 0.45043936 0.2881199 -1.4584663 0.060448334 -0.87575185 1.4620143 0.5192056 0.51992327 0.26895875 -0.32509798 0.54504216 -0.742196 0.07286544 0.26894695 -0.49102086 0.73698395 0.22780502
estudio 0.20789555 0.6775246 -0.9940272 -0.05095085 0.89733624 -0.64675635 -0.6863172 -0.90799403 -0.5231619 -0.50701636 -0.5936551 0.08741199 0.027211083 0.8360009 -0.60373974 -0.56992877 0.556229 -1.0630403 0.17945416 0.06387425 0.45120734 0.43377846 -0.22452211 -0.54768866 -0.16056846 -0.6899424 -0.17666158 -0.4679761 0.74592525 -1.1625124
formulario 1.9933558 -0.38205242 -0.07214902 -1.3177681 0.706179 -0.44319335 -0.050070263 -0.45169407 -0.40515408 -0.53604394 -0.00027177716 -0.3878573 -0.5510708 0.32169947 0.57384914 -1.1462754 -0.15278932 -0.9293226 -0.28098258 0.061751623 -0.0070202574 -0.72570986 -0.83102465 0.30166927 -0.9980917 -0.10654857 0.038640406 -0.3904849 0.027365744 0.529941
poquito 0.15655455 0.022589568 0.33806682 -0.2870786 -0.12188467 -0.78681946 -0.6040363 -0.3607231 0.41204566 1.0742747 -1.2809829 0.3961201 -0.6483367 0.89555323 -0.33263353 -1.0532409 0.5302271 0.3618335 -0.642509 0.34497184 0.14882845 0.92402834 0.49499026 0.39673513 -1.103191 0.29643732 0.60260046 -0.5508833 -0.38679308 -0.015280676
titular 1.6971321 1.3117739 -0.6950485 -0.18489966 0.36458915 -1.7847347 -1.1028053 -0.6898916 0.51547503 -0.20719655 0.0005011959 -0.5047393 0.6406892 0.5233378 0.6344914 -2.1037743 -0.083456986 -0.12589392 0.4577619 0.20463079 0.9972878 -0.24134086 0.5767421 0.53761375 -1.7262807 -0.60864085 1.1634767 -0.17630094 -0.4604378 0.6201913
realizar 1.1382713 0.11786702 -0.1935629 0.10390946 0.2970954 -0.2201234 0.031356182 -0.24786411 -0.22347854 0.3440174 -0.06600497 -0.07740569 -0.103104696 -0.33500457 -0.90716946 -0.092748955 1.0606693 0.5318806 0.5770845 -0.26322648 0.2798791 0.61559117 -0.5466773 -0.23244908 -0.8435982 0.74897385 0.3537694 -0.6876731 -0.023025012 -0.12358372
vacunas 1.3821393 0.5693133 1.0159614 -0.011105888 1.0297501 0.16400175 0.5260656 -0.20232591 -0.1279936 -0.00272516 -0.4612335 -0.31201476 -0.96305656 -0.38664758 1.673997 -1.1593968 0.78221434 -0.6227613 -0.2206335 0.19659995 -0.21516605 1.1590579 -0.75116134 0.4604816 -0.8127277 -1.0931131 0.7908927 0.18421754 0.59988296 -0.5256195
agua 1.1148194 -0.45601758 -0.69090116 0.027041512 0.031003136 -0.35668367 -0.18554647 0.049451746 -0.5157106 -0.07241299 -1.0002829 -0.22813074 -0.03881766 0.25099578 0.53034496 -0.17634588 1.1360958 0.20154169 0.12279695 0.040733255 0.11216913 -0.15217859 -0.20389749 0.111889206 -0.2374214 -0.06637007 -0.4719799 -0.06263145 -0.006065552 -0.4247165
sede 0.5986127 -0.5195254 -0.21810113 0.059691392 0.35760757 0.27916622 -0.26874772 0.15029489 -0.19945678 0.45064136 -0.9948359 -0.16597456 -0.04466884 -0.24242726 -0.49610677 -0.83799773 1.1038698 0.40065056 -0.6505381 0.13679639 0.5909293 0.7373228 -0.21210389 0.58963233 -0.22485067 -0.09321291 -0.2079024 0.5913468 -0.72804564 -0.3268805
familiar 1.3765583 0.047836825 -1.7232021 -0.33778766 1.2403457 -0.6464692 -0.92609274 -0.07592607 -1.4335667 0.28253806 0.31896126 0.26085773 -1.0246702 0.12588467 0.35238647 -0.13166182 -0.2528888 -0.10580187 -0.33788753 0.38972893 -0.7355149 0.281342 -0.7509879 -0.055257693 -0.40452075 -0.56917346 0.6720952 -0.071114615 0.06011626 -0.049104936
certificado 0.3280721 -0.31245744 -0.5224873 -0.52499574 -0.14500956 0.029662203 -0.18010445 -0.3360392 0.471248 0.5098342 -0.8964432 1.3718604 0.45232448 0.13123016 -0.06764978 -0.61007714 0.6486611 -1.6003077 1.0044256 0.05804551 -0.063063785 0.9239846 -0.7811209 0.52607 -0.99364346 0.033688374 -0.019688722 -1.2579694 0.30418858 -0.5188376
comprar 0.010949496 0.2568748 -0.20593408 -0.79107064 -0.0048597497 0.24564688 -0.51374036 0.30954367 0.09886303 0.10878812 -0.47446933 -0.092324995 0.8836076 -0.5879238 0.028296178 -1.1234841 1.2685627 -0.087126374 0.36461252 0.2724018 0.24134652 0.5056566 0.63814354 0.2459916 -1.0809608 0.26811513 -0.22505158 0.12313693 0.36089894 0.4093828
central 1.5927517 0.389575 -1.5815865 -0.49853063 -0.37370828 0.42757848 -0.32684442 -0.40504456 0.15569398 -0.25893396 0.24255854 0.4680094 0.19551814 -0.26253897 0.41970554 -0.89794606 0.66720724 -0.0986359 1.775423 0.055464827 0.15244837 0.21299978 -0.9840156 0.07900421 -0.64517516 0.31607163 0.37274063 0.34977293 0.16584967 -0.3110683
amables 0.46067306 0.24405357 -0.29099524 -0.5759903 0.0929559 -0.8678185 -0.36776817 -0.5681766 -0.25237978 0.37467563 -0.7920238 0.4052543 -0.18976654 -0.12356193 -0.10950738 -0.10728114 0.95034134 0.4133868 0.42576286 0.97981966 0.8119633 0.37698016 -0.4943957 -0.03518374 -0.503396 -0.04073244 -0.6130345 -0.52795136 0.3247924 -0.87422913
realidad 0.7718993 -0.4355125 -0.2977215 0.08028433 0.31549844 -1.0080407 -0.2879127 0.07632834 -0.18695669 0.4769267 -0.48757604 0.190912 0.008137081 -0.12532519 0.23826864 -0.66798365 0.5716549 -0.6428136 0.71609443 0.20051657 0.37875965 0.43193555 0.42310065 -0.54275817 -0.65614855 -0.0047392817 -0.11078227 -0.4249909 0.5147555 -0.2401682
entro 0.51833797 1.1188174 -0.5876255 -0.24887685 -0.6469203 0.6296189 -0.18449035 0.48079628 -0.547016 -0.11256683 -0.61285627 -0.19879684 0.87231004 -0.07414102 -0.42430484 -0.66148 0.4535772 -0.3375113 0.4779584 0.33352253 0.27655485 0.21685866 -0.71221167 -0.6318925 -0.9216448 -0.50903887 0.10234893 -0.653812 0.2569232 -0.21494897
encuentra 0.5576655 0.15558425 -0.90912014 -0.6241582 1.3443027 -0.24212597 0.1711048 0.15099311 0.21474557 0.3296156 -0.2117635 -0.7048718 -0.34210142 0.66004944 -0.11219087 -0.50600004 0.74977434 -0.081474826 0.3579599 -0.09046814 0.26811138 0.6191101 -0.069982424 -0.29870808 -0.20202777 -0.17892858 -0.50030357 0.26305318 -0.09262445 0.08307735
policia 0.84714 -1.2325447 -0.1391623 -0.45981953 -0.28754988 0.42880666 -0.7834361 -0.4038301 -0.9972402 0.2661254 -1.6072458 -0.6219008 0.11057358 0.19588742 0.2402525 -0.90450203 -0.1806596 0.43402472 -0.33914766 0.57630813 -0.5839784 0.76140934 -0.6727094 0.509073 -0.18489441 0.5611751 0.9655837 -0.2544772 0.73439825 -0.6845259
efecto 0.6977825 0.08930997 0.11605521 0.19044608 -0.5724224 0.26943725 -0.07712365 -0.48226714 -0.69632965 0.3507979 -0.3723146 -0.01613255 -0.08984629 -0.15318362 -0.08393613 -0.68934643 0.5446034 0.4006582 -0.3011029 -0.20262283 0.5744847 0.07002638 -0.49441633 -0.19035484 -1.0014968 -0.16537131 -0.83145654 -1.2773826 0.22201128 -0.29376268
aparecen 1.2968676 0.35723624 -0.61316216 0.2079899 -0.26770106 0.2487395 -0.25180975 -1.071904 0.71355385 0.66530067 -0.40379 0.3649278 -0.15643843 0.9509733 0.0790075 -1.2439195 0.2455729 -0.17106922 1.1286596 0.59858745 0.7798208 0.129184 0.33219424 0.5075079 -0.49031407 0.7974749 -0.39179447 -0.22066867 0.10708639 0.3212024
maneras 0.5304718 -0.16977803 -0.08718313 0.161992 0.065439075 0.66353035 -0.31240442 -0.07593079 -0.71415627 0.6859314 -0.7109846 0.06471714 -0.4280567 -0.14169353 0.48900586 -0.14671138 -0.061649367 0.1854369 0.49579182 0.28616115 -0.1332204 0.81183046 -0.16966723 0.5271166 -1.5840719 -0.7001769 -0.21562834 -0.4418372 -0.030122913 0.53457445
hijos -0.16000469 -0.26469752 -0.10584909 -1.0208628 0.257163 0.6731348 -0.5776428 0.052511528 -0.7095751 -0.37872848 -0.2835691 -0.25859305 -0.423331 -0.2438797 0.19843431 -1.0286714 0.5170379 0.5949836 0.66044694 -0.44322833 0.71059424 0.61845803 0.016998868 0.5304922 -1.4287885 -0.08958631 -0.6993656 -0.25734356 -0.41494355 -0.14482054
llegado 1.9092933 -0.2793743 0.26796284 0.19230214 -0.24887225 0.2006467 0.22947279 1.0646746 0.18324353 0.023777641 -1.0687195 -0.5641441 0.24644971 -0.24128196 0.054246478 -0.45557284 0.42926958 -1.03786 0.07645776 0.03394914 0.30070385 0.045790967 0.049726814 0.6716379 -0.8177226 0.8179347 -0.7883442 -0.769558 0.03677095 0.020036858
trabajando 0.7335618 0.1494843 -0.061068222 0.064216 -0.69570094 0.28385785 -0.4965889 0.11924024 -1.1965063 0.90191 -0.53163964 0.25677088 -0.7681499 0.22787486 0.07873622 -0.8274028 -0.313973 0.34730393 0.17339076 0.8598498 -0.23369057 -0.14680755 0.41076604 -0.2999853 -1.7585535 -0.6299053 -0.17463881 0.19176403 0.065094195 0.17036584
comunico 0.57810014 -0.27852663 -0.6491532 -0.62879807 0.064967595 0.48222694 -0.31682035 -0.061546337 -1.1402966 0.15601772 0.034850612 0.1157463 -0.16633831 -0.39771295 -0.69582576 -0.3183325 -0.15709184 0.20611343 -0.99805844 0.25926557 -0.5559699 0.6660135 -0.43055776 0.15477304 -1.1076057 -0.38340557 -0.5146479 0.044667356 0.2500091 0.18584429
atendiendo 1.0168316 -1.0458018 -0.072984174 -0.028875701 -0.0243762 0.6168741 0.27825618 -0.74385095 -0.72848576 -0.44225228 -0.3352799 -0.16294542 0.73109484 -0.27571443 -0.30826223 -0.9864894 0.12595175 -0.2465786 -1.2357203 0.47979462 0.4779303 0.39859065 -0.2905195 0.32835245 -0.8063494 1.0910612 -0.9951676 -0.6856309 0.81583613 0.5096141
nombres 0.3094457 -0.15765163 -0.6075781 -0.74770916 0.5377178 -0.17812566 0.21826193 -0.4821176 -0.6891504 0.26413953 -0.4821899 0.18452528 0.13695227 0.16812156 -0.95867926 -1.416583 0.7921114 -0.32728297 0.6069481 -0.070976496 -0.116098836 -0.080320485 0.41327262 -1.122778 -0.37033957 0.14324431 -0.435257 0.05777513 0.17156194 -0.42191055
equipo 0.5219647 -0.065375775 -0.52124876 0.76000476 0.63325745 -0.06912831 -0.48733097 0.65743923 -0.123716585 -0.21668974 0.035409868 0.62549675 0.16401191 -0.3978875 0.09965539 -0.6972212 0.98366857 -0.36081418 0.2431842 -0.19029494 0.5458806 0.75009954 0.21653485 -0.4376888 -0.7259352 -0.5480722 -0.9173247 -0.14159763 0.7387339 -0.41223964
actualmente 0.9810856 0.5965805 -1.0958166 -0.22559267 0.46722567 -0.24386367 0.023023661 -0.77598125 -0.2721587 0.31404853 -0.12206521 -0.425207 -0.26152027 0.23330632 -0.067637704 -0.057532053 0.2717767 -0.5732164 -0.23033437 -0.071825266 -0.068936534 0.22283743 0.20015088 1.041799 -1.0346503 -0.05762087 -0.41395018 0.1501883 -0.1642564 -0.097528584
debil 0.98218036 -0.31551832 -0.19223261 0.51811 0.91476107 0.23354271 -0.1627571 -0.963794 -0.24829042 0.37504143 -0.8920971 -1.2311467 0.46450856 0.47638 0.15517277 -0.66146463 1.0305133 0.17715655 -0.49702582 0.033779882 -0.42473942 0.39083552 0.0035973699 -0.34134856 0.019196708 0.67694616 0.5851875 -0.5912859 0.46234986 0.12411234
abajo 0.6666586 0.20159602 -0.10535852 -0.11302725 -0.03407157 -0.07414954 -0.061907925 -0.56304985 0.27602074 0.5615758 -0.20967993 -0.007968619 -0.6729948 -0.05141852 0.09271074 -0.88150126 0.007579091 -0.0145291425 -0.06547329 0.52304995 0.8349572 0.39840248 0.1600061 -0.67585236 -1.4350579 -0.18127699 0.5136687 -0.32927373 0.85686934 -0.44629732
clinicas -0.13530836 0.14698696 -1.9358436 -0.40890908 -0.17450632 0.051587988 0.37192482 0.049436413 -0.6378306 -0.42017657 -0.41555002 0.36549556 0.16024889 0.06461496 -0.6792186 0.006812399 1.3214018 0.65607643 -0.057598185 -0.2081028 0.066896774 1.350239 -1.2151076 -0.2740416 -0.7918412 0.2790039 -0.15992929 -0.5924237 -0.11564831 -0.042999245
hacerlo 0.32290968 -0.4959437 -0.1888214 0.15065213 0.69314945 -0.9395774 -0.4412618 -0.008901778 -1.0688125 0.4814227 -0.67886144 0.7435761 -0.5445571 0.67238855 -0.30512637 -0.34776664 0.60692304 0.1363988 -0.27989814 0.22305745 -0.06440672 0.5497379 -0.57951105 0.024824657 -0.4619635 -0.09369979 -0.26086378 -1.1011217 -0.1441508 0.35121047
citas 0.5846824 0.73594123 -0.7721894 -0.47383788 0.77119094 0.7229005 0.23771401 0.23585661 -0.33959264 -0.30159292 -0.83361703 0.09059599 -0.26965874 0.8932431 -0.20056024 -1.108375 -0.07635197 0.68408966 -0.66882455 -0.57991934 -1.0938809 0.47786364 0.23583028 0.7296841 -0.5077184 -0.33099642 -0.032186706 -0.30280966 -0.3896439 -0.00067606824
prueba 0.24897544 0.68964607 -0.39180613 -0.92729664 0.07499764 -0.21204035 -0.0718079 0.21567732 -1.3491484 0.23747163 0.6614507 -1.5318234 0.8200623 -0.2318839 0.3830218 -0.63079 0.8437386 0.8542622 -0.21955949 0.5257786 0.9588556 1.167978 1.7135326 0.3358085 -1.1762679 -0.79611015 -0.22249377 -0.68778914 1.3891839 -1.0235124
covid 0.8596823 0.7437804 0.26374015 -0.49498692 0.16760872 0.7519442 -0.016945107 -0.15408437 -1.5221636 0.039605267 -0.010297957 -0.9020167 -0.36322817 0.9051707 -0.050181024 -0.6709453 1.206399 0.65141004 -0.4688228 0.5609517 0.34460017 0.26296052 0.4234606 0.4260304 -0.4832902 -0.9580046 -0.025156595 0.49645203 0.0066080894 -0.58525455
perdida 0.51325065 -1.1588212 -0.71765786 -1.0746311 0.23098077 -0.30649325 -0.19974786 -0.7319538 -0.6600156 0.5509029 -0.46436068 0.7151634 0.96927786 0.55280465 -0.07152808 -1.0141875 -0.043192595 0.17292486 -0.5025259 0.5577477 -0.057473544 0.73178095 0.026554205 -0.39120334 -0.30050346 0.092502534 -0.14639752 -0.4014161 -0.054597583 0.1905873
edicion 1.2381513 -0.20937134 -0.7505107 0.2129614 0.49030125 0.75779474 -0.97911364 -0.5302172 0.30807 0.8660242 0.10876898 -0.5601842 0.6300916 0.5049325 -0.099622175 -0.7640259 -0.11557163 0.04809633 -0.57440686 0.33035287 0.27580988 1.0411514 -0.073959365 0.54422385 0.19760908 -0.8531777 -0.8282297 -0.3516304 -0.26991025 -0.48555532
validar 1.079059 0.58770895 -1.2283993 -0.5291191 -0.12584922 -0.31735334 0.29055634 0.44766062 -0.54024124 -0.014354026 -0.7200048 -0.77363163 0.59781617 0.45389825 -0.36903334 0.16746666 0.11017265 -0.3863815 0.79066503 1.1987882 -0.6412686 0.59243673 -0.2695603 -1.0337373 -0.81769747 -0.10380195 -0.62119585 -0.7070148 0.46418902 0.178414
loco 1.3050529 -0.714172 -0.5884484 -0.1228189 0.8269767 0.3453967 -1.1746145 -0.2601129 -0.06718133 -0.07777558 -0.34633046 0.2832876 -0.055561163 0.106136076 -0.5665975 -0.8299617 -0.31241736 0.12270126 0.08715054 -0.17713255 -0.2292095 0.540523 -0.095937595 -0.3083664 -0.30939186 0.7133978 -0.15832335 0.15615956 0.12640248 -0.42323786
quede 0.8730353 -0.089741535 0.012095351 0.36448345 0.5048045 -0.093884245 -0.09840929 0.11537182 -0.8415129 -0.040520575 -0.09011795 0.17513561 -0.8469177 0.12898114 0.4539759 -1.258603 0.007665201 -0.12122167 0.023434184 0.4086801 -0.6410332 0.5091107 -0.7196052 -0.6487852 -0.62476194 0.60713 -0.417464 -0.865936 0.17286938 0.950321
comunique 1.5812356 -0.20679396 0.15607652 0.81652826 -0.0075708795 -0.14356162 0.41051275 -0.49112794 -0.30106252 0.2201517 0.65484565 0.111699305 0.17336163 0.03686556 -0.058555417 -1.5057985 0.26971328 -0.16205299 -0.6637825 0.360904 0.14253497 0.45324838 -0.7949015 0.2807523 -0.76734525 0.27219886 0.03998732 -0.7679478 0.40578818 0.40107343
credito 0.9054738 0.41763654 -0.7883642 -0.68480307 0.06454843 -0.27224252 -0.77135944 -0.27477965 0.20426016 0.9554399 -0.64196074 0.6820251 0.50674605 0.41381893 -0.09551572 -0.39177018 0.71150625 0.020425405 -0.09113485 -0.4018881 -0.076167226 0.7383536 -0.4799568 -0.40472758 0.27882558 0.56449336 -0.7263504 -0.62853825 -0.26126742 -0.37715438
traje 0.8105363 0.12264644 -0.37357634 -0.1799141 0.70513755 -0.6138897 0.12512238 -0.26146767 -0.24496935 0.50881374 -0.56681836 0.4196453 -0.30613014 0.67813784 -0.6694715 -0.3927356 -0.018024497 -0.112938754 -0.38635764 0.09476438 0.11802633 0.80749094 0.3678743 0.4363447 -0.6607318 -0.2570519 -0.19544935 0.12563166 -0.07530189 0.43251452
especie 1.0189968 1.1387608 -0.3022839 -0.20949551 0.1556832 -0.79462343 -0.4479043 -0.6593377 0.09521588 -0.4007134 -0.629515 -0.251095 0.45425987 -0.24320142 -0.5267229 -0.20051824 1.2197464 -1.1347656 -0.42209506 -0.0142677855 0.2571309 -0.14326084 -0.51698077 0.19604038 -1.0116576 -0.028595107 -0.13180454 -0.48853266 -0.45930323 -0.52589667
acabo 1.5071349 0.18156461 -0.103461176 -1.055857 -0.24717474 0.18469352 -0.30260956 1.2240717 -0.28597683 0.92619205 -1.0146501 -0.58387125 -0.529196 0.13479564 1.3110092 -0.27806532 0.9891397 0.2999433 -0.5804331 0.3959629 -0.32113495 0.18930368 0.6960061 0.98627025 -0.58419126 -0.23362361 -0.15642029 0.21790999 0.41919872 -0.14092453
contesto 0.018002322 0.11412647 0.5305162 -0.50825214 0.40180004 -0.5475098 -0.26170927 0.27044335 -0.3775002 -0.15515171 0.17289597 -0.5035647 -1.0447963 -0.021322867 0.16849965 -1.5660361 0.5260963 -0.5813131 -1.6089057 -0.61204475 0.040824957 1.021356 0.20274723 0.6409176 -1.6986434 -0.042672884 -0.09966087 -0.59349376 0.77232504 0.541867
sitio 0.9920215 -0.6726901 -0.74847174 -0.89547914 0.99057364 0.08896499 -0.5486481 0.4350545 -0.50864005 0.4882047 -0.25113723 -0.47955105 0.24449646 -0.73225725 -0.4359017 -0.0093568135 1.0411192 0.9869176 0.32464063 -0.5514271 0.6296303 0.41196552 0.6691584 0.10626273 -0.6612432 -0.10362116 -0.076955676 -0.6866737 -0.43964326 0.4411903
viendo -0.05565554 0.060001202 -0.89825374 -0.30082566 -0.3390698 0.20868903 0.104665115 -0.10904525 -0.6384443 0.049748387 -0.73588616 -0.43212217 0.91615313 0.0074584987 0.052411195 -1.3398998 0.22732352 -0.102273665 0.2325717 0.44204113 0.48213947 0.27379745 -0.060714584 0.10108782 -1.218354 0.6123866 -0.28617334 1.0152357 0.6991332 -0.4758986
crimen 0.5021973 0.74125963 -1.0899535 0.06435568 0.23509926 -0.35477802 0.6527839 0.40531525 -0.9573655 0.58952427 -1.0188485 0.24484643 0.12746882 0.3324339 -0.4100138 0.028526936 0.22396566 0.04872986 -0.18851896 0.4391686 0.86715937 0.6965294 -0.2847874 0.14446789 -0.4478189 0.62527376 0.1837257 -0.47809216 0.26125056 -0.41449314
compania 0.93356496 0.50909317 -0.91592795 1.1341652 0.37008753 -0.071390614 -0.39367786 -0.23802641 -0.22507986 0.4096032 0.1496428 1.0003111 0.17704943 -0.17266397 -0.6830898 -0.591845 0.5083402 -0.058544334 0.3244565 0.24977005 0.62911254 0.488654 -0.24241358 -0.23892497 -0.9233411 0.036171116 -0.55620646 0.029485775 -0.42636228 -0.024936192
clientes 0.704339 0.100830406 -1.0030777 -0.10055427 0.3296924 0.08421773 0.3311895 -0.11960472 -0.19946927 0.7813505 -0.98151135 0.35138142 0.04411285 0.45074338 -0.2532965 -0.4080505 0.43342224 0.4480916 -0.51229376 -0.006818194 0.020786475 -0.08834175 -0.6398555 -0.39543894 -0.73285896 -0.4864563 0.111215465 0.14752096 0.09955864 0.1430549
debido 0.13729803 0.27946788 0.1669988 -0.11898182 -0.083441995 0.032895423 -0.5902114 -1.112786 -0.50507647 0.45181897 0.3453795 -0.30376798 0.20051992 0.3184794 -0.15460235 -1.6015537 0.749222 0.41574427 0.77461463 0.031504408 0.13502534 -0.28404778 0.27572447 -0.12771694 -1.5017146 0.22179712 -0.06577105 -0.6825633 0.43438277 -0.42343232
haria 1.2033616 -0.3107346 -0.21357858 -1.1455451 0.71401215 -1.2296797 -0.08088354 0.07933846 -1.0115716 -0.36100677 -0.19482766 -0.52924526 0.18871193 0.7182512 0.029062552 -0.29952377 -0.21639344 0.65967846 -0.7005668 -0.26852345 0.123719044 0.40726325 -0.32805046 -0.50153166 -0.79568654 -0.49094543 -0.14995176 -0.74571896 -0.4694724 0.070430815
dosis 1.3052516 0.87861127 -0.05818901 -0.18706414 1.9325004 -0.16587406 -0.46106648 0.37610003 0.26665655 0.413795 -0.77350205 0.1815645 -1.1844958 -0.27250022 1.7996758 -0.9823474 0.97881424 -0.4408215 -0.8717988 0.2157593 -0.5285083 0.32420948 -0.17914133 0.7789783 -0.6452935 0.06571369 0.8978829 0.7882985 0.74389166 -1.33706
actualizar_datos 1.6591586 -0.3866232 0.115419336 1.2208703 0.9352031 -0.07173444 -0.016232984 -0.5077409 -0.6689931 -0.42572498 -0.6247148 0.0047734343 -0.34820977 -0.36119875 0.73597664 -0.50390023 0.75093293 -0.27584815 -0.33542904 0.5387703 0.16927682 -0.1267076 -0.9990098 0.9837925 -1.125044 -1.0113465 0.60332936 -0.34454614 0.47128433 0.23594956
puedan 0.9277825 0.32815415 -0.6023175 -0.068209305 0.10237944 -0.061507978 0.047242325 0.3207121 -0.0340553 -0.10938406 -0.91037464 -0.118251465 -0.5379159 1.3852311 0.01712253 0.37088972 0.77881354 0.73845834 0.0023968508 0.24835023 0.09293918 0.1710874 0.048665762 0.8861724 -0.9932208 0.6308165 -0.24068591 -0.53249025 0.10721783 -0.46159843
solicito 1.4852048 -0.36989674 -1.1999255 -0.83073896 1.1050729 0.51479226 0.22853194 -0.7215938 -0.2614859 0.059327316 -0.7801552 0.45756975 -0.68546826 -0.7415246 -1.0473101 -1.0852015 -0.132114 -0.23952411 -0.0076695997 -0.8619483 -0.28511053 0.28595608 0.3649032 0.5000728 0.30309427 -0.1365122 -0.81176436 -0.9456868 -0.5850576 0.3930016
intencion 0.9383421 -0.0022276202 -0.12410695 -0.23115404 0.3304091 -0.1911466 -0.113680005 0.22689942 -0.2946554 0.39149106 -1.3858305 -0.13046566 -0.4499208 -0.4633657 0.8066787 -0.13784637 0.03301704 0.2555792 -0.3351561 0.06306372 0.35184732 2.0105476 -0.00044875144 -0.78882986 0.0027210019 -0.82244235 -0.4547707 -0.12768713 -0.041013844 0.46820784
pensionada 0.7238134 0.17092483 -0.44404662 -0.34364983 0.5857577 -0.3572652 -0.6495978 -0.2516719 -1.1273791 0.055517484 -0.27396396 -0.5712099 -0.3070434 0.1257396 0.966865 -0.5404261 0.50209534 0.48480687 0.16935118 0.57298946 0.35626155 -0.23119335 -1.2427305 -0.28051615 -0.86837846 -0.6345677 0.3588891 -1.0250169 0.42586452 1.0433577
venga 0.056073163 0.403963 -0.012890916 -0.033864062 0.9095419 -0.36082977 -1.4756405 -0.14310631 0.9776127 -0.041945115 -0.87470126 -0.45975733 -0.49207017 0.32781196 1.1726525 -1.3363832 -0.029097509 0.7491711 -0.6431374 0.6266218 0.22706334 1.1587172 0.7829248 -0.18854947 -0.95853233 0.014727728 -0.6308742 -0.83439314 -0.18028857 -0.5349818
obviamente 0.048740402 0.36163217 -1.241148 0.28566998 -0.13823876 0.30080095 -0.73953635 0.45103118 0.00018198829 0.38804018 -1.1521655 0.29121655 -0.90357685 -0.3043794 0.023950322 -0.5368685 0.65268964 -0.26769525 -0.089472875 0.17987554 -0.1233123 0.6036636 -0.71841455 0.091963105 -1.02031 0.32990846 0.5839947 -0.19354844 0.41586185 0.78216034
actualizar 1.9847687 0.32647464 0.30134395 0.72866327 0.17327818 0.46092513 -0.12850259 -0.027701393 0.026188837 0.13779609 -1.4771943 -0.09720188 0.60903245 -0.5707711 0.49643746 -0.82780284 -0.049793582 0.675957 1.009255 0.092001215 -0.08194769 0.35499215 0.18622519 0.6619854 -0.9588951 0.31669372 0.8548746 -0.7776869 0.1123417 0.63427615
recuerda 0.429107 0.15824835 -1.1448547 -0.5054857 0.666171 -0.02497115 0.35426757 0.4960951 -0.6506129 -0.072852746 -1.333998 0.23237292 0.28980848 0.25771365 -0.5651414 0.46834296 0.9176397 -0.52945447 0.53758425 0.23802419 0.0017861926 0.9640749 -0.31290922 -1.1176984 -0.84498304 0.6943404 -0.19192074 -0.52475125 -0.25765443 -0.060873475
contar 1.1518935 -0.14051709 -0.92309844 -0.1585651 0.42919987 1.2231567 0.09544662 0.20092653 -0.774238 0.44617137 -0.62792796 -0.018689888 -0.24125874 0.42316005 1.2958139 -0.41232553 0.3395627 0.016808935 0.20758998 0.071253195 0.20700045 0.6016057 -0.37323233 -0.7318064 0.25955498 -0.16947393 -1.0942873 -0.021068834 -0.497013 -0.113526545
beneficio 1.6290773 0.23383634 -0.71700144 -0.4193631 0.64829606 -1.6238433 -0.7151256 -0.38740692 -0.14792462 -0.4625423 -0.4490578 0.38979372 0.10831071 0.096373685 0.54683715 -0.4466083 0.24425909 -0.49009922 0.31190503 0.90148026 0.21718377 -0.91368884 -1.009457 0.13066497 -1.3970444 -0.7193572 0.06579306 -0.41578245 -0.055654954 -0.4052936
dificil 0.50188845 -0.2994514 -0.5341918 0.21991475 -0.29669175 -0.90812266 -0.14864713 -0.43705073 -0.08642858 0.75707656 -0.576346 -0.0006209038 0.12590194 -0.017708322 -0.07119467 -0.7532445 1.1850536 0.034168612 0.5201764 0.08457321 0.790572 0.91061527 0.05700651 0.34595475 -0.35577652 0.24859025 -0.17370841 0.68722624 0.7295381 -0.21351771
colocar 0.6452588 0.054657985 0.047717754 -0.4043987 1.176057 0.12850106 -0.11568375 -0.2555303 0.02966052 -0.12549214 -0.35715505 1.2286118 0.108554535 0.47848764 0.1869627 -0.86401683 1.180702 -0.19859208 -0.8542804 0.11486519 0.31824446 1.1286486 -0.025216551 0.2736717 -0.8793838 0.12954247 1.0782589 1.5425626 1.2198572 -0.67720777
seguir 1.0281507 0.19445604 -0.7911232 0.3979448 0.02001167 -0.15674163 -0.5357534 0.18933362 -0.6659146 0.24948244 -0.5679879 0.2850513 -0.25269794 0.8079894 -0.4969352 -0.63509417 0.025901604 -0.11440843 -0.81883615 0.36370537 -0.4734746 -0.26939067 -0.33966324 0.6571756 -0.71869606 0.0644235 0.020536479 -0.13762331 0.3243756 0.9686685
maldicion 0.70027095 -0.233496 -0.42943662 -0.4808199 0.36093387 -0.98633945 0.07177628 -0.4519157 0.16377257 0.8614482 -0.74200773 0.3880837 0.07758056 0.3662787 -0.11592708 -1.2706463 -0.025230989 -0.39459294 -0.30839092 -0.2883481 0.0921253 0.68423873 -0.59709376 -0.6336178 -0.8251739 -0.43833238 0.35436893 0.025947971 -0.27626225 0.964166
acaba 0.7088937 0.14453176 -0.114838555 -1.1336188 -0.2412872 -0.045257516 -0.09008184 -0.08722103 -0.526557 0.2874342 -0.40617555 -0.29936874 0.12637988 0.91213876 -0.32956997 -0.7484792 0.49372333 -0.12734005 -0.35176614 0.60870945 0.04332979 -0.36815503 -0.09036386 0.54242885 -0.98839736 -0.025118575 -0.29719135 -0.022447798 0.100576796 0.095373765
entendido 0.8760804 0.7270653 -0.626325 -0.26063254 -0.39861596 0.17122108 -0.3789091 0.21352015 -0.4269503 0.6379718 0.025435543 0.14483488 0.3970838 1.0606163 0.30776075 -0.29492664 0.7492908 -0.4826192 -1.2624923 0.38320887 -0.14408109 0.27759957 -0.40618277 -0.09494327 -0.7146093 -0.5134524 -0.3939431 0.51324505 -0.2224509 -0.7243193
correos 0.9826675 -0.27184692 0.046567887 0.23579621 0.15915036 0.66784835 -0.32437053 0.6916466 -0.86825377 0.035019092 0.309379 0.21595292 -0.13264981 0.44897696 1.0121087 -0.51924896 1.3261143 -0.57856137 -0.47459254 -1.9188433 -0.4134075 0.2647701 0.42581993 0.43335253 -1.4084828 0.0912519 -1.0548109 -1.7984476 0.3198327 -0.5886347
lineas 0.58199584 0.13806038 -0.79853785 -0.5416118 -0.27591643 0.63693243 0.70049477 -0.09691044 -0.76358896 0.10631667 -0.009490685 0.32949764 0.04934316 0.0037564845 -0.5108711 -1.1775156 0.50653094 -0.54666865 0.10387227 0.9652074 0.71429133 0.21215011 0.45319015 0.1934446 -0.8757117 -0.046892963 -0.038725074 0.26785648 0.02184797 0.05049454
activa 0.6463397 -0.2744148 -1.0909784 -1.0659652 0.60386086 -0.71986717 -0.40884566 -0.03212788 -0.15453097 -0.23160432 0.5099832 -1.1856441 -0.47990453 0.21757932 -0.92406934 -0.5962507 0.63062876 -0.52897614 0.18318631 0.10224916 -1.0315863 0.4874851 -0.14040896 0.28160882 -1.150689 -0.25971475 0.56208074 -0.36911514 -0.14397322 -0.0969291
preocupa 0.6586828 -0.7215496 -0.49125218 -0.7435194 0.10346525 -0.7267227 -0.5698097 0.29656914 -0.32413343 -0.082353845 -0.7043248 1.1207066 -0.43919206 -0.23021218 1.0364835 -1.363546 0.3035851 0.17503391 -0.70402133 0.3142447 0.57268184 0.4472533 -0.0043897606 0.8815289 -0.6690503 0.61895573 0.6685442 -1.2634501 -0.20221543 -0.24309827
septiembre 1.1875517 0.09198818 0.24535227 0.009518428 0.35613707 0.41617408 -0.81918514 -0.51883984 0.2777831 -0.08363367 0.13802949 -0.38532218 -0.3881126 -0.6441249 -0.24094884 -0.77824175 0.45734712 -1.0985788 0.021970272 0.51920563 -0.31347507 0.31456217 0.742937 0.64494854 -1.6252263 0.60211766 -1.172674 -0.9151475 -0.57740474 0.700614
llamarn 1.5271161 -0.8715613 0.22906175 0.63785946 0.030950844 0.15339659 -0.4543757 0.025459874 -0.80879325 0.6771099 -0.557351 -0.25137672 -0.29796556 0.26885194 0.16686559 -1.3199536 -0.47603026 0.25054613 -0.30439565 -0.5192066 0.052812733 0.54923636 -0.37176812 0.5638359 -0.28306636 0.47519013 -0.5737937 -0.013202841 0.21832725 0.82418895
importante 0.6173622 -0.7595101 -0.9997216 -0.13423324 0.68447 0.3265158 -0.5925688 -0.41032967 -0.2355129 0.39219996 -0.48063415 0.89714164 -0.39161336 0.42122528 0.12862821 -0.69140416 -0.29119763 0.37049955 -0.29553595 0.058078703 0.2314707 1.1458552 -0.6028833 -0.006665596 -0.25536335 -0.1574592 -0.32535997 0.1103262 -0.019225756 0.16431803
indica 1.1507351 0.5574625 -0.27072656 0.82574594 -0.13822071 -0.29718804 -0.8944164 0.12910245 -0.704047 -0.6173208 0.06070671 -0.21445847 0.6349708 0.176394 -0.5015753 -0.7605757 0.8301527 0.04849548 -0.6778976 0.23036295 1.1745585 0.6574623 -0.15697087 0.24765499 -0.25742906 -0.334097 -0.34370017 -0.45745084 -0.47448248 -0.2917498
tranquila 0.784822 -0.84097296 -0.81644106 -0.24422997 -0.8317166 -0.6246449 -0.38791618 -0.02483888 -0.38315332 -0.27713683 -0.79910135 -1.0155247 -1.3540056 0.12732215 -0.044105947 -1.6306942 1.1173044 0.7793756 0.54200655 0.63297963 -0.23709314 0.38115865 -0.30105475 -0.63160026 0.17088778 -0.7783365 -0.09801825 -1.1501375 0.06563023 0.017943695
porciento 0.41274133 0.31062642 -0.76697004 -0.86386627 0.7001754 0.07833415 0.40899098 0.0121476995 0.63105124 0.3201763 -1.31881 -0.41262063 0.26575866 -0.29725236 -0.21974565 -1.0141512 0.6251897 -0.5995722 0.4836253 -0.10085891 0.56864935 0.49801585 0.5472802 -1.2181178 -0.4564066 -0.40009445 -0.708009 -0.37210143 -0.54943395 -1.1006424
tele 0.6083998 0.0142150195 -1.7336701 0.3756258 -0.1432445 -0.5283922 0.27380088 0.016760971 -0.18197861 -0.076058015 -0.9200311 0.56583846 -0.23744941 0.15787193 0.39229518 -1.5757275 1.0369172 -0.079873666 -0.27229768 -0.013813249 -0.50017095 0.54165506 -0.3567145 0.808772 0.24528347 -0.43227535 -0.27978054 0.8207389 -0.30888897 -0.039748657
cinta 1.03306 0.09544082 -0.91278714 0.5025957 -0.27062964 -0.51453096 0.43921807 0.48837766 -0.89672357 0.09346902 -0.66366243 0.46562427 -0.6269243 0.20525081 -0.24054353 -0.3279582 0.23389342 -0.05076897 0.2989024 0.2165617 0.26250648 1.2554619 -0.23542994 0.14954042 -0.38509694 -0.7485738 -0.0097376965 0.23614673 -0.17994852 0.5337909
perfecta 0.8851367 -0.16732748 -0.34443554 -0.4121255 0.55881345 0.12741195 0.23135854 -0.28576067 -0.08283074 -0.0141579015 -0.2921222 -0.5687112 0.80231977 -0.787383 0.16288394 -0.20039622 -0.19473107 -0.34621364 -0.030284945 -0.078473866 -0.4790205 1.3677156 -0.19623247 -0.036622982 -1.5266826 -0.1693265 0.206748 -0.7197907 -0.18531916 0.10923276
unidad 0.36289087 0.8000838 -0.6084631 -0.35137618 0.3767974 0.42242196 -0.26806477 0.4930032 -0.33272004 -0.66074353 -1.1541495 -0.009334445 0.27086285 1.0432931 0.21590298 -0.5274717 0.48197663 -0.43580276 0.59223443 0.25091252 -0.6624683 0.6139616 0.043496914 -0.8520933 -0.5173622 0.5932506 -0.29962832 -0.16706082 0.14568739 -0.52839607
club 0.6305386 -0.07000811 -0.912916 -0.8128714 -0.24681753 -0.20149846 -0.48677748 0.34652254 -0.14516217 0.118587494 -0.9365484 0.20876025 0.07914083 0.8904232 -0.19288725 -0.11907811 0.1159367 -0.7040015 -0.40745056 0.20324557 0.15319182 0.7710658 -0.17314425 -0.22088595 -0.24816203 -0.144792 -0.33069885 -0.7153083 -0.04041202 0.13946839
fijo 0.4545778 0.80282605 -0.40862375 0.11623843 0.18902908 1.3406944 0.28970063 -0.3595274 -0.075095415 0.08425893 -0.054744005 -0.36686894 -0.86639965 -0.4554131 0.1081827 -1.6539578 1.6347723 1.095774 0.032031003 0.58097965 0.93422157 0.7561171 0.09584068 0.4113873 -0.21795925 -0.30633673 0.045828525 -0.93878394 -0.8917399 -0.03616852
febrero 1.289069 0.08054799 -0.22423239 0.1976913 -0.10969748 -0.28260177 -0.8002191 0.27069536 -1.0651125 0.06299763 0.8583548 -0.74638295 -1.0032567 -0.42435646 -1.1045953 -0.8777207 0.5987791 -0.6790421 0.25764707 -0.82526183 -0.02681082 0.7753366 -0.19750446 0.79966867 -0.768863 -0.64221704 -0.06920426 -0.052044842 0.27631918 0.6804978
perfil 1.3821015 0.38505214 -0.807347 0.16384669 0.9067745 0.10073245 -0.21728182 0.00096493197 0.5977837 0.021125693 -0.75633335 0.79745734 0.5075413 -0.28760025 -0.5942556 -0.05451764 0.8926248 -0.25193492 0.17508341 0.09257376 0.5554522 0.2401454 -0.1598994 -0.4293673 -0.5366958 -0.12531926 0.20809391 0.19455689 0.13058744 -0.18272136
trata 0.94799584 0.5711245 -0.6068521 0.5076998 -0.2965507 -0.21906687 -0.24240895 0.04729817 -0.39459237 0.09889293 -0.38417345 -0.21042916 0.27570134 0.1607413 -0.011484328 -0.55777234 0.79891396 -0.5869114 0.35440218 0.35202846 0.8329206 0.57082593 -0.62177294 0.14126709 -0.19787805 0.048757326 -0.26229593 -0.43893468 -0.7297654 -0.48220292
