2501 30
llamar 0.25050953 0.25938907 0.18745065 0.030633235 -0.28133196 -0.8095975 0.05351844 0.04478428 -0.5244254 0.31682888 -0.67204565 0.3866534 -0.033629976 -0.064665 -0.8695886 0.13805056 -0.06693862 -0.60096 0.10688697 -0.5277171 -0.4197198 0.14120765 0.22697225 0.53561044 0.31831524 0.13993628 -0.41292846 -0.31624836 0.77876157 -0.036491185
medico 0.52864414 0.816279 0.42709368 0.090459235 -0.6382459 -0.5897089 -0.32496637 -0.5578609 -0.34638345 0.3398609 0.19740002 1.1372803 0.37121505 -0.9992082 -0.12999684 0.21786927 0.29231334 0.20354137 0.24647959 0.32844472 -0.18169531 0.4993381 0.19605197 -0.109890535 0.28090996 -0.06823 -0.2733845 -0.1727089 0.5240941 -0.58764344
paciente -0.04249294 0.21360616 -0.4012331 -0.38676152 -0.49095193 0.40315756 -0.11034648 -1.4087696 -0.4926492 -0.10138976 -0.82584375 -0.3687681 -0.43961754 -1.3161798 -0.9554602 0.7467788 0.13221098 -0.5157539 -0.36274526 -0.38687143 0.047654957 0.41175124 0.09736391 -0.30292937 -0.026859578 -0.62768996 0.67583555 0.4041047 0.8473424 0.12376281
telefono 0.60218847 0.35935727 0.39732346 -0.3694043 -0.1255182 -0.6388005 -0.68619555 0.28146347 0.59229225 0.47237873 -0.5618012 0.22306164 -0.10429379 0.2380195 -0.5161822 -0.23391525 0.08194665 -1.3503724 0.30160978 -0.6651044 -0.6925429 0.71595514 0.16984835 0.28618306 0.45157343 -0.20704985 -0.036213458 -0.05118442 1.1322863 -0.537094
solicitarrrrr 0.47069448 0.5132393 -0.50435853 0.11663392 -0.44849604 -0.5619582 0.37496194 -0.6397698 0.06865314 0.5609849 -1.0080662 0.45246202 0.8010749 -0.79885507 -0.8476121 1.1138296 0.35424381 0.38533795 -0.016264612 0.031531766 0.20777614 0.53658366 -0.321157 -0.4370199 0.7996989 -0.12410833 0.4861765 -0.34004685 0.6559606 -0.3509559
informacion 0.7208532 0.25178486 0.2800433 0.19325064 0.17228869 -0.5978549 -0.24996115 0.027803209 0.14619583 0.2801477 -0.8297008 0.00734531 0.30532306 -0.6852366 -0.93550503 -0.19244899 0.8837027 -0.15886112 0.387963 -0.58625245 -0.4095929 -0.089559115 0.1097907 0.12304301 0.32707104 0.25622562 -0.3925133 0.4808748 0.3420986 0.09279631
pregunta -0.014238868 0.60508054 0.51264155 -0.21380328 -0.28714132 -0.020744104 -0.21384966 0.46873444 -0.24810258 0.21517183 -0.40841967 0.5473029 0.23616698 -0.7559092 -0.37918726 0.34908965 0.735611 -0.46114907 -0.3128297 -0.51317817 -0.25834468 0.34564054 0.26204127 0.16963857 0.16373856 0.23952504 -0.23873582 -0.34171754 0.65216476 -0.46759924
medicamento -0.38680294 0.42137912 0.6278194 -0.4488487 0.0506439 0.99350613 -0.53535724 -0.68623966 -0.81612 -0.17113087 0.0042287796 0.7548096 -0.48736832 0.20433056 -1.1058115 0.51161623 -0.10813076 0.3907297 1.4773673 -0.6911179 -0.6798003 0.62272185 1.3506308 0.38109046 0.7645718 -0.0517707 0.20877613 0.74492276 1.3272986 0.09517666
bucaramanga 0.25791544 0.5166698 0.4871411 -0.17874926 -0.35706872 -0.10648294 -0.24247192 -0.94992137 -0.38933513 0.3732387 -0.63229924 0.88553596 -0.23548922 -1.1121756 -0.033649024 0.26706138 0.3600904 -0.47631785 0.11914165 -0.03731076 0.3038446 0.23737049 -0.31681743 -0.6493501 1.175491 -0.49261436 -0.3570069 -0.08818068 0.45182547 0.1906416
necesito 0.5754955 0.24913134 0.589529 -0.22442403 -0.9477668 -0.08624854 0.5085074 -0.54960155 -0.88696116 -0.36699343 -0.55898356 0.579431 0.17313924 -0.15987733 -0.3697752 0.14942724 0.5353466 -0.6093115 -0.025815483 0.03070937 -0.05007731 1.0941718 0.16320136 -0.018629702 0.36691958 -0.35052288 -0.27909568 0.28187642 0.55535793 0.2931233
enviar 0.257587 -0.059164904 -0.16822635 0.31270066 0.09593639 -0.2307592 0.043114435 -0.14268729 -0.77596194 0.00058699574 -0.84745806 0.4321302 0.29509902 -0.41749287 -0.49355936 0.58831125 0.8609643 0.615014 0.48911604 0.1549541 -0.07755626 -0.45378825 0.68590117 0.31956568 1.016463 -0.53492725 -0.23925167 -0.42109457 1.232928 -0.345922
codigo -0.34613845 0.19618273 -1.1559006 -0.66799927 -0.8431677 0.4477007 0.23756775 -0.97441834 0.58585024 0.3328437 -1.0083973 -0.011217507 -0.15327576 -1.3994216 -0.9545775 -0.16446725 1.307294 -1.1583816 -0.31885418 -0.26986018 0.3149887 0.9998965 -0.5075751 -0.6623193 -0.28007144 -0.93422735 0.42457497 -0.42184243 0.8963655 -0.08450993
problema -0.06253707 -0.26296625 0.6674267 0.2689245 -0.7628359 -0.20827945 -0.120033585 -0.1706657 0.08945717 -0.2725014 -0.067817 0.76773846 -0.14265916 0.1458622 -0.8496837 -0.008726452 0.7208877 0.1776726 0.48822245 -0.43498677 -0.5269885 0.5603428 0.34499663 0.63901377 0.32944363 -0.25880834 -0.20718609 -0.047092218 0.4611295 0.55011195
datos 0.73581296 -0.12895119 0.32235864 0.82305855 0.6287302 -1.1148907 -0.14450005 0.018753078 0.0454795 0.70452464 -0.7244437 1.059422 -0.8063583 -0.3051157 -1.6729145 0.23624049 1.0370895 -0.20397843 -0.27493525 -0.06990553 -0.87716436 0.0205577 -0.4985198 -0.20230041 0.3464542 0.061746515 0.020575631 0.8185321 0.7178978 -0.31352472
comprar 0.23152894 0.4057396 0.10654866 0.5205508 -0.23376697 0.231675 0.1367266 -0.72570306 0.24774623 -0.6481742 -0.53704894 -0.26338354 0.028322153 -0.25993693 -0.28744984 0.24467348 1.4311734 -0.07991064 0.23720858 -0.36187106 -0.8456347 -0.10425334 0.42888373 0.65356445 0.18601537 -0.22837816 -0.14646327 -0.21324255 0.13411172 -0.021251293
vacuna 0.115631916 -0.024413401 0.63391715 0.00619772 -0.57026917 -0.66304135 0.71777767 0.083657384 -0.07003543 0.2641237 -0.74053043 0.38205865 -0.09022028 -0.41744244 -0.90714383 0.2437504 0.8538401 -1.0119126 0.74064785 -0.5056032 -0.73706096 -0.6830803 -0.28593785 0.9718494 0.6829044 0.4646878 -0.23411752 0.8089955 -0.028069017 -0.67290145
urgencia -0.064463995 0.61988616 -1.0206933 -0.18353914 -1.2792451 0.45722204 0.19698386 -0.7134672 -0.106407635 0.23778324 -0.8594218 0.3402863 -0.19194877 -1.2835336 -0.7889924 -0.19421613 0.40837005 -0.5742695 -0.33901307 -0.68550104 0.37931877 1.7604592 0.26024142 -0.5170594 -0.37925318 -0.2671868 0.3306358 -0.315998 0.4474423 -0.43369988
ciudad 0.6668766 0.049708642 0.39902648 0.049352847 -1.4072065 -0.07209447 -0.9251746 -1.2731959 -0.3235077 0.31280348 -0.22986536 1.1265851 -0.5974794 -1.0924788 -0.40338698 -0.274283 -0.103053264 -0.093270496 -0.019349167 0.23379098 -0.344556 0.28566417 -0.10289428 -0.21206298 0.44752133 -0.02630066 -0.5640572 0.078321055 0.20953894 -0.15764694
hablar 0.31906947 0.4548646 0.036904663 -0.13980006 -0.7316099 -0.17895378 -0.19229941 -0.12828082 -0.2737012 -0.1799075 -0.276998 0.4912937 0.5852554 -0.2999039 -1.0164238 0.057406873 0.3391102 -0.75662774 -0.044962388 -0.5034608 -0.0046119126 0.45047945 -0.008271866 0.22264338 0.53164417 0.9627259 0.12953933 -0.70989573 0.5150366 -0.3274527
haciendo 0.78784 0.18578625 -0.12687209 0.12736337 0.02227249 -0.24476516 0.27431396 -0.5186641 0.11460726 -0.41559514 -0.121649526 0.59946245 0.3516925 -0.5595064 -0.7251996 0.51209843 1.0573864 -0.32672077 0.21776913 -0.19138399 0.050543636 0.21576083 0.14065582 0.21591248 0.24514872 0.0044727083 0.13911602 -0.11309234 0.51596206 0.14747532
respuesta 0.9927015 0.13448915 -0.15164433 0.4777128 0.22203529 -0.6262876 0.43686587 -0.087317206 -0.48754403 -0.32291162 -0.20563151 1.0187423 0.54070586 -0.70766085 -1.0026982 0.5848138 -0.114899494 0.34693477 0.468282 0.2968505 -1.1095469 -0.20830196 -0.3972199 0.3863273 1.1912763 -0.52243936 0.5929974 -0.6786948 0.82084453 -0.59401155
cedula -0.2781087 -0.30490455 -0.25995046 0.19319086 -0.3218566 -0.06807685 0.09895115 -0.8899478 0.64975584 0.3507474 -0.9090715 -0.648559 0.5556631 -1.7098147 -0.8418253 0.55824196 0.89352024 -1.0222431 0.78946334 0.43333465 -0.20915128 0.45182014 0.038358085 -0.44711298 -0.5042228 -0.208643 0.23351665 -0.53770727 0.84366536 0.13010809
documento 0.33281144 0.25325194 -0.2585074 0.080031775 -0.30962458 -0.08575365 0.4738369 -0.5179647 -0.46381062 0.19891739 -1.0848786 0.041555405 0.051832914 -1.1519701 0.045835335 0.40473008 0.61814153 -0.4203207 0.46938053 -0.0051722536 -0.41624153 -0.2863364 -0.15346271 0.05622646 0.23526375 0.23279467 0.7018569 -0.56636995 0.86252636 -0.22350347
control -0.032228492 0.7903752 0.104685426 -0.5665452 -0.5270063 0.29034883 -0.07456817 -0.39554015 0.53228635 -0.2642083 -0.038837634 0.8312353 0.65536094 -0.4698215 -0.253626 0.26791933 0.80651796 -0.6014856 0.937744 -0.36302412 -0.54029024 0.6807114 -0.5190929 0.08960223 -0.2084617 -0.20299053 -0.11579571 -1.1211029 0.19798282 -0.14520754
beneficiario 0.59738773 -0.13491444 1.0473784 -0.14427483 0.2704398 -0.62691116 0.38683695 -0.25040132 -0.30163616 -0.14612782 -0.45828965 0.40645126 0.059429865 -1.3876607 -1.0697919 0.24054724 0.42257434 -0.37817428 -0.11846961 0.046287876 -1.0675379 0.07783946 -0.3253424 -0.20425975 0.13538185 0.20730901 0.08364367 -0.11151861 0.021550417 0.066089444
celular 0.4583755 0.024831861 0.1511813 0.7857637 0.14476934 -0.99649876 -0.6794836 0.4036109 0.80450684 0.42389116 -1.0844381 0.5828133 -0.12625422 0.12396769 -1.5914642 -0.69645524 0.03733627 -1.0200884 0.58664083 -0.45972154 -0.5939506 0.38457385 0.18739673 -0.46249557 0.21482292 0.36527678 -0.5258861 -0.9659278 0.6540904 -0.47911564
ejemplo -0.15943353 0.48254535 0.24983467 -0.18197781 -0.55835444 -0.39144567 -0.12162053 -0.28204733 0.13399354 -0.065160595 -0.009771752 -0.065693125 -0.7781407 -0.5605935 -0.49930146 0.49003926 0.92330915 0.12064716 -0.15292278 -0.40419343 -0.8617429 0.2597659 0.55948365 0.16517915 -0.16654259 -0.27901882 -0.033916753 0.12274712 0.18927787 -0.31507728
comun -0.36059317 0.61897624 0.3178664 -0.15471525 -0.58243537 -0.6209655 0.4606335 -0.31068927 0.012008769 -0.42055944 -0.44053322 0.47180733 0.13085501 -0.11973662 -0.4903764 0.23453113 0.65746015 -0.7464715 0.15861943 -0.39960203 -0.45978263 -0.16234137 -0.13036123 -0.1529229 0.19554293 -0.22112484 -0.24802876 -0.22293623 0.107434936 -0.2557609
dije -0.2029063 0.55225384 0.3080801 -0.1041793 -0.31636575 -0.42048278 -0.1595347 0.09889372 -0.16131373 0.18779768 -0.24846257 0.849836 0.48093238 -0.023689285 -0.81086403 0.022288337 -0.38649598 -0.4574963 0.3303161 -0.8314201 -0.14586864 0.09639193 0.8362215 -0.084844954 0.5992302 -0.4205574 -0.3465002 -0.23617813 0.98418474 -0.54831856
consulta 0.6132868 0.81414455 -0.34190202 -0.4076751 -0.93990237 0.05160121 -0.179703 -1.0272944 0.08650378 -0.26775318 -0.19447736 0.43630552 0.4336785 -0.6446012 -0.9557899 0.47567308 0.2700878 -0.3076022 0.39349222 -0.05980747 0.30961868 0.17348433 -1.06877 0.4851171 0.9451256 -0.30421823 0.5855054 0.69752324 0.62663627 -0.42534867
llega -0.25532773 0.18754447 0.7448718 -0.2804533 -0.76152754 0.12165223 -0.3657785 0.24530365 -0.4203837 -0.13365395 -0.44474024 0.14961533 -0.29402405 -0.5058536 -0.39518088 0.3693385 0.5388492 -0.7209817 0.26012173 -0.507716 -0.6783733 0.22167449 1.3378867 -0.13177015 0.3896989 -0.6315882 0.5511241 -0.024385631 -0.18683842 -0.13871309
queda 0.25231096 1.036999 0.27189928 -0.19841453 -0.4711952 -0.62531185 -0.23597142 -0.15278785 0.34937558 -0.25512677 -0.5279218 0.4211636 0.75067234 0.10668159 -0.36569843 -0.092117265 0.061301533 -0.28447655 -0.41444972 -0.42265153 -1.0608724 -0.2989087 -0.24889387 0.09031911 0.5332238 -0.4750684 -0.36679658 -0.56371427 0.61240214 -0.06311423
nadie 0.23884566 0.48958707 0.40521535 -0.13928787 -0.2027418 -0.72641724 0.010222756 0.3923547 0.7254818 -0.15930803 0.08149506 0.77920747 -0.2601734 -0.16782823 -0.4292456 -0.42902035 0.30121225 -0.7428556 -0.05098449 -0.62669235 -0.8749369 1.0248842 0.53992784 0.44252446 0.6245906 0.13421343 0.30930158 0.07638858 0.9044314 -0.19707645
producto -0.019082509 0.44192648 0.28830975 -0.2924594 -0.1407372 -0.52654916 -0.05191063 0.59924924 0.48069277 -0.12404447 -0.4521257 -0.036232717 0.22882918 -0.46817866 -0.23319335 -0.31333482 1.217202 -0.55084044 -0.082157075 -0.17916976 -0.724254 0.32585475 0.40563464 0.22816165 0.7370399 -0.48454887 -0.32861668 -0.20686829 0.6088263 0.26281312
pasado 0.2568163 0.34318525 0.4031588 0.34211624 -0.21267706 -0.36483586 -0.4547662 -0.35730043 -0.46434987 -0.042467225 -0.37050477 0.8352602 0.34168833 0.02459141 -0.37739465 0.82275987 0.13389654 0.13659497 0.7170298 0.0768836 -0.5261086 0.17356125 0.050368726 1.5263437 0.2307936 -1.0677363 -0.5547327 -0.12704854 1.1148077 0.11750231
vacunacion 0.34915632 0.53599447 0.9148244 0.70812535 0.20497775 -1.1721095 0.23322171 0.09754859 -0.5787928 0.25422212 -0.55046505 -0.03847362 0.29350495 0.09921226 -1.3204188 0.5018318 1.187012 -0.8597599 -0.432763 -0.3698122 -0.35266685 -0.25136775 -0.3845843 0.5555093 0.9156942 0.06045214 0.20582901 -0.0048775743 0.42376462 -0.16228662
proceso 0.39505813 -0.07331412 0.07940723 -0.10576685 0.4077147 -0.78562456 -0.3868206 -0.5082222 -0.5475583 -0.54586434 -1.0979332 0.61675304 0.28861618 -0.5679197 -1.1918689 0.46649486 0.25977314 0.4672441 -0.58456826 -0.11283705 -0.42847142 0.14293797 -0.122142926 0.57555443 0.15688263 -0.2938858 -0.28448015 -0.25842643 0.56320333 0.2701616
perder 0.23255455 0.4381733 0.3003416 -0.5703761 -0.30732882 0.33828497 0.05524957 -0.33093393 0.016381757 -0.28863662 -0.4749228 0.5437081 -0.18911016 -0.39720067 -0.31565124 -0.3554529 1.0331246 -0.6265924 0.20274659 -0.9080556 -0.1813853 0.041426003 -0.01691844 0.09942593 -0.43990606 -0.601098 0.40178925 -0.43210396 0.24134499 -0.22187774
esposa 0.15289025 0.5524449 0.5538031 0.19099899 0.24365336 -0.73809075 -0.37627065 -0.08630724 -0.17835778 0.40061224 -0.28293362 0.53021103 0.015081686 -0.4314355 -0.6588977 0.38352588 0.48313048 -0.120673895 -0.045957055 0.11077894 -0.6188717 -0.06073653 0.5648453 0.34104547 0.40508988 -0.17506798 -0.04398052 -0.55883235 0.43679518 -0.08291476
medios 0.18013743 0.10198869 -0.50139415 0.42906785 -0.9671886 0.2662818 0.17445067 -0.5679949 0.38719493 0.13170364 -0.7164934 0.21875522 -0.26642054 -1.83006 -0.6181524 0.35106564 0.6021277 -1.2094806 0.15848081 -0.22194791 -0.11251898 0.74904954 -0.011560238 -0.7987369 -0.0029981125 -0.6453079 0.053272527 -0.39604747 -0.023213174 0.20513175
unico 0.5263726 0.23366252 0.3657386 0.30442342 -0.29896593 -0.40041792 0.5214513 -0.20095436 0.10412414 -0.07776167 -0.3714849 0.23737282 -0.077781215 -0.2353525 -0.9038295 0.123873286 0.877482 0.47329304 -0.13121219 -0.573383 -0.0031466356 0.16361564 0.63884 -0.13890712 -0.18940517 -0.50596297 -0.28004915 -0.5584766 0.6370296 -0.15796708
enero 0.30477652 0.9659075 0.046287283 0.14262542 0.38904262 -0.13367385 0.68535703 -0.8746063 -0.20957159 0.9692971 0.040947933 0.2672096 -0.00092439016 -0.7526386 -0.9736562 0.27582115 0.11238868 0.36698768 0.542296 -0.56558853 -1.3372966 -0.45458508 -0.2107626 -0.48792803 -0.20861626 -0.40947005 -0.07972736 -0.34840888 0.6308917 0.12057187
problemas -0.009440915 0.4707439 -0.29315525 -0.43330535 -0.9396139 0.1462483 0.19494438 -0.69319236 -0.17078699 -1.100164 -0.18810591 1.1685419 0.61702895 0.0059579164 -1.2881941 -0.06184177 0.61610126 0.47473064 0.13478899 -0.44761235 0.23609509 -0.15606369 0.20980224 0.68784785 0.10057316 -0.5909339 -0.30469728 -0.65366745 0.06933498 0.61476713
oficina 0.22712491 -0.25177792 0.52231896 0.45560908 -0.7109594 -0.046896525 0.19322741 -0.93052155 -1.1754503 -0.7074865 -0.68187666 -0.14861222 0.74023896 -0.36929762 -0.83233076 -0.2465359 0.43596166 0.028634496 0.5469903 0.9743843 0.13958998 -0.10432475 -0.13309534 0.2583735 1.0326644 0.27817097 -0.2132144 -0.14699794 2.2074857 -0.8807961
espera 0.12906764 0.63250166 -0.39191166 0.44242436 -0.4617617 -0.6772126 0.37488693 0.33286437 -0.36472708 -0.34582654 -0.5764765 -0.41597864 -0.11137976 -0.6690585 -0.5066227 0.28847146 0.46435106 -1.0418344 0.03351767 -0.24875788 -0.41204035 0.13689734 0.14937748 0.069691695 0.6354038 0.14075926 -0.6557367 -0.08273172 1.0091457 0.22599684
pacientes 0.27194384 0.9224567 -0.019618237 -0.15250611 -0.98993003 -0.048138473 -0.70436925 -1.0533347 0.09038029 0.41295087 -0.15081565 -0.4613631 -0.22215723 -1.107656 -0.9054858 0.71126217 -0.06691841 -1.0694273 -0.10102118 0.1143311 0.24654552 0.81618065 0.3518594 -0.43123102 0.26274434 -0.38688263 0.15459925 -0.28909677 0.11807132 0.04982129
diciendo -0.21392052 0.30620706 1.00314 0.33537513 0.07755909 -0.36984387 -0.098702915 0.038566556 0.030357799 -0.14516534 -0.7694909 0.18513626 0.6721907 -0.15591261 -0.88708335 0.99637365 0.6760243 -0.22814794 0.5254795 -0.39597902 0.10362034 0.3986379 0.3786132 0.40601686 0.8510156 -0.8088989 -0.10411919 0.1142796 0.4104054 0.1835305
autorizacion -0.32208225 0.80180496 -0.7483699 -0.5180359 -0.49597827 -0.32547814 -0.049483143 -1.1395189 -0.5233744 0.6050202 -0.5782631 -0.2960434 -0.5678301 -1.2059878 -0.8019715 0.14234002 0.38069603 -0.03157856 -0.009949975 -1.1104217 0.37250462 0.98982227 -0.18576725 -0.5245447 0.22868273 -0.5089548 0.7645038 0.48442826 0.724981 -0.5078959
sistema 0.12236683 -0.35810244 0.19641584 0.5595523 -0.47103804 -0.3889059 -0.71469045 -0.4372364 -0.14005625 -0.26859698 -0.49599677 0.40362042 0.4696298 -0.31746447 -0.9178104 1.0555441 0.10613374 0.09629431 -0.75771004 -0.99632984 -0.5308901 -0.014892878 0.4192155 0.039699107 0.3671613 0.05558516 -0.08594843 0.14238505 0.98415256 0.40639332
interes -0.16734587 0.5638268 0.5876296 -0.044891786 -0.45010597 -0.48908788 0.4485415 -0.4172574 0.12559181 -0.4670545 -0.19951798 0.6992739 -0.23086435 -0.6791464 -0.48065868 -0.35548472 0.24880832 -0.22822893 -0.1342041 -0.58441925 -0.30304214 -0.13749388 -0.34460774 0.052181777 -0.06724233 -0.21654595 -0.049747583 -0.9302272 0.34657058 0.14957643
traslado 0.7499834 1.0354096 -0.15923661 -0.45780936 -0.5676958 -0.34777227 0.17082623 -0.5406603 -0.76030356 0.60987574 -0.18233544 1.6742898 -0.29730573 -1.2637233 -0.6373127 0.101088874 -0.39201137 0.741136 -0.37985143 0.1547319 0.56759346 -0.06896427 0.48836792 -0.31439474 1.399671 -0.42540294 -0.18820548 -0.06650281 1.1163844 0.16281532
contacto 0.6651666 0.8850947 0.73844546 0.450742 0.5727626 -0.5521768 -0.07733622 -0.1645028 0.76945615 0.6391776 -0.36639678 -0.3758722 -0.012460253 -0.63105714 -1.3276392 -0.25746417 0.45500138 0.1128085 0.64017797 -0.61303633 -1.0647212 0.22441345 -0.14973554 0.29183355 0.6667362 0.007088867 -0.7951878 0.09600327 0.18931071 0.3951151
mandar -0.6791438 0.47858477 -0.28157216 0.21451764 0.022076666 -0.24926554 -0.3502021 -0.05335926 -0.14470693 -0.7775164 -0.57242924 1.1304921 -0.20467561 -0.19353929 -1.0136176 -0.4132418 0.49011397 0.40804467 0.7464026 0.010958214 -0.87905693 0.37374666 0.2198934 0.17661747 0.75909823 -0.43895206 -0.09905786 0.33633077 0.37939197 -0.3131431
cliente 0.6232629 0.6264316 0.5744536 0.04864097 -0.48474452 -0.3878836 -0.3593169 -0.07588255 -0.1851338 -0.24168469 -0.45472452 0.5172068 -0.09357211 -0.37395334 -0.49302533 -0.15332314 0.18505952 -0.64479977 -0.13133018 0.28048098 -0.6870649 -0.04283302 -0.19924128 -0.014997178 0.17427447 -0.6506888 0.12988466 -0.028141925 0.63791823 -0.050446216
hizo 0.06976193 -0.13824129 0.45435596 0.32534242 -0.6904044 -0.633765 0.36512494 -0.3298574 0.034250543 0.29712912 -0.5796234 0.4941056 0.5567966 0.7629134 -0.57383573 0.1697893 0.7164075 -0.0076258094 0.4135326 0.13350557 -1.0366077 -0.14251217 0.096064284 -9.278994e-05 1.1822473 -0.32218623 0.14676213 -0.34810185 0.936091 0.27474615
pueda 0.10961065 0.3571039 0.636617 -0.533745 -0.38347092 -0.68314826 -0.14927277 -0.7531543 -0.21834897 -0.303985 -0.18784857 0.953278 0.5857544 -0.36460993 -1.1117083 -0.3403972 -0.3132836 -1.0594895 -0.15339321 -0.12300041 0.05140715 0.1953398 -0.036375612 0.2526096 0.45377505 0.4284212 -0.5110085 -0.3107954 0.7199781 -0.15525363
puesto -0.2585645 0.32180694 0.3778126 -0.5466371 -0.0021206788 0.0083898995 -0.1534135 -0.10798169 -0.14300399 -0.89328426 -0.44653898 -0.030477528 -0.24025214 -0.9262988 -1.0305033 0.063581474 0.7099893 -0.654362 0.23258014 -0.6636221 -0.69588834 0.07949048 0.12715061 0.25766468 -0.47276363 0.2990448 -0.4806332 0.21695395 0.069264516 -0.0661385
cuestion 0.6992041 0.7192858 0.6958941 0.28423616 0.45506263 -0.1401945 0.37103868 -0.21969643 -0.5434596 0.04273288 0.22226666 0.7482038 0.46142685 -0.17541704 -1.0089108 0.41842964 1.0381693 -0.492333 0.45958164 -0.10171358 -0.5173665 0.44221154 0.026555648 0.22506887 0.58265436 0.0562541 -0.606533 0.1275817 0.37547398 -0.11407436
pensionado 0.535485 0.38784835 0.5605626 -0.2077599 -0.070376575 -0.4906227 0.1522168 0.1879755 -0.1947845 -0.082492135 -0.63903236 0.6366628 0.7557861 -0.8973912 -0.39465305 0.49959776 0.9523584 -0.09815202 -0.03619261 -0.0061124214 -0.41737053 0.15359259 -0.40576893 -0.105369054 0.56593066 -0.31464484 0.22176844 0.07761307 0.36394468 -0.40023112
oficina_virtual -0.6311469 -1.1939847 0.28778258 0.08651299 -0.8860185 -0.08328654 0.15179178 -0.7103166 -0.092955515 -0.38479933 -1.0032191 -0.18428962 0.1007763 -0.60030574 -0.97910845 0.59628314 0.4776327 0.033770204 0.10959538 0.900549 -1.4453458 -0.66206366 0.41053703 0.1892205 1.1749133 0.013628515 0.5240511 -0.83726394 0.59150827 -0.73872226
registro 0.9593051 -0.16220337 -0.40123373 0.6253673 -0.35572928 -0.12128809 0.3564177 -0.5151497 0.009227331 0.48579845 -1.1569431 -0.22783509 -0.27542946 -1.1053292 -1.2586224 0.0076931547 0.30835795 -0.14587785 -0.45378238 -0.31407073 -0.5702974 0.045397934 0.50037813 -0.33082747 -0.5310183 -0.4182764 -0.3824518 0.2037776 0.4852413 0.30164972
historia -0.00035340083 0.34757403 0.22700097 -0.22221248 -0.06629149 0.49566612 -0.1312362 -0.90499854 -0.05870814 0.5343542 -0.1418542 0.48498672 0.8259575 -0.7886825 -0.8868442 -0.06815295 0.4547169 -0.34736317 0.15908392 -0.103124686 -0.63413525 0.67489374 -0.2793957 0.3480363 0.6698936 -0.06536756 0.25724623 0.47302654 0.64633006 0.36475343
posible 0.8785829 0.26899415 -0.20892967 0.17557402 -0.43261945 -0.54351425 0.353807 -0.035529792 -0.24237226 0.6029567 0.24567321 0.58648294 0.18204859 -0.061754048 -0.43328506 0.01753479 0.61181533 -1.062209 -0.47601107 -0.4683736 -0.8119495 0.43026146 0.77945817 0.93139124 0.6089152 0.22183526 -0.07777475 -0.75772274 0.4317177 -0.5410889
comunicar 0.3173806 0.5485931 -0.08106788 -0.25440818 -0.41776997 -1.176918 -0.1294336 0.039374813 -0.20086682 0.60710186 -0.6321193 0.060575478 0.4441263 -0.11037659 -0.83488435 -0.11449803 0.41913024 -1.0918037 0.59171844 -0.09133109 -0.2272758 0.16134018 0.18753661 0.33542144 -0.22028676 -0.066698834 -0.75544226 -0.80469936 0.4490128 -0.37977242
internet 0.59943765 0.026197234 0.050735265 -0.40264556 -0.8112393 -0.07728113 -0.04061369 -0.33683798 -0.33860397 -0.080766745 0.26767802 0.0974112 -0.44708097 -0.062814265 -1.6261947 0.41099846 0.5195386 0.20210528 -0.109924205 0.49040723 -1.5871751 -0.9511931 -0.16700445 0.32135704 0.45725286 -0.05805895 0.34241113 -0.2509625 0.6996699 0.7630014
perdi 0.4614011 0.7777117 0.048950274 0.16591814 -0.15331292 -0.34766516 0.29975903 -0.7219084 0.22784634 -0.619746 -0.48144293 0.28912494 0.09918913 -0.3251627 -0.49657133 -0.14768633 1.3745369 -0.84066075 0.3160366 -0.12748502 -0.878262 -0.48386246 -0.7082551 -0.57111 0.9785402 -0.51166487 -0.31216264 0.042490598 -0.32399294 0.45586812
verificar 0.5141453 0.12561674 -0.19024521 -0.32270196 -0.36136255 -0.08201672 -0.086522326 -0.014707459 0.08406476 0.18445186 -1.3432175 0.38108763 -0.38426316 -1.3259306 -0.43352765 0.116146706 0.7713586 -0.17515144 -0.15831552 -0.2114876 0.051394075 0.49219546 -0.38428882 -0.4024011 -0.0018473375 0.42823607 -0.035907295 0.0883612 1.246684 0.4784522
mandaron -0.5329092 -0.13437444 1.0276221 -0.08442417 -0.8616671 -0.5428338 -0.7989493 -0.83132565 0.007114076 -0.3494553 -0.5153419 0.90135646 -0.034567248 -0.7512562 -0.65022415 -0.15186706 -0.41667265 0.0835965 0.8478986 -0.25256166 -0.69853604 0.79237956 0.2574654 0.92014074 1.2646816 0.5583745 -0.8313631 0.39444658 0.0042474014 -0.39154255
situacion 0.20363387 0.8052937 0.91592944 -0.2327001 -1.52879 -0.08631962 -0.20613764 -0.6436336 0.12858883 -0.0934598 0.63696426 0.7417365 0.26735488 0.29345462 -0.42706084 0.6156961 0.8571828 -0.21340446 -0.337356 -0.26078176 0.4118537 0.6230075 0.6352857 0.871808 0.42063084 0.17466801 -0.37301973 -0.12257384 0.8291258 0.3204213
completo 0.22837849 0.31353977 0.22524372 -0.7296843 -0.025989765 0.20190929 -0.17608754 0.24388565 -0.6175219 0.06535753 -0.3467717 0.11748 -0.12485362 -0.9402023 -0.6711268 0.029906161 0.33776402 -0.14977622 0.53891575 -0.4844826 -0.9433879 0.4222302 0.46097422 -0.40865636 0.09364712 -0.3647575 0.17497338 0.3527361 0.73753005 -0.35079107
comunicarme 0.95522565 1.0275633 0.07420245 0.16712792 -0.10764681 -0.9719686 0.23881146 0.042225044 0.036904555 0.0006105439 -0.08180965 0.63269967 -0.1154907 0.035910383 -1.5678363 -0.6182191 0.010369498 -0.6850526 0.143784 0.6036798 -0.60179627 0.6352626 0.46916243 0.41538104 0.19120349 -0.97359127 -0.15311006 -0.8680191 0.14710025 -0.8555191
colaborar -0.048480354 0.30154386 -0.6488783 -0.46097404 -0.8625972 -0.08025911 -0.25152147 -0.5808945 0.3834495 0.14524858 -0.74476445 0.4009359 0.21664636 -1.4416568 -0.37237778 0.75028086 0.3109078 -1.2933985 0.30476633 -0.39977258 0.173674 0.11035232 -0.075628944 -0.40401053 -0.3463804 -0.43287084 0.12406467 -0.009697853 0.50550133 0.21974477
cambiar 0.621116 0.40090215 0.8448973 -0.49515736 -0.5878479 -1.0642719 -0.45307586 -0.12040817 -0.16082126 -0.40842938 -0.3564748 0.74389213 -0.5980506 -0.3226028 -0.16796702 0.56543404 -0.027589375 0.17596026 0.2758891 -0.26891834 -0.32304996 0.6510762 0.5206832 0.44811773 -0.29558343 -0.5180398 -0.03198623 -0.26226515 0.70252144 -0.6536482
llegar -0.06302812 0.65635455 0.7491156 0.032801934 0.086536966 0.0346026 -0.4003417 -0.14149906 -0.7981326 0.30368856 -0.67438734 0.33735293 0.10543894 -0.05683241 -0.8621101 -0.5077886 0.9471702 -0.50539225 0.4998816 0.26005718 -0.62510157 0.20561033 0.23417851 0.5147796 0.60785806 -0.27680886 0.21165872 0.012619208 0.22490643 -0.0040043164
procedimiento 0.40259135 0.92667836 -0.026325824 -0.41396144 -0.6533379 -0.33903953 -0.581455 -1.5267541 -0.7859053 -0.3333901 -0.44731045 -0.006097845 -0.32904103 -0.32272857 -0.83517396 0.47673494 0.113801464 0.16078207 1.8280349e-05 -0.21334037 -0.14883362 0.024839941 -0.23253714 0.656077 0.73021424 -0.38406196 -0.23396258 0.72512305 0.39253095 -0.28269055
barrancabermeja 0.13540822 0.17332906 0.21616226 -0.60433626 -0.9891377 0.13571917 -0.2377092 -0.90972686 -1.1516675 0.24028046 -0.47399986 0.9200295 -0.28395295 -0.6859981 -0.3112037 0.043460075 0.00017357199 -0.642861 -0.118140005 0.063168 0.03355425 0.3129406 0.036529068 0.34476697 0.9805913 0.0128921 -0.20774074 -0.5470953 0.5063399 -0.065672226
fecha -0.267438 -0.22345571 -0.3417101 1.127395 -0.11365123 -0.68498194 0.6024599 -0.38915032 -0.74264437 -0.0044087823 -0.8182342 0.2020485 0.118722074 -0.5751043 -1.5633049 1.0799905 0.0214097 0.46324706 0.9108984 0.1515045 -0.7798928 -0.6117442 0.2633755 0.37957996 0.14066347 -0.059502132 0.68046373 -0.14745507 0.9128907 -0.6491809
preguntar 0.061346427 0.48867694 0.36957312 0.32198724 -0.74312586 -0.5442423 0.44358268 -0.15738736 -0.25252345 0.7595551 0.018196784 -0.022173263 -0.13874777 -0.7055626 -0.821277 0.81261486 0.43022493 -0.49284637 0.06764971 -1.0579078 -0.096379794 -0.56761277 0.08373044 0.25941566 0.38604674 0.49278963 -0.23844033 -0.0242994 0.3711631 -0.7840397
gmail -0.17681973 -0.22203736 0.24637096 -0.5015647 -0.17833713 0.042078782 -0.18954796 -0.7981033 0.35136184 -0.7548182 -0.3813454 0.26652035 0.93966234 -0.51790005 -0.6027286 -1.1415484 1.3366472 0.051905673 0.5443834 0.5480671 -1.206435 0.29915142 0.5332436 -0.39533705 0.547663 -0.05546624 0.23590854 -0.56689864 0.5671105 0.188939
contestarrrr 1.044176 0.8638096 0.5218365 -0.09533586 -0.20820041 -0.68267894 0.19059585 0.47346038 0.79490244 0.1630694 0.17886712 1.1821988 0.0064702593 -0.20405453 -0.78807145 -0.983832 -0.46009406 -1.3861452 0.42933035 -0.13945688 -0.6960661 1.0250132 0.4368649 1.0796593 0.5407268 0.060159773 -0.7731229 -0.49901927 1.05454 -0.5167917
entrar -0.27942857 -0.38460404 0.691459 0.41451296 -0.13431339 0.18126325 0.5968433 -0.67202425 0.43440273 -0.11598978 -0.064051695 0.48250794 0.14462678 -0.839345 -1.5695194 -0.07915283 0.5054755 0.16484576 -0.58586913 -0.6690307 -0.5742534 -0.28515753 -0.5541606 0.1041362 0.08971917 0.31617764 -0.3252827 -0.6280074 0.8925171 -0.39458996
idea -0.16376573 0.4240113 0.78932315 -0.078602076 -0.035810642 -0.29242477 -0.33074197 -0.22940955 -0.23581813 0.14906491 -0.11218792 0.3255123 0.4811139 -0.1946312 -0.9190416 0.23595507 -0.07112695 -0.5484703 0.24755071 -0.29791257 -0.6826775 0.19805309 0.68967277 0.48213795 0.30827838 0.20830241 -0.13788787 -0.74665886 0.55425614 0.6412158
pedir 0.3799203 0.14048812 0.10673268 0.23446892 -1.1113966 0.26874858 0.32963434 -0.44053757 -1.1111465 0.33237672 0.08124398 0.12755759 0.15576328 -1.167655 -1.2328595 -0.05979325 0.04479565 -0.5730101 -0.3917693 -0.036379352 -0.621479 0.48592967 -0.027035743 -0.074700356 -0.59429234 -0.6050419 0.27631694 -0.24984872 0.25272194 -0.14328448
pagina -0.0020032432 0.49947715 0.1976191 0.29712313 -0.45460922 -0.43249404 0.8255536 0.05882946 0.9220322 0.39958763 0.42144948 0.6551199 0.25875032 -0.94288814 -1.4525714 -0.47879043 1.2783372 -0.77826875 0.9453484 -0.16910832 -0.22072643 -0.2979293 -0.5782401 0.21508127 0.5668086 -0.2479932 -0.4088129 0.15836442 -0.35037577 -0.13496445
autora -0.004438894 0.7783433 0.514218 -0.39425698 -0.22079898 -1.1248808 -0.61300784 -0.26659027 -0.5455931 -0.46837437 -0.07446267 0.37715307 0.28989598 -0.1392956 -0.8471047 0.4968488 0.40116096 -0.22213322 -0.011694712 -0.005679395 -0.20297943 -0.67786276 0.6087153 0.55801654 0.88391995 -0.18209346 -0.33719167 0.05446233 0.3508827 -0.49590373
llevo 0.19113262 -0.64691114 -0.22688983 0.021900952 -0.55049103 -0.03927041 -0.21859051 0.02037137 0.60307974 -0.24674031 -0.22833872 0.9180212 -0.007928068 -0.6249899 -1.3075769 0.0992544 0.15100744 -0.6623193 0.12570176 -0.16103378 -0.83733994 0.016464287 0.30546618 1.0042306 0.306862 0.59073997 -0.55325335 -0.8348417 0.23813482 0.030854557
termino -0.36242786 0.24879147 0.26330823 -0.30050212 -0.5689693 0.00082275283 0.35273635 -0.4734944 -0.01902892 0.13711758 -0.8694289 0.3687379 0.24124388 0.10286876 -0.31559423 -0.4423791 0.60788584 -0.17270623 0.47452646 -1.0000993 -1.0392438 -0.22550388 -0.019223677 0.37787706 -0.12166814 -0.27965784 0.32304496 -1.009845 0.2190784 0.44210562
final -0.36766765 0.5796324 0.59661 -0.24808815 -0.18448326 0.22452396 0.109156966 0.04268832 0.17158225 -0.52522904 -0.5244485 0.59173054 0.7448539 -0.34657046 -0.769381 0.28623664 0.68430835 0.44419652 -0.1931085 -0.35877627 -0.77032197 -0.49836323 0.36321396 -0.15117851 0.41675004 -0.5589798 0.038418487 0.07407895 0.65208495 -0.15307179
digame -0.53636885 -0.30944142 0.14997394 -0.26207677 -0.74319655 -0.40155077 0.06735347 -0.35496143 -0.43201703 0.06795063 -0.67009693 -0.26035982 0.17947952 -0.77316576 -1.6471704 -0.20924817 0.10175684 -0.9956505 0.71108264 -0.10431479 -0.3625015 0.7244179 -0.47243682 0.17909381 0.49815214 0.5392794 -0.05957298 0.027607113 0.26226434 0.32655475
pendiente -0.44413817 1.055854 0.5355166 0.045799613 -0.1540125 0.3689345 0.18388355 -0.094579734 -0.47310674 -0.44162816 -0.8998653 0.5499075 -0.40474606 0.033750437 -0.72582555 -0.10111842 0.77253914 -0.49771413 0.6420893 -0.10513414 -1.0254622 0.23601918 -0.1438763 0.37280345 0.8087723 0.58004147 -0.6896502 0.5560755 0.32527748 -0.09567307
certificado 0.0928083 -0.053138595 0.9443723 0.094761446 -0.15554413 -0.6596236 1.2404901 0.13483343 0.0032909177 -0.49628764 -0.86281145 0.57035375 -0.3781636 -1.3169491 -0.3414319 0.9609153 0.65892947 0.059891626 -0.5380711 -0.3119443 -0.7263514 0.055608336 0.6786542 -0.27879903 -0.45417807 -0.48773897 0.1422462 -0.38301215 0.38944173 0.5668157
quieres -0.09449645 -0.13199459 0.20192768 -0.016428357 -0.15300864 -0.307676 0.32154134 -0.24815895 0.58384323 -0.07320802 -1.0231438 0.27424517 0.3652524 -0.6105362 -0.98348844 -0.14324708 -0.07766408 -1.1681086 0.14975981 -0.70592177 -0.10458218 -0.2454268 0.084071144 -0.09246189 0.83638746 0.007382087 0.5154373 -0.80505383 0.40251014 0.31275958
comunicacion 0.28925884 -0.2963876 0.26463133 0.06873763 -0.80690575 -0.5021842 -0.047976367 0.047909297 -0.032210484 -0.4009929 0.039123155 0.84566104 -0.03775465 -0.32911587 -1.3655567 0.12120375 0.7680943 -0.31733546 -0.49624446 0.1714209 -0.22812016 -0.15781616 0.25491965 0.8195348 0.24998325 -0.1658337 -0.49289018 0.024078574 0.33804908 0.021551117
especial -0.08537758 1.3559488 0.5583424 -0.8245225 -0.22564334 -0.43215594 0.42027265 0.100441925 -0.46041697 0.26184747 -0.02344599 0.115452364 -0.22884177 -0.70588815 -1.0919495 0.6170802 1.0874572 -0.06267566 -0.005371203 -0.22138487 0.41143587 -0.13797599 0.41292152 0.5924629 -0.36873192 -0.45112708 -0.77161556 0.17877932 0.4757491 -0.7406396
mandan -0.7473673 1.1396456 0.4468598 0.08755176 -0.23885396 -0.80251414 -0.32511428 0.32129082 0.5103936 0.17620951 -0.77516127 0.3558559 0.47762123 0.41676667 -1.0284337 -0.118062474 0.7209815 -0.5191483 -0.32202688 -0.14164214 -0.26385128 -0.087712206 0.3897444 0.15669109 0.1503789 -0.30339077 0.070379786 0.30823207 1.0057317 -0.25359222
senal -0.34612387 0.10262038 -0.06335097 -0.42495915 0.024469493 0.32205683 -0.18611245 -0.689134 -0.33898076 -0.18711212 -0.8157527 -0.05842232 0.07849629 -0.36411873 -0.53635913 0.6597719 1.1871883 -0.95333385 0.61675096 0.43996033 -0.8799829 -0.17049932 0.63586044 0.015674297 -0.13054858 -0.43302846 -0.4968912 -0.96815014 0.19496356 0.8448452
electronico 0.08508286 -0.0128263105 -0.1090452 0.56881267 0.393426 -1.1656146 -0.45521015 -0.09473204 0.080204114 -0.21675962 -0.8629968 0.04786436 0.4199999 -0.13092695 -0.7721932 -0.32248014 0.9908649 -0.28112227 0.5293138 0.07361393 -0.952202 0.046388734 0.6776663 -0.03840631 1.3974634 0.044613276 0.1409098 -0.7093424 0.25575012 -0.8723545
alta 0.1737786 0.6004893 -0.20736489 0.20489947 -0.08721797 0.11189096 -0.029442675 -0.922356 0.11349857 -0.052145086 -0.2808074 0.45004055 0.41343486 0.31404707 -0.39348185 -0.16808085 1.2065344 -0.24822499 0.24991708 -0.92581874 -0.1562208 0.069871366 0.044663746 0.47770038 0.116975345 -0.15291071 -0.3113812 -0.10459188 0.7414706 -0.26748228
dicho 0.36940134 0.87106436 1.4040174 -0.58065426 0.026394386 -0.28300944 -0.21407506 -0.35457522 -0.35757232 0.2221655 -0.8498413 0.29101405 -0.03810521 -0.4741082 -0.4042799 0.28147689 0.32726714 0.2590878 0.17236471 -0.44288018 -0.115449965 0.31995994 1.0605068 0.21551493 0.0050883843 0.33434492 0.33693263 0.07653686 0.62043834 -0.42472982
miren -0.09422633 0.11430542 -0.4211596 -0.83374596 -0.9769963 -0.39496118 -0.2197878 0.4517465 -0.20451303 -0.4915082 -1.1322076 0.8500886 0.44195315 -0.8055346 -0.5696894 0.6638384 0.45499507 0.6265427 0.19373238 0.3144262 -1.2306787 0.52390116 0.4698178 0.594388 1.0385505 -0.43560857 0.22100261 -0.8097158 -0.33871427 0.93111914
respecto 0.20638973 0.10951867 -0.28505537 -0.33956647 -0.60748225 -0.7253611 -0.042551775 -0.02810683 -0.842758 -0.11153039 -0.26635554 -0.25118595 -0.23401964 -0.3234969 -1.2182114 0.08134597 1.1327578 -0.42702886 0.30955395 -0.2571441 -1.0630462 -0.5204472 0.19790933 0.60526514 0.5660369 0.25776914 -0.07712447 0.17199548 -0.22966614 0.5456929
temas 0.42065805 1.0789464 -0.3639994 0.53743273 -0.52753067 -0.42323557 0.13800843 -0.28908402 -0.27760613 -0.20322235 0.14676678 0.31330466 0.540906 -0.7029744 -0.9795495 -0.08425777 0.47936615 0.13558245 0.38574955 -0.09914971 0.038837746 -0.36057708 0.76788044 -0.092461735 0.36756882 0.41242942 -0.8807403 -0.43357873 0.48381895 -0.4973058
horas 0.6526677 0.3486121 -0.33573952 -0.28309926 -0.16436186 -0.6243433 -0.22206075 -0.4478842 0.15833019 -0.19119036 -0.052533094 0.20338635 0.21148072 -0.32718197 -0.8872148 0.17455669 0.3136217 -0.35976362 0.61776406 -0.25815263 -1.2080344 -0.6403455 -0.3347027 0.62870413 0.30988565 0.13964343 -0.37563446 -0.38840526 0.30364794 0.7645857
confirmo 0.1616074 -0.20309968 -0.6353211 -0.2036779 -0.9322993 -0.4229932 -0.23194398 -0.6402928 0.680383 0.13441743 -1.0681798 -0.30440915 -0.12558196 -1.4981829 -0.08423404 0.20104532 0.9591815 -0.8551981 0.4308731 -0.22189033 -0.3721505 -0.16602845 -0.025415609 -0.7229906 -0.42117682 -0.71467406 0.27417132 -0.16931449 0.6507434 0.27099073
visto 0.24810368 0.44087693 0.1608663 0.43250647 -0.40504205 0.05926128 0.0013559728 -0.48185068 0.39536208 -0.1531025 -0.75216126 -0.19544286 0.15623859 -0.16053419 -0.22806284 -0.10492822 0.6438301 -0.5792419 0.2447077 0.2993963 -0.65084195 0.08469575 0.08935034 0.336904 0.7112445 0.15699142 0.3039677 -0.38071454 1.3637692 0.1337398
ayudar -0.06611332 -0.18113913 0.7772303 -0.40313664 -0.26292542 -1.009822 -0.4488381 -0.28371534 -0.15185837 -0.0023157627 -0.39414388 0.8080475 0.402547 -0.5661011 -0.8397418 0.26864153 0.48699638 -0.9750999 -0.62894815 0.038320526 0.06974065 0.5196115 0.53506625 0.1000817 0.5670401 -0.14094763 -0.29116392 0.056426503 0.31451106 0.87459487
diciembre 0.3603844 -0.30856803 0.5350962 0.7999929 0.049886663 -0.39464325 -0.06989007 -0.2769205 -0.2885516 0.36771184 1.1670837 0.03593474 -0.16866301 -1.2673553 -0.7707232 0.58545357 0.25727355 -0.078986906 0.36142844 -0.06656312 -0.9575432 0.1757495 0.08959352 0.48176005 1.1315773 -0.68658257 0.4372362 -1.0393226 0.955131 0.038503863
recibir 1.039715 0.1751869 1.0766736 -0.30367437 -0.2719679 0.048569195 0.26884353 -0.169722 -0.5735317 0.059702963 -0.24275139 0.29353848 -0.20927191 -0.73060995 -0.8809059 0.35724735 0.29191193 -0.17526788 0.36097133 0.08969679 -1.1240373 -0.059639305 0.30315349 0.06782004 0.3458776 -0.16296095 -0.12643224 -0.13915484 -0.10177395 -0.92335325
preguntas 0.6122848 -0.4121127 0.43372008 0.3199988 -0.2808876 -0.6122046 -0.21016978 -0.53392243 -0.64946455 0.040246315 -0.31541115 -0.17439432 -0.22982007 -0.65257484 -1.0269922 0.40132895 0.8265127 -0.034334563 0.27059788 -0.1822053 -0.3124878 -0.28038678 -0.4143648 -0.2851153 0.4152939 0.12408465 0.34601516 -0.46122694 0.6151544 -0.33411506
conjunto 0.32281044 0.26279795 -0.15932092 -0.41878107 -1.1260027 -0.6442721 0.05511072 -0.09093847 0.4411722 -0.2320977 -0.6555782 0.16179428 -0.3407592 0.0562836 -0.5376405 1.153139 0.6380453 -0.40104046 -0.20692208 -0.34075382 -0.49952143 -0.3760716 0.26154888 -1.002604 -0.29917267 -1.41545 -0.4892651 -0.64448154 0.54518676 -0.21857904
mensaje 0.5942203 -0.35918668 -0.07110085 -0.022291275 -0.32420385 -1.1470329 0.32096642 0.75775677 -0.76973265 0.005756003 -1.0026689 0.7959697 0.5529391 -0.960143 -0.63824683 0.8404523 0.38237584 -0.46780685 -0.028413545 -0.32743743 -0.46701416 0.6921713 0.34654382 1.2354857 0.622557 -0.28754738 -0.46736786 -0.60600114 -0.14247689 -0.2373827
momentico -0.09439824 -0.98696584 -0.4113719 -0.3291346 -0.31369448 -0.5267478 0.11184465 -0.13389863 0.26243 -0.7701887 -0.99214983 0.50168735 0.5388676 0.013266466 -1.278479 -0.3881906 0.94235194 -0.9401966 -0.2603849 0.27818298 -1.1705915 -0.48047307 0.32087335 -0.17578118 0.445724 0.45785552 -0.0153580345 -0.3001152 1.0955279 0.07568389
formula -0.040761918 0.63626033 -0.51454234 0.18637958 -0.85874456 0.6699286 -1.0683795 -0.44472846 -1.7276996 0.5242607 0.20786281 0.94911975 0.789983 -0.03437116 -1.1244072 0.12431497 -0.0072191977 0.13497743 1.1600484 -0.6191118 -0.98461473 1.0616915 1.6036721 1.0141972 0.9587605 -0.8024956 0.25194603 0.3600186 0.43892834 -0.4135232
viene -1.1551787 0.26295158 0.02605033 -0.36287102 -0.20867066 -0.83315665 0.49058118 -0.30291286 0.14589283 0.3907713 -0.6052169 0.04078392 -0.4423825 -0.7591849 -0.5009297 -0.5768725 1.6011881 -0.061445836 -0.29527444 -0.34552777 -0.62797856 0.47270077 -0.3779186 0.17013171 0.06323254 -0.020843413 0.4461736 0.5306155 0.877645 0.6297989
llamars 1.2369536 0.92719835 0.06168973 -0.14648 -0.24945065 -0.72550464 0.390493 0.33585337 -0.07315052 -0.079193294 -0.35801238 -0.16371395 0.28248382 0.012860885 -0.93353057 0.46970886 0.21680875 -0.24842055 -0.54859084 -1.6238759 -0.5493486 0.1851194 -0.04276357 -0.04646835 0.16679077 -0.5132163 -0.51420754 -0.40893194 0.6633451 -0.19684131
numeros 0.7052097 0.5935004 -0.34872544 0.6827347 0.25078174 -0.45819753 0.054620095 0.40229386 0.09080294 -0.6152836 -0.37235183 0.79805994 -0.34922636 -0.43584356 -1.3815721 -0.38660243 -0.4275429 -1.6458514 0.58888745 -0.39109018 -0.81614757 0.5915435 -0.11675835 -0.59283155 0.1832825 -0.2680323 -0.8926207 0.23395307 0.89200735 0.0629394
unica -0.15727825 0.34935147 -0.30370373 0.23765528 -0.30597702 -0.32838345 0.005832267 -0.79657423 -0.12515192 -0.520533 -0.10274038 -0.57046604 -0.26259905 -1.0573881 -1.1252166 0.31342965 0.019510243 0.0009778698 0.23636085 -0.09392929 -0.62780774 0.67177975 0.75663185 1.1869018 0.44241995 -0.64186865 -0.2686307 0.31261808 0.13551293 -0.116814695
mirar 0.8390505 0.56244147 -0.14493161 0.24842857 -0.49177003 -0.40172273 0.042200778 -0.4043927 -0.28643548 0.31234047 0.098281115 0.9189133 0.55513924 -0.3208056 -1.3064175 0.69405943 0.094757974 -0.39828938 1.0489419 0.05095535 -0.8881106 -0.106182754 0.28153032 0.3252347 -0.017066853 0.85410595 -0.5952015 -0.11036259 0.20242174 0.6818989
salir 0.19200848 0.8603314 0.7724655 -0.47425118 -1.0123342 -0.57714146 -0.2991733 0.063284874 -0.19906525 0.24358754 0.018588796 0.22124486 0.035544243 0.07754835 0.12452704 0.023685426 0.8600995 -0.034291476 -0.5639387 -0.30245042 -0.28013366 1.0458825 0.46870673 0.5052143 0.33719322 -0.44838214 0.47126815 -0.6419068 1.0548313 -0.36489362
confirmar 0.5261242 -0.5348506 0.22566181 0.96151096 0.03637397 -0.7601597 -0.120251626 -0.9187675 0.056628104 0.16605888 0.0034653812 0.55477256 -1.0448772 -0.52584565 -0.53509814 0.83731735 1.1842326 -0.7675883 -0.06307265 -0.6355253 -0.7939274 0.6111357 -0.12020416 -0.6678416 0.02598453 -0.020164222 -0.8767207 0.4737836 0.55859303 -0.0193802
nivel -0.28670466 0.09805167 0.7107755 -0.0375998 -0.47148943 0.18814464 0.07684906 -0.35625425 -0.8850736 0.35552633 -0.69975847 -0.24571289 0.09482478 -0.65239567 -1.1062799 -0.08758235 0.38715363 -0.1631107 -0.85559475 -0.5197587 -0.44125926 -0.26680422 0.28163078 0.9958256 0.20922676 -0.17948678 -0.44868943 -0.6451679 0.32204562 0.21317963
opcion 0.77685076 0.121659316 0.25151983 -0.091756 -0.46386683 -0.2579572 -0.14657062 0.107985675 -0.34933937 0.08047507 -0.38335943 0.4374934 -0.27463838 -0.21518652 -0.75438005 -0.7971008 0.3354869 -0.07321444 0.21475044 -0.42627805 -0.7070223 0.04793441 -0.10083749 0.48702544 0.21741135 -0.23972562 -0.2952165 -0.9763799 0.6527182 0.38438585
tratamiento 0.1627044 0.74813503 0.54772806 -0.22665785 0.5156395 -0.4388763 0.23906754 -0.58403033 -0.007641635 -0.7873365 0.2597466 0.5938867 0.28248802 -0.6405909 -0.63298166 -0.15536962 0.7232443 0.50593424 0.117719315 -0.84688413 0.16532482 -0.2109794 1.1313056 0.47892648 0.4632789 -0.2636517 0.68651706 -0.56169575 0.5418213 0.06697031
necesita -0.55176395 -0.21210347 0.48569572 0.22171055 -0.036846586 -0.10137904 0.26074556 -0.41889852 0.20097156 0.26452768 -0.36739698 0.89398235 0.08324691 -0.2573918 -0.9436849 0.82112294 1.0306509 0.52953655 -0.33890173 -0.37710062 -0.3421143 0.6212389 -0.010359741 -0.23833947 0.35250562 -0.43034768 0.68464977 -0.14693344 0.75170386 -0.054151837
dices 0.34919736 0.068955615 0.6226124 0.33841994 0.2475981 0.20894097 -0.39577276 -0.48183718 0.542815 -0.13687015 -0.42131338 0.6571279 0.35995942 -0.30645803 -0.5402579 0.39117005 0.4119107 -0.76436 0.43167835 -0.66501105 -0.14123066 -0.8925406 0.18324691 -0.17286186 -0.024859386 -0.80517733 -0.14162463 -0.49151665 0.9013039 -0.8382913
edad 0.24251978 0.24661216 1.1152444 -0.74458873 -0.34373888 0.2835134 -0.06765626 0.009280625 -0.9891808 0.06276149 -0.06425273 0.38286015 -0.40524554 -0.070302956 -0.38264018 0.9018843 1.0965298 -1.129251 0.4747173 -0.62813026 -0.7912639 0.22868156 0.07721311 0.47814906 0.37411505 0.46276113 -0.1741084 -0.08742089 0.30898973 -0.45148745
estacion -0.051081043 0.3126619 -0.25495815 0.4954827 -0.6468986 0.06109488 0.29705924 -0.7312337 -0.17649789 -0.75245506 0.28214654 0.44607317 -0.1515925 0.15376961 -0.61444575 -0.23692168 0.902411 -1.037007 0.10768829 -0.25290772 -0.90004617 -0.014526994 0.8090639 -0.5609265 -0.2442061 -0.51192915 0.14417668 -0.43016696 0.55381393 0.5578376
precio -0.10484728 -0.23213473 0.18315782 0.14764166 -0.31816188 0.31198898 -0.07111309 -0.09832118 0.091775395 0.33107895 -0.86052144 -0.096912414 0.11330453 -0.59467953 -1.0346843 -0.2971774 0.7090923 -0.23923409 0.5147159 -0.06378023 -0.4126006 -0.0741358 -0.060865737 0.85891783 0.21467094 0.26282945 -0.16071326 -0.0030908398 1.0497392 0.35649818
partes 0.45638916 0.61821884 0.032273266 -0.38282105 -0.7360843 0.43454888 -0.28168947 -0.88063717 0.5423376 -0.07993854 -0.4175646 0.5965342 -0.22204538 -0.21022344 -0.31793356 -0.0571381 0.44965494 -0.5535425 0.9848546 -0.83463883 0.05745606 -0.3536463 0.65741634 0.12429739 -0.51666945 0.73739237 0.55767435 -0.23703578 0.9459451 0.66523504
queremos -0.25290334 1.0703089 0.5040283 -0.19483648 -0.20668516 -0.8055419 -0.06876875 -0.14502269 -0.63053626 0.4900912 -0.39310408 0.67304623 -0.5660157 -1.1596965 -0.25719568 0.7360848 1.084342 0.1822575 -0.55712545 -0.592907 -0.933536 0.7728479 0.27520618 0.4475313 -0.09412284 -0.3951166 0.46735814 0.61908853 -0.65842825 -0.3172361
tarjeta 0.3993859 0.3156966 0.062342145 0.5444496 -0.44774914 -0.10710132 -0.5483667 -0.02708701 -0.3489252 -0.17845508 -0.89256394 -0.17282015 -0.09626525 -1.1014731 -0.35144663 0.3124023 0.21760647 -0.1651298 -0.4665819 -0.48181042 -0.76116836 0.1582645 0.5185739 0.3281096 -0.22045137 -0.34001425 0.16575864 -0.5658945 0.4323781 0.20540664
barranquilla 0.23781472 0.58891326 1.1869313 0.6403633 -1.8011345 0.77985615 -0.82120353 -0.99159175 0.11745415 0.1367705 -0.18771951 0.13485129 -0.5746001 -1.9735987 -0.31695932 -0.32052556 0.4538529 -0.7632283 -0.14530274 -0.24357297 0.72600025 0.22792101 -0.45572785 -0.36953747 0.7140174 -0.95154506 -0.22149953 0.4831269 0.25507015 0.05486443
octubre -0.22640233 -0.26354915 0.03867647 0.014832824 -0.44424263 -0.32248497 -0.3811493 -0.5142995 -0.19661476 -0.30076662 -0.41719985 0.2884336 0.70931274 -0.49802932 -0.53444177 -0.0010983971 1.077412 0.026041722 0.48931274 0.4878799 -0.82113177 -0.86959994 -0.12466097 0.0076320465 -0.003724941 -1.0025823 0.8369705 -0.69371957 0.59079283 -0.21416762
comento 0.32378682 0.5695329 0.38149998 -0.54171896 -1.1081418 0.22903515 0.12345701 -0.64204484 0.030650578 0.22032745 -0.49578986 0.15167609 0.45107123 -0.80822843 0.3345526 0.3119575 1.0074672 -0.79334444 -0.45273602 -0.36803508 -0.49230087 0.16858445 0.25199527 0.20921399 -0.73633 -0.37727696 1.099638 -0.048008993 0.7143846 -0.20784567
actual -0.26552612 0.49438953 0.788546 0.52981037 0.30658272 -0.91497415 -0.49997222 -0.96811956 -0.23596391 -0.21350819 -0.20374404 0.69996536 -0.4553706 -1.0525634 -0.3407622 0.050155368 0.8364162 0.21304132 0.5404216 0.6070172 0.29480264 -0.11048331 -0.20694673 -0.113717295 0.32801232 -0.13154584 -0.813046 -0.16584027 1.1335014 0.25464007
hablando 0.1949715 -0.30903837 0.10766142 0.103386395 0.35974476 -0.5633904 -0.19887337 -0.13452148 -0.5053787 0.030480757 -0.6694491 0.5431305 0.029189099 -0.5497518 -1.3222885 0.5532428 0.8322609 0.005820239 -0.11463129 -0.7118537 -0.95445824 -0.32310352 0.51280665 0.11747832 0.19184746 0.025297936 -1.01814 0.12443098 -0.0705533 0.028685326
entra 0.16783535 0.6337627 -0.5243029 0.6272033 -0.2933714 -0.35960183 -0.48380953 -0.4011071 0.26369247 -0.14117567 -1.286382 0.53508866 0.05598677 -0.49399415 -0.34441066 -0.0861359 0.77421266 -0.43401146 -0.29077542 -0.8679849 -0.1528047 -0.26922506 0.252975 0.27414563 0.42612264 -0.046173126 0.05553756 -0.9254321 -0.31759962 -0.15298799
compuesto 0.21035232 0.20750047 1.1462474 -0.16153036 -0.076269075 0.2222283 -0.47344705 -0.39577717 -0.20087104 0.47563618 -0.31735516 0.8321027 0.8033571 0.11767485 -1.1206352 0.063130975 0.053688824 0.11211842 0.0011303098 -0.84663963 -0.7786965 -0.011724121 -0.16626911 0.735482 0.2548837 -0.7532491 0.041344367 -0.68319106 0.37687254 0.13858844
tramite 0.16934884 0.46055597 0.15362772 0.024667136 0.5650064 -0.51884824 -0.83448726 -1.381461 -0.23200335 -0.041281633 -0.33089668 0.9086824 0.8757103 -0.36703286 -1.1152723 -0.0942072 0.26557273 -0.27096677 0.1375003 -0.0459012 -0.21094708 0.4380522 0.21489371 -0.8351654 0.5263924 0.23215958 -0.396752 -0.07577755 0.6853204 -0.035243895
podia 0.046155162 -0.13595513 0.4457428 -0.17819726 -0.6701717 0.03978432 -0.15548214 -0.66190547 -0.67361313 -0.20539537 0.35619247 1.1382134 0.2789657 -0.5721545 -0.5367375 0.24738443 -0.03220747 -0.34722131 0.45130736 -0.78598917 -0.7174414 0.19654344 0.43787926 0.5175372 0.7302478 -0.15850462 -0.9080397 0.47185397 0.23778492 -0.25389802
deben -0.26506114 0.043478105 0.033020202 -0.2278388 0.18845245 0.4369298 0.1794551 -0.67828745 0.2536736 0.14689292 -0.13651788 0.82198775 0.7575445 -0.7151541 -0.891214 -0.36877316 0.4986835 -0.19430314 -0.6568889 -0.38163054 -0.65253913 0.57052296 -0.30828246 0.45223522 0.19911753 -0.5417402 -0.24373624 -0.041470844 1.2498794 0.25171697
esperando 1.0158483 0.34125087 -0.016399125 -0.45285192 -0.52255034 -0.7055092 0.76612484 0.5906907 0.2306662 0.026037382 -0.33853123 0.14061803 0.03820651 -0.074199915 -0.9559523 -0.6357648 -0.11597327 -0.6116397 -0.07737013 -0.5674583 -1.1518173 0.5254659 0.8345575 0.15648717 0.75846106 -0.48558965 0.4961442 0.48956624 1.0071017 -0.0026044087
poner -0.6541881 0.3736764 0.5686386 -1.021967 -0.8062423 -0.79092646 0.3951325 -0.50360924 0.009806556 -0.12018352 -0.5275327 -0.19615605 0.40414894 -0.3318203 -1.1879226 0.08678678 -0.5282954 0.07674457 0.6455324 -0.87198544 -0.3569021 0.111803405 0.5516154 0.05337365 0.22605535 -0.22416641 -0.31092376 0.14537469 0.5904098 0.5092299
lleva 0.54382104 0.99576294 0.5684327 -0.27804914 -0.67300546 0.1535516 -0.09020644 -1.4353034 -1.025014 -0.5370824 -0.26353607 -0.35134688 0.17852722 -0.7448619 -0.2843409 -0.021527251 0.06147704 -0.44541153 0.27653876 -0.59939784 -0.57351506 0.53618765 0.48305488 -0.391174 -0.46969354 0.21885963 -0.71544504 -0.02903447 0.5594858 -0.012986664
hogar 0.36036783 0.09174838 -0.027631141 -0.24767604 -1.3311865 -0.4837435 -0.749663 0.13030833 0.031775743 -0.12971671 -0.21626183 1.0546539 -0.20722644 -1.1370358 -0.5374079 -0.26630658 0.2827819 -0.028768674 -0.07231807 0.40491983 -0.65199083 -0.3561516 0.25761005 0.9794182 0.15891312 -1.2609866 0.7117188 -0.112736344 -0.16140941 0.07714686
perdio 0.14263946 0.65742254 0.07783549 -0.26059142 -0.34812638 0.20976213 -0.26425356 -0.24744184 0.09918804 -0.21723965 0.41365016 -0.35372084 -0.20829287 -0.7429111 -1.1257596 0.56462127 0.400629 -0.65004283 -0.12280365 0.013554374 -0.584141 0.048078258 0.019123787 0.6601615 0.5059567 -0.8682998 -0.45622453 -0.15506122 0.34016314 -0.046939664
programa -0.046508506 0.57961607 -0.21852167 0.3288427 -0.59083855 -0.13156071 0.111306004 -0.55877274 0.43819022 -0.37145275 -0.66313744 0.049150445 -0.22797027 -0.7421726 -0.8945207 0.00093948736 0.6005568 0.40608066 0.7735091 -0.9920818 -0.9156496 0.46344295 -0.28723568 -0.2541993 -0.51723105 -0.8192898 -0.3857549 0.10282198 -0.24134944 0.5663074
competidor 0.062769905 -0.5693108 1.0983043 0.011398386 0.06096193 -0.26767677 0.15059738 -0.25478482 -0.5334489 -0.13653994 -0.43271828 0.2553427 -0.091477394 -1.5675972 -0.63625574 0.15747473 0.2866098 -0.49312827 -0.6289729 -0.41179562 -1.1118668 -0.2419443 -0.19309488 0.4760773 0.26704204 0.17526147 -0.3978371 0.28787827 0.5816513 -0.05225905
beneficio 0.2988811 0.28397188 1.4675925 -0.047610126 1.3160926 -0.6392882 -0.013005218 -0.23473538 -0.23186068 0.10936258 -0.3093876 0.6272698 0.23345187 -1.5059745 -0.7633334 0.9575197 0.65091366 0.32337773 -0.31342354 -0.42720982 -0.54667866 0.7349664 0.60347646 -0.28332108 -0.4737938 0.15262398 0.2965425 -0.46804824 0.88276213 -0.51128423
total -0.47078478 0.38688168 0.31658968 -0.658087 -0.26962483 -0.37679282 0.21186721 -0.6993387 0.044826053 0.2973473 -0.6547266 0.4348469 -0.4255967 -0.6531056 -0.76537156 -0.0087530585 0.1869385 0.29469103 0.17111234 0.4170032 -0.5989729 0.2721529 -0.5153632 -0.31231397 0.41455057 -0.17300873 -0.42062426 -0.11296276 0.9161575 -0.35825384
cancion 0.005187258 0.8409808 0.22441162 -0.12789886 -0.29394245 0.15908869 -0.028163882 0.018005248 -0.03395355 -0.5561773 -0.18404214 -0.12992536 0.20507927 -0.18801442 -0.783556 -0.24971995 0.35019824 -0.16447699 0.01883799 -0.34258214 -0.46578702 0.31808698 0.61715347 0.5253903 -0.11688258 -1.063192 0.36119634 -0.41026708 0.9324764 -0.052274454
enviaron 0.15312533 0.24200149 0.21548513 1.0693974 0.2167486 -0.1639143 -0.28470665 -0.36912125 -0.5110112 0.65878934 -1.0724486 0.8801197 0.7966286 -0.60765886 -0.89022636 0.88127744 0.15106864 0.37911984 1.0672936 0.4208408 -0.90073425 -0.17888556 0.19935559 0.75189775 1.0778465 -0.7146902 0.15192352 -0.06476989 0.25643268 -0.69732857
inicio -0.09235424 1.0253166 0.2300091 -0.19811662 0.22992563 -0.19835672 -0.2606409 -1.5017838 0.9323942 0.7595587 -0.4605424 0.3217279 0.31927893 -1.1208327 -0.056204993 -0.15298033 0.62057734 0.02334814 -0.19974932 -0.5590509 -0.90119284 -0.23036261 0.12299087 0.6219503 0.26794973 -0.09832439 0.38813856 -0.76779085 -0.16366561 0.5306687
trato 0.47914034 0.77451384 0.44420913 -0.40012538 -0.42154133 -0.5876588 -0.09490026 -0.5099654 0.036352836 -0.016241193 -0.08397618 -0.004604692 0.18279383 -0.56949234 -0.7972868 0.28641063 0.4524697 -0.40146524 -0.29917282 -0.31613818 -0.7871642 0.24751987 -0.14278837 -0.20474736 -0.082771234 -0.73090804 -0.39996633 -0.48494288 -0.36903536 -0.102955446
activo 1.0285828 -0.012335476 0.036546834 0.9368775 -0.7816546 -0.4606525 0.05632426 -0.12291296 -0.14327344 -0.113526486 -0.2421468 0.44457424 -0.59908634 -0.6047317 -0.84927845 0.090286866 0.0023807697 -0.47311857 0.02235333 0.12893939 -1.1531302 0.59649944 0.24846591 -0.29769576 0.40949848 -0.36370033 0.7774221 -0.07495978 0.27211505 -0.072793014
pasada 0.32520986 0.2546379 0.81235033 0.46548176 -0.46954206 -0.21267886 0.34310663 -1.2815309 -0.7489611 -0.34233025 -0.11063209 0.9246577 0.15080072 0.19415034 -0.65999436 0.5640539 0.49505603 0.43181044 0.49196592 0.06273668 -0.5208558 0.62580216 -0.32298735 0.7911374 0.5540349 0.8304472 -0.45416364 -0.76283115 0.8501235 -0.4222145
proyecto -0.12755904 0.6896997 0.60126483 -0.8154755 0.4569667 0.16671409 -0.32184935 0.20523418 0.03384882 -0.45292443 -0.68350726 0.7300249 0.04620715 -1.1614114 -1.3829739 0.13544428 -0.021257566 -0.5610604 0.5973572 0.28946015 -0.25062513 -0.25305003 -0.11991661 0.2600931 -0.0060971132 0.47259474 -0.367257 0.22550794 1.0482348 0.45032424
hagame 0.6610603 0.62185466 0.07542189 -0.3332622 -0.1756323 -0.18560305 0.100536436 -0.4220128 -0.22795863 0.07916843 -0.57663053 0.40558 0.015607613 -1.038882 -0.51153034 -0.12233885 0.5719031 0.200333 0.12549561 -0.3620849 0.082556464 0.56364685 -0.17141744 -0.06901378 0.5815441 -0.6321955 -0.22728573 0.053935733 0.25212872 -0.08510575
ultima -0.5831667 0.6082249 0.6233998 0.8076189 -0.23409994 0.1843769 -0.2803607 -0.42972988 0.31602892 -0.6654189 0.39134854 0.7416393 0.96696275 -0.92736816 -0.12137963 -0.03979477 0.54586 -0.62223643 0.53757775 -0.25731498 -0.40987155 0.78238255 0.58189 1.1726303 0.95875794 -0.10975574 -0.0781397 0.7106202 0.75982606 -0.51778966
credito 0.11068841 0.88545585 0.7024422 -0.18745199 0.05999243 0.5561645 -0.44177866 -0.093893714 0.2963288 -0.4668072 -0.9274907 0.58866435 -0.99543077 -0.7461014 -0.46209678 -0.98905313 0.9431112 -0.08466583 -0.5109357 -0.36490288 -0.31693056 0.6743623 0.20384775 -0.033994723 -0.067668065 -0.46890613 0.09061724 -0.52658 0.5077055 0.16600996
beneficiarios 0.3914282 0.34214967 1.176334 0.50725216 0.62833464 -0.32470772 -0.18158941 -0.30207625 -0.72567725 0.0947399 0.11784059 1.0037289 -0.081383854 -1.0857434 -0.8344235 -0.22556785 1.1895288 -0.53319985 0.031162392 0.08955985 -0.35867366 0.23281288 -0.3765682 0.6793559 -0.29089966 -0.056091115 0.29834318 0.22419995 0.49882558 -0.0484727
entidad 0.22553009 -0.064474516 0.598203 0.114661716 -0.90619767 -0.15183978 0.05859871 0.017513527 0.0837867 -0.4610911 -0.9314495 0.077256605 -0.462917 -0.8823958 -0.861684 -0.37201688 -0.15462339 -0.47827005 0.095108934 -0.13331342 0.0777925 0.3320975 0.15543681 -0.3813449 -0.39717007 -0.10439649 0.320295 -0.3049315 1.1697767 -0.32020026
minutos 1.4080309 1.0024973 0.062543094 -0.11837307 -0.35193962 0.10283028 0.18135214 0.53922755 0.42263028 -0.6924107 -0.99386847 0.44855627 0.29866254 0.009658137 -0.4296479 0.32528493 -0.07240664 -0.66643995 0.4648558 -0.2523225 -1.223982 0.50456005 -0.30710477 0.73787117 0.40346426 -0.2450309 0.5092764 0.30878425 1.0345541 0.103111036
pandemia 0.46375388 0.6962665 0.89362663 -0.24573296 -0.8367015 0.0491673 -0.0601305 -0.4334623 -0.46106696 0.22640352 0.2687741 1.1980478 0.5021109 -0.28328112 -0.13809833 -0.55470556 0.56030977 -0.26466468 0.3756672 -0.13766451 -0.14863029 0.21844758 -0.1216206 0.2900458 0.84545994 -0.5463696 -0.2872199 -1.0722888 0.31449813 -0.4421148
exactamente 0.05934395 0.72078586 1.0275792 0.2379678 -0.25792912 -0.27257168 -0.44437334 -0.60193735 0.22697462 -0.5160184 -0.18066782 0.69145507 -0.07306664 0.06752175 -0.25664234 0.21686885 0.41062844 0.12550575 0.31794617 -0.46127895 -0.8760457 0.24101874 0.3604834 0.0445516 0.3159025 -0.48811004 -0.15557787 -0.018849077 0.26855364 0.047627218
listos 0.28538486 -0.3418973 0.6114916 -0.949278 -0.76000786 -0.5645901 -0.7204701 -0.45482373 0.20005208 -0.12646666 -1.0574068 -0.5070093 -0.2841947 -0.5529257 -0.19495867 -0.7660288 0.3180612 -0.4562099 -0.13523269 -0.39885283 -1.2499548 -0.03934122 0.14434814 -0.4042978 0.57888246 -0.66253966 -0.9079459 -0.007988853 0.60713094 -0.083486654
atender -0.10972587 0.64411575 -0.014358722 -0.21906435 -0.5040213 -0.73034424 -0.41592216 -0.69339323 -0.44230157 0.14442942 0.14527687 1.2157562 0.3589943 -0.31200945 -0.80235785 1.0910517 -0.15943219 -0.4666874 0.3082044 0.14956571 -0.10478122 -0.07749175 0.6616626 0.8279672 0.026960421 -0.31024167 -0.7766173 -0.117041 0.19473344 0.2463845
averiguar 0.6697412 0.6641944 0.54077077 -0.032402087 0.8199 -0.8179541 -0.08124547 0.11815093 -0.109072715 0.2003248 -0.39912832 0.28424326 0.6506336 -0.7544701 -1.264691 0.09017823 0.4987082 -0.711775 0.36938217 -0.20377746 -0.13752086 0.6756998 -0.15512635 -0.03511797 0.05416288 -0.019257657 -0.2476939 -0.17917001 0.6600164 -0.09629232
volver 0.9087367 -0.0638956 0.56582224 0.17426942 -0.24094036 -0.32580772 0.7647162 -0.24503943 -0.654999 -0.024900384 -0.6733508 0.7884685 0.4151191 -0.164208 -1.2487535 -1.2416109 0.24014825 0.15842088 -0.31266817 -0.4936444 -0.26382324 0.5081583 0.38638538 -0.35179034 0.22657678 0.19202599 -0.45169228 -0.52608097 1.0898508 -0.9843557
autor -0.5720338 0.566375 -0.08896777 -0.4936255 -0.012586495 -0.8605829 0.4265843 -0.58709955 -0.5536291 -0.09820048 0.34987357 0.06358805 -0.11036764 -1.0958067 -0.3237718 -0.2683397 0.20962071 0.05255644 0.55351126 -0.2817593 -0.41214192 0.50476223 0.17332451 -0.07042879 0.9826729 -0.7555457 -0.17912194 0.14351238 1.0155993 0.07875733
hermana 0.5342798 0.21118276 -0.012709078 -0.24751025 -0.65763307 -0.029541545 0.07922471 -0.6053437 -0.28165123 -0.56328374 -0.47425792 1.1068984 -0.3961565 -0.10446175 -1.6723104 0.48204213 -0.23237209 0.40268204 -0.0027217162 -0.25966194 -0.2130132 0.24862583 0.47393405 0.023599103 0.5918936 -0.27555987 1.3434911 -1.2757909 -0.14314513 -1.096796
derecho 0.9448844 -0.24449575 -0.023640364 -0.31933406 0.016204717 0.33979693 -0.22599809 -1.1393393 -0.19899894 -0.04710065 0.046283204 0.11889779 0.4907396 -0.80975336 -0.7157626 -0.50047356 0.3628905 -1.1949978 -0.17345968 -0.25305068 -0.5006163 -0.19392946 -0.2897215 0.31213725 -0.45517245 -0.62095815 0.43984374 -0.46113524 1.7079687 0.7095952
agente 0.12799083 1.2547241 0.07548506 -0.45976728 -0.17756936 -0.364593 0.5220581 0.122355826 0.08938523 0.6598971 -0.63619107 0.19250572 -0.14771931 -0.78896224 -1.1256042 -0.48064908 0.8211213 -0.100862965 0.47792184 -0.17414905 -0.18878822 0.40398374 -0.45177504 0.51955855 -0.18988651 -0.32138544 -0.43518364 -0.72371966 -0.118255965 -0.106798396
quedan -0.14649262 0.2491736 0.36056304 0.066312484 -0.544821 0.31756297 -0.7459618 -0.2928775 0.49069777 0.3223977 -0.46356198 0.02398882 -0.16646065 -0.49138147 -1.3752829 0.31658334 0.47670203 -0.7178901 0.40555376 0.22677085 -0.31302148 0.6239095 0.8216552 -0.34542605 1.3000802 0.21560222 0.6127371 -0.90204966 -0.24216618 0.061931286
preguntica -0.46767858 0.0038740775 0.910161 -0.02067716 -0.19899099 -0.3736719 -0.35635582 -0.3474989 -0.8935268 -0.9412016 -0.8052399 0.6069495 0.2495135 -0.18892816 -0.54422206 -0.7539147 1.0012417 -0.563998 -0.18327758 0.0577019 -0.44299412 -0.05990633 1.2783318 0.39002326 0.27783608 0.4009188 -0.22319572 -0.10608546 0.62285185 -0.21283409
telefonos 0.045446493 1.3093026 0.42856956 0.17293376 -0.24012959 -0.044253737 0.33818308 0.105669074 0.15062279 0.17085946 0.2210335 0.80930877 0.5104668 0.27400595 -1.0642866 -1.6273543 0.68296677 -1.0387052 -0.18658891 -0.87649864 -0.13162656 0.8354804 -0.1670249 0.40787572 1.0254325 0.68263215 0.17364101 0.025756726 1.3866444 0.26328602
examenes -1.5720285 1.2200431 -0.021989347 -0.09015721 -0.47919708 -0.2682371 -0.6231828 -2.0666554 0.38073745 -0.36701027 -0.2012793 0.6083555 -0.20623463 0.2942218 -0.15125342 0.05844271 0.39748502 -0.12378085 1.6753157 0.14117683 -0.51577485 -0.3716664 0.21444635 -0.118779995 0.9024134 -1.0046668 0.5169929 0.09486126 0.6362983 -0.010525599
entendi 0.7182441 0.12422282 0.3044068 0.43415797 0.3101765 -0.31208256 -0.67763543 0.25179404 -0.5340364 0.29590183 -0.93831307 0.31735307 -0.14300244 -0.61340404 -0.41880113 0.7171052 0.71918046 -0.045004416 0.54878455 -0.076703295 -0.6129212 0.60235775 0.8268659 0.23607513 -0.5802261 -0.6419067 0.8534283 0.34629303 1.2320876 -0.24556729
encuentro 0.16943601 -0.18186961 0.14525245 0.47374272 -0.2392509 -0.051692992 0.3980835 -0.7174561 0.42992356 -0.74740756 -0.4711824 0.35509437 -0.25447598 -1.3558152 -0.7413216 0.1519938 0.7942833 -0.6044042 -0.21526337 0.42596167 -0.33567166 -0.41092217 -0.17638382 0.4169925 0.2474308 -0.3506072 -0.38323337 -0.2284949 0.2468441 -0.035858337
normal 0.2117482 -0.1424827 0.69565284 -0.26059356 -0.23631158 -0.3077996 -1.1906612 -1.324056 -0.39885464 -0.45861635 0.36556363 0.8970814 -0.17071396 -0.13500988 -0.23660372 0.2588832 0.6885751 -1.2082835 0.29456395 -0.9070083 -0.33324066 0.11055681 -0.42302874 0.32639542 -0.11179717 -0.598303 0.40576658 0.42177626 0.5610708 -0.82442063
pregunto 0.59945893 0.48498902 0.45257843 0.13673322 -0.50819826 -0.5756979 -0.70581377 0.037356537 0.1912254 -0.19313033 -0.53638077 0.076322295 -0.2384571 -0.3789337 0.48451236 0.7411732 0.8382463 -0.323854 0.41119054 -0.31558356 -0.10048139 -0.3649355 0.3396037 0.32803577 -0.40365112 -0.39224434 0.5734913 -0.67026585 1.4264593 0.44778234
correr 0.45242968 1.1763532 -0.09268691 0.2850572 -0.859 -0.4047028 0.28159255 0.65325475 -0.2778498 0.082436085 -1.2118707 0.17209578 0.30837375 -0.24917425 -0.7698565 -0.0104875285 0.6352128 0.4609855 0.23627923 -0.58653826 -0.4156996 -0.18342723 0.88008165 -0.16224466 0.50133824 -0.55117846 -0.09044029 -0.5913308 -0.19317766 -1.4946233
contrato 0.20046599 1.424563 1.0880808 0.2180164 -0.12927811 -0.35407645 -0.5795181 -0.19370992 0.11660274 -0.016989786 -0.5207617 0.20298953 0.30520087 -0.51690716 -0.5714619 0.5138882 0.33706975 -0.34616706 -0.45691046 -0.806334 0.018483058 -0.051821895 0.8935466 0.1655309 0.7469856 0.9569727 -0.6139452 -0.9169681 0.13396844 -0.63749033
presente 0.003290398 0.8132417 0.7163145 -0.54763913 0.2735681 -0.56969595 -0.54438174 -0.59253 0.14172038 0.060623076 -0.009305901 0.77725935 -0.84074056 -0.35288915 -0.7278547 0.7032054 0.2352136 -0.38810825 0.5165224 -0.15042058 -0.43584716 -0.21800222 -0.18209858 -0.16676922 -0.03792282 -0.95892906 -0.07487334 -1.0585673 0.1542253 -0.36225173
hotmail -0.20067362 0.68628293 -0.24967466 -0.5476505 -1.005267 -0.86770767 -0.03515218 1.0730733 0.8765718 -0.1972719 -0.9796407 0.11124612 0.9823172 -0.47427085 -0.42841944 -0.96576935 0.8576236 0.12601283 1.0490968 -0.10864085 -0.23524597 0.49220723 0.56810534 0.7618168 0.98637563 -1.1729531 0.14880343 -0.8163354 0.5971522 0.42916545
llegan 0.4758925 -0.23800205 -0.08979212 0.5587412 0.027465755 0.28097022 -0.3106965 -0.39598423 0.3230265 0.26003316 -0.61275935 0.39759275 0.748437 -0.7969928 -1.4066212 -0.16647093 -0.50430655 -0.67318374 -0.16004646 -1.0191795 -1.2159176 0.082889944 1.3386492 0.6794631 -0.7814919 0.19178195 -0.08441445 -0.058676764 0.55268747 -0.06817729
color 0.06254332 0.109925054 0.6597622 -0.13671325 -0.5766811 0.377602 0.47356352 -0.62480754 -0.37091014 -0.7220084 -0.23991126 0.09363364 -0.14016995 -0.67085415 -0.011591531 -0.3032178 0.73080575 -1.3458297 -0.29836717 -0.6646527 -1.0124571 -0.18788226 0.07649397 0.26896712 0.68862975 -0.82034117 -0.10478337 -0.39805898 -0.14827603 0.17726833
virtual -0.30575702 -0.11109377 1.5262463 0.093073376 -0.6879059 0.4416117 0.0055580977 -0.7392249 -0.2740576 -0.5996551 -0.4376739 0.32338116 -0.4253406 0.26514906 -0.57010084 -0.11559842 0.8384865 -0.14122692 0.46389556 0.78921753 -0.9107027 -0.36054638 0.4535091 -0.22491583 0.38401544 -0.13908495 -0.027381202 -0.10874181 1.6224133 -1.0316023
importa -0.042450897 0.9582862 1.0587766 -0.286202 -0.15975583 -0.6189 -0.11466549 -0.41096792 0.32252672 0.24479027 -0.52453476 0.3013513 -0.27998638 -0.59110636 -0.6574893 -0.17066984 0.6322805 -0.32532036 0.48791558 -0.4897073 -0.017301332 0.46682605 0.089012936 0.23467006 0.23245348 0.86833644 -0.23956048 -0.109041736 0.11955722 -0.0728019
lunes -0.20864978 0.91249645 0.68357575 -0.022545762 -0.8613814 -0.5463818 -0.2881808 -0.3936679 -0.48310605 -0.27655983 -0.6233884 -0.1308835 -0.85743934 0.36829233 -0.69101083 0.18792112 0.38017812 -0.6439821 0.42896047 0.0021141998 0.086854555 0.83348954 -0.05078592 0.89414877 0.28007367 0.13608986 0.22745025 -0.52814925 0.7644168 0.28017157
estudio -0.15840745 0.41355267 -0.13101311 -0.58668077 -1.0399886 -0.19602695 -0.18746226 -0.67466736 -0.4434477 0.274037 -0.062321763 1.2512175 -0.6096289 -1.1257651 -0.52456623 0.26470268 0.54349047 0.29600164 0.33333832 0.30032215 -1.3380662 0.20537648 -0.29509404 0.27670354 -0.34438133 -1.0373353 0.1508008 -0.48051727 -0.7780722 -0.084868185
urgente 0.29424527 0.37265942 0.44950816 -0.7435663 -0.22768857 0.67629635 0.02703314 -0.036916513 1.2402982 0.15735626 -0.60645926 0.24291103 0.2724637 -0.85462797 -1.404278 0.25681958 0.47750667 -0.2905143 -0.13364652 -0.3509805 -0.16198376 1.365313 -0.3530403 0.3114692 -0.15317897 -0.058945406 1.1692333 0.356123 1.2002271 0.34379423
poquito -0.5703689 0.19724956 0.6421634 -0.016547207 -1.0422994 -0.47717464 -0.16765031 -0.19214399 -0.3278916 -0.3181404 -0.31482714 0.48428202 -0.21612152 -0.49531993 -0.6686612 0.24722904 0.8992193 -0.9368754 0.13830073 0.9285609 -0.39309537 0.53647476 0.71327704 1.339765 -0.22821401 0.46616694 -0.5046171 0.48652318 0.72010934 -0.44880694
llamarn 0.03316433 -0.23086676 0.13302639 -0.09732566 0.14537288 -0.6695751 0.55720526 -0.33337554 0.028904267 0.48593 -0.5548912 0.71932685 0.338748 -0.038980115 -0.98317814 -0.09547499 0.32250163 -0.49877104 0.31172672 -1.0550288 -1.2262723 -0.32623062 0.34579602 0.19973284 0.3529966 0.0017587608 -0.493338 -0.16329643 0.114615835 0.032999117
titular 1.143583 0.18410932 1.5153463 0.40547967 1.0779536 -0.87277085 -0.31665587 0.06960182 1.3292532 0.63145477 -0.59358543 0.6223865 0.16967498 -2.102895 -1.6540711 0.039179567 0.61758673 -0.21590625 0.735632 0.48179126 -1.0568115 -0.19236887 -1.0849867 0.24306066 0.17633444 0.30414182 0.09458861 -1.188179 0.16097127 -0.16283283
realizar -0.32628888 0.17356838 0.3463061 -0.049103297 0.032167483 -0.009445356 0.12463447 -0.25425613 0.027086118 -0.1585617 -0.55747634 1.1808044 0.20332263 -0.97178644 -1.0373855 -0.10226346 0.798253 -0.12465366 -0.23645972 -0.123093836 0.6596484 1.1264147 -0.82361066 0.04832293 0.6818468 -0.86246306 -0.27246997 -0.036517557 0.48572904 -0.58434373
vacunas -0.7156141 0.34675688 1.1073472 0.79188895 0.37187257 -1.6230029 0.10236604 0.91397977 -0.11134745 0.2302087 -0.46278006 0.46570787 -0.2893599 -1.3133829 -1.2488376 0.5647216 0.86059767 -1.1163533 -0.55731285 -0.4144002 -0.5926747 -0.53447217 0.6342983 1.3611736 0.45696387 0.460944 -0.45600298 0.9672362 0.2851783 -0.84375334
formulario 0.43552962 -0.14421502 0.59239936 0.7557863 0.31922007 -0.60550505 -0.15941311 -0.69423014 -0.10167455 0.80732965 -1.1047788 1.3358055 -0.6547901 -1.4070938 -0.77570534 0.23442137 0.40205616 0.7949068 0.40419608 0.22787602 -0.14650549 -0.16334371 0.63730127 0.35572365 1.0905548 0.1419846 -0.6258121 0.7723023 0.6096182 -1.0330912
sede -0.73600644 0.2740343 1.0172272 0.14374371 -0.91060686 -0.06380439 -0.026621245 -0.28546408 0.02357331 0.16547778 -0.11346851 0.88033146 0.028614005 -0.027476491 -0.5107938 0.09351551 0.6864899 -1.0969069 0.9286461 -0.35276976 -0.08595674 -0.5007501 -0.46431017 -0.41189283 0.76656985 0.41119674 0.12437363 -0.7616185 0.7410823 -0.4006378
familiar -0.05306336 0.8436903 0.29022023 -0.5265371 0.6259142 -0.7833194 -0.20262693 -0.119059354 -0.5466124 0.3238706 0.7862529 0.75370055 0.086451404 -1.7420486 -0.09849923 0.8159511 1.0518109 -0.22581175 -0.26313934 -0.6881937 -0.75841045 0.5632527 -0.20702833 0.34519377 -0.16009887 -0.30626532 0.19139981 0.05791331 0.4943532 -0.749575
plataforma 0.08637099 -0.855833 0.6907762 1.0165029 -0.21490547 -0.030769946 -1.1094801 0.28786734 0.13576792 -0.46783832 0.22206418 0.9111049 0.36835974 -0.70487547 -1.174718 -0.5378405 1.2956434 -0.2312221 -0.8073047 -0.9617848 -1.0755497 -0.6416243 0.022025853 -0.1719019 1.1853713 0.48864204 0.36053833 -0.6051395 0.6326639 0.32296148
central -0.111221164 1.0272428 -0.5957074 0.9656559 0.97563154 0.022675956 -0.18668947 -0.6034582 0.73833907 -0.7763764 -0.65560067 1.3810561 0.74396855 -0.6123799 -1.5734696 0.17613934 0.8087011 0.21020357 -0.9997279 -0.8949648 0.023003161 0.033690885 -0.32577842 -1.0023117 0.344206 -0.13078871 -0.5877326 -0.36571762 0.9723375 -0.39185488
amables -0.7080785 -0.2844299 -0.15343933 0.006952248 -0.91371685 -0.46174008 -0.66324556 0.21157527 0.37380606 0.34079334 -1.1063414 -0.055572856 -0.096253864 -0.24633528 -0.54453325 -0.15851638 1.0352483 -0.6951513 -0.24829186 0.0014409678 -0.6852315 0.090999596 -0.11757124 -0.27042994 0.18733883 -0.5773626 0.34959653 -0.40387163 1.0539658 0.09427187
agua -0.1511355 0.28501877 0.19613068 -0.32807338 -0.13103956 -0.8503074 -0.06817991 -0.44766876 -0.1871165 -0.10716827 0.19501263 0.45887563 0.106516965 -0.11690104 -0.89005744 0.6444644 -0.14100277 -0.30753222 0.65300393 -0.10165578 -0.3783229 0.85115594 0.18182187 -0.013506625 -0.7004322 -0.85210496 0.024166718 -0.16190651 1.4248986 0.06323807
realidad -0.17182116 0.11134554 0.95366716 0.06400095 -0.28372926 0.31236088 -0.45760292 -0.26301524 0.3029657 0.09602855 -0.18129708 0.4011668 -0.94871765 -0.78165734 -0.4909235 0.037898913 0.9683324 -0.0011514551 0.22122686 -0.10309493 -0.2821744 0.33409214 0.51178104 0.1905662 0.31629273 -0.7987554 0.526887 0.2573886 0.54728353 0.41058943
entro 0.21531154 0.088003315 0.052802384 -0.5525728 0.014712844 -0.56996953 0.59233266 -0.8488054 -0.12951459 0.23666365 0.17417124 0.261265 -0.7037535 -0.75174075 -0.72458637 0.23599829 2.0863552 0.1313422 0.042606372 -0.3077359 0.024663912 0.58961374 0.28834018 -0.6750251 -0.33643857 0.053002536 0.7315 0.0031098851 0.43802962 -0.48660055
encuentra 0.6589707 0.79842687 0.043872595 0.38476282 -0.84709513 -0.76168317 -0.14032345 -0.9442045 0.18941139 -1.0713704 -0.28062832 0.2539974 0.19330248 -0.5148358 -0.3675795 0.30375805 0.07792139 0.12622361 -0.45356217 -0.55326104 -0.84102094 0.4107336 0.47322425 -0.08365709 -0.22903217 0.40721923 0.97063386 0.058138613 0.35485494 0.27003774
policia 0.17550193 0.81949204 0.27712977 -0.3992166 -0.61289567 -0.45546252 0.47000045 -0.06342801 -0.47628897 -0.25285107 -0.6694508 1.1870738 0.9561137 0.030504525 -0.6488632 0.26103038 -0.10161579 0.25851786 0.8093859 0.030227685 -0.6486716 0.5921517 0.58550113 0.6844958 0.48195547 0.13553585 -0.29381138 0.63486266 0.82113355 0.5722912
efecto 0.72779953 0.23868285 -0.100591004 0.28409338 -0.38585696 -0.806487 0.2847843 0.017125549 0.18032141 -0.18647163 -0.90269005 0.15043658 0.15554385 -0.38540545 -0.14672813 -0.2973631 0.7312174 -0.9372851 0.6379061 0.5619908 -0.7800184 0.9215024 0.57373405 0.34654424 0.17109056 -0.5141131 0.4493688 -0.38466206 0.6031862 -0.971742
aparecen 0.4453281 -0.049536552 0.586235 0.71344876 -0.30094442 -0.51944774 -0.33956927 -0.46667293 0.052114557 0.09909789 -0.18602073 0.26184225 -0.023254436 -0.3976252 -1.1733493 0.4221546 0.27597114 -0.005741599 0.0004716583 -0.7246289 -0.9188841 0.24624291 0.08468571 0.28933364 0.28192386 -0.10942489 0.68432355 0.1663734 -0.039496403 0.14991613
maneras 0.33876637 0.9406183 0.69199353 0.5655451 -0.07797245 -0.45733774 0.8904867 0.045973007 0.092010014 0.4588312 -0.7075515 0.36373892 -0.6995989 -0.37604487 -0.947428 0.21817966 0.78844386 -0.76726633 0.070993975 0.05321492 -0.9144788 0.15586522 -0.14580207 0.11346446 -0.70775163 0.08367765 -0.53015447 -0.043112114 0.3679911 -0.9185259
hijos 0.49204728 0.8866845 0.9310833 0.88551176 -0.22343312 -1.2268245 0.29002848 -0.13791329 0.12645991 -0.0396403 -0.27109197 0.7158129 0.48263654 -0.36084095 0.47218126 0.6720975 0.387374 -0.5961178 0.41613236 0.03462916 -1.172144 -0.088797145 0.06649991 -0.76235515 0.57498276 -1.1497333 0.038373146 -0.76795036 0.40697443 -0.77233475
llegado -0.45010385 -0.5170334 0.057136614 -0.18593206 -0.08136984 -0.7670396 -0.035922855 -0.10048983 -0.81091356 0.28118974 -0.13632345 0.9554242 0.2021024 -0.22202557 -1.5331029 -0.038835786 0.033988714 -0.15432125 0.60748154 -0.20749696 -0.060927104 0.38548803 0.79109377 0.4749652 0.22950082 -0.310481 0.004300601 0.30189034 1.1428303 -0.12310254
trabajando -0.26658642 1.00367 1.0873995 0.111068666 -0.6053781 -0.42327622 0.5412685 -0.37864456 -0.9550094 0.0211027 0.3589514 0.63788414 -0.2281892 -0.48674926 -0.5870555 -0.20195042 0.9758475 -0.5555464 -0.05765607 0.52310395 0.0114172865 0.03664695 0.3881657 -0.17558502 0.54521817 -0.061121784 -0.22088468 -0.85082054 0.35401335 -1.3855646
comunico 0.36361042 0.4963639 0.731285 -0.45996103 -0.45373073 -0.6983882 -0.51787835 -0.31625572 -0.48188865 0.25336248 -0.017285552 0.9011314 0.08691546 -0.15897858 -0.62779087 -0.43821046 0.046778373 -0.5011927 0.3726111 -0.31230435 -0.113020465 0.76599365 0.7567494 0.31768736 -0.5027381 -0.47461396 1.3803121 -0.4725332 0.6467282 -0.4138692
atendiendo 0.17453164 0.6951765 1.0496832 -0.88761723 -1.4613326 -0.6768772 -0.102991745 -0.5655458 -0.7195114 -0.027765634 -0.3989916 0.19555908 0.5159357 0.028585996 -0.41409132 -0.43382454 -0.3923409 -0.65915555 0.7413454 0.62073696 -0.20637314 1.3715005 0.20954126 0.57454467 0.7816664 -0.2566509 -0.57308054 -0.3120692 0.8997075 0.7110762
nombres -0.28592083 0.71929204 -0.7393724 0.3298927 -0.9039298 -0.5417739 0.3487056 -0.4577692 1.0891484 0.028412797 -0.21127467 1.0200022 -0.046983495 -0.75897694 -0.3713902 0.007788139 -0.06907544 -0.37837234 0.48850763 -0.58188725 -0.56484526 -0.45996004 0.19032884 -0.98165005 0.4380425 -0.41767362 -0.5397977 0.44314802 0.94240475 0.46972767
equipo -0.32212597 0.0069057057 0.6597954 0.054565966 -0.6127175 -0.098295316 -0.18191633 -0.30417484 -0.03771994 0.7922074 -0.35881725 0.5469566 0.23595344 -0.7463911 0.073386736 1.0541614 0.029485958 -0.13361499 0.79636544 -0.5442091 -0.13087964 -0.16522597 0.15478909 -0.107241414 0.09211472 -0.6930386 0.38181126 -0.8670322 1.239507 -0.13633022
actualmente -0.05946109 0.5829763 1.023453 -0.045551553 0.11424896 -0.70276344 0.13831788 -0.5331458 0.026222443 -0.4914362 0.08610374 0.23790923 -0.07289029 -0.86946803 -0.83409625 0.7282641 -0.29766798 -0.5575105 0.28622636 -0.36548704 -0.05934325 0.1772034 0.5736807 0.30317083 0.9595766 -0.13766608 -0.021828169 -0.8075909 0.22293617 -0.14627275
debil 0.3451089 0.4730522 0.272941 -0.17261481 0.033022605 -0.26793265 -0.30401343 -0.34201762 0.109660186 0.23228474 -0.853927 0.41380778 0.5430999 -0.2512832 -0.7145367 0.44061327 0.25694665 -0.051297124 0.32267293 -0.48478723 -0.8183062 0.14984336 -0.44331756 0.10813765 0.09691259 0.41791648 -1.1399688 -0.14421374 0.9344663 0.1454619
abajo -0.24429582 0.32382008 1.0357449 -0.25199333 0.3048716 -0.44505605 -0.30039424 0.22865303 0.43444952 -0.41629517 -0.31344908 0.3869318 -0.6234989 -0.67448866 -1.2142457 -0.53166544 0.65999305 -0.061586216 0.62777257 -0.15139887 -0.5721625 -0.11724313 -0.15171532 0.32570356 0.104242556 0.13386944 -0.47238943 -0.5327034 0.5935772 0.17653309
clinicas 0.042943634 1.1869862 -1.0839113 -0.41824904 -1.4400022 0.36769086 -0.20027052 -0.9666928 -0.035140373 -0.42354158 -1.4058391 0.056081567 0.60462475 -0.3833151 -0.8210972 0.81505513 0.09105211 -0.71869683 -0.54924685 0.10854941 -0.49779788 0.34482965 -0.21440661 -1.088326 -0.26461136 0.058547348 -0.13977565 -0.63277423 0.9315509 0.4502658
hacerlo -0.22184321 0.09770532 0.38153014 0.124005966 -0.25081488 -0.35958162 0.36187932 -0.66480196 0.0072741434 0.23153213 0.027748704 0.29799414 0.3219086 -0.53759784 -0.8555654 -0.77886444 0.29104495 -0.98835033 0.17377718 0.09448555 -0.82276833 0.89893484 -0.24187037 0.23558675 0.96001756 -0.7030543 -0.26632088 0.034020606 0.45905995 0.535239
citas 0.6110825 0.0033996864 0.68328136 -0.334051 -0.14147222 -1.0594136 -0.19497311 -0.3179386 0.26883355 -0.11544975 -0.10986148 -0.38075128 -0.40951127 -0.9433247 -0.8955548 0.24829839 -0.4881457 0.03460554 1.2716455 -0.56276184 0.090788074 -0.42271197 0.17468691 0.43099317 0.78240716 -0.38620567 0.2842988 0.013799434 1.2429484 -0.28289413
prueba 1.1283443 0.21228379 0.4648718 -0.65056115 -0.43522796 -1.0269555 0.0813857 -1.774652 -0.43313482 -1.4807671 0.22207458 0.75346327 0.42975846 0.4193877 -0.08902496 1.8056724 2.0381515 -0.00024084799 0.26460359 -1.2132871 -0.124673575 0.2165414 0.32048967 0.6298483 0.5397533 -0.20001945 0.69575673 0.547685 0.17256097 -0.2978956
perdida -0.56914824 0.5063221 -0.30860922 0.3859774 -1.8107566 -0.94832546 -0.11434483 -0.43922085 0.13384981 0.23687449 -0.24008699 0.6266106 -0.3547292 -0.6296142 -0.38534254 0.081612654 -0.081726894 -0.28667206 -0.07061203 0.3089381 -0.4408746 -0.22631682 -0.043452583 0.32282406 0.9634097 -0.88372403 -0.28519955 0.63464534 0.42068923 -0.0961636
edicion -0.13352183 0.6911788 0.08446951 0.086222135 0.018277222 -0.124261096 0.34540913 0.09659531 0.36985564 -0.6503085 -0.4790238 -0.22979864 -0.32311153 -0.38926423 -1.8186442 0.6668297 0.54706645 0.12588434 0.5843051 -0.36738312 -0.048207168 -0.6736182 -0.5076772 0.05214758 0.13666138 0.09921073 -0.8550769 -0.91297245 0.8193395 -0.37037167
validar 0.3496198 0.18523672 -0.115428984 -0.4240342 -0.25364375 0.12907726 -0.6646169 -1.2941338 -0.7192801 0.028584398 -0.30797437 -0.6134363 -0.9271542 -2.1066902 -0.48875287 0.02395138 0.43529353 -0.63948625 -1.0073144 -0.23858774 -0.2180126 0.22988671 0.69406974 -0.44563413 -0.5680176 -0.56924725 0.11888603 0.054263856 1.3427763 -0.22258134
comunique -0.25680485 -0.22781143 1.0193573 0.42369786 -0.65426266 -0.7108713 -0.0318208 -0.49981347 0.20454067 -0.32886097 -0.22640245 1.1048619 -0.33881027 0.21037641 -0.3566001 -0.5544259 0.4741597 -0.022604609 -0.4205471 -0.6827315 -0.84009355 0.8451126 0.6880514 0.35103965 0.732555 -0.30792534 -0.45576143 -0.37098387 0.22529735 -0.53380626
traje 0.24097563 -0.0065437416 0.12752566 0.12448189 -1.0238006 0.7238299 0.033337746 0.13446943 -0.46633726 0.7187954 -0.381985 0.36765325 -0.10563496 -0.877888 -0.83842355 0.27508733 0.5035292 -0.44836915 0.22335826 -0.34343985 -0.27798223 0.44951296 -0.17547311 0.47279242 0.34121865 0.08976046 0.30268627 -0.5247719 0.4570718 0.48725817
loco 0.14374863 0.39136973 -0.44196853 0.08070885 -0.43368277 -0.5107352 -0.43327752 -0.28837433 0.23222238 0.63105536 -0.09749973 0.8631686 0.5121118 -0.47974467 -0.69425905 -0.054255754 -0.09572825 0.54842645 0.7218904 -0.09423233 -0.54048395 0.31006384 0.13873594 0.49890774 0.62730813 -0.7807858 -0.004955023 -0.45360962 0.81793994 -0.14011887
especie 0.059331242 0.30394965 0.19477318 0.35865518 0.103857055 -0.7108502 0.07365319 -0.043917276 -0.3414828 -0.30583262 -0.6987563 0.32171994 -0.29866982 -0.6176473 -0.8406521 1.0482323 1.2253052 -0.57067966 0.59812033 -0.6034309 0.20943062 -0.30329 0.5927013 -0.5586028 -0.81708455 -0.3010583 0.5409779 0.32030517 0.65672606 -0.44562483
quede 0.6222665 -0.034724146 1.0450101 -0.30447587 0.11267689 -0.88098705 0.16374066 0.2289758 -0.10580038 -0.6036651 0.047934968 -0.3510853 0.5015051 -0.35696036 -0.03533868 -0.070203364 0.95382667 -0.5517814 0.18585427 -0.26889554 -0.95217216 0.7783825 0.65687734 0.2709252 1.1272912 -0.8436188 0.3030279 0.8367142 1.4103888 -0.6075982
acabo 0.41787976 -0.11455998 0.07122264 -0.5642372 -0.61219716 -0.2544469 -0.034067728 0.5780443 -1.3798653 -0.30852592 -0.24813399 0.4850686 0.30136293 0.039047893 -0.56723815 0.03988392 0.89364016 -0.63029647 0.6680154 -0.64639384 -0.5238715 -0.39530239 0.29361936 0.9521944 0.88136536 0.21657965 0.025414774 -0.55893886 0.7375575 0.16018708
sitio 0.8294463 0.39836666 0.85339874 0.48602566 -0.34980288 -0.79502314 0.26314062 -0.25414616 1.2905219 0.3671426 -1.0740509 0.85397464 -0.1281502 -0.5211838 0.24029905 1.0063698 0.5564672 -0.52666545 0.9391067 -0.6218836 0.4548305 0.08265716 0.3844236 0.042658705 -0.20384662 0.703336 0.6448202 0.0076774834 1.3241222 0.13566896
viendo 0.058795936 0.95707923 -0.6143342 -0.3685409 -1.1805725 -0.078861296 -0.24967849 -0.8860157 -0.00856226 -0.7192855 -0.105229184 0.23881596 0.9321826 0.0040315837 -0.627564 -0.78431094 1.5315799 0.97371733 0.28263143 0.33613852 -0.6442914 -0.16451779 -0.08048725 0.45795915 0.6223937 -0.7539107 0.044984218 -0.8884159 0.12832245 0.69847524
crimen -1.0103915 0.28213534 -0.5961677 -0.15493251 -0.7968892 0.052816626 0.10622127 -0.66781443 0.8505113 0.39661998 0.052111167 -0.11830348 -0.23475164 -0.3596118 -1.4103708 0.24962549 0.6820193 -0.27878028 0.11759677 -0.17789792 -0.19912976 0.41666013 0.43864015 0.36122844 -0.21941367 -0.36283022 -0.0030901316 -0.10389476 0.7093228 0.12957795
compania 0.09480504 0.7745604 0.49245864 0.20019405 -0.8744703 0.2607629 0.68577087 -0.06925206 0.8543897 -0.1906446 -0.39564767 0.8372365 -0.7281258 -0.84071624 -0.5594273 0.13906232 -0.32010537 0.37408966 0.19911437 -1.1451305 -0.41318733 0.027846757 0.6196976 -0.84467 -0.33013916 -0.18442786 -0.06633878 -0.8886038 0.75564 -0.07906273
clientes 0.6959574 1.1235765 -0.41302177 -0.35679403 -0.7275018 -0.7157645 0.096292794 -0.4834747 0.19636764 0.08655298 -0.23237517 0.05224996 -0.42994013 -0.47008386 -0.64022 0.5308187 -0.02631807 0.5502191 -0.65110517 -0.5788134 -1.142814 -0.13937908 -0.09315249 0.34292614 0.3200037 -0.12231351 0.41382235 -0.4245421 0.33039176 -0.3617766
debido 0.39284775 0.644672 0.7357325 -0.20138325 -0.24375597 -0.31679067 0.09056761 -0.51280534 -0.3501821 -0.18562996 0.35840306 0.92936647 0.42845583 0.017561067 -0.8724963 0.5466323 0.20501226 0.35274503 -0.09775744 -0.05474647 -0.69656163 0.11065779 0.20596372 -0.6042186 0.48363614 -0.4258317 -0.5509008 -1.4671962 0.44554725 -0.18622473
haria 0.39337787 -0.10520997 -0.17131792 0.45313033 -1.495071 -0.8979612 -0.23318172 -0.51144195 -0.43784302 -0.016305976 -0.33047995 -0.029222064 -0.5028496 -1.0210366 -0.9439413 -0.033811748 0.32691306 0.56594074 0.5249249 -0.18989456 -0.84838504 0.59430426 0.26904967 0.2313285 -0.46029484 -0.46443033 -0.2839497 0.48019648 -0.24850231 -0.26195872
actualizar_datos 0.11659348 0.06308274 0.5210608 0.44608268 0.8345502 -1.3062366 0.26260772 -0.23078643 0.4472682 0.23808402 -0.17649163 0.61100024 0.44582546 -0.7053832 -1.2923414 0.42778847 0.7434279 -1.1306261 0.5523683 -0.30250457 -0.23407286 -0.3144728 -0.15901312 0.46545807 0.8343858 0.4635876 -0.6825305 -0.18438214 0.4027669 -0.26674905
puedan 0.023455916 0.21544896 0.19000964 0.13634786 -0.7005463 -0.33091813 -0.6228516 -0.77708244 0.25345263 -0.086416185 -0.21850732 1.2679011 0.48676753 -0.39280626 -0.7419226 1.1238794 -0.0132876625 -1.0231923 0.35295793 0.17236203 0.43230322 0.72978956 0.32451522 0.71939445 -0.22120838 0.38740647 -0.1428719 -0.25805622 0.75012505 0.6739749
solicito 0.52326024 0.52594167 -0.5959612 0.15032612 -0.090675324 -0.576545 0.16298996 -0.65313786 0.0648128 -0.0941325 0.11857787 1.1022006 -0.011781655 -0.9316451 -0.4322777 -0.49142838 -0.20455526 0.13755308 0.3871342 0.010025131 -0.8637717 -0.3255326 -0.4759481 -0.6404234 0.58709824 -0.38424915 0.68312174 -0.38449278 1.424478 0.44771516
intencion -0.23340532 0.30410996 0.27407303 -0.23039697 -0.5102661 -0.09811739 0.2846573 -0.318771 0.389916 -0.3186571 -0.7480726 0.5362622 -1.1288304 -0.3671762 -0.8124353 0.2750556 0.7487507 -0.92641395 0.35673407 -0.4019922 -1.0973663 -0.05608155 -0.11579894 0.4535667 -0.19839452 -0.24441446 -0.1129087 0.4758779 -0.4402673 0.39683288
pensionada 0.44959134 0.8455525 0.7207404 0.6541699 0.28857717 -1.2359117 0.4471433 -0.23381795 -0.14581494 0.21864341 -0.3004359 0.042917587 -0.12789775 -0.3783952 -1.0515577 0.69618934 0.2356703 -1.1760479 -0.22245708 -0.25719553 -0.5656457 0.21349616 -0.29906547 -0.60979927 0.41164356 -0.06698626 -0.7913674 0.3458416 0.7932599 -0.3825236
obviamente 0.5934173 0.6408664 0.27171385 -0.1360015 0.12385722 0.71940315 0.33279932 -0.89092654 -0.8004011 -1.2074876 0.63011533 0.3575249 0.44110313 -0.4576898 -1.338177 -0.048670515 0.92401385 -0.2532564 0.27687547 -0.71336865 -0.73398465 0.13195543 0.112530336 1.045049 -0.42532846 -0.43030053 0.33293307 -0.08806568 0.17256069 -0.48672774
actualizar 0.08933465 -0.48799726 0.8457985 0.1544848 -0.0017755448 -1.5460782 -0.28487378 -0.69095665 0.2626261 1.1567457 -0.6033644 1.1487676 0.014972433 -0.4360848 -0.769178 0.008868704 1.141879 -0.2514957 -0.32452554 -0.22435826 -0.4868146 0.2959573 -0.07018207 0.107976586 0.8557953 0.4298939 -0.27808 0.41852432 0.25981733 0.6563162
dosis -0.7041447 -0.33365506 -0.14546265 1.3718202 -1.0227437 -1.1201135 -0.119383544 -0.37428766 -0.04682371 0.4646875 -0.4672129 0.14171697 -0.6637382 -0.5585607 -1.3169289 -0.17484176 1.205522 -1.2843627 0.9454022 -0.14976339 -1.1583794 -0.59849095 0.35338488 2.1709306 0.5024894 1.4044424 0.16908495 0.036308635 -0.036773097 0.6575763
recuerda -0.32560354 0.057893764 -0.5842627 -0.30419782 -1.1410458 -0.43570417 -0.255943 -0.8192109 0.29976982 0.5857812 -0.96480346 0.034385756 -0.51265436 -1.2267125 -0.039934546 0.65981865 1.0820253 -0.24164368 0.25265342 -0.33978477 0.024524372 0.40941998 0.12864524 -0.62968963 -0.11899647 -0.76744926 0.10943618 0.61897296 0.79494834 0.12354005
contar 0.5201014 0.86921686 -0.49061236 0.26549473 -0.49810094 -0.23395011 0.9568041 -0.8993979 0.030581106 -0.47804773 -0.5587125 0.62704253 1.1090767 -0.3126898 -0.28748712 -0.5683986 0.19160308 -0.8313531 -0.6096925 -0.9925117 -0.99330795 -0.42257443 0.24925846 0.21726443 0.27259156 -0.15953606 -0.37761268 0.16724914 0.4039069 0.5340255
dificil 0.74750626 0.44892502 -0.2852699 -0.42830387 -0.905913 0.24432865 -0.7855477 -0.61643666 -0.0057253432 -0.47908413 -0.27906272 1.0556301 0.45769367 0.48851493 -0.71483594 0.5775883 1.498932 -0.9396887 -0.7295446 0.72195214 -0.41075817 0.28371862 -0.28141695 0.14392671 0.68315786 0.135691 0.12764974 -0.6763925 0.6983186 0.6764073
venga 0.86661005 -0.12904727 -0.15406643 -0.31731388 -0.32058245 -0.3953812 -0.23671442 0.10484273 -1.3850611 -0.19507377 -0.5542516 0.2623109 -0.27675787 -0.57574016 -0.85984606 -0.20074521 0.34390882 -1.2163891 0.3533215 0.14862378 -1.1634018 -0.23732771 -0.005616718 1.1668998 -0.20442778 0.67797303 -0.038956437 -0.032608498 1.1910185 0.56570745
colocar -1.1351777 -0.12521045 -0.23924597 0.21773183 -1.0305383 -0.71727866 0.1789728 -0.31938267 0.94640183 0.57408565 -1.1064897 0.76200193 -0.6496453 -0.010073942 -0.38455823 0.07862375 0.611555 0.08147024 0.38262007 -1.3691086 -1.2880716 0.05005932 0.33454025 1.6276293 -0.050022546 0.60191107 -0.051654074 -0.27956995 0.41541398 0.47199395
seguir -0.16154149 0.7148334 0.61938494 0.32313713 -0.083578505 0.3439822 -0.414916 -1.1420307 -0.48644572 0.30138513 0.29782635 0.35969192 -0.07221286 -0.30430046 -1.1088824 0.092118844 0.28011546 -0.028062018 -0.15497428 -0.7181729 -0.28656664 -0.056375634 -0.09550462 0.79005164 0.8354457 0.34376407 -0.39338884 0.13935867 0.7382968 -0.6621341
maldicion 0.12652636 0.27463895 0.15387185 1.3320909 -0.4343352 0.21981068 0.25526747 -0.7605922 0.17752357 -0.2990623 -0.3926078 0.411891 -0.51274216 -1.046835 -0.08098552 -0.48360246 1.040329 -1.217726 0.49754518 -0.061506376 -1.1624066 0.32349768 0.13587959 0.28977144 -0.45303622 -0.25412264 -0.22691779 -1.0089114 -0.3026283 0.41327107
acaba 0.9729032 0.40523806 0.34446183 0.73075676 0.2011401 -0.51883423 0.52941656 -0.6376911 -0.4867115 -0.15305312 -0.05029209 0.66719687 -0.097490124 -0.71642107 -0.27344865 0.43151206 0.3226799 -0.2553177 0.97665995 -0.636738 0.24712652 0.17830893 0.8683627 0.03452985 0.021037286 0.19732285 0.4030167 -0.040641993 1.1546009 -0.6545394
entendido 0.051132448 0.24108386 -0.033530965 0.08517064 -0.607949 -0.32355118 -0.88402474 -0.4533542 -0.6884463 -0.48946336 -0.4734419 0.92847013 -0.22532104 -0.47640374 -0.30530939 0.26617888 0.6648173 -0.29301944 0.82799447 0.042073954 -0.22079578 -0.0089526875 0.6669979 0.58822757 0.53745526 0.16620246 0.513313 -0.20790151 0.11523962 0.5592033
correos -0.08122987 -0.71592593 0.08172962 -0.042349238 0.25220647 -1.5385865 0.10051313 0.16480389 -0.6881321 -0.13308363 -1.2665073 0.1509091 1.2982157 -0.3367192 -0.44631815 0.17567445 1.0360909 -0.28117922 -0.279229 -0.26463866 -0.5363035 -0.6037054 0.9683756 0.65950894 0.88784087 -0.21185139 -1.0302134 -0.3589182 1.2777177 -0.022026815
linea -0.8412391 0.33488634 -0.08637087 0.3418354 -0.8579051 -0.6496448 -0.08014362 -0.29014558 -0.42693955 -0.7375829 0.120063536 0.7408956 0.05996963 -0.04780103 -0.04700661 -0.14791907 0.8321055 0.14985484 -0.06877599 -1.0659057 -1.2213844 0.08530639 0.22266532 0.5379545 -0.33439243 -0.27713963 1.109981 -0.08825779 0.7816981 -0.032095373
activa -0.21990372 0.53106993 0.955118 0.42915785 -1.2762649 -0.9529475 -0.4303012 -0.5447284 -0.09953776 -0.77284646 -0.48776186 1.3954523 0.056833964 -0.5662988 -1.010368 1.1083187 -0.6692723 -0.111179 0.023157047 0.1642224 -0.79613554 -0.40659764 0.83924776 -0.048636515 -0.5660848 0.2314915 0.55335516 0.42341152 -0.16586632 0.06910601
preocupa -0.2838147 0.7534054 0.089986004 0.4363985 -1.364526 -1.3081021 0.028740164 0.03882124 0.06481766 -0.4283613 0.6115584 1.6126829 0.19887109 0.20898025 -0.96648204 -0.29794034 0.67890507 -0.32756838 -0.15846209 -0.22763696 -0.34870285 -0.11479811 0.13704854 1.293952 -0.25192824 -0.25419995 -0.24025263 1.0094155 0.79462165 0.7771745
septiembre 0.39678404 0.33071607 0.26212564 -0.16953745 -0.072990544 -0.41316226 -0.22298174 0.20059249 0.060937323 -1.1990557 -0.899532 0.81518817 0.7912087 -0.10277555 -0.67505544 0.3965233 1.2726355 -0.080124475 -0.1499955 0.9958808 -0.6563826 -0.339524 0.73063713 0.81270474 0.9163367 -0.07577486 0.8295145 -0.74982023 0.5949229 0.45780623
importante -0.3841972 0.36990803 0.42219687 0.19163883 -0.724771 -0.498381 0.19211406 -0.51964796 -0.10725016 0.45782855 -0.2023918 1.012492 -0.45703793 -0.026980408 -0.7526491 0.12282978 0.1950478 0.98326886 -0.22714387 0.22423832 -1.5581235 0.22049716 0.48519352 0.21210705 0.30993572 0.5090848 -0.022420382 -0.074853025 0.96525365 -0.40234485
indica -1.0172939 0.59646755 -0.27519953 0.04827597 -0.5196095 -0.91350305 0.13729033 -0.3831163 0.1970912 0.43344823 0.25804985 0.45587453 -1.1431301 -0.0755422 -1.041852 0.043456327 0.21126373 -0.5349691 0.16750292 -0.57421905 -0.6359218 0.1455184 -0.15565012 -0.4687136 -0.43882245 -0.12395698 -0.18473506 -0.45638976 1.3421456 -0.6429051
tranquila -0.45020276 -0.40446073 0.40785363 -0.8329773 -0.34072155 -1.2291702 -0.05624817 -0.35916582 -0.7321615 0.2562366 0.05433458 0.1513259 0.17715068 -0.21558958 -0.8999069 0.23433416 0.2235963 -1.0121092 0.76116496 -0.27726397 -0.723301 0.49550435 0.3842208 -0.23055963 -0.18133357 -0.40129676 -0.88096595 0.6996667 1.2632732 0.5022184
porciento 0.0415036 0.3062425 -0.5607559 0.06543813 -0.3539077 0.08569926 0.055218536 -0.525607 -0.09338197 -0.33792344 -0.32074004 0.6805614 0.6851036 -1.4886336 -0.28860366 0.44582316 0.7449734 0.18733284 -0.3609086 0.17377256 -1.2920367 0.010651216 0.5788173 0.26113442 -1.0747259 -0.5233708 -0.031226363 -1.0414345 0.47329608 0.7414743
tele 0.034304433 -0.038568623 0.09032949 -0.8000699 -0.86078537 -0.5362611 -0.31218553 -0.12828204 0.34501567 -0.88828874 -0.54723567 0.7460348 -0.51551425 0.09496631 -1.2949985 -0.65864205 0.17975345 0.21899462 0.4708094 -1.0919908 -0.7205601 -0.6252149 -0.003554779 0.36837545 -0.32560456 -0.104072735 0.5375075 -0.1308688 0.33070707 0.40385443
cobi 0.44419762 0.5193876 0.009710862 -0.13828126 -0.9777038 -0.9547309 0.25697076 -0.8996451 -0.41645247 -0.4670934 1.333244 -0.25680158 -0.10055624 0.33393246 -1.1727095 0.7811618 1.1074166 -1.3343241 0.44012168 -0.24566011 -0.2376757 -0.17341404 0.026429078 1.166934 0.6146913 -0.33536315 -0.10349153 -0.6136438 0.15511477 -0.91664416
cinta -0.12027677 0.29421684 -0.030664116 -0.7696579 -0.8209658 -0.48692855 0.81762284 -0.58572984 0.7157145 0.7827953 -0.97611624 1.0325881 -0.0398538 -0.047049683 -0.49807128 0.19957037 0.75454146 -0.14717382 0.31404084 -0.8801683 0.056005027 0.343656 -0.4889776 0.042497743 -0.41068465 -0.08265479 0.36335784 -0.16370705 0.559833 -0.48778903
perfecta -0.17184553 -0.07436049 0.6250945 -0.5703881 0.0122988885 -0.4273828 0.43995738 0.025547625 0.09538347 -0.30343562 -1.0896798 0.22574762 0.86169386 -1.6888119 -0.029235698 0.54926693 1.1776382 -0.5348438 0.37118694 0.3987444 -0.32496506 0.08942469 -0.26963145 0.71625865 0.64854723 0.64473474 0.02564866 0.70800304 1.1326162 -0.17958255
unidad -0.07880443 0.270903 -0.19912146 0.5352589 -0.6751983 0.44179714 -0.23421262 -0.6411743 -0.33578387 -0.49527368 -0.6177118 0.7919491 0.1439278 -1.019834 -0.44198775 0.0485263 0.64491975 -0.06822914 -0.27416614 -0.3763983 0.06731674 0.41228622 0.08366259 -0.4851885 -0.32208496 -0.32852936 -0.32050008 0.27190697 1.0540578 0.5179561
club 0.44525808 0.40561154 0.4944142 -0.70670515 -0.44414327 0.5663596 0.26226085 -0.25928596 0.03439325 0.050234195 -0.73671806 0.5343514 -0.2692077 -0.700207 -1.205394 -0.11755017 0.24668863 0.27279592 -0.1368897 0.80466235 -1.3706397 0.004015788 -0.061415426 -0.40243623 0.118349604 -1.1443019 0.16262694 0.23674679 0.50569296 -0.3217979
fijo 1.4305112 -0.18668473 1.2643038 1.2887628 -0.19004564 -1.0210363 -0.8883755 0.13566375 0.25794694 0.030019337 -0.69428 0.1338594 -0.2554304 0.35373655 -1.4540532 -0.27807674 0.12110969 -1.7739203 -0.39450526 -0.46061197 -0.8428422 0.8682755 0.756409 -0.51071006 0.16389464 0.32072622 0.3750962 -0.27368274 1.0006841 0.14775683
febrero 0.5731211 -0.46521106 0.6261821 0.46988982 -0.25388017 -0.58348215 0.41437772 -0.5105825 -0.80963284 0.5342486 -0.12586124 0.4899276 -0.6084527 0.24014305 -0.97601146 1.4457592 0.6678676 0.036052905 -0.8994953 -0.43074962 -1.3445901 0.14012942 -0.43697354 -0.197279 0.9412619 -0.89672613 -0.1514271 -1.2219629 0.4642419 -0.92816496
perfil 0.28619412 0.44468826 0.298118 0.09580513 -0.18259025 0.29439387 -0.03915184 -0.23615237 0.8904468 0.2759067 -0.71652263 0.34779137 -0.29098198 -0.5363998 -0.80189145 -0.1888367 0.40024823 0.26413488 -0.28468812 -0.8569218 -0.4371628 0.08609646 0.06049141 -0.4294139 0.48780823 -1.0183471 0.21237047 -0.82992584 0.3939749 0.75347304
trata 0.46100536 0.5037951 -0.40693843 -0.07507024 -0.43822253 -0.2017673 0.45651034 -0.57362396 0.036000732 -0.47400683 0.0118192 -0.24262625 -0.7088034 -0.32357672 -1.4171398 -0.5884586 0.98798966 0.5436603 0.33698165 -0.57255214 -0.7940143 0.18140621 -0.083136834 -0.38966373 -0.803927 -0.10755503 -0.7832545 -0.4046997 0.66036487 -0.24593303
hiciste -0.50456125 0.1878965 0.5080284 -0.45125225 -0.4948103 -0.67285556 0.36989596 0.22720234 -0.40951866 0.19026537 -0.6988986 0.43512264 0.040329386 -0.46251833 -0.7930656 0.09965368 0.47585934 -0.17431621 0.25492293 -0.74335396 0.57336813 0.5803982 0.3195617 0.3552477 0.08054537 -0.14731838 -0.21488374 0.32299167 1.055701 -0.089876585
inquietud 0.63205904 1.3036216 0.9526084 0.20452224 0.2119873 -0.6744755 0.49910545 -0.74308795 -0.19978665 0.32779723 -0.39606258 0.7030227 0.2635586 -0.21189114 -0.5046285 -0.99461514 0.79345083 0.22803578 0.19995628 -0.65394515 -0.051468506 0.45095792 0.38804582 -0.2834783 0.19321866 -0.5990398 -0.47201174 0.54171115 0.5058703 0.45775798
evitar 0.4886842 1.6395595 0.9472309 -0.5375751 -0.29615742 0.9611981 -0.68416756 -0.42558286 -0.38689876 0.33315274 -0.34805375 0.14427859 0.24932334 -0.40260008 -0.2984023 0.46753642 0.85943764 -0.35963225 0.3772438 -0.46727833 0.12930271 -0.10517886 0.2967749 0.12658815 -0.3153946 -0.84300697 0.4825253 -0.2166445 0.41561776 -1.0546359
vive -0.34730777 -0.13188754 0.5774964 -0.9997147 -0.91419345 0.27367532 0.10528149 -0.67516476 0.6940029 0.76792574 -0.49584645 1.0320507 0.28179055 -0.43270135 -0.91783327 0.08990161 0.26750025 0.22674184 -1.0572451 -0.8150311 -0.9168912 0.35404912 0.12625863 0.157759 0.9946673 0.48241308 -0.59362346 -0.015671223 0.33306387 0.0546819
quiera 0.16424467 0.0968393 1.1115842 -0.23220718 -0.7735744 -0.8930313 0.29023495 -0.33845755 -0.7671695 0.18749611 0.7611541 0.61529845 0.2949516 -0.31371853 -0.26067623 0.98770404 0.63240373 -0.1692551 0.5103749 -0.028663123 -0.8933064 0.3630064 0.3422138 -0.09794831 -0.21080631 0.096374094 0.705731 0.46496734 1.352088 -0.69596714
ademas -0.6052104 0.42874715 0.83997554 0.043051925 -0.17367113 0.03523786 0.14589807 0.07445684 0.7633123 0.0923612 -0.031291645 0.67069304 0.6421778 -0.48433936 -1.0078003 0.06760004 1.092346 0.09580913 0.32007825 -0.3473723 -0.038559772 -0.63855475 -0.03201522 0.6323898 -0.24166362 -1.0292244 0.12099251 0.17518286 0.8686379 -0.63490236
diente -0.47383016 -0.098925546 0.8139839 0.24399638 -0.8330712 0.9626952 -0.036112953 -0.8957189 -0.015259471 0.5334012 -0.0703701 -0.04704564 0.2412107 -1.2636129 -0.9526656 0.3042822 0.18409558 0.07783506 0.05997567 -0.9595299 -0.61612993 -0.2622072 -0.23779806 0.473586 -0.19298416 -0.54758966 0.18457367 -1.1797258 0.13038018 -0.16937466
entrega -0.5356236 0.36595753 0.4018782 0.010756534 -0.5831413 -0.22212087 -0.30952063 -0.8033896 -0.25601357 0.123237245 0.11806636 0.55456334 -0.2739126 -0.65598387 -0.53414935 0.2107766 0.32748047 0.54377514 0.4362575 -0.5385515 0.30432034 0.32575446 1.209392 -0.0011401875 0.29635724 -0.6492691 0.23934227 0.8589035 1.1340454 -0.55748075
actualizacion -0.62805253 -0.0055423146 0.16133843 0.3457843 0.15474132 -0.5264629 -0.5249069 -0.8619218 0.10060938 1.3153528 -0.8685753 0.59081405 0.29061037 -1.3083179 -0.46878576 0.68064815 0.8364822 -0.14148 0.80884504 -0.37248385 -0.06432237 0.14887208 -0.7188714 -0.31544477 0.12227723 -0.13070673 0.13797869 0.022127593 0.53217363 0.4546286
mayores 0.72311425 -0.12454862 0.3079279 0.27528036 -0.74477535 -1.0552951 -0.8789478 0.66262054 -1.0184963 -0.06262765 0.15897012 -0.05962916 0.27016172 -0.13388982 -0.82978815 -0.24248236 1.6629999 -0.845144 0.40598685 0.06495993 -0.75564307 0.4225325 -0.10885082 1.1733719 0.8317003 0.4652288 0.3533106 -0.6469369 0.42547432 -0.28094622
motivo 0.51695377 0.20075996 1.1202816 -0.18601163 -0.595476 -0.26189026 0.112933025 -1.2316586 -0.33810627 0.22951841 -0.6038382 0.4338563 -1.0850406 -0.9788771 -0.51759696 0.23881933 0.15000775 -0.17764634 -0.083862826 -0.08935921 0.5286873 -0.14946006 0.24685857 0.037953973 0.5260355 -0.0758247 -0.51371807 -0.51101923 0.22949983 -0.7056135
precisamente 0.18174583 0.40254945 0.6555116 0.32283515 -0.94461143 -1.3740634 0.4980768 -0.037728414 0.022638066 0.15837274 -0.5299173 0.5237545 0.5936167 -0.2985381 0.031356283 0.71454036 0.20804705 -0.32927132 0.03428848 -1.0645437 -0.5721464 -0.8802835 0.27916092 -0.27588734 0.2928067 0.24539639 0.6858028 -0.5502776 0.54358566 -0.23833418
supuestamente -0.122942574 1.1118511 -0.40733954 0.030881194 -0.033414755 -1.2086914 -0.6072566 -0.05412267 0.59217745 -0.45216402 -0.30791023 -0.12407658 -0.23483686 -0.43146685 -0.95484847 0.64957875 0.3562491 -0.8460495 0.21272495 -0.71369493 -0.49825156 0.3321553 -0.57194334 0.5182439 0.9727483 0.09660626 -0.73680425 -0.5197922 0.026882168 0.48196286
