1297 30
solicitud 0.5084859 0.20114724 -0.06455395 -0.42822334 -0.30022538 0.04672152 0.47530296 0.12852585 -0.36830044 -0.39848894 0.71514 -0.095043905 0.47796836 0.121859334 -0.42520872 -0.15531062 0.10278699 -0.15838555 -0.45146638 0.35901773 -0.25671658 0.38342458 -0.4610316 0.13276047 -0.8192361 0.07636774 0.8547805 0.098579384 -0.4626499 -0.25801864
reconocimiento 0.75034356 0.05303724 -0.75536984 -0.21014091 -0.20323466 -0.040298145 0.15954447 -0.05195996 0.0971005 0.0006248022 0.8442915 -0.42033347 0.31741273 0.17284696 0.19097792 -0.43813342 0.6551845 0.44009268 -0.13434435 0.21598601 0.023877744 0.36771622 -0.39546117 0.27672926 -0.25060585 -0.19506417 0.96870583 -0.09758305 -0.8433444 -0.42919883
informacion 0.2806034 0.3281065 -0.032612436 -0.31267232 -0.23256361 0.5265436 0.032954138 -0.29517722 -0.16441719 -0.15653937 0.24264893 -0.35056973 0.13013893 0.10459909 -0.3505555 0.09999858 -0.5871611 -0.3311401 -1.0168245 0.640402 -0.34129086 0.43637618 -0.25218266 -0.16173781 -0.23110871 0.5280364 0.934199 -0.73713374 -0.45694214 -0.78804064
hijo_a 0.17680821 0.10084431 -0.6310776 0.8036337 0.06101425 -0.075126044 -0.33939883 0.8378668 -0.7039335 0.16800249 0.09864471 -0.69677144 0.17809242 0.0027585076 0.2965253 0.04110444 0.098565005 0.21472153 -0.34207052 0.5692139 0.1459777 0.4464605 0.07543133 -0.62217975 -0.17627725 -0.1332786 0.63790077 -0.3691479 -0.45401227 0.2627276
semestre 0.1335819 -0.3434986 -1.0359807 1.2034712 0.20202658 0.07262341 -1.481322 0.97186923 -0.09126801 0.28843713 -0.6975247 -0.56411165 0.7173675 -0.33964255 -0.32678998 -0.18607593 0.17493162 -1.2240047 -1.3856417 0.30758747 0.5185705 0.59672624 -0.5173132 -0.21697655 -0.21942905 -1.1695652 0.5310112 0.4651436 -0.97560006 0.5670482
pago 0.51747596 0.78181034 -1.0613827 0.36829743 0.36538976 0.06483006 -0.6425745 0.59066874 -0.035240345 -0.6107104 -0.37633505 -0.08295274 -0.7962052 -0.53805923 -0.121655166 -0.701282 -0.43956184 -0.14821418 -1.2916644 -0.5195836 0.085311025 0.029095652 -0.22280478 0.9255688 -0.4567216 -0.4999084 0.4431542 0.4222912 -0.946231 -0.4676815
beneficio -0.2787658 0.2597814 -0.10362299 -0.1779616 0.026629029 -0.18942796 -0.13566642 0.2996456 -0.41810828 -0.021162743 0.3642016 -0.65867996 0.6812342 0.13970153 0.13586347 0.057647917 0.0623694 0.7296304 -0.0566075 0.71299076 -0.2428374 0.16950035 -0.2566069 0.45634353 -0.32482427 -0.262118 0.6544139 -0.872807 -0.5554782 -0.28808206
formato 0.7549403 -0.2329435 -0.74938554 -1.7128354 0.4489018 -0.5447501 -0.66221654 -0.0027875486 0.39034703 -1.5562884 0.56290984 -0.50724584 -1.1677179 -0.013094919 0.14907548 -0.11426677 -1.2590955 0.15188055 -0.48879242 -0.55830884 0.03240403 0.49360296 -0.040934432 -0.9060026 -0.83722407 0.033923175 1.9116632 0.49828765 -0.81294787 0.10594333
envio 0.39962938 -0.24478954 -0.5478799 -0.31496495 0.29972932 0.26803258 -0.5075469 0.11449479 -0.12936407 -0.40221468 0.5135816 0.5321796 -0.49928427 0.26487285 -0.098596655 -0.22539249 -0.26294926 0.03169344 0.15479095 0.7751879 -0.2024555 -0.3702449 0.06583197 -0.2410495 -1.3821234 0.33564636 1.0028536 0.43050668 -0.8715296 -0.39836425
adjunto 0.04876846 -0.21835518 -0.5124892 -0.43676966 0.2501924 0.112947986 -1.2646933 -0.51187 -0.29787543 -0.58454055 0.7036409 -0.39465484 -0.2860711 -0.08852553 -0.33413553 -0.48627654 0.16326226 0.46060947 -1.2307365 -0.6746357 -0.4673024 -0.015744276 -1.4251148 -0.091484666 -0.7895119 0.3662737 1.0998943 1.1890662 -0.7113544 0.33493108
beneficiario 0.6000843 -0.105953634 -1.021806 0.400689 -0.20749463 0.60804266 0.47830752 0.3398688 -0.63424104 0.34862378 0.9237857 -0.66504025 0.42330435 -0.15044276 0.18023267 -0.386419 0.59871143 0.2240542 -0.3083672 -0.15463367 -0.39899385 0.45948762 -0.05756195 -0.15953156 -0.16609482 -0.6302401 0.9201954 -0.033747993 -0.64363873 0.19416168
proceso -0.25656593 0.17687932 -0.49002093 -0.06765887 -0.36577418 0.5124859 0.73458207 -0.016945304 -0.5516523 -0.9028998 -0.11620727 -0.012296077 0.15729685 0.27695045 0.15153927 -0.5527241 0.57011586 0.14092709 -0.264537 0.69918805 -0.73097837 0.36124763 -0.40843287 0.050098613 -0.22959192 0.08276988 0.21639934 -0.5062816 -0.4332448 -0.21218814
kactus -0.96456695 -0.53035504 -0.35949057 -0.29364234 -0.2936241 0.19295274 0.18072528 0.28669527 0.28685904 0.023805736 0.2651764 -0.20674345 0.39839613 -0.3097415 -0.7123842 0.05604712 -0.712727 0.030333946 -0.034991343 1.3160241 -1.3478959 -0.4970737 -1.0474346 -0.34019884 -1.1767218 -0.11940497 1.200222 -0.9820081 -0.1687155 -0.34836912
grado 0.5559855 -0.7016784 0.6089668 0.8027345 -0.63747 -1.1097502 -0.25020453 1.457024 0.30670625 0.3935208 0.9079037 -1.4129013 -0.077937044 0.053622868 1.1271974 -0.916234 0.41058138 0.7400057 -0.91673875 -0.11168438 -0.8417845 0.9917946 -0.27673867 0.16988496 0.15651672 -0.42480806 1.0392721 0.5130955 -0.53380156 0.92015797
validar 0.17006104 0.28578624 -0.97644967 0.08110014 -0.42463335 0.043796852 1.0377526 0.083840884 0.049191337 -0.31517655 0.6052519 -0.3473948 0.48726875 0.11298445 -0.31856078 -1.0249454 -0.23744394 -0.13994658 -0.39831945 0.5936716 -0.4824033 0.47264037 0.006056519 0.5231747 -0.21679601 -0.10462168 0.26844814 -0.4560453 -0.6942897 -0.32632163
respuesta 0.030461006 1.0426328 0.56627023 1.017655 1.1598928 -0.81546545 0.71832484 -0.8361682 0.4036223 -0.78176486 -0.270746 0.6020879 0.6802668 0.93218994 1.3443851 -0.28056598 -0.14975832 0.28098753 -0.60282356 1.317491 0.3827569 -0.19127724 -0.2706594 -0.67223835 -0.7267937 0.09415134 0.7685547 0.6907474 -0.28851792 0.25952747
documentacion -0.39374724 0.13661078 -0.28190568 -0.44313234 0.75286627 0.57075644 -0.8303241 0.23053427 0.27879912 0.20346148 1.4017407 -0.3661744 0.25506678 0.6800797 -0.25193593 -0.022944938 0.6889655 -0.03208852 -0.9060412 0.5997623 -0.46218428 0.05339456 -0.6940341 -0.12809895 -0.64867884 0.61476 1.2262222 0.4459214 -0.44843256 -0.520586
anticipo 0.11045079 0.21472673 -0.40184513 0.35289082 0.21193159 -0.79435754 -0.52905315 0.8898538 -0.42152038 -0.72343487 -1.1114253 -0.25337607 0.15016861 -0.8375161 -0.48937854 -0.29270303 -0.31110606 -0.5380265 -0.5183368 -0.056196474 0.09227379 0.43484896 -1.1475266 0.59643406 -1.0839067 -0.49556354 0.29180413 -0.7728833 -1.2668341 0.73396814
saber 0.4556993 -0.07164608 -0.57281405 0.36586332 0.19589785 -0.148843 1.6750444 0.685652 -0.34169224 -0.07220624 -0.7113916 -0.666302 0.6308935 -0.080534145 0.46240345 -0.7517501 -0.94411665 0.12646718 0.31804234 0.23201951 0.09195547 0.4357299 0.6153786 0.4778582 0.15257189 0.19574364 0.8018725 -0.2884898 -0.6734829 -0.79989904
pensionado 0.77005476 0.09235742 -1.1909778 0.08282498 -0.122823514 0.31885546 1.1471845 0.012730488 0.28926432 0.29347143 0.71823686 -0.17820314 0.7059654 0.23908758 0.60477626 -0.17404287 -0.6033469 0.1755002 -0.07045414 0.9875308 -0.39504763 0.43469706 0.4861589 -0.057913512 -1.1570655 -0.02685221 0.34800416 -0.95426416 -0.8136177 -0.4483634
ovp 0.8159404 -0.1716201 -0.07200444 -0.5299852 0.08999273 0.15228161 -1.0899823 -0.28814134 0.20782883 0.5446912 0.63498133 -0.17529069 0.74348986 -0.12895131 0.28988227 -0.23320226 -0.08895882 0.41655165 -0.16161565 0.098723054 0.5087902 0.2608006 -0.40655515 -0.5342749 -1.6774765 0.7211412 1.0853295 -0.010167925 -0.9055121 -0.16629572
matricula 0.1092771 -0.017949436 -0.5869036 -0.4039121 1.2502755 -0.30262098 -1.2932041 1.4156245 -0.4393194 -1.933059 -0.12642172 -0.40560904 -0.44329417 -0.9077155 -0.6582434 -0.9959016 0.248891 1.0700282 -1.8952354 -0.34650335 -0.24132286 0.7486255 -0.33452055 0.49974647 -0.7146251 0.08126685 0.10501058 0.5411404 -0.22492886 0.23702796
realizar -0.59172857 -0.6074058 0.21738842 -0.36284506 0.13532811 0.32644916 0.65072525 0.34778723 -0.5069886 -0.35391617 -0.75498474 -0.9927784 0.41812834 0.6554747 -0.31087846 0.00516246 -0.0162513 0.4679088 -0.18856803 0.09412618 -0.7599922 0.057781126 -0.3372129 0.63897544 -0.7057352 -0.32946762 0.68138045 -0.77648866 -0.30351794 -0.37149125
valor 0.079540275 0.31173715 -0.7869022 0.19445606 1.0505235 -0.07216848 -0.09938576 1.4053783 -0.2299195 -1.0265338 -0.1333656 -0.8036277 0.17896178 -1.259495 -0.84087145 -2.4528553 -0.02081672 0.28960216 -1.8209864 -0.48883402 -0.13439718 0.4335883 -0.33999833 1.5048243 -0.066865034 -0.5504084 -0.22779967 0.91021 -0.15833934 0.113000065
solicito 1.0660831 0.046396654 0.9821351 0.31795037 0.17018265 0.38217047 -0.45854065 0.42228502 -0.35289446 -1.3166468 0.5601422 -1.2465198 0.76773995 0.32638422 0.49936137 -0.30549657 0.10374711 -0.025120426 -0.23828533 0.090931706 0.35748774 -0.4505472 -0.81500274 0.40458837 -0.27018458 -0.045020606 0.6581291 -0.7556092 -0.44263688 0.49053448
hacer -0.56432575 -0.15912034 -0.04248191 -0.5576147 0.07154484 -0.08982087 -0.053845134 1.3741521 -0.45571414 -0.44204465 -0.9255343 -0.394412 -0.3438405 0.43346316 0.8208968 -0.6988001 -0.6710558 0.016844936 0.22885312 1.0274279 -0.3560163 0.24314885 -0.30839586 0.08776476 -0.07280173 0.185066 0.585095 -0.47226417 -0.491343 -0.81816775
tramite -0.38277197 -0.58314836 0.4850035 -0.31774852 0.61623824 0.09408417 0.51258713 -0.34498477 0.08080338 0.07661288 -0.98603374 -0.86099756 0.26107308 0.4154004 -0.34169537 -0.019000659 0.25776157 0.23893277 -0.019323263 0.6363384 -0.79710764 0.022975454 -0.56204754 0.45360193 -0.564231 0.22584926 1.1919634 0.008449921 -1.0213327 0.09694067
plataforma -1.4179287 -0.7073972 -0.14212747 -0.31738633 -0.015541769 0.19281048 -0.12078569 0.8460189 0.001351161 -0.2091243 -0.2822607 -0.02517499 0.4626956 0.07123344 -0.4554541 0.022450095 -0.36628714 0.7309068 -0.041411858 0.6626445 -0.94233036 -0.8961349 -1.189781 -0.27347645 -1.4177963 -0.10181762 1.2899429 -0.6304532 -0.20936209 -0.38429588
error -1.0557792 -0.58243513 -0.031795673 -0.22937958 -0.36392838 -0.0716332 -0.21652752 -0.06533495 -0.4597434 0.077857494 0.5212092 -0.81609887 0.59621435 0.9490926 -1.6870047 -0.79290813 -0.317831 0.24537636 -0.20659399 1.4005767 -1.2446624 -0.88886136 -1.8641248 -0.306898 -0.7685517 -0.13794447 0.9345273 0.042709056 0.027515484 -0.5321794
beneficiaria 0.9353726 -0.45679206 -0.4028434 1.5451932 -0.2888742 0.094872974 0.8586917 0.15699565 -0.13814002 0.36233467 0.70461416 -0.57178336 0.27796328 -0.012684759 0.20879732 0.21538332 0.566594 0.013704869 -0.34714425 0.28385577 -0.6117163 0.7787256 0.44282854 0.07219345 -0.42664555 -0.46900752 0.88871276 -0.392398 -0.8965184 0.46489415
ingles 1.0942233 0.44126645 -0.74934053 1.2469983 0.2637865 0.5977191 -0.903125 0.45272857 0.5835408 0.14077736 0.70056367 -0.24528983 0.16933073 0.96746033 0.27784613 -1.5912137 1.6514504 0.6214198 -0.48685625 -0.38829908 -0.04889076 0.7270192 1.0485346 0.7779873 0.30472326 0.54700595 1.4374802 0.5613554 -0.97117275 -0.8114565
estado 0.6911196 0.5701207 -0.048137516 0.5959404 -0.32399404 0.370969 1.4698327 0.11223546 -0.62421346 -0.02092215 -0.07738489 0.15487303 1.0147076 0.39450806 -0.20612226 -0.30635825 -0.6857992 -0.60297793 0.18190534 0.01613115 -0.35278437 0.4395163 -0.31058282 0.5158543 -0.28895488 -0.15610874 1.0979381 -0.52028286 -0.60461396 -0.016447172
gth 1.032473 -0.48160017 -1.0456816 -2.1255326 0.46169388 -0.3883224 -0.84315175 -0.45920536 0.047945317 -1.8395503 0.6233153 -0.5433021 -1.0691161 -0.23334908 0.41570616 -0.30217087 -0.7491276 0.16060056 -0.91346896 -0.9140233 0.24133019 0.038864177 -0.3995893 -0.99712557 -0.27042273 -0.34629777 2.2887895 0.26637515 -1.0722588 0.46924546
embargante 0.43356454 0.21872567 -0.5155259 0.4710166 -0.57137686 0.46135774 1.3028333 0.31624162 -0.26218307 0.5151858 0.68645054 -0.5090462 0.1479683 -0.12727758 0.49130568 -0.45191434 -0.46246228 0.0489629 0.18524611 1.0957087 -0.49531624 0.11436667 0.61048687 -0.13936009 -1.0798736 0.2723931 0.48507568 -0.76337224 -0.59437454 -0.45158657
he -0.18379991 -0.3812905 0.4744422 1.2038851 1.3184762 -1.1003178 -0.4725517 0.35537675 -0.21043001 0.1738462 -0.85283095 1.5716898 1.0834087 0.3601871 0.3247055 -0.22830378 -0.04019316 0.8670593 0.24964413 1.5051471 -0.012428269 0.1589648 -2.3872273 -0.6568333 -1.7556934 -1.892384 1.5835556 0.10260942 0.9332527 0.36401767
derechos 1.1655266 -0.3164653 0.542576 -0.082429156 -0.57333994 -0.08198597 0.6391192 0.9760346 0.57660115 -0.16786912 0.8796642 -1.0834165 -0.13102472 0.3824554 0.88000923 -0.772609 0.68909377 0.17908105 -0.18975249 0.2529853 0.14963551 0.67665315 -0.6084668 1.4882313 -0.67738795 -0.2546016 0.9923262 -0.34737593 0.1423618 -0.04214252
herramienta -0.93443793 -0.035675492 0.2743665 -0.63082534 -0.052905295 -0.44821408 -0.16628024 -0.66351056 -0.7306589 -0.13520022 -0.54257643 -1.1956954 0.5452174 -0.6903511 -1.5640526 -0.42208573 0.07157102 0.8959831 -0.20717064 1.0836092 -1.6563139 0.097025044 -1.2087184 -0.13353051 -0.89603204 -0.1490594 1.376106 0.039489485 0.0075098937 -0.15566535
recibo 0.73374945 1.0496117 -1.209905 -0.107516095 1.3285965 -0.19212663 -0.84781826 -0.1286425 -0.4869835 -1.2800941 -0.24890669 0.29527384 -1.0752264 -1.3196286 -0.15335421 -0.9390228 -1.3044168 -0.406754 -1.4500847 -1.2816675 -0.009836983 0.15943658 -0.9141888 0.14848816 -0.688683 -0.28656945 0.88095737 1.5330994 -0.9596705 -0.19906782
curso 0.9059707 0.6378248 -1.2701391 1.1311674 1.102314 0.85528487 -1.1934774 0.5421362 0.30163392 0.34445152 0.60971564 -0.17048348 0.23955446 0.5315112 0.54134834 -0.9837132 1.7439913 0.37285316 -0.84746087 0.42753598 0.73064506 0.54605365 0.71984303 -0.020647436 0.21839766 -0.12955874 1.2604083 0.33584812 -1.2303975 -0.633367
tiene -0.096746124 -0.4135631 -0.22955522 0.6801642 -0.100347064 -0.35193926 0.7987789 1.0568255 0.13119869 -0.23569995 -1.0471811 -0.9714519 -0.24570936 0.8860105 -0.22752334 -0.04003415 -0.8292228 0.41904932 -0.45232716 0.3273892 -0.81791824 1.4435468 0.7980203 -0.029964052 -0.23610711 0.0969224 0.54047424 -0.7772526 -0.10421234 0.19797501
informa 0.030854626 -0.61890477 -0.40131634 0.6692179 -0.01878125 -0.044899642 1.203854 -0.22218323 -0.07919413 0.07018345 -0.18645656 0.01594461 0.2423761 -0.6124794 -0.42708752 -0.43565202 -0.6965623 -0.5411715 -0.20088534 0.70568156 -0.109907 1.1252486 0.2153243 -0.2802966 -0.666876 -0.55395156 0.6819386 -0.45037463 -0.52375 -0.29213127
presente -0.019495012 1.2457289 0.14302333 -0.3959485 0.44689316 0.506917 -0.51941544 0.8291393 -0.7441422 0.6111939 0.27019656 -1.2220373 0.08328915 0.23280105 1.3360337 0.26514482 0.57778305 0.3554247 -0.009931619 -0.10254824 0.38095814 -0.057502802 -0.40262362 0.51304704 -1.715226 0.3582091 0.8778271 -0.09491947 -0.983554 0.6824279
ustedes 0.45600918 0.7005256 0.5497369 -0.40590656 0.2415845 0.33232117 -1.1570046 -0.5238771 -0.30853215 -0.14135417 -0.8763963 0.24540353 0.37532824 -0.2626657 0.6177979 0.09418267 -0.9910278 0.6505129 -0.07066415 1.2362337 0.28917602 -0.4239627 -1.5390803 0.23172416 -1.0591674 0.121023744 0.942147 0.55395496 -0.2612496 -0.04972779
adjunta -0.22852764 -0.6957564 -0.6593426 -0.26556343 0.2814529 -0.43509722 0.13531758 0.14974138 0.3096031 -0.013705607 0.68460006 -0.10325257 0.11143398 0.22355083 -1.382677 -0.6353589 1.0825611 0.75927293 -1.3031764 -0.40445736 -1.046672 0.22330286 -0.45901242 -0.14930494 -0.61301315 0.08820323 1.6362351 0.8527525 -1.1264313 0.13637821
encuentra 0.59114677 0.22872101 -0.46540618 0.70809007 0.47074628 1.4144233 0.55593896 0.80560476 -0.390027 -0.05695297 -0.02153432 -0.40673277 0.50355905 0.39363208 -0.41012296 -0.45232698 -0.30121896 -0.5527293 -0.949751 -0.41255096 -1.0479556 -0.57078236 -0.13159607 0.2942694 0.32109588 -0.87807703 1.0813835 -0.0796057 -1.0370877 0.9344814
certificado 0.93159837 -0.3772822 -1.7036421 0.31293544 -0.013869715 -0.32109568 -1.0119051 0.24190061 -0.24394879 -0.70164984 0.13301174 0.04763903 -0.6713186 0.49170992 -0.020729378 -0.36660093 -1.3337764 0.5635217 -2.12387 -0.7996037 -0.39889878 0.29180926 0.24365702 -0.4858246 -0.12740982 -0.29226387 0.46185872 1.7970132 -1.3481325 0.4778837
indica -0.28755814 -0.018405348 -0.28305417 0.51825494 -0.2106557 -0.3520137 1.0169888 0.5017352 0.18282357 -0.44379398 0.49993324 -0.51689976 -0.039179772 -0.40840912 -0.9683933 -0.96310407 -0.7558587 -0.07419394 -0.9421929 0.45192823 -0.3380276 0.86963266 0.28476977 -0.22766384 -0.43818945 -0.7906355 0.35694847 -0.27798563 -0.32603154 -0.5405618
medio -0.23416759 -0.13834132 1.1377761 -0.73976386 -0.29404518 0.885832 -0.8037248 0.84784555 0.15028448 0.096586965 -0.06874252 -1.3241167 -0.026176628 0.01644407 0.63930565 0.18643522 -0.10738238 0.11029354 0.40785655 0.104939 -0.4090341 -0.60424984 -0.72580975 0.23440084 -1.8882488 -0.23060946 1.8714771 0.20034602 -0.23424456 0.26497185
alojamiento 1.3950311 0.6493687 -1.1192989 0.8467605 -1.7108887 0.681386 0.45807314 0.47123963 -1.2187159 0.7605863 -0.2662952 -0.5680428 0.16026863 0.5997008 0.5435385 -1.4525605 -1.6287165 0.9712197 -0.5869533 0.7444885 -0.4472459 -0.07509126 0.67159295 0.16894904 0.2890817 -0.38081324 -0.19237271 0.24524972 -0.5906978 0.26729196
fecha -0.13834575 1.397011 -0.6989454 1.4445603 1.709733 -0.115270555 0.42071673 0.11344845 -0.5511121 -1.4636163 0.38997743 0.38824055 0.47257566 -0.7682994 0.19711126 0.03241107 -0.23983257 0.3078227 -0.1516417 -0.06714692 -0.4754106 0.9313825 -0.16425365 0.49995878 -0.7058432 -0.70524913 -0.06755224 0.27605358 -0.5188344 0.049438767
numero -0.38454944 0.74633664 -1.2855971 1.2318934 -0.5011941 0.6888694 0.82835406 -0.12494543 -0.7205479 -0.5338631 0.7725859 -0.3974441 0.20889126 0.26604855 -0.095159784 0.87748873 -0.5149189 -0.32031655 -0.23596673 0.04234691 0.23823489 -0.52961874 0.40525737 0.34464258 -0.6309748 0.9209673 1.183001 0.28577492 0.062913455 1.0420156
opcion -0.78772277 -0.7755677 0.4418008 -0.30274475 -0.2742368 -0.42147714 0.106809385 0.04926438 1.30791 0.54157907 0.093069814 -1.482783 -0.3642243 0.36661464 -0.90515614 0.06546116 -0.022201253 1.2392402 -0.47715494 1.3580607 -1.2136378 0.9842775 -1.3274978 1.2114464 0.0055540153 -1.609693 1.3693235 0.48317814 -0.08588693 0.05754359
registro -0.85722935 0.43177795 -1.4111191 1.0265747 -0.6678898 0.23417896 1.183652 0.25658637 -0.16231805 0.36955425 1.000833 -1.0961256 0.014401498 0.5109236 0.22402294 0.5046666 -0.15517099 0.31944808 -0.3525236 0.040862747 0.03934998 -0.5116779 0.084586196 -0.1308323 -0.93008673 1.0053527 0.6288128 0.7922408 -0.44775546 1.451558
preguntando 0.32380903 0.20498152 -0.9549204 -0.14208409 -0.056894287 -0.2951923 0.64794654 0.5970479 0.31167525 0.3312357 0.91660684 0.24437544 0.49410498 0.0917961 1.1040331 -0.88871855 -1.3722636 -0.015047179 -0.008404731 1.4145609 -0.42041174 0.9730047 0.3869158 0.027672496 -0.6930098 0.5490485 0.34477177 -1.2425207 -0.87148005 -1.0935203
atencion -1.4744977 0.82522476 0.6885764 0.57877254 0.17070487 0.21078515 -0.08516271 -0.47126618 0.62173194 -1.0361612 -0.24121247 -0.24175993 0.17753203 0.989028 1.3460462 0.113692425 -0.31979218 0.65116376 -0.25422734 0.7782865 0.5933373 -0.15200217 0.44123882 0.34591 -0.29607922 0.28792757 1.2692435 0.6679668 -0.50469923 1.3392001
cargar -0.5002338 -1.0460539 -0.5656831 -0.36164036 -0.6444979 -0.2840771 0.377512 -0.28707033 -0.35788164 0.2615766 -0.03563401 -0.016277628 0.16922033 0.5879578 -1.2649959 -0.5957543 -0.6241945 0.558967 -0.32549897 1.0981772 -1.3112093 -0.12388128 -0.7007882 -0.9099616 -1.0554413 0.60210466 1.4510812 -0.42173004 0.11314923 -1.0897253
cuando 0.31458116 0.54116714 -0.39094752 1.6468532 0.27453992 -0.58457696 0.18894197 1.0193644 -1.077395 -0.17940381 -1.1609999 -0.11404988 0.3664508 0.5323664 -0.8657985 -0.018718192 -1.3071983 -0.3586056 -0.15236482 0.97650385 -0.5597591 0.48893446 -1.223785 0.5749801 0.72071093 -0.36344445 0.37449592 -0.7492574 -0.8106552 0.10803201
senores 0.12181185 0.8516093 0.584959 -0.18241002 -0.05668592 0.6337366 -1.0591972 -0.015884617 -1.4496 0.14868858 -0.30669257 -0.2514939 0.22589752 -0.17068624 1.1103053 -0.07387151 -0.024135245 0.39559755 1.0206696 0.51566005 0.738323 -0.32144412 -0.8047018 -0.10265539 -1.8722595 0.13262272 0.87881184 -0.15001628 -1.462089 0.41700208
yo 0.69538474 0.3287759 -0.8392908 0.91040564 0.5588232 0.4343399 -0.6544916 0.9128272 -0.6711581 0.06532763 -1.4427897 -0.599474 -0.26153722 -0.99170303 0.36545038 -0.20912032 -0.9687835 0.5262435 -0.23093964 0.50562733 0.14525387 0.24512771 -0.9770879 -0.8370857 -0.9464598 0.5291029 0.45079297 0.66627616 0.2747808 -0.4517727
sistema -1.3011775 -0.007096933 -0.22394101 0.46626768 -0.34604752 -0.22408387 0.22594187 0.10751387 -0.32365394 -0.60440415 0.015746308 -0.37570998 -0.061721317 0.22445637 -2.0533676 -0.37453276 -0.61446077 0.05585421 -0.21984787 1.0695862 -0.8509733 -0.012338702 -1.6931552 -0.15139459 -0.815681 -0.12169654 0.7795676 0.36681488 0.7756982 -0.2639056
muchas -0.970603 0.73544025 0.27887264 0.52118325 0.36617166 0.2189581 0.06016146 -0.9684804 -0.11667781 -0.90350306 0.063105054 -0.49231365 0.3035485 1.0821482 1.0526206 0.24305522 -0.27046815 0.24532674 -0.72743016 0.5004836 0.4421788 0.055880807 -0.16088594 0.015598603 0.21103922 0.742173 0.9729467 0.783796 -0.30179465 0.33201796
aparece -1.1472702 0.057239875 -0.2091072 -0.18893349 -0.62272525 -0.5271969 -0.98680186 0.19455595 -0.6155612 0.27426097 -0.18441279 -0.6740875 0.09738285 -0.8566436 -1.1375923 -0.562268 -0.07298139 0.4238466 -0.13676752 0.9650753 -1.706366 -0.2978301 -0.86503005 0.85151064 -0.3704127 -0.9940111 1.5096232 -0.16669224 -0.0485283 -0.020720908
solicitudndo 0.6839894 0.18946579 -0.15890151 -0.3900486 -0.61742306 0.55887455 1.00673 -0.28282163 -0.34992027 -0.09894104 0.5850648 0.37688333 0.4941577 0.036067095 0.6799041 -0.57229716 -0.20436488 0.3649828 -0.4085558 0.59356016 0.107338324 0.33868033 -0.36938468 0.13585337 -0.7106479 -0.24560162 0.25600305 -0.38947797 -0.3462728 -0.6484926
anexo 0.06976651 -0.4235652 -0.31462136 0.22389448 0.084642954 -0.23395383 -1.5668776 0.085630395 0.67646676 -0.28836432 0.39279643 -0.07793636 -0.46443757 0.51385146 0.100438595 0.00012551495 -0.473782 0.5959261 -1.8059912 -0.0073269596 0.73444843 0.38609084 -0.7002736 -0.26170623 -0.9955532 0.46103886 0.7106779 1.2436451 -0.7750982 0.8894339
primer 0.025060106 -0.38009772 -1.134815 0.60098815 -0.08223986 0.035958625 -1.9505135 1.2893561 -0.57875705 0.24211164 -0.33001652 0.17296301 -0.077703394 -0.6201228 0.16105948 -0.3609696 0.46781892 -0.5786719 -1.2471862 0.39457226 0.6064386 1.0580002 -0.50583136 -1.3161231 -0.030380256 -0.79775244 0.67087144 -0.012068657 -1.1331019 0.9867045
nuevamente 0.14880672 -0.3021517 0.13008918 -0.22152498 0.47770125 -0.41327745 -0.21572791 -0.7684706 -0.16196288 -0.9373323 -0.477951 -0.46917674 0.8108981 -0.42314267 -0.98634154 -0.100398615 -0.028045643 -0.07982688 -0.10677347 0.61083364 -0.09845221 -0.78575116 -1.2047856 -0.53056175 -1.3069631 0.9589254 1.6971586 0.7162367 -0.32022822 0.04128727
documento -1.2122825 0.16905984 -0.4218889 -0.65379244 0.8456547 0.33444953 -0.44283706 0.4765063 -0.31134117 -0.4855895 0.6611981 0.012232952 -1.129038 0.24808803 -0.2436447 -0.51961964 -1.3542384 0.12436649 -0.1933773 -0.8437685 0.19058943 0.6267164 -0.7351406 -1.2237711 -0.71859205 0.6181153 0.9090537 0.6905621 -1.1320765 -0.111296445
formulario 0.4584102 -0.5030113 -0.45993283 -0.9866873 0.4372472 -0.2352668 -1.147269 -0.02530543 0.3917808 -0.8850057 0.41568238 -0.21380098 -0.9288335 -0.35766235 0.7634002 0.094665885 -0.6153125 1.0029911 -0.00067963044 -0.2840274 0.78324485 0.7082856 -0.51572996 -1.1269375 -0.08498545 -0.52487564 1.8234187 -0.09738513 -1.2460108 0.3546822
mes 0.15077412 1.2024881 -0.957961 1.3561443 1.3473673 -1.1989341 -0.00054317503 0.7792839 -1.1143172 -1.8366958 -1.2949399 0.3283158 0.29882655 -1.2380186 0.7223489 -1.6482197 0.57361513 -0.20202146 0.07832371 0.48807552 0.58672416 1.0530075 -1.2005974 0.6413014 -0.17958759 -0.21072322 0.20764363 0.06848062 0.10384928 -0.28767702
mas -0.1233985 0.35237384 0.72716814 0.73721224 0.25814074 -0.2513904 -0.11311949 -0.21956551 -0.12611854 -2.1118891 -1.4092805 0.024055732 -0.15287794 0.3283449 0.9964843 -0.8584122 -0.7002726 0.19130814 0.2567326 0.88260573 0.54108495 -0.48846158 -1.5416416 0.44724086 -0.38305134 -0.111593775 0.53800464 0.063723214 -0.075784996 -0.84969556
acuerdo -0.09239173 0.34496233 -0.31609377 -1.6237837 0.62980556 -0.19317497 -0.051935118 -0.41728726 -0.56105447 -0.1575953 -0.3027518 -0.06543772 0.60765696 -0.42983624 0.26479533 -1.4064337 0.028534701 -0.10664396 -1.2232703 0.10512489 0.8061134 0.76541126 -1.1523285 0.12548515 -0.7442335 0.12062916 0.5122617 0.97136587 -0.5504935 1.6044215
trabajador 0.35294116 -0.46922678 -0.45852777 0.7895513 -0.52758116 0.8033429 0.590968 0.19515859 0.2706122 0.5063615 0.28951904 -0.62611747 0.5148741 0.48953503 0.436109 0.2052938 0.7433329 0.06614698 -0.20019554 -0.3907518 -0.3071258 0.69542146 -0.06767572 -0.19912668 -0.3870589 0.010329513 1.4147748 -0.34986073 -0.95565015 0.24220413
sus -0.43427944 -0.95276606 -0.3859325 0.6014632 0.042008433 1.2876245 0.068283975 -0.43651333 -0.7487973 -0.3126288 0.12563826 0.17942776 0.44916463 0.7767178 0.55729604 -0.8428043 -0.63602537 1.3358713 -1.7563018 1.0392607 0.6438778 1.0194663 0.42309034 0.33947745 0.7247301 -0.2871995 -0.23570174 -1.7245294 0.38493058 0.83930683
soportes 0.9051639 -0.37076074 -0.6472253 0.015166402 -0.56605375 0.18284434 -0.9589897 -0.5942614 0.6025639 0.37687078 0.011595442 -0.6759941 -0.18282275 -0.085397035 -0.8955581 -1.0841634 0.116801925 -0.0716177 -0.7291952 -0.6024438 -0.20316678 0.5972635 -1.377546 0.011316704 -0.98393786 0.861381 1.8318549 1.2721132 -0.18177368 -0.021231987
hijo 0.5109388 0.17516172 -0.67732006 0.08551784 -0.5059796 0.11566801 0.4861189 0.49084958 -0.0016308607 0.25676885 0.98582727 -0.4921761 0.2171915 -0.30018649 0.20503248 -0.5699542 -0.08071064 -0.4524452 -0.19244656 0.42254776 -0.04109326 1.0083559 0.40679306 0.34765378 -0.1906053 0.1611352 0.82355237 -0.4231299 -0.9183252 -0.6244857
puede -0.45821127 -0.12235587 -0.13112536 -0.48265857 -0.43582696 0.11608447 0.7206755 0.51481885 -0.039096765 -0.21436198 -0.048193973 -0.43873605 -0.42183042 0.393706 0.5019986 -0.9807233 -0.585393 -0.34622294 -0.15596718 0.8532479 -0.3065153 0.81846356 -0.44981864 -0.129879 -0.2453568 -0.15014626 0.20321295 -0.6143296 -0.37503144 -0.8683586
anterior -0.4234607 0.16785298 0.27376786 -0.22931072 0.46391734 -0.40741256 -0.65233135 -0.009902759 -0.54647917 -1.4346673 0.046231903 -0.8633196 0.5800844 -0.29224402 -0.5843769 -0.43019232 -0.50317425 0.50939345 0.021407437 0.032358814 0.8067128 0.8317968 -0.6352042 0.53865844 -0.6037985 -0.21369393 -0.05326633 0.20533618 -0.74445987 0.50395447
muy 0.12691501 0.16050038 0.9063163 0.67684 -0.47371104 0.8570803 0.010508295 -0.21623024 -0.33993736 -0.42324224 -0.1046334 -0.35648876 0.90941864 -0.34293565 1.3365738 -0.09091703 0.20099986 0.18747231 0.6385131 0.53335476 0.8961513 -0.20110251 -0.90585494 0.38076168 -0.6209794 0.41887996 1.1171585 -0.475217 -0.5117804 0.6616397
desde -0.241731 0.08809089 -0.5219016 2.3188252 1.3488429 0.17909712 -0.27303603 0.02913663 -0.6219019 -0.37786564 -1.5183414 0.3851592 0.41775182 -0.969808 1.0465522 0.21747652 0.6753669 0.28637743 0.009289089 1.5020988 -0.36827132 0.9028127 -1.327063 -0.39191484 -1.0527542 -0.7046675 0.15350553 -0.0714381 0.20847696 0.9759657
correspondiente 0.29751518 0.19584349 -0.09889825 0.21470417 0.41132712 -0.28631893 -0.99235153 0.8446045 -0.8581986 -0.37915754 0.24395278 -0.99482954 0.2100671 -0.73167247 0.457097 -0.121868856 0.40170023 0.046092704 -1.0496031 -0.3820758 0.6350556 0.1261996 -0.065661594 0.39841455 -0.5006197 -0.5835523 0.48274225 0.025035914 -1.6325632 1.1374497
aprobacion -0.5176783 1.0043131 -0.2860322 0.17146146 -0.1115788 0.5795366 0.9111844 -0.2832735 -0.5297146 -0.42499754 0.044004887 -0.24338037 0.04573509 -0.3936666 -0.56759226 -0.4451521 -0.48897228 -0.079868324 -0.36522424 1.0811082 -0.6469733 -0.5126937 -0.48941097 0.33392376 0.13072744 -0.13520703 0.36943164 -0.45851618 -0.9478747 -0.29527625
enviado 0.67967427 -0.30306873 0.21131006 0.9086797 1.2355348 0.57562727 -0.31936648 -1.3102642 0.0035915594 -0.0082493 0.80163944 0.081300065 0.16070764 -0.09736197 0.09154229 -0.3058048 -0.17638591 0.12341562 -0.1424086 1.2330302 -0.074099176 -0.15810744 -0.67638344 -0.08508571 -1.1881961 -0.9218732 0.56132823 0.33082023 0.16113508 0.6144947
realizo 0.008119246 0.445723 0.09099593 0.6955345 0.89828265 -0.050688222 0.70187753 1.246674 -0.1845377 -1.2656323 -0.0219742 0.23852561 -0.2939368 -0.6118554 -0.40579057 -0.71457344 -0.40012 -0.39381805 -0.68380505 -0.2546931 -0.7306435 0.38809726 0.02242584 0.6936443 -0.49895784 -0.8671074 0.7416486 -0.72501534 -0.3673713 0.3207526
paso -1.2788863 0.8423155 -2.0770833 -0.23708688 -0.5672163 -0.569366 1.2859309 0.5912221 0.016606364 -0.20257166 -1.0214987 -1.1532062 -0.28098953 -0.3348893 1.1448723 -0.7869849 0.26231402 0.6271134 -0.11754734 1.0755424 -0.360059 0.042380672 0.84838545 0.38556075 -0.6200115 0.35951778 0.41981024 -0.6193375 -0.59140587 -0.6946172
derecho 0.79139185 -0.6986805 -0.07927659 0.009010711 -0.024633853 0.55165994 -0.14822231 1.6975778 0.35032976 0.6846532 -0.5752263 -0.98851347 -0.11263377 1.7720859 0.803372 -1.016966 0.025047792 0.16084833 -0.9742582 0.7759123 0.045275014 0.9201365 0.4612133 1.1757042 -0.8924962 -0.3597664 -0.15703778 0.22025621 -0.11265428 1.3797636
asesoria 0.3089547 -0.07512747 -0.21018866 -0.54475504 -1.1559736 0.6433095 1.0532756 -0.67802703 0.25362846 -0.008579021 0.6258237 -0.8068698 0.58447206 0.17554662 0.44407898 -0.3252363 0.7713914 -0.043402813 -0.9460563 0.88649154 -1.0222502 0.72218335 -0.64231074 0.04098279 -0.37147266 -0.1459769 1.0842942 -1.1161808 -0.9295021 -0.5507927
posible -1.3779551 -0.2613949 0.8166267 -0.058618233 0.5562237 -0.45318425 0.46870363 -0.0014998068 0.117919825 -0.80406827 -1.2452464 -0.6357359 0.27373838 0.74267024 0.09208405 -0.4773499 -0.05165388 -0.057681352 -0.44691855 0.2211695 -1.2209707 -0.2409224 -1.3279277 0.6918105 -1.3571625 -0.54744923 1.0567056 -0.2866828 0.18427199 -0.43670785
estoy -0.6097092 0.57962763 -0.010230008 0.7962666 0.39737734 0.24519762 -0.2107978 0.46649727 -0.9214445 0.22774075 -1.4294655 -0.14817324 0.22583893 0.35344496 0.3686422 -0.76532185 0.60828644 0.3485386 -0.3973016 0.8529806 -0.19806236 -0.07430812 -0.9486551 -0.5964392 -0.13519529 -0.7351371 0.9125419 0.9141342 0.38665426 0.061520368
ingresar -1.5858383 -0.3524844 -0.7024083 -0.74378854 -0.69883555 -0.17158374 0.3965096 0.74360937 -0.02175416 -0.009024189 0.2710456 -0.9156557 0.4131046 0.047832243 -0.16903833 -0.049024474 -0.6422066 0.03609582 0.38862467 1.5501796 -1.0972155 -0.18855384 -0.7620442 -0.469211 -1.5444916 -0.14342552 1.0387939 -0.8093803 0.44225296 -1.002804
soporte -0.2107376 0.1568888 -0.33682948 -0.0065020537 0.09679515 0.016883215 -1.1349789 0.1572679 0.24900794 -0.36729306 0.69707245 -0.149399 -0.8169018 -0.3931566 -0.96876013 -1.1068221 -0.23395218 0.78271663 -1.4092634 -0.6521452 -0.2379694 -0.21034397 -0.53677666 0.029932696 -0.8137337 0.5220232 0.8275034 -0.38705534 -1.0630777 -0.68718183
dice -0.5263865 0.13248983 -0.8325361 0.7091947 -0.21119976 -1.3203335 -0.032334052 0.21445297 0.97846425 -0.2369693 0.068521425 0.34660584 -0.71972513 -0.6323773 -0.28539723 -0.97083986 -1.3340788 -0.5906746 -0.16286755 1.3243403 0.11804523 1.2563735 -0.54646695 -0.6537881 -0.38980043 -1.25628 0.6671425 0.60037285 -0.6885604 -0.76798517
presenta -1.0658894 -1.4911817 -0.8734641 -0.29487738 -0.35624507 -0.35774696 -0.03682257 -0.46804976 -0.33282897 1.0269243 0.28766114 -0.17546643 1.12377 0.10700295 -0.39610812 -0.5196763 1.1734388 1.3503208 -0.06126193 1.1748097 -0.5612284 0.19331335 -0.849055 -0.13254122 -0.2500552 -0.20960878 1.918468 -0.5660273 -0.34588942 0.050030515
certificacion 0.7010284 0.79351336 -0.4419711 0.24426454 1.1404165 1.0659107 -1.113806 0.28358614 1.5727162 -1.4092398 1.3860345 -0.34226975 -0.63847995 -0.10128587 -0.49875966 -0.97539365 -0.95338964 0.4262691 -1.7649823 -0.28062388 0.15950553 0.56641203 0.6737809 -0.78161794 -0.703255 -0.8452259 0.27450722 1.6071001 -1.0324713 -0.34066653
esposa 0.8460555 -0.0812126 -1.1098835 -0.38863587 -0.0047646025 0.3155986 0.91155106 0.38311458 0.8113738 0.24660577 0.6196771 -0.48634234 0.20163761 0.6263167 0.8468431 -0.36138833 -0.84585625 -0.3403759 -0.3536344 0.7579927 -0.020374961 0.9039405 0.30466115 0.28666532 -0.57527834 -0.6336364 0.31484684 -0.5235496 -0.76141596 0.06263403
han 0.108266234 0.17078128 0.8494238 1.6036404 0.6687986 -0.75845176 0.44805354 0.2643338 0.40084308 -1.0339355 -0.06709878 1.2872047 1.1957116 -0.063170716 0.3177698 0.087611556 -1.576337 0.08137892 0.035841353 0.429427 -1.0475638 1.4980965 -0.8856311 0.45739734 -1.2188127 -0.9065737 0.26356724 0.044939324 -0.21074076 -0.13966997
dia -0.800641 1.2377894 -0.4128435 1.4897251 0.5420673 -0.063939594 -0.5714515 -0.25164777 -0.97984695 -1.1490211 0.15519461 -0.06176432 -0.23014347 -1.2313343 -0.08695438 -0.531589 0.15309869 0.50756544 0.48238498 1.156542 0.37046075 0.17463501 0.3160488 0.64916223 -1.74243 0.41652685 -0.6114348 -0.06007895 -0.8517213 0.3163261
quedo -0.8086156 1.3495209 0.0869146 1.3276696 -0.73060334 -0.21362656 0.9586994 -0.793875 -0.46758556 -0.42630765 0.3347057 0.19824159 0.15447964 -0.56485516 -0.6166166 -0.49876046 -0.41096023 -1.1577905 0.0142629575 0.4370014 -0.29486862 0.5818831 -0.688743 -0.2911419 0.6889597 1.5961932 1.9249334 0.35815322 -0.33284166 -0.19688317
podido -0.8988462 -0.4859481 -0.42145833 0.37065572 0.32180694 -0.03237752 0.031403508 0.5507866 0.17522961 0.36405265 -0.7146645 0.337897 0.81061465 0.39987677 0.26307246 -0.20770031 -0.16309828 0.19976586 0.92095315 1.8427075 -0.8178413 0.3833646 -1.6022884 -0.955358 -1.3730996 -1.1625394 1.1924766 -1.159879 0.3953765 -0.71208084
cuenta -0.33459312 -0.019491121 0.18291384 1.5575459 0.8219307 0.6903851 -0.14660291 0.14088118 -0.108173095 -1.5443434 -1.2308031 0.06850609 0.40404344 -0.78712296 0.36350834 0.023256944 -1.1418903 -0.7239171 -1.1770942 -0.15270564 -0.9139852 -0.64699584 0.3354255 1.306719 -0.63145983 -0.62781745 0.84734964 1.7299895 -0.90092194 -0.91876245
asi -0.23174061 0.07804656 0.23198995 0.31194982 -0.26790327 -0.7333797 0.47768605 0.28846452 0.066768356 -1.2632601 -1.381156 -0.9188429 -0.55908155 0.042704724 -0.49873695 -0.43400028 -0.20228504 -0.34206438 -1.2528949 0.07436162 0.46132183 0.41522786 -1.4326359 0.2130548 -0.13575429 0.29238716 1.0591214 1.4871495 0.43464056 0.7678282
poder -0.65717274 0.4773546 0.059279636 -0.7415834 -0.19957025 -0.22896191 -1.1472152 0.14613464 0.53055984 -0.7446379 -0.6644912 -1.1608762 -0.16334441 0.72755 1.1785558 -0.32162628 -0.22059162 0.11354957 -0.42445457 0.012932933 0.46965197 -0.4803419 -0.5677913 -0.0016935403 -0.4560502 -0.77342814 1.5206015 0.071534604 -0.1409714 -0.48761413
dos 0.3454284 -0.7050506 -0.77384186 -0.6145206 -0.0960838 -0.5141648 -0.37799925 -0.38700214 -0.57981753 0.15626155 -0.7384545 0.95469636 0.7889575 0.106225386 -0.5791425 -1.2149221 -1.0797555 0.062015742 -0.7621198 0.93823314 1.4791546 1.8902063 -0.8572629 1.0994216 0.00632925 -0.23915379 0.63818556 0.3473635 0.40203083 0.014350179
aprobar -1.1638193 -0.05400854 0.021181602 0.29051378 -0.81958276 -0.17501517 0.86766326 -0.049906258 -0.70330876 -0.07033466 0.3072185 -0.5130247 0.40349862 0.035428464 -0.2747356 -0.3671193 -0.32906225 -0.027391905 -0.59392864 1.9866772 -0.6476672 -0.079222955 -0.22882529 -0.47578025 -0.69519335 -0.6185937 0.54897976 -1.10467 0.35271254 -1.0331693
enero -0.40045387 1.602914 -1.5667608 1.1064187 1.5063975 -0.81999636 -0.6562592 0.3909655 -1.0041647 -0.5289554 0.2297484 -0.2326039 -0.21612266 -2.1670268 0.25947404 -0.49637857 0.97149897 0.57693493 0.24485885 0.32476988 0.42078143 0.5146302 -0.97365665 0.42779487 -0.3251866 -0.27081326 0.7550147 0.1252874 -0.4377436 -0.12613215
rechazo 0.46059376 0.7604937 0.15013748 -0.46189472 0.80531603 -0.02241061 0.9961723 -1.2685163 -0.8598046 -0.5848438 1.1152295 -0.04607347 0.16695127 -0.61756533 -0.74175566 -0.82734174 -0.9918265 0.33492795 -0.40667206 1.1237911 -0.3837099 0.11069935 -0.82545173 -0.4330093 -0.3573953 0.5219141 0.44927013 -0.1956958 -0.7496172 -0.8048972
recibido -0.12934409 0.8794502 0.1472464 1.0301929 1.8892258 -0.8749916 0.5453991 -0.7428447 -0.5631024 -0.5807577 -0.034093067 1.0377712 0.65173477 -0.093925215 0.0068379054 -0.10587083 0.47152793 0.46699408 0.3522483 0.740485 0.45267645 0.16206108 -0.7956829 -0.28925484 -1.2056347 -0.6397059 1.4905064 -0.35730562 -0.123907216 0.25889865
pantallazo -1.1274087 -0.5892198 -0.087641545 -0.40626976 -0.27504057 -0.10734504 -1.3718851 -0.25481313 0.10180906 -0.9446805 0.28629532 -0.37589824 -0.1533836 -0.21294054 -1.3971539 -1.0043591 0.41260657 0.68696094 -0.7138643 0.408391 -1.2110239 -0.541615 -2.1029096 0.4841839 -1.1336849 -0.43131503 0.85814595 0.9688012 -0.16272804 -0.5927014
mis -0.051605042 -0.23947197 -1.1444438 -0.14019328 0.13715793 -0.40072164 -0.3183412 0.8962848 -1.1040379 -0.15988907 -1.5521398 0.72191846 0.8011445 0.2196564 0.3667101 -0.025655476 -0.44142902 1.2389523 -1.2729915 1.0913953 1.3257319 0.5569305 -0.7479715 0.8485403 -0.009287115 -0.030401768 0.6054329 -0.77524716 0.8484141 0.07662821
soliicta 0.4181588 0.3393288 -0.26629478 -0.22991028 -0.84123373 0.67318755 0.7737707 0.22364326 -0.06892806 0.002853326 0.8178676 -0.3442115 -0.0049317223 0.6210652 -0.12529567 -0.31724983 -0.06456276 0.07401532 -0.66164225 0.9138786 -0.9121212 0.6742654 0.0496532 0.22987482 -0.36216706 0.2525232 0.83826435 -0.8872953 -0.62822074 -0.6469819
pendiente -0.7880257 1.015645 0.3135399 0.82225555 0.09781219 -0.279416 0.7803281 0.31210196 -0.021171845 -1.3230871 -0.17910464 -0.8041064 0.330462 -0.5037038 0.15407364 0.36739647 -0.44266984 -0.9355177 -0.2669061 -0.18059641 0.07165575 0.8284358 -0.5915498 0.30518502 -0.09862049 0.39651725 0.7369619 -0.06141863 -1.0284371 -0.09130797
envia 0.62342596 -0.7863791 0.20948103 -0.85103595 -0.17509234 0.41347575 -1.145473 -0.7222199 0.614006 0.8314698 0.8886875 -0.21987629 0.27971044 0.15160328 0.16020386 -0.2615981 -0.037214816 0.16599564 0.14136495 0.78915215 0.10338429 0.24691874 -0.5692993 -0.61656255 -1.7078735 0.80807257 1.3987336 0.3669807 -1.025484 -0.0014968296
momento -1.2332493 0.30229488 -0.5902471 0.74314725 -0.2530256 0.11404882 -0.06754706 0.6146281 0.13605744 -0.7080937 -0.4267357 -1.2179996 0.20703666 -0.039094586 -0.20993644 0.6125865 -0.09725153 1.1002508 -1.2359372 0.82788336 -0.80289537 0.014196931 -0.7769807 -0.55388856 -0.89785063 -0.6706294 0.25110543 -0.32576913 0.8331182 -0.5898989
hasta -0.3518424 1.4887326 -1.2708272 1.6553745 1.5141311 -0.35603878 -0.15468556 1.2793069 -0.73333186 -1.3516121 -0.4552832 -1.0401047 0.296171 -0.46938553 0.81991524 -0.122824244 -0.3215729 0.4140838 0.25555295 1.2485125 -0.26252586 1.528722 -1.0062798 -0.04185336 -0.6041355 -0.5517114 -1.1395347 0.13253288 0.22856244 -0.60177445
educacion -0.0017852575 0.8463682 -0.34211132 0.22307202 0.060772583 -0.31883445 0.42888945 0.69117135 -1.307053 -0.47823548 -0.76169145 -0.29572242 -0.6120272 -0.23542058 -0.040108744 0.14873488 0.14750844 0.63386256 -0.085098654 -1.1392379 -0.056498848 0.5119995 -1.2430748 1.1961169 -1.0799688 -0.45397136 0.6623697 -0.73766124 -1.3672725 -0.03295576
mismo -0.06728144 0.23842177 -0.10446872 0.5039458 0.468355 -0.30371433 0.8021235 0.6260452 -0.9659608 -0.48960996 -0.76440847 -0.20084065 -0.8778488 0.21033591 0.010639958 -0.1422752 -0.29769593 -0.34461915 -1.1306882 0.7875866 0.1714764 0.30201265 -0.45733073 -0.8724713 -0.11154901 0.18824515 0.3392315 0.25404528 -0.2500384 -0.59039897
cargue -0.8979259 -0.1827304 0.4342773 -0.34533513 -0.23218541 -0.5667308 0.08639808 -0.08914754 -1.1951122 -0.5733987 0.23658115 0.07097474 0.4721319 -0.30961564 -1.5197424 -0.37634972 -0.04059228 0.5337378 -1.1594214 0.6435583 -1.1360067 -0.018106764 -0.56776994 0.12905952 -0.98408085 0.15084743 0.72561467 -0.39445272 -0.44827875 -0.13428596
teletrabajo 0.45176223 -0.26708254 0.13829242 0.43172142 -0.5334475 1.014503 0.44816113 -0.84118545 0.46923345 0.7096197 0.25381866 -0.59844357 0.035037577 0.31750816 0.23259632 -0.56761724 1.1312205 -0.1657457 -0.772358 -0.2645408 0.18412127 1.166664 -0.5678447 -0.081376195 -0.41467538 0.07830591 1.0446911 0.1743981 -1.7837524 -0.012038382
llego 0.29825303 0.74013644 -1.0876801 1.2364379 0.60543174 -0.30347466 1.2035917 -0.20758645 -1.0627979 -0.24229051 0.48422286 0.47628096 -0.14289579 -0.45007658 -1.0612029 -1.3749963 -0.90430665 -0.5639277 0.3355891 1.0928091 0.25592986 0.22933047 0.36742988 -0.48677608 -0.474783 0.3379826 0.5923925 -0.23646636 -0.5572004 -0.7527932
dinero 0.51252085 0.64696777 0.6697144 1.4074447 1.704334 -0.16485748 -0.74835855 1.5671362 -0.52719337 -1.3488954 -2.0043714 -0.7705037 0.5740699 -0.15111369 -0.5924941 -1.6775357 -0.16981846 -0.3501946 -0.3085232 0.38763097 0.0050543896 0.98711646 -0.13325427 2.0668914 -0.8352627 0.83400875 -0.030438105 -0.09819639 -0.60607755 -0.77900445
periodo 0.19607231 -0.47436413 -1.0859778 1.8437014 0.41229185 0.005767408 -1.2890395 0.629229 -0.82148814 -1.2893821 0.61370087 -0.300978 -0.0052745217 -1.1143463 0.15915188 -0.36489844 0.58078706 -0.056790903 -1.2596571 -0.05496072 0.9422543 1.4788088 -0.5454548 -0.17112896 0.19260275 -1.3100109 0.19168477 0.023631115 -0.45988464 0.26789317
ayuda -0.74795604 0.8913465 0.5152769 -0.70446557 -0.8163056 0.41132495 -0.09313007 -0.35806513 0.019610928 -0.532964 -0.2487438 -0.0866137 0.4846353 0.9642412 0.59727156 -0.012907758 -0.29693842 0.96061033 -0.092404895 0.9886773 -0.22311136 -1.0762416 -1.295601 0.21404377 -0.20929928 -0.07840512 1.5441047 0.23438324 -0.29176092 -0.27794096
envie 1.1237438 -0.036554568 -0.79255545 0.06378816 0.03550304 -0.18168625 0.039859373 -0.81219566 -0.039939627 -1.6499457 -0.7111024 0.5407164 -0.5336639 0.054707758 0.5295627 -1.0945662 -0.52569026 0.42470178 0.046093307 0.68857837 0.75091064 -0.45669833 -0.39250425 -0.8406544 -1.565102 0.13573955 0.44329947 0.66060776 -0.26954436 -0.75838566
ser 0.055795383 -0.657747 -0.27691317 0.30101642 0.93464917 0.37405235 -0.1702176 0.5532328 -0.30200994 -1.7142836 -0.8157449 -0.02894742 -0.4057845 0.27026507 0.7502115 -0.14931515 -0.28750497 -0.14594088 -0.013999483 -0.4424188 0.06407471 0.9338326 -0.8085623 0.65106535 -0.5879385 -0.5863883 0.45868072 -0.06728517 -0.2576371 -0.31836715
vez -0.53871775 0.24378416 -0.084126964 0.61654407 0.20155345 0.5465335 0.0490911 0.23277865 0.4884439 -2.1808553 -0.10815969 -0.49325955 -0.52583313 -0.5994435 -0.6586323 0.39246637 -0.46660647 -0.20968102 0.23509113 1.1531807 -0.15728444 -0.2507313 -2.6891177 -0.3256937 -0.82904714 0.7514459 0.40449485 1.2470849 -0.2069593 -0.3811655
dias -0.5076514 0.6456934 -0.8920707 1.5262266 0.35499194 -1.7308167 -0.3744032 -0.612726 0.09161324 -1.0455297 -0.4129299 0.43198004 -0.33773345 -0.20003577 0.7077654 -1.152685 -0.8802567 0.5752605 1.2361587 1.8142332 0.81163526 1.3712914 -1.0549878 -0.58713686 -1.0976079 0.8284558 0.15939899 1.1823677 0.7036721 -0.92690235
estudios 0.22414716 -0.9384679 -1.6485413 0.9837343 0.6007315 0.7021089 -0.765494 0.20414802 -0.35501012 -0.55424535 -0.08059304 -0.09972346 0.03345709 0.8059595 0.91330713 -0.23204768 -0.092085995 0.31476495 -2.2525785 -0.1778501 -0.16719154 1.0461639 0.10585609 -0.09068169 1.0675119 -0.9671105 0.33695695 -0.39366266 0.111074485 0.74147874
todo -0.81081074 0.43474418 0.45008823 0.49128473 0.49269518 0.17162457 -0.06520371 -0.00920503 -1.0602168 -1.3006324 -1.879809 -0.5528258 -0.086166196 -0.110246 0.25023133 -0.40175417 -0.71620226 0.2523305 0.9246137 0.65875393 -0.44913214 0.37823707 -0.7742018 -0.083158165 0.3335866 -0.074757546 1.2937137 0.68727505 -0.068861514 0.028438533
va -0.27585065 0.087653905 -0.48586822 0.099500984 0.2614335 0.27986977 1.1404866 0.7728016 -0.774872 -0.5860243 0.39451152 -0.5964133 -0.391784 -0.0554574 0.6669451 -0.18423349 -0.75985664 -0.75663644 0.5016309 0.62866884 0.1163595 1.0597817 0.4353437 -0.90052736 0.57524985 -0.33659628 0.90842724 -0.449941 -0.79298526 -0.5338906
fin 0.6056864 0.7488695 0.65348744 -0.8394604 -0.0043991175 0.35535643 -0.2968587 -0.21660885 -1.130936 -0.40038115 0.26545316 -0.7420127 0.22439829 0.18318075 1.0138825 0.05064619 -0.3084289 0.83708817 -0.3785145 -0.03128746 -0.12396539 -0.20253104 -0.73422354 0.030581836 -1.2712055 -0.0025150948 0.2251612 0.051352944 -1.3413659 0.6359511
pension -0.66596466 0.18826035 -1.4863634 -0.11139096 0.92677414 -0.6467311 0.27889407 1.4050989 -0.5795251 -3.0477316 0.33451873 -0.08805314 0.05911805 -0.663786 -0.37028593 -2.2333062 0.2022686 1.095473 -0.98125124 -0.0034929737 0.041680656 -0.0121559 0.14725386 1.226714 -0.12583548 0.28464356 0.15192139 -0.030312952 0.8186434 0.24587587
estan 0.3896658 0.17635183 -0.08194373 0.66823846 -0.19018933 0.36020845 -0.822632 0.2887842 -1.4530871 -1.0186733 -1.3677814 0.8219599 0.8546319 -0.12658831 -0.5386771 -0.8274575 -1.5667704 -0.2968888 -0.29923868 0.5221251 0.50535554 0.678319 -0.46105206 -0.33546996 -0.26443896 -1.2178816 0.5744877 0.26529387 0.6019583 -0.0047419188
reembolso 1.4140213 0.014533728 -0.028474582 0.37930325 0.9004929 0.5989632 -0.9309316 1.7695946 0.2139567 0.60304016 -1.3424371 -0.6680294 0.24845724 0.26437733 1.0575716 -1.2831303 1.2630123 0.28008756 0.16682366 -0.2550032 0.67907304 0.7008358 -0.28463748 1.1227509 -0.81698674 0.4881006 1.450398 0.63605464 -0.81033707 -0.2865698
tambien -0.04201418 -0.046560712 -0.4510683 0.0060010157 0.74890715 0.0048098443 -0.35438287 0.9586392 0.008440064 -0.42379916 -1.6371428 -0.2536283 0.07753803 0.26387826 -0.63553786 -0.4932165 -0.841949 0.11025626 -1.1095395 0.77113384 -0.01652637 0.120878056 -1.0110797 -0.904328 -0.18246251 0.2820279 1.1394382 1.784654 0.18532462 0.45478922
cambio -0.3945045 -0.20406862 -0.8125561 0.13788068 0.17747882 -1.1745849 0.44229054 0.71705955 -1.0593803 -0.8195865 -0.08799386 0.15427375 0.8158177 -0.2696829 -0.83914423 0.22547355 0.24322557 -0.52796876 -0.76652026 0.56151414 -0.39146665 1.4924308 0.36747497 -0.44648826 0.65895593 -0.54722345 2.2002325 -0.4905145 0.28158137 0.40690807
desea 1.1012155 0.22403163 -0.74417627 0.1093816 0.12800771 0.045938402 1.3311005 0.28066936 -0.011075823 -0.5518075 0.3615363 -0.18355142 -0.048376977 0.34007868 -0.39357576 -0.88609743 -0.84047616 -0.3948164 0.04704016 0.49923053 -1.4377671 0.02054919 0.14678237 0.70015323 -0.6247854 -0.101151854 1.0759882 -0.9101919 -0.76039064 -0.530932
sin -1.182399 0.9510737 0.4331823 0.74882865 0.49442247 -0.68937373 1.1730571 -0.4228429 -0.66997594 -1.8170615 -0.70026255 0.6815346 -0.35730392 0.23124917 0.28707927 -1.1716195 -0.37419003 0.27958 0.43752024 0.66080546 0.42312413 0.26254657 -1.231589 -0.73112816 -0.27171594 -0.3910172 0.4469603 -0.38501805 -0.34154138 -0.50939363
esto -0.71239626 0.5122597 0.26591784 0.19398291 -0.02549891 0.4201193 -0.16475394 0.6441524 -0.26024726 -1.0121846 -1.2046304 0.11130087 0.2059476 -0.40056536 -0.44129422 -0.93639433 -1.0601907 -0.03731596 -0.08560239 0.8070611 -0.63477355 0.53266644 -1.9989649 0.8144517 -0.45101854 -1.3119022 -0.2260401 0.38844573 -0.36848122 0.41525412
valores -0.49087673 -0.181019 -0.628011 0.15709193 -0.80151266 -0.12477999 1.2010988 -0.060318716 -0.8659001 -2.093147 0.36023206 0.39672723 0.34396404 -0.35859242 -0.98083097 -1.6568496 -0.42485845 0.38473907 -0.72275835 -0.574917 0.51458263 0.093748525 -0.052347597 0.884725 -0.55227065 -0.3762111 0.39975905 -0.37765348 0.36285728 -0.8123955
pasado -0.34702045 0.8482621 0.012127326 1.4018573 0.65760356 -0.435153 -0.557827 0.0037988091 -0.6434138 -0.4027788 -0.96586794 -0.6835893 0.37509227 -0.6885876 0.6277612 0.3649495 0.17304513 -0.2733146 0.6495038 1.6361481 -0.21587071 1.5874661 -1.4986022 0.00069173914 -0.84091717 -0.3042273 -0.23348252 -0.023309063 -0.7037521 -0.04480434
hay -1.1604713 -0.0025191675 0.37355575 1.1599059 -0.26113918 0.2263113 1.0277476 0.112084135 -0.25470808 -1.935945 -0.97945786 -0.42739654 -0.42136183 0.46311986 -0.5889413 -0.76476705 -1.0579759 -0.09958516 0.5935761 0.671946 -0.53881943 0.388325 -0.91686904 0.11826093 0.39763558 0.16995332 0.7564617 -0.33385247 0.17243978 -0.7398515
solic -0.2588188 0.6023792 -0.7128842 0.68123275 0.2365541 0.4334831 1.7817634 -0.790179 -1.2281952 0.30407122 1.0476774 0.07651412 0.050222293 -0.5244957 -0.3296725 -0.590178 -0.0976622 -0.6715031 -1.0183002 0.29853234 0.5645582 1.4149294 -0.16094072 -0.06648752 0.09123897 0.48704758 0.89695287 -0.5667501 -0.07433962 0.009888263
segun 0.6675093 1.2454761 -0.9158733 0.36203194 -0.5447125 -0.22429581 -0.19788627 -0.56148505 -0.24907447 -0.16692525 -0.31313938 -1.2357671 0.5821103 0.019584613 -0.73673946 -1.5657388 -0.43316612 -0.063938506 -0.8693491 -0.08839002 0.7514683 0.19157888 -0.4757295 1.6210519 -0.22229336 0.7907232 0.6974433 0.82004434 0.48707575 1.540162
nivel 0.20935829 0.2709395 -1.279083 0.9056398 -0.19977573 0.42596528 -1.0488291 -0.019548895 0.051563192 -0.08716425 1.2944334 0.44899577 -0.24850194 1.2622892 -0.33935797 -1.418223 2.0093803 1.0863258 -1.0856402 -0.45682657 0.2141433 0.8513146 0.4780016 0.51656187 0.8511827 -0.029438322 2.1237292 1.1000165 -0.7137794 -0.3754237
indicando -0.49441049 -0.07370866 -0.68898517 0.81876194 -0.22243923 -0.43858084 1.3653022 0.054231077 -0.00970451 0.3937504 0.9380521 0.51124233 0.050317388 -0.47151956 -0.37391576 -0.8675359 -0.2284482 -0.050117467 0.17965712 1.5153452 -0.5643822 0.6566862 -0.67510295 0.14802513 -0.6953308 -0.39726502 0.7047761 -1.0836531 -0.31667382 -0.4713864
permite -1.3592976 -0.7404908 0.0677425 -1.1986669 -0.79451615 0.24236752 -1.0448408 0.4051054 0.44560984 -0.23680915 -0.03214904 -0.5888415 -0.3948632 0.27408057 -0.6225372 -0.64468235 0.20283575 1.5902784 -0.0071062827 1.329468 -1.917005 -0.14643098 -1.1279327 0.29812834 -2.0879266 -0.35773233 1.0317025 -0.5258141 0.059601296 -0.6416436
motivo -0.026742013 0.35793018 -0.16291901 -0.47466123 0.3361681 -0.50916934 0.7887399 -0.5657256 -1.2147161 -0.8413367 -0.10597809 -0.6262903 -0.073961884 -1.022234 0.68642205 -0.3302883 0.006153559 -0.26929107 0.48441392 0.28969255 0.8167218 0.7907109 -0.78453296 -0.29410297 -0.63294166 0.073138766 0.6120949 -0.6761068 -0.6241561 -0.020190893
quisiera 0.36209586 0.18125479 -0.39264518 0.18376793 0.4522408 0.20816582 0.9714384 1.681036 -0.42377612 -0.78203 -1.430099 -0.09711165 0.8386024 0.34338266 1.3446449 -0.28168234 -0.60858274 0.09323926 0.4975538 0.46339476 0.68486047 0.45486268 -0.29130724 0.5460194 0.57336414 0.023130694 0.8048493 -0.083809584 -0.7011619 -0.67780286
beca -0.34187678 -0.541032 -1.1078162 -0.48434973 -1.0141039 0.67299014 0.9281835 1.346788 1.5054291 0.8493859 0.035257306 -0.9943444 0.034259606 1.2720244 1.199292 -0.43992335 -0.5221982 -0.2964798 -0.2622983 0.6184555 1.2592659 1.9573965 -0.6252658 0.8245804 -0.79249436 -1.2229837 0.21605572 -0.8718703 -1.1722827 0.9024713
crear -1.0999485 -0.43306792 0.2800101 -1.3681657 -1.1919513 -0.15157485 -0.42821315 -0.37732476 -0.1615312 -0.22069782 0.10270415 -0.8903881 0.46182182 0.04957238 -1.4035461 0.03645636 -0.60784626 1.2438185 -0.22371142 1.1980556 -1.7250224 0.46724346 -0.5868646 0.51663244 -1.2579926 -0.5809076 1.5251914 -0.22543032 0.31407288 -0.62253976
aprobado 0.11427227 1.2447572 -0.8419078 1.0689335 0.66848147 0.61225075 1.1055723 0.37884977 0.40926996 0.16778108 0.7675263 -0.586346 0.5800195 -0.80360276 -0.64595914 -0.055479437 -0.4473844 -0.94490635 -0.8176121 0.31700128 -0.7857419 0.9250122 -1.2045854 0.567709 0.30798382 -0.71172255 0.42791012 0.62035614 -0.617117 0.014968814
realice -0.42268616 0.7005505 -0.6742272 1.5437405 -0.3891972 0.5158979 -0.75675565 0.25267795 -1.005995 -0.110460036 -0.40950844 0.19138657 -0.35486296 -1.305917 -0.09717949 0.029540995 0.2947166 0.52875954 -0.2271411 0.06934873 0.3810667 0.08111428 -0.6349822 -0.090480395 -0.14956331 0.6207011 0.97118837 0.00037249248 -0.42075342 0.21865284
realizado -0.031168807 0.94894457 -0.96392107 0.6108437 0.48024535 0.82951766 -1.1180874 0.36992782 -0.21205023 -0.3293001 0.031382337 -0.72800744 -0.41059762 -0.05806496 -1.1440318 0.29157367 0.17945214 0.5830325 -1.1477796 -0.1546643 -0.051240645 -0.14729218 -0.8814976 0.29793432 -0.93981355 -1.0134666 0.36017868 -0.06529287 -0.56153005 0.18146622
procedimiento -0.7689291 0.51163113 0.24458419 -1.355127 -0.31972688 0.17219459 0.25389603 1.5582862 -0.7682111 -0.2917273 -1.1145154 -1.1304767 0.38837597 0.62070125 0.5582578 0.08367655 0.45867708 -0.24447082 -0.32040405 0.2524033 0.33593333 0.4940671 0.370044 0.7859023 -0.89521456 -0.15069917 1.3740996 -0.30333605 -0.24603674 0.09671467
diligenciar 0.08725495 -0.26201499 0.11273244 -1.6855189 -0.37515292 -0.04195439 -0.69599646 0.6278602 0.6350649 -1.3588083 0.2834 0.21554568 -0.81166255 0.7251035 0.677071 -1.0077432 -0.6953113 0.9688183 -0.3852401 0.29070345 -0.30788052 0.1654207 0.112124845 -0.3969651 -0.6743967 0.13866766 1.3138678 -0.6962103 -0.49802774 -0.27471876
teniendo_cuenta -0.52924126 0.42199695 -0.7478701 0.31335834 0.92796856 0.43101203 0.20662893 0.058272872 -0.9706789 -0.79768646 -0.29168695 -0.88604283 0.8749931 -0.2178901 -0.46363235 -0.9706725 0.4476155 0.77127457 -0.26724538 0.3314172 0.24496266 0.57940716 -0.7096966 -0.08795267 -0.26108387 -0.84301156 -0.5294063 -0.75971496 -0.4338835 -0.21949878
descuento 0.6771992 1.6960496 0.22735594 1.1787714 0.72963196 0.25538674 0.3531003 1.2309382 -0.8783876 -2.3409142 -1.5976874 -0.33691186 -0.40215656 -0.12382654 -0.6048877 -1.6353331 -1.6871969 -1.0819514 -0.9116048 -0.6038857 -0.493798 0.33559465 -1.1807263 1.9829607 -1.8384749 -0.6670068 -0.51168054 -1.138682 -0.026814537 -0.5546997
solicituddo 0.197285 0.27224883 -0.61319804 0.42040837 0.982363 -1.0409031 -0.7020296 0.18590097 0.08270518 -1.1721847 0.45466784 0.14598973 1.005112 -0.33151233 -1.2669938 -0.7668445 -0.41123372 0.04680544 -0.4798037 -0.041124392 -0.13491791 0.15939017 -1.3377903 0.03244336 -0.93122345 -0.86230475 0.6914053 -0.65766513 0.03194164 0.4327111
pueden -0.1670305 -1.0072585 0.007817538 -0.7509305 -0.15180627 0.20273736 0.12225952 0.46455675 -1.6943688 -0.45365995 -1.2253637 -1.1428735 -0.96757966 1.22507 0.06269472 -0.54873365 -1.5484027 0.22500712 0.7536077 1.4202223 0.38858044 -0.2351493 -0.42739004 0.09306379 -0.12424122 0.3571892 0.8144915 0.7295898 -0.016394828 -0.58407825
respecto -0.22202322 1.2023046 0.70148706 0.607586 -0.9715645 0.0670783 -0.022366947 -0.78021896 -1.186477 -0.82877755 -0.27491063 0.017121993 0.85911506 0.70005363 1.3283691 0.16280237 -1.1849653 0.7606009 -1.3459822 0.3081494 1.0140387 0.41404307 -0.94008267 1.4763378 -0.13929255 0.31730086 0.3954832 -0.38672912 0.7161109 -0.27644765
archivo -1.161733 -0.14841484 -0.099178635 -0.13485159 0.28357664 -0.38833624 -0.596703 -0.43936953 -0.10924842 -0.9983466 0.5733651 0.17873517 0.59839946 0.44321498 -1.2239857 0.19260243 -0.2756697 0.4273013 -0.8694103 0.5965165 -0.5519881 -0.043521866 -2.3506184 -1.0315396 -1.069775 1.017611 1.1894244 1.2871282 -2.3748726e-07 0.63849115
apoyo -1.1564107 0.9385216 0.75681597 -0.5459178 -0.18905345 0.13390484 0.24703282 0.20787714 -0.5723871 -0.5970342 0.23605675 -1.1101714 0.6312356 1.0170183 0.31276757 -0.56229395 0.19563708 0.41704997 -0.35897237 -0.32959452 -0.047478803 -0.0755805 -0.6570014 0.92903996 -0.5001115 -0.36062932 0.31149364 -0.55088437 -1.0166113 0.32533658
concepto 0.6366632 0.7340232 -0.3424077 0.4861164 0.3958567 0.18925503 -0.46281055 1.413335 -0.80133855 -1.5176398 -0.3429944 -0.25300425 -0.5680219 -0.6024377 -0.592143 -1.2270103 -0.1889638 1.2852415 -0.8555358 -0.9367816 -0.62271595 -0.38801646 -0.422593 1.150851 -0.84070224 0.05039736 0.46367115 -0.3578703 -0.282033 -0.4379428
habia -0.11964724 0.44680986 0.09689373 1.5019001 1.1374382 0.15266813 0.30588657 -0.7419069 0.5719166 -0.64906144 -0.3328228 -0.12073932 0.6945529 -1.254084 -0.38858038 0.06853315 -1.1006073 -0.036656905 0.52598315 1.2448901 -0.6842328 1.2004371 -0.9465879 0.8573253 -0.97667426 -1.1397827 0.047230054 0.2652317 -0.25690788 0.56390864
tanto -0.60220337 -0.49125448 -0.006127222 0.48821387 0.23429805 1.0014533 -0.011835948 -0.0021063797 -0.25893098 -0.74891204 -0.75966483 -0.0037879962 -0.21472998 -0.054052867 -0.19459373 -0.31046852 -0.42248523 0.73161286 -0.56277996 1.1132973 -0.91488165 0.086576685 0.14167568 0.41887102 -0.8070919 0.40552408 0.3036304 0.812775 -0.025436698 0.021933662
ese 0.2795857 0.7158324 -0.0814188 1.0475146 0.46009228 -0.15789923 -0.24954683 1.1775603 -0.31159893 -1.0266156 -1.0773917 -0.7081119 0.80987513 -0.3879156 -0.18163815 -1.0177344 -1.6371471 -0.047113758 0.24093916 1.2644364 0.310241 0.23272674 -0.64387465 0.52355134 -0.5111219 -0.3287753 -0.7305273 0.07152253 -0.6594031 -0.5347775
pdf -0.8132735 -0.7200359 -0.846418 -1.0037142 0.13315126 0.017126244 -1.4594595 -0.46777382 0.31634906 -0.38320428 0.78470767 0.1405341 -0.47150236 0.5587025 -0.65519357 0.059487198 -0.682626 1.2169416 -1.5390062 -0.26459786 -0.6188898 -0.650874 -1.1801795 -0.5341544 -1.4692727 0.4644802 1.2215942 1.1334512 -0.91770476 0.0031257567
diligenciado 0.055732064 -0.007869293 -0.50947875 -0.8877258 0.14522311 0.41066658 -1.5227301 0.059869256 0.52214247 -1.448267 0.9844149 -0.05511203 -1.6958761 -0.4520603 0.38441738 0.21561992 -0.91935956 0.37161207 -0.88244617 -0.8499014 0.024279507 -0.055650964 0.009758897 -1.0427271 -0.70540315 1.1762502 1.998284 1.0103143 -1.948824 0.43530667
estudio 0.14861819 -0.09079742 -1.1355263 -0.13040076 0.36490482 0.69228435 -0.86339754 1.1449821 -0.0004860895 -0.45597282 0.19311088 -0.0017024213 -1.0945224 0.8972911 -0.16846511 0.34366778 -1.2789547 0.039770473 -0.6669946 -0.046596088 -0.0047346633 0.90418625 0.59012574 0.5583965 -0.41441303 0.12095242 0.24112554 0.35900238 -1.4683369 0.38428953
pues -0.88124096 0.6517155 0.30005577 0.28397933 0.9924643 -0.052575413 -0.5663748 0.6479933 0.86524445 -0.44429177 -1.3810437 0.085403584 -1.1515442 -0.026913598 0.45970678 -1.2093841 -1.1767604 0.09573299 0.084809825 0.7191771 0.011481056 0.7771072 -1.0866649 -0.33042938 -0.48602062 0.5986577 1.3475113 0.944185 0.4657263 -0.29406872
sea 0.2619715 0.31842893 0.08821618 0.87319607 0.39734453 -0.35367417 -0.44185936 0.134232 -0.6890012 -0.9591448 0.36385974 -1.0644555 0.32469833 -0.5525108 0.7951193 -0.2632914 -0.24290492 -0.52708703 -0.42999828 -0.0084530935 -0.02668156 -0.45100826 -1.471854 -0.18193425 -0.7588457 -0.5319388 -0.36894175 0.10866592 -1.4993558 0.64794874
evidencia -0.55401444 0.31162792 -0.7723446 0.04394672 0.34440297 -0.35543242 0.44685882 -1.1794204 -0.4433199 -0.66854453 -0.038481798 0.028939223 0.38990283 -0.17460835 -1.3719939 -0.80286896 0.3894646 -0.0039360356 -1.72331 -0.3862024 -1.0094085 0.5290435 -0.669834 0.69398594 -0.44197538 0.27299222 0.40042168 0.59749097 -0.5602393 0.31355694
manera -0.14117701 0.25034896 1.8980342 1.3157377 -1.0887094 0.5282329 0.79602337 0.314304 -0.8078226 -0.40349874 -1.4070864 -1.9226075 0.79763854 0.58142734 0.36649233 -0.59075165 -0.41763046 0.89345324 -0.89519966 -0.6159887 0.22020517 -0.8977975 -0.74894434 -0.21455188 -0.88871026 0.14315987 0.8459648 -0.67664045 -0.2793283 -0.7616255
dado -0.95731 0.7228377 0.2372378 0.556655 0.98621583 -0.23155664 0.4017323 0.41634107 -0.2815951 -1.3800883 -0.2226355 0.13159475 0.5515961 0.34841025 -0.24206749 -0.33535534 -0.72673804 0.2009884 -0.87607723 -0.078924306 -1.2180644 0.5368059 -1.0326334 0.4541096 -0.9784288 -0.07647864 0.053896204 0.05973537 -0.034256365 0.023176575
buenas_noches 0.6234902 0.8184035 0.40390846 0.17670351 0.41594318 0.4229956 -0.86937034 -0.2792354 -1.2427262 0.081309214 0.02112569 -0.9366159 1.0506017 -0.38704038 0.93136215 0.41326973 0.34001303 -0.20383818 0.36147842 0.23436323 0.23048496 -0.22512726 -0.93118423 0.09097575 -1.2887374 0.5300057 0.80644476 0.35195306 -1.7385093 0.16317959
ella 0.36556855 -0.20685434 -0.6050199 1.3961464 -0.27930427 0.3261126 0.20652829 1.0694197 0.087710604 0.106284834 -0.7673222 -0.31243867 -0.297889 0.5202491 -0.36511996 -0.29394054 -1.5170496 -1.0060749 -0.25405934 1.798424 -0.013388135 0.81512356 0.16569434 -1.1983933 0.17227839 -0.74181914 0.29362193 -0.351145 -0.4363077 0.5690787
tiempo -0.25645322 0.7760651 1.0045927 1.37933 0.3176985 -0.6841575 0.24343914 -0.31220475 -1.0434029 -1.144949 -1.4409277 0.5849465 0.1309269 0.15336624 0.6826259 -0.86228853 -0.23019509 0.083409935 -0.32418188 1.1143855 0.86079603 1.3511913 -1.0599834 0.0866885 -1.1356862 -0.93086636 -0.31638217 0.35539722 0.14871515 -0.16601942
permito 0.1365706 0.55676425 -0.48411083 0.008480028 0.26316267 0.1869434 -0.75061667 0.6785783 -1.3437272 0.36384743 1.1574839 0.16248456 -0.2211149 -0.20685098 0.24478382 0.06044094 -0.27868602 0.055517547 -0.35985497 -0.26379445 1.2524067 -0.36954346 0.03829756 -0.52031946 -1.92968 0.7430902 1.2139755 0.093678504 -0.8850742 0.82083213
puedo -0.89334404 -0.06716954 0.36076546 -1.0530306 -0.7731336 0.3555943 0.690603 0.23850259 -0.7310103 -0.12171684 -1.5571041 -0.71390253 -0.4293709 0.36693078 0.14880043 -0.86525565 -0.56654245 0.98288906 0.9875495 0.58197844 -0.4923957 0.4022579 -0.3491326 0.5314057 -0.8437263 0.58374345 1.4261883 0.73398066 0.35532513 -1.6552
mil -1.3419693 0.76828665 -0.20783427 0.98312604 0.6711679 0.2689103 -1.0172534 -0.2431181 0.117508695 -1.3618046 -0.13209304 -0.8240755 0.5667899 0.66831994 0.6437543 -0.86622006 0.42495677 0.96912575 -0.49052727 -0.08565222 0.059856795 -1.0952984 0.25111783 0.81308115 -0.382939 0.76055485 1.0790467 0.5993248 -0.5465568 0.33135334
adjuntan 1.223622 -1.2940137 -1.3652397 0.63367623 -0.7336872 0.4760938 -0.32572654 0.15608619 -0.30662057 1.3107216 0.6844226 -0.77141136 -0.2595119 0.25429177 -0.8268704 -1.0745981 0.59483963 -0.9159079 -0.816354 -0.09991433 0.36569592 0.972272 -0.115160875 0.15166652 -0.2872901 0.27594525 1.956798 0.49412346 -0.8119332 0.6212322
auxilio 0.929551 1.162385 -0.05329516 0.2106664 0.041972023 0.45407233 -0.9584046 1.0066421 -1.9938047 0.069632 -0.43856806 -0.6535661 0.46880636 1.1627808 -0.086498365 -0.104814775 -0.74389225 0.7413178 -0.8615006 0.4352866 -1.0997382 -0.86331624 0.042498577 -0.010869701 -0.4936818 0.027541425 0.72882617 0.42194223 -0.21968138 0.34767625
pronta -0.7142972 1.1220248 0.4720215 1.4795728 1.4962614 0.07162246 -0.3635709 -0.600974 0.4737204 -0.95605016 -0.5315075 -0.47424632 0.99066824 1.031544 1.9832802 -0.25113004 -0.19280423 0.17654559 -1.0343897 1.1212965 0.78257865 -0.17018785 0.44586208 -0.5554411 -0.4944993 0.26673338 0.89017 0.7799059 0.025178323 0.73373204
son -0.47821406 -1.0863842 0.19125949 0.7027056 0.28697938 -0.010307879 -0.22311509 -0.42845526 -0.5326166 -0.44147408 -0.77276 -0.28267866 -0.39260054 -0.018607715 -0.047481414 -1.7520554 -0.3763664 -0.13984679 -0.72359097 0.08230263 1.4298468 2.0506065 -0.16137728 1.2418054 0.2079228 -1.127902 0.65838027 1.2890973 1.077075 -0.46294647
nuevo -0.41812283 -0.48489237 -0.6028423 -0.030938476 0.36870843 -0.5330862 0.28934363 0.63501817 0.335551 -1.8231814 0.2766852 -0.5793651 0.030869056 -0.023299 -0.6620888 0.31318587 -0.78767097 0.69388264 -0.9628069 0.8005931 -0.18972053 0.48942783 0.22347632 0.21886049 -0.11348171 0.7783009 0.7046466 0.3699756 0.65241134 -0.19483584
sale -1.5056417 -0.3655101 -0.23169537 -0.17911626 -0.6331176 -0.54677814 -0.56899446 -0.009889554 0.6156978 0.31659174 0.3122686 -1.5473157 0.04634645 -0.09785725 -1.5652 -1.1581429 -0.5128897 0.87043476 0.5226366 2.073563 -1.1162077 -0.43932694 -2.154189 0.4655051 -1.3623335 -0.5687447 0.2986846 -0.11727391 -0.031672586 -0.58513355
usuaria 0.2563039 0.3653655 -0.013207706 -0.7926918 -0.57000643 0.31510282 1.1270411 -0.19277006 0.00830695 -0.68462294 1.2510707 -0.6531876 0.17006132 0.12308358 -0.42968172 -0.6779847 -0.68586946 0.3340284 -0.80292827 0.6795832 -1.0769318 0.39203188 0.7470343 -0.079154775 -0.6272809 -0.14661272 1.0195713 -0.76436156 -0.636708 -0.8406755
pandemia -0.5339737 -0.52177954 0.1559403 2.2080286 1.0017724 2.2977402 -0.39680842 0.44751462 -0.25488588 -1.728175 -1.7030524 0.19275752 0.5232867 0.38116318 0.27229464 0.055246517 -0.6662797 0.81562394 0.021222685 0.18060403 0.5863187 2.0801277 -0.5188375 0.6344281 -0.55541015 -1.3397223 0.3846407 -0.14986667 0.90552646 -0.12523718
aun -0.92661625 1.1900403 0.8521359 1.0941563 0.8034206 -0.65354216 0.57076746 -0.2671304 -0.033298194 -0.9532789 -0.17700076 0.43944502 0.8859984 -0.5707888 -0.041853096 -0.74079317 -1.0417659 -0.69735885 -0.079493225 1.2745457 -0.5674568 0.1847376 -1.2382249 -0.015221576 -0.4835076 0.119093195 0.28304735 -0.08748948 -0.43129864 -0.25366905
anexan_soportes 0.315572 -0.5421876 -1.6419464 0.27399153 -0.35026625 -0.12272562 0.000614543 -0.2707105 0.10602404 1.1695715 1.6967931 -0.7128384 0.9382895 0.31402782 1.4452082 -0.49367023 2.0377371 0.9097041 -0.3492912 0.7219421 0.08861375 1.3942177 0.38051093 -0.24182637 0.30397254 0.0058352337 2.4837236 -0.68281984 -1.3491933 0.023039248
quincena 0.3390733 2.2852032 -1.0943178 -0.0063621043 0.7985951 -0.6795159 0.4162828 0.38589662 -1.7449808 -1.7739362 -0.7395496 0.52608615 0.97293115 -1.7097478 0.24864036 -2.3521073 -0.1366178 -0.63201636 0.33352855 -0.3006942 0.97571903 -0.050742183 -1.876046 1.2307874 0.20468459 -0.83640015 0.41664645 0.16289401 -1.6543641 -0.9984628
soy 0.20092072 -0.47132608 -1.2401325 1.1668566 -0.63189775 1.2906456 0.61741054 0.27728274 -0.78414845 1.0655626 -0.34644935 -1.3097557 0.59853 0.40314928 2.486111 -0.1575415 -0.26395887 0.5562369 1.5269222 0.86171204 0.17983821 0.05811893 0.70822835 -0.27713054 -1.5321019 0.85370827 0.4444054 0.16359073 -0.27872223 -0.6577944
estos 0.36655328 -0.8008934 0.5072749 0.8650345 -1.4296294 0.09436491 -1.0153371 -0.31060064 -0.09392088 -0.74758613 -0.6327882 0.7817013 0.005332204 0.46628797 0.72244674 -1.5485095 -0.89102125 1.0744308 -0.5226742 -0.39981723 0.57684803 1.1020945 -0.5171207 1.2374978 -0.46659252 -1.5270709 0.61790985 0.50391036 0.31370634 -0.36363935
unico -0.19725311 -0.024326582 -0.94098014 -1.0323474 0.022064961 -0.4544959 -0.8723438 -0.6879066 0.9434965 -0.64715916 0.55093545 -1.4004945 -0.12332741 0.23641558 -0.8860365 0.07780447 0.30589324 0.32776088 -0.6596056 -0.32943514 0.3487483 -0.12942573 -1.4716599 0.28826004 -0.62184197 -0.6399425 1.3490998 0.44743615 -1.2614747 -0.5880977
ahora 0.17660503 1.1903476 -0.21346398 0.7663913 0.22385162 -0.4139212 -0.08953254 0.6273827 -0.26957646 -0.20802614 -1.1531488 0.5793842 -0.22490202 -0.579323 -0.29010963 -1.0692698 -1.6583956 0.54112244 0.21432288 1.7643878 -0.51659745 0.09191147 -1.0850962 -0.6327173 0.024807319 0.43940836 0.7654591 1.1180767 -0.0051599164 -0.715855
ciudad 1.2827272 -1.8291789 -1.2995021 2.1697724 -0.33894143 2.3538556 -0.21359746 1.4496722 -2.116032 -1.1556824 -0.5023381 0.010812775 -0.9778736 1.5194467 -0.60853827 0.3962088 -0.12332975 2.2623694 -1.2724695 0.7796333 -0.9433991 0.8925871 1.286635 -0.9786634 0.9350901 -1.1757374 1.7593867 0.45628467 0.5115942 2.1135013
cursando 0.71227527 -0.6734827 -0.7728499 2.230945 0.7538411 0.15566927 -1.5877737 0.60884947 -0.74352735 0.022599325 -0.7242492 -0.13083553 0.58791786 1.3470975 -0.03257798 -0.07797167 0.1769488 -1.3627356 -1.9831011 0.37439814 0.16267563 0.06591647 0.32335147 -0.2337249 1.0846164 -0.7733795 1.9816004 0.16374184 -0.1978885 1.5331773
reconocido 0.29675546 0.42550796 -0.81217885 0.83255386 -0.32583946 -1.6382337 -0.27946016 0.4882626 -0.9231283 -1.2010254 -0.4853815 -1.6667973 1.5753024 -1.1942259 -0.6056418 -1.6285511 -0.23982255 -0.29898176 -0.39409724 -0.4508985 -0.18342398 0.6642605 -1.0522842 0.79110813 0.4760952 -1.2452626 -0.099452496 -0.07490841 -1.1699378 -0.20295869
adjuntar -0.9417473 0.23904279 -0.50129753 -0.74293715 0.6198453 0.64974695 -1.1225078 0.5250389 0.42869312 -0.4227721 1.1085484 0.4546959 -0.22382829 0.6531316 -0.29208562 -0.009665703 -0.79706216 0.17188685 -0.016943064 0.14889686 -0.16067995 -0.11033696 -0.26382625 -0.6922887 -1.6773297 0.009456418 1.4056813 0.058291156 -0.3378885 0.23682337
medicina 0.069445446 -1.8754445 -1.109693 1.6911261 0.6158278 1.4850788 -0.7612053 0.6877506 -1.3682883 0.41616458 -0.2422512 -0.82818043 -0.22332989 -0.35938275 0.025322534 0.38438144 -1.0485657 -1.5075654 -2.4609847 -0.21073888 -0.1213052 -0.21640587 0.34388083 -0.28386793 -0.26146844 -0.72029775 1.3247019 0.30589625 -0.92817324 2.077316
creditos -0.12579194 -1.7406204 -1.2106823 0.74479604 -0.9422704 0.21681584 -1.9920222 -0.8351257 1.5385067 -1.6482947 1.0559218 -1.6058556 -0.6761766 -0.5041158 -1.3242518 -0.48031834 -1.3718508 -1.1544551 -2.838536 0.48291752 1.3390592 2.4679797 -0.7116179 0.44226727 -1.2174407 -2.0314376 -0.027844332 2.0726259 0.031856287 -0.3944437
tener -0.49932164 -0.05063229 -0.26733994 1.5958675 1.1757654 0.9612563 -0.25075153 -0.10183595 -0.36103493 -1.5849156 -1.8920153 -0.76362926 0.8064595 -0.07732365 1.0094308 -0.20450553 0.08410441 -1.059117 -0.53365177 -0.06317022 -0.7010236 0.12574776 0.87700903 0.8730268 -0.57346547 -0.36746892 0.47612068 1.2388393 -0.67507935 -1.1443521
pagina -0.48870918 -1.1623544 1.2820075 -0.066665836 0.59309834 1.1818249 0.25429994 0.3718425 0.44811997 -0.040389042 -0.51745087 -0.35595956 -0.0114264125 -0.5968361 -0.7070855 -0.58079946 -0.88377273 0.4587672 -0.68129736 0.6777955 -2.4810956 -1.1080709 -2.595893 -0.048599795 -1.0770159 -0.9916739 1.4539832 -0.64039165 -0.5965875 -1.1372607
saludos -0.85777867 0.32920718 0.16488595 0.23846301 -0.0040309937 0.19579929 -0.43939376 -0.45287138 -0.24012043 -1.0732759 0.020625517 -0.32757866 0.41000512 0.5382978 0.63633615 -0.12999916 -0.85384667 0.64643246 -0.63580966 0.02820609 -0.2096286 -0.61579674 0.137011 1.1330775 0.14246693 0.5846396 0.5502592 0.6315253 -1.1825436 -0.05070841
servicio -0.48372522 0.85234463 0.21391267 0.6088657 -1.1088092 1.1159239 0.3650377 0.11675599 -0.3577983 -0.39123243 -0.4807222 0.96266884 -0.056843907 0.03882329 0.23203386 0.5249211 -0.39768523 0.475445 0.7609795 0.68092924 -0.45330578 1.0708499 0.054922353 0.9624906 -0.48265243 1.4294444 2.3486104 0.66579604 0.7699601 0.7380833
pe 0.32711348 -0.43574 -0.6622969 1.1825453 -0.8784284 -0.18134567 1.2812338 -0.11216812 0.23485915 1.3137007 0.48562256 -0.8358617 0.3301143 0.25287586 -0.27733323 -0.73468345 -0.42195296 -0.7617469 -0.7463738 1.0613439 -0.935067 0.77635455 0.6231953 0.10972119 -0.18233909 0.26996028 1.2246816 0.48426443 -0.18778837 0.010990491
informando 0.59481275 -0.5956368 -0.49984893 0.8529861 -0.31619138 -0.12082286 1.1537404 -0.22470565 -0.672716 -0.30696705 0.6411405 0.6436926 0.18666306 -0.167481 -0.5187859 -0.40388533 -1.4213268 -0.34902173 0.010185692 0.931753 -0.9338745 0.34271067 0.33872527 0.37647176 -1.0297077 -0.5729064 0.82956004 -1.0989364 -0.588481 -0.24071047
septimo 0.6983355 -0.84411335 -0.049789257 1.9068825 0.1355029 -0.27144164 -0.5036447 0.45581102 0.121881224 0.38761863 0.14348325 -0.87076545 0.7032083 -0.29157788 -0.43356982 -0.14689916 0.7008844 -1.2882086 -1.3673935 0.48126435 1.0094441 0.8914976 -0.6133303 -0.35171294 -0.8654202 -0.8290448 0.83088803 0.8502734 -0.31637737 1.2508315
quiero -0.40702832 0.44423538 -0.058247905 -0.3032374 0.0480059 -0.19029273 2.3952918e-05 1.2525043 -1.9022602 -0.07789147 -2.1669266 -0.33747762 0.3491558 -0.17051046 0.5062918 0.0049419277 -0.085931525 0.9266254 0.5310812 0.6680182 -0.11091826 0.9853444 -0.18855962 1.0972545 -0.55751944 0.5520907 1.3690163 0.0057253144 0.67916405 -0.052319147
hizo 0.20997193 0.81101596 -0.5787552 1.4916738 0.4680349 -0.23158173 0.6764419 0.522524 -0.5711739 -0.16687945 -0.07472349 -0.25571385 0.24122763 -0.6750721 -0.6279456 -1.2590065 -0.8660013 -0.9251748 -0.19713564 1.1741911 -0.26700357 0.7172321 -0.122541934 -0.11170742 0.36974818 -0.4581945 0.29376462 -0.2765592 -0.33485934 -0.5483025
datos -0.38610917 0.12142851 -1.097454 -0.29896092 -0.467184 -0.16903286 -0.018271783 0.50386685 -0.513825 -0.7981731 -0.3475073 0.051127948 0.7570554 0.68285686 -0.92297965 -0.77354455 -0.9325937 0.8597173 -0.7734916 0.6247015 0.4368262 -0.9350545 -0.2507342 -0.117095456 -0.41681647 0.007395328 0.7654468 -0.38121855 0.52169156 -0.24099538
beneficiarios -0.01697415 -0.26443267 -0.86301136 0.6034879 -0.8326726 0.7052012 0.3537776 -0.014650808 -0.9249744 -0.276431 0.34422058 -0.24034336 0.26904002 0.26809287 0.46555716 -0.8096656 0.108063474 0.795793 -0.98463565 1.0373094 0.5719192 0.43097237 0.4052112 1.1109251 0.30727074 -0.2713528 -0.042158287 -1.4097421 0.5177496 0.013077291
bien -0.16760242 1.0678298 -0.0017767913 0.65753603 -0.535405 -0.3570909 0.65935 -0.4194392 -0.5182802 -0.9375944 -1.0265977 0.33048728 0.39444745 -0.9929072 -0.6491944 0.2041141 -1.4822487 -0.19881576 -0.22893557 0.592911 0.4566119 -0.28636926 -1.0032424 0.29308772 -0.4345951 0.42293143 1.3182278 0.5233396 -0.40973243 -0.5427335
tema -1.128895 0.5788878 0.17492862 1.4959507 -0.7521425 0.5759457 0.39578965 -0.12116831 0.08707529 -0.20304891 -1.4984922 -0.18821768 0.079616375 0.6138586 0.2636301 -0.33940804 -0.52693766 0.18031695 1.201772 0.78466254 0.8649625 1.112793 -0.44677657 0.9198928 0.13138086 -0.20655483 0.7404128 0.4636582 -0.068465024 -0.42545217
otro -0.8585561 0.6468934 -0.9942133 0.6629896 0.6488569 0.06108879 0.06589443 0.1389947 0.12087849 -0.69754255 -0.54629666 -0.47790498 -0.34798646 0.3873407 0.39154762 -0.25150737 -1.8819684 -0.32686728 -0.6668668 0.773368 0.23359701 1.0366381 0.0317267 -0.34505847 0.633809 0.8854816 0.13922463 -0.0075135757 -0.44717434 -0.8857592
primaria 0.7898402 -0.7140787 -1.2175438 0.7606317 0.45817754 -1.4833266 -0.0503044 1.3306748 -1.9440236 -0.91238534 1.0054035 -0.3261028 0.6389324 0.36278722 -0.92497236 -1.0100081 0.54381144 -0.30845708 -0.92846596 0.91166407 -0.07588713 0.68637913 0.6127512 -0.14922595 1.8805159 -0.6165229 2.3173604 -1.4409254 -0.24893665 0.9204233
dicho -0.7180186 0.21778278 0.14937447 -0.42692634 0.66715795 -0.08510319 -0.62002754 1.3180863 -0.24918905 -2.1422162 -0.6478312 -0.37419322 -0.24024902 0.20118801 -0.5718571 0.16801402 -0.064549655 0.92490107 -0.077547446 -0.30637336 -0.78776544 0.1861945 -0.5001015 1.4940088 -0.16028856 -0.73010904 0.9432301 0.37188843 -1.2698523 0.19106913
noveno 0.5147057 -0.6333638 0.09009646 2.158614 -0.19715019 -0.6171187 -0.71991444 0.4515738 -0.7866811 0.4549192 -0.056068152 -1.0338342 0.63024676 -0.26860878 -0.61816305 -0.018873421 0.1250637 -1.4488089 -1.6753162 0.07513144 -0.5413584 0.65460265 -0.35007885 0.022317542 -0.33167607 -0.08565944 0.8673329 0.13696815 -0.57980996 0.5628845
semestres 0.20140749 -1.037117 -0.8613872 0.7236508 -0.61263406 0.58153164 -1.5512282 0.73758626 1.0063362 -0.12541738 -0.65842897 -0.099875 0.25620863 1.0695665 0.04910536 -0.4340037 -0.4331461 -0.1918687 -1.4997213 0.5059738 1.3205558 2.2788658 -0.9347332 -0.13666572 -0.03762832 -1.4602046 0.3802182 0.9314964 0.15903614 0.59698516
junio 0.29110774 0.76796585 -2.0053422 2.0430095 1.3262151 -0.60551023 -1.1419921 -0.115776286 -0.74393463 -1.8214048 0.42888623 0.1866622 0.42511806 -2.1478267 -0.5832035 -1.0895861 1.5909684 0.2934145 0.044977576 0.13423844 0.83030915 0.42298874 -1.2366027 0.9919345 0.0475419 -0.60366267 1.2079545 0.6775839 -0.41483468 0.91732
realizando -0.5395726 -0.65781873 -0.7069174 1.7722464 -0.14383456 0.6683122 0.66834486 0.14454553 -1.526038 0.31108052 -0.76088864 -0.6510409 1.1398188 0.23117007 -0.17581914 -0.2661608 -0.016460612 -0.5337896 -1.201821 0.25248927 -0.7682905 -0.03359907 -0.6212819 -0.45011556 0.3158207 -0.91803044 0.32351938 -0.4325352 -0.2889182 1.2575197
pague 0.52699864 -0.74386144 -0.68346965 0.5146426 1.2307266 0.07926384 -1.2986798 2.454665 -0.43921986 -0.4775692 -2.149497 -0.8185863 -0.14852682 -1.0908307 0.55338675 -1.4252723 0.08135329 0.6596198 -1.4351524 0.8581564 0.9709108 0.53836846 -0.3746574 0.31870586 -0.33443752 0.7618678 -0.034224056 1.1289005 -0.29280725 -0.26555952
corresponde 0.38827094 -0.076178774 -1.6989342 1.070437 0.6497383 -1.2971519 -0.65299416 0.9671954 -0.6401348 -0.93167144 -0.025727352 -1.6130272 0.4375903 -0.84430856 -1.0299504 -1.3127431 -0.17847376 -1.038327 -0.9535706 -0.73126894 0.45882624 0.120561145 -1.7102853 -0.22401682 0.6191962 -0.1802419 0.3791023 0.8650368 -1.1457514 0.7441059
cargo -0.054444067 -0.15418322 -0.6786849 1.0838658 -0.2866178 -0.4394296 0.7957851 -0.3161095 0.061249226 -0.28877443 0.845707 0.024244683 0.041051183 -0.8414905 -1.5278023 -0.35351735 -0.78151983 -0.7913872 0.09912158 1.3362049 -0.5578812 0.5038284 -1.2779118 -0.7075705 -0.15856734 0.6667723 1.142054 0.40709755 -0.7004606 0.11469255
tal -0.5516532 -0.16626199 0.56467843 -1.376699 0.11937092 0.36003718 0.62760717 -1.0198045 -0.80199075 -1.1196688 -1.5253311 -0.80454844 -0.55946547 -1.1563017 0.15083812 -0.4802293 1.100774 0.5707331 -0.27408302 -0.034871977 0.46809715 0.7525077 -1.9258189 0.39642054 -1.4840413 0.052531525 0.9401396 -0.45419297 -0.33431718 0.27711028
subir -1.3327227 -0.11953507 -0.2339868 -0.56583035 -0.34418157 -0.18580796 -0.75615424 0.3764765 1.0417838 0.2291027 -1.3449726 -0.28247708 -0.5816074 0.20570864 -0.65889436 -0.4547894 -0.37790853 0.17220293 0.17315304 1.281593 -1.0859697 -0.030011933 -0.8798321 0.41790488 -1.285064 0.29312494 1.4539062 -0.2204724 -0.7196534 -1.3318689
adjuntos -0.5365934 -1.1027718 -1.2991083 -0.32078177 0.084380254 -0.4854115 -0.058190137 -2.3550951 -0.54721 0.041141197 -0.19574524 0.37533078 0.64553 -0.35402215 -1.2806407 -1.5534225 -0.3918898 0.31465915 -1.1930928 -0.5537215 0.76133215 -0.7230749 -0.9965569 -0.48075867 -1.2132877 0.17421488 1.3441249 0.6978551 -0.88260883 -0.4863209
sexto 0.29065868 -0.7567965 -0.5966473 1.1888962 0.0012249787 -0.2358056 -0.6761489 0.12586501 -0.2371633 0.47523293 0.48829904 -1.4449965 0.29249364 -0.30476603 -1.3850389 -0.8656608 0.65157276 -1.4208587 -1.5664474 -0.019341826 0.96213204 1.096855 -0.36365318 -1.2008028 -0.39413765 -1.6620408 1.4140785 0.3253906 -0.21154486 0.9693281
salvo -0.21661071 0.8115473 -1.3057679 0.18143167 0.5601277 -1.0352713 -1.1579124 1.5931549 -0.76905525 -1.7421336 0.943181 -0.07266256 -0.32774034 -0.64263105 0.09697714 0.69820607 -0.68403834 0.91209537 -0.72401047 -0.16152059 -1.1336371 0.13014229 -0.39912573 -0.8947486 0.33231208 0.4200343 1.3092494 0.95301306 -1.509938 0.96642196
pagar -0.19045372 0.08067152 -0.059477996 1.4934636 0.88981444 -0.6171292 -0.079414204 1.6835613 -0.07432946 -1.9845879 -1.2483808 0.7002842 -0.38535056 0.43740758 -0.27088928 -1.9174006 -1.321498 0.81764716 -0.8140379 0.6173476 -0.3014511 1.44844 -0.4763017 2.3301036 0.13542983 -0.8069494 -0.11677031 0.17835589 0.95540845 -0.17581868
identificada 1.5241657 0.036327336 -1.7956729 1.3120079 0.25908604 1.2398096 -0.30647972 0.193763 -0.4668187 0.92005575 1.1460993 -2.1197557 -0.038804844 0.84643126 1.1266994 0.5667912 -0.97423977 -0.4208114 -0.5902662 -0.066401385 0.92217714 -1.4059411 0.78207445 0.23165159 -1.500871 0.18585777 0.5063752 -0.056549408 -1.5338752 1.6038209
octavo 0.36667356 -0.29510847 0.043614104 1.5734191 -0.25662667 -0.17424278 -0.9229193 0.9090269 -0.5744691 0.5491774 0.7784589 -1.0424811 1.036863 0.42073363 -0.44392863 -0.4751461 0.10679666 -1.4328651 -1.5035977 0.25737765 0.72074854 0.9697823 -0.71493036 -0.3353461 -0.0860731 -0.2520545 0.48442027 0.03650409 -0.64452225 1.2307576
revisar -0.06524103 0.52308893 1.068348 1.5257123 -0.91240466 -0.056863047 -0.16908775 0.080914065 -1.0583218 -0.80517876 -0.25147763 -0.6011246 1.0425262 0.16334084 -1.0088944 -0.37175095 -0.09694522 -0.9818885 -0.7559409 0.6710485 0.8037401 -0.5218463 -1.0766245 -0.42279395 -0.15699396 -0.30577412 1.5574454 0.44340813 0.760075 0.04654089
nota -0.030503016 -0.056789886 -0.13394198 0.882958 0.4590689 1.2161281 0.014587021 -0.43199092 0.56750584 -0.4235685 0.542977 -0.8683011 -0.028550398 0.84599376 -1.2348748 -0.5610023 -0.2771608 -0.2982787 -1.4580085 -0.5927943 0.05154075 0.31766054 -0.007790151 0.41298348 -0.4184305 0.70429987 0.40392226 0.19258416 -0.6521653 0.51100415
todos -0.49280918 -0.62852156 -0.97837096 0.16403131 0.1324963 1.2682198 -0.83213395 0.115318745 -0.22306086 -0.5534673 -0.79786664 0.52097684 -0.48714727 0.9643701 -0.094749995 -0.25645715 -0.41034883 0.33169857 -0.26438546 -0.085513435 0.66988784 -0.084369496 -0.8349774 -0.772812 -1.5214927 0.45053262 1.1301891 0.92969483 0.55506307 -0.4555554
ellos 0.36855787 -0.4880949 -0.24587339 0.15771675 -0.7947803 -0.106040865 -0.54245836 0.35760576 -0.33407012 -0.30747643 -1.4816417 1.9201766 -0.78945744 0.03186019 -0.552189 -0.32302296 -3.260537 0.5214801 -0.94716895 1.5993638 -0.3584408 -0.005123143 -0.085493945 0.12313057 0.03963673 0.40962774 1.4435911 1.1135298 -0.5957796 0.2635666
cada -0.5719388 0.041092783 0.30171722 0.2277386 -0.27771297 -0.6239123 -0.3671028 0.591109 0.123758405 -0.1291356 -0.96285176 0.6209998 -0.56836677 1.3902969 -0.8307088 -1.18167 0.100148946 0.6010571 -2.1666722 -0.4228382 1.4242367 0.5559897 -0.9681089 0.5057339 -0.30095628 0.1135114 1.0890597 1.9344021 -0.40397266 -0.23822129
entiendo 0.40215915 0.7548104 0.102303326 0.42411318 0.8317399 -0.20042841 0.20095718 -0.5178907 -0.3619445 -0.19419649 -1.0012898 -0.38441908 0.56205684 -0.84502673 -0.6221528 -1.302138 -1.3137008 -1.1947702 -1.0721291 1.2176545 -0.5964117 0.13257398 -2.014592 0.18597925 0.08040855 0.33381775 1.0627548 1.2890854 0.7114556 0.3104179
actualmente 0.57713944 -0.5861218 -0.82608104 2.4059927 0.45518905 1.4925485 -0.9384853 1.9017888 -0.55365115 -0.34574097 -0.18617067 -0.84811497 0.25956613 0.9842969 0.45062724 0.34858447 0.13036063 -0.37078235 -1.5118161 -0.33873066 -0.05613387 0.52433497 0.9548283 -0.0069134845 0.6715369 -0.6290976 1.2156217 0.22407113 -0.4348032 1.7195915
funcionaria 0.47378835 0.28275478 -0.07714751 -0.43976012 -0.2466765 -0.015923265 0.52423555 0.35413516 -0.43600577 -0.09532406 0.5449948 0.07383362 0.0430919 -0.62201416 -0.34564224 -0.98521364 -0.8151292 -0.4647795 -0.26271266 1.0458642 -0.6125024 0.8036709 0.08162042 -0.26769254 -0.37797 0.2574185 0.6785112 -0.942829 -0.8740235 -0.7253889
razon -0.00079748186 -0.918885 0.74014807 -0.045864373 0.38633975 -0.36155632 0.1097468 -0.016928243 -0.080654085 -0.5396238 -1.8562602 0.13207261 -0.48785236 -0.9851317 -0.2755159 -0.1670772 -0.38256517 0.7647315 -0.14552715 -0.113527045 -0.4911684 0.92610943 -1.7720928 0.14023401 -1.9941119 -0.7023007 0.5268454 0.13189796 -1.2516763 0.28673863
quinto 0.29594055 -0.7526787 -0.4195203 1.1477683 0.37001592 -0.050652936 -0.7837731 0.025598047 -0.86997473 -0.09454044 -0.0649226 -0.47043556 0.62169266 -0.34919888 -0.2996429 -0.2290105 -0.48221457 -1.3893778 -1.4084821 0.574427 0.46587706 0.26646343 -0.110028744 -0.71276236 0.5076757 -0.8885669 1.1500341 0.029743085 -0.4212986 1.3416368
estudiante 0.27630407 -1.0497413 -1.730945 0.6101195 0.084515885 1.6572157 -0.037600193 -0.20491457 0.28322583 0.22129695 0.6892334 -1.3703237 -0.38466495 0.4452357 0.464587 0.75013375 -0.7449647 -0.034122474 -1.2283196 -0.16974998 0.66357255 0.5948548 0.99507606 -0.2764718 -1.1915141 -1.2022749 -0.023273723 0.4705562 -1.2873831 0.98536146
fueron -0.5557978 -1.461202 -1.8944991 1.5245196 -0.24736844 0.59628785 0.58901054 0.48320287 -1.4703381 -1.4548129 -1.094483 1.4241987 -0.2880098 -0.21486239 -0.9305758 -1.8632162 0.2913424 0.39199173 0.08855758 -0.4183649 2.966982 1.2478982 -0.8892568 0.2430362 -1.915777 -1.1412895 0.59120214 0.5993707 0.9920747 -0.45084172
legalizado 0.07864275 1.3187001 0.017261896 1.1984209 0.660139 -0.93295676 -0.52722967 0.6455185 -1.6153103 -1.4035754 -0.85562277 0.052313812 0.066488795 -0.94499964 -0.39943472 -0.529367 -1.0471838 -1.6434603 -0.706188 -0.75089437 0.6035282 0.5216689 -2.539619 0.43477228 -1.7085695 -1.1919647 0.46859562 -0.616257 -0.5859498 -0.12505569
cedula 0.106700696 0.29887313 -1.7312962 1.7993944 0.44973606 0.6833805 0.086722 0.9490299 0.38855046 0.26512757 0.609753 -0.5059019 -0.22196907 1.435339 0.993568 0.4793099 -0.18666658 -0.5446362 -0.0164681 0.031896252 1.1366304 -0.029024161 0.08050674 -0.35621348 -0.56964785 0.9468452 0.38073167 0.38419878 -1.6074799 1.4854859
otra 0.030987 0.018013982 0.54931396 -0.10617278 0.429835 0.77836734 0.8613718 0.47957492 -0.5259866 -0.106529035 -1.3810699 0.29175195 -0.32872823 1.4642462 -0.62821096 -0.79240954 -0.116516985 0.36509413 -0.55158895 2.0887039 0.1579182 -0.09128066 -0.77721316 -0.29444692 0.2545963 0.20263052 0.53480136 0.46564057 0.066350296 -0.06836564
intersemestral 0.6205502 0.18388864 -0.6607427 0.9711464 -0.43140766 0.6137797 -1.0200636 -0.6648421 0.66958845 0.52285874 1.0726581 -1.2870361 0.48961642 -0.31499788 -0.5254623 -0.092787266 1.4055971 0.4071367 -0.4089402 0.6087551 0.13931927 0.4743724 -0.20044915 0.3095284 -0.9159309 -0.92158747 1.1345563 0.5028295 -0.82718784 -0.5061578
deja -1.5073733 0.4669082 -1.1145432 -0.7477252 -0.28262538 -0.48301825 -1.3966204 0.9390282 -1.0775872 0.3756653 -0.63050646 -0.6695482 -0.637527 0.1862175 -0.7272735 -0.769066 -0.5051849 1.4090495 0.9744902 2.4064412 -2.0270996 -1.0846683 -1.1581817 -0.62251514 -1.0196763 0.23174295 1.5567343 -0.20577449 0.16647102 -0.58836323
validacion -0.018618649 -0.05132419 -0.119064055 -0.07765496 0.19888559 -0.014990924 0.32995015 -0.5170705 -0.6221733 0.036961716 0.052149195 -0.029324623 0.8383889 -0.05355476 -0.27851197 -0.5020865 0.40442148 -0.30863264 0.17189485 0.44837165 -0.77208763 -0.041906547 -0.9187681 0.027644692 -0.1687043 0.58538604 1.3816252 -0.09544136 -1.1298612 0.4159018
pagado 0.39307857 0.068236224 -0.39529786 1.1211338 1.4756461 -0.15927815 -1.5035925 0.95115495 0.2689762 -0.45127195 -0.90367657 -0.24606816 0.09417034 -0.67848694 0.10729662 -0.5399328 -0.03598373 0.11983789 -0.72575766 -0.038582705 -0.07512906 1.3812037 -0.5405263 0.3057057 -0.20244545 0.059033036 0.31766957 0.37147814 -0.8369855 -0.050307076
misma -0.081536844 0.24799135 0.3481019 -0.03392856 1.2936131 0.4876769 1.5465221 0.0377306 -1.209261 -0.04404233 -1.8543736 0.40097094 -0.63091326 1.8106649 -0.8046818 -0.75518614 -0.6952006 0.6394334 -1.9998562 1.9532461 -0.63813484 -0.64113414 -1.1664633 -1.1039761 0.10322094 0.17693016 0.582198 0.5687691 0.46657446 -0.401232
archivos -0.28593498 -1.0892787 -1.26638 -0.7044588 -0.33659947 -0.20998214 -0.76603395 -2.3522563 -0.027583115 0.904274 -0.7762256 0.48800132 0.39386857 0.36601996 -1.2927054 -0.79119354 -0.43244067 1.4747385 -0.5574247 -0.104499005 -0.7601139 -0.46208572 -1.8095831 0.07686142 -1.7194976 -0.2089037 1.4823469 0.9478797 -1.5830089 0.20474277
certificados 0.93381655 -1.4370124 -0.9155857 0.36217013 -0.74217504 0.17201073 -1.886135 -0.3169591 -0.83508575 0.7167019 -0.12438439 0.5382247 0.07525431 1.3920276 -0.09759758 0.0981928 -1.6909983 0.79473305 -1.3512672 -0.7540531 0.44897136 0.6344053 0.63839066 0.35701597 -0.807545 0.34602857 1.453689 1.5327089 -1.2367114 -0.14049803
radicado 0.44830096 0.6040963 -0.7854861 0.30123243 0.26002336 0.10474516 0.83273613 -0.5842851 -0.9908781 -0.40653187 0.33263966 0.24043103 0.7660507 0.0038628522 -0.35009798 0.08552731 -0.29518822 -0.028848683 -0.41772687 -0.23419863 0.11246786 0.015011387 -0.44094998 0.47906163 -0.66728187 -0.5233513 1.1474812 0.21170501 0.042952538 0.6559123
estaba 0.39124754 0.5673252 -0.22122099 1.3674358 -0.5601434 -0.6062703 0.14618437 -0.07964639 -0.86115927 -0.56921256 -0.9828143 -0.655529 -0.06977843 -1.1906842 -1.4685283 0.586716 -0.5727565 0.108791396 0.06567827 1.0431535 -0.015700756 -0.15394588 -0.61968905 -0.9191305 -1.1818752 -0.45861837 1.3488647 1.4191785 -0.37583068 0.03618025
ver -1.3977232 -0.110600255 -0.77259034 0.02271005 -0.035658658 -0.1074117 -0.6658653 -0.6340669 -0.26625064 0.15938123 0.11281616 -0.059988543 -0.9406675 -0.8429658 -0.38163322 -1.2752043 0.56848824 -0.16441162 -0.03948935 0.10437131 0.47977757 1.624261 -2.114654 0.72412443 -0.46135476 -0.6390746 0.1885687 0.8242148 -0.82644665 -0.78621566
rechazado 0.16038221 0.20354342 0.19484718 0.32894683 0.60015297 -0.754623 0.7812081 -0.7631796 0.112509765 -0.9729652 0.42503121 0.24402058 0.6380899 -0.9703177 -0.0969858 -0.12663786 -0.96202946 -0.3551935 -0.3357849 0.5725859 -0.7800286 0.69158626 -1.1013465 0.2930055 -0.7240498 -0.7299719 0.5258056 -0.4266363 -0.9694577 -0.5991392
escalo_correspondiente 0.3932638 0.5164022 0.19142845 0.95440143 -0.38580596 -0.16572307 -0.1261655 -0.2498522 -1.6729633 0.13845699 -0.22171077 -0.53082526 0.88565445 -0.23563786 0.9496693 0.19076933 -0.6167237 -0.012449977 -0.36718565 0.19815198 0.59786296 -0.49941203 -0.3148784 0.75017637 -1.2759575 0.6546606 0.43013495 -0.019072004 -0.882265 0.2837757
traves -0.5899042 -0.092726715 0.21039458 -0.50303507 -0.12471073 1.5967805 -0.111135975 -0.1409659 0.1265741 -0.18977332 -0.46818933 0.062493157 -0.36673135 -0.48287436 -0.36821544 1.1244599 -0.55631346 0.23519708 -0.22886702 0.63105625 -0.95904124 0.16479646 -1.0025519 -0.11579815 -1.7729781 -0.28009027 1.5668368 -0.66857547 -0.0027116553 0.23053874
atentamente -0.80982345 0.3585114 0.3061995 0.46317858 0.47103965 0.4312552 0.0028729176 0.12124406 -0.123231314 -0.67289585 0.46313205 -1.1474746 0.52820677 1.0018806 1.9972974 0.5364347 0.48553073 -0.1826191 -1.6517994 0.33955547 0.24529323 -0.060508482 0.06855983 -0.13244076 0.01098535 0.41042772 0.5335027 0.35391843 -0.77956456 0.87046486
falta 0.3857724 0.96890444 -0.22226235 0.18130323 0.7776158 -0.0485435 -0.2721399 0.044535488 0.4990835 -1.231003 0.18682003 0.014066006 -0.7421667 1.1894543 -0.8127004 -1.4482133 -2.077676 -0.9679622 0.2183389 0.38992605 0.16237737 1.3143165 -0.11761376 -0.69053864 0.020688845 0.45261663 0.285482 0.47031158 -1.0216861 -0.8761805
mensaje -0.59154147 0.74895334 -0.22454043 0.9067324 1.1621138 -0.3921058 -1.0911014 -0.9007631 -1.1193 -0.5986276 0.45744273 -0.4181718 0.6045904 -0.4546424 -1.7194409 0.07203725 0.3750698 0.0126523385 -0.27254742 1.7436393 -0.8266332 -0.64607686 -1.7376832 -1.2641692 -0.29762247 -0.06846631 1.4138377 0.27036402 -0.23801999 -0.5803943
andes -0.42751655 -1.0312136 -0.48504347 0.11346215 0.9752263 0.84740806 -1.2078407 1.4141362 -0.17899297 0.16742972 -1.4250563 -0.7943928 -0.38540238 -0.04444685 0.024238266 -0.48249006 0.09870771 0.9021996 -2.3263054 0.84681386 0.36250964 0.9664508 -0.07515068 -0.26268935 -0.2946692 -0.06472849 -0.1437625 -0.8788492 -0.54925543 0.59313685
eso -0.70464146 -0.45380446 0.3857684 0.91583747 0.18388271 -0.27026758 -0.42821053 -0.19600162 -0.20464912 -0.17166567 -2.0694442 0.060834937 -0.13558711 0.4934888 -0.5090294 -1.4418118 -1.0839165 0.6597934 0.18843095 1.4813218 -0.57157546 1.3625101 -0.7970402 0.63631684 -0.013371947 -0.14832114 0.67919457 1.1447018 0.7903532 -1.1895274
cerca 0.2279474 0.24593377 -0.24286869 -1.0087439 -0.64800096 0.50040054 1.2910169 -0.49932703 -0.5721367 -0.4524926 1.1266497 -0.355267 -0.08226788 0.47325546 -0.07562578 -1.0329534 -0.6064975 0.47540897 -0.44111082 0.88938487 -0.71937454 0.8080879 0.80432785 -0.109493844 -0.6436747 0.2021027 0.8528556 -0.5777846 -0.6266498 -0.9447289
javeriana 0.9017472 -1.2067492 -1.1887133 0.080888435 1.5029601 1.2664237 -0.8933442 0.4878291 -1.2299974 -0.7967694 0.050087385 -0.15612647 -0.99872094 -1.6027712 0.1669116 0.47702438 -1.9658091 -1.5931268 -2.319043 -0.5280189 1.2939752 0.041133594 0.23602723 0.017466804 -0.368969 -0.3049214 1.7879581 0.40592146 -1.3363585 2.1825712
mis_hijos -0.5601221 0.9178351 0.071794316 -0.11647644 0.051085014 -0.9671283 0.2771048 0.42039573 -1.9948071 -1.5276145 -0.36630943 -0.20643584 0.74531627 -0.05256011 0.6918208 0.52015454 -0.006870004 1.2126461 -0.836937 -0.20831195 0.98447925 0.92426723 0.64002264 0.6465894 -0.75398403 0.05094682 0.92782795 -0.5812249 0.13579151 -0.09329232
ingreso -1.0175543 -0.57036626 -0.77396685 -0.12943581 0.34569824 -0.53470266 -0.7120788 0.44419107 0.32430926 -0.4956358 1.127607 -0.4710157 0.43137884 0.028691657 -0.6650148 -0.23298322 0.2676204 0.65740776 -0.30428895 1.4274958 -0.69798344 0.6074707 -0.24191034 -0.8689912 -0.09636626 -0.126267 1.1293213 -1.2631115 -0.1847711 -0.628197
empresa -0.079442516 -0.6827174 0.19671974 -0.0974871 0.4213664 0.2760353 -0.22015508 1.1983323 0.4216222 -0.62332493 -0.67993104 0.24959914 0.13616842 0.18404621 1.2028751 -0.415864 -0.64197445 1.1345922 -0.30602485 0.49671164 0.15050773 0.9330174 -0.34655723 1.2824519 -0.4556592 0.08614415 0.37872452 1.0709856 -0.21309783 1.236419
acceder -1.0666052 -0.6077688 0.23667046 -0.5636423 -0.32818565 0.4998443 -0.048820194 1.2962437 0.5751383 0.06281319 -0.5828685 -0.44050613 0.07976633 1.0254743 1.3107443 -0.031924497 0.24923518 0.89763284 0.14263596 1.0831698 -0.11282386 -0.048516743 -0.6344459 0.7596891 -0.7133158 -0.5020313 1.031489 -0.83522123 -0.37395814 -0.37254202
consulta -0.3789904 0.114375636 0.019219326 0.14435337 -0.41996664 -0.27891436 0.45904717 0.39248687 -1.2197751 -0.144269 -0.4721973 -0.41862336 0.76992464 -0.24327111 0.3582023 0.2375157 0.009674673 0.23993339 -0.24170789 0.30329013 -0.4581151 1.3012577 -0.38206613 0.41910747 0.41952166 0.45173004 1.1882588 -0.85998863 -0.14282426 -0.4673883
revision 0.5438524 0.52143776 0.16021179 1.2295016 0.98532546 0.44648078 0.1217125 -0.31011403 -0.8964645 -1.3493263 0.30340326 -0.73583984 0.7087448 -0.1851052 -0.32050028 -0.4915141 0.05565453 -0.13207458 -0.40464514 -0.11683435 0.23184842 -0.7621343 -0.091061175 0.5267954 -1.2895582 -0.029255323 -0.07249818 0.21433777 -1.3241173 0.13123953
materias 0.02429428 -0.2565209 -1.5335528 1.6297721 0.03354275 0.8815941 -1.7035383 -0.12017272 1.2372787 0.8175987 -0.52892655 -0.91428876 1.6333628 1.2220193 -1.2145029 -0.17278609 -0.15115632 -0.5623396 -1.7778927 1.140134 1.4470868 2.7838938 -0.981214 0.8529737 -0.45727724 -1.6345454 0.17731568 1.424422 0.23068263 -0.1691107
salud -0.77474797 0.101023905 -0.97668725 1.5173472 0.09612938 1.6011816 0.50291985 1.4389641 -0.22060077 -0.3319625 -1.1283913 -0.022291562 0.4989509 0.23535542 1.3371046 0.67676294 -0.18628775 1.7890468 0.9282026 0.23881575 -0.2805015 0.90193677 -0.3593532 0.83740854 -0.6763693 -0.2457631 0.7471784 0.60693395 0.4901365 1.3918824
toda -0.16093735 0.028421083 0.25269154 -0.037745908 1.1419744 1.3915774 0.14908284 -0.1041751 1.0737656 -1.8416917 0.6840341 -0.81420445 -0.1734502 -0.043553103 0.1184983 0.96517926 0.0144849485 -0.28027546 -0.59931266 1.0862658 -0.22137411 0.45678002 -2.303527 -0.588036 0.062250156 0.5320388 0.64535934 1.0502348 -0.3402088 -0.44903845
respectivo -0.29296088 -0.8148002 -1.2954475 -0.025656892 0.5683459 0.23290925 -0.41740882 0.12253751 -0.3269888 -0.94856244 -0.2616529 0.3000946 -0.22166477 -0.081992805 -0.60840046 -0.48814288 -0.13416722 0.77154166 -1.3285133 -0.6629899 -0.31186906 -0.33812213 0.46159807 1.3637546 -0.4281154 0.39307922 0.64975613 0.24472354 -1.3649075 0.7510298
cualquier -1.1292441 1.7768908 0.0038530505 -0.32314172 0.5678853 0.9084459 -0.07771292 -0.63078135 -0.6223013 -0.67273396 0.5561269 -0.5510893 -0.5576909 0.30686843 2.0527654 0.31942028 -0.54319996 0.2651572 -0.4183211 0.05894387 0.7467021 -0.035769906 -0.5849948 0.15653594 0.7048501 0.7472492 1.372902 0.5912411 -0.9999467 0.15123792
adicional -0.9726777 1.3250134 -0.25094 -0.8032281 0.8951725 -0.08716998 -0.18636435 0.061943516 -0.6946038 -1.3935807 -0.20808725 0.34077877 -0.51900315 0.4532805 0.43433613 -0.45418087 -1.7933743 -0.08361374 -0.17568249 -0.042444654 0.45234632 0.5545741 0.31988564 0.5136841 0.93896264 0.5535842 1.2886142 0.0568885 -1.1684235 -0.89403605
reg -0.9685494 -0.322055 0.35694462 0.18032071 0.2824834 0.41325355 -0.86235803 -0.14163835 -0.31245798 -0.43519226 -0.111175746 -0.7835955 -0.2336564 0.8115163 1.4877625 0.78862023 -0.41711047 0.22489154 -1.9352514 0.20423137 0.7576169 0.37650114 0.27364144 -0.3027456 -0.87660396 0.097641714 0.38204023 -0.051604073 -1.2493278 1.4074018
espero 0.237742 1.3010159 0.74263513 0.1022734 0.39365274 -0.055192098 -0.2823981 -0.26601216 -0.99595416 -1.6016003 -0.88659924 -0.23409921 0.17637166 0.36583894 0.83928347 -0.36639068 -0.8308227 0.88479006 0.65542525 0.31931096 0.515573 0.15877683 -0.8155936 0.8391778 -0.22397117 0.13168196 0.8152254 1.0491184 -0.19486009 -0.9568186
sustituto 0.8259162 -0.34231403 -0.78750986 -0.22130112 -0.07330413 0.32922187 1.284858 -0.44177383 -0.18432622 0.45039064 1.3293126 -0.5137684 0.62398946 0.038499642 0.39105827 -0.31828004 -0.14102478 0.48293468 0.120664135 0.40025437 -0.61246234 0.39734244 0.4347166 -0.011139428 -0.80165476 0.02206384 1.3178098 -0.524107 -0.3789256 -0.50379264
devolucion 0.9777773 0.4302358 0.6365905 1.2861654 1.5364146 -0.28967664 -1.5222577 1.3015327 -1.3524998 -1.4736991 -1.3345667 -0.42413813 0.8246882 0.056684136 -0.7392081 -1.6223369 0.11338843 0.2646731 -0.23460962 -0.5267547 -0.008678235 0.28319004 0.29448974 1.2653428 -1.3464441 0.81593096 0.20632829 -0.98755777 -1.3362551 -0.82148325
necesito 0.32294983 0.44183105 -0.405164 -0.15851192 0.25740063 -0.4449521 -0.26148117 0.7655818 -0.12318062 -0.65061325 -1.1889218 -0.67541194 -0.18207692 0.66474056 1.7103374 -0.40730077 -0.47119862 0.16369404 0.45796615 0.98415285 1.0299765 -0.099825524 -0.26657858 0.0038471217 -0.4504915 0.13793449 0.97854555 0.54701984 0.110139176 -0.6287547
servicios_medicos 0.766515 0.16250694 -0.78262454 1.568504 -0.09070699 1.1209159 0.75379807 0.47141716 -0.75350845 -0.25509456 -0.9253346 -0.4108551 -0.030951774 0.8808351 0.6342862 1.2076265 -0.6556218 0.46961075 -0.008223005 0.88386315 -1.458657 0.8693224 0.62461984 -1.2356651 -0.8062101 -0.5158678 0.5590217 0.033269618 0.03523583 0.936877
programa -0.16954263 -1.9400841 -1.1326733 1.2937379 1.2261915 1.3309295 -0.08922142 0.40086234 -0.49423695 0.7210201 -0.52070487 -0.6659429 0.05569691 -0.2915905 0.61376125 -0.44792527 -0.4433946 -1.051789 -2.6818814 0.5107332 -0.55449593 0.4889485 -0.07428349 -1.5547539 0.09550036 -1.5467026 0.6509009 0.018980328 0.024121486 0.8217735
bucaramanga 0.63719267 -0.97230643 -1.6919185 0.6842783 0.22981268 1.971755 -0.8898873 1.3325852 -2.111943 -0.45831195 -1.9477167 -0.14520192 -0.9467424 -0.216699 0.52179635 0.515346 -0.81900746 0.4172249 -1.0568081 0.3344996 0.1285411 0.665689 1.2658468 -1.0318414 -0.8946994 -0.5338974 1.1416671 1.5059078 -0.16793248 2.050229
ademas 0.32215557 0.043231737 -0.46975893 0.878388 0.029168643 0.49120703 -1.1830659 1.2639401 -0.2399012 -0.91051 -1.5217711 -0.2716509 -0.8048936 0.3183355 0.27970946 -0.0037924647 -1.2980345 -0.4135881 -1.153571 -0.2626466 -0.21764934 0.703878 -0.02082047 -0.14861782 -0.104638964 0.11916288 0.54270965 0.59633136 -0.40210348 -0.89010394
meses 0.01102157 -0.38806653 -1.4214786 1.537525 0.3440225 -0.8891193 -0.5335969 0.50745565 -0.8326855 -1.9383827 -1.4793217 -0.46872652 -0.22068903 -0.9436461 -0.17298871 -1.66378 0.7158123 0.8575583 0.60715276 0.38085562 0.3564345 1.4562671 -1.4494649 0.23349288 -0.023914702 0.07416684 0.10753312 -0.03895404 0.61828566 -0.70550495
estudiando -0.045124963 -0.534279 -0.64419496 1.9614531 0.85361874 1.4728429 -0.19620146 1.817433 -0.68944037 -0.71560144 -1.1362473 -0.7826933 -0.2986158 0.7205876 -0.22888368 0.18729834 -0.028436042 0.7781375 -0.58727455 0.88036895 0.13867538 1.0083473 0.94726217 -0.4744999 0.01842601 -0.6119979 0.39270362 0.23464079 0.48067477 0.90989923
sin_embargo -0.89037377 -0.15654631 -0.8379303 0.85062426 -0.35997695 -1.7096294 0.07736367 0.31203446 -0.63926595 -0.8591716 -0.55747354 -0.4536764 0.5699749 -1.1131392 -1.509095 -1.2135241 -0.7805059 -0.083539814 0.028886713 0.42315748 -0.63184404 0.43525985 -1.2602547 0.38632604 -0.2025877 -0.6018723 0.8637951 0.07921378 0.3966982 0.08730568
quedo_atenta -1.5280073 1.0953755 -0.050713465 -0.039215736 1.169797 0.015168951 0.15360612 -0.7778135 -0.2313078 -1.1559969 0.4263973 -0.5266088 -0.21499461 0.65608996 1.2945337 0.6298877 -0.32220536 -0.00090901344 -1.2325809 0.11659432 -0.3102936 -0.7442925 0.2310671 0.24600318 0.015610944 0.2377781 1.1366241 0.8506009 -1.2891825 -0.12112769
antemano -1.1891184 0.8262596 1.3566037 0.37737632 0.11566131 0.67996085 -0.60158056 -0.5412718 0.6836286 -1.3524437 0.12685555 -1.3111228 0.46788687 2.5488203 1.7821279 0.2145465 0.1849306 0.62480664 -1.3058015 0.62221545 0.2423278 -0.29109868 0.37114677 -0.35954857 -0.18860477 0.7398732 1.6623622 0.03758377 -0.3364364 1.1117563
informar -0.281762 0.28916636 -0.95541143 0.55188316 -0.12480777 0.04796356 -0.3438944 0.34585893 -1.575488 -0.425737 -0.06527839 -0.71676564 0.70921403 -0.32126555 0.23446777 -0.7566092 -0.72070277 -0.3061315 0.7347038 -0.27296522 1.3998442 -0.55213886 -0.14280686 0.4688283 -0.7148816 -0.29178137 0.61837494 -0.4422722 -0.7800777 0.26316705
