972 30
solicitud 0.06809835 0.2656088 -0.08145927 0.03132399 -0.9365157 -0.03763186 0.43117362 -0.45431405 0.56328535 0.22322474 -0.4809305 -0.174662 0.2647885 -0.16982622 0.74287355 0.33944547 -0.01728202 0.54313177 -0.02431672 -0.14167498 -0.4076554 0.46523458 -0.6396727 0.65997165 -0.7381294 -0.18538275 0.17667654 0.32698315 0.35924417 0.00867654
plan -0.17584682 0.30897874 0.2834664 -0.60178685 -0.438469 -0.15110688 1.3652472 -0.24789897 1.109623 1.4488531 -0.070484266 -0.32562223 0.35525802 -0.11432029 0.033209514 0.6986399 0.0067450716 0.23789588 -0.19678739 -0.2503126 0.77653795 0.53117925 -0.7072171 0.57229173 -0.7981587 0.9887598 0.32900172 0.7040322 0.5835327 0.06901166
educacional -0.2637268 0.28510037 0.2934166 -0.3640922 -0.4428178 -0.3868304 1.5168173 -0.32339 1.0124865 1.0523359 -0.31153545 -0.4271941 0.31570196 -0.14756206 0.018098094 0.8636117 -0.1687781 0.22252938 -0.43099698 -0.08356275 0.5946293 0.48438275 -0.54138523 0.5629273 -0.79733425 0.90133536 0.14975487 0.5628557 0.7643618 0.081919976
valor 0.99444103 4.760563e-05 -0.065512076 0.58033854 -0.43511093 -0.0966883 0.24498494 -0.16012505 2.144956 0.21817215 -0.34141278 -0.21605939 2.337631 0.52066994 -1.188062 1.1030468 -0.079432264 0.77839684 -0.025226766 -0.82496953 0.7061898 -1.2165475 -0.2831136 0.38464546 0.16263457 -0.44024706 0.8872125 -0.16745304 0.5715708 0.35909098
semestre 0.91230476 -1.0702614 -0.005798157 -0.8515391 -0.49623644 0.85557145 0.59311336 0.005405023 1.3122787 -0.114862554 0.19181089 0.36120105 2.0248013 -0.14409098 0.67384297 -0.0016881307 0.12460125 1.7657905 0.36141476 0.03457142 0.23071782 0.14587402 -1.8504376 -0.31454444 -0.26533103 -0.8445328 0.20533542 0.4774825 -1.602186 0.2375551
pago 0.85946774 0.48222712 -0.098181285 0.68933564 -0.96464854 0.22708769 0.61275375 -0.71481 1.039352 -0.1931252 -0.14197187 -0.16172408 1.7015367 0.3990716 -0.25419694 0.23914106 -0.6048596 0.5904267 0.7441225 -0.23949908 0.108247906 -1.1701659 0.08471114 -0.43232226 -0.2871688 -1.0232563 0.74651253 -0.034743454 0.44016325 -0.1204428
informacion 0.24651977 -0.18809459 0.11326352 0.16405886 -0.9517214 -0.33934575 -0.07583283 -0.6079142 1.0757788 -0.22110036 -0.97525066 -0.41094944 0.1787398 -0.3683454 1.1948907 0.3563918 0.42775416 0.28214815 0.17970918 -0.71770626 -0.49724415 0.82229984 -0.042996086 1.3463639 -0.22861786 -0.57422894 0.2618832 0.06375011 -0.37384382 -0.30079874
beneficio -0.8647733 0.14394274 0.1529442 -0.74316996 -0.61098856 -0.03484351 0.68990785 0.3651329 0.7726211 1.0107225 0.43937036 -0.49477002 0.30387783 0.12930521 0.20845471 0.36574665 -0.11688293 0.5575862 0.3153536 -0.40470952 -0.103790246 0.75454307 -0.4871455 -0.27254117 -0.7674091 0.45520297 0.46979383 -0.19313894 0.43380147 -0.16115496
acuerdo -0.40795732 -0.25339818 0.14608258 -0.31242865 -0.11239447 -0.1538606 0.94624066 -1.0692939 0.8571608 0.9380147 -0.7275439 -0.4329129 0.005228446 0.274374 0.7637795 1.3154303 0.5822998 0.7393884 -0.3414667 -0.14213388 -0.15447035 0.302288 -1.3076657 0.7285484 -0.42055798 0.5849206 -0.17049451 -0.08737998 0.052017823 0.39203855
matricula 0.4393282 -0.5620161 -0.6239184 0.26913485 -0.39805087 0.013505353 0.30735856 -0.4054038 1.7304499 -0.5620179 -0.75650483 -0.7576918 3.2606716 0.49245408 -0.8049346 1.4425161 -0.12889643 0.75634956 0.29674876 -0.94920766 0.8930606 -0.9066989 -1.3515888 -0.62522435 0.4747346 -1.1713239 0.5590917 -1.0974672 1.2974789 0.07574233
reconocimiento 0.20487402 -0.29781356 0.34056684 -0.5033478 -0.46902028 0.10758414 0.8857708 -0.76748455 0.5927867 0.26652935 -0.45219526 0.17187369 0.81509644 0.121136025 0.4640007 0.7528924 0.11902791 0.7603177 -0.16929741 -0.7497046 0.060220823 0.71550316 -1.4628712 0.2601134 -0.27250466 0.08945459 -0.1384188 0.57138157 -0.058793057 -0.24187785
realizar -0.3568716 0.5588056 -0.70248646 0.24254107 0.26147553 -0.13328551 -0.6342035 -0.26552424 1.2316761 -0.24405374 -0.48297986 -0.89527196 0.3366193 0.6224545 -0.022966426 -0.17743737 0.06910338 0.4496732 0.39140972 -0.20792426 -0.027091732 0.13338433 -0.09011532 0.21090937 -1.0170765 0.6240904 0.918279 -0.5312368 0.61399245 -0.1383172
respuesta 0.77089626 0.24493448 -0.041399613 -0.21302947 -0.5442178 0.0041580875 0.5663022 0.5304537 1.285124 0.36678424 -0.79117376 -1.1656154 -0.7283186 -0.6436927 1.5317533 -0.507847 0.36099422 0.6114818 -0.063322075 0.22009006 -0.7576269 -0.4091506 -0.22674793 0.5634397 -0.92345154 -0.2803937 -0.6937326 0.019925985 0.33901498 0.056702673
proceso 0.47553247 0.6127029 -0.26037887 -0.47501007 -0.21754137 -0.26526815 0.8221889 -0.3951368 0.92829627 -0.15795743 -0.68365574 -0.1207226 -0.21958189 -0.2825891 0.7420922 -0.32297707 -0.634993 0.71790415 -0.06621034 -0.18831974 -0.37628454 0.8407449 -0.3666497 0.83771706 -1.1786969 0.40511048 -0.2216064 -0.016534751 0.2046207 -0.49849448
atencion 0.009323109 -0.14169393 -0.2984281 -0.1358395 -0.43955767 -0.5392269 0.51016575 -0.9455011 1.4348875 0.46330756 -1.154797 -1.1128845 -0.55375856 0.025337717 1.4686115 0.8402331 0.68010354 -0.14724438 -0.7374012 0.11124396 -0.12059127 0.22542186 0.1513499 0.26362342 -0.5283212 0.029053286 -0.042541426 -0.2792231 0.36003333 0.31200597
informamos -0.41016576 0.4624919 0.16356811 -0.45638382 -0.8692955 -0.2038038 0.7142567 -0.7911942 1.1754577 0.59181726 -0.71162045 -0.78003776 -0.19923234 0.24301107 0.39715543 1.0604731 0.10981772 0.682234 -0.8199094 0.48076633 -0.68846893 -0.42964795 -0.43114802 0.84837955 -0.5327443 -0.08583421 -0.27509806 0.082095 0.40717673 0.5257922
beneficiario -0.08491976 -0.19577083 0.33393687 -0.54982907 -0.7061082 0.020560715 0.891247 -1.3038706 0.8159418 0.54823315 -0.005809574 0.08392105 0.6271749 0.62021846 0.46064767 0.71876717 0.3838521 0.3224887 -0.28661263 -0.15197472 -0.16054188 0.13483413 -0.9994048 0.3748181 -0.5398981 0.17090738 0.32469574 0.554657 -0.200819 -0.19844693
hijo_a -0.07195626 -0.25399694 -0.0063066445 -0.49925095 -1.4262534 0.6101683 0.25086653 0.52599454 1.0204017 0.18467818 0.5289055 -0.61605036 0.41302848 -0.099219516 0.7872199 0.10362099 0.024507085 0.5503456 0.21885137 0.093974814 0.29125443 -0.5598684 -0.58067435 -0.99595773 -0.50129056 -0.03919051 0.53139865 0.6967066 -0.94225305 0.28688198
anticipo 1.0651472 0.596657 0.20685041 -0.12881404 -0.39900187 0.13824765 0.69786835 0.20502688 1.3243139 0.6912806 -0.5127451 0.25242978 1.2031884 -0.4419463 -0.1697572 0.061805837 -0.9335105 1.4417474 0.20329441 -0.67310494 0.21763013 0.13669245 -0.3594686 0.6914511 -0.4211459 -0.46900877 0.020497298 0.68828076 0.025590817 0.36594516
informa 0.16395196 0.36928818 -0.31485543 -0.16221896 -0.3160977 -0.2869145 0.6354306 -0.08254108 0.626649 -0.13198292 -0.4665671 -0.17922564 0.095896386 -0.26706317 0.59208876 0.03623356 -0.66402 0.66870916 0.021947004 -0.39616856 -0.26082543 0.29216933 -0.4047118 0.36530656 -0.8153032 0.25160682 -0.3413892 -0.17168954 0.31191945 -0.49505126
encuentra 0.5469635 0.4685291 0.032488577 -0.97036946 -0.78178585 0.129964 0.96867096 -0.58256507 0.98602897 -0.030558063 -0.82560277 -0.2198866 -0.30086017 -0.2604582 0.8771694 0.0015280962 -0.04413057 0.6082207 -0.32756647 0.020283272 -0.671732 0.12791154 -0.6219698 0.90182304 -1.007914 -0.07792375 -0.5931342 0.3355985 -0.020220725 -0.4950154
formato 0.5205965 -0.57140195 -0.7760862 0.38152972 -1.1968069 -0.8702828 1.1030346 -0.8630724 0.16585585 -0.42401192 -0.38564038 0.68255836 1.8960431 -0.050209798 0.27471977 0.24743976 -0.628528 0.9867317 0.39668882 -1.3348429 -0.015213923 1.3560362 -1.5504915 1.2532587 -0.57194936 -0.51995707 -0.64773744 -0.143021 -0.18009004 -0.52526605
legalizacion 0.88937 1.0482423 -0.12667634 -0.25704643 -0.2863259 -0.0616075 0.6893592 0.020310972 1.3142015 0.6750277 -0.90882003 0.19831264 1.037571 -0.47135955 -0.11469184 0.22626038 -0.75405395 1.0911884 -0.29741898 -0.5315926 0.14933433 0.1396104 -0.38795945 0.79344827 -0.3547492 -0.167971 0.14541723 0.6907264 0.78022903 0.44652206
pension -0.31895828 0.098019 -0.50284415 0.2740926 -0.0165933 0.061057027 0.16010511 0.09780195 1.7126526 0.08405084 -0.6083081 -1.460215 2.3970153 0.49356782 -0.28044823 1.1885287 -0.52315295 0.6806521 0.40489012 -1.0967962 0.82564753 -1.812699 -1.3831148 -1.399753 -0.097014576 0.02831145 0.46729222 -1.3561186 2.1155007 0.049721383
indica -0.3556709 0.12694441 -0.11189924 -0.19385897 -0.46934208 -0.37720475 0.47326386 -0.50203556 0.6158848 -0.03315428 -0.20038389 -0.1825937 0.0069303443 -0.07345534 0.64313364 0.21511318 -0.504113 0.1030094 -0.14593583 -0.20279978 -0.18046217 0.6190421 -0.6125405 0.16449875 -1.2324405 0.76811934 0.34541065 0.028487014 0.37060648 -0.64756644
estudios -0.4793923 0.02735512 0.38007742 -1.0917677 0.3534205 -0.59936416 0.7025981 -0.4335255 0.44516027 0.018001426 0.2041146 -0.35470274 0.24782668 0.95172703 0.18154825 -0.14687277 0.5198518 0.9033703 0.89293736 -1.3452089 1.1497607 -0.3585718 -1.2746054 0.06839057 -0.6863268 0.8699803 0.85737216 1.003875 -1.5524752 -1.7063382
envio -0.2547965 0.42084548 -0.26143852 0.716639 -1.1840534 -0.8379157 -0.08309474 0.8986293 0.35995185 0.00035509607 0.09149209 -0.005787794 0.81610984 -0.2761626 1.032316 -0.2915883 -0.68826574 0.37895173 0.6734034 -0.38889682 -0.104699336 -0.103189066 -0.0073340633 0.38478485 -1.1517725 -1.1578121 -0.4221184 -0.123383164 0.20240921 -0.20182848
consulta -0.15826441 0.070696995 -0.06057569 -0.2904138 -0.6026323 -0.074343875 0.7258868 -0.95898753 1.4460018 0.16860953 -0.855501 -1.1254085 -0.32829186 -0.2227355 1.0258715 1.121943 0.6429922 0.23625389 -0.23469661 -0.2624408 -0.36111188 0.016047632 0.03281213 0.17969282 -0.105131 0.15453318 -0.15122238 -0.22727928 0.3557694 0.34342167
fecha 1.2383724 -0.19552583 -0.08180319 -0.60882175 -0.40230158 0.1337466 1.0229889 -0.28990114 1.1790688 0.18836193 -0.76029223 -0.26252815 -0.5222023 0.21118727 0.8012797 -0.21039644 -0.07644818 0.5845035 -0.5009879 -0.16846098 -0.32812026 -0.21559158 -0.41504842 0.56876796 -0.7117275 0.01988728 -0.35485452 0.49351272 -0.56469864 -0.21237384
tramite -0.01631565 0.2966754 0.1630106 -0.8562092 -0.45886734 -0.6066934 0.57023096 -0.27675393 0.5156049 0.7453235 -0.83416826 -0.46171072 -0.12377559 -0.20889299 1.6855922 -0.20877764 0.46039975 0.072385944 0.0026995158 -0.41742435 -0.22322409 0.093981825 -0.4828206 1.1966816 -0.8203297 -0.46160117 -0.4240948 0.27359465 0.39234072 -0.18750839
descuento 0.13334112 0.43581966 -0.2602522 0.69879663 0.122760296 0.10615296 0.637701 -0.52319604 2.3166285 0.41455564 -0.59784156 -1.8050611 1.7084907 0.23849669 0.15929556 0.9010074 -0.6263441 0.35001978 -0.02138815 0.07301785 0.863863 -1.8054409 -0.01966378 -1.2360361 -1.0890436 0.26090744 0.31130397 -1.0966395 2.090467 0.6816611
creditos 0.7534678 -1.8417315 -0.69064164 -1.1301132 0.44341704 0.81832546 0.12417148 -1.5956843 1.7581786 -1.0262349 0.30721954 0.08896889 2.1271224 0.640721 0.81059027 -0.012772451 -0.1752732 1.5391253 -0.426081 -0.7809345 0.22265871 -1.3680222 -2.9242847 0.60814005 -0.17466687 -0.6734221 -0.5576805 1.02445 -1.6600375 -0.281392
reintegro -0.6618032 0.39991316 -1.0304602 1.1381919 0.14741221 -0.45927763 -0.8976413 -0.5093827 2.2076352 -0.19087827 -0.36485755 -1.5662221 0.81798357 0.8859241 -0.11082292 0.58853924 -0.23079175 0.33518133 0.05982017 0.24957086 0.54133767 -0.49919698 0.19389369 -0.6735942 -1.2968444 0.7375465 0.874631 -1.5693325 1.6652191 0.18637465
sus -0.2801425 0.08688116 -0.17782292 -0.46758556 0.016845012 -0.6287392 -0.0987667 0.039210778 0.4488128 0.58279043 0.13357638 -1.3864263 -0.38952452 0.2051999 0.9722247 -0.14460325 0.5888675 0.80154777 0.8428052 -1.264547 0.55576205 -0.21627729 -0.2334212 -0.29877332 -0.07748243 0.14046583 -0.039746333 0.057144858 -0.99247015 -0.5594739
periodo 1.295499 -1.3509824 0.1331368 0.55983907 0.18254606 0.3521159 0.8156855 -1.1999843 1.200313 0.54435885 0.04449413 0.40111396 1.7061257 0.9959098 1.1149703 0.019752828 0.41290918 1.0289499 0.08462834 -0.22697324 0.17730239 -0.55645245 -1.1944354 -0.0073981346 -0.2657246 -0.09725331 0.29889712 -0.30504048 -1.0593529 0.35402346
anterior 0.8114488 -1.1536881 -0.299837 -0.3089978 -0.08204002 0.56616503 0.7173357 -0.6085665 1.1629468 0.43329307 -0.41049686 -0.01876195 1.5768535 0.74312705 0.53166026 0.419047 0.00085260393 0.8954017 -0.1566627 -0.0575564 0.13133968 -0.5252164 -0.9490409 -0.5559679 -0.46804005 -0.2692678 -0.42528602 -0.6003397 0.14788868 0.48072848
valores 0.81359327 0.40811646 0.3387291 0.54982656 -0.16444005 -0.40831417 0.5339369 -0.80741626 1.1548617 -0.100772254 -0.8151118 -0.79663545 1.9670148 0.060559016 -0.43925658 1.0156007 -0.37226316 0.5509048 0.43515164 -1.4110789 0.7408233 -1.60643 -0.57863945 -0.090017654 0.052723996 -0.45869583 0.31320262 -0.42939737 1.3038876 -0.3547807
hasta 0.49457777 -0.78521264 -0.4137592 0.08337123 -0.037402287 0.06476643 -0.11341505 0.65534014 1.2984015 0.19603068 0.004921978 -0.2923016 0.11173563 0.53246975 0.5553428 -0.680144 -0.47630158 0.6578252 -0.45986417 -0.3748623 0.34445152 -0.9926474 -0.7202678 -0.13125367 -0.728167 0.3054727 0.32108635 0.8036786 -1.9413573 0.016345454
academico 0.85208416 -1.5372044 -0.45677605 0.24602997 -0.13869314 -0.47299486 0.31415042 -0.87201333 1.5426991 -0.8214963 -0.5536192 0.54495144 2.1268106 0.8169872 -0.15260872 0.8511203 0.7357144 0.3395197 -0.28584808 -1.1922498 0.54006284 0.13210592 -1.2933595 0.71817976 0.103712805 -0.82806987 1.0832374 -0.0116782915 -0.96877235 -0.9082525
concepto 0.88854504 0.37698758 0.57977706 0.24767146 -0.81688404 0.06474246 0.85769725 -0.12803985 1.7865518 0.44290417 -0.33048165 -0.56764394 1.4342879 -0.0473444 -0.61640054 1.2901256 0.47804382 1.1397848 0.07361751 -0.12466799 0.84614015 -0.96313775 -0.62805575 0.021563638 0.17134671 -0.37520933 0.68903786 -0.34041628 0.9304565 0.33368477
recibo 1.7738029 0.088241555 0.10195144 0.5155163 -0.9734583 0.64756143 1.0470128 -0.4580407 1.3021611 0.9833401 0.4614688 0.29152992 2.0440392 0.68945056 0.10190823 -0.35214517 -0.54755014 0.7404995 0.9006569 -0.6910415 0.24891263 -1.5058821 -0.12711073 0.082888514 -0.2555997 -1.2248386 0.16846624 -0.044455107 0.41470748 0.12652268
grado 0.32022873 -1.8473519 0.28773135 -0.0786369 -1.0231861 0.5811513 0.4696101 -0.13436882 0.9430478 -0.01705926 0.09134636 0.30577463 1.3567655 0.3051431 0.77506846 0.49761534 0.3580177 0.060166456 -0.40358236 -0.6571512 0.125422 -0.41048104 -1.889182 -0.60260206 -0.7243859 0.17030363 -0.08120114 0.90067834 -1.1402587 -1.134853
evidencia 0.4823803 0.22607167 0.4105693 -0.5704063 -0.5677231 0.0423939 0.6632104 -1.2702106 0.95119536 0.26636782 -1.1587899 -0.37061188 0.024507105 -0.2721861 0.9876172 0.963588 0.1411279 0.7423144 -0.26202658 -0.45638138 -0.80655485 0.12822127 -0.24699897 0.7352358 -0.38444787 -0.86503756 -0.17439286 -0.015239665 -0.3146135 -0.3411333
ingresar -1.0127983 0.17265953 -1.2640443 -0.23175669 -0.21683101 -1.2182177 0.2844069 0.19764754 0.9597237 -0.63514334 -0.39913043 0.1968558 -0.16436584 0.29094523 0.6003463 -0.15545194 -1.4688522 0.90702033 0.11762647 -0.7197452 -0.45490563 1.4066818 -0.08664836 0.025512794 -1.3713365 0.7608738 0.4328127 -0.9442286 0.009173196 -1.1345358
tarifa_unica -0.034588534 -0.048148062 -0.23153374 0.2338756 0.21706259 0.19766329 0.5664633 -0.2911724 1.7070378 0.38787743 -0.43243408 -1.3641567 1.9983404 -0.016551672 -0.13807829 1.6018268 -0.049560312 1.4298394 0.10615155 -0.67223567 0.7123756 -1.4875574 -1.5354259 -1.1432313 -0.026675597 0.67824227 0.36712164 -1.3064576 1.5934609 0.50659883
kactus -0.11804083 0.67286265 -0.53022045 -0.076011285 -0.42800325 -0.601628 0.24692994 0.76671195 0.7708258 0.1055655 -0.4202717 0.29734525 0.62833464 -0.50993615 0.64358133 -0.4037453 -1.1575612 0.9125251 0.46314663 -0.6046948 -0.28728622 0.8668904 -0.17296633 0.38470826 -0.730873 -0.32517764 0.30868214 -0.24368326 0.5608307 -0.2930014
adjunto 0.46938884 -0.27328825 -0.5487026 0.67546624 -0.94629234 -0.28286693 0.39376023 -0.12065139 0.9198716 0.1140186 0.09853826 -0.17250259 0.99888 0.33647278 0.5457902 0.053673256 0.05390565 -0.032000933 0.1881753 -0.5227624 0.29440778 -0.41805556 -0.42705947 0.122353025 -0.097957104 -0.7417435 -0.19107324 -0.09401535 0.24624923 0.3303907
devolucion -0.4401878 0.65309185 -0.871374 1.6304841 -0.22830305 -0.3593394 -0.9689693 -0.23941879 2.0342848 0.231237 -0.2325278 -1.6505666 0.031406257 0.96164197 0.22490734 0.5802724 -0.2646552 0.23195025 0.36961293 -0.037342817 0.52629733 -0.82412905 0.6993872 -0.5887848 -1.0311002 0.16218896 1.330604 -1.0732852 1.3443437 0.21280418
certificado 0.69189197 -0.710716 -0.53855693 -0.10806262 -0.6748706 -0.50235206 0.6638666 -0.98691523 0.67910624 -0.25929555 0.3275788 0.8377878 2.187272 0.97215134 -0.061221447 -0.74783176 -0.22651635 0.52660525 0.41189843 -0.6012812 0.31763017 -0.360832 -0.8539089 0.45761466 -0.9929881 -1.0772736 -0.5416367 -0.21302325 -0.5861988 -0.79820377
programa 0.2795309 -1.5006202 -0.901978 -1.0607115 -0.10767151 -0.1188755 0.4836894 -0.4947328 1.5985332 -0.94784456 -0.6901515 0.38048142 1.6283246 1.2584624 -0.16478142 0.5956506 0.49588636 0.3729893 -0.256533 -0.723031 0.3101257 0.17306653 -1.6387883 0.49316236 0.03654815 -0.5951315 0.67987514 0.03272456 -1.0563843 -1.0864842
ingles -0.60793126 0.30322188 0.2150817 -1.0645545 -2.5843272 0.5764652 0.6258717 -0.49986294 0.82459813 -0.4047251 0.005555821 -0.09987085 0.44804075 0.8682984 -0.24715346 0.79344666 -0.19017911 -0.32810012 -0.42000127 0.058649223 -0.82485396 -1.3667259 -1.2642848 -0.33377397 -0.9813064 -0.8932624 0.42021963 1.8773707 0.11777302 -1.4126754
posible -0.21580225 0.20419934 -0.1872078 0.12956288 -0.4127453 -0.16372257 -0.1982889 -0.41356915 0.6866236 0.83449125 -0.12509501 -0.93527734 0.2556527 0.13366945 0.9079178 0.28781086 0.3247791 0.5117955 0.43526486 -0.44478074 -0.24918078 0.34532163 -0.32515442 0.18367833 -0.49253985 -0.50358874 -0.16403042 -0.57021666 0.27962324 0.30423778
sistema 0.053069953 0.68867457 -0.30461487 -1.1609445 -0.15057024 -0.4871975 0.3458853 -0.015231302 0.5407911 0.50116366 -1.1750889 -0.07208708 -0.12743765 -0.19740511 0.70725375 -0.2953162 -0.6016189 0.7708123 0.19027267 -0.7372677 -0.47250473 -0.040583294 0.1650826 0.6593444 -0.46939903 -0.2587737 0.16339579 -0.080618545 0.14953992 -0.29189384
curso -0.38802066 -0.2732464 -0.0049232002 -1.6392314 -1.9079608 0.5119204 0.3325051 -0.18436936 1.2433403 -0.5765876 -0.29422286 0.152181 1.4701351 0.92441773 -0.75277627 0.5151363 -0.4587505 -0.42682126 -0.13063742 -0.5949691 -0.72663546 -1.1167463 -1.4023794 -0.46354067 -0.8736798 -0.8167041 0.30404183 0.7836713 0.24581663 -1.5765823
ser -0.2394907 -0.5817421 -0.5592754 0.61740845 -0.19099855 -0.011633067 -0.46390098 0.48749116 0.6488401 -0.30185708 -0.19390796 -0.5570974 0.5581709 0.35487384 0.43022418 0.7106713 0.2121746 0.37406743 0.30042264 -0.736418 0.95913434 -0.4542507 -0.7602222 -0.018138386 -0.36255434 -0.40514842 -0.20713364 -0.2611873 0.047852144 -0.5155955
beneficiaria -0.02593473 0.2686417 -0.3041908 -0.6912253 -0.81569475 0.0050239405 0.71655077 -0.015220769 0.8697436 0.25198942 -0.5020981 -0.010841291 0.12588117 0.11083096 0.2390507 0.45210192 -0.48493722 0.8516858 -0.5828337 0.15888618 -0.42469388 -0.32396397 -0.38899398 0.25888744 -0.57083195 0.07728388 0.039091535 0.1968626 -0.083395384 0.3719352
solicitudes -0.06000725 -0.62991565 -0.68448484 -1.1619617 0.60075295 -0.63958013 0.65116745 0.2096269 0.5497618 0.4148175 -1.163376 -0.0042479825 0.6082719 0.9156892 0.58544165 0.09248368 0.5630389 0.84742594 0.08958154 0.011308928 0.14022395 0.5685463 -0.66223794 0.59317106 -0.7489891 -0.50505906 -0.09348395 -0.9714059 0.1071683 -0.60241216
momento 0.77390426 0.34403557 -0.1398357 -0.34548786 -0.2961431 -0.052042253 0.41312215 0.8204199 0.7363567 0.56034666 -0.29937378 -0.25317484 0.1202068 -0.6983152 0.8297842 -0.5549303 -0.20006502 0.75209266 0.009834336 -0.49856135 0.08867963 0.29312178 -0.8162593 0.40887663 -0.5795142 -0.37380654 0.23002134 0.20200051 0.3862325 0.06909385
medio 0.10198672 -0.15377037 -0.8149695 0.17581359 -0.6306173 -0.81510013 0.27691966 0.38011417 0.9163608 0.13930109 -0.39832985 -0.4875401 -0.06729341 -0.052877884 0.78464806 0.16426502 -0.060956057 0.41657215 -0.17131011 -0.55319023 -0.27985838 1.0311098 -0.07969156 0.45804533 -0.4467663 0.025253389 0.056030195 -0.7067693 0.35944605 -0.10535589
estos -0.8750625 0.28372973 -0.40207943 -0.58940727 0.7105941 -0.18737462 -0.1345698 0.41914412 0.8374203 0.3147363 0.12667996 -1.174371 0.19193205 0.7784384 -0.13235234 0.3628609 -0.2636558 0.4653044 0.5597333 -0.983353 1.3003905 -1.6728175 -0.4715574 -0.5041951 -0.50849617 0.67734694 0.78231215 0.2707326 0.416297 -0.98185235
numero -0.14536555 -0.008824286 -0.8415707 -1.0046575 -0.47737348 -0.5921103 -0.24783626 -0.5196633 0.62516683 -0.69971824 -0.3402202 0.48750222 0.17337409 0.6372348 0.64350796 -0.93078035 -0.633219 0.11694644 -0.3875864 -0.5516165 -0.37786773 -0.6265653 -0.9158869 0.80408674 -0.82069004 -0.44102278 -0.3066826 1.1594948 -1.4327732 -1.5056376
dias 0.812389 0.6974402 0.22615837 -0.49955982 0.39196312 0.0961598 0.7778551 0.28748596 1.4574631 0.814835 -0.4387439 -0.9459884 0.014318904 -0.22663158 0.3391901 -0.14353532 -0.9178842 1.8829757 -0.302609 0.5273834 -0.13104507 -1.3249625 -0.05785499 0.22511429 -1.1505841 0.90565515 -0.08951437 0.49712357 -0.1803991 0.81857985
certificacion 0.29773626 -1.009027 -0.394944 0.2880365 -1.4438684 -0.6123627 0.2666587 -0.3073925 0.7097915 -1.1542327 -0.11215217 0.3136401 2.1894772 0.24389245 -0.5923022 0.54783034 -0.06854444 0.34497222 0.07069705 -1.4413366 0.05663928 -0.16866891 -2.2030973 0.9656236 -0.46754998 -1.0154635 -0.12887165 0.5327939 -0.472254 -1.8575237
empresa -0.90919226 0.19677813 0.37235987 -0.8026205 0.28386596 -0.22136761 0.17358534 0.25151888 1.0621895 0.563292 1.1041224 -1.1108217 0.22731794 0.13507949 0.08212361 -0.07026041 0.08808465 0.7734545 0.47234464 -0.43891242 0.9704067 -1.372204 -1.0448958 -0.5425344 -0.65130913 0.6886639 0.63378805 0.37432933 -0.39384565 -0.6286604
vez 0.18162283 -0.2263603 -0.9178751 -0.31299397 0.0060245194 -0.48311788 -0.03926263 -0.20001179 0.57883215 -0.20703198 -0.24819002 0.09941002 -0.14605708 0.5535776 0.3908523 -0.33193165 0.012958148 0.35173422 0.08768299 -0.8109909 -0.11917428 0.34126163 -0.6411247 0.5066587 -0.5442093 -0.036768325 -0.02403735 -0.07457506 -0.3413125 -0.96157783
teniendo -0.14436972 -0.26759192 -0.03618768 -0.35793534 -0.19477065 0.23270702 0.50049603 -0.48410872 1.3979172 0.23128931 -0.31089768 -1.2118335 0.4050274 -0.010476534 0.6645341 0.8590765 0.24882278 0.5835977 -0.01818446 -0.3248057 -0.026757518 -0.43397444 -0.55455977 -0.96474165 0.024192289 0.65454495 0.14098758 -0.50574833 0.38336024 0.44302666
correspondiente 1.0139208 0.3895448 0.08457979 -0.029342616 -0.6186516 0.428152 0.93411386 0.025719834 1.1567163 0.12526394 -0.3881497 0.024417862 1.4303529 -0.47730848 0.11929703 0.20310414 -0.42923936 1.2056046 0.1371753 -0.4815249 0.062723994 -0.46200588 -0.87488055 0.10834458 0.022943614 -0.5417576 0.12787214 0.38590214 0.011400498 0.6331181
nivel 0.51493514 -0.7075326 0.35171992 0.38214558 -0.8397562 -0.62041223 0.10337278 -1.4418427 1.4822588 -1.1173093 -0.03043787 0.08558458 0.7838751 0.822448 -0.1973525 1.0922716 0.37566355 -0.076999925 -0.55487466 -1.4391075 0.3703408 -1.490672 -1.0340762 -0.0673276 -0.4437106 -0.0712331 1.0893863 1.7105062 -1.0058978 -2.0955164
validar 0.13980336 0.37108657 -0.326038 -0.10729427 -0.27566656 -0.26216912 -0.045313068 -0.46736664 0.48500696 0.23267989 -0.96955395 -0.369106 0.2827365 -0.26583004 1.0142573 0.052674122 -0.17377125 0.45560154 0.06822589 -0.49319205 -0.13461493 -0.06451112 -0.09722943 0.50696844 -0.6575315 -0.6068568 -0.29466262 -0.18645282 0.22048421 -0.28379667
asi 0.6005 -0.39234108 -0.2769656 0.6734012 -0.43941894 0.0037005504 -0.19701843 0.3888089 1.7904148 -0.18745773 -0.26246792 -0.29272133 1.2100462 0.3415182 0.06140724 -0.25574976 -0.29986474 0.5197092 -0.3892992 0.10139139 0.12384795 -0.0867334 -0.5193996 0.26052514 -0.620078 -0.4457022 -0.18731491 0.0024544515 -0.31321472 0.5715246
dinero 0.15362716 0.47050044 -0.046456713 0.76674247 -0.79059833 0.30278605 0.025940822 0.50016594 1.9516902 0.70806116 0.6433703 -1.5300754 -0.033955425 -0.0777836 0.23412047 0.24183714 -0.46265915 1.0383171 0.7020743 0.12633532 0.2884049 -0.8596862 0.3325434 -0.91406554 -0.7639905 0.17041343 0.44556066 -0.39570728 0.31158942 0.79892933
soporte 0.5247762 -0.25411665 -0.5807992 0.57620317 -0.73982644 -0.5163951 0.17426507 -0.72610015 0.82731897 -0.20359372 -0.65534806 -0.37457737 0.8178502 0.24771374 0.4994397 0.3025911 0.10503402 0.22372505 0.356613 -0.75154924 -0.22956611 -0.390936 0.021582453 0.47223142 -0.1023115 -1.4990612 -0.4723568 -0.8000536 0.31495976 -0.3312316
alojamiento 0.3128198 0.13898394 0.42363146 0.92942005 -0.46997848 0.2610686 0.4660911 -0.5606291 1.0143342 0.47743598 0.42151406 -1.0480334 0.5478469 -0.12976238 0.8720451 0.4884773 0.48419347 1.2021755 0.5529866 -0.72624695 0.7866827 -0.584101 -0.9341249 -0.7006524 0.111603454 0.3145185 0.48716187 -0.059819534 -0.27077848 0.54692364
hijo_as -0.7915775 -0.28926945 0.33378577 -0.45496273 -0.0074783433 0.19318411 0.85345525 0.12777844 1.082356 0.81559247 0.28602323 -0.8901521 -0.17543963 0.32850254 0.51763284 0.62520903 0.4934248 0.5737258 0.47013888 -0.949742 0.6599407 -0.8631807 -1.1742104 -0.390266 -0.15132298 1.2201786 0.3611882 0.32032734 -0.021228123 -0.30573642
adjunta 0.3477758 -0.007787193 -0.33212084 -0.055831816 -0.60402364 -0.2242945 0.6006431 -0.4610834 0.63503444 0.09704472 -0.5106215 -0.34208116 0.08026436 -0.2303729 1.0185902 -0.11637296 0.13223639 0.40011275 0.3768505 -0.47369167 -0.42946827 -0.13432506 -0.2672569 0.47418007 -0.41285032 -0.41282988 -0.5741781 -0.3961513 0.45520136 -0.12653938
validacion -0.015572159 0.16950157 -0.09614486 -1.1956992 -0.5462358 -0.27666205 0.893591 -0.87557733 0.7433308 0.276893 -1.2133944 -0.29320008 -0.08879735 -0.16539119 1.1940993 0.51915705 0.33843192 0.8922636 -0.2820827 -0.31033215 -0.9181981 0.021581309 -0.6007355 1.0145983 -0.46780318 0.18854716 -0.46584663 0.096658096 -0.19724378 -0.15970494
necesario 0.47908908 -0.7661973 -0.43656275 0.1956293 -0.8287219 -0.28517064 0.029213298 -0.84346503 0.4877798 -0.2710804 -0.09697167 -0.059915904 1.4158211 0.081252135 0.65379244 0.09177994 0.12182436 0.7706148 0.51269746 -1.0223941 -0.30658674 0.4613264 -1.2332468 0.79905957 -0.3610017 -1.2911978 -0.64050967 -0.40223137 -0.44030678 -0.21521322
segun 0.085225895 0.33496314 0.5090975 -0.5034743 -0.056159835 -0.38362482 0.5966338 0.09991466 1.0317106 0.3665896 0.022361165 -0.04485199 0.28554294 -0.3016499 0.386475 -0.1865128 0.061914224 0.5873832 0.5958849 -0.63055015 0.5553073 0.06795446 -0.9934675 0.20358962 -0.31888902 0.19196442 0.4923048 0.92729837 0.2581221 -0.52797556
nos 0.26198304 -0.11466515 -0.54087615 -0.14859448 -0.72928333 -0.20329288 -0.017839286 -0.514766 0.38465157 0.19566835 -0.2994598 -1.0425193 -0.015086091 -0.22680959 1.311487 0.05777031 0.22426865 0.4897576 0.36418167 -0.92165256 -0.28233197 -0.00072023936 -0.14245379 -0.014711898 -0.4897983 -0.7164754 -0.6062454 -0.56027204 -0.1439386 0.05016904
remite 0.0141756395 0.11350089 -0.4897831 0.0068646986 -0.64221907 -0.4027409 0.54230934 -0.2743916 0.41070873 -0.2146416 -0.5167421 0.06635479 0.2825569 -0.114880584 0.69713014 0.1830912 -0.55034024 0.5301042 0.2256813 -0.6827286 -0.21657252 0.76927125 -0.59841937 0.61117554 -0.83141255 -0.05296764 -0.12435423 -0.22813109 0.25923544 -0.47035843
beca 0.07870924 -0.6101944 0.035174932 -1.0067664 0.14190255 0.4137535 0.9396477 -0.32085124 0.7158289 0.5568769 0.7068237 -0.2588821 -0.14152119 0.17896537 1.0192329 -0.17480081 1.1541712 0.6553455 0.6158096 -1.0690454 0.34926587 -0.47339794 -1.0944864 0.46093234 -0.41917735 0.32148072 0.993162 0.34096295 -1.0608441 -0.6501396
debera -0.30590814 -0.78158474 -0.4164314 0.29064834 -0.47788742 -0.6656619 0.34656593 -0.24091947 0.6728874 -0.19479676 0.20656544 -0.59321815 1.2713567 0.099554494 -0.3099778 1.1174062 0.38448942 0.9859181 0.008939256 -0.88989717 0.6942574 0.07463125 -2.321567 0.9106619 0.20766906 0.32130262 -0.011111529 0.07948853 0.10377221 -0.19085743
quincena 0.82966375 1.1229001 0.39286992 -0.44386402 -1.7853377 0.6195116 1.3334638 -0.35328126 1.6067314 1.0251715 -0.6974165 -0.3755996 0.29990044 0.3500954 -0.14814295 1.1139263 -0.868275 0.64456195 -0.45110703 -0.61653954 -0.20638786 -1.3417237 0.33958223 0.55005366 -0.47894314 -0.5323592 0.44369677 1.7631158 0.61997783 0.04769559
plataforma 0.12698717 0.41350925 -0.6660194 -0.42029265 -0.6478687 -1.3433466 0.34964183 0.8656789 1.0364292 0.12671994 -0.63684666 0.8111765 0.722406 -0.3565554 0.80864877 -0.78301567 -0.89015645 1.0954101 0.35740998 -0.6169802 -0.23053975 1.5880103 -0.46752724 1.2734733 -0.80379903 -0.73081046 0.60072756 0.08046309 0.438817 -0.4713999
total 0.58030075 -0.1760777 -0.26247668 -0.29511756 -0.68349254 0.63917524 0.142921 -0.068247154 1.6229934 -0.27954775 0.15524189 -0.5432832 1.3478557 0.58918136 -0.5325562 0.34696195 -0.07703927 0.30741677 -0.2565197 -0.2929915 0.39598653 -1.3186595 -1.0404109 -0.049997576 -0.10934855 -0.04088211 0.0024623817 0.66438377 -0.07216921 -0.22626685
requerimiento 0.22451003 0.44265652 -0.34337234 -0.13108268 -0.94876444 -0.5947402 0.22150056 -1.5409741 0.95257914 0.7298886 -1.2004731 -1.3454906 -0.59084576 -0.21663448 2.2335377 0.28762817 0.5834105 0.47596967 0.21110113 -1.178236 -0.8043854 0.23295538 0.301369 1.0481809 -0.9560864 -1.473636 -0.99555117 -0.57413673 0.080465 -0.26852012
aplica -0.38942412 -0.23611316 -0.10071556 -0.40848467 0.4968455 0.31713378 0.7305562 -0.54770166 1.3464656 0.24625807 -0.14561312 -1.1836206 1.8930496 0.36385623 0.5068084 0.4920976 0.042117424 0.57066053 0.72439694 -0.09786214 0.66474444 -1.4778405 -1.0789351 -1.55875 -0.8878817 0.34274888 0.2104036 -1.4812921 1.7767309 -0.17833665
datos 0.66800433 -0.79346865 -0.6445818 0.7040193 -0.5548617 -0.96976286 -0.03935831 -1.1830393 0.07193719 0.055590793 -0.41006497 -0.08263425 1.5968225 0.34618515 0.79723275 0.041213997 0.062361244 0.56195456 0.7490529 -1.6419269 -0.24111217 0.10903012 -0.47916242 1.1435125 -0.5054966 -1.515965 -0.30214408 -1.0543522 -0.25927082 -0.76252174
registra 0.54254 0.54650366 0.026162647 -0.5240142 -0.60308987 -0.008913136 0.71741474 -0.19398172 0.92208546 0.18524233 -1.065879 -0.07671886 0.10286878 -0.21907297 0.43828595 0.43345127 -0.7493327 1.099018 -0.18248232 -0.32776046 -0.5582132 -0.15293562 0.029102497 0.52082765 -0.4975605 0.03958999 0.040501796 0.14948945 -0.004414324 -0.015230355
registro 0.28374064 0.14562742 -0.6131032 -0.19001998 -0.6164594 -1.1871271 0.17818408 0.7364174 1.1072083 0.32154483 -0.6996975 0.47779104 0.33510825 -0.3738538 0.88727385 -0.93869114 -0.4136753 0.48761752 -0.15953697 -0.22712179 0.10497476 0.87313646 -0.0053674406 1.2149017 -0.81122017 -0.7835925 0.5898784 0.3751785 -0.07015385 -0.4734245
respecto 0.13189122 0.36848375 0.26038593 0.22120932 -0.35153824 0.10448891 0.91198343 -0.57682294 1.2698783 0.85520184 -0.51337296 -1.3075192 0.055290986 -0.25617608 0.76178986 1.0648677 0.27670398 0.5233989 -0.2848793 0.1333586 0.22388959 -0.8722786 -0.50293696 -0.3183378 -0.46828958 0.28832084 0.08255696 -0.37541297 0.96383727 0.7029592
reconoce 0.07915403 -0.60084283 0.071547076 0.05658691 -0.029118462 0.2617426 0.07364356 -0.2663816 1.2950484 0.3119694 -0.16985676 -0.7310162 1.0963786 0.4767362 0.0027087554 1.0513984 0.35499468 0.8159669 -0.14176822 -0.43029863 0.7906688 -0.8019585 -1.1513921 -0.401746 0.050939158 0.30830276 0.46296263 -0.067244366 0.05210926 -0.20012403
tanto 0.32812157 0.0967013 -0.04156758 -0.16895615 -0.589507 0.19750468 0.010847033 -0.5091789 0.9720434 1.1442553 0.15152924 -0.9269322 -0.12948693 0.016833832 0.9407486 0.23757367 0.041334182 0.6629543 0.10365143 -0.90344054 -0.41488427 -0.27484918 0.029424671 0.29357934 -0.30033275 -1.2968647 -0.52684826 -0.312489 -0.57621145 0.047461934
presente 0.0033245727 0.12891617 -0.038249236 -0.5809897 -0.39343926 -0.04546572 0.4043045 0.4705819 0.9684773 0.5820535 -0.2571433 -0.40785986 0.31412628 0.41658357 0.14463004 0.42739642 0.09567655 0.50155145 0.18955463 -0.36675793 0.50510937 0.1408211 -0.08688207 0.23345366 -0.55109686 -0.269577 0.5627615 0.279371 0.32439053 0.052219223
educacion -0.36798584 -0.17968084 -0.1149092 -0.3627207 -1.0378609 -0.026907105 0.4340172 0.65002894 1.2002923 0.7803863 0.21583627 -0.4584707 -0.55016196 0.3091368 0.30441576 0.64948505 0.008577774 0.34533045 -0.22702312 -1.2260367 -0.14129692 -0.13527149 -0.11106693 -0.31393388 0.056197118 0.7491899 0.76264894 0.8742039 -0.72231555 -0.413532
requisitos -0.9347941 -0.3819206 -0.412783 -0.7267079 -0.13026245 -0.6817868 0.72343296 -0.43504024 0.4140993 0.4432884 -0.18676817 -0.07890988 0.21845914 0.51691747 0.39608648 0.5274999 0.57094103 -0.27270198 -0.044777222 -1.2570297 0.34681678 0.21633676 -1.0063872 0.7404289 -0.29004505 0.19534735 0.15670872 0.45249835 0.21470647 -0.9707678
ovp 0.032627497 0.3342914 -0.13658659 0.448971 -0.92987096 -0.46323168 0.2781759 0.18300594 0.53894436 -0.109694384 -0.31528962 -0.054385893 0.3797588 -0.35100102 1.1574919 -0.096421994 -0.49084404 0.4993237 0.5368874 -0.45545956 -0.58093864 0.18797478 -0.17600125 0.43745786 -0.9447424 -0.5848298 -0.3532689 -0.18375108 0.6013217 -0.20267415
trabajador -0.37216356 -0.05886636 -0.26848435 0.025429323 0.07490029 -0.18132931 0.15049586 0.07493687 1.0745215 0.30762708 0.83893245 -0.54522276 -0.27430487 0.4890865 0.41362327 0.06118004 0.747904 0.64797187 0.6035916 -0.4629986 0.3700479 0.15164924 -1.190617 0.52644193 -0.49843326 0.908153 0.4492999 -0.098538935 -0.05490543 -0.40153325
cursar 0.55582255 -1.42964 -0.28814086 -0.0017020843 -0.48877054 -0.27004316 0.36923453 -0.68448156 1.0353931 -0.7792282 0.14948 0.62858194 2.1204045 0.97196156 -0.33032614 0.18923077 -0.17569685 0.52692145 -0.14935921 -1.1346339 0.13085702 -1.0288612 -1.7161674 0.22935261 -0.44773278 -0.1842907 0.24120606 0.3444893 -0.9046355 -1.7476532
envia 0.5882542 0.18963511 -0.65059817 -0.64993274 -0.5110567 -0.9776686 0.08456494 0.26447177 0.7820085 0.46572068 -1.0800635 0.31446373 0.44817197 -0.14404818 1.3897552 -0.69170815 -0.40981305 0.36178312 0.16118614 -0.9204826 0.117914446 0.74271023 -0.14059713 1.1255649 -0.71559227 -0.97640514 0.326147 -0.0014503491 0.45900446 -0.4715643
cambio 0.47567528 -1.036319 -0.1857654 -0.64772916 -0.23666781 0.08403937 0.49881178 -0.49229726 1.1122046 -0.20555723 -0.71046764 -0.1996956 1.086002 0.5746847 0.3282843 0.8117872 0.4906695 0.5488122 -0.32430196 -0.38984433 0.37628257 0.19654381 -1.3399172 0.07918134 -0.16317596 -0.2698058 -0.11119955 0.21827054 -0.4174824 -0.4811312
servicios -1.1912911 -0.36670658 -1.4555106 -0.5385586 -0.16344537 -1.0507526 -0.1558834 0.78332245 1.2272172 0.37913206 0.56328213 -0.6086793 -0.5207958 1.126192 0.29037422 0.1395778 -0.87061745 0.9798145 0.060643405 -1.0650609 -0.3064268 0.87732697 -0.38329375 -0.40255737 -0.4808402 1.2258011 0.402326 -0.9196386 -0.412 -0.42066562
descuentos -0.15723024 0.64080477 -0.8272821 1.1640282 0.14672305 -0.25301757 -0.1569466 -0.08304593 2.1808388 0.088951945 -0.45231515 -1.8674109 1.8520492 0.52892894 -0.14968193 0.7512154 -0.54915684 0.14994338 0.28363734 -0.4827329 1.3244964 -1.8132691 -0.44979477 -1.1344899 -0.6919894 0.033107728 0.47713977 -1.0298029 1.9020969 0.30295908
formulario 0.16794692 -1.2057904 -0.86705595 0.78123355 -1.5596184 -1.345784 0.6113798 -0.05755636 1.2029452 -0.82206357 -0.78703564 0.18452333 2.6878448 0.27834427 -0.91426057 1.2163445 -0.086986996 0.70976067 -0.14778145 -1.2962288 0.31780386 1.0274546 -1.5902852 1.6351173 0.016286062 -1.1800815 -0.06924323 -0.228351 0.37814546 -0.76979995
debo -0.10053821 0.45800066 -0.84328485 0.49745074 -0.895006 0.15298316 -0.3339395 1.298422 1.7095239 0.028866457 0.9370612 -0.86106145 0.5415068 0.41120547 -0.27737042 -0.41350603 -0.31532508 0.42171627 0.67129284 -0.0704379 0.6322757 -1.0258871 0.15846321 -0.5025186 -0.91028285 -0.50534105 0.8724715 -0.41374037 0.058263812 0.23694193
escalo_correspondiente 0.25506836 -0.224787 -0.25248155 0.11755256 -0.5938273 0.0850016 0.5082764 -0.40677768 0.9782596 0.2924488 -0.35244134 -0.83942205 0.13465318 -0.075621314 0.6968916 0.5301446 0.24453527 0.3075482 0.050353102 -0.31531087 0.26367036 -0.415294 -0.090342164 -0.48417777 -0.08174607 0.056079324 0.2472511 -0.031253632 0.092725135 0.27370095
manera 0.14651684 0.7716206 -0.18192706 0.38004026 -0.8273652 0.31546122 0.087003596 0.6328259 1.4624364 1.276151 0.55608547 -1.4531765 -0.042008027 0.075891025 0.7713134 -0.28031895 0.11467666 0.51501405 0.22284815 -0.7501259 0.64501655 -0.565692 -0.26791555 -0.134802 -0.027068704 0.07029017 0.26542068 0.6511839 0.3786852 0.53454095
error 0.112418264 1.0360665 -0.5022274 0.6130728 -1.2991345 -0.8101658 0.47928116 1.0816917 0.9255408 0.14285085 -0.3057358 0.19574298 0.99994785 -0.70044845 0.84690076 -0.22093755 -1.6535441 1.1830809 0.6379351 -0.62136984 -0.5657505 0.8156101 0.43802294 0.7784245 -1.2683499 -1.1266276 -0.15907522 -0.10761916 0.8063273 -0.04902124
comunicado -0.6080588 0.55989283 -0.016576096 0.29607952 -0.4278936 -0.35378557 0.42790258 -1.3167547 1.1028675 1.1333798 -0.6353165 -1.9391652 -0.06321824 -0.35872442 1.5072279 1.3103238 0.28609616 0.2030722 -0.16540258 -0.36380336 -0.023965843 -0.61091477 0.007736205 -0.28719074 -0.65614825 -0.57286984 -0.7032494 -1.4011914 1.4661363 0.63965315
reintegrar -0.22130464 0.58030397 -0.4422396 1.0573874 -0.043622576 -0.26184747 0.051037587 -0.38829446 1.9182764 0.10180703 -0.6155388 -1.6889918 1.0046066 0.41575715 -0.07906084 1.3287575 -0.19209674 0.3769322 0.30498397 -0.1722744 0.8354789 -1.2465945 -0.33281344 -0.7224817 -0.59128 0.37768483 0.47518635 -1.3153975 1.6860647 0.63547075
motivo 0.27587873 0.30194134 -0.09653635 -0.44541472 -0.00032634148 0.06129199 0.3437144 -0.38862395 0.97224325 0.64592147 0.09393111 -0.35388514 0.47570068 0.17891316 0.11253451 0.24535087 0.107387416 0.8992386 0.056406092 0.004678524 0.36100882 -0.2397233 -0.24180253 0.43001223 -0.5940578 0.09312028 0.14932923 -0.06674023 0.055891145 0.3025922
bajo 0.7799265 0.35298198 0.690617 -0.7070444 -0.8953781 0.18315925 1.097869 -0.7022445 0.86650735 0.4964862 -0.71068853 -0.7662276 -0.65491325 -0.36948478 1.268289 0.3580924 0.52721494 0.6701948 -0.27306414 -0.5006622 -0.38141263 -0.12888879 -0.6723779 0.9514263 -0.6144785 -0.3109675 -0.5644602 0.76793796 -0.186812 -0.31733006
servicios_compartidos -0.4371841 -1.3447251 -1.640485 -0.18574063 -0.6640667 -1.7666012 0.95092845 0.26937136 1.8424789 0.9418702 -1.9535981 -0.28538468 -1.411814 1.5327129 1.2597729 1.0662454 0.7749882 -0.15253752 -1.8901312 0.36391982 -0.06386522 0.66875404 0.12906739 0.76058 -1.0937897 0.59591854 0.8590725 0.17903768 -0.7043744 -0.0153586175
documento 0.08535587 -0.35768425 -1.3568374 0.45581096 -0.6335419 -0.14675027 0.3354353 0.028675478 0.15548635 -0.62068653 -0.64907867 0.76238596 0.47014338 0.6290474 0.84429866 0.14574112 -0.108438276 0.14938176 0.73353946 -1.5067002 0.79491675 0.07804201 -0.6415285 0.67855 -0.94935775 -1.2048309 -0.70442003 -0.31776714 -0.17593478 -1.1308906
cada 0.06935758 -0.496644 -0.14992021 -0.22412643 0.15770544 -0.5376679 0.33864987 -0.97481596 0.5037302 -0.5610811 0.332448 -0.29912803 1.0014083 0.62682104 -0.11239242 0.16920023 0.13542403 0.41006765 0.4684823 -1.3473263 0.53247416 -1.0510393 -1.3194185 -0.11845708 -0.17338903 0.18485314 0.3344437 0.52730864 -0.5164194 -1.484249
mismo 0.75256306 -0.1320142 -0.39757124 0.68190086 0.112389676 -0.79921865 -0.34068507 0.09363396 1.2863545 -0.040119812 -0.4883868 -0.11754084 0.4658855 0.004781366 0.35867465 -0.09322174 0.06923003 -0.1883504 0.037395712 -0.8593028 1.0406094 -0.515853 0.5137957 0.59838504 -0.4337226 -0.3758192 1.2621411 0.016515104 0.5784576 -0.28090397
valida 0.60612905 0.21750097 -0.052727103 -0.13690686 -0.5883811 0.11589279 0.7684218 -0.08421771 0.9716988 -0.09979578 -0.88345295 0.021254832 -0.11677668 -0.28283438 0.96219414 0.081008494 -0.17956895 0.37372607 -0.23728152 -0.061930418 -0.0650709 0.21176742 -0.45771968 0.68473905 -0.92961377 -0.26891088 -0.52195793 0.229784 0.13954481 -0.241601
agradecemos 0.08114708 0.38021415 -0.6599095 -0.025456501 -0.64013636 -0.8976692 -0.11313412 -0.683472 0.6983844 0.32246482 -0.9584522 -0.76562834 -0.3233439 -0.05868063 1.2099725 0.22433372 0.42180753 0.25030014 0.020927949 -0.8985233 -0.81217206 0.516857 0.27495345 1.0398101 -0.42977536 -0.7873918 -0.48842034 -0.55141884 0.15228963 -0.21298651
esto -0.46396485 -0.48603237 -0.11985062 -0.5345725 0.019585647 0.39982525 0.37691247 -0.716538 0.75458205 0.20164718 0.23088486 -0.6636216 1.0195559 -0.28692576 1.0208893 0.13444102 -0.3077231 0.18909313 0.348224 -0.10506038 0.21990453 -0.75540644 -0.80909383 -1.1153274 -0.80923635 0.13820638 -0.48580414 -0.63519394 0.77439624 -0.2512559
electronico 0.65657467 -0.07883932 -0.907382 0.5845123 -0.4443726 -1.3555036 -0.14625135 -0.4859798 0.29283807 0.002338661 -1.1582828 0.17965314 0.85443884 0.33389744 0.9877881 -0.30099106 -0.31808433 0.02628639 0.48391685 -0.91964144 0.3580025 -0.313459 0.22779131 1.1322566 -0.62700087 -1.3388628 0.7051681 -0.84796816 0.89436585 -0.9400301
presenta 0.49482274 0.49947682 -0.1433049 -0.587181 -1.2029395 -0.60201585 0.305979 -0.74019927 0.9144094 1.1151116 -0.9424653 -0.46088424 0.14184642 -0.12698036 1.3336879 0.23265012 0.028059129 0.44430172 -0.28032282 -0.9858963 -0.5866979 0.63946956 0.117347844 1.176877 -0.7306654 -2.1443615 -0.5489607 -0.11555258 0.353829 -0.14577238
pagos -0.7934767 0.5031038 -1.3734372 0.042201284 0.24749038 -0.69739527 -0.66567755 -0.38951233 0.55825365 -0.014412604 0.18472488 -0.41587865 0.109618574 0.8571469 0.40406635 -0.6056788 -0.77593553 -0.055573273 0.2469269 -1.1579325 0.5637791 -0.9413752 -0.07863747 -0.3273179 -0.4732892 0.3208942 0.58173937 -0.21159655 -0.05021768 -0.90611094
realiza 0.7429674 0.21191858 0.020194314 -0.16756351 0.033341665 -0.3002127 0.47952554 -0.26006377 0.8653319 0.14088681 -0.4999799 -0.112993255 0.740685 0.2188273 0.015817713 0.0809905 -0.16454084 0.67738193 -0.028756164 -0.34687036 0.10116218 -0.07198635 -0.124148615 0.4571268 -0.3731814 0.10478049 0.43643984 0.12821344 0.04928343 -0.252253
confirma 0.27693126 0.18281306 -0.15130076 -0.5471856 -0.39776894 -0.09134253 0.6571112 0.04002331 0.56053615 -0.082433596 -0.73908865 -0.39107415 0.10043224 -0.30679765 0.5430726 0.25588053 -0.42871308 1.0595877 0.025541533 -0.34505448 -0.5211627 -0.20052002 -0.53306085 0.31061518 -0.54062325 0.44038108 -0.32650083 -0.06688962 0.03540503 -0.35400948
aprobado 0.7184863 0.02282644 0.32308304 -0.8504681 -0.739385 0.5165838 0.82851547 -0.18506955 1.1072857 0.44452828 -1.0596117 0.21975385 0.6775169 0.17885034 0.3120523 0.2871198 -0.6012628 1.0571636 -0.30665252 -0.41644454 -0.45840925 -0.8377284 -0.09413652 0.4443661 -0.52281827 -0.0990095 -0.17077029 0.7116895 -0.5847305 0.008640732
nota 0.7941184 0.61048794 -1.1339343 -0.14970835 -0.74480253 -0.7589143 0.08680341 -0.15691602 0.9972009 0.1316876 -0.7847649 0.4111031 0.66234535 -0.12781163 1.2133025 -0.4553602 0.07890912 0.5389035 -0.07723517 -0.42179263 0.07625098 0.36922356 -0.21099797 1.0522527 -0.07922147 -1.2655357 -0.22217186 0.45896092 0.3633615 -0.08020565
beneficiarios -0.562129 -0.10684639 -0.106030256 -0.6836294 0.4098606 -0.56037825 0.62617767 -0.6361534 0.31340328 0.68305117 -0.33181426 -0.39967093 -0.23807518 0.34202617 0.5544718 0.21962759 0.27101856 0.30928367 0.27242643 -0.98911005 0.36238986 -0.8018706 -0.59916896 0.40828353 -0.44010377 0.31793487 -0.01144889 0.21032636 -0.07647384 -0.9220152
corresponde 0.87265587 0.17551602 0.47599044 -0.14567979 -0.53774804 0.38379425 1.0479769 0.06241965 1.368579 0.63680243 -0.2015356 -0.39435995 1.6270775 -0.36098126 -0.49017522 0.95979214 -0.3611324 1.6613475 0.17092972 -0.44907475 0.0711465 -0.94479257 -0.6949343 0.2304957 0.047630303 -0.23253271 -0.019611748 -0.24251187 0.5115447 0.4032142
guia -0.4859334 0.037018705 0.7089573 -0.32582575 -0.30761817 -0.13695568 0.9786477 -0.80798304 1.2816142 0.9746668 0.12795052 -0.76925856 -0.34826523 0.17289804 0.60261816 1.0640695 0.61825514 0.074846245 -0.09065516 -0.23144305 0.32377276 0.3411286 -1.132152 -0.04492367 -0.88359934 1.0861832 0.69976604 0.72759676 0.15019329 -0.5523516
dice -0.07153851 -0.45932806 0.09388322 0.16961482 -0.81594336 0.73836625 -0.27909115 0.42685813 1.2102796 0.09637062 0.9062996 -0.31758133 0.91868186 -0.40077752 1.1717489 -0.36141488 -0.32907653 0.18699428 0.38158938 -0.12166532 0.08939817 -0.69578326 -0.91759336 -0.82530725 -0.95057243 0.030125784 -0.22900605 0.74412614 -0.66660905 -0.19294584
primaria 0.29788592 -0.9687094 0.8718842 -0.23157766 -0.10108188 0.62347287 0.7963561 -0.31228358 0.9219749 -0.14903998 -1.1250387 -0.06597492 1.6227797 -0.06547187 0.7196509 1.7272611 0.037390355 1.0763583 -0.79508334 -1.2019185 0.33545735 -0.5143798 -1.684469 -0.6974338 -0.034616962 1.1996791 0.2582444 0.7246267 -0.6265667 -0.6948944
soportes -0.09676369 0.42460725 -1.0455595 -0.09406369 -0.49132788 -1.0410075 0.023626596 -0.26668027 0.36331844 -0.35330066 -0.23371293 0.32613367 1.0751406 0.56973624 0.9215192 -0.2709517 -0.30988595 -0.5623956 0.07119464 -1.318915 0.5989221 -0.5178258 -0.7532644 0.40092263 -0.10133003 -1.1122264 -0.21031867 0.5962722 0.21132553 -0.72017133
estado 0.43993706 0.24991238 -0.19860098 -0.8935736 -0.5290462 0.02289565 0.68159336 0.23755622 0.4998597 0.2920772 -0.7164625 -0.4503541 -0.4631549 -0.23104846 1.2963767 -0.29271823 -0.14231744 1.3045379 -0.005294033 0.066316195 -0.49051315 -0.21339424 -0.3810943 0.46624187 -0.97163343 0.13596012 -0.50963646 0.24063176 -0.73716486 -0.15763247
realizo 0.27245587 0.29327223 -0.10728855 0.27654853 -0.7034585 0.4393052 -0.034275554 -0.15342191 1.3173107 0.14243175 -0.2537439 -0.69764435 0.33437136 -0.090594 0.30853027 0.58355 -0.2775816 0.6883697 0.056816738 0.15216005 0.030360155 -0.44159022 -0.09356064 -0.23302202 -0.5718365 -0.10095241 0.30101672 0.052114125 0.28065884 0.34904635
registrado 0.57844436 0.59777784 0.05358489 -1.0278952 -0.051791884 -0.4792486 0.36749297 0.2720924 0.8148826 1.3832381 -1.6076908 -0.35616556 0.3479773 -0.33972833 0.5278414 0.4686126 -0.19072072 0.6966846 -0.034256194 -1.3182766 0.3403508 -0.5003241 0.40904096 1.4292076 -0.08664435 -0.81382424 0.20474963 -0.4541743 0.7779336 -0.24423695
deben -0.59784794 0.13869068 -0.6449372 0.19272321 0.20664458 -0.666708 -0.27077693 -0.023655452 0.6745329 0.1571913 -0.49031025 -0.6927202 0.56385046 0.6078189 -0.15155075 0.88252115 -0.25221968 0.1652165 0.4388652 -1.2306612 1.2233306 -0.52640325 0.061022673 0.08072974 -0.15351087 -0.22839478 0.56706905 -0.5790814 0.7189626 -0.692434
meses 0.6034299 -0.5387602 -0.5094683 0.8799936 -0.7610075 0.036783434 0.40138158 1.1227704 1.430245 0.18807983 0.8152282 -0.07896292 1.8226562 -0.23351875 0.6423899 -0.07554888 -0.83929753 1.6133487 0.75716525 -1.8195027 1.0516093 -0.41227394 -0.70108676 -0.76370656 0.8428901 0.8267237 1.1490357 0.24434672 -1.1197563 0.7722045
estudio 0.25359857 -0.5906056 -0.052318566 -0.2595212 -0.42573062 -0.50362104 0.772915 -0.19521396 0.146866 0.43242705 0.68437535 -0.08537439 1.0406597 0.65835553 -0.032101985 -0.79857075 -0.23508643 0.86646456 0.51112705 -0.6713044 0.44996175 -0.68198955 -0.83977115 -0.1201091 -0.9406964 -0.8112728 -0.079479344 0.42922235 -1.0261817 -0.69411355
opcion -0.9026965 -0.20293182 -1.1479317 1.0090185 -0.53714836 -1.2348537 -0.8123748 0.20816916 1.2503105 -0.37033796 -0.057133667 -0.18336175 -0.46341538 0.96016806 0.40248355 0.036581848 -0.40030372 -0.44757396 0.27401322 -0.5954756 -0.024330646 0.35896072 0.48308823 -0.00402683 -0.9068736 -0.0810976 1.6089848 -0.50055707 -0.20879452 -1.0987397
dos 0.0896164 0.033850323 -0.16557464 -0.1354885 -0.3891933 0.3896486 0.1810823 0.72549266 1.2383276 0.24897832 0.56377286 -0.25202465 0.34557024 0.114164844 0.35094115 -0.060542624 -0.03743987 0.62320775 0.27084637 -0.4374792 0.51868606 -0.806637 -0.6996881 -0.46817786 -0.5518682 -0.22478539 0.31808925 0.5052947 -0.41251 -0.33753014
octubre 0.7341056 0.5633205 0.2639357 -0.3818424 -1.3364706 0.8168786 1.3854187 0.5040457 1.7217016 1.2479223 0.039905213 -0.47308752 -0.01317192 0.03766147 0.026354235 0.3431753 -0.6764713 0.82494485 0.0531157 -0.522082 -0.24193038 -1.4403176 0.31907204 -0.1611023 -0.09151127 0.22479783 0.43233305 1.251681 0.1999111 0.44402215
dineros -0.07615704 0.26651493 -0.014599211 1.3370678 0.05729077 0.057063542 -0.56247383 0.08990325 2.1375966 0.5014878 -0.084803104 -2.167413 -0.18187928 0.37045223 0.17511854 1.2695048 0.28235692 0.9846747 0.17906952 -0.37588865 1.2989283 -1.8667376 -0.11997966 -0.41919345 -0.63288873 0.43049183 1.0000131 -0.5658976 0.7629496 0.23381796
herramienta -0.7400745 0.23453736 -0.62902004 -0.2153963 -0.50942785 -0.69622034 0.15709202 0.45947012 0.6668349 0.088695385 0.032982722 0.22837633 0.2898698 -0.07556776 0.5044627 -0.08161157 -0.8646336 0.7881309 0.47614697 -0.4576231 -0.62844735 1.1713533 -0.13665196 0.43650004 -0.90366274 0.054314993 0.23757432 -0.7866726 0.34251842 -0.61799335
auxilio -0.21812332 0.20529354 0.29926994 1.1454016 -0.5847926 0.47138667 0.54846054 0.3215178 1.190361 0.8115502 0.35031053 -1.6156775 0.72444654 0.20998831 0.9568508 0.36447152 0.41056508 1.0477422 0.44717613 -0.79605603 1.1506387 -1.510127 -1.0216874 -0.99604374 0.087165214 -0.00038830645 0.7810959 0.43233085 -0.08239401 0.4281141
escolar -0.5857794 -0.52694833 0.10201766 -0.23112532 -0.19924659 0.42884216 0.35079044 0.50586027 0.77815163 0.29964426 -0.5090654 -0.69827515 1.0993248 0.36607155 0.12386116 1.0928255 -0.41324112 0.95163584 -0.09580491 -0.64933974 0.18086559 -0.96510804 -1.2506813 -1.0698038 -0.24665543 0.5245527 0.63218915 -0.3232187 0.26690507 0.16532417
informar -0.5408365 -0.25174323 -0.34473425 -1.1461571 0.06697445 0.09129224 1.2738463 -1.8045201 1.1551799 0.3213571 -0.9211322 -1.0922511 0.5681181 -0.110745355 1.199035 0.70733243 -0.060642123 0.23388655 -0.30757773 0.400362 -0.16136803 -0.7635242 -0.34122682 -0.80540717 -0.91118854 0.9345659 -0.46883583 -0.8786494 1.4550456 0.21461803
remitir 0.18117818 0.50701505 -0.50374895 0.23018119 -1.0008333 -0.82091784 0.31892434 0.0843445 0.46971083 -0.2617471 -0.72519577 0.046904113 0.5270961 -0.5099861 1.0331482 -0.45599756 -0.87373227 0.97050816 0.5693461 -0.48967332 -0.703915 0.3560344 0.1654435 0.82012993 -1.2424273 -0.95610356 -0.18011384 -0.36835974 -0.036133353 -0.2904247
dentro -0.77341396 -0.3268776 0.3484882 -1.956297 0.43925664 -0.1623289 0.578796 -0.08318286 0.8243774 0.7939346 -0.08980079 -0.54645854 0.82238203 1.0066701 -0.13567455 0.03467381 -0.22204041 0.14214283 0.2497741 -1.396896 0.6547609 -0.9237963 -1.1890794 -0.07494559 -0.8248536 0.0017433293 0.79573065 0.8881261 -0.10391027 -1.1447351
dar -0.07188709 0.1816468 -0.060157932 -0.03823925 -0.30931485 -0.24071412 -0.15973936 -0.56405264 0.6771905 0.52677256 -0.62469167 -1.0076815 -0.10565021 -0.41913798 1.8635802 -0.09085983 0.08534494 0.6750244 0.36953777 -0.1641711 -0.56678104 -0.32123452 0.16529089 0.6592081 -0.77800083 -0.7172687 -1.1133008 -0.47623247 0.04954035 -0.001059119
pantallazo -0.13776408 0.8789725 -0.9126339 0.64070004 -0.9514653 -1.3396711 0.41759557 0.3209806 0.5517207 -0.5723782 -0.6908468 0.5814292 0.8053844 -0.6370669 1.0957928 -0.1968011 -1.3858368 0.8839746 0.82671964 -0.911668 -0.37873143 0.7562451 -0.04898762 0.6991311 -0.9510877 -0.862437 0.564155 -0.38571534 0.964685 -0.7967971
dia 0.62578565 -0.57218355 -0.33504254 -0.23583601 -0.4955526 0.018050794 1.0276662 0.22118881 1.6416464 0.56996226 -1.096106 -0.3508725 -0.8651523 0.1695992 1.3150722 0.36961108 0.31179225 0.4945243 -1.0749167 0.9500549 0.22604112 -0.438632 -0.047039848 0.18510292 -0.9976818 0.0045424 0.28490928 0.59952915 -0.50581735 0.6650879
realizada -0.5348404 0.24052185 0.089146376 -1.2039922 -0.42300832 -0.12998065 1.0464343 -0.48831257 1.0638925 0.24785364 -0.7789756 -0.9756717 -0.51552445 -0.29847372 0.72048753 0.68726647 0.35701773 0.8462478 0.22848298 -0.5977483 -0.7776932 -0.32258618 -0.40439692 0.3499243 -0.14191692 0.72021604 -0.19235568 -0.14115392 0.50528324 -0.061562717
tiempo 0.7896192 0.23331392 0.12028264 -0.7291975 -0.20710449 0.33868945 0.65126246 -0.021053098 1.1559802 0.5360901 -0.3795023 -0.8637292 -0.4969315 0.03788478 0.8892953 -0.37538347 -0.20912062 1.3046564 -0.07058637 0.23863284 -0.472704 -0.68834084 -0.23628338 0.31203625 -1.0342541 0.4374445 -0.18473488 0.696083 -0.67974454 0.108009145
estudiante 0.51867294 -1.2760092 -0.3960551 -0.6726275 -0.5760819 -0.12638618 0.5156797 -0.36048403 0.56953907 -0.26721212 -0.42647833 0.14030497 0.8607985 0.8999878 0.3534852 0.444807 0.4850046 0.49628216 0.14902052 -0.82363844 0.37771428 0.054438442 -1.3075134 0.2674326 -0.4027082 -0.09636749 0.21460299 0.51449025 -1.1389636 -0.5100325
ante 0.002820144 0.15267809 -0.55801195 -0.38388652 -0.025231121 -0.4531654 -0.60592675 0.27600393 0.6021389 0.7056239 -0.29907286 -0.45490983 0.16011755 0.035271525 0.911052 -0.40617073 -0.114321314 0.026117247 0.36159876 -0.88567805 0.7472706 -0.114986286 -0.07632323 0.2939079 -0.4726644 -0.4709479 0.65497935 -0.06443827 0.27299023 -0.57532454
profesional -0.2959735 -0.6012891 -0.45790127 -0.23801772 -0.54596627 -0.13437511 0.12207532 0.046544775 0.8909156 -0.59044784 0.5871853 -0.07562349 0.75567204 0.071547955 0.46545297 -0.5445595 0.2582187 -0.050670072 -0.060164977 -0.5555782 0.10652622 -0.58031285 -1.6263905 -0.05960431 -1.2235972 0.6068381 0.40214658 0.50047696 -0.8812598 -2.0370843
nomina 0.80379117 0.89106315 0.119863264 0.54838586 -0.49919727 0.18727337 0.6243943 0.112425454 1.7248551 0.8392451 -0.098807074 -0.6704313 0.3817198 0.06473953 0.0775109 0.0042032553 -0.76996607 0.74798894 0.10196263 -0.36498106 0.13868457 -0.80794287 0.4321824 0.14983241 -0.46484306 0.03468373 0.39393175 0.29750606 0.5184362 0.43666112
poder -0.42326605 0.20866205 -0.22663648 0.005726547 -0.44128492 -0.28019834 -0.4088892 0.3461384 0.6984114 0.038423114 -0.26418233 -0.90079725 0.3806328 -0.45561618 1.3330411 -0.54213417 0.12176491 0.3534744 0.3490774 -0.1805316 -0.19095337 -0.0056980355 0.08108901 -0.06656013 -0.97787887 -0.39200014 -0.14949682 -0.32225105 -0.38148913 -0.27369717
sea -0.05246645 -0.26155135 -0.38370505 -0.22814599 -0.17775314 -0.15415157 -0.16494451 0.022640644 1.030897 0.29244435 0.38440105 -0.17556028 0.08567621 0.39527798 0.48753044 -0.23709324 0.36441594 0.31384742 0.06205724 -0.34874362 0.24382722 -0.04642941 -1.2746885 0.3481242 -0.5226982 0.3341664 0.27419305 0.07943181 -0.43631497 -0.4628048
enviado 0.38893405 -0.24164863 -0.1760588 0.8730351 -0.33670568 -0.5034549 0.93619525 -1.1231219 0.44197688 0.38263112 -0.55683595 -0.26420203 1.3647127 -0.18154743 0.72974163 0.6880133 -0.1989016 0.08518548 0.16335465 -0.6775885 0.41237187 -0.8362819 -0.39384156 0.2666475 -0.54934543 -0.53805405 -0.4549223 -0.84564537 1.0928609 0.18464005
pendiente 0.55953497 0.28956315 -0.28340784 -0.4354928 -0.76719457 0.40625963 0.20353584 0.08639467 0.97453046 -0.18755302 -0.21459089 -0.13809206 0.47074038 -0.17633657 0.2529531 -0.29849365 -0.5268293 1.1156977 -0.08684261 0.32299563 -0.54724574 -0.5492776 -0.49345857 0.32921693 -0.8454426 -0.41071337 -0.10184115 0.21553344 -0.50577027 -0.1968604
ordinaria 0.9673104 -1.1950833 -0.81634206 0.6168509 -1.1278973 -0.9131185 0.66907895 -0.6070652 1.8186319 -0.8620581 -0.88086206 0.05726425 3.7341495 0.72284365 -0.98219436 1.347359 0.06704977 0.90203804 0.045693427 -1.3639803 0.7537594 -0.5047217 -1.577848 1.0399288 0.46615055 -1.5504476 0.5411612 -0.5845509 0.3691599 -0.5667455
mayor 0.57313675 0.028563231 -0.22476745 1.9406003 -0.2039254 -0.9241606 -0.48405635 -0.7344817 1.7081035 -1.066872 -0.40988863 -0.36910132 0.09201241 0.53417027 0.33910823 0.4823771 -0.06677342 -0.10306757 0.51045585 -1.3725578 0.8149178 -0.7639863 1.1270796 0.16134 -0.9068005 -0.42281267 2.2646358 0.28479585 -0.62597597 -0.9576675
directamente -0.058866095 0.22579809 -0.24435478 0.49393812 -0.075193964 -0.4666663 -0.08071322 0.3518895 0.8750022 0.27201915 -0.14767769 -0.8512148 0.03214358 -0.03844315 0.6266641 -0.01616687 -0.25398907 0.8137891 0.46018597 -0.32913002 -0.10373837 -0.12595652 0.031957395 0.27018708 -0.62998295 0.13487928 -0.19758794 -0.618587 0.4059977 -0.30417943
nuevamente -0.0198404 0.36895642 -0.44181702 -0.1199768 -0.8933377 -0.5648736 0.35336772 0.90213746 0.703072 0.5082793 -0.41872168 0.13437496 0.26864567 -0.20237713 0.6913235 -0.18543312 -0.80009943 0.42690474 -0.24536292 -0.5776626 -0.44674447 0.18172489 0.056877002 0.6999432 -0.5866344 -0.5762287 -0.25299808 0.40451792 0.02399135 -0.43851998
ajuste 0.63577855 0.14958698 -0.11639313 -0.39712074 -0.456082 0.18110564 0.7547028 -1.1116344 1.0561875 -0.10779637 -0.9058287 -0.14475852 1.2298212 -0.011577395 0.25028014 0.6470623 -0.3232609 0.5915069 -0.08985146 -0.24484321 -0.17714217 -0.49018887 -0.5060139 0.2235108 -0.37463564 -0.28669426 -0.026016718 0.05452089 0.5467342 0.29914942
exterior -0.14585422 -0.032992486 0.5864631 -0.49500236 0.86659944 -0.448987 0.3416001 -0.28086486 1.2233826 -0.18198566 -0.045921784 -0.72589016 0.28298643 0.8062522 0.027173001 0.87103635 0.7161101 0.80174744 0.64699 -1.6187179 1.1575228 -0.66847354 -0.7334733 -0.14770016 -0.6501273 1.3023776 2.072866 0.9524202 -0.9746042 -1.3953998
vigente -0.3358141 -0.22865076 -0.20966537 -0.2723933 0.050239168 -0.50380754 0.9430428 -0.33395806 0.5020564 0.6763063 -0.21418917 -0.44353676 0.157969 0.42119297 0.083906054 0.9203025 0.11129075 0.7539658 0.025926737 -1.4608959 0.647952 -0.012821191 -1.4384818 0.2045141 -0.015907075 0.8417469 0.15166277 0.46336126 -0.28967342 -0.7589158
tema -0.29171222 0.53063816 0.2547349 0.008137141 -0.32340994 0.18442379 0.09065278 0.42454436 1.167306 1.0217222 0.3866734 -1.6767747 -0.40370244 -0.08105774 0.8396825 0.22359915 -0.10936073 0.6547743 0.7773426 -0.5819233 0.45618856 -0.4647654 0.0020861067 -0.9599271 -0.66359735 0.17195828 0.22585979 -0.27241623 0.17555222 0.56184286
traves -0.8454568 0.21132772 -0.932229 0.025666427 -0.40432727 -0.96975017 0.43850437 0.0015453607 0.6185374 -0.048371777 -0.38292277 -0.23917857 0.23615061 -0.06684012 0.80842906 0.18511923 -0.7744853 0.36824608 0.27944392 -0.5674933 -0.4867422 1.2401276 -0.3012449 0.47981808 -1.0708177 0.19587469 0.18749604 -1.1971081 1.2605202 -0.55401236
documentacion 0.34136924 0.1901654 -0.11625637 0.2898962 -0.84180427 -0.2294662 0.47473338 0.14620666 0.5495004 0.11631671 -0.0664526 0.4058708 1.0085087 -0.22625297 0.7999826 -0.08099453 -0.3975051 0.56430966 0.42449883 -0.58657557 -0.024982711 0.5269535 -0.6727048 0.7234189 -0.5996962 -0.7642486 -0.0502486 0.049119826 0.4031177 -0.18906797
nuevo 0.14624707 -0.06461256 -0.23114397 0.0022570319 -0.6178731 0.090652846 0.003162638 0.32624853 1.0110132 0.038260546 0.07955557 -0.39574096 0.273274 -0.10009762 0.83795637 -0.31376776 -0.29341888 0.5878597 0.2699983 -0.40364355 0.17212105 -0.16882215 -0.42411837 -0.18464719 -0.5857235 -0.18828854 0.1550289 0.3470234 -0.58276886 0.04022724
archivo_pdf 0.11634701 0.27416784 -1.3266805 -0.70879304 -0.9521194 -2.3083546 0.059625275 1.0131214 1.069071 0.21313404 -1.2986255 0.83990943 1.8983848 0.19355667 1.0163602 -0.50069225 -0.8315122 0.42759383 0.094116345 -1.4302943 0.43889317 1.3424053 -0.38875443 1.7563199 -0.57912856 -2.011218 0.4870665 -0.038280994 0.88281935 -0.61192244
ultimo 0.39010826 -1.0043713 0.24622445 -0.50689566 -0.50214386 0.68958515 0.41781822 -0.17772953 1.3219137 0.44996923 0.50740504 0.08468972 0.5907789 0.21114196 1.1142831 0.14667377 0.07983301 1.0376227 0.052047092 -0.2515845 -0.0930338 -0.15836985 -1.1937501 -0.4238498 -0.52692235 0.6047892 0.32101536 0.588985 -1.7563084 -0.31354344
colaboracion -0.069977455 0.23694238 -0.13242112 0.53314435 -0.3347371 -0.12149626 0.17660803 0.79727703 1.0407593 0.60470897 -0.25875634 -1.2613901 -0.0671553 -0.3530101 0.7027981 -0.0426599 0.2939114 0.6627125 0.096197344 0.29638147 0.34573343 -0.8275986 0.110272564 -0.27925786 -1.0056857 -0.035794053 0.5464299 -0.34004077 -0.12905033 0.14497153
calendario -0.042458665 -0.5794831 -0.117461346 0.4522119 -0.39661777 0.08315167 0.5617517 0.9102625 0.9979839 -0.004553678 -0.16833591 -0.7688609 1.2642673 0.12634376 -0.19725206 0.51705736 -0.60951924 1.3156291 0.08536733 -0.53823906 0.41235137 -0.76002795 -0.95794845 -0.3276501 -0.011769645 0.13778022 0.42102233 -0.100180455 -0.2257746 0.17884676
podra -0.91458374 0.11223826 -0.90296626 -0.059107848 0.23501143 -1.0327008 -0.53817606 0.16461727 1.8359768 0.49737912 0.7294774 -0.51715744 -0.019110588 1.2838941 0.3777344 -0.2873765 0.22547168 0.045954615 -0.018981365 -0.12123064 -0.101244055 1.2846739 -0.6962702 0.5206563 -1.0990242 1.3288195 0.84939 -0.7377066 0.3884911 -0.49231878
pagos_electronicos -1.0839946 0.119787976 -1.5932696 1.5997334 -0.89051986 -1.6775793 0.44156757 -0.7756423 1.7622247 -1.8136709 -0.7600774 -0.5261009 -0.5772128 0.62747765 0.7071356 0.7923415 -1.4206591 0.18693502 0.95696694 -1.3967087 -0.21163385 0.2075557 0.96091986 -0.78588575 -1.7040439 0.23790592 1.7672222 -1.5497335 0.40876058 -2.0209217
transporte -0.5804651 0.41467056 -0.29034817 -0.024829876 -0.16101111 -0.057086237 0.33247796 0.82095027 1.8191658 0.91361743 0.004428914 -1.8621395 0.52902824 -0.14181148 0.032414116 1.8208095 -0.046052564 2.2867525 0.32459128 -0.22509682 0.44059256 -1.7043428 -1.3605468 -0.59415144 -0.3048522 0.78208077 0.46591938 -1.1910192 1.3587421 0.9704737
lugar 0.37798575 -0.16919713 -0.124319576 0.6074306 -0.3025744 -0.1406761 -0.33864123 -0.8710331 1.1602209 0.53001344 -0.19148901 -1.6418055 -0.16542321 0.34203535 0.86284465 0.79288405 0.9006069 0.5901869 0.14958775 -1.0320287 0.52311563 -0.66704214 -0.11020547 -0.10147866 0.24982521 -1.0386182 -0.29540572 -0.2586991 -0.5053315 0.017886356
aprobacion -0.33754018 0.3699219 -0.14925231 -0.82532924 -0.48959145 -0.07624536 0.45317587 0.0027372034 0.23950632 -0.19980349 -0.5339925 0.016689999 -0.13254537 -0.15782489 0.5707372 -0.1267325 -0.79040074 1.0522662 0.46358526 -0.45062366 -0.71020675 0.31545687 -0.4332496 0.24689692 -1.0273613 0.046942342 0.07819372 0.16294384 -0.16932523 -0.81887656
partir 0.19409165 -0.16988766 -0.1252418 0.24095634 -0.1274825 0.04759566 0.37804604 -0.20338699 1.1774411 0.23290873 0.36179426 -0.34339544 0.59905314 0.097264744 0.3820448 0.12624569 0.14392254 0.7107794 0.08465743 -0.40251225 0.47728896 -0.40548104 -0.6107502 -0.36880192 -0.41774616 0.7675982 0.52170646 0.06743489 -0.4769289 0.10279842
secundaria -0.051790703 -0.25447026 0.9584017 -1.216623 -0.46509767 0.51073855 0.9788432 -0.3186857 0.67859864 -0.13120648 -0.8111522 0.15563375 1.2808819 0.13695204 -0.019159421 1.2697333 -0.29312605 0.6595089 -0.16820139 -1.440173 0.061358664 -0.48122516 -2.044573 -0.15819512 -0.58000726 0.33440357 0.48724824 1.0095075 -0.029960336 -1.0357867
pagado 0.21929033 -0.35864756 0.15167706 0.34779415 -0.6793284 0.60693324 -0.240393 0.22239248 1.5780183 0.119976185 0.7193942 -0.46049497 1.0670166 -0.062903844 0.121628225 0.39152932 0.045922007 0.92958254 0.397933 -0.21773562 0.33659166 -0.6582816 -0.731974 -0.68518424 -0.41046992 0.10201084 0.64983976 0.0042625605 -0.85078794 0.08780913
recuerde -0.2916463 -0.09887942 -1.0908581 0.1984505 0.06687815 -0.8608837 -0.6651654 0.16042021 1.3793604 -0.13583213 -0.3608299 0.28335553 0.7780276 1.1988952 -0.16313404 -0.24616162 -0.27120075 0.38898435 -0.2596705 0.009725613 0.55124474 1.2859963 -0.46822086 0.80716735 -1.1686873 0.035305526 0.22078598 -0.64487654 0.527681 -0.51874197
diligenciado_firmado 0.7001769 -1.557752 -0.93875223 0.72008246 -1.7127777 -1.6368772 1.003024 -0.598184 1.057594 -0.8919254 -0.9367252 0.31633645 3.2308586 0.12291424 -0.5232129 1.1022892 -0.21160677 1.0407563 -0.12521955 -1.9646262 0.40302658 1.209001 -2.4085977 2.3352625 -0.40535054 -1.3901311 -0.5738318 0.08338347 -0.020685267 -1.0102813
forma -0.17747796 0.22770545 0.19735491 0.06879864 -0.23322614 -0.07036062 0.1835689 0.38716358 0.8575018 0.0671365 0.5993899 -0.72297025 -0.05046523 0.12426002 0.80306673 -0.21640214 0.39408767 0.570853 0.43979645 -0.87263876 0.73570085 -0.66338974 -0.9345978 -0.47366887 -0.5475231 0.6073342 0.7173516 0.69188595 -0.9267474 -0.6887491
ingreso -0.27889937 1.0246198 -0.27408808 -0.016298402 -0.89958864 -0.4694277 0.40210837 1.5785816 1.3978412 1.1851641 0.29513535 -0.39749712 0.22583984 0.33841574 -0.17993146 0.22681417 -1.3510243 0.99589527 0.13452967 -0.9152452 0.34853104 0.63851124 0.8484699 0.62675023 -0.8433159 -0.33867142 0.52856433 0.4186399 0.47299948 -0.20088865
linea -1.5396987 -0.024004051 -1.2125515 -0.41118467 -0.9180603 -1.0176971 -0.06782153 0.9303768 1.5259016 0.25552854 -0.11849697 -0.96669376 -1.2290651 0.50736225 0.70584416 -0.12681575 -0.54491067 0.56661373 -0.5439866 0.36032873 -0.7014681 0.22030431 0.78283834 -0.38762292 -1.1513761 0.91457516 0.74052954 -0.83672273 -1.0814232 -0.6189745
dicho -0.017255872 0.09992282 -0.09457187 -0.42788884 0.05945798 -0.06349975 0.42651066 -0.094912045 0.75984657 0.53168 0.10412602 -0.6251294 -0.4567909 0.14043708 0.6980589 -0.04431463 -0.045716707 0.2450748 0.22878979 -1.022009 0.39030063 -0.92303586 0.049617864 -0.14045314 -0.534714 0.020475106 0.397517 0.52491117 -0.7380795 -0.5780801
cuanto 0.20800838 0.15173231 -0.39431536 -0.24055019 -0.69459254 -0.5004135 0.22326246 0.20160136 0.6591966 -0.33624268 0.054778248 -0.3710865 0.8440018 -0.2455944 -0.258875 0.037562825 -0.43414393 0.67652184 0.45480797 -0.7452383 0.09184875 0.16849731 -0.87459767 0.58250356 -0.12640041 -0.080672055 0.07769484 0.04822371 0.30940035 -0.22553006
aparece -0.1630179 0.10815975 -0.24514262 0.24984728 -0.5035827 -0.085573174 0.4510433 0.6935584 0.70232683 0.45351487 0.15396532 0.011170828 0.13935156 -0.036809895 0.5567681 -0.22528099 -0.810049 0.5439696 0.43910322 -0.09754466 -0.42906263 -0.07935576 -0.18831034 -0.04155017 -0.8391385 -0.27294534 0.32769918 -0.22589469 0.13118985 -0.17129739
pais -0.67345077 -0.11147728 -0.08611455 -0.86203694 0.7603665 -0.7316712 0.2130795 -0.21393277 1.0850058 -0.11535059 0.29308316 -0.8001533 -0.19592561 0.8654703 0.4593104 -0.33887228 0.63128465 0.55285734 0.8943056 -2.1191425 1.2147288 -0.77909833 -0.8465197 -0.032447748 -0.6071274 1.2213618 1.6415687 1.1318319 -1.4115677 -1.9138888
derecho 0.086624175 -0.15398172 0.27733347 -0.36097524 0.12773764 0.58479106 0.45288637 -0.2751708 1.0880373 0.1091493 0.12239746 -1.1247413 1.0169975 -0.23970145 0.7118504 -0.10224312 0.066000566 0.3156203 0.297768 -0.017264742 0.7742242 -1.1271552 -1.2766424 -0.83319384 -0.4560899 0.17738931 0.01828205 0.37388083 0.041451976 -0.05719769
materias 0.6957154 -1.4846895 -0.50079745 -0.45938987 -0.9007295 1.1002029 0.06361221 -0.032373685 1.3860067 -0.33784378 0.7843311 -0.23998249 0.9216349 0.49156472 1.1331493 -0.6010446 0.065095864 1.0076324 -0.24715513 -0.18623139 -0.20401873 -0.40906364 -1.8110434 -0.20319143 -0.89285886 -0.627344 -0.19201817 0.98874027 -1.7027282 0.028535157
acceder -1.1372457 0.117920615 -0.690927 -0.4463289 0.0061540683 -0.5510386 0.33031726 -0.070958234 1.0259762 0.36364254 0.46585533 -0.26140684 0.06687302 0.31766573 0.19008753 0.043758515 0.12907754 0.1146683 0.11259044 -0.74552494 -0.2825929 1.2077771 -0.78597033 0.31629115 -1.0429587 0.9717293 0.68978125 -0.8109658 0.41645485 -1.114054
aprobada -0.020802857 0.38942018 -0.27478048 -0.20455687 -0.56338006 -0.096334934 0.26143673 -0.47522596 0.2427153 -0.5099155 -0.36170536 0.19239756 -0.0041154795 -0.05376397 0.50103426 -0.31053415 -0.85255224 0.93975973 0.4758949 -0.39165196 -0.5154835 -0.42913604 -0.11112389 0.3034864 -0.895574 -0.015751574 0.83001626 0.53904116 -0.9879164 -1.0480208
niveles -0.41038725 -1.1879715 -0.7137109 -0.52011466 -0.77620673 -0.42871362 0.018640552 -0.8616484 1.4341863 -1.1992422 0.369425 0.4563634 1.3040582 1.119108 0.013953712 0.26276222 0.028929867 -0.17619567 -0.87936544 -1.2108185 0.017972497 -1.1723186 -2.6609852 0.0067615625 -1.0094266 0.7149056 0.51177275 1.7998883 -1.41505 -3.213775
actualmente 0.3082619 -0.18557522 -0.20827134 -0.47930086 -0.7831262 0.5626374 0.087447815 0.6751453 0.96942854 0.7211578 0.37278798 -0.8794298 0.00019649859 -0.13359766 0.97282684 -0.27351612 0.045175593 0.97736293 0.25636 -0.30687907 0.23847589 -0.20381552 -0.623155 -0.13168362 -0.59580046 -0.44371557 -0.18037312 0.24727045 -0.8884301 0.35976827
pensum 0.1681971 -0.7402037 -0.79159975 -0.9967461 0.09124751 -0.44597468 -0.08258562 -0.59223616 0.9598575 -0.61272067 0.17240644 0.34668258 1.0280558 0.88759404 0.60375136 -0.44549844 0.099259846 0.35338193 -0.12181469 -1.0935656 0.4159575 -0.35643977 -1.9715874 0.4412986 -0.4499994 -0.06831562 0.020927332 0.9190895 -1.4074415 -1.9091034
salud -0.3260934 -0.3788732 -0.35894725 -0.5867892 -0.44978428 -0.2527975 0.054077648 0.6441563 0.7962716 0.7467506 0.720519 -0.8863905 -0.6384738 0.40711668 0.8659653 -0.12068614 -0.38848764 1.0465637 0.23154904 -0.8678894 -0.09816417 0.2695286 -0.5176742 -0.64361274 -0.4526333 0.7645624 -0.06570539 -0.10290018 -1.1385359 -0.16838041
sistemas 0.7031008 -0.13398187 0.4113363 -0.7226258 -0.70753354 0.2565572 0.8143642 -1.308102 1.7817129 0.28541481 -1.4544406 -0.27722397 0.07178999 -0.33799288 1.3499684 1.1816722 0.69700503 0.5546202 -0.48550949 0.01061772 -0.6692182 0.8192701 -0.46611398 1.6234126 -0.28956515 -0.31128865 -0.16544178 0.42127287 -0.7956287 0.0957447
legalizar 0.6845204 0.32485205 -0.29386693 0.26488826 -0.7112388 0.53684986 0.33672646 0.26409677 1.3352879 0.20746852 0.25604036 -0.24291526 1.035859 -0.13673514 0.29846722 -0.4941453 -0.42750823 0.6284885 -0.11810892 0.41888985 0.05117541 -0.58524585 -0.28357002 0.12860675 -0.95012736 -0.8411619 0.27163774 0.35670906 -0.19739494 0.23509352
misma 0.27034813 0.36176583 -0.41882923 0.013510154 0.05593691 0.0058894297 -0.031691127 0.59375954 1.4062767 0.5641153 0.23524936 -0.48521358 0.79562956 0.57335544 0.08015083 -0.30425525 -0.13978656 0.33292425 0.044696946 -0.44431043 0.711191 -0.2997645 -0.8824912 0.08599739 -0.40809354 0.22483702 0.294031 0.38615072 0.4885539 0.028091175
todo -0.12053379 -0.06438684 -0.1918493 -0.10397881 -0.5510828 0.28069302 0.2503054 0.31824303 1.0939826 0.49829903 0.60350233 -0.5891448 0.29740083 0.0807584 0.30181164 0.21924064 -0.21708164 0.68563163 0.44610912 -0.5194241 0.30513513 -0.5352356 -0.5802876 -0.1267268 -0.30763716 0.057417575 0.06236029 0.119770594 0.011146493 -0.1070247
fueron 0.23461276 -0.3475345 0.35999143 -0.7031582 0.38447118 0.300112 0.47916624 0.3362044 1.0981973 0.19132893 0.23373257 -0.67713124 1.2326838 -0.007805053 -0.2645349 0.26046243 -0.3885338 1.1826806 -0.1526158 -0.67456317 0.60480773 -2.1356065 -1.396105 -0.47506264 -0.23570183 0.44835332 0.3264215 0.4489572 -0.15898673 -0.5522414
fin 0.406174 -0.5640616 -0.62428176 0.21522026 -0.6434961 -0.4175429 0.036902454 -0.4513658 0.65351593 -0.38874975 -0.25616863 -0.30680335 0.34351683 0.011801237 0.822634 0.20271225 0.15932743 0.32822746 0.29639894 -1.1179878 -0.10124892 0.1691423 -0.16833094 0.30409402 -0.21150592 -0.70535064 -0.5140568 -0.4020752 -0.38056973 -0.36703992
invitamos -1.1242832 -0.27557978 -0.714125 -0.20875348 -0.5840335 -0.8197195 -0.0071675335 0.66234577 0.8792274 0.40696156 -0.6973249 -0.63016886 -0.5392163 0.17152703 0.90188974 0.40412837 -0.5443103 0.8966753 -0.20922196 -0.057842173 -0.8062752 1.0479294 0.015391327 0.43824837 -0.6760451 0.22240941 -0.36296162 -0.9130691 -0.31312677 -0.3530001
reconocido 0.5479687 0.09931178 0.23416434 -0.9665729 0.103742614 0.3325689 0.92162275 -0.17755866 1.1068135 0.8410463 -1.0130961 -0.008096524 0.8385236 -0.0667963 0.48038247 0.7253813 -0.22568765 1.0971636 -0.3192128 -0.4111076 0.21029344 -0.35057083 -0.35887817 0.55274016 -0.13027832 0.38527638 0.23252134 0.52320766 -0.5186392 0.2851184
empleado_central -0.6444191 0.45845157 -0.9594619 -0.30778643 -0.48261404 -1.2736875 0.50870764 0.4135577 0.8899558 -0.29146555 -0.342436 0.14818048 -0.16363081 -0.008406647 0.6172069 -0.44303375 -1.2905017 0.79150987 0.18611236 -0.5779351 -0.64918226 1.571453 -0.14943449 0.8396236 -1.460817 0.26708603 0.1537568 -0.79790676 0.28056476 -1.1524861
relacionada -0.7227728 0.008663488 -0.18965185 -0.2716369 -0.6578812 -0.90334016 0.8458817 -0.1140144 0.87026924 0.9543774 -1.1660471 -0.32293898 -1.0592337 0.33706746 1.4773284 0.6951629 0.097803 0.3442568 -0.26134577 -0.39332104 -0.8277264 0.568514 -0.03340875 1.1202345 -0.9609912 0.2087608 -0.10825643 0.0006636238 -0.21765079 0.28159276
derechos_grado 1.2381951 0.024955666 0.11522776 0.105565354 -1.3426671 -0.5915657 0.40039298 -0.27267072 1.9575796 -0.3672355 0.19371149 0.4831676 1.9477385 0.7368707 -0.58679676 0.44863275 0.62609446 1.1018277 0.5095172 -0.24905811 0.7425051 -0.16819836 -0.8914748 0.8200534 0.41955307 -1.4205756 0.5944078 0.059063245 -0.10993603 -0.7312486
inicio -0.21444912 -1.2605752 -1.0322756 -0.3749658 -0.45437947 -0.3548159 0.8641907 0.16688643 0.7467519 -0.8434252 0.37701866 0.42321295 0.14318445 0.95193017 0.17999656 0.7199607 -1.3270528 0.8976763 0.54946256 -1.4659717 -0.019557374 -0.018401543 -0.7482714 -1.5331625 0.09287671 0.81133735 0.7534873 -0.478198 -1.2531451 -1.1508545
situacion 0.4272801 -0.47301486 -0.3986236 0.092512764 -0.8517627 0.7133167 -0.1759144 0.6680182 1.5470318 0.30234548 0.7546558 -0.9780762 0.2921797 0.06678678 0.947635 0.42842996 0.014596824 0.834518 0.30548435 -0.546947 0.46502912 -0.7196658 -0.58541113 -1.0996526 -0.23391195 -0.27303448 0.2926337 0.21162254 -0.8068911 0.6301791
razon -0.31475016 -0.5667245 -0.37610275 -0.011596341 -0.14036678 0.04033899 0.08525189 0.15426016 0.74199057 0.13431144 -0.41704506 -0.20177844 0.43529335 0.4071704 0.59044236 0.54351765 -0.06205965 0.47507837 -0.20265663 -0.5799783 -0.3622328 0.55923915 -0.87208015 0.19038615 -0.21025603 -0.40162432 0.04067778 -0.123341076 -0.32387555 -0.17869002
salvo 0.6019963 -0.79511356 -0.39152855 -0.14021412 -0.8476049 -0.399689 0.5521439 -0.35079187 1.0545502 0.01249057 -0.5100864 0.22350764 1.218393 0.6199466 -0.04435224 0.23986977 -0.029730499 0.14543878 -0.44200617 -0.34377024 0.04137758 0.5355388 -0.80050975 0.54552764 -0.5990183 -0.9454891 -0.37798902 0.14979506 0.04073228 -0.35352987
tener -0.038906336 0.29859304 -0.08968474 -0.526884 -0.3037986 -0.62645453 0.381852 0.1883325 0.6701845 0.29900777 -0.32631597 -0.30999923 0.6862577 0.27239054 -0.19338745 0.0136097595 -0.3925785 0.29894152 0.20552322 -0.2822995 0.5657233 -0.014317903 -0.2912902 0.021600088 -0.7840955 -0.037305586 0.21327119 0.14273366 0.012428882 -0.31293598
alguna -0.08450638 0.64347523 -0.6784411 -0.04729768 -0.3071419 -0.67491937 -0.4911862 1.5902624 1.1749259 1.1617761 0.12839799 -0.78555596 -0.11172842 -0.21008107 1.071706 -0.78695387 -0.32882226 0.5108953 0.5479467 -0.58529097 0.5825514 0.21191746 0.19967213 0.31468186 -0.58234733 -0.8256474 0.63682914 -0.21760519 0.7474311 0.026912162
proceder -0.10841292 0.62607765 -0.5989898 0.39023882 -0.27010518 -0.21831326 -0.16142064 0.5561454 0.8795849 0.2503637 -0.1447658 -0.60806644 0.0952368 -0.22092406 0.8675737 -0.46115765 -0.5041631 0.6033207 0.55392 -0.47273466 0.16546983 0.025241073 0.14026166 0.12520064 -0.8031968 -0.3516166 -0.105630994 -0.5497911 0.2710542 0.06360014
cargar -0.104043245 0.29050803 -0.42709637 -0.26904997 -0.4371345 -0.73670065 0.54581326 0.07260816 0.67078847 -0.13485925 -0.4300706 0.006635342 0.04051494 -0.17223155 0.6665738 0.018430367 -0.5437741 0.6622399 0.15098207 -0.59180963 -0.34956896 1.1050394 -0.473829 0.46323246 -0.842068 0.32593665 -0.01559502 -0.36744878 0.27773467 -0.461589
contrasena_red -1.8591835 0.47556213 -2.300213 0.6101576 -0.8114581 -1.8461976 0.27872688 -0.17799294 1.2955155 -1.1900915 -0.3337757 -0.43213108 -0.21611626 0.5573975 1.2347978 0.16618843 -2.2233157 1.0652441 1.1484054 -1.7270399 -0.4366361 0.7006251 0.058694392 -0.602544 -2.063181 0.6883738 1.459455 -1.8117398 0.6825467 -2.2104576
ni -0.82975864 0.03309123 -0.7350001 -0.9271196 -1.3022196 0.40883216 -0.08606372 0.6180133 0.8274716 0.4565754 0.16922453 -0.7979458 0.8837844 0.7472536 -0.10770404 0.22273125 -0.24540104 -0.44734997 0.4375197 -1.1727659 0.03535972 -1.1878424 -1.1013446 -0.6791351 -0.054745838 -0.7784294 0.32718354 0.18492891 1.4383975 -0.28308454
indico 0.5048565 0.03580695 0.43634865 0.660071 -0.93644077 0.20557784 -0.016073523 0.14595631 1.2397393 0.10453354 0.49883428 -0.5343545 0.7453618 -0.2727867 0.6944695 -0.5277776 -0.10392371 0.34162468 0.6845487 -0.07759199 0.09482051 -0.058541935 -0.34340808 -0.07489993 -0.94574267 -0.88400483 0.05421414 0.26236507 -0.18128423 -0.17827043
durante 0.701056 0.019306462 0.2489475 -0.37743455 -0.31515893 0.35015172 0.6886715 -0.19207074 1.2725149 0.4946214 0.0074195005 -1.0892138 0.2880081 0.12522836 0.61817217 -0.012485296 0.4330144 1.2380528 0.17645788 0.24259448 0.3464534 -1.3047969 -0.70480824 -0.15797709 -0.20255612 0.55891067 -0.25134787 0.45880106 -0.6038426 0.20784925
tipo -0.56702334 0.53922325 -0.56428635 1.2498118 -0.58605593 -0.55974764 -0.4883614 -0.9106905 0.3782148 -0.11506844 -0.39802605 -0.88523406 -0.21009125 0.07959603 1.0771849 -0.09151871 0.12425127 0.24654834 1.3006248 -0.822619 0.19730987 -0.22289254 0.6375931 0.067427896 -1.0742359 -0.58537614 1.244692 -0.68598354 0.3246443 -0.80794805
desembolso -0.31678623 0.30347973 -0.26127005 -0.71731037 -0.30420977 -0.3462617 0.33498156 -0.09632393 1.1159565 0.5927421 -0.03837767 -0.5244958 0.31469977 0.25088727 -0.1029508 -0.07720763 -0.1795373 0.021264194 0.26471856 -0.60839164 -0.013447274 -0.17065564 0.031741593 -0.07868632 -0.42373452 0.4355284 0.41982737 -0.043651924 0.1946267 -0.05379781
adjuntar 0.5166518 -1.0297114 -0.41978362 -0.4656818 -0.36769548 -0.5313109 0.7346501 -0.55398744 0.4053348 -0.33993298 -0.33940932 0.5325068 1.8944297 0.4063434 0.26684365 0.11650983 -0.0029431866 0.7639421 0.099913 -1.1527189 0.23828612 0.5893756 -1.9085056 1.0550548 -0.28221455 -0.6392396 -0.34580058 0.055740014 -0.32414925 -0.51682043
nos_permitimos -0.53779453 0.17090982 -0.43153942 -1.5833448 -1.0075043 -0.36693227 1.8264097 -2.1930647 1.4020292 -0.013703935 -1.5862138 -1.0307472 0.07406318 -0.42026538 1.4737127 0.89662737 0.35657564 0.54858845 0.23923136 -0.5324128 -1.3401245 -0.27627403 -0.20168261 0.26668912 -0.3933799 0.74423355 -0.56287235 -0.6335935 1.3423188 0.34523466
reembolso 0.3576477 0.34852615 0.35976946 0.23018967 -0.6411869 0.52997804 0.52364916 0.694921 1.0765827 -0.15114066 0.025852432 -0.54011095 1.5264795 -0.37079877 -0.023350896 -0.033408236 -0.2584435 1.1328673 0.81459695 0.087696984 0.49802548 -1.3160186 -0.8350446 -0.72257173 -0.6466103 -0.5779384 0.31847602 -0.053147588 0.51087344 0.061361365
formatos -0.4287277 0.38887915 -1.2975916 0.3746038 -0.77508193 -0.6688245 0.40667695 0.47125813 -0.032952234 -0.50942624 -0.4939383 0.7061026 0.45733377 0.17468818 0.9015931 -0.001262947 -0.18915017 0.07295168 0.5340284 -1.4498913 0.9329488 0.53338265 -1.3335865 0.9001806 -1.0842476 -1.1169026 -0.6932411 0.24497491 0.37566334 -0.9825528
tres 0.202295 -1.0254742 -0.026397817 -0.048112664 0.005847591 0.85013276 0.014052079 -0.09150533 1.4879179 0.2558806 0.33878747 -0.5212086 0.8831242 0.41050586 1.0026009 0.18228936 0.1450745 0.6617926 -0.26160067 -0.47906905 0.5766945 -0.79700685 -1.8405774 -0.73834085 -0.36318386 0.613121 0.26399234 0.85741776 -0.84804565 0.10855286
pensionado -0.008145368 0.23475422 -0.030905789 -0.356448 -0.73144674 -0.2677929 0.26905406 0.4538696 1.0052767 0.20421495 0.2238069 -0.206095 -0.13002805 -0.22492543 0.5623772 -0.6814596 -0.5305777 1.224376 0.43053547 -0.11576833 -0.16929394 0.6142722 -0.18203764 0.55258214 -0.76841146 -0.32937762 0.085595354 0.3870841 -1.0726482 -0.43619692
han 0.26537085 0.03983711 -0.28456786 0.29909003 -0.5876403 0.22515123 0.48088807 0.65007156 1.2183126 0.8793587 0.23406325 -0.3995719 0.25392646 0.10293467 0.12827997 -0.18075237 -0.36581528 0.3483098 -0.24014956 -0.22779956 0.55932635 -1.0524335 -0.24159616 0.32100177 -0.5558679 0.13457534 0.29539305 0.9594051 -0.055157367 -0.27596787
contrato 0.53252286 -0.23908606 -0.30811045 1.0329767 -0.9029447 0.03795687 0.62255764 0.43438172 1.7755697 0.46647248 0.7070917 -0.7030415 0.37588567 -0.38155514 1.2136009 -0.021653974 0.06955044 1.2494333 0.6575928 -1.0878344 0.9695282 -0.69976413 -0.4206235 -0.8753937 0.3382661 0.944211 1.1731759 0.14576763 -1.0620352 1.3047538
totalidad -0.23693626 -0.25018054 -1.0205984 0.7671555 0.31451884 0.04968176 -0.5894266 0.005680876 1.988954 -0.50560427 -0.17847274 -0.83297664 1.698464 1.0548426 -0.4111235 0.474194 -0.0042725904 0.2909541 -0.21640356 -0.18865448 0.8052495 -0.8383628 -1.3069756 -0.25482824 -0.72028214 0.13612768 0.12835361 -0.76203305 0.8331731 -0.0037440578
pse -1.7832674 0.38454857 -2.4103565 0.56303394 -0.25481465 -1.598787 -0.5242153 -0.51663834 1.4717393 -0.31745946 -0.018234031 -1.0048494 -0.030917143 1.2886306 0.84174013 0.14173949 -1.666127 0.27215913 0.4825893 -1.1815633 0.19703734 0.14842093 0.113398865 -0.6297181 -1.6820519 1.1371037 1.705979 -1.9076914 1.1196707 -1.370226
igual_manera 0.5138939 -0.37754455 -0.32119128 0.36578536 -0.24472949 -0.24155879 0.45964006 -0.77512795 0.58854556 -0.35242614 -0.17881851 -0.09648145 1.2279421 0.2935624 -0.15780936 0.6779317 0.08764105 0.84954196 0.2467931 -0.78655404 -0.011015952 0.36555186 -1.544885 0.8502042 -0.18692301 0.29859927 -0.15014155 -0.38864183 0.11694478 -0.29386127
devolver -0.46623796 0.478102 -0.4178351 0.7407631 -0.3040837 -0.03567091 -0.14546525 0.56166285 1.7580373 0.63097703 0.6259427 -1.8536961 0.59203404 -0.2507203 0.09826818 1.1840888 -0.44881696 1.6980172 0.5032632 -0.26773325 0.74154407 -1.598214 -0.93015385 -0.7013515 -0.37788033 0.5989738 0.65501165 -0.8213557 0.86026925 1.13479
algun 0.33709174 0.90585655 -0.17478988 0.41893566 -0.97969586 -0.04993261 0.30234283 0.62365746 1.1841978 0.45460165 0.31735542 -0.8455008 0.26915172 -0.5983901 0.40855065 -0.42751142 -0.44280806 0.8973896 0.5441405 -0.12605724 0.1146641 -0.33688095 0.4154393 0.19544451 -0.81018835 -0.5321145 0.34477547 -0.35101244 0.24211939 0.2639788
estar -0.19869207 0.07962075 -0.34785578 -0.22985218 0.030698221 -0.26815745 -0.059620857 0.70297015 0.8270293 0.2992179 0.14537938 -0.56981355 0.3983458 0.0847336 0.10545392 -0.35910308 -0.18307158 0.4196806 0.28283408 -0.7356781 0.5663572 -0.0033439756 -0.47848997 -0.171146 -0.5168962 0.29743952 0.4772042 0.15129508 -0.18083504 -0.42828143
comunicacion 0.35946935 -0.07381929 -0.3365278 -0.34445533 -0.54905915 -0.14000867 0.714803 -0.30792958 0.6394472 0.10965577 -0.5656185 -0.3907551 0.2165871 -0.08737454 0.77266127 -0.17793614 -0.73084533 0.7506365 -0.042519014 -0.15362316 -0.19686997 0.24109319 -0.18997845 0.1098231 -0.6310803 -0.02807653 -0.6412879 -0.16267201 0.17983276 -0.103649855
certificacion_emitida 0.764963 -0.47876185 -0.79584706 -0.20110798 -1.3185 -0.7684793 0.26229772 -0.26823312 2.1901019 -1.0828364 -0.67103267 0.1902154 3.2688177 1.1195993 -1.1406673 1.208884 0.020250993 0.46877024 0.31522924 -0.8910659 0.97001815 -0.6126061 -0.96253335 0.37105384 0.14016822 -2.2492568 1.221054 -0.26040664 0.44979748 -1.2938915
mesada 0.5519886 0.4387311 -0.039844103 -0.19086082 -0.40544194 0.20243087 0.527941 0.13365011 1.3141036 0.22886476 -0.93752354 -0.14058453 0.5144295 0.081624486 0.19167088 0.022106782 -1.2318728 1.3735006 -0.2842603 0.48670214 -0.43715855 -1.2120368 0.4146604 0.062101565 -0.97751707 -0.21606605 0.3493448 0.2943506 -0.3855295 0.38545343
id 0.50080717 0.151992 -0.018703263 -0.22626992 -0.8420301 -0.15597326 0.53190744 -0.116020314 0.9163588 0.05167809 -0.6488293 -0.44006324 -0.30358154 -0.14215331 1.051745 -0.1638606 -0.20178796 0.2792862 -0.06442178 -0.25572553 -0.3372344 -0.04218318 -0.23482148 0.45447946 -0.772734 -0.5466211 -0.21398348 0.38514185 -0.08685662 -0.39958358
pronto -0.39837387 0.6749647 -0.7128741 0.87582046 -0.4847423 -0.32816875 0.15057054 -0.5581516 1.474875 0.07554344 -0.6229798 -1.7707349 1.3220948 0.094966374 0.29418862 0.9084818 -0.52924895 0.030272394 0.47671002 -0.027835837 0.7644891 -1.1373675 0.009159462 -1.0417584 -0.71651214 -0.11257793 0.41601384 -1.0910585 1.7565097 0.56761396
solic 0.54446125 0.52071047 0.4800765 -0.65102226 -0.39311355 0.32088166 0.7653536 -0.2704683 0.9807452 0.5111071 -0.7083607 -0.2166802 0.16051033 -0.3008212 0.7529581 0.15762009 -0.32819855 0.99070925 -0.048139006 -0.09834582 -0.2904823 -0.35796013 -0.12252063 0.36654586 -0.78042364 0.030895649 0.19774929 0.620047 -0.18825449 0.16634421
recibido 0.35671863 0.51077896 0.051783662 1.1118938 -0.7881864 0.5100432 0.22461355 0.90250224 1.77352 0.7489579 0.008470479 -1.4064256 0.20588239 -0.21181189 0.5576312 0.11692596 -0.3941763 1.1195251 0.31235638 0.19753996 0.40016535 -1.2372621 0.2925378 -0.41900223 -0.64873374 -0.24946178 0.52594614 0.016195076 0.24309516 0.6201639
aprobar 0.3142767 0.08845673 -0.083988436 -0.64631814 -0.8015995 -0.8057314 0.31667274 0.33196327 1.0705153 -0.42718926 -0.584301 0.9103824 0.78537244 -0.19087985 -0.010165701 -0.44107285 -0.51982236 0.48932737 -0.11576153 -0.37589353 -0.26570788 0.3378769 -1.0749888 0.68103397 -0.97247 -0.28680533 0.46254137 1.1300261 -0.036826603 -1.5839653
trabajo -0.55388296 -0.34627086 0.62939334 -0.114891805 -0.10489856 0.025594937 1.1730365 -0.5027404 1.618485 1.357959 0.46377018 -0.9573214 -1.1755997 0.4188124 1.3359327 1.0226225 0.9457587 0.60580075 0.008690137 -0.30245823 0.2821013 0.2292594 -1.7629455 -0.1801576 -1.0003283 1.6930783 0.89051 1.1731329 -1.0762547 -0.884079
casos -0.26158574 -0.37765694 -0.3243156 -0.96417385 0.6753537 0.30952096 0.60828763 0.044289485 0.35152695 0.1048275 -0.53895223 -0.04661601 0.42848834 0.928675 0.40836537 0.29908648 0.49506497 0.63508993 0.61402667 -0.92263716 0.6907659 -0.62065554 -1.1051568 -0.05929019 -0.6209167 0.4523214 0.34717575 -0.37927422 0.41145706 -0.8306913
alimentacion -1.1354902 0.59405714 -0.36694646 0.13418561 -0.7167104 0.03749634 0.40430313 1.324921 2.2406406 1.3928833 0.7931263 -2.5946536 0.1604607 -0.499621 0.42850953 1.6725879 -0.07513734 2.5347683 0.8350813 -0.69883263 0.78336835 -1.8080518 -1.67261 -1.1689037 -0.04620997 1.2309233 0.5786957 -0.82718545 0.94807905 1.238435
pagar 0.3119358 -0.0648652 0.08438881 0.31512457 -0.88935065 0.41152048 0.14138606 0.50308734 1.6874537 0.13406105 0.8684082 -0.60320586 0.3517409 -0.25694296 0.23195668 -0.04609137 -0.31691712 0.7753942 0.1810104 -0.20846178 0.056698438 -0.873112 -0.5317893 -0.62494373 -0.5801618 -0.025107827 0.6984138 0.32535273 -0.504817 0.2953463
pasado 0.47709945 -0.07872382 0.24627143 0.21232656 -0.45984027 0.296247 0.85182697 -0.1843631 1.0558258 0.6296618 -0.34978816 -0.6903898 0.10900432 -0.09685202 1.1078451 0.27896246 0.037432965 0.3758535 0.03761777 -0.023937441 -0.029112207 -0.5045218 -0.54129523 -0.27422053 -0.57417107 -0.02236875 -0.17029096 0.25000858 0.1726777 0.40644315
original_recibo 0.8424674 -0.9336258 -0.7019219 0.22299987 -1.5297352 -0.8527202 0.5060454 -0.55345565 2.4277968 -1.3298858 -0.6408376 0.28287587 3.7876544 1.3750702 -1.6227674 1.5362966 -0.02368281 0.6245601 0.2623915 -1.2033478 0.8565026 -0.746517 -1.3009398 0.34728134 0.22758174 -1.9883891 1.3189325 -0.3766127 0.45671114 -1.4829593
realizara 0.35146475 -0.4551598 -0.3205436 0.11425947 -1.1601607 -0.24126707 -0.30609325 -0.33930057 1.4241838 -1.0080173 0.13163982 0.21267223 1.1541677 0.89966357 -0.8867184 0.10387714 -0.1388227 -0.31902272 0.1593783 -0.61868536 -0.22708184 -0.76928055 -0.93814015 0.11401559 -0.7755622 -0.47195792 0.7211247 0.4976655 -0.38149843 -1.9465028
aprobados 0.49630958 -1.6140958 -0.29687527 -0.5815047 0.23141243 -0.00774795 0.36160254 -1.1579137 1.0335828 -0.44238555 -0.046895042 0.45482805 2.22296 1.0793054 0.25045338 0.087199174 0.01813435 0.52418417 -0.19529001 -1.4250128 0.6314613 -1.4952205 -2.2220933 0.6303545 -0.09215245 -0.2912167 -0.025821308 0.6515338 -0.8041413 -0.8590452
estoy 0.48039165 0.059641868 0.13515134 0.041763898 -1.0881318 0.7879541 0.3725661 1.0308453 1.2794973 0.5474338 0.902295 -0.739075 -0.072920345 -0.40725717 0.84794277 -0.30620885 -0.48833728 1.3759558 0.40651277 -0.07778943 0.13920131 -0.57829344 -0.7410549 -0.3126732 -0.82734436 -0.5186484 -0.016318116 0.84845054 -0.9165703 0.17772461
completo 0.39623225 -0.18510082 -0.47654626 -0.019493727 -0.8373583 0.43461192 -0.58911693 0.1599172 1.0614276 0.11216311 0.24136586 -0.15204848 1.1574785 -0.2598265 1.1437671 -0.37808526 -0.15963703 0.6166655 0.8488998 -1.0407736 0.41587418 -0.06736155 -0.16763413 0.037035707 -0.2377926 -1.1140097 0.20296143 0.10202026 -0.57877696 0.54731447
reconocer 0.4164171 -1.388489 -0.1846014 0.058712993 0.9527748 0.27624008 0.6442211 -0.92630154 1.6164279 0.10388579 -0.18670723 -0.43036005 1.3278376 0.6117224 0.30356887 0.7609247 0.6918426 0.60431796 -0.64892745 -0.57728165 0.90523756 -1.0784668 -1.282298 -0.17889133 -0.27491584 0.1850935 0.724138 0.06945838 -0.56204116 -0.06811639
adicionales -0.085836306 -0.7116038 -0.7490424 0.22030292 0.0031895344 0.55782545 -0.13499732 -0.16863911 1.7142171 -0.041598227 0.2510435 -1.197531 2.0277925 1.1481413 -0.5795695 0.52358365 0.45082635 0.4025827 -0.1334291 -0.73911244 0.88957953 -1.7117255 -1.7318615 -0.7264911 0.14995255 0.31155676 0.4247289 0.33977696 0.3223843 -0.40244928
fecha_vencimiento 0.7996732 0.6772522 0.00945326 -0.76335096 -0.9820918 0.010313813 1.0056442 -0.34740537 1.1327817 -0.05189399 -0.84917504 -0.54119605 -0.79625326 -0.30017582 1.2739373 -0.48111454 -0.18100639 0.3372124 -0.26065928 -0.15301959 -0.32094702 0.20277071 -0.5991941 1.1543549 -1.1979071 -0.23490304 -0.7697494 0.85507053 0.060597796 -0.4682249
desea -0.23794375 -0.13454014 -0.28128248 0.059562344 -0.5477378 -0.1462333 -0.27800095 -0.34401372 0.419842 -0.037203457 -0.0255438 -0.9699189 -0.2117941 -0.22161853 1.3264278 -0.18701747 0.49030074 0.40298104 0.5905745 -0.79647017 -0.6179471 0.80542463 -0.3269955 0.19497989 -0.8000901 -0.43835554 -0.3335419 -0.30074957 -0.44587144 -0.6707922
conceptos -0.53627026 -0.08470401 -0.21653579 0.14769654 0.48237315 -0.26082528 0.89987534 -1.3496536 1.2531276 0.48446095 -0.41361168 -1.0583072 1.1881825 0.28474674 0.52286816 1.3719199 0.008058533 0.44543123 -0.0903998 -0.59618163 0.6304464 -1.3884459 -0.95953876 -0.8616114 -0.64477974 0.6257097 0.43009463 -1.2625796 1.5458815 0.46901706
pregunta -0.103598185 -0.123783395 -0.35345903 0.073886886 -0.314784 0.23713413 -0.010052777 0.6185707 1.0143887 0.3138082 0.30038255 -0.78568006 0.45670974 0.22867408 0.4212579 -0.1021823 -0.14914092 0.45141828 0.32660398 -0.047608554 0.29463673 -0.52638537 -0.46939704 -0.6266967 -0.54401267 -0.12874246 0.1381745 -0.28241843 0.09899165 0.03088418
servicios_medicos -0.08989453 0.34222883 -0.24061072 -0.29508695 -0.08020636 -0.21828724 0.34272063 -0.016846681 0.4756719 0.6781729 0.10304676 -0.7728519 -0.5838431 -0.010850442 1.1869158 -0.057535063 0.19214498 0.97424227 0.5888781 -0.698884 -0.050441936 0.18063518 -0.39437687 -0.041398954 -0.71484506 0.47500807 -0.08454999 0.030616065 -0.66145223 0.18275431
diligenciado 0.38485047 -0.8915836 -0.87913424 0.20472242 -0.9021524 -0.9184736 0.8006374 0.095190845 1.2708479 -0.6266516 -0.83957285 0.49065512 2.2294705 0.55247915 -0.71777993 0.9118147 -0.35460255 0.80334145 -0.27861828 -1.0282723 0.36739734 0.8691599 -1.228311 1.1967924 0.11205213 -0.89227486 -0.02883042 -0.30148476 0.37643874 -0.4902799
revision 0.6046709 0.44808474 -0.105690226 -0.1629734 -0.515123 0.23392494 0.6084168 -0.22823529 0.9478476 0.6777 -0.45830026 -0.54516196 -0.14864151 -0.48324978 1.206314 0.13968262 -0.11485415 1.0841668 -0.05134143 -0.3360073 -0.21048176 -0.3070751 -0.26711243 0.79240036 -0.4777187 -0.24480417 -0.68224686 0.1790115 -0.22016504 0.47208157
tarifas 0.68691504 -0.49046728 -0.08682555 0.383928 0.2202725 -0.5550893 0.6892055 -1.3520257 0.40765032 0.49454883 -0.54310846 -0.53836936 1.3624463 0.45219168 0.50679886 0.54899997 0.2990347 0.70888364 0.22537893 -1.234888 0.38343486 -1.2021763 -0.82866424 0.31865513 0.2559516 -0.24261448 -0.22421493 -0.955906 0.4606357 -0.24587803
ademas 0.089221574 -0.04501056 -0.107576564 0.44286698 -0.6111752 -0.034921635 -0.3027678 0.2919603 0.74838424 0.27053776 0.4374173 -0.743981 0.09736878 0.043226715 0.9742948 -0.36737975 0.31242812 0.6369282 0.7007634 -0.6769109 0.59413767 -0.11628585 -0.41389465 -0.37547526 -0.31426305 -0.4897698 -0.012628834 0.21190308 -0.68569195 -0.05867827
trabajadores -1.1204416 -0.22693792 0.37230757 -1.2293551 0.07593283 0.104811035 1.0444427 -0.14829507 1.1282315 1.0082221 0.37978756 -0.8840638 -1.0032425 0.5402349 0.66123277 0.47917765 0.6672598 1.0029972 0.46833962 -1.2326349 0.13418108 -0.51589906 -1.4448355 0.2694949 -0.29295355 1.292122 0.09358181 0.43797815 -0.48042548 -0.84725285
entidad -0.032691065 -0.13640612 -1.3205582 0.06128987 -0.33079764 -1.036231 -0.37763947 0.024940506 0.77619445 -0.6102198 0.05111408 0.2772864 0.22456017 0.60162914 0.1315705 -0.7895945 -0.09725937 0.23806441 0.4846359 -1.0660255 0.47410414 0.39999223 -0.6593979 0.7135424 -0.44996613 0.1221779 1.2275678 0.6052489 -0.612251 -1.552978
anticipos -0.29067367 -0.073576696 -0.47802076 -0.8182836 0.49802822 -0.8458018 0.28721374 0.41603053 0.7456929 0.31290495 -0.4078138 0.20624492 0.72142315 0.23726907 -0.4287811 -0.44314912 -0.61283565 0.61769897 -0.20042443 -1.0387049 0.6844114 -0.49736878 -0.9183907 0.4921474 -0.42841217 0.3334199 0.15437458 0.66299206 -0.5788224 -0.53497785
comite_educacion 0.11827855 -0.18774503 0.18473122 -0.56799364 -0.43774045 0.5242492 0.7777231 0.066133976 0.899546 0.9775672 -0.10225287 -0.81643957 -0.8878835 -0.07363116 1.814322 -0.050899766 0.6716666 0.52469105 0.12341474 -0.72949827 -0.082458146 -0.45762816 -0.69984114 0.66728425 -0.44840407 0.30178937 0.10113333 0.57631224 -0.4789317 -0.13965051
siempre -0.57009345 -0.82734436 -0.19215406 -0.40728268 0.24527672 -0.10141896 0.06796206 0.0813635 1.2557696 0.0010184499 0.49048477 -0.49300945 0.53757304 0.5369381 0.15032782 0.04960935 0.7791693 -0.30678746 -0.3000148 -0.9642258 1.0903052 -1.1802593 -1.464297 -0.29973382 -0.82752717 0.9730498 1.3050907 0.7445542 -0.63926923 -1.3439412
referencia 0.5876372 0.05984878 0.3314775 0.5840128 0.29956284 -0.38676697 0.13515022 -0.9584821 1.0650688 -0.22148399 -0.19029723 -0.48851556 0.28390694 0.11143627 0.43462265 0.53289634 0.4018825 0.20420653 0.45325527 -1.4901267 0.7772517 -1.2455002 0.19190365 0.18426651 -0.311186 -0.0134909665 1.2878937 0.2400369 -0.20779184 -0.68448603
igual 0.6101798 -0.12651867 0.49996445 0.25733635 -0.3741621 -0.19446576 0.5649154 -0.5465263 0.83659595 -0.17248073 0.4451611 -0.23637713 1.1741817 0.20299621 0.38554835 0.27298632 0.5647875 0.9118568 0.6566488 -1.1754645 0.83583826 -0.37191898 -1.316595 -0.2152842 0.15739034 -0.0501702 0.5132757 0.3679986 -0.6311743 -0.3184553
descontado 0.57711524 0.5344927 -0.43557033 1.481567 -0.6618918 0.38997665 -0.05389752 0.37104246 2.5987637 0.32056022 0.18426208 -1.4784276 1.5524558 0.5176127 -0.46486887 0.771563 -0.24631345 0.79300755 0.7802637 -0.53972423 0.80532444 -2.017582 -0.4414307 -0.9887933 -0.38053024 0.2126792 0.93231183 -0.7193009 1.319309 0.75419384
quisiera -0.044727746 0.669223 0.05714778 0.24103875 -0.7989699 0.21837498 0.43105602 0.7189951 1.8493049 0.5808434 0.32649836 -1.4770815 0.29272878 -0.27367723 0.25875938 0.07886335 -0.3575517 0.81767714 0.5417466 0.19996311 0.4585821 -1.0979787 0.27022934 -0.5069577 -0.77936107 0.20459925 0.5228841 -0.5457294 0.49555477 0.5119959
procede 0.2784397 0.268907 -0.09375852 -0.25814137 -0.619161 -0.19654325 0.5348861 -0.1489322 0.8737301 0.18475316 -0.85106117 -0.58732915 -0.18877591 -0.4313749 1.0369291 0.42462924 -0.04653697 0.9227976 0.055377044 -0.14491835 -0.44469747 0.29519218 -0.13148616 0.65438545 -0.41765377 0.026978984 -0.3921917 -0.082290575 -0.034345016 0.020813776
primera_quincena 0.5554384 0.92709166 0.25360635 -0.5325525 -1.0911748 0.41466528 1.4959148 -0.28275767 1.3549242 1.0255585 -0.3897156 -0.3857426 0.40905547 -0.48578635 0.16911906 0.2980824 -1.1864831 1.1078848 -0.067256026 -0.14076972 -0.3330251 -0.7673475 0.44129366 0.07418767 -0.58929986 0.12235138 0.07005045 0.7895328 0.16262522 0.52901775
octavo 0.9301567 -0.51543313 0.4325572 -0.9333249 -0.60315424 0.5175857 1.3028858 -0.91868716 1.1167084 0.16042154 -1.0146883 0.440257 1.3714801 -0.12549031 0.8113238 0.5384511 -0.13595651 0.9563904 -0.32875913 -0.17401126 -0.28636983 -0.06453241 -1.2176363 0.5283744 -0.3782485 -0.34565195 -0.4471164 0.62162876 -0.22349496 0.13448828
esperar 0.0059786425 0.10661205 -0.11111439 -0.5885044 -0.3143918 0.07918535 0.022153594 0.45715272 0.88840324 0.14316577 -0.10870129 -0.47944286 -0.06197153 -0.042897876 0.9556893 -0.47843456 -0.18151362 0.53809124 0.16720508 -0.17381468 -0.46051338 -0.14187312 -0.46249977 0.25669983 -0.9128462 -0.0812483 -0.16999833 0.19595858 -0.57351136 -0.45267662
reconocera -0.14291124 -0.8660568 -0.4440667 -0.13118142 0.3204103 -0.4499978 -0.14854355 -0.7362664 1.4957527 -0.8674409 0.38436237 -0.030252114 0.99691916 1.0092093 0.33620843 0.03781798 0.51351345 0.5164888 -0.24482925 -1.4633435 0.8060588 -0.7451757 -1.8530203 -0.26610932 -0.24362648 0.8652024 1.0139025 0.996702 -1.9360718 -1.9119345
aclarar 0.48637426 0.15092397 0.12339618 0.20849387 -0.34223488 0.061090525 0.58807325 -0.49088222 0.7870319 0.7819102 -0.44156563 -0.8754169 -0.22176287 0.006480962 0.82265276 0.47337016 0.49216476 0.33933613 0.04816986 -0.9878268 -0.14335166 -0.26364464 -0.071116336 0.2119141 -0.21471357 -0.51977414 -0.21353121 -0.19288573 0.08301231 0.14746483
preescolar -0.16348436 -0.6458296 0.41512254 -0.4819365 0.008976569 0.14863336 0.9757558 0.08699485 0.8614669 0.33317694 -0.8611066 -0.48514676 1.276177 0.25058907 -0.040067896 1.6386828 0.1089202 1.0693773 -0.57888156 -1.4912378 0.64677626 -0.888692 -1.8404585 -0.46974614 0.25754026 1.5622886 0.35156485 0.605463 -0.23374759 -0.73076147
eso 0.05150965 0.16464075 0.10227139 -0.2600881 -0.787869 0.02715558 0.1281835 0.8456525 0.8649892 0.23331103 0.13478793 -0.42232525 -0.1881318 -0.504581 1.2871536 -0.6907362 -0.20970307 0.7615118 0.3759911 -0.09182222 -0.10443758 -0.24287936 -0.5738881 0.22840694 -0.9413141 -0.52424514 -0.41098857 0.5024848 -0.6049928 -0.20644507
procedimiento -0.7368672 0.4170257 -0.59818995 -0.06868018 -0.20808518 -0.22211812 0.26739094 0.07479617 0.75989735 0.38627225 -0.08013516 -0.8528091 -0.072895795 -0.03582135 0.3358448 0.6098576 -0.43011284 0.42267275 0.2924776 -0.44314423 0.1610352 0.055588055 -0.07461626 -0.118837446 -0.70954114 0.58930814 0.80988425 -0.2602068 0.73678327 -0.06767752
monto 0.25633997 0.34689078 0.13669458 1.4989097 -0.15114625 0.19064838 0.25504372 0.5381273 1.7647853 0.6452399 0.299376 -1.5502305 1.058804 0.068244234 0.7097297 -0.1626876 -0.40189487 1.2548139 0.48300824 -0.119601466 0.9648636 -1.5106448 -0.040454157 -0.5858869 -0.5942633 -0.024613902 0.6921957 -0.67186093 0.38410944 1.0419787
requerida -0.1385996 0.048620943 -0.12357638 -0.34824634 -0.9584132 -0.89703846 0.061774086 0.047371496 0.6236235 0.2909151 -0.5773187 0.036217995 0.62308615 0.26228684 1.7464343 -0.34304965 0.09287346 -0.4091619 0.37121904 -1.0373383 -0.08597748 0.5241177 -0.46399686 1.2815652 -0.5270935 -0.6496462 -0.3325775 0.1599318 0.44979668 -0.30403158
nueva -0.0044945134 -0.6083062 -0.33894235 -0.001997183 -0.60294086 -0.09398506 0.011446269 0.6154633 1.0821571 0.33552217 -0.10273209 -0.45186126 0.68298197 0.17988235 0.24786268 0.11633526 -0.22897607 0.5733017 -0.28031102 -0.3776646 0.17836837 0.18258618 -0.71649855 0.18715855 -0.3443409 0.012870592 -0.30386806 0.08831883 -0.22578412 0.056710854
escalado 0.11149846 0.13566603 -0.104144156 -0.231327 -0.7591641 -0.11641073 0.3910394 0.009099846 0.6868064 -0.03266151 -0.57128865 -0.5428705 -0.0727584 -0.28919762 0.9019493 0.063603766 -0.11741823 0.5033268 0.107027374 -0.08368923 -0.3576167 0.08721358 -0.18607755 0.46973038 -0.78023857 -0.07921076 -0.25068387 0.0034290352 0.08861763 -0.25126013
valido 0.18242495 0.118986405 0.32491627 -0.47938812 -0.7829739 0.0646938 0.43503234 0.18142724 1.1689025 0.36376694 -0.60965717 -0.21364304 0.19524628 -0.63676304 1.3935684 -0.29595366 -0.29334062 0.9412186 -0.1762515 0.47508392 -0.67739296 -0.022657758 -0.007264545 0.63946444 -1.033268 -0.49800465 -0.38171583 0.2681398 -0.8925601 0.08538111
