22 30
bloqueo -0.0046214266 -0.016921733 -0.0059778932 -0.0026968063 -0.00939522 -0.011351564 0.008787145 -0.0032207768 -0.0028840464 -0.0026724075 -0.0045557744 -0.014816802 0.0044968333 0.016942931 -0.016088339 0.015460124 0.002710041 0.014521812 0.008682684 -0.0075825276 -0.0058627753 0.009255553 0.008374484 0.012136713 -0.011453552 0.0075421804 0.015275156 0.014707917 0.012635329 -0.0030222987
solicitud 0.004340286 0.00014965064 0.0020002637 0.014187444 -0.013395146 -0.009183928 0.0035649892 -0.0034104094 0.008134252 -0.010896821 0.011840224 -0.003773751 0.0074437573 -5.4008546e-05 0.015862308 0.012635568 -0.0046129622 -0.017307276 0.014954254 -0.0068399645 0.010606188 0.0027567341 0.009067477 0.0029450918 0.0065312968 -0.012021601 0.0044469745 0.0028489318 0.014100792 0.005176359
factura -0.016774964 0.010968105 0.0056996327 -0.015402896 -0.014121426 -0.015848082 -0.008835403 -0.0074275336 -0.004783375 0.00769535 0.0051324256 -0.00083709456 -0.013672882 0.0140433945 0.008124354 -0.0037989307 0.013346493 -0.0044395486 -0.0068734353 0.014858269 -0.009010901 -0.009797471 0.010559092 0.015688458 -0.01486928 0.0023670013 -0.003986493 0.010127649 -0.002517467 0.013359824
respuesta 0.006207831 -0.007381995 -0.0072356537 0.009529903 0.012448356 0.010549329 0.0051626023 -0.007770237 0.0027091338 0.002286347 -0.0009442804 0.011840269 0.012594723 0.014169317 0.008120819 0.012284549 -0.0012041681 0.0026667237 -0.0058924314 -0.010576351 0.006722164 0.012254928 -0.011529502 -0.004553538 -0.009285932 0.009542007 -0.005314324 0.000469746 0.0032130245 -0.008902158
verifique -0.011727532 -0.015989732 0.00250117 0.013298153 -0.012584344 -0.0004669665 0.015964823 0.0020486016 -0.0142275775 0.00030967718 0.0013940416 0.01496066 -0.0025272642 -0.009087404 0.0014444094 0.0033895392 0.007017551 -0.010473857 -0.013403261 0.0026942405 0.004458932 -0.008062616 -0.0036672167 0.007592096 0.0045153447 0.0015102117 -0.01665473 0.0063709663 -0.010566897 0.007932794
sea 0.00784789 -0.009846059 0.003237908 0.01427317 -0.0052277865 -0.009476212 -0.006553528 0.008002739 -0.0151455775 0.0053105056 -0.005273162 -0.004099254 0.01579274 0.010864284 -0.01101304 0.0031149907 -0.0059627877 0.01139395 -0.004715574 -0.016014537 -0.0072251954 -0.009092649 0.015405686 0.008879335 0.00053556194 -0.0059183477 -0.00529844 0.0029567026 -0.0025876176 -0.010251333
solucionado 0.01646183 -0.007845912 0.006785996 -0.010147974 0.0035215279 0.015673261 -0.011688837 -0.013150114 -0.007981501 0.0014220714 -0.0020843544 0.0074600503 -0.011635037 -0.01262616 0.014490832 0.008825823 0.017160475 -0.005422406 0.0067443894 0.01160282 -0.012085378 0.0004630488 0.009014399 -0.011753472 -0.0011094552 0.0032967755 0.006329047 -0.012908894 0.0010161488 0.012647117
rg 0.0012227076 0.0069828564 -0.015187794 0.0007731427 0.011181544 0.008586678 0.0028744133 0.015678296 -0.012736386 -0.005108771 0.012203658 -0.0073466306 -0.013794988 0.006705281 -0.008635795 -0.008792054 -0.009492987 0.0084949685 0.0065438966 0.0075099976 0.010532392 -0.0051719546 0.004989205 -0.015716946 -0.0024724195 -0.007735368 -0.009006286 0.012663921 -0.008808316 -0.0056691216
id -0.007684893 -0.0043458403 -0.013090743 -0.0019632964 -0.0017679802 0.0071432246 0.0037145247 -0.009262316 0.0076379078 -0.011852564 0.004591706 -0.01163199 0.016365744 0.010458989 -0.00825745 -0.0030423547 0.007728709 -0.0058438415 0.012221858 -0.0028967678 -8.710331e-05 -0.014597705 0.0076566385 -0.01026571 0.0028181802 -0.014815096 0.012515381 0.0077881906 -0.0025669634 0.0059879445
administrador 0.0027476887 0.0065169586 -0.008108246 -0.008007677 0.009224253 -0.012330072 0.0050370763 6.3791405e-05 -0.011446853 0.010034102 -0.013921723 0.0071039503 0.012990006 -0.0005099759 0.007017936 0.00209263 -0.008419187 -0.0057447334 0.010368098 -0.01396885 0.009618819 0.008431823 0.0029166192 0.01136733 0.0148777785 0.0013258429 0.0026098406 -0.00036180124 0.006435547 -0.00866197
informamos 0.0036941096 -0.0077237217 0.0042583244 -0.0057302793 -0.001675781 -0.015244115 0.000669146 0.004658212 0.0016272123 -0.005854506 0.007479666 0.00018942555 -0.00226655 0.0047024162 -0.0105190845 -0.014902411 0.013957876 -0.007975892 0.007956831 -0.003442952 0.015822468 -0.0017747548 0.0001695819 0.0100491755 -0.010269778 -0.014724702 -0.0042682886 0.008313644 0.0044006323 0.010815455
pago 0.0012486406 -0.004472487 0.011710131 0.0027145795 0.0022075602 0.014495822 0.013716128 5.812262e-05 -0.015593404 0.006340628 0.0075454325 0.014777226 0.010661886 0.0053549837 -0.014151724 0.014895278 -0.003175856 0.0061190873 -0.00973477 -0.004658359 0.009974689 -0.013632217 -0.0034692085 -0.014828423 0.014634506 0.009559727 7.2295225e-05 -0.0048123803 -0.011070915 0.002974194
informacion 0.01454536 0.009352296 0.01175959 0.013469768 0.0104626585 0.0014398692 -0.0047494946 0.0026142583 0.010085459 0.010656919 -0.0045444793 0.0038435746 0.013380645 -0.0039582294 0.011248379 0.013542823 0.011851054 -0.0010015733 -0.004089121 0.013805032 0.0094959615 -0.009178879 -0.015951602 0.016712232 0.0004987519 0.014686554 -0.014848369 -0.014411504 -0.006959696 -0.014819514
fiducia -0.0031174738 0.014956588 -0.007476471 0.005779001 0.008407886 -0.00051526946 0.00077234895 -0.00017361343 -0.012265337 -0.015115795 0.0054160575 -0.004996302 -0.016189914 -0.011233878 0.01277306 0.013627268 0.0091813365 0.009165013 -0.0005173115 -0.00068287796 -0.0062455703 7.85068e-05 -0.010121355 0.010202384 -0.011665729 0.00013904282 -0.014989102 0.015920576 0.0029957346 -0.014133293
presenta 0.011321199 0.0042153727 -0.0067116204 0.012053392 0.005770683 0.0006579576 -0.00888217 -0.008697494 0.0062313243 -0.0063607963 0.016737018 -0.014192918 -0.005789082 -0.00988773 -0.015754826 0.014977604 0.017234514 -0.0010206251 0.014387871 -0.012909721 -0.0072800596 0.0050638365 0.0069897673 0.006717694 0.004161759 -0.013464077 -0.0024489318 -0.009897296 -0.016093325 0.014659626
contrato 0.015027562 -0.006304761 0.01376488 0.009280535 -0.015499693 -0.015993932 -8.903386e-05 -0.0068666204 0.016710715 -0.014959691 0.0020399196 0.01625231 -0.0060145515 -0.00021411799 -0.0037785938 -0.011944384 0.011584171 -0.0062871715 0.004135182 0.0010985251 -0.015965637 0.010029176 -0.0074470905 -0.0050055617 0.01691879 0.008999371 -0.0045248442 -0.009570556 0.006585891 -0.0080021005
documento -0.0128807435 0.005000807 0.011962444 0.00979291 0.011501344 -0.0046174666 -0.005074089 -0.016281875 0.008424303 -0.0022757552 0.0068571884 0.0131441625 -0.0019555977 0.0073380945 -0.007606023 -0.013580003 0.014043561 -0.016507402 0.0048607853 0.004283174 0.009568625 -0.009096932 -0.0047816695 -0.009396828 0.016229462 0.010913819 -0.011955288 0.001871457 0.006676088 -0.010161535
validar -0.016131712 -0.003093795 -0.009717966 -0.00449529 -0.015431198 -0.0029239214 0.0036982722 -0.015332897 0.015556481 -0.015713708 0.009795559 -0.013645375 0.0022280405 0.009223048 -0.0080760615 -0.0050646584 0.011203463 -0.016639765 0.012786755 -0.014600138 -0.012894411 0.00694987 -0.0033362461 0.0022360827 0.0053737424 -0.0164572 0.0023301993 -0.003933614 -0.011588224 -0.010666234
numero -0.012021559 -0.009490709 0.013893675 0.0028139218 -0.008143344 0.0018400382 -0.016539475 0.012021082 0.0057159932 -0.002531548 -0.0074933507 0.0045117075 0.0065351673 -0.008784077 -0.0154502075 -0.0003912728 0.013822481 -0.013720462 0.015462756 -0.015365251 0.00740297 0.005326806 -0.009456799 0.010247824 -0.015837083 0.005432284 -0.011849203 0.016344868 0.012813645 0.0045921165
cuenta 0.0010029994 -0.014572725 -0.005374067 0.006430844 0.011156245 0.0014005448 -0.011861955 -0.008596596 0.010058901 -0.013331484 -0.0071360595 -0.014810289 -0.0024265978 0.006210304 0.013069956 0.014788468 0.007712985 -0.014763777 -0.010674594 0.00783297 -0.014292302 0.00045847223 0.0046269535 -0.006333849 0.011477516 0.012063334 0.008882385 -0.0023502351 -0.0026434134 -0.0055691963
solicitudndo -0.010685197 -0.009777398 0.0010259678 0.008173011 0.012361882 0.0061052293 -0.011623695 0.007241312 0.013718207 -0.0044737547 0.005703636 -0.011187541 -0.0025448657 0.011521459 0.015806194 -0.01356838 0.0117827775 -0.003019784 0.0113231465 0.0014571162 -0.003500808 0.015037001 0.006732448 -0.013741334 0.016221274 0.0002669798 0.010861997 0.0003063898 0.014616972 0.0025230434
embargo 0.0024965317 -0.0069229463 -0.0047232816 -0.011896538 -0.0030433177 0.009207572 -0.0030175906 -0.0011330197 0.009335637 -0.016177487 -0.016218327 0.012143739 -0.008611507 -0.011602094 -4.639475e-06 0.012959665 -0.00469477 -0.0021147663 0.0061013903 0.001908495 0.0033768243 0.012229643 0.012394347 0.014526659 0.0031752766 -0.013466677 0.0006725565 -0.0013402554 0.014838791 0.0011080725
